18 18
10 -0.299387 -0.411524 0.010010 -0.175217 -0.098862 0.168530 0.196403 0.079826 0.333990 -0.114719 0.460339 0.507646 -0.357908 -0.173876 0.288971 -0.347594 0.037573 -0.205028
3 -0.344947 -0.412880 0.030881 -0.155338 -0.089647 0.109418 0.218623 0.102254 0.296995 -0.134789 0.522260 0.504996 -0.379032 -0.221647 0.279042 -0.420955 0.053479 -0.279562
0 -0.338256 -0.458534 0.025973 -0.212454 -0.131575 0.126574 0.189864 0.112897 0.321259 -0.121793 0.522737 0.522773 -0.338098 -0.223387 0.321395 -0.449601 0.074030 -0.263862
2 -0.311235 -0.454132 0.017398 -0.210210 -0.130733 0.133626 0.208516 0.123446 0.309955 -0.116622 0.467504 0.535376 -0.327357 -0.233518 0.296900 -0.437428 0.036062 -0.228088
4 -0.332384 -0.389709 0.011890 -0.155238 -0.068444 0.087140 0.180399 0.130853 0.319207 -0.146880 0.536479 0.542175 -0.335437 -0.216325 0.276466 -0.415978 0.031699 -0.288983
6 -0.295841 -0.392372 0.027580 -0.137404 -0.089939 0.123402 0.187758 0.104446 0.287370 -0.100343 0.457233 0.478094 -0.331387 -0.194441 0.297088 -0.365158 0.006961 -0.255094
7 -0.287608 -0.424173 0.000506 -0.197841 -0.138283 0.161739 0.192333 0.090234 0.340075 -0.103981 0.431930 0.493777 -0.328592 -0.219568 0.318124 -0.375544 0.039286 -0.225809
13 -0.309731 -0.433742 0.029633 -0.221818 -0.124570 0.146038 0.187156 0.078069 0.342980 -0.084643 0.434009 0.499034 -0.324520 -0.223404 0.306192 -0.380041 0.006634 -0.221154
12 -0.342783 -0.436046 0.018931 -0.198756 -0.121234 0.126655 0.163285 0.068529 0.303756 -0.086198 0.475688 0.532204 -0.343682 -0.179059 0.297361 -0.356221 -0.005130 -0.216073
9 -0.343322 -0.451133 0.000494 -0.217394 -0.132716 0.171033 0.183653 0.113228 0.387220 -0.100408 0.461868 0.562218 -0.350699 -0.232289 0.315976 -0.387703 0.010963 -0.193295
17 -0.307210 -0.421264 0.025265 -0.170801 -0.138373 0.107976 0.190168 0.111340 0.337080 -0.076275 0.443133 0.509314 -0.301531 -0.185132 0.270409 -0.358706 0.033912 -0.240999
5 -0.315372 -0.422928 -0.015166 -0.154594 -0.060635 0.092917 0.212582 0.066580 0.322143 -0.136725 0.503162 0.518694 -0.356808 -0.176641 0.282214 -0.393873 0.009659 -0.264758
8 -0.319153 -0.476577 0.039827 -0.200628 -0.152391 0.167846 0.204018 0.107288 0.339777 -0.078740 0.442949 0.514647 -0.364550 -0.209996 0.339341 -0.422721 0.057740 -0.216380
16 -0.328193 -0.416854 0.028402 -0.181758 -0.113690 0.132782 0.208203 0.088395 0.323825 -0.102042 0.452914 0.528401 -0.353291 -0.173547 0.322052 -0.401739 -0.003763 -0.270450
1 -0.351656 -0.469429 0.052545 -0.224970 -0.102757 0.093361 0.182102 0.124274 0.348740 -0.111633 0.444377 0.494534 -0.302787 -0.230527 0.277649 -0.429582 0.066821 -0.252970
11 -0.333468 -0.441382 0.030746 -0.184498 -0.103520 0.132893 0.164463 0.111867 0.343322 -0.119925 0.438639 0.503275 -0.341268 -0.177529 0.319558 -0.392990 0.016006 -0.220573
15 -0.348039 -0.446586 0.037314 -0.210536 -0.099281 0.173351 0.208049 0.058609 0.326605 -0.118586 0.475662 0.515985 -0.348146 -0.178531 0.311398 -0.386708 -0.001448 -0.244315
14 -0.326058 -0.435478 0.048158 -0.204075 -0.102390 0.143446 0.169314 0.088688 0.299168 -0.085622 0.418415 0.509465 -0.342166 -0.200090 0.295740 -0.370743 0.042472 -0.225010
