18 18
0 -0.148862 -0.567141 0.117507 -0.263299 -0.303320 0.085271 0.179571 0.208699 0.421324 0.038573 0.130628 0.490273 -0.093972 -0.166459 0.346542 -0.252528 0.131993 -0.334966
14 -0.085011 -0.605381 0.126132 -0.259964 -0.231601 0.125847 0.202834 0.178975 0.365513 0.082023 0.020452 0.527063 -0.104065 -0.216990 0.356549 -0.229928 0.108070 -0.348878
7 -0.080143 -0.553379 0.080121 -0.240913 -0.288585 0.107789 0.215847 0.210575 0.423672 0.046084 0.058274 0.498319 -0.081405 -0.217697 0.346961 -0.239638 0.108655 -0.338445
16 -0.181438 -0.517659 0.124553 -0.222888 -0.301457 0.027898 0.222602 0.217188 0.457162 0.034879 0.117241 0.482968 -0.119446 -0.138239 0.306248 -0.263070 0.114055 -0.375964
3 -0.206377 -0.532052 0.141717 -0.211079 -0.267395 0.017539 0.214335 0.241033 0.452696 0.014523 0.140064 0.454528 -0.141428 -0.203947 0.272839 -0.272036 0.181436 -0.377693
1 -0.161343 -0.551283 0.132421 -0.244035 -0.251267 0.041843 0.184717 0.227647 0.438458 0.039892 0.071307 0.455952 -0.081499 -0.188204 0.282153 -0.244144 0.147016 -0.328671
2 -0.060314 -0.569084 0.103044 -0.257740 -0.271051 0.118047 0.223911 0.193495 0.326307 0.067739 0.039240 0.517668 -0.063561 -0.216634 0.338183 -0.259867 0.069872 -0.320599
11 -0.195181 -0.548087 0.129408 -0.212292 -0.260368 0.018101 0.164042 0.262288 0.479111 -0.000890 0.119279 0.474022 -0.124491 -0.156030 0.318191 -0.271057 0.133209 -0.344162
15 -0.128586 -0.587071 0.124388 -0.267241 -0.270027 0.126604 0.230225 0.170108 0.395637 0.048043 0.090241 0.505948 -0.086813 -0.180105 0.348356 -0.251232 0.074306 -0.352318
10 -0.132424 -0.550510 0.095378 -0.226714 -0.266592 0.093327 0.212732 0.211268 0.456937 0.024886 0.116494 0.503143 -0.113241 -0.149885 0.297144 -0.205832 0.132283 -0.312293
12 -0.159495 -0.579695 0.116019 -0.253402 -0.292375 0.060302 0.189538 0.193257 0.405646 0.058968 0.127923 0.522881 -0.104622 -0.170005 0.322724 -0.232417 0.092764 -0.336603
4 -0.111491 -0.549538 0.111535 -0.235210 -0.257343 0.070585 0.181335 0.242605 0.415881 0.036113 0.094530 0.514868 -0.071077 -0.210177 0.333978 -0.261564 0.112009 -0.357846
5 -0.081142 -0.561186 0.059611 -0.187663 -0.203744 0.049804 0.232344 0.204461 0.432530 0.023113 0.075712 0.500818 -0.120556 -0.210950 0.333404 -0.277314 0.103532 -0.378969
8 -0.136204 -0.559382 0.122614 -0.221018 -0.299053 0.069597 0.207861 0.220508 0.429323 0.059975 0.093139 0.483297 -0.112489 -0.163181 0.329218 -0.250304 0.130195 -0.330888
17 -0.164575 -0.512327 0.107921 -0.185768 -0.307828 -0.006307 0.206952 0.256705 0.500716 0.046700 0.128045 0.484114 -0.087446 -0.150664 0.265753 -0.224159 0.144368 -0.368983
13 -0.116884 -0.533942 0.108345 -0.236351 -0.290181 0.056663 0.210099 0.207032 0.462909 0.053188 0.099385 0.457594 -0.084772 -0.191669 0.308989 -0.227411 0.104986 -0.335481
6 -0.076700 -0.572402 0.091535 -0.182012 -0.248450 0.083612 0.232595 0.246581 0.422167 0.049123 0.075368 0.499883 -0.104337 -0.228297 0.351895 -0.253746 0.104297 -0.377507
9 -0.162792 -0.510705 0.080749 -0.205817 -0.265287 0.021037 0.188667 0.255107 0.491858 0.020189 0.112731 0.483832 -0.102231 -0.194936 0.277768 -0.251759 0.128141 -0.324126
