18 18
11 -0.503198 -0.560766 0.347359 -0.329485 0.067876 0.194963 0.134184 0.015649 0.293884 -0.158415 0.166797 0.389470 -0.265798 0.036092 0.350377 -0.359619 -0.091501 -0.356508
4 -0.450758 -0.453407 0.342831 -0.229969 0.040098 0.156930 0.206202 0.189359 0.285311 -0.187076 0.183305 0.349205 -0.180450 -0.059570 0.240366 -0.384309 0.024075 -0.417632
1 -0.505463 -0.539480 0.379854 -0.305128 0.050697 0.164465 0.194435 0.116202 0.294455 -0.155889 0.150068 0.363657 -0.208013 -0.037888 0.270556 -0.387590 -0.014970 -0.396464
16 -0.461704 -0.479139 0.343899 -0.271240 0.023419 0.186243 0.220212 0.100351 0.267106 -0.156760 0.145809 0.356422 -0.229725 -0.006686 0.301255 -0.387489 -0.034985 -0.414886
0 -0.483539 -0.536121 0.337431 -0.348346 0.015113 0.226360 0.161958 0.012946 0.265048 -0.146290 0.198467 0.367529 -0.236318 0.011775 0.344760 -0.359262 -0.046220 -0.379203
10 -0.482255 -0.526368 0.335691 -0.293667 0.048493 0.223130 0.206594 0.076243 0.308692 -0.179251 0.190644 0.389373 -0.247858 0.010370 0.289651 -0.348452 -0.024709 -0.372021
14 -0.498602 -0.568755 0.355906 -0.384239 0.075820 0.221551 0.105475 -0.050871 0.235292 -0.114059 0.139841 0.393174 -0.258589 0.019051 0.330704 -0.300249 -0.096208 -0.301015
7 -0.482308 -0.547552 0.345766 -0.311325 0.019508 0.219265 0.227967 0.120482 0.313649 -0.184649 0.169344 0.393324 -0.228880 -0.065742 0.307470 -0.395263 -0.009401 -0.404097
3 -0.493553 -0.511608 0.367172 -0.273607 0.055789 0.183834 0.232323 0.137048 0.247465 -0.193913 0.186777 0.355088 -0.247479 -0.095371 0.248204 -0.415201 0.028171 -0.399945
2 -0.460946 -0.528173 0.343411 -0.283146 0.031118 0.193713 0.249579 0.167741 0.238807 -0.197702 0.168423 0.387790 -0.206835 -0.089371 0.262565 -0.437925 -0.004894 -0.376996
6 -0.486603 -0.532737 0.377026 -0.242082 0.041552 0.203219 0.254496 0.173080 0.289019 -0.186686 0.187947 0.375449 -0.245399 -0.065698 0.301111 -0.417863 -0.001202 -0.448937
12 -0.520205 -0.588260 0.334454 -0.401384 0.047684 0.208926 0.101883 -0.106195 0.241746 -0.097261 0.188900 0.409735 -0.269391 0.052768 0.353188 -0.288595 -0.156234 -0.301303
13 -0.473580 -0.568679 0.339526 -0.421088 0.054631 0.225727 0.131644 -0.121882 0.259266 -0.090717 0.144107 0.360265 -0.252823 0.007280 0.354049 -0.300715 -0.153766 -0.303527
5 -0.433249 -0.524593 0.279582 -0.306358 0.069495 0.188647 0.187027 -0.009754 0.279881 -0.160673 0.186502 0.380002 -0.256069 0.005448 0.314924 -0.356579 -0.070080 -0.357775
9 -0.473937 -0.521543 0.307401 -0.313374 0.050321 0.199546 0.175816 0.054418 0.286158 -0.154754 0.176104 0.390176 -0.237893 -0.042622 0.293735 -0.358494 -0.066643 -0.330943
15 -0.509663 -0.549551 0.359032 -0.361856 0.054076 0.241048 0.166662 -0.037105 0.274026 -0.147672 0.180856 0.367220 -0.249942 0.036823 0.347607 -0.346504 -0.102630 -0.374204
17 -0.474199 -0.507965 0.347999 -0.274062 0.004801 0.162810 0.187743 0.073020 0.301581 -0.115325 0.175276 0.383619 -0.208859 0.020300 0.273569 -0.317220 -0.041889 -0.402823
8 -0.456799 -0.521212 0.358636 -0.254103 0.022498 0.198355 0.227278 0.132025 0.275056 -0.155193 0.155672 0.357531 -0.240849 -0.033976 0.299669 -0.400285 0.012665 -0.395304
