18 18
2 -0.200118 -0.488964 0.188193 -0.268415 -0.208333 -0.102929 0.202779 -0.022431 0.345080 0.192727 0.027110 0.517304 -0.087097 0.045913 0.365045 -0.225634 -0.287845 -0.500388
9 -0.230137 -0.465780 0.166428 -0.257316 -0.186123 -0.092138 0.182801 -0.044285 0.385241 0.180749 0.045105 0.508970 -0.109859 0.057072 0.363939 -0.202779 -0.287200 -0.493030
11 -0.227784 -0.457065 0.180689 -0.224042 -0.159190 -0.093125 0.163906 -0.032563 0.371973 0.145265 0.039142 0.471572 -0.131336 0.097205 0.387239 -0.212002 -0.276566 -0.492931
1 -0.233912 -0.483729 0.208649 -0.272489 -0.179295 -0.114300 0.172920 -0.021287 0.358807 0.186602 0.009896 0.465886 -0.075761 0.045232 0.333087 -0.208340 -0.235346 -0.490164
5 -0.206711 -0.463105 0.147018 -0.233448 -0.149946 -0.097709 0.207767 -0.081822 0.373619 0.152409 0.068237 0.487290 -0.133331 0.085821 0.361619 -0.207709 -0.283761 -0.506104
0 -0.225217 -0.483612 0.191433 -0.273021 -0.206904 -0.082013 0.176766 -0.053298 0.352515 0.188859 0.059989 0.493809 -0.103670 0.073749 0.388027 -0.209016 -0.255538 -0.514821
8 -0.222944 -0.494804 0.215360 -0.238592 -0.201396 -0.088149 0.196747 -0.054398 0.336797 0.220917 0.033233 0.488356 -0.130393 0.079377 0.375119 -0.199734 -0.259870 -0.506848
12 -0.251117 -0.502527 0.205242 -0.270384 -0.206724 -0.111621 0.177730 -0.083840 0.334856 0.223236 0.066901 0.531352 -0.118230 0.089208 0.372939 -0.178222 -0.308914 -0.522766
4 -0.228667 -0.463287 0.193799 -0.246432 -0.174434 -0.120503 0.178670 -0.025702 0.378246 0.175414 0.072720 0.525404 -0.095647 0.070356 0.366148 -0.213403 -0.288193 -0.545112
13 -0.205062 -0.474332 0.193006 -0.270266 -0.197032 -0.095907 0.207070 -0.074823 0.390736 0.201395 0.032209 0.485640 -0.107914 0.064730 0.389930 -0.202054 -0.312707 -0.530603
10 -0.219416 -0.466920 0.171339 -0.230304 -0.166076 -0.066929 0.207894 -0.051519 0.398675 0.158175 0.070515 0.521739 -0.139628 0.114413 0.360540 -0.172574 -0.281197 -0.498390
16 -0.214888 -0.423907 0.180740 -0.218212 -0.165343 -0.091498 0.200740 -0.065344 0.342275 0.170094 0.038374 0.478719 -0.132653 0.110254 0.367002 -0.196982 -0.296034 -0.516392
7 -0.182478 -0.457590 0.159255 -0.268988 -0.214047 -0.071357 0.182505 -0.025152 0.370210 0.173238 0.004741 0.471057 -0.074420 0.018566 0.366080 -0.197961 -0.236818 -0.480504
3 -0.235097 -0.453041 0.199837 -0.242643 -0.177378 -0.095428 0.192923 -0.037131 0.321794 0.163400 0.051947 0.454583 -0.122746 0.028905 0.338543 -0.217252 -0.231166 -0.504827
14 -0.236647 -0.488454 0.226477 -0.272361 -0.170090 -0.093043 0.172580 -0.064463 0.330170 0.207821 0.016686 0.502181 -0.113782 0.070183 0.358783 -0.186097 -0.263937 -0.516331
15 -0.251523 -0.500563 0.213959 -0.283526 -0.188088 -0.073484 0.199927 -0.064727 0.366615 0.175623 0.046383 0.493954 -0.098824 0.075798 0.383029 -0.220205 -0.289355 -0.530508
6 -0.198718 -0.466069 0.190584 -0.209959 -0.177228 -0.088521 0.199843 -0.022469 0.341159 0.184086 0.054989 0.478328 -0.111836 0.058867 0.370708 -0.192798 -0.284171 -0.516431
17 -0.200965 -0.433582 0.174977 -0.208098 -0.197798 -0.105980 0.187239 -0.024820 0.355809 0.184058 0.047669 0.473757 -0.083505 0.078048 0.323864 -0.164046 -0.254017 -0.496657
