18 18
3 -0.319858 -0.467180 0.184013 -0.354029 -0.048737 0.056720 0.271551 0.250172 0.308501 -0.148897 0.110639 0.469582 -0.078444 -0.298604 0.196818 -0.606225 -0.140777 -0.237609
0 -0.292905 -0.491628 0.149714 -0.337338 -0.104099 0.054314 0.280156 0.283161 0.318332 -0.149453 0.156125 0.509317 -0.056326 -0.259712 0.256563 -0.657900 -0.123495 -0.263375
16 -0.273188 -0.421063 0.145813 -0.283381 -0.077189 0.035925 0.285837 0.252634 0.289177 -0.136895 0.106610 0.464320 -0.067335 -0.218521 0.225077 -0.602164 -0.158313 -0.265509
2 -0.235270 -0.442264 0.134985 -0.279065 -0.092215 0.046088 0.300603 0.296562 0.254169 -0.146400 0.119517 0.461825 -0.043651 -0.281316 0.208267 -0.631243 -0.123357 -0.236985
8 -0.247099 -0.449910 0.154418 -0.243029 -0.112931 0.048630 0.309070 0.285594 0.252124 -0.121925 0.129451 0.426780 -0.074735 -0.248177 0.230904 -0.628338 -0.068395 -0.261667
9 -0.334159 -0.495578 0.117752 -0.472309 -0.008885 0.055081 0.154832 0.192118 0.470250 -0.106716 0.025246 0.547657 -0.025913 -0.251025 0.173516 -0.485243 -0.257635 -0.084522
15 -0.313573 -0.475908 0.167600 -0.346248 -0.053847 0.072427 0.275163 0.221821 0.328022 -0.153345 0.128341 0.472880 -0.054940 -0.232286 0.226336 -0.596486 -0.172917 -0.248338
13 -0.315143 -0.512988 0.157409 -0.559046 0.004215 0.055269 0.128487 0.149023 0.503314 -0.077045 -0.014693 0.564055 -0.005339 -0.292355 0.206484 -0.479066 -0.311240 -0.099573
11 -0.346956 -0.499428 0.144332 -0.398448 -0.008305 0.036554 0.158951 0.218565 0.431572 -0.145915 0.057905 0.527238 -0.066290 -0.174513 0.222839 -0.524615 -0.238347 -0.136576
10 -0.373181 -0.556618 0.140013 -0.542660 0.032341 0.085474 0.139152 0.167557 0.542220 -0.134040 0.024449 0.621082 -0.060239 -0.203349 0.195296 -0.472523 -0.299806 -0.052635
1 -0.318303 -0.495904 0.185523 -0.352519 -0.049377 0.017842 0.253420 0.265684 0.340935 -0.127773 0.086495 0.469053 -0.039085 -0.255547 0.195461 -0.603356 -0.128564 -0.235975
4 -0.240450 -0.407634 0.139999 -0.204902 -0.083458 0.026893 0.316528 0.337219 0.239422 -0.185683 0.212452 0.447721 -0.054842 -0.284896 0.228853 -0.676775 -0.062803 -0.335389
17 -0.282848 -0.450953 0.149694 -0.296920 -0.090846 0.021570 0.266370 0.248441 0.334259 -0.106895 0.117734 0.490875 -0.041781 -0.200594 0.191991 -0.545939 -0.148466 -0.247411
5 -0.207035 -0.408239 0.117055 -0.167925 -0.081784 0.031649 0.366400 0.266086 0.192362 -0.177479 0.212300 0.393792 -0.094357 -0.263844 0.234581 -0.666149 -0.043022 -0.359746
12 -0.318350 -0.488901 0.139376 -0.344569 -0.068550 0.034862 0.228077 0.229260 0.324966 -0.133515 0.149519 0.517658 -0.071274 -0.215259 0.220353 -0.566512 -0.178578 -0.202781
14 -0.407072 -0.596615 0.196620 -0.682483 0.060787 0.078280 0.063734 0.124824 0.573352 -0.067963 -0.074785 0.675474 -0.030806 -0.271347 0.197275 -0.449467 -0.353855 -0.033022
6 -0.255464 -0.458820 0.158420 -0.242751 -0.085893 0.059869 0.332660 0.312158 0.264026 -0.160223 0.173495 0.453760 -0.078832 -0.303588 0.248836 -0.657097 -0.106677 -0.316780
7 -0.218279 -0.426161 0.117127 -0.258022 -0.115080 0.066306 0.301208 0.290960 0.281288 -0.150785 0.135877 0.431788 -0.055766 -0.300869 0.235930 -0.606707 -0.077508 -0.268550
