18 18
6 -0.089686 -0.457821 0.198835 0.032253 -0.150320 0.086379 0.366414 0.295736 0.288217 0.068178 0.138720 0.517918 -0.209076 -0.140749 0.432790 -0.367753 -0.153857 -0.557409
17 -0.101532 -0.434537 0.190484 0.007552 -0.169170 0.061732 0.348871 0.271277 0.301934 0.086087 0.113272 0.521218 -0.173126 -0.099480 0.367470 -0.328527 -0.133754 -0.506505
16 -0.091537 -0.422894 0.172004 0.005495 -0.136609 0.072442 0.373560 0.255312 0.289438 0.056805 0.094455 0.528196 -0.201762 -0.079449 0.394777 -0.380074 -0.165853 -0.509350
0 -0.135026 -0.451910 0.222729 -0.045558 -0.179684 0.072937 0.293211 0.255702 0.258013 0.084971 0.135271 0.494665 -0.192528 -0.130902 0.419653 -0.366138 -0.087889 -0.517022
8 -0.057608 -0.465709 0.135215 0.011173 -0.146237 0.115374 0.418932 0.240239 0.298944 0.053903 0.092544 0.545961 -0.212193 -0.063749 0.390983 -0.392094 -0.174443 -0.439719
7 -0.065570 -0.435423 0.144649 -0.005606 -0.160495 0.096778 0.358012 0.258837 0.312612 0.052786 0.100034 0.517916 -0.182733 -0.128718 0.409457 -0.353505 -0.150178 -0.496284
2 -0.064570 -0.463721 0.151926 -0.009917 -0.149831 0.095672 0.406738 0.282003 0.291706 0.045981 0.110890 0.586225 -0.187140 -0.113283 0.390252 -0.407950 -0.193071 -0.477149
10 -0.068308 -0.457183 0.134369 0.008411 -0.122495 0.124533 0.420821 0.253902 0.332693 0.022544 0.122149 0.570411 -0.218974 -0.067405 0.379840 -0.369167 -0.171320 -0.464058
5 -0.079413 -0.465163 0.135230 0.004966 -0.108082 0.077587 0.398134 0.229426 0.314733 0.027220 0.136660 0.552448 -0.217573 -0.086181 0.401019 -0.399167 -0.180298 -0.508189
14 -0.123809 -0.434445 0.223317 -0.025156 -0.123236 0.072060 0.294566 0.251217 0.256874 0.077047 0.082584 0.497434 -0.201517 -0.116215 0.386863 -0.341062 -0.102364 -0.497697
11 -0.145818 -0.470529 0.233194 -0.002036 -0.145173 0.058105 0.311930 0.300352 0.304896 0.060099 0.111154 0.528539 -0.221092 -0.118724 0.439822 -0.386478 -0.135981 -0.545225
3 -0.149941 -0.423021 0.256381 -0.012386 -0.155904 0.057398 0.306763 0.260286 0.235253 0.082950 0.122689 0.455922 -0.214717 -0.169435 0.391002 -0.351395 -0.092458 -0.546048
13 -0.121652 -0.439272 0.260119 -0.046287 -0.175045 0.050057 0.287913 0.235246 0.269586 0.120020 0.096778 0.452314 -0.184776 -0.174630 0.430673 -0.334859 -0.141757 -0.555831
15 -0.088027 -0.452459 0.144827 -0.020151 -0.120344 0.127485 0.402594 0.202169 0.296110 0.028942 0.106697 0.519276 -0.189813 -0.055936 0.377278 -0.371400 -0.204034 -0.445906
1 -0.147089 -0.453259 0.234324 -0.036529 -0.143728 0.034048 0.303003 0.272460 0.289124 0.081552 0.095825 0.465592 -0.169499 -0.141325 0.370711 -0.355435 -0.095271 -0.515657
4 -0.109294 -0.406234 0.197950 0.004661 -0.128929 0.047332 0.298791 0.286299 0.278713 0.053485 0.138112 0.502634 -0.172478 -0.129864 0.387425 -0.357991 -0.127405 -0.526086
9 -0.100204 -0.466702 0.149254 -0.008708 -0.145294 0.091013 0.390031 0.279867 0.342071 0.052645 0.126198 0.585294 -0.205067 -0.125813 0.398379 -0.397922 -0.178260 -0.492333
12 -0.148098 -0.445639 0.224468 -0.035554 -0.173662 0.050609 0.272084 0.217713 0.239137 0.107849 0.133401 0.491311 -0.196471 -0.126129 0.400493 -0.304251 -0.152779 -0.506712
