18 18
7 -0.172857 -0.632147 0.078064 -0.144784 -0.051953 0.073671 0.198158 0.009447 0.661346 0.106853 0.033719 0.647821 -0.313178 0.085814 0.507302 -0.063053 -0.252946 -0.452495
12 -0.268486 -0.706485 0.111142 -0.180255 -0.039715 0.003103 0.169896 -0.026686 0.650149 0.141479 0.093559 0.724254 -0.323580 0.137952 0.469510 -0.051717 -0.284708 -0.458897
11 -0.201992 -0.644792 0.142089 -0.133311 -0.033186 0.077479 0.192815 0.034086 0.634342 0.090810 0.021433 0.610913 -0.347502 0.081362 0.560598 -0.122789 -0.285084 -0.479259
5 -0.196429 -0.659880 0.070520 -0.147496 -0.016842 0.041497 0.213539 -0.024271 0.665577 0.097630 0.074658 0.672398 -0.330590 0.113741 0.501926 -0.089422 -0.275308 -0.478270
16 -0.201553 -0.645734 0.125139 -0.157443 -0.042729 0.073104 0.215956 -0.012169 0.649192 0.126257 0.017504 0.665745 -0.339375 0.127212 0.540631 -0.087423 -0.300110 -0.495254
10 -0.214446 -0.629095 0.097234 -0.139054 -0.009506 0.044055 0.188421 0.001283 0.621480 0.098587 0.069282 0.654765 -0.319767 0.128477 0.423709 -0.042451 -0.225090 -0.413435
4 -0.236449 -0.651683 0.107033 -0.146930 -0.002925 -0.001257 0.154834 0.020132 0.662081 0.115682 0.091313 0.710528 -0.297412 0.131072 0.453201 -0.059187 -0.253233 -0.472800
1 -0.261568 -0.735443 0.107613 -0.183084 -0.017020 -0.013023 0.173078 0.003348 0.746661 0.140584 0.055814 0.742673 -0.301030 0.163992 0.478774 -0.058340 -0.267729 -0.479638
3 -0.936376 -0.900230 1.500407 -0.148454 0.131392 0.085923 1.116303 0.421116 -0.869757 -0.072390 0.113610 0.233084 -1.330227 -1.494287 0.069293 -1.121856 0.488095 -1.276044
2 -0.878531 -0.881033 1.472704 -0.155250 0.121801 0.086999 1.116053 0.456473 -0.927304 -0.083488 0.093780 0.241437 -1.269824 -1.509907 0.042749 -1.145688 0.459465 -1.212536
6 -0.163172 -0.592785 0.172221 -0.129781 -0.038316 0.124301 0.229900 0.013852 0.516464 0.104332 0.024585 0.525077 -0.331715 0.012998 0.524143 -0.113595 -0.263844 -0.474381
13 -0.164820 -0.601437 0.164988 -0.171760 -0.046084 0.088764 0.217682 -0.012785 0.564740 0.127950 0.007660 0.557585 -0.310436 0.023358 0.510492 -0.103205 -0.280313 -0.472784
9 -0.209402 -0.644758 0.085495 -0.155983 -0.031580 0.054356 0.190534 0.012663 0.677852 0.112574 0.054945 0.680553 -0.319389 0.087736 0.499236 -0.080940 -0.284195 -0.450310
8 -0.197038 -0.631696 0.122225 -0.130611 -0.050482 0.050933 0.203287 0.008160 0.590606 0.128927 0.037707 0.618718 -0.329919 0.091937 0.478033 -0.094559 -0.231293 -0.436345
15 -0.214923 -0.607076 0.161996 -0.173538 -0.023507 0.099394 0.202974 -0.027799 0.548821 0.098986 0.037574 0.563064 -0.299835 0.077146 0.479776 -0.099476 -0.267656 -0.447272
17 -0.208831 -0.604845 0.123528 -0.112557 -0.056944 0.021334 0.207644 0.030488 0.586760 0.123275 0.061056 0.626935 -0.305473 0.084000 0.425582 -0.069794 -0.219513 -0.457897
14 -0.218174 -0.647991 0.134706 -0.167623 -0.014316 0.040144 0.154782 -0.010039 0.613812 0.142092 0.014212 0.658342 -0.310798 0.131292 0.459322 -0.045576 -0.230634 -0.430325
0 -0.208093 -0.666404 0.136893 -0.184778 -0.060383 0.087467 0.193855 0.000109 0.634608 0.119812 0.056301 0.650267 -0.328967 0.086614 0.545342 -0.101623 -0.254689 -0.482216
