18 18
3 -0.124509 -0.407071 0.200792 -0.022155 -0.086312 0.093216 0.406273 0.096439 0.278835 -0.032595 0.138565 0.262936 -0.260241 -0.189689 0.465388 -0.363546 -0.240332 -0.617588
5 -0.106216 -0.436533 0.132598 -0.022120 -0.005599 0.076485 0.421195 0.089575 0.370161 -0.083668 0.159299 0.313086 -0.256220 -0.149111 0.434819 -0.376306 -0.196473 -0.608650
2 -0.088968 -0.434417 0.166291 -0.038894 -0.075016 0.076308 0.398995 0.126280 0.292500 -0.041380 0.134829 0.327165 -0.218187 -0.174003 0.465624 -0.392732 -0.263153 -0.593434
1 -0.148724 -0.456221 0.199390 -0.056686 -0.014998 0.046858 0.389495 0.142379 0.368760 -0.060220 0.112352 0.311273 -0.219972 -0.175980 0.416436 -0.392761 -0.166998 -0.620211
16 -0.114304 -0.372024 0.188077 -0.032250 -0.083212 0.062879 0.359131 0.078923 0.255274 -0.003591 0.094889 0.276959 -0.229746 -0.119102 0.471583 -0.354582 -0.282588 -0.601431
10 -0.097558 -0.432497 0.141490 -0.017332 -0.031976 0.111642 0.422664 0.121868 0.376571 -0.080799 0.154760 0.329674 -0.255213 -0.146234 0.431647 -0.343014 -0.194772 -0.583183
9 -0.105247 -0.436489 0.143038 -0.030131 -0.072694 0.099661 0.410607 0.137826 0.374059 -0.048707 0.143220 0.329006 -0.232714 -0.206072 0.470185 -0.374054 -0.256729 -0.600151
8 -0.112073 -0.442233 0.197060 -0.023822 -0.042964 0.079750 0.389801 0.132447 0.314413 -0.033660 0.114362 0.316451 -0.257952 -0.164780 0.478951 -0.410405 -0.194232 -0.624963
6 -0.110912 -0.422147 0.209414 -0.007604 -0.083757 0.087900 0.382294 0.110564 0.261798 -0.004448 0.129892 0.267167 -0.242019 -0.164707 0.510587 -0.363060 -0.290212 -0.633598
7 -0.080841 -0.430926 0.141280 -0.037210 -0.097093 0.107778 0.421694 0.114812 0.373606 -0.043357 0.124844 0.306280 -0.227352 -0.200391 0.475355 -0.350967 -0.227022 -0.611082
17 -0.107740 -0.408729 0.174369 -0.016210 -0.098191 0.056311 0.387698 0.108495 0.314792 -0.003308 0.141811 0.318473 -0.211643 -0.137595 0.436713 -0.331329 -0.245586 -0.607538
13 -0.088039 -0.397017 0.200216 -0.047478 -0.098176 0.067809 0.363657 0.074670 0.266069 0.014399 0.105356 0.244328 -0.205372 -0.175868 0.471536 -0.345076 -0.285087 -0.591322
14 -0.132137 -0.445617 0.208765 -0.053439 -0.031151 0.090543 0.386954 0.115444 0.317944 -0.038720 0.109315 0.332607 -0.258886 -0.176588 0.470436 -0.382467 -0.208760 -0.636593
12 -0.144929 -0.450059 0.212242 -0.062905 -0.110559 0.063003 0.361639 0.070822 0.254200 0.022274 0.151836 0.321038 -0.236398 -0.154906 0.505947 -0.357368 -0.319118 -0.626258
4 -0.106458 -0.383426 0.161260 -0.015127 -0.021328 0.054380 0.349919 0.150904 0.328065 -0.068384 0.148670 0.308542 -0.206604 -0.169635 0.430435 -0.374551 -0.200712 -0.605566
11 -0.113411 -0.427639 0.170240 -0.013889 -0.071653 0.081072 0.369830 0.119233 0.323690 -0.052106 0.126488 0.280345 -0.240019 -0.144506 0.475077 -0.356441 -0.258635 -0.572056
15 -0.131547 -0.431995 0.191221 -0.052059 -0.050061 0.106324 0.395511 0.090340 0.315503 -0.051995 0.138832 0.289930 -0.223235 -0.153246 0.461554 -0.373628 -0.245118 -0.607149
0 -0.121928 -0.441265 0.193239 -0.059713 -0.098301 0.091266 0.375119 0.095911 0.286279 -0.019811 0.155597 0.302135 -0.232532 -0.159647 0.507286 -0.387955 -0.246057 -0.627338
