18 18
4 -0.269003 -0.381508 0.188829 -0.321996 0.023793 -0.095095 0.029146 0.014534 0.350725 0.001891 0.434825 0.444152 0.009713 -0.208335 0.317059 -0.261280 -0.246987 -0.570330
14 -0.258576 -0.411305 0.188675 -0.331006 -0.000454 -0.056888 0.031886 -0.024731 0.311672 0.040076 0.359760 0.437887 -0.017731 -0.181988 0.310502 -0.216505 -0.223399 -0.504093
15 -0.300296 -0.356818 0.191332 -0.352104 0.042723 -0.000755 0.104954 -0.105474 0.321127 -0.017382 0.423073 0.373097 -0.028065 -0.177535 0.307313 -0.275261 -0.246422 -0.547197
5 -0.259916 -0.429942 0.143431 -0.330528 0.017432 -0.063410 0.094439 -0.052579 0.379695 -0.001137 0.435508 0.460695 -0.037470 -0.190942 0.342455 -0.270037 -0.256265 -0.575544
6 -0.271569 -0.474926 0.197598 -0.329208 -0.024050 -0.086532 0.055764 0.023317 0.371073 0.041872 0.457309 0.498361 -0.011825 -0.226694 0.371809 -0.242180 -0.286888 -0.603648
0 -0.278125 -0.479857 0.214650 -0.366256 -0.080976 -0.090819 -0.001146 0.025957 0.351131 0.087007 0.459493 0.487276 0.028458 -0.218941 0.357091 -0.239288 -0.195552 -0.572966
12 -0.267405 -0.470900 0.182551 -0.336696 -0.065480 -0.113969 -0.001570 0.013300 0.320180 0.072029 0.430277 0.506745 0.004683 -0.189880 0.342316 -0.194498 -0.284606 -0.524775
16 -0.271437 -0.408676 0.189652 -0.327454 -0.016656 -0.077889 0.073975 -0.019240 0.355653 0.034486 0.404660 0.463568 -0.019389 -0.176306 0.345503 -0.260405 -0.272326 -0.584733
17 -0.233140 -0.481028 0.184403 -0.274365 -0.111182 -0.156153 0.019447 0.096643 0.385312 0.112264 0.411079 0.538321 0.035845 -0.181529 0.321303 -0.184250 -0.241726 -0.563198
10 -0.246389 -0.417453 0.161937 -0.315718 -0.009835 -0.047162 0.067700 -0.007077 0.364789 0.009688 0.417615 0.467078 -0.023508 -0.170396 0.318675 -0.208307 -0.246948 -0.525980
1 -0.272717 -0.443015 0.204417 -0.324392 -0.019019 -0.124729 0.030073 0.042388 0.369542 0.058292 0.381918 0.450889 0.026379 -0.218922 0.297728 -0.246439 -0.212405 -0.551624
3 -0.290941 -0.387556 0.213532 -0.324367 0.010197 -0.066369 0.069741 -0.022875 0.312928 0.011744 0.425581 0.410455 -0.035544 -0.219100 0.311626 -0.271111 -0.221938 -0.571583
7 -0.209438 -0.480102 0.157802 -0.325812 -0.095146 -0.103510 0.012225 0.068312 0.384591 0.070382 0.389712 0.527822 0.023705 -0.236999 0.373514 -0.196402 -0.257169 -0.551874
11 -0.231740 -0.569487 0.182600 -0.271760 -0.122871 -0.196419 -0.077355 0.199196 0.370377 0.079851 0.356215 0.575857 0.026835 -0.189464 0.401570 -0.208234 -0.306104 -0.495389
8 -0.260329 -0.446364 0.203827 -0.319560 -0.036908 -0.068147 0.062046 -0.004180 0.347820 0.067587 0.405091 0.453341 -0.021016 -0.199574 0.340760 -0.252812 -0.213582 -0.551020
9 -0.281645 -0.394763 0.157655 -0.335792 0.006220 -0.051497 0.072665 -0.024724 0.375368 0.009707 0.422868 0.453534 -0.019230 -0.215460 0.313241 -0.265874 -0.252066 -0.535107
13 -0.245109 -0.410709 0.194457 -0.346371 -0.022644 -0.087365 0.053161 -0.020979 0.356551 0.049598 0.394553 0.433009 0.008881 -0.222011 0.333155 -0.244690 -0.271727 -0.560606
2 -0.225615 -0.560849 0.187781 -0.335173 -0.106110 -0.161003 -0.010732 0.141674 0.368032 0.077546 0.404323 0.603837 0.039714 -0.241211 0.397826 -0.248866 -0.330084 -0.552033
