18 18
5 -0.213508 -0.484709 0.049847 -0.103049 -0.066402 0.054344 0.268679 0.216394 0.364189 -0.096422 0.291344 0.612192 -0.269782 -0.220600 0.375735 -0.420807 -0.160913 -0.425765
9 -0.243833 -0.456675 0.057209 -0.106722 -0.071520 0.062427 0.229638 0.230407 0.355968 -0.086076 0.272954 0.592079 -0.246129 -0.223680 0.334081 -0.375755 -0.174594 -0.367558
4 -0.222902 -0.440277 0.109476 -0.094879 -0.067191 0.022839 0.195983 0.269347 0.311122 -0.078683 0.266229 0.556881 -0.221124 -0.259959 0.353532 -0.406974 -0.136918 -0.423962
8 -0.207091 -0.465941 0.116724 -0.096897 -0.098490 0.053400 0.230532 0.233926 0.297179 -0.046380 0.225264 0.535849 -0.250662 -0.229796 0.367936 -0.393866 -0.123551 -0.383874
3 -0.236355 -0.442363 0.123571 -0.091892 -0.071861 0.051122 0.234603 0.236344 0.272762 -0.089736 0.245602 0.504530 -0.253975 -0.250290 0.327888 -0.402178 -0.096828 -0.404842
2 -0.173195 -0.448464 0.077282 -0.101740 -0.091453 0.060247 0.245499 0.247156 0.280627 -0.081159 0.232040 0.539428 -0.215257 -0.248890 0.342872 -0.409915 -0.127794 -0.378419
10 -0.260541 -0.468293 0.082382 -0.102673 -0.048764 0.080660 0.232921 0.211151 0.359860 -0.106306 0.293847 0.614049 -0.284541 -0.169823 0.345659 -0.354843 -0.188132 -0.371436
11 -0.284064 -0.492337 0.117607 -0.108893 -0.063369 0.036191 0.191492 0.228846 0.336592 -0.085462 0.268634 0.598988 -0.275576 -0.186152 0.389777 -0.396574 -0.213885 -0.400740
0 -0.217347 -0.485309 0.081386 -0.128019 -0.113559 0.082081 0.248286 0.227091 0.317109 -0.083265 0.281332 0.551373 -0.232970 -0.237429 0.372337 -0.412323 -0.106301 -0.411338
7 -0.194500 -0.467472 0.084568 -0.106609 -0.106638 0.074103 0.237839 0.259030 0.334517 -0.087685 0.236874 0.552525 -0.240677 -0.272933 0.382253 -0.401664 -0.114334 -0.412901
16 -0.233489 -0.459704 0.097800 -0.105363 -0.092029 0.053271 0.252116 0.230091 0.329354 -0.075950 0.256172 0.587915 -0.258764 -0.211137 0.383862 -0.415172 -0.179206 -0.438273
1 -0.214019 -0.452811 0.098425 -0.107020 -0.065458 0.034164 0.229221 0.238364 0.310247 -0.079162 0.206704 0.486888 -0.197438 -0.225611 0.302285 -0.383614 -0.087031 -0.376931
14 -0.258073 -0.487258 0.147047 -0.134077 -0.066031 0.045187 0.189967 0.221534 0.294783 -0.045737 0.233456 0.597430 -0.267055 -0.228584 0.370164 -0.378604 -0.166007 -0.405986
13 -0.219258 -0.441189 0.130103 -0.135697 -0.079628 0.023089 0.196617 0.182522 0.291799 -0.028459 0.220615 0.523042 -0.228220 -0.236590 0.347892 -0.351487 -0.199224 -0.383393
12 -0.265585 -0.465386 0.126115 -0.140234 -0.096531 0.017968 0.170854 0.179049 0.268952 -0.024068 0.263902 0.576665 -0.243653 -0.202011 0.344731 -0.337219 -0.202023 -0.370785
15 -0.277052 -0.479685 0.095312 -0.126429 -0.056281 0.097987 0.244740 0.178670 0.339045 -0.104256 0.287226 0.583913 -0.262819 -0.169947 0.362185 -0.382432 -0.207390 -0.391101
6 -0.215205 -0.472775 0.103622 -0.081313 -0.080186 0.060181 0.242467 0.250062 0.309090 -0.070075 0.259629 0.549189 -0.251186 -0.248530 0.370648 -0.391359 -0.151346 -0.418533
17 -0.233937 -0.473901 0.096231 -0.091071 -0.114954 0.042997 0.250192 0.243447 0.354600 -0.053506 0.275120 0.598790 -0.233378 -0.209605 0.344899 -0.364503 -0.158426 -0.426057
