18 18
0 -0.489217 -0.462509 0.348207 -0.219104 -0.089698 -0.097226 0.072241 0.113715 0.245795 0.089066 0.268369 0.467371 -0.135229 -0.137962 0.275866 -0.247481 -0.195992 -0.545471
3 -0.493101 -0.420723 0.362682 -0.183118 -0.059127 -0.118157 0.088668 0.114558 0.212799 0.078316 0.242742 0.406697 -0.155160 -0.158026 0.224053 -0.232439 -0.184178 -0.530410
4 -0.471826 -0.412470 0.341314 -0.181608 -0.053921 -0.144957 0.056926 0.154621 0.257047 0.076164 0.276667 0.482740 -0.114151 -0.151071 0.245596 -0.254804 -0.206188 -0.572442
12 -0.487383 -0.444110 0.333696 -0.207449 -0.068714 -0.123449 0.052495 0.085765 0.247312 0.109171 0.279705 0.467970 -0.146873 -0.137839 0.253238 -0.189997 -0.266114 -0.521710
7 -0.450760 -0.434197 0.311417 -0.206732 -0.077310 -0.111528 0.086413 0.130845 0.296035 0.071091 0.228057 0.457133 -0.122694 -0.177027 0.268315 -0.241342 -0.212152 -0.555853
2 -0.468669 -0.446936 0.353068 -0.207052 -0.075628 -0.114275 0.098357 0.129040 0.206072 0.086216 0.229384 0.471251 -0.129406 -0.147595 0.241754 -0.258357 -0.213426 -0.528001
10 -0.446703 -0.422180 0.315826 -0.177541 -0.046152 -0.089472 0.091651 0.116288 0.272785 0.065232 0.253040 0.447961 -0.152080 -0.123730 0.230739 -0.201049 -0.207280 -0.496288
1 -0.469982 -0.433026 0.342644 -0.204708 -0.039969 -0.147520 0.063286 0.133182 0.269786 0.082319 0.213500 0.436010 -0.106335 -0.142815 0.220518 -0.241112 -0.196358 -0.525370
11 -0.460685 -0.418201 0.319689 -0.162481 -0.019389 -0.146592 0.036677 0.166079 0.309883 0.042113 0.242744 0.435901 -0.130925 -0.138441 0.266019 -0.245174 -0.251101 -0.526071
9 -0.469029 -0.413744 0.306599 -0.190415 -0.049024 -0.124056 0.059903 0.133025 0.281152 0.077358 0.251748 0.460037 -0.125799 -0.163279 0.231890 -0.221428 -0.246258 -0.503608
17 -0.449890 -0.428650 0.326740 -0.172730 -0.096829 -0.135187 0.092640 0.131103 0.276947 0.116421 0.250009 0.492502 -0.112666 -0.120005 0.229034 -0.207778 -0.209074 -0.555691
16 -0.430747 -0.382723 0.314951 -0.180544 -0.056128 -0.110043 0.088240 0.093809 0.225318 0.078057 0.194797 0.410277 -0.131124 -0.100198 0.235506 -0.224455 -0.213331 -0.503648
6 -0.432329 -0.413086 0.322181 -0.155398 -0.056848 -0.099650 0.084526 0.129711 0.238657 0.088606 0.244330 0.417517 -0.136457 -0.156928 0.250675 -0.211850 -0.220939 -0.524979
14 -0.479437 -0.446848 0.368993 -0.209405 -0.054559 -0.108338 0.063673 0.110479 0.225112 0.110222 0.218585 0.465734 -0.144087 -0.141818 0.241707 -0.217872 -0.190080 -0.528485
5 -0.474849 -0.469193 0.317134 -0.209182 -0.046228 -0.127624 0.112477 0.094520 0.283786 0.060623 0.262348 0.485624 -0.150528 -0.136838 0.273355 -0.278211 -0.228677 -0.580315
15 -0.500347 -0.457277 0.372117 -0.220506 -0.060862 -0.101633 0.092231 0.099391 0.249719 0.088948 0.243732 0.458340 -0.129231 -0.132805 0.256933 -0.245957 -0.232373 -0.556687
8 -0.474991 -0.472410 0.369411 -0.200348 -0.094686 -0.107928 0.098970 0.119497 0.234454 0.121191 0.218325 0.460370 -0.149981 -0.141869 0.268678 -0.259484 -0.186238 -0.539353
13 -0.448190 -0.423536 0.349285 -0.209651 -0.056496 -0.135847 0.076552 0.116699 0.278110 0.101562 0.238512 0.432980 -0.116491 -0.184951 0.255834 -0.234384 -0.263497 -0.554869
