18 18
0 -0.092112 -0.373708 0.209245 -0.476857 -0.225858 0.032368 0.217121 -0.123409 0.156734 0.022747 0.216540 0.035715 0.018354 -0.418174 0.471202 -0.535042 -0.108194 -0.544410
4 -0.066181 -0.328649 0.187303 -0.449758 -0.185541 -0.007118 0.209684 -0.088668 0.195417 0.002306 0.216778 0.043245 0.058948 -0.446821 0.423771 -0.522482 -0.121789 -0.554092
15 -0.107534 -0.369423 0.213543 -0.466822 -0.196388 0.036820 0.240885 -0.142451 0.169070 0.012023 0.209079 0.043320 0.022662 -0.398584 0.439498 -0.518082 -0.143575 -0.544491
1 -0.098001 -0.349946 0.197138 -0.435686 -0.171742 -0.014290 0.198542 -0.087575 0.179813 0.015517 0.156373 0.032547 0.034721 -0.396368 0.387567 -0.489232 -0.101244 -0.493013
5 -0.062527 -0.361319 0.147619 -0.431907 -0.172486 -0.000527 0.241572 -0.140206 0.193069 0.003745 0.201952 0.059192 0.000658 -0.395329 0.427739 -0.509018 -0.135819 -0.524321
16 -0.093970 -0.333888 0.200588 -0.410480 -0.197237 0.014459 0.227090 -0.120511 0.147873 0.024418 0.171265 0.050011 -0.018145 -0.353460 0.448656 -0.499266 -0.147973 -0.533320
12 -0.133191 -0.388762 0.209064 -0.448666 -0.219895 0.002569 0.184472 -0.142880 0.131308 0.054218 0.215754 0.088498 -0.008495 -0.355777 0.443082 -0.466135 -0.172638 -0.499889
2 -0.052224 -0.341684 0.176706 -0.438709 -0.204159 0.013362 0.225809 -0.087401 0.151411 0.015479 0.175610 0.058626 0.044729 -0.420594 0.409266 -0.508020 -0.136312 -0.493210
11 -0.116974 -0.358616 0.210748 -0.420905 -0.178394 0.000303 0.177363 -0.085531 0.167640 -0.000733 0.174353 0.043576 0.000639 -0.368200 0.444505 -0.505065 -0.139371 -0.502855
13 -0.056994 -0.360316 0.215555 -0.490116 -0.214568 -0.000419 0.235168 -0.124664 0.185321 0.038453 0.174576 0.009589 0.048268 -0.475710 0.448510 -0.535719 -0.141478 -0.555138
3 -0.114122 -0.349942 0.229581 -0.429239 -0.190976 0.009305 0.228229 -0.109661 0.129321 0.013726 0.196765 0.014719 -0.015788 -0.418525 0.418791 -0.519003 -0.090679 -0.537909
6 -0.087521 -0.360241 0.203449 -0.396441 -0.191704 0.023930 0.221355 -0.094055 0.154989 0.024542 0.199918 0.040213 -0.004801 -0.387272 0.447488 -0.489248 -0.135294 -0.528294
17 -0.074721 -0.364787 0.195906 -0.432542 -0.226046 -0.010208 0.249753 -0.104429 0.209240 0.042979 0.209627 0.067283 0.038582 -0.405864 0.421503 -0.495992 -0.122401 -0.569062
7 -0.038395 -0.325176 0.150523 -0.431897 -0.208207 0.032252 0.219823 -0.101625 0.195579 0.007990 0.169037 0.035064 0.032556 -0.429589 0.428534 -0.480649 -0.105392 -0.503182
8 -0.099203 -0.384648 0.224233 -0.422550 -0.215499 0.021761 0.222451 -0.111735 0.150896 0.045643 0.179597 0.043486 -0.022760 -0.376845 0.467953 -0.518391 -0.119335 -0.521978
9 -0.084522 -0.341015 0.156479 -0.438322 -0.200172 0.017989 0.213764 -0.096495 0.197028 0.014030 0.198760 0.073314 0.023848 -0.424163 0.419675 -0.498387 -0.141606 -0.494469
10 0.005737 -0.002757 -0.014246 0.006132 0.011972 0.026533 0.015869 -0.001352 0.023172 -0.019827 0.015226 0.016952 -0.017475 0.021206 -0.010712 0.022008 0.009309 0.018390
14 -0.011733 -0.016220 0.026785 -0.021827 0.014521 0.009558 -0.015588 -0.009492 -0.015071 0.014490 -0.026914 0.011819 -0.010079 -0.001944 0.000728 0.009641 0.015475 -0.000266
