18 18
5 -0.177376 -0.537091 0.066836 -0.230855 -0.176937 0.086660 0.326702 0.000313 0.291530 -0.028647 0.290591 0.472724 -0.134039 -0.052901 0.367777 -0.402471 -0.086828 -0.449561
7 -0.166459 -0.565430 0.077671 -0.265152 -0.251425 0.149187 0.352174 0.033513 0.303408 -0.009943 0.260584 0.489644 -0.119992 -0.091502 0.391703 -0.388797 -0.069427 -0.432784
6 -0.159871 -0.523118 0.091715 -0.207780 -0.191375 0.117108 0.313107 0.031574 0.258993 -0.014356 0.277059 0.447538 -0.126202 -0.072220 0.380029 -0.368114 -0.087447 -0.445689
2 -0.176986 -0.541620 0.105802 -0.254071 -0.227392 0.090131 0.335659 0.055037 0.240581 0.007495 0.250245 0.484968 -0.093748 -0.087192 0.336698 -0.422464 -0.073469 -0.407261
0 -0.188826 -0.530497 0.098124 -0.266986 -0.235131 0.114793 0.300749 0.026340 0.256765 0.001717 0.280211 0.457777 -0.097901 -0.068761 0.362388 -0.387827 -0.051079 -0.411175
3 -0.204925 -0.509230 0.129998 -0.226913 -0.204625 0.096041 0.316780 0.037415 0.234613 -0.006618 0.264303 0.426599 -0.130731 -0.094988 0.345316 -0.398832 -0.046203 -0.447874
10 -0.178811 -0.548701 0.080898 -0.244051 -0.203391 0.142600 0.342089 0.020268 0.300164 -0.031964 0.300635 0.500825 -0.140120 -0.048525 0.366706 -0.371728 -0.071946 -0.431063
8 -0.187522 -0.561533 0.130150 -0.235842 -0.238140 0.107227 0.337617 0.060509 0.261804 0.031695 0.239998 0.472885 -0.122524 -0.076849 0.372701 -0.428721 -0.041693 -0.417455
17 -0.199367 -0.540031 0.126818 -0.220593 -0.254911 0.063839 0.338025 0.064009 0.286355 0.043486 0.264686 0.487722 -0.089149 -0.058682 0.324194 -0.377410 -0.052129 -0.452462
12 -0.215792 -0.563918 0.109135 -0.267798 -0.232653 0.102853 0.308642 0.004008 0.258799 0.017115 0.301380 0.505428 -0.123281 -0.058434 0.365075 -0.368831 -0.099374 -0.435293
1 -0.221513 -0.556919 0.139966 -0.259216 -0.212893 0.067553 0.314976 0.068828 0.283548 0.013049 0.238147 0.462123 -0.090346 -0.085904 0.332823 -0.414291 -0.042988 -0.434441
11 -0.208824 -0.582668 0.100274 -0.245437 -0.199945 0.106948 0.314099 0.043052 0.317654 -0.039582 0.291184 0.516794 -0.147603 -0.047813 0.427945 -0.431358 -0.101311 -0.472727
16 -0.185960 -0.497856 0.107800 -0.234460 -0.223987 0.100591 0.318129 0.035726 0.259082 0.010550 0.233841 0.463145 -0.115587 -0.049376 0.359701 -0.385029 -0.081854 -0.428969
15 -0.208616 -0.539055 0.128752 -0.259280 -0.213489 0.125471 0.326579 0.020423 0.257944 0.001447 0.264324 0.460856 -0.103109 -0.062971 0.362414 -0.400628 -0.085071 -0.433697
13 -0.153095 -0.514559 0.098651 -0.256966 -0.211787 0.103772 0.317199 -0.000037 0.275636 0.012220 0.256737 0.449985 -0.103160 -0.086128 0.367998 -0.371149 -0.102624 -0.439569
14 -0.201012 -0.553563 0.137928 -0.268378 -0.205133 0.108932 0.309592 0.029538 0.251869 0.021772 0.230833 0.481966 -0.120080 -0.077769 0.358007 -0.392839 -0.048355 -0.431552
9 -0.204674 -0.539491 0.089914 -0.254205 -0.226963 0.102324 0.323220 0.059611 0.300489 0.005764 0.274036 0.511430 -0.108256 -0.095265 0.355845 -0.420050 -0.079327 -0.414963
4 -0.187975 -0.487090 0.102644 -0.231543 -0.202397 0.077248 0.280195 0.072414 0.276132 -0.015589 0.279878 0.469369 -0.082781 -0.082081 0.341297 -0.390182 -0.057741 -0.436266
