18 18
1 -0.300780 -0.536688 0.376207 -0.320950 -0.210189 -0.024808 0.286300 0.180853 0.490882 0.120089 0.222766 0.374478 0.131106 -0.241353 0.038622 -0.145661 0.050372 -0.474312
12 -0.253972 -0.450057 0.310896 -0.308294 -0.286414 -0.082045 0.214164 0.028776 0.404934 0.235964 0.297526 0.440517 0.097361 -0.235141 0.110958 -0.061068 -0.108120 -0.583485
3 -0.252630 -0.441110 0.342415 -0.274904 -0.221840 -0.031536 0.304603 0.130534 0.426814 0.134567 0.275223 0.360917 0.093065 -0.309616 0.062592 -0.148511 0.029334 -0.574845
4 -0.209382 -0.415987 0.313319 -0.255437 -0.201438 -0.051887 0.264580 0.151847 0.440892 0.118621 0.299003 0.365011 0.142940 -0.274111 0.067007 -0.112645 -0.001771 -0.559864
15 -0.257395 -0.470039 0.332883 -0.296802 -0.209501 0.000276 0.299364 0.109626 0.448265 0.123492 0.273312 0.372981 0.118784 -0.244401 0.071787 -0.129328 -0.014877 -0.531790
2 -0.221788 -0.480219 0.320202 -0.304676 -0.242788 -0.003872 0.292100 0.173167 0.427037 0.124203 0.224645 0.391560 0.140383 -0.254483 0.048776 -0.145448 0.011210 -0.441146
14 -0.210611 -0.411575 0.320392 -0.281937 -0.222741 -0.063683 0.231399 0.041923 0.382746 0.207289 0.239964 0.381336 0.092908 -0.270199 0.100072 -0.079956 -0.063992 -0.593505
13 -0.198680 -0.419882 0.311921 -0.295829 -0.274750 -0.075227 0.267968 0.050684 0.449446 0.220385 0.275198 0.391623 0.127613 -0.288658 0.108980 -0.096464 -0.084163 -0.634599
5 -0.187306 -0.424387 0.258472 -0.252358 -0.189653 -0.052285 0.289387 0.069570 0.431784 0.128443 0.279547 0.372493 0.090721 -0.253324 0.093153 -0.126944 -0.045992 -0.561780
7 -0.191525 -0.440044 0.282968 -0.282208 -0.241785 -0.009318 0.295512 0.129364 0.467905 0.129005 0.264274 0.382696 0.127943 -0.292765 0.089863 -0.112444 0.001505 -0.542520
17 -0.237135 -0.450128 0.314682 -0.268005 -0.271425 -0.056236 0.277081 0.107545 0.464065 0.191447 0.274735 0.424277 0.120377 -0.238707 0.077518 -0.084683 -0.035675 -0.581564
11 -0.246939 -0.428565 0.296949 -0.256902 -0.216514 -0.035448 0.212954 0.138531 0.436555 0.116795 0.246776 0.382800 0.091935 -0.205713 0.109352 -0.120892 -0.032935 -0.504950
0 -0.263295 -0.495872 0.330154 -0.327470 -0.262336 0.006489 0.263779 0.139786 0.466540 0.133956 0.285064 0.399078 0.127819 -0.239470 0.095905 -0.126778 0.028793 -0.508067
6 -0.223130 -0.457945 0.325685 -0.254213 -0.212284 -0.018176 0.291864 0.134760 0.436691 0.136484 0.269772 0.353159 0.107722 -0.273304 0.086622 -0.113358 -0.009267 -0.550185
10 -0.246573 -0.498355 0.320789 -0.296729 -0.218493 0.014223 0.315200 0.154401 0.509263 0.104380 0.281291 0.412590 0.107212 -0.230641 0.048751 -0.105241 0.025966 -0.483657
9 -0.264266 -0.494406 0.309816 -0.313581 -0.235434 -0.016279 0.299848 0.155220 0.516716 0.135147 0.277235 0.431920 0.127796 -0.279960 0.056639 -0.131301 -0.012112 -0.504897
8 -0.222366 -0.489048 0.331210 -0.266856 -0.214317 0.004264 0.311875 0.173874 0.439627 0.119929 0.213501 0.348810 0.103576 -0.250671 0.061112 -0.155728 0.056755 -0.448498
16 -0.229833 -0.426744 0.318890 -0.279900 -0.245709 -0.041073 0.276395 0.100941 0.420781 0.163192 0.244601 0.393361 0.097693 -0.241565 0.109011 -0.127764 -0.046945 -0.572029
