18 18
13 -0.223530 -0.531533 0.315027 -0.415263 -0.116719 -0.171483 0.152024 -0.035503 0.267319 0.188544 0.045562 0.266079 0.027894 -0.390062 0.171696 -0.275401 -0.071403 -0.484444
12 -0.250282 -0.527487 0.296210 -0.383878 -0.131836 -0.174637 0.136434 0.009183 0.231137 0.173672 0.079871 0.304883 0.007021 -0.406539 0.150506 -0.271165 -0.049077 -0.455880
14 -0.275865 -0.594759 0.357231 -0.453466 -0.098281 -0.172260 0.151123 -0.035358 0.269317 0.187977 0.043146 0.313162 0.003370 -0.390757 0.171674 -0.283212 -0.036691 -0.517040
17 -0.254667 -0.561670 0.323798 -0.395837 -0.137852 -0.195771 0.174361 0.002177 0.298480 0.193566 0.073824 0.321012 0.027886 -0.382139 0.149672 -0.266453 -0.040461 -0.525675
1 -0.269404 -0.555423 0.346607 -0.411523 -0.092384 -0.199100 0.155216 0.038615 0.281085 0.159749 0.043641 0.274096 0.032656 -0.442201 0.138293 -0.316438 -0.005076 -0.517884
7 -0.218314 -0.523257 0.300350 -0.398607 -0.128059 -0.155689 0.162104 0.050003 0.269338 0.143336 0.042346 0.285522 0.020222 -0.484373 0.167838 -0.311111 -0.009444 -0.501606
6 -0.250360 -0.562317 0.343722 -0.387359 -0.111018 -0.173755 0.176831 0.038734 0.261106 0.171423 0.069296 0.290117 0.007364 -0.463855 0.172321 -0.312970 -0.027504 -0.538914
11 -0.271762 -0.568391 0.341502 -0.403830 -0.101296 -0.184253 0.139081 0.019628 0.276350 0.149225 0.053563 0.289288 -0.001686 -0.395255 0.188727 -0.317910 -0.041616 -0.507161
2 -0.204177 -0.506999 0.303165 -0.381087 -0.129814 -0.166191 0.175362 0.066241 0.208161 0.148805 0.042108 0.287838 0.028200 -0.479586 0.134735 -0.328654 -0.019070 -0.460126
3 -0.262935 -0.500987 0.349553 -0.378029 -0.105217 -0.171038 0.174568 0.032869 0.199704 0.142790 0.064013 0.240369 -0.011234 -0.461768 0.117530 -0.314701 0.025381 -0.495405
15 -0.257967 -0.557537 0.331181 -0.420995 -0.107801 -0.145138 0.175727 0.003848 0.265289 0.148975 0.060844 0.292811 0.020395 -0.424616 0.175329 -0.321526 -0.053890 -0.508577
5 -0.249427 -0.584569 0.297346 -0.418301 -0.087161 -0.182607 0.188252 -0.040714 0.314819 0.157138 0.079931 0.316605 -0.005176 -0.391246 0.187550 -0.318801 -0.062228 -0.540726
4 -0.245623 -0.516499 0.317845 -0.386468 -0.090521 -0.189992 0.130102 0.049978 0.270211 0.143407 0.078188 0.298268 0.034253 -0.432115 0.154807 -0.307601 -0.026941 -0.512160
9 -0.234740 -0.519117 0.278224 -0.388340 -0.116428 -0.166078 0.164007 0.033772 0.284537 0.158900 0.059000 0.307566 0.018705 -0.445110 0.146824 -0.303940 -0.043535 -0.463229
8 -0.217386 -0.530875 0.317401 -0.370525 -0.129368 -0.150983 0.174916 0.039713 0.243731 0.169428 0.034343 0.272641 -0.002937 -0.440530 0.174414 -0.326952 -0.003418 -0.475499
0 -0.253219 -0.553835 0.320450 -0.431476 -0.121462 -0.156623 0.143299 -0.022555 0.260361 0.164072 0.081546 0.280049 0.017716 -0.387415 0.182920 -0.295811 -0.017133 -0.501147
10 0.005737 -0.002757 -0.014246 0.006132 0.011972 0.026533 0.015869 -0.001352 0.023172 -0.019827 0.015226 0.016952 -0.017475 0.021206 -0.010712 0.022008 0.009309 0.018390
16 -0.003066 0.009981 0.006043 0.000869 -0.007381 -0.001770 0.017455 -0.006904 0.000948 0.004908 -0.016488 0.011175 -0.012361 0.022003 0.021550 -0.015661 -0.025305 -0.027720
