18 18
0 -0.447017 -0.509738 0.247737 -0.200208 -0.039339 -0.046470 0.017634 0.234046 0.320783 -0.114544 0.239005 0.395577 -0.142139 -0.021471 0.359032 -0.397962 -0.087600 -0.365264
8 -0.470288 -0.577047 0.280216 -0.192374 -0.083719 -0.049384 0.021427 0.246868 0.363891 -0.037269 0.183918 0.441295 -0.162627 -0.013538 0.383281 -0.367333 -0.122329 -0.364774
1 -0.481586 -0.554648 0.274030 -0.208482 -0.027044 -0.081755 0.023078 0.257208 0.369161 -0.098805 0.206232 0.409576 -0.142145 -0.045579 0.348980 -0.409220 -0.098392 -0.385430
12 -0.509860 -0.583557 0.274750 -0.217803 -0.079024 -0.066109 -0.006906 0.217270 0.355865 -0.041686 0.224562 0.467056 -0.154472 0.007175 0.365677 -0.334269 -0.159633 -0.355740
6 -0.439433 -0.533915 0.260442 -0.157708 -0.058393 -0.041038 0.033973 0.238668 0.343673 -0.057392 0.191792 0.386311 -0.148451 -0.026712 0.355613 -0.332485 -0.128101 -0.366331
17 -0.454761 -0.538800 0.261512 -0.164122 -0.083691 -0.073896 0.024525 0.251816 0.400426 -0.040125 0.188679 0.431676 -0.121489 0.016628 0.325861 -0.301865 -0.117393 -0.374368
2 -0.431440 -0.495677 0.251044 -0.190475 -0.021943 -0.061880 0.034851 0.262802 0.299131 -0.118799 0.214197 0.415701 -0.123535 -0.043815 0.330602 -0.419450 -0.133882 -0.352994
13 -0.438263 -0.554145 0.272338 -0.221498 -0.102633 -0.058960 0.013722 0.215053 0.391560 -0.007833 0.161895 0.427450 -0.121576 -0.028533 0.380136 -0.323671 -0.168270 -0.372557
10 -0.466852 -0.581143 0.257031 -0.196877 -0.093238 -0.021345 0.004597 0.244053 0.437116 -0.030379 0.166321 0.470646 -0.152091 0.033192 0.364643 -0.277193 -0.139968 -0.328203
11 -0.491482 -0.541487 0.278966 -0.174322 -0.030892 -0.072289 -0.011640 0.273133 0.382024 -0.097883 0.177438 0.437323 -0.155596 0.025198 0.374119 -0.384788 -0.141180 -0.367483
9 -0.465738 -0.553627 0.246193 -0.208113 -0.100041 -0.042893 -0.004231 0.243931 0.408072 -0.020695 0.164510 0.461214 -0.128874 -0.022615 0.365478 -0.317335 -0.161625 -0.335307
3 -0.480000 -0.473729 0.282321 -0.163429 0.026701 -0.071526 0.056627 0.248531 0.270634 -0.158353 0.254221 0.364378 -0.183504 -0.055840 0.313681 -0.456399 -0.077198 -0.396987
7 -0.415082 -0.532717 0.216753 -0.192023 -0.090030 -0.023838 0.024043 0.227408 0.382053 -0.064011 0.173271 0.392950 -0.134919 -0.047769 0.360247 -0.309165 -0.108096 -0.340045
14 -0.462000 -0.559876 0.289729 -0.225060 -0.085408 -0.040277 -0.013748 0.214083 0.355777 0.002851 0.136303 0.453474 -0.136787 -0.002881 0.363277 -0.295975 -0.141208 -0.350114
15 -0.462871 -0.510109 0.274362 -0.203668 -0.024188 -0.035942 0.028576 0.212614 0.326863 -0.097782 0.207721 0.394266 -0.132664 -0.007674 0.343984 -0.381169 -0.141764 -0.368196
5 -0.469145 -0.520991 0.238443 -0.179387 0.033610 -0.077920 0.062161 0.233306 0.327091 -0.166008 0.269749 0.417022 -0.176504 -0.035434 0.352986 -0.469758 -0.123727 -0.409226
4 -0.466123 -0.457458 0.265276 -0.167147 0.026542 -0.085924 0.012069 0.277264 0.291192 -0.154506 0.269074 0.401021 -0.137543 -0.050468 0.327242 -0.449994 -0.107371 -0.400103
16 -0.476343 -0.528449 0.277722 -0.185836 -0.056917 -0.062903 0.036557 0.245726 0.368122 -0.076669 0.184379 0.441844 -0.157627 0.015765 0.383383 -0.389024 -0.160294 -0.405136
