18 18
1 -0.462762 -0.544699 0.272688 -0.582629 -0.144981 0.073639 0.126020 -0.018144 0.615497 0.122836 0.051335 0.481078 0.096390 -0.107654 0.168043 -0.182340 -0.259343 -0.234409
12 -0.404772 -0.519203 0.204440 -0.512524 -0.248404 0.076095 0.066126 -0.078985 0.498729 0.174575 0.089051 0.514373 0.039203 -0.055151 0.242437 -0.091987 -0.305413 -0.211661
15 -0.405818 -0.486093 0.225968 -0.514522 -0.167941 0.131566 0.126897 -0.069822 0.528696 0.111206 0.071562 0.447706 0.055691 -0.072022 0.212368 -0.148296 -0.288346 -0.216434
7 -0.360834 -0.505487 0.178319 -0.513469 -0.260636 0.107329 0.094190 -0.043992 0.571473 0.154071 0.047011 0.509241 0.053606 -0.113614 0.280481 -0.122658 -0.303565 -0.229721
13 -0.395602 -0.498966 0.239068 -0.562814 -0.187043 0.093853 0.128943 -0.061762 0.581849 0.149803 0.052262 0.463852 0.087328 -0.119562 0.205761 -0.152671 -0.303320 -0.232683
11 -0.392435 -0.503859 0.203453 -0.476852 -0.207084 0.086221 0.065776 -0.032217 0.533459 0.124069 0.058477 0.487483 0.022150 -0.053959 0.269677 -0.137203 -0.292265 -0.213030
17 -0.364961 -0.490970 0.199145 -0.463519 -0.259697 0.073080 0.107744 -0.041706 0.534571 0.179198 0.069961 0.504035 0.056720 -0.057295 0.222867 -0.086900 -0.282757 -0.238784
16 -0.410712 -0.480040 0.230649 -0.528929 -0.182207 0.094248 0.124061 -0.051132 0.545474 0.130203 0.055240 0.480475 0.055972 -0.063744 0.218817 -0.163291 -0.295438 -0.240839
2 -0.379899 -0.497656 0.210763 -0.534650 -0.203854 0.100491 0.114902 -0.028946 0.534161 0.129964 0.058274 0.498454 0.077862 -0.108106 0.220363 -0.166922 -0.301196 -0.208341
9 -0.418548 -0.474000 0.207092 -0.542891 -0.131708 0.106728 0.132171 -0.019185 0.596169 0.096658 0.062034 0.468127 0.083813 -0.136221 0.168174 -0.189382 -0.285598 -0.188541
14 -0.408816 -0.529471 0.242202 -0.545396 -0.218013 0.101845 0.076204 -0.060262 0.532313 0.169856 0.044431 0.518310 0.044070 -0.075530 0.242659 -0.111584 -0.270934 -0.230455
10 -0.417573 -0.490674 0.223139 -0.535113 -0.113436 0.143275 0.154023 -0.035886 0.601616 0.075616 0.077019 0.470826 0.057795 -0.079658 0.162351 -0.156824 -0.260042 -0.188785
8 -0.378655 -0.497643 0.221174 -0.500163 -0.188093 0.120276 0.134986 -0.034980 0.552277 0.134339 0.047054 0.462910 0.044517 -0.095746 0.230888 -0.171141 -0.272295 -0.206760
0 -0.392279 -0.518608 0.211303 -0.540565 -0.263865 0.096936 0.067087 -0.059491 0.519068 0.166183 0.091511 0.504934 0.058321 -0.072366 0.265232 -0.120809 -0.261363 -0.232368
4 -0.422196 -0.479378 0.234488 -0.544574 -0.157775 0.086337 0.103133 -0.013257 0.591162 0.111658 0.089927 0.490641 0.099283 -0.114282 0.192085 -0.171314 -0.281298 -0.241352
3 -0.024675 0.005665 0.025365 0.004601 0.007865 -0.001883 0.014761 -0.000233 -0.026227 -0.010111 0.011993 -0.020661 -0.026950 -0.026588 -0.012274 -0.019090 0.026092 -0.020014
5 0.004065 -0.024114 -0.027650 -0.000619 0.020703 -0.008521 0.024223 -0.023969 0.025914 -0.018771 0.021210 0.020548 -0.020024 0.006829 0.014933 -0.023795 -0.013973 -0.021943
6 0.007299 -0.006988 0.006429 0.025394 0.003018 0.008962 0.013628 0.017139 -0.003415 0.002961 0.009307 -0.005691 -0.008572 -0.012634 0.015137 0.000585 -0.007433 -0.019036
