18 18
3 -0.422363 -0.553281 0.372190 -0.340214 0.000291 0.067671 0.195487 -0.043315 0.284560 0.009101 0.208661 0.233638 -0.285375 -0.211433 0.277452 -0.311871 0.071782 -0.452585
0 -0.420943 -0.587916 0.347987 -0.412415 -0.021734 0.084040 0.162793 -0.015984 0.354243 -0.009461 0.197565 0.285362 -0.212731 -0.143273 0.299437 -0.333112 0.108621 -0.426157
2 -0.353217 -0.531627 0.322976 -0.345096 -0.014380 0.067426 0.181756 -0.008627 0.287903 0.010214 0.174339 0.271613 -0.229604 -0.203928 0.286108 -0.326832 0.047349 -0.408980
1 -0.418962 -0.561751 0.359389 -0.366320 0.008876 0.038770 0.159057 0.003253 0.336547 -0.000465 0.163632 0.246337 -0.197050 -0.161411 0.241117 -0.301846 0.087707 -0.411879
11 -0.426401 -0.578370 0.357123 -0.356447 0.004435 0.056118 0.144109 0.004966 0.346729 -0.011935 0.175309 0.268934 -0.245528 -0.157903 0.308026 -0.323212 0.047487 -0.417262
10 -0.419159 -0.598540 0.345493 -0.374022 0.008588 0.099537 0.199306 -0.021808 0.375123 -0.018941 0.207024 0.295621 -0.256476 -0.147266 0.277443 -0.291254 0.083178 -0.417741
13 -0.357746 -0.508737 0.335602 -0.347052 -0.015262 0.056095 0.160452 -0.053681 0.285452 0.043245 0.163962 0.220210 -0.231114 -0.216326 0.274397 -0.277828 0.022987 -0.403550
12 -0.416341 -0.564803 0.337894 -0.363315 -0.026620 0.057845 0.147046 -0.068474 0.268803 0.041576 0.214045 0.280558 -0.259848 -0.178589 0.283906 -0.263810 0.018078 -0.398255
9 -0.363459 -0.501961 0.288438 -0.323553 -0.000293 0.067755 0.176834 -0.032221 0.321987 0.020008 0.186712 0.263464 -0.261594 -0.242549 0.281453 -0.306909 0.031538 -0.401564
15 -0.407216 -0.556074 0.350594 -0.358397 0.007438 0.092525 0.208059 -0.060579 0.318006 -0.002222 0.199858 0.256562 -0.255169 -0.177909 0.302516 -0.329144 0.042129 -0.466013
16 -0.373090 -0.507393 0.327542 -0.323011 -0.010400 0.064909 0.208336 -0.045972 0.306110 0.013563 0.166338 0.257504 -0.261247 -0.158967 0.305716 -0.324127 0.034159 -0.466659
6 -0.357511 -0.539321 0.340807 -0.309534 -0.007217 0.079714 0.206836 -0.040619 0.288183 0.040609 0.199463 0.244392 -0.284799 -0.250717 0.327463 -0.320978 0.043457 -0.483595
14 -0.374618 -0.536305 0.352225 -0.351097 0.005085 0.072742 0.160485 -0.055104 0.271973 0.041356 0.152024 0.257240 -0.269261 -0.205598 0.302396 -0.300332 0.060873 -0.431989
8 -0.351626 -0.540732 0.342451 -0.310519 -0.018284 0.075123 0.216155 -0.064436 0.283264 0.053717 0.180153 0.230832 -0.300210 -0.227869 0.328701 -0.337867 0.061166 -0.463662
5 -0.387187 -0.569517 0.310879 -0.347728 0.021389 0.056131 0.219049 -0.076373 0.342847 -0.009050 0.213727 0.282083 -0.292500 -0.185504 0.325913 -0.355453 0.034419 -0.486288
4 -0.385906 -0.526336 0.347407 -0.336225 0.010852 0.053088 0.167496 -0.014407 0.320378 0.004904 0.214619 0.260955 -0.249544 -0.218125 0.304108 -0.336191 0.071629 -0.478395
17 -0.378635 -0.534655 0.336140 -0.313918 -0.030833 0.049083 0.187423 -0.010137 0.326303 0.033887 0.187874 0.272320 -0.219394 -0.158751 0.255391 -0.267655 0.072757 -0.435626
7 -0.348742 -0.535050 0.312095 -0.338450 -0.023852 0.083770 0.198591 -0.042330 0.324106 0.016186 0.173993 0.252075 -0.262701 -0.234699 0.326092 -0.318516 0.058862 -0.459158
