18 18
8 -0.327158 -0.435677 0.172574 -0.247901 0.146301 0.336411 0.329507 0.066209 0.471367 -0.120351 0.086932 0.514410 -0.361071 -0.049414 0.155743 -0.224246 -0.054827 -0.114391
0 -0.278663 -0.386911 0.062654 -0.232408 0.148476 0.304076 0.247834 0.087612 0.469232 -0.214141 0.230505 0.504824 -0.336262 -0.096143 0.176456 -0.240329 -0.033928 -0.098487
11 -0.311335 -0.425932 0.062125 -0.226734 0.193026 0.325787 0.271501 0.129931 0.600988 -0.240066 0.170327 0.587266 -0.403992 -0.089060 0.191103 -0.238191 -0.090975 -0.063101
14 -0.395341 -0.463273 0.238185 -0.334179 0.164206 0.378641 0.330854 0.020341 0.456508 -0.098642 0.030184 0.565406 -0.371466 -0.034404 0.169382 -0.213041 -0.085654 -0.156128
1 -0.358066 -0.432814 0.175309 -0.278814 0.174048 0.302651 0.299592 0.077607 0.494667 -0.149391 0.096704 0.514546 -0.332497 -0.067046 0.136273 -0.234933 -0.055972 -0.131319
2 -0.296512 -0.401249 0.118515 -0.249438 0.158842 0.313904 0.303661 0.088111 0.449612 -0.168930 0.125304 0.529836 -0.333943 -0.087268 0.149577 -0.243061 -0.080199 -0.105330
10 -0.238159 -0.345663 0.007472 -0.216998 0.181940 0.361505 0.270271 0.093901 0.582054 -0.233589 0.175920 0.556263 -0.381848 -0.086259 0.133490 -0.155143 -0.076511 0.010776
4 -0.281020 -0.372540 0.029759 -0.183005 0.230608 0.256632 0.242541 0.134336 0.500667 -0.273454 0.283932 0.508534 -0.345924 -0.137298 0.148924 -0.263951 -0.018081 -0.123705
15 -0.393603 -0.428522 0.261170 -0.332513 0.137372 0.393116 0.348159 -0.007735 0.454350 -0.085316 0.012522 0.537275 -0.344101 0.008066 0.165266 -0.205219 -0.132207 -0.158808
17 -0.366345 -0.430706 0.214337 -0.285337 0.120621 0.345609 0.344802 0.054431 0.500638 -0.092230 0.064930 0.575144 -0.339361 -0.016422 0.141920 -0.197084 -0.094539 -0.161008
5 -0.273045 -0.419536 -0.004451 -0.176480 0.242489 0.243941 0.289368 0.092546 0.511572 -0.284270 0.297780 0.519388 -0.375859 -0.125947 0.167146 -0.286895 -0.038714 -0.146660
9 -0.325251 -0.402012 0.078733 -0.262411 0.185801 0.344105 0.294687 0.085478 0.548947 -0.201140 0.162618 0.574705 -0.374568 -0.106464 0.147863 -0.225718 -0.085994 -0.071472
3 -0.313510 -0.399496 0.071242 -0.196834 0.227900 0.285660 0.303853 0.105388 0.479145 -0.268224 0.270413 0.505048 -0.398503 -0.147852 0.146242 -0.287698 -0.012138 -0.147435
6 -0.254131 -0.395128 0.001824 -0.136030 0.233975 0.253643 0.276572 0.138406 0.476722 -0.285882 0.326282 0.495505 -0.368816 -0.159689 0.166482 -0.273951 -0.030888 -0.144844
7 -0.265944 -0.413498 0.011839 -0.222666 0.174762 0.330630 0.288494 0.117782 0.577461 -0.250868 0.222815 0.567008 -0.385480 -0.145796 0.188300 -0.233826 -0.048492 -0.086445
16 -0.394774 -0.440084 0.245807 -0.313642 0.136264 0.358610 0.360768 0.025798 0.458243 -0.085417 0.014195 0.557570 -0.365555 -0.005110 0.191560 -0.239189 -0.121720 -0.198437
13 -0.256228 -0.385745 0.042006 -0.246414 0.175416 0.326434 0.282877 0.096764 0.589625 -0.215323 0.181579 0.557272 -0.372478 -0.137448 0.170345 -0.223666 -0.097956 -0.055405
12 -0.323487 -0.443063 0.041854 -0.245754 0.186792 0.311602 0.264887 0.079830 0.539148 -0.233876 0.271674 0.597892 -0.397698 -0.100890 0.171677 -0.217264 -0.077541 -0.079823
