18 18
2 -0.266932 -0.522312 0.440516 -0.267876 0.114398 -0.077828 0.214810 0.213952 0.301504 -0.018128 -0.031399 0.462097 -0.102573 -0.242032 0.233928 -0.443250 -0.097012 -0.569702
14 -0.291970 -0.519132 0.440389 -0.276683 0.132592 -0.074363 0.171634 0.164411 0.299484 0.007547 -0.050367 0.447738 -0.132606 -0.213216 0.239445 -0.403511 -0.068828 -0.568182
15 -0.274365 -0.465670 0.409961 -0.251184 0.121093 -0.040102 0.197107 0.155122 0.288100 -0.028721 0.004061 0.411980 -0.103945 -0.191742 0.227116 -0.400993 -0.100377 -0.552353
17 -0.272875 -0.498014 0.414340 -0.234179 0.092698 -0.096865 0.215364 0.198937 0.353007 0.007760 -0.015558 0.473321 -0.109056 -0.207227 0.224602 -0.400495 -0.085709 -0.605477
9 -0.263008 -0.465311 0.358037 -0.244741 0.115941 -0.070212 0.178077 0.192267 0.329684 -0.024748 -0.022365 0.447395 -0.114130 -0.232007 0.218618 -0.405843 -0.094424 -0.508763
1 -0.282730 -0.503372 0.413709 -0.256327 0.117227 -0.096624 0.170441 0.179409 0.312207 -0.004409 -0.044392 0.386255 -0.093755 -0.204320 0.207369 -0.387612 -0.057422 -0.519169
13 -0.231624 -0.464348 0.390936 -0.249348 0.099001 -0.077014 0.189259 0.166092 0.312901 0.004757 -0.038791 0.398499 -0.099691 -0.237777 0.230752 -0.392393 -0.096172 -0.537298
5 -0.237881 -0.467287 0.333867 -0.225691 0.123565 -0.075042 0.196075 0.137248 0.313005 -0.027462 -0.008861 0.410376 -0.128970 -0.192368 0.225890 -0.390312 -0.089296 -0.516435
0 -0.267078 -0.486506 0.389350 -0.261060 0.097207 -0.057726 0.169934 0.167919 0.292601 -0.019678 0.011148 0.411738 -0.110146 -0.211959 0.245618 -0.414839 -0.052374 -0.545703
4 -0.275484 -0.463676 0.415599 -0.238732 0.137845 -0.095551 0.166277 0.213991 0.320718 -0.036448 0.015734 0.442339 -0.090067 -0.228045 0.222721 -0.421078 -0.071274 -0.600131
8 -0.242785 -0.449675 0.384480 -0.208915 0.094415 -0.054941 0.181306 0.169493 0.266362 -0.000755 -0.021328 0.380927 -0.123580 -0.191461 0.223722 -0.391969 -0.054426 -0.512513
3 -0.287606 -0.460925 0.425173 -0.240620 0.128975 -0.072572 0.202679 0.180423 0.280206 -0.031354 -0.004889 0.407666 -0.136680 -0.239917 0.215083 -0.432601 -0.061050 -0.578338
10 -0.256938 -0.460036 0.388715 -0.225134 0.132563 -0.044856 0.199118 0.181917 0.313924 -0.044415 0.008591 0.432912 -0.128338 -0.182922 0.212917 -0.384500 -0.066637 -0.542889
7 -0.240755 -0.485763 0.374158 -0.254283 0.090722 -0.055411 0.188797 0.193833 0.345125 -0.021994 -0.031029 0.435907 -0.101934 -0.247038 0.250952 -0.394868 -0.073223 -0.552474
16 -0.260357 -0.463937 0.388499 -0.241118 0.101606 -0.079075 0.203935 0.171938 0.319070 -0.008052 -0.044343 0.438874 -0.125544 -0.193197 0.250277 -0.411040 -0.110482 -0.561603
6 -0.254415 -0.483839 0.401343 -0.214239 0.113280 -0.064184 0.191863 0.194504 0.298869 -0.009074 -0.011311 0.409172 -0.115346 -0.222142 0.235716 -0.386416 -0.082775 -0.552578
12 -0.300024 -0.514861 0.419747 -0.272251 0.105237 -0.085944 0.171553 0.159296 0.296286 0.000152 0.011871 0.456722 -0.117192 -0.206736 0.233522 -0.395119 -0.100651 -0.563360
11 -0.280376 -0.483896 0.393719 -0.225398 0.126390 -0.081137 0.164618 0.197437 0.319047 -0.040704 -0.026062 0.420213 -0.130076 -0.191033 0.249545 -0.416935 -0.091379 -0.534364
