18 18
15 -0.447613 -0.519912 0.356670 -0.360274 -0.001744 -0.063764 0.086931 0.164648 0.335101 -0.010627 0.123245 0.343920 -0.053263 -0.279757 0.142950 -0.343759 0.041135 -0.375757
12 -0.432277 -0.570242 0.352516 -0.361916 -0.041358 -0.081989 0.080057 -0.040359 0.038837 0.032756 0.208457 0.330687 -0.187762 -0.173197 0.285330 -0.361407 -0.106298 -0.430490
6 -0.423323 -0.635277 0.381685 -0.348323 -0.025586 -0.034976 0.137843 -0.100105 -0.090578 0.021773 0.233685 0.305918 -0.283172 -0.186796 0.417908 -0.458784 -0.171492 -0.531546
1 -0.461434 -0.495056 0.334432 -0.353301 0.008507 -0.129942 0.074898 0.394600 0.696007 -0.012270 0.052188 0.383319 0.080568 -0.387199 -0.034786 -0.281811 0.242252 -0.310772
3 -0.441000 -0.590594 0.389095 -0.350118 -0.017125 -0.055872 0.129364 -0.143650 -0.144369 0.008015 0.232883 0.255461 -0.298665 -0.169458 0.383424 -0.455541 -0.156753 -0.516289
13 -0.438570 -0.618054 0.397203 -0.397645 -0.034525 -0.077229 0.115451 -0.074764 0.025153 0.039488 0.196627 0.302086 -0.215208 -0.214530 0.355562 -0.433147 -0.139244 -0.507961
16 -0.443702 -0.623688 0.393797 -0.374904 -0.026606 -0.056017 0.135159 -0.138032 -0.119611 0.017430 0.214060 0.322795 -0.301904 -0.144293 0.439785 -0.495985 -0.208564 -0.558409
11 -0.440254 -0.585389 0.366628 -0.333739 -0.003788 -0.075976 0.081393 -0.021035 0.019460 -0.010503 0.185429 0.313753 -0.229209 -0.163461 0.342841 -0.430841 -0.125984 -0.461107
2 -0.394636 -0.555852 0.366536 -0.357428 -0.026589 -0.074814 0.102320 0.071580 0.091981 0.014621 0.131401 0.343560 -0.128976 -0.256188 0.247311 -0.419459 -0.052205 -0.429537
8 -0.408595 -0.490382 0.316134 -0.315941 -0.024033 -0.092318 0.094852 0.349336 0.603772 0.009313 0.056572 0.389531 0.027675 -0.355442 0.030811 -0.299909 0.206373 -0.315451
9 -0.458450 -0.478864 0.286044 -0.351384 -0.002707 -0.106764 0.072285 0.404879 0.702252 -0.029080 0.089680 0.442596 0.060857 -0.411891 -0.019733 -0.300071 0.198348 -0.288964
4 -0.455520 -0.493003 0.335998 -0.334626 0.008453 -0.126120 0.067748 0.373168 0.624316 -0.026658 0.115066 0.416358 0.036072 -0.375721 0.035975 -0.326579 0.196080 -0.376330
7 -0.389334 -0.503608 0.304520 -0.333766 -0.035928 -0.067417 0.098019 0.172125 0.363543 -0.003807 0.113689 0.336545 -0.061165 -0.298555 0.167905 -0.329152 0.064338 -0.384467
0 -0.445887 -0.580968 0.341741 -0.384898 -0.036689 -0.063744 0.092950 0.091183 0.261206 0.002108 0.185850 0.349379 -0.119843 -0.255086 0.235506 -0.382683 0.027254 -0.415726
10 -0.461940 -0.493403 0.286098 -0.344003 0.009536 -0.082769 0.097995 0.478349 0.859137 -0.052215 0.088790 0.475155 0.083429 -0.413856 -0.073426 -0.254696 0.289493 -0.273597
5 -0.406489 -0.610340 0.314017 -0.350788 -0.002428 -0.071586 0.138711 -0.096050 0.025576 -0.004458 0.222794 0.327089 -0.253230 -0.169198 0.352814 -0.442567 -0.129781 -0.488523
17 -0.432030 -0.507387 0.339664 -0.315423 -0.048343 -0.124020 0.110164 0.312145 0.563148 0.028210 0.102546 0.410563 0.028264 -0.321143 0.039347 -0.282096 0.153947 -0.388690
14 -0.422971 -0.514886 0.357595 -0.351810 0.000442 -0.077650 0.065234 0.222873 0.382866 0.015031 0.069281 0.379432 -0.039713 -0.305764 0.109723 -0.320090 0.113617 -0.363538
