18 18
1 -0.346438 -0.460015 0.425479 -0.365156 -0.016770 0.001956 0.182725 0.155824 0.160875 -0.093632 0.014527 0.161977 -0.112945 -0.422995 0.269186 -0.546320 -0.078265 -0.412045
13 -0.296353 -0.392575 0.415524 -0.345905 -0.053357 0.029429 0.202098 0.071122 0.106539 -0.041636 0.041924 0.157719 -0.109937 -0.386510 0.294899 -0.486603 -0.170806 -0.448273
9 -0.334202 -0.417296 0.384767 -0.347616 -0.029321 0.046701 0.199326 0.132083 0.159342 -0.093021 0.064915 0.200259 -0.124205 -0.420319 0.278388 -0.518515 -0.144415 -0.417159
11 -0.358363 -0.435054 0.401651 -0.306294 -0.037425 0.014628 0.137927 0.136887 0.139845 -0.084307 0.044292 0.178190 -0.129621 -0.305229 0.276882 -0.459129 -0.115271 -0.376352
4 -0.318243 -0.393062 0.413728 -0.340667 -0.008190 0.018619 0.185547 0.157066 0.127721 -0.114180 0.092024 0.189818 -0.113980 -0.456342 0.300963 -0.570740 -0.136080 -0.480313
0 -0.332356 -0.433971 0.392148 -0.363514 -0.074973 0.060618 0.169867 0.086883 0.118318 -0.063552 0.084893 0.183127 -0.112587 -0.343787 0.292774 -0.466825 -0.101637 -0.404327
15 -0.326737 -0.420999 0.426436 -0.348661 -0.039039 0.071572 0.216391 0.089294 0.121364 -0.076543 0.041001 0.156011 -0.126461 -0.385459 0.305598 -0.510438 -0.140525 -0.440396
3 -0.321474 -0.365301 0.372297 -0.296079 0.029512 -0.007090 0.200113 0.135411 0.097673 -0.136454 0.110944 0.161668 -0.136033 -0.433307 0.227731 -0.548491 -0.101418 -0.446471
6 -0.301702 -0.403428 0.405309 -0.303548 -0.006553 0.018810 0.217020 0.134803 0.113905 -0.090845 0.077254 0.170967 -0.131399 -0.428145 0.293415 -0.535182 -0.146699 -0.474079
2 -0.306670 -0.427194 0.393576 -0.344962 -0.043009 0.044230 0.200294 0.147207 0.109079 -0.097475 0.054253 0.192762 -0.113711 -0.422143 0.283270 -0.539217 -0.129576 -0.410650
7 -0.321454 -0.505517 0.452347 -0.427827 -0.129026 0.125284 0.220952 0.130590 0.193257 -0.050855 -0.052195 0.165217 -0.160099 -0.475305 0.386165 -0.532782 -0.049756 -0.418535
14 -0.305124 -0.385113 0.415691 -0.334516 -0.003200 0.039689 0.183552 0.093295 0.088615 -0.065590 0.032606 0.172316 -0.131708 -0.390335 0.274110 -0.482462 -0.120963 -0.431516
12 -0.363955 -0.459720 0.432408 -0.373514 -0.062149 0.021904 0.174769 0.078299 0.111913 -0.041428 0.061126 0.202088 -0.133473 -0.362165 0.290306 -0.472227 -0.146767 -0.421471
5 -0.294200 -0.405504 0.346090 -0.322261 0.020237 0.001732 0.214764 0.107378 0.145559 -0.130965 0.103643 0.201299 -0.134834 -0.430944 0.293533 -0.584651 -0.154248 -0.477529
17 -0.380254 -0.485545 0.470609 -0.365102 -0.102684 0.009223 0.217830 0.105521 0.167665 -0.013585 0.042565 0.227300 -0.110069 -0.328693 0.279693 -0.457267 -0.137126 -0.465844
10 -0.315750 -0.414750 0.375225 -0.328540 -0.011987 0.054392 0.211826 0.124720 0.154752 -0.113606 0.079331 0.199340 -0.134262 -0.376852 0.261299 -0.495527 -0.117726 -0.407482
8 -0.363751 -0.575755 0.532597 -0.448968 -0.147432 0.129489 0.241559 0.143098 0.181386 -0.019857 -0.082578 0.160485 -0.199667 -0.478682 0.421177 -0.583111 -0.028052 -0.421978
16 -0.335343 -0.428563 0.445816 -0.364720 -0.050474 0.038316 0.227009 0.107739 0.129456 -0.065332 0.014283 0.190066 -0.147042 -0.399255 0.332210 -0.547775 -0.156972 -0.477855
