18 18
2 0.083413 -0.374778 0.135669 -0.321520 -0.335770 0.017543 0.225027 0.426399 0.217471 0.092462 0.023168 0.440071 0.254902 -0.542189 0.159788 -0.432266 0.010152 -0.237830
0 0.049322 -0.406568 0.140465 -0.377504 -0.379376 0.078638 0.181808 0.372913 0.274515 0.099982 0.025616 0.408922 0.241534 -0.486827 0.224096 -0.381169 0.005273 -0.221395
13 0.071066 -0.412839 0.136939 -0.379115 -0.377854 0.068059 0.185358 0.361509 0.316651 0.109599 -0.018313 0.387715 0.246262 -0.481376 0.236810 -0.359211 -0.071885 -0.205232
10 0.050907 -0.429220 0.129066 -0.372418 -0.368493 0.105499 0.203615 0.382925 0.332634 0.079386 0.016973 0.451451 0.224374 -0.459741 0.226583 -0.364753 -0.030548 -0.197569
1 0.022024 -0.388573 0.170042 -0.329910 -0.316237 0.004183 0.192584 0.411139 0.268470 0.100875 -0.000070 0.389394 0.248841 -0.510742 0.153754 -0.404735 0.037460 -0.248458
9 0.034300 -0.378932 0.117998 -0.344882 -0.339122 0.049338 0.175693 0.391940 0.303431 0.092285 0.007792 0.412407 0.243656 -0.499409 0.182957 -0.366744 -0.027458 -0.198589
6 0.076576 -0.385724 0.152967 -0.313264 -0.348186 0.057853 0.230003 0.431040 0.258350 0.101257 0.020798 0.407149 0.232093 -0.537885 0.208302 -0.409315 -0.001743 -0.262232
14 0.050522 -0.394377 0.183160 -0.351803 -0.332093 0.054496 0.201426 0.404303 0.220451 0.117890 -0.006416 0.437334 0.223742 -0.540777 0.185801 -0.411322 0.046571 -0.246621
15 0.000548 -0.430239 0.161450 -0.387542 -0.349404 0.098001 0.184244 0.345799 0.311403 0.080359 0.013499 0.414479 0.233620 -0.440150 0.236601 -0.374686 -0.065013 -0.224088
3 0.032511 -0.341606 0.175406 -0.300942 -0.314524 0.022135 0.225464 0.397207 0.191435 0.090814 0.042956 0.378958 0.202842 -0.542496 0.141163 -0.420810 0.071114 -0.270089
7 0.088570 -0.392546 0.116099 -0.354644 -0.381857 0.089029 0.202094 0.391386 0.302121 0.097121 -0.021650 0.410085 0.245048 -0.520307 0.223777 -0.366249 -0.013391 -0.212186
11 -0.015341 -0.443327 0.142124 -0.348276 -0.334382 0.062640 0.136454 0.377439 0.340875 0.055421 0.008449 0.441571 0.198012 -0.391761 0.277223 -0.382951 -0.085234 -0.203847
17 0.057390 -0.369809 0.147468 -0.303529 -0.356907 0.013991 0.220774 0.408489 0.274504 0.118074 0.028127 0.422119 0.248306 -0.490156 0.157660 -0.372168 0.014943 -0.266403
4 0.054232 -0.353990 0.160725 -0.321463 -0.325965 0.013780 0.191077 0.432295 0.249432 0.090418 0.048295 0.414452 0.257934 -0.532298 0.167971 -0.416797 0.032947 -0.270152
8 0.057333 -0.395450 0.170910 -0.316714 -0.353267 0.051705 0.212364 0.395058 0.227699 0.120804 -0.000551 0.389869 0.210497 -0.502391 0.200957 -0.411863 0.033581 -0.229366
12 -0.004261 -0.441930 0.140847 -0.375567 -0.370551 0.056993 0.162053 0.349835 0.298448 0.103827 0.044356 0.471912 0.215604 -0.433117 0.243358 -0.366064 -0.074985 -0.214221
16 0.028151 -0.411822 0.155765 -0.363804 -0.374722 0.066965 0.207025 0.383667 0.313401 0.097732 -0.005171 0.445035 0.221026 -0.448523 0.253934 -0.403536 -0.062669 -0.257429
5 0.058611 -0.391765 0.132424 -0.318562 -0.304193 0.010545 0.246938 0.390483 0.261871 0.077010 0.058178 0.441494 0.213211 -0.523457 0.185151 -0.450354 0.020422 -0.292952
