18 18
11 -0.455860 -0.363510 0.470417 -0.225732 0.098187 -0.181386 0.133439 0.244375 0.063734 -0.134745 0.092025 0.176627 -0.214679 -0.333743 0.163029 -0.597785 0.029974 -0.489635
4 -0.418739 -0.314656 0.459403 -0.195095 0.106111 -0.186014 0.131780 0.286971 0.041999 -0.140673 0.126377 0.163501 -0.176222 -0.395349 0.115529 -0.582834 0.079415 -0.492994
3 -0.479200 -0.345121 0.527236 -0.208834 0.101320 -0.188287 0.156268 0.274058 -0.008210 -0.129875 0.098691 0.135741 -0.223312 -0.418691 0.109726 -0.610020 0.096119 -0.496365
0 -0.392706 -0.353850 0.411996 -0.247397 0.074849 -0.126126 0.164727 0.212808 0.049238 -0.131605 0.132082 0.166471 -0.198627 -0.359707 0.148673 -0.578867 0.085072 -0.453108
9 -0.407265 -0.323507 0.402339 -0.202943 0.087037 -0.158136 0.142515 0.245307 0.068617 -0.116816 0.091922 0.182645 -0.188648 -0.358856 0.111202 -0.539476 0.037162 -0.416019
12 -0.482423 -0.387110 0.492582 -0.250800 0.080375 -0.188511 0.130456 0.222544 0.014492 -0.096979 0.123671 0.204810 -0.208337 -0.352099 0.127014 -0.567893 0.035415 -0.473622
14 -0.420029 -0.354390 0.474801 -0.234969 0.097631 -0.156598 0.130241 0.227903 0.023127 -0.092051 0.058888 0.170662 -0.195784 -0.361330 0.128510 -0.550034 0.071478 -0.461072
5 -0.363151 -0.356586 0.362250 -0.218807 0.114041 -0.141870 0.199145 0.179098 0.084867 -0.142389 0.121946 0.182108 -0.212261 -0.325675 0.137287 -0.569520 0.044102 -0.447688
2 -0.400951 -0.359498 0.461043 -0.223006 0.090617 -0.170235 0.179186 0.291175 0.025667 -0.138969 0.095784 0.181538 -0.190422 -0.423095 0.128503 -0.628229 0.065485 -0.475977
10 -0.456581 -0.380265 0.486534 -0.223134 0.115508 -0.160507 0.192294 0.277479 0.069430 -0.157064 0.119781 0.194042 -0.238670 -0.394967 0.130068 -0.627780 0.086196 -0.512676
1 -0.449237 -0.370271 0.485362 -0.228438 0.110961 -0.199117 0.159120 0.279695 0.059123 -0.132513 0.083790 0.153012 -0.184706 -0.398784 0.111625 -0.607428 0.082360 -0.489302
16 -0.408918 -0.326326 0.431659 -0.215786 0.075701 -0.161245 0.169312 0.209741 0.048779 -0.106380 0.075457 0.175376 -0.203211 -0.313158 0.145832 -0.558175 0.021260 -0.474032
7 -0.447766 -0.368209 0.499691 -0.225190 0.082327 -0.182707 0.161895 0.304039 0.057167 -0.137911 0.078551 0.165123 -0.207390 -0.451496 0.149682 -0.625346 0.080367 -0.510331
13 -0.370236 -0.322541 0.424772 -0.227625 0.073333 -0.158351 0.148874 0.202746 0.052546 -0.089436 0.070986 0.141659 -0.172655 -0.359841 0.132871 -0.539369 0.026301 -0.445203
8 -0.414748 -0.360646 0.470674 -0.198014 0.073436 -0.161967 0.161272 0.264893 0.033252 -0.102687 0.079380 0.158482 -0.210905 -0.369945 0.148273 -0.595460 0.077724 -0.463382
15 -0.417814 -0.342485 0.442331 -0.230372 0.092358 -0.126525 0.159321 0.200952 0.048497 -0.124531 0.101731 0.157562 -0.188435 -0.334523 0.141565 -0.560264 0.030209 -0.463178
17 -0.421170 -0.353897 0.450766 -0.198037 0.063477 -0.184163 0.170983 0.261355 0.080784 -0.101284 0.109548 0.197322 -0.186051 -0.350249 0.119035 -0.558995 0.059252 -0.498852
6 -0.411093 -0.355989 0.463575 -0.186229 0.093268 -0.161441 0.170017 0.276592 0.038439 -0.122426 0.112365 0.160924 -0.206920 -0.391485 0.143968 -0.582577 0.061631 -0.489813
