18 18
0 -0.082575 -0.558166 0.188389 -0.157197 -0.165990 0.104180 0.184677 0.175328 0.226680 -0.054482 0.039134 0.268049 -0.219392 -0.239125 0.613132 -0.509558 -0.175471 -0.378489
13 -0.052864 -0.593300 0.190524 -0.170670 -0.167325 0.114381 0.242684 0.175672 0.292295 -0.048043 0.012578 0.270165 -0.226437 -0.306522 0.632418 -0.524296 -0.241214 -0.398486
2 -0.039732 -0.525392 0.180499 -0.110405 -0.129868 0.084387 0.219751 0.223669 0.204897 -0.070562 -0.001333 0.279426 -0.217238 -0.262713 0.582141 -0.529841 -0.198487 -0.387389
11 -0.104134 -0.544750 0.191080 -0.105847 -0.121237 0.082265 0.193860 0.236763 0.279846 -0.091759 0.017876 0.283392 -0.241724 -0.244809 0.593777 -0.510747 -0.212570 -0.372403
7 -0.069686 -0.538811 0.137916 -0.147439 -0.161469 0.144528 0.226145 0.185359 0.313325 -0.075497 0.023650 0.292004 -0.227266 -0.283891 0.582719 -0.457114 -0.206087 -0.355222
8 -0.095644 -0.547295 0.137882 -0.141953 -0.159684 0.160800 0.222912 0.161992 0.321251 -0.051325 0.049020 0.299672 -0.240207 -0.241430 0.579451 -0.451686 -0.215022 -0.307186
1 -0.104008 -0.533325 0.211890 -0.135367 -0.114133 0.056880 0.195182 0.223096 0.257465 -0.070449 -0.000659 0.255739 -0.206797 -0.264802 0.553314 -0.515847 -0.178651 -0.393330
14 -0.084896 -0.554842 0.219940 -0.139097 -0.110221 0.098276 0.199133 0.192769 0.234325 -0.054023 -0.017561 0.276054 -0.243768 -0.253696 0.593651 -0.504900 -0.181395 -0.394038
6 -0.063644 -0.545442 0.169674 -0.103584 -0.125122 0.110768 0.216793 0.195034 0.255982 -0.066522 0.036343 0.255200 -0.230085 -0.259008 0.589695 -0.479932 -0.206765 -0.376865
5 -0.069433 -0.527668 0.145315 -0.121149 -0.107135 0.077654 0.216401 0.151800 0.253985 -0.079655 0.034999 0.268255 -0.231461 -0.222343 0.558598 -0.490086 -0.195014 -0.386579
4 -0.087952 -0.503760 0.214574 -0.094279 -0.109868 0.054539 0.192648 0.282526 0.247682 -0.105037 0.034980 0.289975 -0.223486 -0.284119 0.595597 -0.557742 -0.190688 -0.439495
3 -0.115515 -0.525181 0.242091 -0.106569 -0.125541 0.076840 0.223414 0.230365 0.197162 -0.085854 0.016442 0.245915 -0.270212 -0.291121 0.581793 -0.551535 -0.161652 -0.434482
16 -0.089803 -0.531065 0.201130 -0.121829 -0.144937 0.092535 0.238869 0.202566 0.256282 -0.065959 -0.006520 0.289898 -0.256586 -0.240029 0.619393 -0.541217 -0.228351 -0.430815
15 -0.110356 -0.535155 0.163353 -0.153789 -0.126633 0.147340 0.215784 0.151421 0.290256 -0.079167 0.055032 0.274175 -0.218605 -0.237726 0.570909 -0.467668 -0.236850 -0.345090
12 -0.135945 -0.575803 0.156671 -0.169097 -0.161966 0.129330 0.197882 0.154003 0.305212 -0.055739 0.084909 0.333322 -0.242369 -0.243922 0.592137 -0.457308 -0.256527 -0.340477
9 -0.107824 -0.502216 0.107815 -0.147094 -0.126714 0.134829 0.199712 0.167602 0.334410 -0.072277 0.056357 0.299898 -0.215224 -0.268110 0.523461 -0.431048 -0.237942 -0.293394
17 -0.082641 -0.560765 0.173571 -0.121472 -0.169674 0.095310 0.237090 0.204563 0.311096 -0.046729 0.042979 0.311938 -0.217226 -0.250219 0.578575 -0.471743 -0.216284 -0.399008
10 -0.108089 -0.518816 0.126069 -0.141998 -0.119610 0.170249 0.215948 0.158866 0.327591 -0.094463 0.071545 0.303661 -0.247116 -0.225276 0.541654 -0.427083 -0.210134 -0.302415
