18 18
1 -0.168484 -0.493988 0.062447 -0.148238 -0.102244 -0.118720 0.207376 0.131763 0.515170 -0.017984 0.176520 0.387959 -0.051745 -0.067856 0.336771 -0.343155 -0.034823 -0.513829
11 -0.161324 -0.505034 0.041197 -0.134596 -0.104889 -0.089637 0.212119 0.126500 0.537214 -0.041414 0.187605 0.419700 -0.106540 -0.066567 0.398451 -0.365357 -0.055709 -0.535550
7 -0.092367 -0.446935 -0.056978 -0.077615 -0.151231 -0.080446 0.262376 0.177272 0.583350 -0.061970 0.229544 0.428075 -0.070957 -0.093011 0.366587 -0.350263 -0.022569 -0.522566
0 -0.141715 -0.476814 0.022904 -0.145744 -0.137138 -0.073628 0.207745 0.112422 0.493939 -0.020513 0.224183 0.395705 -0.071202 -0.072753 0.363083 -0.336177 -0.020990 -0.495263
6 -0.090030 -0.443433 -0.066926 -0.018378 -0.118488 -0.088560 0.303552 0.216979 0.577598 -0.079210 0.271846 0.427622 -0.090569 -0.100339 0.344153 -0.382479 -0.029041 -0.523639
2 -0.084628 -0.462772 -0.041246 -0.083295 -0.097599 -0.115673 0.305380 0.187920 0.530349 -0.093132 0.229485 0.433036 -0.079012 -0.128088 0.343505 -0.445405 -0.039180 -0.537535
12 -0.227194 -0.589495 0.150472 -0.290561 -0.123258 -0.063926 0.124696 -0.030248 0.433888 0.077588 0.138318 0.429562 -0.095181 -0.044797 0.409664 -0.256504 -0.127396 -0.492766
3 -0.132540 -0.461068 -0.026414 -0.055167 -0.107868 -0.121860 0.319797 0.200839 0.569591 -0.094693 0.269319 0.424739 -0.113833 -0.131201 0.334624 -0.438149 0.010689 -0.575695
9 -0.095669 -0.432306 -0.175671 0.005893 -0.109492 -0.127273 0.340196 0.312358 0.707353 -0.151788 0.347014 0.515108 -0.074316 -0.139718 0.299757 -0.460226 -0.011460 -0.510146
13 -0.273406 -0.686031 0.331105 -0.484299 -0.112017 -0.044377 0.066732 -0.157476 0.417462 0.181934 -0.003803 0.409424 -0.081668 -0.091365 0.496252 -0.245462 -0.184539 -0.569566
4 -0.127235 -0.418239 0.000029 -0.098561 -0.078458 -0.112389 0.216445 0.163149 0.507113 -0.064037 0.234920 0.409991 -0.061923 -0.100982 0.311457 -0.360921 -0.031061 -0.507062
8 -0.145581 -0.535367 0.076713 -0.161985 -0.139295 -0.070080 0.229300 0.088461 0.501005 0.024957 0.152625 0.407801 -0.095481 -0.062567 0.403294 -0.342519 -0.055642 -0.517675
16 -0.153254 -0.504743 0.047212 -0.167507 -0.108784 -0.092037 0.241149 0.088720 0.516775 -0.014420 0.171567 0.435576 -0.101008 -0.062492 0.395477 -0.372627 -0.083325 -0.551609
10 -0.114565 -0.463681 -0.096763 -0.034655 -0.093162 -0.082143 0.319997 0.240188 0.663629 -0.124455 0.316214 0.498087 -0.101968 -0.082290 0.304988 -0.382393 0.001495 -0.506668
14 -0.266760 -0.650849 0.274953 -0.405379 -0.091468 -0.030960 0.084592 -0.083963 0.421141 0.129570 0.029314 0.438204 -0.106624 -0.076207 0.450881 -0.248635 -0.109688 -0.541370
5 -0.090260 -0.449514 -0.052641 -0.082363 -0.057722 -0.117537 0.296750 0.127567 0.529624 -0.099327 0.234733 0.404382 -0.101405 -0.106720 0.330111 -0.417153 -0.029718 -0.537030
15 -0.212305 -0.571848 0.143347 -0.260603 -0.119438 -0.039490 0.190062 0.011945 0.487118 0.033249 0.144688 0.419783 -0.085780 -0.056301 0.428651 -0.319490 -0.108357 -0.547110
17 -0.132121 -0.480059 0.003614 -0.086234 -0.154926 -0.111091 0.260687 0.156991 0.556478 -0.012656 0.228520 0.446994 -0.068838 -0.054810 0.345861 -0.332961 -0.043412 -0.540241
