18 18
0 -0.435051 -0.474430 0.210704 -0.157717 -0.104152 0.013449 0.023668 0.073500 0.144256 -0.029218 0.510658 0.574686 -0.270572 0.003997 0.264278 -0.122967 -0.177644 -0.327041
10 -0.428312 -0.479863 0.279453 -0.187144 -0.008972 0.061516 0.033375 -0.008024 0.161100 -0.023206 0.516120 0.647173 -0.355515 0.109442 0.240912 -0.010355 -0.239589 -0.326119
6 -0.416060 -0.460278 0.232091 -0.121988 -0.051725 0.019075 0.024541 0.057924 0.138235 -0.013273 0.469220 0.551235 -0.288580 0.037810 0.246331 -0.066462 -0.211727 -0.308918
16 -0.424559 -0.421178 0.233612 -0.122736 -0.061534 -0.024206 0.076723 0.105432 0.133901 -0.059023 0.488413 0.561387 -0.270923 -0.009311 0.233166 -0.175694 -0.202423 -0.392406
3 -0.495568 -0.446440 0.286502 -0.129276 -0.036374 -0.044223 0.090508 0.129188 0.063593 -0.106663 0.579396 0.538314 -0.283030 -0.088774 0.181850 -0.227364 -0.147458 -0.432161
15 -0.475508 -0.457760 0.248594 -0.146346 -0.034327 -0.001757 0.078937 0.099945 0.112067 -0.111548 0.562126 0.555832 -0.261317 -0.048041 0.213158 -0.194821 -0.197960 -0.392910
1 -0.476625 -0.488448 0.238183 -0.146844 -0.059164 -0.043439 0.047918 0.149638 0.180248 -0.068389 0.506424 0.565358 -0.232241 -0.048132 0.201260 -0.171816 -0.147177 -0.359318
12 -0.437560 -0.479824 0.205577 -0.165699 -0.097111 0.010354 -0.006684 0.010988 0.138404 0.013969 0.510036 0.627375 -0.297852 0.066826 0.260099 -0.034901 -0.260419 -0.280047
7 -0.362078 -0.480389 0.068179 -0.083407 -0.174052 0.012393 0.053828 0.182733 0.294887 -0.045602 0.490998 0.652798 -0.291216 -0.113675 0.324180 -0.153563 -0.188294 -0.300738
5 -0.426790 -0.450970 0.181051 -0.107624 -0.039934 -0.048685 0.094931 0.131235 0.154056 -0.109110 0.538567 0.552999 -0.255277 -0.073542 0.205437 -0.225829 -0.157251 -0.389770
9 -0.383834 -0.457669 0.088570 -0.089317 -0.123061 0.001603 0.041026 0.163031 0.268706 -0.043501 0.491331 0.631656 -0.278532 -0.083828 0.269978 -0.141439 -0.199874 -0.270433
2 -0.434684 -0.442936 0.228316 -0.126657 -0.059778 -0.048413 0.085602 0.176512 0.084540 -0.106720 0.555985 0.572720 -0.223627 -0.101826 0.187088 -0.242433 -0.174223 -0.387154
11 -0.430476 -0.465087 0.253846 -0.152458 -0.024442 0.020152 -0.018034 0.015564 0.158711 -0.019493 0.464640 0.598926 -0.342141 0.102328 0.286994 -0.053629 -0.262174 -0.310501
8 -0.358432 -0.479797 0.116814 -0.077354 -0.153235 0.016260 0.058881 0.148252 0.243024 -0.009216 0.467898 0.613107 -0.306009 -0.055576 0.313280 -0.156714 -0.174039 -0.281390
4 -0.455628 -0.405249 0.246441 -0.110382 -0.018867 -0.069921 0.053660 0.179155 0.119028 -0.123626 0.601927 0.591575 -0.237153 -0.078259 0.190756 -0.225486 -0.181875 -0.446085
14 -0.451429 -0.487342 0.295358 -0.188772 -0.016591 0.035901 0.007957 0.025314 0.130127 -0.007431 0.452765 0.597770 -0.324010 0.039523 0.242555 -0.057423 -0.198333 -0.328666
13 -0.427755 -0.480734 0.286214 -0.199007 -0.055297 0.020805 0.028000 -0.002765 0.148973 0.017411 0.490358 0.612784 -0.318187 0.041966 0.275214 -0.061812 -0.266608 -0.361608
17 -0.388084 -0.411866 0.210474 -0.114193 -0.076867 -0.019600 0.053092 0.088259 0.156702 -0.024056 0.471749 0.545791 -0.228310 0.013435 0.187307 -0.088227 -0.172039 -0.335012
