18 18
16 -0.569400 -0.687154 0.232786 -0.097030 0.182020 0.289752 0.221618 -0.190007 0.400443 0.059722 0.364906 0.636431 -0.569387 0.373096 0.414620 -0.099948 -0.205805 -0.352738
0 -0.637753 -0.717296 0.268748 -0.108051 0.219494 0.279229 0.173942 -0.227088 0.385569 0.060874 0.428540 0.600430 -0.589690 0.410297 0.409573 -0.095251 -0.162955 -0.349028
14 -0.523502 -0.708070 0.218760 -0.119603 0.176679 0.326648 0.218246 -0.170416 0.401517 0.064982 0.336720 0.660479 -0.551515 0.313874 0.388295 -0.065502 -0.160084 -0.307160
15 -0.581920 -0.695845 0.249507 -0.120986 0.191604 0.310128 0.209637 -0.199127 0.384171 0.039654 0.378712 0.602830 -0.535275 0.349177 0.402706 -0.104913 -0.200702 -0.338359
9 -0.506546 -0.661634 0.161708 -0.084728 0.170778 0.290911 0.224876 -0.146568 0.424722 0.044777 0.369556 0.637011 -0.529838 0.291729 0.364097 -0.082844 -0.180786 -0.285780
6 -0.515240 -0.675391 0.216302 -0.054347 0.184829 0.293799 0.231097 -0.147586 0.388794 0.056224 0.369764 0.595381 -0.544619 0.313006 0.392347 -0.084740 -0.173429 -0.336104
5 -0.470507 -0.649954 0.154434 -0.091808 0.171911 0.268578 0.226155 -0.168578 0.389977 0.017855 0.356197 0.593514 -0.500721 0.292019 0.375749 -0.109060 -0.185457 -0.310857
12 -0.580971 -0.707300 0.223645 -0.120585 0.169631 0.282704 0.185975 -0.203540 0.373952 0.070228 0.399565 0.649570 -0.552047 0.353625 0.388588 -0.066423 -0.208860 -0.306053
2 1.036235 -0.920396 -0.931369 -0.523132 -0.941751 1.176657 1.003094 0.666221 0.819708 -0.277210 0.030850 1.661942 0.168573 -1.117268 0.769441 -0.349150 -0.380083 0.056711
7 1.026366 -0.822128 -0.920835 -0.485869 -0.924824 1.126890 0.941815 0.631567 0.821265 -0.269386 -0.002988 1.512853 0.185441 -1.092422 0.736879 -0.294569 -0.323442 0.042401
10 -0.528866 -0.641585 0.194998 -0.053800 0.211345 0.280902 0.214806 -0.185999 0.401158 0.045717 0.388701 0.592253 -0.562339 0.377933 0.328569 -0.029131 -0.148013 -0.281900
11 -0.495677 -0.627113 0.195937 -0.102828 0.157639 0.258294 0.158933 -0.128800 0.362120 0.009776 0.315790 0.559604 -0.473726 0.296999 0.381814 -0.113264 -0.176151 -0.283681
8 -0.430072 -0.631925 0.175302 -0.078354 0.123011 0.282858 0.219680 -0.128247 0.357057 0.053341 0.303985 0.557963 -0.485025 0.263792 0.376597 -0.105772 -0.139172 -0.275684
17 -0.402034 -0.612103 0.131491 -0.080767 0.080493 0.271790 0.236949 -0.102254 0.392003 0.051333 0.326376 0.615631 -0.430654 0.245095 0.335224 -0.062902 -0.165126 -0.280235
13 0.019096 0.002747 0.009678 -0.019404 -0.008210 -0.004883 0.008138 -0.018294 0.006568 0.019257 -0.015253 -0.018294 0.012156 -0.023377 0.007956 -0.002520 -0.021393 -0.009389
1 -0.027660 -0.027217 0.026180 -0.019122 0.012075 -0.026796 -0.004699 0.019366 0.022084 0.001540 -0.016522 -0.005216 0.015504 -0.011155 -0.013895 -0.016653 0.015775 -0.011908
3 -0.024675 0.005665 0.025365 0.004601 0.007865 -0.001883 0.014761 -0.000233 -0.026227 -0.010111 0.011993 -0.020661 -0.026950 -0.026588 -0.012274 -0.019090 0.026092 -0.020014
4 -0.000863 0.026536 0.000487 0.011658 0.016931 -0.018308 -0.024615 0.027506 0.003913 -0.015616 0.024595 0.006644 0.019102 -0.007194 -0.007301 -0.006238 0.005807 -0.017039
