18 18
9 -0.432682 -0.434990 0.176679 -0.328671 0.229210 0.138851 -0.008581 0.068046 0.424356 -0.199894 0.184958 0.609568 -0.293282 -0.116483 0.331073 -0.329421 -0.098058 -0.354322
1 -0.393844 -0.483948 0.185442 -0.397909 0.109518 0.113392 0.019971 -0.075297 0.348458 -0.095566 0.158099 0.545100 -0.183984 -0.041453 0.311947 -0.228045 -0.225039 -0.330223
12 -0.296350 -0.518514 0.071939 -0.473209 -0.076415 0.144631 0.073491 -0.342433 0.247800 0.037358 0.210246 0.559989 -0.097249 0.071949 0.333007 -0.054001 -0.491666 -0.231760
8 -0.421822 -0.455676 0.210960 -0.302272 0.240760 0.145101 0.007980 0.088109 0.424501 -0.205999 0.181536 0.602539 -0.338246 -0.102389 0.357240 -0.358687 -0.048309 -0.378256
4 -0.440284 -0.420655 0.214265 -0.304748 0.270926 0.118974 -0.029220 0.118364 0.435331 -0.232797 0.213371 0.617437 -0.295697 -0.115830 0.333847 -0.351462 -0.062815 -0.408872
17 -0.307975 -0.554724 0.087742 -0.496200 -0.138907 0.152343 0.120325 -0.353114 0.294398 0.090229 0.193999 0.596665 -0.056821 0.087779 0.322368 -0.010982 -0.520234 -0.264244
16 -0.425208 -0.437198 0.206889 -0.349405 0.186320 0.120969 -0.004552 -0.003161 0.334509 -0.157921 0.120483 0.561153 -0.269314 -0.006453 0.350992 -0.297722 -0.147641 -0.358735
14 -0.402764 -0.469506 0.200313 -0.375858 0.154440 0.135185 -0.012368 -0.063166 0.287142 -0.103773 0.107618 0.542459 -0.233464 -0.002087 0.310543 -0.217769 -0.150627 -0.291849
5 -0.310976 -0.454321 0.101409 -0.334666 0.133246 0.124888 0.055599 -0.103246 0.351426 -0.135104 0.181882 0.543825 -0.228753 0.004819 0.328748 -0.230327 -0.217575 -0.306362
3 -0.396765 -0.396259 0.191300 -0.303471 0.192094 0.125695 0.020578 0.021395 0.341614 -0.178131 0.182305 0.518758 -0.278563 -0.103045 0.303263 -0.300078 -0.098152 -0.358703
15 -0.337410 -0.528428 0.127325 -0.499623 -0.047930 0.187016 0.091266 -0.330068 0.270445 0.014919 0.191371 0.555664 -0.098725 0.051507 0.353933 -0.096974 -0.485552 -0.282251
10 -0.424159 -0.437193 0.182236 -0.327109 0.215246 0.158681 0.010822 0.029394 0.400326 -0.194699 0.181937 0.598303 -0.288940 -0.044673 0.315521 -0.269707 -0.101128 -0.335614
7 -0.298402 -0.478510 0.076166 -0.430445 -0.014584 0.170136 0.062460 -0.221298 0.322362 -0.045476 0.171775 0.558615 -0.141933 0.004144 0.360927 -0.129102 -0.368315 -0.271265
6 -0.380508 -0.411278 0.167797 -0.273416 0.198111 0.149588 0.024424 0.048944 0.383751 -0.181982 0.184548 0.555423 -0.282586 -0.095465 0.346863 -0.292775 -0.121875 -0.364693
13 -0.275034 -0.552616 0.082443 -0.560875 -0.143885 0.172911 0.131264 -0.439431 0.277292 0.097509 0.201208 0.562574 -0.035076 0.037907 0.365151 -0.033604 -0.626595 -0.274151
11 -0.391545 -0.462397 0.166521 -0.343359 0.147882 0.122695 -0.006415 -0.043578 0.335785 -0.145348 0.140724 0.539812 -0.239199 0.015211 0.344995 -0.246536 -0.191360 -0.298274
0 -0.415023 -0.457556 0.196520 -0.355206 0.176127 0.143783 -0.017730 0.012455 0.351629 -0.170513 0.170488 0.564241 -0.270857 -0.039492 0.362061 -0.306786 -0.090674 -0.348533
2 -0.322066 -0.521071 0.112719 -0.454292 0.013243 0.161287 0.076663 -0.206665 0.303760 -0.051055 0.186246 0.605271 -0.148689 0.002295 0.360293 -0.178698 -0.398179 -0.288275
