18 18
16 -0.258938 -0.421320 0.193416 -0.254380 -0.151172 0.053627 0.388182 0.028177 0.520076 0.054036 0.098348 0.370051 -0.180871 -0.299304 0.476380 -0.436244 -0.254152 -0.725529
1 -0.389074 -0.366193 0.460170 -0.077636 0.008396 0.102586 0.267747 0.206068 0.111558 -0.069070 0.367319 0.052337 -0.141462 -0.350992 0.305438 -0.399504 0.007230 -0.650793
17 -0.299541 -0.419849 0.295778 -0.165177 -0.133557 0.080648 0.348385 0.116720 0.381775 0.038431 0.248753 0.276613 -0.144515 -0.320588 0.400645 -0.384432 -0.140633 -0.718435
12 -0.325085 -0.411620 0.312810 -0.165242 -0.089767 0.099174 0.301144 0.093789 0.256418 0.008012 0.305923 0.218365 -0.174326 -0.336867 0.391216 -0.385348 -0.134415 -0.657008
2 -0.288270 -0.416104 0.306247 -0.187230 -0.093324 0.097442 0.345889 0.125973 0.306072 -0.007483 0.242955 0.237546 -0.148840 -0.363364 0.410863 -0.443791 -0.150475 -0.679682
9 -0.257805 -0.414970 0.174429 -0.243261 -0.135853 0.058442 0.341058 0.060657 0.490976 0.044655 0.135588 0.346105 -0.159927 -0.349434 0.430548 -0.417692 -0.219409 -0.663127
7 -0.298277 -0.403263 0.295310 -0.151259 -0.098713 0.117378 0.354720 0.136683 0.351601 -0.020040 0.273014 0.226527 -0.183517 -0.417306 0.445722 -0.436880 -0.127005 -0.748847
15 -0.413184 -0.212086 0.529785 0.062617 0.137127 0.153550 0.174222 0.225013 -0.209859 -0.179112 0.520579 -0.168574 -0.164859 -0.381260 0.214688 -0.373158 0.100738 -0.582845
13 -0.252048 -0.433518 0.265460 -0.259647 -0.138371 0.069319 0.358296 0.050587 0.426495 0.058175 0.152088 0.269570 -0.140241 -0.367385 0.452447 -0.431755 -0.206280 -0.707260
6 -0.522314 -0.034794 0.780187 0.374883 0.340176 0.185518 0.080673 0.440554 -0.690090 -0.349360 0.836587 -0.515152 -0.226753 -0.517689 0.104183 -0.396952 0.320684 -0.624458
4 -0.444063 -0.082793 0.618329 0.219327 0.246327 0.133085 0.086115 0.352986 -0.430501 -0.274148 0.683361 -0.313259 -0.173171 -0.455845 0.142450 -0.380779 0.216501 -0.596219
10 -0.351230 -0.365257 0.410871 -0.058745 -0.007384 0.170701 0.304308 0.181844 0.131547 -0.080968 0.417957 0.091805 -0.179661 -0.328463 0.327767 -0.363422 -0.014048 -0.635771
0 -0.340002 -0.326246 0.398722 -0.087561 -0.017602 0.126392 0.241953 0.163763 0.078356 -0.068426 0.385435 0.051669 -0.151230 -0.358090 0.334034 -0.397646 0.004346 -0.626331
8 -0.336579 -0.317781 0.427215 -0.016413 -0.000986 0.142483 0.264508 0.187059 0.034255 -0.064729 0.389763 0.018058 -0.177008 -0.337178 0.313736 -0.381075 0.018675 -0.603379
3 -0.513891 -0.077122 0.720680 0.268958 0.289396 0.161406 0.114538 0.373829 -0.567000 -0.315932 0.753316 -0.424232 -0.239187 -0.519963 0.116866 -0.419545 0.294140 -0.625796
14 -0.314943 -0.413818 0.326526 -0.200089 -0.066068 0.091967 0.319182 0.097827 0.317390 0.008548 0.208867 0.242189 -0.185719 -0.374657 0.420115 -0.432336 -0.127263 -0.718312
5 -0.275826 -0.369385 0.241797 -0.136788 -0.040648 0.069130 0.324573 0.086638 0.314144 -0.036034 0.253335 0.215799 -0.188166 -0.343682 0.389943 -0.421774 -0.137181 -0.670803
11 -0.300969 -0.400472 0.280606 -0.169993 -0.070352 0.070750 0.298157 0.116691 0.347052 -0.021620 0.206807 0.233945 -0.174548 -0.322622 0.419679 -0.426330 -0.151054 -0.666121
