18 18
10 -0.208996 -0.494493 0.318381 -0.277229 0.013178 0.110025 0.236045 0.146667 0.136485 -0.102852 -0.082753 0.421321 -0.298638 -0.176651 0.394153 -0.536152 -0.145530 -0.292294
2 -0.126983 -0.393874 0.229276 -0.185748 -0.030075 -0.002979 0.229527 0.203435 0.086964 -0.089328 -0.058422 0.365905 -0.253113 -0.245452 0.370106 -0.597566 -0.144394 -0.319739
1 -0.197636 -0.454405 0.308584 -0.227160 -0.008419 -0.019074 0.226517 0.201278 0.136062 -0.076167 -0.071433 0.362859 -0.275667 -0.248581 0.398032 -0.642485 -0.124112 -0.380933
3 -0.162043 -0.359184 0.250516 -0.158619 -0.012848 -0.024632 0.241931 0.196696 0.074991 -0.102117 -0.019729 0.309253 -0.302733 -0.285342 0.359925 -0.639223 -0.093861 -0.370196
16 -0.166422 -0.424253 0.267437 -0.182128 -0.027864 -0.030897 0.282224 0.205890 0.122536 -0.095323 -0.054333 0.411224 -0.335058 -0.246150 0.471919 -0.723166 -0.190926 -0.463756
0 -0.159865 -0.457494 0.251811 -0.214411 -0.055029 -0.005820 0.268163 0.190624 0.128572 -0.097533 -0.013994 0.414128 -0.315576 -0.252060 0.465086 -0.691799 -0.153309 -0.423781
9 -0.178527 -0.400322 0.245433 -0.203787 -0.014436 -0.009106 0.211549 0.216110 0.124728 -0.092531 -0.045879 0.369103 -0.276439 -0.281917 0.380254 -0.629942 -0.139308 -0.327947
5 -0.139806 -0.425241 0.201772 -0.161179 -0.009548 -0.043023 0.280954 0.156864 0.146243 -0.106559 -0.001584 0.398069 -0.320949 -0.220073 0.440643 -0.670983 -0.180828 -0.435526
12 -0.192242 -0.437644 0.272643 -0.219291 -0.033407 -0.012569 0.193271 0.155435 0.096042 -0.053328 -0.029030 0.380171 -0.276911 -0.207587 0.389857 -0.574013 -0.155949 -0.334442
11 -0.203711 -0.489738 0.304091 -0.217537 -0.015674 0.005355 0.204085 0.213818 0.143156 -0.089433 -0.081195 0.414544 -0.302104 -0.197103 0.451792 -0.626659 -0.172065 -0.348561
14 -0.230788 -0.511600 0.380335 -0.320877 0.025497 0.107393 0.178426 0.125285 0.085946 -0.048590 -0.143075 0.423819 -0.284031 -0.181354 0.414719 -0.543737 -0.141054 -0.313988
7 -0.170750 -0.481551 0.279571 -0.244902 -0.041275 0.042833 0.249111 0.193422 0.153631 -0.097855 -0.072062 0.416865 -0.300284 -0.256887 0.453732 -0.625612 -0.157011 -0.367498
8 -0.143199 -0.423507 0.276692 -0.182640 -0.042264 -0.000623 0.227332 0.216263 0.102666 -0.057647 -0.067951 0.335940 -0.286024 -0.262797 0.408060 -0.652838 -0.102875 -0.338155
13 -0.147727 -0.427062 0.285530 -0.209160 -0.029699 -0.017617 0.238879 0.173063 0.121806 -0.053912 -0.059289 0.353342 -0.280221 -0.252880 0.429177 -0.639668 -0.175596 -0.385877
17 -0.159234 -0.433767 0.251075 -0.161559 -0.060210 -0.039642 0.274219 0.209045 0.158591 -0.069791 -0.018760 0.422295 -0.289683 -0.219191 0.413715 -0.622308 -0.164916 -0.427100
4 -0.187261 -0.408505 0.285561 -0.202970 0.006611 -0.022981 0.207331 0.232176 0.116958 -0.114221 -0.024140 0.381362 -0.283084 -0.272939 0.409538 -0.667207 -0.132441 -0.393541
15 -0.263068 -0.525840 0.400377 -0.347729 0.027328 0.146601 0.208845 0.106417 0.090367 -0.079877 -0.111703 0.404591 -0.277758 -0.180994 0.415640 -0.554612 -0.164814 -0.306511
6 -0.151087 -0.438289 0.243181 -0.148741 -0.026135 -0.027311 0.293043 0.200247 0.129279 -0.099394 0.005795 0.403873 -0.332525 -0.257292 0.466119 -0.680345 -0.189444 -0.468769
