18 18
0 -0.279619 -0.494218 0.264436 -0.177215 -0.052467 0.064134 -0.190450 0.178960 -0.021817 -0.061076 0.082561 0.208440 -0.304066 -0.174575 0.618287 -0.411047 -0.000805 -0.224577
9 -0.334389 -0.533922 0.198481 -0.201489 -0.037034 0.047831 -0.111317 0.110514 0.126584 -0.088478 0.149651 0.298755 -0.298219 -0.147069 0.603844 -0.428012 -0.126856 -0.295510
12 -0.379946 -0.589404 0.200429 -0.227676 -0.057959 0.043356 -0.082341 0.018620 0.137323 -0.068590 0.199927 0.360429 -0.294070 -0.042315 0.590016 -0.369888 -0.198300 -0.334828
7 -0.281781 -0.517743 0.225251 -0.190155 -0.055822 0.073254 -0.139331 0.155797 0.058257 -0.089160 0.087238 0.244164 -0.295390 -0.188721 0.619883 -0.407222 -0.057882 -0.273851
11 -0.335880 -0.526875 0.219017 -0.174358 -0.017548 0.033061 -0.109326 0.093127 0.109175 -0.090446 0.104931 0.294324 -0.288668 -0.041199 0.568475 -0.378296 -0.144737 -0.296940
6 -0.302599 -0.530361 0.250122 -0.153700 -0.027340 0.054371 -0.133316 0.161498 0.038540 -0.077895 0.113336 0.252301 -0.309986 -0.153236 0.617362 -0.411455 -0.086940 -0.288835
13 -0.289875 -0.510390 0.261096 -0.198722 -0.028043 0.039765 -0.142591 0.133569 0.036505 -0.057283 0.067989 0.235969 -0.296660 -0.176791 0.615178 -0.424939 -0.102359 -0.280018
2 -0.307868 -0.534134 0.231114 -0.202177 -0.031732 0.056863 -0.098142 0.114742 0.052592 -0.085869 0.097582 0.305556 -0.294234 -0.120888 0.595999 -0.428065 -0.136530 -0.296400
8 -0.274520 -0.503341 0.256833 -0.156510 -0.051349 0.054110 -0.133437 0.152091 0.014741 -0.037434 0.061032 0.211881 -0.315300 -0.159376 0.612903 -0.423755 -0.043331 -0.250200
16 -0.346582 -0.518895 0.290372 -0.185213 0.000961 0.037110 -0.129227 0.121537 0.021441 -0.060016 0.004666 0.344293 -0.338122 -0.023037 0.610182 -0.401349 -0.153150 -0.330129
5 -0.430533 -0.691033 0.087123 -0.281424 -0.078182 0.053685 0.105069 -0.155018 0.404993 -0.125274 0.362415 0.473322 -0.254809 0.081771 0.578870 -0.375112 -0.340111 -0.495678
15 -0.485820 -0.716732 0.075925 -0.333910 -0.126050 0.095627 0.177115 -0.258154 0.494272 -0.112178 0.432744 0.496123 -0.198835 0.145448 0.542832 -0.329956 -0.422579 -0.534417
3 -0.351837 -0.529388 0.255508 -0.185579 -0.029693 0.045091 -0.106877 0.114189 0.054837 -0.090314 0.144583 0.257748 -0.330727 -0.158476 0.598361 -0.430859 -0.082077 -0.329151
14 -0.333336 -0.516422 0.293002 -0.200560 0.024087 0.048860 -0.152190 0.117122 0.009773 -0.057533 0.005793 0.313872 -0.322782 -0.074434 0.576469 -0.382294 -0.105931 -0.293611
4 -0.351877 -0.551357 0.239032 -0.197116 -0.021602 0.032648 -0.134202 0.130512 0.106230 -0.106689 0.179029 0.317621 -0.297356 -0.127388 0.630641 -0.442385 -0.124265 -0.350387
17 -0.444562 -0.669514 0.091884 -0.264179 -0.141438 0.043914 0.133179 -0.171710 0.444161 -0.066912 0.374712 0.510940 -0.200146 0.154367 0.499919 -0.273546 -0.362617 -0.498831
1 -0.405628 -0.631691 0.216007 -0.249106 -0.045747 0.025819 -0.042621 0.037026 0.218093 -0.089797 0.190497 0.355786 -0.269091 -0.056740 0.586528 -0.414928 -0.193210 -0.390021
10 0.005737 -0.002757 -0.014246 0.006132 0.011972 0.026533 0.015869 -0.001352 0.023172 -0.019827 0.015226 0.016952 -0.017475 0.021206 -0.010712 0.022008 0.009309 0.018390
