18 18
7 -0.083927 -0.404922 0.257698 -0.506699 -0.155151 0.256454 0.267936 0.057028 0.225052 -0.044028 -0.068629 0.322874 0.059040 -0.384902 0.394138 -0.449994 -0.191550 -0.404145
2 -0.111279 -0.397495 0.300727 -0.499479 -0.107086 0.247961 0.284847 0.036025 0.142195 -0.052287 -0.033032 0.305820 0.062018 -0.334587 0.338502 -0.449575 -0.198079 -0.402422
16 -0.146099 -0.382917 0.335216 -0.520644 -0.086272 0.266267 0.301025 -0.023417 0.152910 -0.050051 -0.042642 0.304491 0.024492 -0.272412 0.371208 -0.454270 -0.194420 -0.463879
0 -0.143210 -0.403880 0.312926 -0.527631 -0.121081 0.272712 0.264383 0.010030 0.159016 -0.049411 -0.001854 0.300942 0.058169 -0.304741 0.360715 -0.434147 -0.155211 -0.422967
10 -0.128514 -0.394161 0.302454 -0.508730 -0.093606 0.291460 0.287722 0.023135 0.182174 -0.068734 -0.013821 0.321008 0.041788 -0.294681 0.328707 -0.404386 -0.158173 -0.391731
1 -0.142746 -0.407827 0.308877 -0.503686 -0.099565 0.222308 0.261626 0.042277 0.196019 -0.040129 -0.059248 0.299858 0.067009 -0.330768 0.332743 -0.442277 -0.168235 -0.408703
14 -0.147496 -0.387365 0.345906 -0.542575 -0.074497 0.284344 0.253628 -0.000768 0.125264 -0.042664 -0.049382 0.310129 0.053440 -0.310209 0.314970 -0.401689 -0.137785 -0.397022
9 -0.132259 -0.375200 0.260565 -0.488117 -0.109753 0.232810 0.241309 0.054158 0.197874 -0.050989 -0.016859 0.323760 0.066977 -0.342264 0.316989 -0.416445 -0.179461 -0.371853
15 -0.162296 -0.398668 0.344678 -0.536445 -0.089336 0.290652 0.280848 -0.003234 0.143938 -0.059083 -0.017577 0.290000 0.065847 -0.300672 0.325289 -0.421306 -0.178767 -0.412836
3 -0.165292 -0.377322 0.350732 -0.517695 -0.084035 0.262910 0.278387 0.010251 0.119971 -0.060551 -0.015886 0.274637 0.034070 -0.332289 0.307816 -0.431571 -0.131023 -0.425848
4 -0.135895 -0.343364 0.319921 -0.491878 -0.070513 0.235263 0.234466 0.035158 0.139608 -0.067689 0.012741 0.279561 0.073036 -0.295145 0.297551 -0.398529 -0.135299 -0.411264
5 -0.140171 -0.442188 0.292385 -0.531326 -0.069886 0.265369 0.314782 -0.015003 0.208784 -0.083796 0.001722 0.342785 0.025948 -0.320300 0.385115 -0.482481 -0.210476 -0.470265
13 -0.104898 -0.419831 0.307996 -0.547228 -0.136529 0.259239 0.290001 0.010776 0.208512 -0.026473 -0.054675 0.310432 0.062456 -0.371917 0.397853 -0.465767 -0.222325 -0.436853
17 -0.145614 -0.408905 0.331476 -0.505133 -0.133983 0.241639 0.293912 0.032997 0.187395 -0.023882 -0.015702 0.331941 0.071147 -0.298027 0.326600 -0.415805 -0.166597 -0.446455
8 -0.129395 -0.434800 0.322735 -0.502502 -0.122193 0.260688 0.285272 0.033405 0.171213 -0.027538 -0.044924 0.314003 0.027995 -0.337695 0.379886 -0.467311 -0.174750 -0.416674
12 -0.149955 -0.408466 0.290286 -0.502905 -0.122653 0.224009 0.237199 0.008129 0.162372 -0.026638 -0.001384 0.328147 0.047347 -0.313335 0.345717 -0.410988 -0.206248 -0.400517
11 -0.145939 -0.419405 0.295298 -0.479398 -0.094577 0.226880 0.242373 0.061812 0.208308 -0.069045 -0.037071 0.320595 0.034501 -0.324832 0.388714 -0.467552 -0.212851 -0.421102
6 -0.145641 -0.439260 0.349239 -0.524956 -0.094859 0.291586 0.318483 0.034998 0.180867 -0.057228 -0.015598 0.323888 0.043064 -0.361998 0.391376 -0.472407 -0.215783 -0.486913
