18 18
1 -0.295069 -0.443136 0.328837 -0.208568 0.025097 -0.081694 0.247880 0.172585 0.277620 -0.031704 -0.070687 0.330776 -0.132003 -0.091721 0.200933 -0.444680 0.042054 -0.497642
9 -0.336289 -0.434280 0.339068 -0.308744 -0.063630 -0.013093 0.182806 0.110538 0.252144 0.107808 -0.132029 0.512741 -0.086849 -0.033313 0.223506 -0.329953 -0.133234 -0.431761
14 -0.374360 -0.490344 0.425770 -0.371231 -0.057448 0.014014 0.166737 0.062950 0.204794 0.158268 -0.198902 0.550440 -0.105876 0.008524 0.248561 -0.312914 -0.126914 -0.461406
0 -0.337082 -0.483714 0.359934 -0.320880 -0.068599 0.013749 0.198614 0.102630 0.233705 0.069336 -0.097910 0.499980 -0.122906 -0.010251 0.278174 -0.384713 -0.066886 -0.477320
2 -0.298530 -0.470734 0.345177 -0.272883 -0.027598 -0.034721 0.253635 0.149964 0.232076 0.022798 -0.100295 0.478111 -0.123353 -0.053943 0.240656 -0.445170 -0.066626 -0.492890
10 -0.302864 -0.467274 0.320931 -0.236895 -0.005126 0.020182 0.249205 0.139996 0.303806 -0.008683 -0.082772 0.468781 -0.176340 0.003681 0.253088 -0.382730 -0.036714 -0.455831
12 -0.322835 -0.482204 0.332595 -0.265290 -0.041877 -0.025212 0.221164 0.112574 0.243671 0.038774 -0.058674 0.458280 -0.146885 -0.038463 0.251508 -0.387969 -0.057490 -0.477184
8 -0.316724 -0.491819 0.367645 -0.266991 -0.048146 -0.009534 0.238364 0.138917 0.258534 0.062240 -0.119316 0.458116 -0.145983 -0.044574 0.271014 -0.417273 -0.038714 -0.487343
16 -0.326486 -0.438652 0.371457 -0.293662 -0.054038 -0.033883 0.226691 0.103485 0.232106 0.086721 -0.140635 0.483706 -0.112518 -0.009096 0.255457 -0.389652 -0.109030 -0.513403
5 -0.277766 -0.446070 0.291607 -0.240504 -0.000051 -0.046102 0.255058 0.101395 0.258065 0.001414 -0.064182 0.424625 -0.143886 -0.043340 0.239047 -0.421552 -0.046598 -0.498505
6 -0.299247 -0.463696 0.345383 -0.222373 -0.016676 -0.023225 0.256757 0.158605 0.266842 0.020407 -0.077359 0.425039 -0.145433 -0.065115 0.260964 -0.415170 -0.049235 -0.518980
7 -0.289300 -0.454869 0.327004 -0.260276 -0.044096 -0.011710 0.233869 0.147821 0.284497 0.019138 -0.109060 0.425052 -0.125409 -0.075734 0.257433 -0.397704 -0.019779 -0.495374
3 -0.330985 -0.446580 0.368437 -0.231990 -0.003922 -0.052441 0.260820 0.157631 0.241278 -0.004634 -0.072240 0.396390 -0.161568 -0.085765 0.224905 -0.452542 0.007405 -0.538816
11 -0.343909 -0.469471 0.350771 -0.265749 -0.024739 -0.003631 0.178329 0.130478 0.263336 0.038184 -0.118759 0.476917 -0.145453 0.013912 0.270126 -0.367097 -0.094711 -0.440138
13 -0.291911 -0.447861 0.346604 -0.284964 -0.039538 -0.021360 0.222107 0.105629 0.254899 0.058386 -0.117712 0.424254 -0.114391 -0.056493 0.247160 -0.382671 -0.073511 -0.469993
4 -0.323667 -0.433342 0.361299 -0.252274 -0.006449 -0.056291 0.205405 0.167116 0.254052 0.016183 -0.077347 0.452104 -0.111819 -0.046322 0.236596 -0.423086 -0.037112 -0.525856
15 -0.417413 -0.528794 0.450538 -0.405109 -0.077102 0.024596 0.213511 0.064722 0.245832 0.141773 -0.161334 0.592855 -0.098833 0.010730 0.283951 -0.376908 -0.166248 -0.530896
17 -0.372497 -0.503900 0.415417 -0.339223 -0.108111 -0.010008 0.205930 0.102989 0.263429 0.162042 -0.155135 0.586798 -0.089784 0.022975 0.254165 -0.323724 -0.134526 -0.511477
