18 18
3 -0.352836 -0.264679 0.308154 -0.362210 0.053846 0.082686 0.026503 0.251259 0.225323 -0.136307 0.243350 0.432158 -0.034533 -0.391502 0.230374 -0.440177 -0.038040 -0.432622
5 -0.334312 -0.290659 0.259829 -0.369151 0.099343 0.076734 0.024087 0.258986 0.297636 -0.165553 0.265261 0.504694 -0.026654 -0.362117 0.250237 -0.462309 -0.058005 -0.457329
12 -0.377804 -0.293182 0.293490 -0.364807 0.054257 0.046036 -0.021998 0.252731 0.260531 -0.106337 0.266705 0.496351 0.000375 -0.354500 0.206459 -0.382839 -0.055987 -0.423561
9 -0.346849 -0.256324 0.258328 -0.362914 0.070434 0.077209 -0.005637 0.286062 0.290142 -0.142669 0.240555 0.484089 0.003649 -0.384042 0.216626 -0.421890 -0.058212 -0.399327
2 -0.319724 -0.270804 0.284076 -0.370824 0.046093 0.072305 0.007743 0.290654 0.246060 -0.126369 0.226783 0.481989 0.023961 -0.383516 0.218173 -0.426670 -0.063823 -0.398959
15 -0.346211 -0.283068 0.294394 -0.388370 0.053393 0.126121 0.030893 0.210999 0.239862 -0.142347 0.228765 0.438862 -0.016812 -0.343458 0.269580 -0.440505 -0.095029 -0.419703
8 -0.332367 -0.294225 0.298368 -0.345184 0.035424 0.086209 0.021538 0.265149 0.256911 -0.105539 0.221765 0.457873 -0.028534 -0.356536 0.255971 -0.430150 -0.037099 -0.418534
16 -0.334260 -0.265634 0.285577 -0.368378 0.032792 0.097349 0.033686 0.236804 0.248209 -0.117515 0.216936 0.478605 -0.034453 -0.350516 0.278571 -0.444701 -0.088439 -0.449429
4 -0.367835 -0.218158 0.295045 -0.306314 0.143785 -0.015189 -0.064517 0.377910 0.329888 -0.161901 0.282690 0.493603 0.077551 -0.365490 0.112367 -0.374165 0.025151 -0.451419
0 -0.349718 -0.281792 0.289695 -0.389693 0.036463 0.097060 -0.010359 0.263889 0.254577 -0.132318 0.254753 0.454504 0.000849 -0.363400 0.250694 -0.424041 -0.021212 -0.414166
14 -0.374850 -0.282537 0.323527 -0.378094 0.109470 0.054852 -0.036196 0.309568 0.284181 -0.132655 0.230332 0.503301 0.015757 -0.374536 0.182649 -0.398098 0.001180 -0.431739
17 -0.373430 -0.280279 0.308305 -0.325319 0.064615 0.013978 -0.006320 0.341326 0.344688 -0.115592 0.268707 0.521908 0.053650 -0.354842 0.158649 -0.375774 -0.010332 -0.470160
1 -0.387040 -0.290848 0.321189 -0.359352 0.108117 0.009791 -0.019591 0.332595 0.323188 -0.135618 0.229894 0.475464 0.046179 -0.379126 0.152239 -0.405540 0.004555 -0.442754
11 -0.357245 -0.290892 0.289487 -0.363688 0.067780 0.077767 -0.014150 0.274100 0.272902 -0.154406 0.234055 0.477953 -0.029114 -0.346426 0.274582 -0.450748 -0.071722 -0.427344
6 -0.331540 -0.272490 0.287338 -0.329303 0.058112 0.087173 0.016029 0.265008 0.247558 -0.119770 0.236253 0.446086 -0.014544 -0.361439 0.242433 -0.402365 -0.062785 -0.430918
7 -0.358617 -0.286575 0.294024 -0.396212 0.046607 0.086494 -0.006717 0.304170 0.312719 -0.143910 0.239839 0.498025 0.021137 -0.425850 0.241999 -0.425865 -0.033157 -0.451104
13 -0.337956 -0.283719 0.319721 -0.415135 0.046368 0.078827 0.014852 0.259668 0.280060 -0.116188 0.230909 0.467195 0.011282 -0.420243 0.257522 -0.446907 -0.080848 -0.453220
10 -0.362981 -0.267148 0.288283 -0.343996 0.108980 0.060101 -0.012662 0.331893 0.334678 -0.162742 0.273237 0.510421 0.023675 -0.356625 0.161389 -0.378103 0.002715 -0.419369
