18 18
8 -0.084762 -0.552063 0.061134 -0.356882 -0.228425 0.307491 0.240756 0.072998 0.410034 0.119555 -0.053584 0.572730 -0.125733 -0.258570 0.373859 -0.202416 -0.120047 -0.148114
0 -0.096261 -0.516721 0.053300 -0.376979 -0.212638 0.296040 0.182147 0.054341 0.391871 0.094780 -0.024205 0.530886 -0.097206 -0.231786 0.365173 -0.182477 -0.104814 -0.134758
14 -0.131393 -0.560810 0.120279 -0.391176 -0.169202 0.321599 0.228409 0.051121 0.364192 0.099952 -0.077380 0.559900 -0.141750 -0.256937 0.373830 -0.222786 -0.119293 -0.185033
7 -0.065587 -0.527252 0.033960 -0.378500 -0.233454 0.298010 0.208261 0.069706 0.439474 0.105125 -0.068803 0.562845 -0.094345 -0.271465 0.370344 -0.167486 -0.120921 -0.143535
1 -0.133201 -0.544949 0.096215 -0.359227 -0.155987 0.247428 0.211560 0.095115 0.401999 0.072602 -0.052118 0.523353 -0.091403 -0.257880 0.327139 -0.233393 -0.113671 -0.177235
2 -0.097192 -0.501524 0.083312 -0.324248 -0.150519 0.287362 0.259918 0.086010 0.297993 0.047062 -0.027310 0.513575 -0.114287 -0.273241 0.328197 -0.275900 -0.141676 -0.179203
9 -0.082832 -0.523749 -0.004480 -0.356582 -0.211508 0.315155 0.239279 0.103072 0.455248 0.082772 -0.019892 0.620952 -0.104307 -0.302477 0.344954 -0.201959 -0.160912 -0.116529
15 -0.186137 -0.516717 0.161230 -0.350823 -0.127262 0.335628 0.287227 0.021606 0.298886 0.037124 -0.005987 0.482381 -0.157692 -0.245123 0.371617 -0.294894 -0.156522 -0.268143
11 -0.128886 -0.545844 0.087562 -0.352238 -0.171721 0.274437 0.199132 0.084265 0.416787 0.061884 -0.050434 0.541223 -0.127577 -0.226920 0.384272 -0.230639 -0.135907 -0.178256
3 -0.179946 -0.517917 0.166696 -0.329789 -0.134984 0.292461 0.280257 0.056490 0.285914 0.047559 -0.005471 0.469841 -0.169420 -0.284836 0.344660 -0.301203 -0.101938 -0.274076
6 -0.117201 -0.562018 0.095680 -0.332956 -0.181602 0.331568 0.277230 0.103078 0.381612 0.074398 -0.016720 0.567378 -0.139457 -0.293034 0.386945 -0.253424 -0.147624 -0.218763
5 -0.115303 -0.522876 0.061693 -0.321005 -0.126093 0.277581 0.283469 0.039102 0.351951 0.036169 0.014107 0.524081 -0.145904 -0.254699 0.347531 -0.278020 -0.156890 -0.225761
17 -0.101920 -0.537314 0.070522 -0.342289 -0.221087 0.267061 0.229326 0.081882 0.420031 0.113995 -0.032795 0.571221 -0.093546 -0.236024 0.337299 -0.176767 -0.127036 -0.182322
13 -0.101378 -0.548212 0.094960 -0.387445 -0.196690 0.294873 0.237538 0.047833 0.395437 0.104001 -0.052173 0.538131 -0.110163 -0.277627 0.375181 -0.225104 -0.159059 -0.188217
10 -0.093139 -0.558438 0.035125 -0.357547 -0.199726 0.362773 0.296112 0.087010 0.440985 0.064630 -0.006242 0.634847 -0.150902 -0.274987 0.369135 -0.215053 -0.149075 -0.163448
16 -0.145399 -0.518886 0.119618 -0.342706 -0.175449 0.331950 0.311507 0.059296 0.337095 0.065344 -0.034767 0.556005 -0.170630 -0.261072 0.395344 -0.294395 -0.174759 -0.263224
12 -0.126047 -0.545309 0.067306 -0.366856 -0.204197 0.282200 0.210045 0.043612 0.360173 0.108177 -0.007454 0.571885 -0.119569 -0.244882 0.342675 -0.183599 -0.153260 -0.148649
4 -0.146743 -0.531820 0.110621 -0.352876 -0.154659 0.308933 0.261615 0.092856 0.374560 0.048663 0.006582 0.571061 -0.130246 -0.289486 0.376467 -0.285203 -0.147412 -0.254577
