18 18
5 -0.015617 -0.327082 0.036669 -0.038093 -0.112664 -0.017303 0.367892 0.090657 0.403803 -0.048791 0.187090 0.221722 -0.167772 -0.213481 0.510608 -0.488737 -0.204079 -0.634576
0 -0.045182 -0.333138 0.072094 -0.097736 -0.167333 0.040279 0.322452 0.110177 0.373150 -0.032093 0.180417 0.209312 -0.135816 -0.228506 0.520635 -0.464953 -0.147303 -0.601380
9 -0.348930 -0.454333 0.202227 -0.362714 0.001833 0.016348 0.260118 0.113340 0.466358 -0.133605 0.123862 0.221648 -0.098536 -0.376918 0.432464 -0.625767 -0.119924 -0.607765
13 0.123013 -0.241585 0.016126 0.071751 -0.177757 -0.069187 0.364736 0.104474 0.392794 0.046022 0.179707 0.177643 -0.116823 -0.204077 0.496106 -0.393985 -0.259802 -0.622890
11 -0.124810 -0.339435 0.104198 -0.113007 -0.080323 -0.009887 0.275614 0.133295 0.406743 -0.080403 0.143832 0.198920 -0.134278 -0.230423 0.474534 -0.489677 -0.164109 -0.581797
4 -0.022886 -0.296070 0.076940 -0.024847 -0.118978 -0.048605 0.324491 0.151543 0.421199 -0.033802 0.200440 0.215992 -0.116649 -0.239202 0.501781 -0.482295 -0.202986 -0.664504
6 -0.000320 -0.303896 0.066504 -0.001022 -0.130111 -0.011796 0.354982 0.130133 0.382855 -0.017269 0.180267 0.192152 -0.145128 -0.231065 0.498975 -0.447670 -0.205069 -0.628187
7 -0.242776 -0.432931 0.168706 -0.292866 -0.057427 0.033828 0.289849 0.115915 0.466787 -0.111897 0.121637 0.208462 -0.101333 -0.348728 0.485434 -0.582495 -0.124134 -0.634984
3 -0.170294 -0.309447 0.136775 -0.163690 -0.057936 0.020276 0.271240 0.084524 0.304954 -0.079012 0.135301 0.149651 -0.136929 -0.264461 0.377431 -0.461757 -0.087940 -0.523593
1 -0.525374 -0.546469 0.333135 -0.524922 0.090762 0.006552 0.201743 0.111888 0.460660 -0.186873 0.070143 0.176788 -0.067095 -0.410695 0.388830 -0.707101 -0.041499 -0.615604
17 -0.005279 -0.303648 0.070399 -0.010642 -0.169122 -0.045467 0.349167 0.128230 0.411393 0.016535 0.171982 0.219231 -0.108837 -0.204962 0.458180 -0.412607 -0.191370 -0.627732
16 -0.125715 -0.331381 0.121110 -0.142982 -0.099842 0.017419 0.317012 0.102381 0.372748 -0.056120 0.125940 0.202524 -0.140058 -0.234769 0.483152 -0.502992 -0.172009 -0.610053
8 -0.040198 -0.318094 0.089613 -0.052981 -0.121915 -0.012287 0.310401 0.118933 0.360071 -0.011852 0.128794 0.181699 -0.135615 -0.217769 0.456388 -0.450871 -0.150445 -0.551618
10 -0.112740 -0.347653 0.093057 -0.133007 -0.084250 0.030588 0.323079 0.108427 0.419614 -0.077163 0.157301 0.217501 -0.143664 -0.233995 0.453719 -0.466985 -0.146993 -0.577519
15 -0.444213 -0.514468 0.297394 -0.448112 0.058368 0.028712 0.245838 0.073794 0.452622 -0.163422 0.116606 0.183630 -0.084174 -0.367835 0.439870 -0.679902 -0.114742 -0.646900
14 -0.253827 -0.411152 0.206174 -0.278470 -0.012242 0.011087 0.243552 0.092730 0.384697 -0.081350 0.092571 0.191279 -0.108682 -0.302655 0.425192 -0.534899 -0.107158 -0.583052
2 -0.119722 -0.357851 0.119681 -0.166930 -0.087724 0.018738 0.308988 0.122921 0.354928 -0.074850 0.132293 0.207002 -0.113509 -0.274123 0.453625 -0.519850 -0.154849 -0.570655
12 -0.026600 -0.022358 0.002765 -0.019307 -0.014582 -0.010130 -0.018079 -0.025837 -0.017080 0.018496 0.026502 0.027636 -0.006702 0.013838 0.001462 0.019107 -0.024921 0.008452
