18 18
0 -0.367808 -0.412163 0.339849 -0.275374 -0.156285 -0.120879 0.134772 0.245993 0.150338 0.028162 0.299971 0.405383 -0.022334 -0.206882 0.148814 -0.477973 0.134356 -0.465788
1 -0.367029 -0.457510 0.343103 -0.252600 -0.100625 -0.180303 0.210546 0.290715 0.232920 0.027336 0.241618 0.413864 -0.018807 -0.275319 0.127688 -0.546417 0.125569 -0.540721
5 -0.304285 -0.493893 0.270511 -0.228772 -0.080607 -0.129886 0.275299 0.220612 0.267735 0.007201 0.272106 0.414140 -0.067958 -0.279303 0.205016 -0.575303 0.102997 -0.578160
10 -0.398052 -0.426824 0.368241 -0.279476 -0.147093 -0.127341 0.153056 0.271158 0.159911 0.023217 0.322388 0.474107 -0.055680 -0.197166 0.120174 -0.482086 0.132707 -0.470728
4 -0.365527 -0.378823 0.351666 -0.254700 -0.123740 -0.176780 0.112010 0.303007 0.149095 0.015929 0.311899 0.437515 0.001230 -0.232209 0.118324 -0.504185 0.129287 -0.496861
3 -0.363728 -0.336479 0.345109 -0.241878 -0.117921 -0.162528 0.143672 0.260268 0.105870 0.014890 0.281644 0.381243 -0.043264 -0.243430 0.072997 -0.474474 0.146825 -0.461062
2 -0.327305 -0.373610 0.329432 -0.258687 -0.138357 -0.140016 0.136796 0.266902 0.111002 0.029303 0.246350 0.413340 -0.004233 -0.218962 0.108667 -0.474163 0.101067 -0.428940
14 -0.386330 -0.430258 0.404739 -0.286784 -0.128627 -0.117871 0.082551 0.240077 0.096131 0.062413 0.237482 0.423017 -0.054031 -0.185241 0.144168 -0.442157 0.132846 -0.428751
11 -0.440866 -0.444849 0.405623 -0.260070 -0.151947 -0.176694 0.047858 0.299415 0.120613 0.032754 0.300133 0.456043 -0.051413 -0.151289 0.147937 -0.465288 0.101856 -0.430131
16 -0.378150 -0.399055 0.356004 -0.266140 -0.143622 -0.167321 0.175491 0.277901 0.173439 0.031681 0.284564 0.461649 -0.037397 -0.217820 0.147518 -0.533297 0.102676 -0.538681
15 -0.386630 -0.484926 0.373551 -0.280166 -0.123322 -0.089443 0.200487 0.221893 0.186864 0.028634 0.287859 0.427735 -0.061229 -0.220082 0.197951 -0.533531 0.100144 -0.528839
13 -0.348842 -0.382969 0.360978 -0.272737 -0.149043 -0.155197 0.120788 0.246303 0.131887 0.053798 0.267213 0.399974 -0.015553 -0.222417 0.121899 -0.459320 0.098297 -0.450936
8 -0.341798 -0.529220 0.349511 -0.245840 -0.140375 -0.101242 0.242662 0.247022 0.222709 0.055751 0.272764 0.435964 -0.086783 -0.252737 0.240164 -0.578530 0.129126 -0.556725
7 -0.325026 -0.471805 0.313651 -0.256275 -0.137021 -0.106692 0.221853 0.257462 0.235631 0.022864 0.263073 0.425124 -0.049990 -0.282481 0.205458 -0.541309 0.123161 -0.546693
12 -0.425429 -0.439732 0.377753 -0.279429 -0.170709 -0.158185 0.058935 0.231697 0.087737 0.066009 0.324139 0.461515 -0.051929 -0.149867 0.130805 -0.417892 0.081487 -0.407805
6 -0.331076 -0.518194 0.329905 -0.218553 -0.108502 -0.109439 0.262002 0.261121 0.239277 0.032785 0.286115 0.420833 -0.076449 -0.285489 0.228335 -0.567645 0.105097 -0.590349
9 -0.350148 -0.373616 0.295953 -0.247977 -0.129350 -0.140290 0.128699 0.254459 0.164425 0.026418 0.275485 0.423221 -0.034541 -0.226390 0.111305 -0.457061 0.094691 -0.418197
17 -0.360552 -0.426313 0.340053 -0.234856 -0.156073 -0.167079 0.189186 0.279219 0.201890 0.052206 0.298349 0.456613 -0.026012 -0.222851 0.124602 -0.490116 0.122959 -0.526930
