18 18
9 -0.333042 -0.349757 0.263249 -0.069565 0.006982 -0.099602 0.202251 0.341535 0.362387 -0.079418 0.097157 0.280742 -0.144796 -0.368968 0.166516 -0.391089 -0.008095 -0.474913
0 -0.356555 -0.393336 0.309677 -0.097894 -0.022674 -0.091634 0.182181 0.353301 0.351777 -0.081461 0.130842 0.286686 -0.147269 -0.349694 0.204022 -0.403299 0.043801 -0.504858
1 -0.385249 -0.426390 0.360381 -0.100228 0.012255 -0.141410 0.184230 0.377133 0.342157 -0.067099 0.076494 0.240364 -0.149730 -0.386112 0.156666 -0.414528 0.053617 -0.495531
2 -0.316234 -0.349579 0.317167 -0.072645 0.039259 -0.111367 0.201798 0.357699 0.265740 -0.111964 0.093392 0.235775 -0.151430 -0.406178 0.175667 -0.459277 0.025128 -0.509003
11 -0.386324 -0.439355 0.365118 -0.068016 -0.019818 -0.125299 0.177611 0.426325 0.366817 -0.073308 0.072039 0.270660 -0.180243 -0.382777 0.214148 -0.430754 0.032131 -0.511355
4 -0.332716 -0.230077 0.269057 -0.034429 0.220096 -0.151646 0.166648 0.308101 0.249125 -0.240951 0.216335 0.228230 -0.170729 -0.434469 0.161551 -0.531599 0.041657 -0.649784
3 -0.357193 -0.308580 0.320690 -0.056958 0.107077 -0.122760 0.191114 0.317335 0.239858 -0.157463 0.145172 0.200291 -0.202952 -0.429397 0.160035 -0.476252 0.062662 -0.563756
12 -0.381513 -0.448245 0.344029 -0.108167 -0.063531 -0.115503 0.175215 0.345939 0.336801 -0.014608 0.089008 0.293716 -0.161407 -0.337062 0.179122 -0.346143 0.003368 -0.449681
13 -0.318768 -0.392956 0.352747 -0.094092 -0.041512 -0.109258 0.206612 0.347084 0.314852 -0.023418 0.041128 0.208869 -0.142241 -0.396043 0.185521 -0.391088 0.017400 -0.480074
7 -0.277027 -0.301509 0.259886 -0.047721 0.047504 -0.092109 0.200115 0.332696 0.297908 -0.125364 0.095614 0.222678 -0.162158 -0.420364 0.194488 -0.435489 0.039835 -0.540199
6 -0.314626 -0.322344 0.312016 -0.032136 0.078140 -0.106030 0.199258 0.336029 0.241661 -0.121405 0.119367 0.195056 -0.184153 -0.415286 0.184785 -0.447277 0.034499 -0.541029
17 -0.336117 -0.389063 0.328574 -0.048617 -0.045311 -0.125943 0.220339 0.384841 0.363288 -0.036238 0.080267 0.279826 -0.144134 -0.363218 0.169730 -0.380570 0.031710 -0.525506
14 -0.327271 -0.341244 0.307398 -0.080431 0.077629 -0.097035 0.183572 0.308082 0.288923 -0.105938 0.083508 0.252969 -0.178345 -0.370612 0.178847 -0.416747 0.036491 -0.520643
15 -0.332570 -0.282079 0.278588 -0.064919 0.136555 -0.088248 0.202831 0.254670 0.257793 -0.179408 0.162433 0.220962 -0.168028 -0.365160 0.175877 -0.459632 -0.000652 -0.572690
10 -0.337992 -0.363159 0.295320 -0.064733 0.057757 -0.088669 0.223640 0.341286 0.354279 -0.127800 0.130077 0.275776 -0.186233 -0.369519 0.169384 -0.414416 0.034822 -0.524146
5 -0.316450 -0.285532 0.248335 -0.046038 0.201240 -0.134323 0.212141 0.249489 0.252428 -0.223019 0.187703 0.222394 -0.211519 -0.403361 0.187528 -0.524162 0.010242 -0.612240
16 -0.352711 -0.364114 0.325231 -0.072152 0.020502 -0.107991 0.226322 0.350909 0.343871 -0.094701 0.082554 0.274488 -0.185002 -0.371089 0.214248 -0.454933 0.003128 -0.562442
8 -0.354881 -0.433947 0.370902 -0.080817 -0.030498 -0.097696 0.208719 0.361635 0.308042 -0.036289 0.058360 0.238023 -0.183137 -0.378007 0.205956 -0.429094 0.046763 -0.482440
