18 18
6 0.105339 -0.473851 -0.070132 -0.087671 -0.282826 0.178501 0.131665 -0.087937 0.097893 0.334348 0.275632 0.905773 -0.383686 -0.032176 0.500913 0.200232 -0.646790 -0.155886
2 0.077727 -0.491943 -0.019867 -0.126549 -0.284018 0.198580 0.158477 -0.061700 -0.000069 0.283873 0.212768 0.863830 -0.382126 0.037662 0.511897 0.066834 -0.612191 -0.116654
7 0.100153 -0.465950 -0.070726 -0.141115 -0.293380 0.177624 0.130561 -0.097040 0.147777 0.322921 0.222056 0.879230 -0.339367 -0.054604 0.473862 0.192688 -0.600805 -0.149864
8 0.080384 -0.496806 -0.021239 -0.104008 -0.301534 0.207428 0.179853 -0.081792 0.045932 0.313767 0.212765 0.855312 -0.408680 0.050989 0.517967 0.087294 -0.578264 -0.123682
11 0.073842 -0.491527 -0.052828 -0.093252 -0.282342 0.171750 0.113956 -0.066967 0.096719 0.307872 0.254528 0.918863 -0.402752 0.020860 0.522137 0.159631 -0.645491 -0.133369
10 0.077857 -0.499654 -0.058528 -0.124939 -0.275824 0.210136 0.156786 -0.102492 0.101702 0.303889 0.255686 0.919038 -0.404753 0.030124 0.487165 0.174827 -0.625118 -0.114246
16 0.096161 -0.453156 -0.039908 -0.070134 -0.316149 0.224753 0.173077 -0.073827 -0.027026 0.296634 0.225225 0.890318 -0.455033 0.119669 0.571669 0.074503 -0.633248 -0.131895
14 0.073268 -0.478562 -0.024392 -0.157461 -0.266086 0.173287 0.117263 -0.122685 0.091718 0.353527 0.200949 0.883294 -0.354505 -0.031613 0.446308 0.205340 -0.592282 -0.136831
15 -1.373247 -1.696477 1.285355 -1.509665 0.281024 -0.162700 0.326949 -0.043945 0.989544 0.106400 -0.367998 0.427487 0.442705 -0.450327 0.259222 -0.816877 -0.564081 -0.939551
1 -1.440523 -1.786656 1.350720 -1.578957 0.300999 -0.225707 0.321641 0.000805 1.062876 0.122260 -0.418899 0.440281 0.480217 -0.499583 0.241048 -0.861950 -0.546065 -0.977329
9 0.043451 -0.455675 -0.056798 -0.159298 -0.248300 0.143972 0.120351 -0.096405 0.166299 0.306635 0.221578 0.843123 -0.306632 -0.064890 0.407042 0.169076 -0.589975 -0.127009
13 0.083307 -0.458984 -0.026000 -0.161214 -0.275573 0.157056 0.133104 -0.116351 0.112670 0.329079 0.206824 0.817619 -0.317916 -0.044125 0.455386 0.157699 -0.601414 -0.152789
12 0.014980 -0.489148 -0.014810 -0.161414 -0.266709 0.137478 0.106435 -0.122436 0.069242 0.310948 0.237160 0.821250 -0.331654 0.002417 0.447360 0.141546 -0.599432 -0.129054
17 0.079691 -0.450490 -0.048392 -0.098394 -0.294216 0.145107 0.140395 -0.078444 0.132500 0.332168 0.243468 0.873658 -0.328478 -0.001319 0.434567 0.198581 -0.591843 -0.164754
5 0.095186 -0.467524 -0.085074 -0.121776 -0.247567 0.148074 0.150852 -0.127036 0.150149 0.309131 0.249406 0.881603 -0.356712 -0.029628 0.453070 0.177597 -0.611435 -0.166397
0 0.055925 -0.482933 -0.014032 -0.136465 -0.301418 0.212367 0.130935 -0.083014 0.000173 0.283352 0.235477 0.825816 -0.384199 0.065983 0.530880 0.069475 -0.556758 -0.127859
4 0.026924 -0.434374 -0.004394 -0.152396 -0.219647 0.127415 0.094325 -0.062427 0.139523 0.275047 0.222414 0.791024 -0.274512 -0.043754 0.409532 0.134417 -0.544392 -0.174501
3 -0.024675 0.005665 0.025365 0.004601 0.007865 -0.001883 0.014761 -0.000233 -0.026227 -0.010111 0.011993 -0.020661 -0.026950 -0.026588 -0.012274 -0.019090 0.026092 -0.020014
