18 18
3 -0.239687 -0.467267 0.136342 -0.345880 -0.131863 0.241892 0.352563 -0.154342 0.095988 0.033319 0.185772 0.468808 -0.318489 -0.260325 0.291652 -0.318560 -0.085455 -0.334360
13 -0.241073 -0.487358 0.163509 -0.440987 -0.191311 0.253061 0.310409 -0.212664 0.085153 0.110125 0.130700 0.437386 -0.273038 -0.313440 0.339692 -0.297007 -0.147830 -0.322309
12 -0.382526 -0.564891 0.216305 -0.508184 -0.230436 0.260194 0.263855 -0.293184 -0.012785 0.137625 0.228421 0.500764 -0.297566 -0.246351 0.345117 -0.267068 -0.186037 -0.323909
15 -0.481073 -0.535826 0.300838 -0.581617 -0.258928 0.276982 0.173128 -0.380971 -0.129453 0.167369 0.216847 0.352652 -0.213498 -0.198247 0.332727 -0.223166 -0.228344 -0.286038
14 -0.268585 -0.533103 0.183398 -0.442713 -0.177524 0.273088 0.307780 -0.191430 0.074509 0.113675 0.127371 0.518311 -0.329613 -0.329016 0.350992 -0.303678 -0.093313 -0.348887
2 -0.130831 -0.466191 0.050960 -0.280225 -0.091757 0.238404 0.396409 -0.094005 0.168106 -0.017033 0.181476 0.550978 -0.302328 -0.195319 0.281350 -0.320878 -0.098217 -0.305404
8 -0.256130 -0.523937 0.155353 -0.413361 -0.194057 0.265907 0.333237 -0.192055 0.104816 0.099407 0.144489 0.467947 -0.307007 -0.268906 0.355943 -0.321287 -0.113222 -0.314115
9 -0.222260 -0.452904 0.092818 -0.366391 -0.147167 0.244025 0.313540 -0.144497 0.137125 0.049372 0.152998 0.476846 -0.276004 -0.279567 0.297807 -0.300592 -0.115288 -0.282479
10 -0.174130 -0.467586 0.065674 -0.299335 -0.093113 0.266925 0.378785 -0.134963 0.192979 -0.008711 0.197633 0.530590 -0.321872 -0.171210 0.288421 -0.275545 -0.090665 -0.300804
6 -0.198816 -0.447549 0.117281 -0.319386 -0.143421 0.240817 0.315293 -0.135527 0.106822 0.065449 0.152073 0.443291 -0.288768 -0.263142 0.315221 -0.277124 -0.104732 -0.313730
0 -0.399124 -0.514829 0.240964 -0.545961 -0.262319 0.270167 0.198609 -0.313300 -0.062314 0.150472 0.212502 0.386038 -0.235817 -0.246132 0.354812 -0.263895 -0.163574 -0.295265
1 -0.370201 -0.530833 0.245689 -0.490149 -0.197780 0.224167 0.234576 -0.227671 0.025319 0.139390 0.131008 0.400731 -0.248865 -0.297998 0.314849 -0.278577 -0.126704 -0.319400
7 -0.168424 -0.452555 0.079068 -0.347023 -0.162468 0.250150 0.321309 -0.137220 0.147324 0.049149 0.130785 0.476241 -0.278522 -0.277373 0.313914 -0.271556 -0.090693 -0.299721
4 -0.206862 -0.460095 0.096230 -0.322284 -0.097109 0.232646 0.349399 -0.124800 0.162012 0.000216 0.218948 0.533541 -0.289133 -0.201737 0.295476 -0.313365 -0.111476 -0.340700
16 -0.239018 -0.458768 0.136444 -0.375226 -0.168803 0.243518 0.329262 -0.184841 0.090457 0.074693 0.146318 0.473015 -0.307961 -0.233147 0.338818 -0.307479 -0.134880 -0.337770
5 -0.191600 -0.493965 0.056529 -0.317324 -0.089811 0.237504 0.381512 -0.168401 0.184285 -0.006462 0.210515 0.530702 -0.326796 -0.181630 0.313109 -0.317641 -0.114547 -0.331970
17 -0.261545 -0.500937 0.142100 -0.371966 -0.181830 0.232310 0.335456 -0.189077 0.116875 0.082308 0.205512 0.513889 -0.279406 -0.196481 0.303649 -0.268615 -0.131578 -0.344215
11 -0.022755 -0.017997 0.010402 0.008892 0.014438 -0.011029 -0.020096 0.023319 0.018649 -0.022508 -0.004615 0.005927 -0.014992 0.016644 0.025927 -0.023252 -0.010098 -0.005158
