18 18
0 -0.141271 -0.439758 0.074010 -0.461554 -0.144060 0.026017 0.112422 0.009582 0.502728 -0.062755 0.065619 0.337272 -0.000579 -0.212393 0.469343 -0.433995 -0.003686 -0.496105
1 -0.180696 -0.444068 0.115325 -0.470062 -0.096664 -0.023572 0.132077 0.027005 0.534865 -0.067778 0.029816 0.332168 0.003169 -0.234639 0.426854 -0.450322 -0.013119 -0.527789
15 -0.159800 -0.403754 0.104412 -0.433001 -0.104785 0.041378 0.149981 -0.028391 0.477859 -0.061410 0.042906 0.304710 -0.014549 -0.189295 0.423263 -0.399729 -0.048290 -0.497018
4 -0.146584 -0.389685 0.095377 -0.438816 -0.090449 -0.019227 0.108421 0.042982 0.495735 -0.079238 0.047719 0.352086 0.006896 -0.223770 0.432844 -0.442309 -0.030568 -0.527121
10 -0.150701 -0.429272 0.079749 -0.447888 -0.116508 0.034171 0.164427 0.016447 0.571674 -0.071145 0.055945 0.358550 -0.021329 -0.217856 0.421260 -0.403024 -0.006409 -0.505380
14 -0.162178 -0.446282 0.131466 -0.478191 -0.126919 0.061203 0.144915 -0.020556 0.505193 -0.034455 -0.024476 0.343807 -0.051214 -0.218120 0.472868 -0.410002 -0.012025 -0.521572
2 -0.116453 -0.407508 0.083815 -0.443419 -0.112929 0.016214 0.141179 0.022893 0.441513 -0.068808 0.022027 0.336509 0.000085 -0.221204 0.427642 -0.445484 -0.048453 -0.464892
5 -0.119305 -0.404555 0.043458 -0.402015 -0.073508 -0.010190 0.143619 -0.004299 0.474854 -0.086555 0.054997 0.335847 -0.028284 -0.185581 0.414742 -0.424409 -0.045312 -0.483145
7 -0.108847 -0.395465 0.062020 -0.422622 -0.138763 0.046829 0.140611 0.014439 0.502530 -0.063205 0.004209 0.313051 -0.020479 -0.227797 0.448962 -0.396154 -0.011906 -0.479431
3 -0.179475 -0.391713 0.120536 -0.423901 -0.113751 0.014725 0.161519 0.010163 0.501101 -0.060170 0.043478 0.304998 -0.041599 -0.248682 0.406002 -0.419416 0.009885 -0.524236
17 -0.159677 -0.390859 0.094624 -0.393739 -0.157938 0.000811 0.171833 0.030965 0.564870 -0.017494 0.049137 0.342870 0.010325 -0.222856 0.375196 -0.363604 -0.003776 -0.533765
8 -0.120653 -0.418409 0.096306 -0.406309 -0.135834 0.036769 0.144689 0.021911 0.472480 -0.039304 0.012163 0.306315 -0.029859 -0.200161 0.442773 -0.416830 -0.000814 -0.453897
11 -0.155862 -0.439000 0.094644 -0.429501 -0.108758 0.017002 0.119988 0.029889 0.511568 -0.085836 0.020375 0.332987 -0.033537 -0.191723 0.476898 -0.446825 -0.034946 -0.491269
9 -0.174040 -0.403688 0.075715 -0.439847 -0.135137 0.021431 0.151661 0.023717 0.569219 -0.044029 0.043005 0.346793 -0.008395 -0.262706 0.406352 -0.407361 -0.015930 -0.501231
16 -0.152241 -0.410719 0.110435 -0.445297 -0.135750 0.039558 0.177715 -0.015946 0.515872 -0.047326 -0.008457 0.338237 -0.045409 -0.192819 0.475154 -0.431500 -0.052471 -0.551874
13 -0.138194 -0.435599 0.097114 -0.478638 -0.136198 0.009480 0.151594 -0.001258 0.566924 -0.042885 0.026393 0.326980 -0.000305 -0.261831 0.461025 -0.436175 -0.028852 -0.538187
12 -0.173549 -0.446504 0.095402 -0.469420 -0.129410 0.008694 0.116822 -0.032202 0.479312 -0.041475 0.056403 0.364618 -0.030593 -0.187286 0.453750 -0.399826 -0.061703 -0.497489
6 0.007299 -0.006988 0.006429 0.025394 0.003018 0.008962 0.013628 0.017139 -0.003415 0.002961 0.009307 -0.005691 -0.008572 -0.012634 0.015137 0.000585 -0.007433 -0.019036
