18 18
6 -0.273465 -0.338992 0.270324 -0.125706 -0.366790 -0.110771 0.151086 0.184123 0.483032 0.250066 0.087569 0.433021 -0.012577 -0.125081 0.323066 -0.106718 -0.213829 -0.594182
7 -0.254831 -0.331834 0.228057 -0.170931 -0.412707 -0.097351 0.159750 0.165731 0.529518 0.250544 0.067332 0.452572 0.002273 -0.165615 0.327510 -0.094223 -0.212680 -0.582900
1 -0.297675 -0.337477 0.278235 -0.168336 -0.354463 -0.156744 0.148210 0.175734 0.503897 0.253514 0.058869 0.422081 0.025697 -0.134203 0.264724 -0.111724 -0.197177 -0.581409
16 -0.270082 -0.308623 0.242867 -0.166831 -0.388611 -0.117772 0.185948 0.105275 0.470841 0.275187 0.033369 0.444460 -0.024579 -0.078042 0.304591 -0.093645 -0.269259 -0.569361
8 -0.255373 -0.339364 0.262410 -0.132471 -0.377402 -0.105982 0.159793 0.168197 0.477326 0.254371 0.060647 0.414928 -0.019339 -0.113396 0.314682 -0.118435 -0.184447 -0.555683
4 -0.286513 -0.294007 0.265283 -0.122991 -0.325388 -0.129853 0.094432 0.213601 0.479267 0.191710 0.119353 0.424604 0.020878 -0.114224 0.306433 -0.132265 -0.181728 -0.592490
11 -0.306756 -0.342774 0.266675 -0.141335 -0.342263 -0.122708 0.103866 0.197168 0.500073 0.201380 0.085319 0.435502 -0.012928 -0.104951 0.329525 -0.136805 -0.201559 -0.569145
17 -0.285203 -0.329072 0.259539 -0.147137 -0.406353 -0.145122 0.170096 0.162747 0.515865 0.275781 0.087730 0.459809 0.017386 -0.117222 0.276201 -0.081140 -0.220745 -0.599258
0 -0.291876 -0.337150 0.272562 -0.145122 -0.340211 -0.080486 0.081107 0.209570 0.460063 0.170535 0.135053 0.395442 0.006432 -0.116858 0.353178 -0.165252 -0.131033 -0.574569
9 -0.292354 -0.322270 0.219682 -0.188411 -0.404804 -0.126575 0.173916 0.143207 0.538597 0.276255 0.070074 0.486703 0.003668 -0.157212 0.282440 -0.090207 -0.267333 -0.561085
12 -0.325094 -0.363139 0.263734 -0.214855 -0.428329 -0.151656 0.164068 0.095463 0.506083 0.321603 0.080273 0.510363 -0.007997 -0.108868 0.296224 -0.060961 -0.301754 -0.588721
14 -0.286005 -0.342629 0.283080 -0.165526 -0.350614 -0.094704 0.122663 0.155729 0.463903 0.247715 0.055472 0.441931 -0.017243 -0.109231 0.314658 -0.099682 -0.187026 -0.568219
13 -0.257819 -0.313982 0.258267 -0.186455 -0.379758 -0.140943 0.164319 0.114437 0.490438 0.283145 0.048172 0.419447 0.016298 -0.130333 0.284323 -0.089715 -0.259064 -0.566744
3 -0.298393 -0.308274 0.268590 -0.145703 -0.343734 -0.111749 0.149990 0.163559 0.443602 0.208838 0.094888 0.382832 -0.026167 -0.164080 0.274664 -0.133248 -0.159484 -0.563593
15 -0.306512 -0.334254 0.277501 -0.168659 -0.340709 -0.083929 0.144424 0.134677 0.469200 0.211159 0.092008 0.413870 -0.004673 -0.094856 0.322852 -0.128650 -0.231840 -0.577440
10 -0.257623 -0.318100 0.221391 -0.159054 -0.368064 -0.094076 0.179836 0.128987 0.507792 0.245861 0.076172 0.454702 -0.021306 -0.098504 0.270863 -0.057147 -0.226927 -0.531935
2 0.021368 -0.003688 -0.004957 -0.007525 -0.007603 0.001755 0.011077 0.016235 -0.024745 -0.003279 -0.008624 0.014563 0.014594 -0.017313 -0.004715 -0.020484 -0.014205 0.014938
5 0.004065 -0.024114 -0.027650 -0.000619 0.020703 -0.008521 0.024223 -0.023969 0.025914 -0.018771 0.021210 0.020548 -0.020024 0.006829 0.014933 -0.023795 -0.013973 -0.021943
