18 18
0 -0.247966 -0.542221 0.183465 -0.226912 -0.261756 0.092541 0.336162 -0.025611 0.385618 0.188366 0.252529 0.518263 -0.212013 -0.152191 0.270646 -0.178525 -0.138962 -0.393008
13 -0.231190 -0.581038 0.180177 -0.251061 -0.307734 0.119549 0.358933 -0.082619 0.453287 0.273435 0.203566 0.583695 -0.239986 -0.103676 0.279750 -0.083871 -0.229589 -0.309159
17 -0.268018 -0.560499 0.172517 -0.189111 -0.265188 0.073772 0.366686 -0.027459 0.447281 0.216934 0.251421 0.576407 -0.224373 -0.104134 0.234017 -0.120676 -0.179214 -0.379635
10 -0.230827 -0.526518 0.141303 -0.199048 -0.239792 0.132526 0.342425 -0.056890 0.434243 0.197619 0.213964 0.561977 -0.247904 -0.058702 0.220651 -0.056779 -0.175257 -0.255972
9 -0.265605 -0.530752 0.161754 -0.205226 -0.227408 0.074961 0.359282 -0.005736 0.420433 0.172053 0.247862 0.537144 -0.219631 -0.186725 0.234734 -0.190018 -0.165679 -0.381801
8 -0.253777 -0.566663 0.193414 -0.203988 -0.253648 0.101639 0.372523 -0.023977 0.417326 0.207109 0.229667 0.539805 -0.241656 -0.139142 0.271481 -0.175903 -0.156861 -0.378072
1 -0.255613 -0.500645 0.238959 -0.205426 -0.157460 0.002572 0.375109 0.049997 0.340442 0.125683 0.222122 0.429230 -0.176722 -0.305710 0.197448 -0.300542 -0.079181 -0.502016
11 -0.275906 -0.546152 0.194573 -0.194706 -0.216799 0.059297 0.347085 0.010862 0.418064 0.152883 0.244544 0.533656 -0.233106 -0.161479 0.273324 -0.220065 -0.170173 -0.435460
3 -0.230619 -0.427773 0.264203 -0.177824 -0.128701 0.003802 0.433141 0.067588 0.234220 0.064276 0.257352 0.338697 -0.191465 -0.433908 0.181948 -0.397280 -0.012113 -0.608137
15 -0.262726 -0.515262 0.200947 -0.219088 -0.196040 0.100645 0.356449 -0.039316 0.376252 0.152394 0.235684 0.476024 -0.201925 -0.158228 0.239272 -0.189736 -0.157383 -0.394288
6 -0.228343 -0.491393 0.199583 -0.160612 -0.171652 0.052367 0.383430 0.031537 0.336295 0.132832 0.239193 0.444055 -0.210190 -0.264530 0.222951 -0.245298 -0.110538 -0.461252
4 -0.235676 -0.432610 0.239254 -0.186118 -0.145735 0.002867 0.389490 0.068988 0.311176 0.093408 0.295317 0.422566 -0.164489 -0.376944 0.201266 -0.344713 -0.070188 -0.588931
16 -0.231002 -0.448979 0.220760 -0.188963 -0.190058 0.029946 0.395370 0.027226 0.310662 0.129258 0.230732 0.437331 -0.190138 -0.280986 0.232155 -0.301082 -0.122045 -0.530339
5 -0.235530 -0.507290 0.165819 -0.179635 -0.140443 0.024168 0.394092 -0.002175 0.361990 0.092895 0.268211 0.451327 -0.213700 -0.248389 0.222124 -0.292984 -0.105479 -0.498268
2 -0.190255 -0.441755 0.197903 -0.179685 -0.169750 0.028819 0.376704 0.049358 0.270280 0.108700 0.218795 0.409335 -0.162677 -0.306380 0.190731 -0.294352 -0.094110 -0.458281
12 -0.275627 -0.548275 0.189190 -0.218178 -0.245907 0.061483 0.360757 -0.029028 0.372435 0.190797 0.273475 0.551281 -0.233665 -0.189141 0.242017 -0.184858 -0.171615 -0.411684
7 -0.202236 -0.473540 0.187108 -0.201460 -0.205910 0.059143 0.398587 0.029762 0.348142 0.124918 0.232296 0.447890 -0.187474 -0.323168 0.228004 -0.270225 -0.088856 -0.492919
14 -0.253934 -0.558801 0.208112 -0.233977 -0.227273 0.091211 0.350229 -0.030641 0.389396 0.204324 0.204016 0.547445 -0.234856 -0.165003 0.248044 -0.163844 -0.144076 -0.386445
