18 18
3 -0.247047 -0.311677 0.341130 -0.414196 -0.079257 0.060933 0.095752 0.102335 -0.321817 -0.205748 0.411823 -0.066417 -0.039434 -0.516341 0.257231 -0.640820 0.515990 -0.593962
8 -0.328286 -0.587709 0.069065 -0.380287 -0.254832 0.169347 0.073540 0.276931 0.553647 -0.126251 0.206154 0.579507 -0.239262 -0.352745 0.593674 -0.560113 -0.053351 -0.247110
0 -0.213184 -0.316693 0.267446 -0.404506 -0.122077 0.077401 0.065655 0.072418 -0.213336 -0.153998 0.363522 0.000364 -0.022612 -0.407930 0.283247 -0.545982 0.408850 -0.485657
9 -0.331204 -0.516877 -0.028959 -0.314711 -0.220323 0.154353 0.069664 0.303864 0.684327 -0.151164 0.180703 0.675687 -0.227905 -0.304327 0.536796 -0.494131 -0.172694 -0.185836
7 -0.216982 -0.350300 0.205102 -0.390591 -0.151344 0.098409 0.099249 0.144486 -0.027449 -0.174772 0.321776 0.133712 -0.053729 -0.457128 0.343800 -0.574544 0.315837 -0.484496
1 -0.275144 -0.384447 0.250569 -0.392685 -0.125142 0.059673 0.095460 0.143695 0.001842 -0.156591 0.308838 0.139659 -0.060732 -0.407283 0.322536 -0.573469 0.303206 -0.487057
15 -0.315431 -0.392015 0.170491 -0.332448 -0.155777 0.143023 0.161781 0.137430 0.214039 -0.161907 0.305562 0.344357 -0.122820 -0.260249 0.375347 -0.516493 0.102724 -0.456390
14 -0.277295 -0.374494 0.227787 -0.376016 -0.106640 0.104696 0.087020 0.140839 0.014717 -0.168657 0.304171 0.214057 -0.094378 -0.366991 0.333189 -0.543197 0.270609 -0.469504
16 -0.312009 -0.347941 0.172587 -0.283611 -0.201363 0.125370 0.235053 0.116506 0.221271 -0.120517 0.311791 0.405150 -0.136294 -0.161284 0.372412 -0.509888 0.079643 -0.551885
5 -0.245851 -0.383585 0.216530 -0.399213 -0.106386 0.083872 0.120682 0.106723 -0.063858 -0.202895 0.391022 0.146521 -0.079853 -0.418248 0.344528 -0.623589 0.329999 -0.537009
6 -0.207836 -0.302023 0.350368 -0.397851 -0.072933 0.061951 0.112307 0.101366 -0.388422 -0.202643 0.444852 -0.098842 -0.002175 -0.516110 0.253817 -0.644301 0.540715 -0.652639
10 -0.329872 -0.468737 0.057554 -0.309546 -0.173235 0.174330 0.127881 0.245258 0.487456 -0.194926 0.280318 0.557225 -0.207155 -0.252453 0.464031 -0.501499 -0.012194 -0.326243
2 -0.217119 -0.338751 0.273221 -0.403685 -0.108644 0.067205 0.096139 0.148826 -0.215391 -0.198551 0.378220 0.059603 -0.021552 -0.477274 0.287789 -0.638998 0.402944 -0.534185
17 -0.293573 -0.373375 0.133762 -0.248711 -0.223550 0.108432 0.210148 0.145493 0.307491 -0.089985 0.301786 0.446386 -0.120838 -0.146808 0.350820 -0.435271 0.045359 -0.476599
13 -0.271580 -0.473332 0.081454 -0.353585 -0.242815 0.138359 0.117699 0.182394 0.452208 -0.090097 0.205570 0.482327 -0.169160 -0.301605 0.497980 -0.493757 -0.062771 -0.309411
4 -0.230060 -0.266895 0.322400 -0.384071 -0.043426 0.030514 0.051992 0.136521 -0.320808 -0.222471 0.424359 -0.057951 0.009777 -0.489467 0.228050 -0.624139 0.512760 -0.600748
12 -0.305404 -0.460052 0.094512 -0.348692 -0.205861 0.115412 0.073476 0.171818 0.331670 -0.117107 0.270590 0.452534 -0.166846 -0.289977 0.444206 -0.475941 0.003000 -0.303731
11 -0.330411 -0.468782 0.077188 -0.304088 -0.146408 0.121857 0.056047 0.267038 0.446490 -0.192441 0.219079 0.485075 -0.192895 -0.273659 0.473570 -0.515206 -0.018131 -0.290313
