18 18
4 -0.205933 -0.489316 0.152030 -0.480372 -0.023686 -0.036245 0.020480 0.145922 0.541408 -0.000005 -0.062923 0.452200 0.066660 -0.372418 0.408101 -0.486400 -0.212645 -0.353119
5 -0.157294 -0.500347 0.114478 -0.414166 -0.042470 -0.009584 0.116465 0.084244 0.505885 0.016120 -0.035516 0.429218 0.036178 -0.320020 0.375915 -0.425217 -0.224666 -0.334881
16 -0.176420 -0.473092 0.151123 -0.434275 -0.062297 -0.012056 0.094581 0.106923 0.492927 0.032509 -0.091515 0.415543 0.036102 -0.308154 0.401388 -0.450773 -0.233569 -0.351031
13 -0.101445 -0.550048 0.161519 -0.323423 -0.169129 0.000861 0.227333 0.162793 0.509964 0.120907 -0.019186 0.460079 0.089474 -0.342936 0.353503 -0.326933 -0.276918 -0.408024
2 -0.014756 -0.589741 0.137744 -0.155947 -0.283874 0.033637 0.380475 0.250734 0.458781 0.179659 0.041237 0.517469 0.105843 -0.314276 0.313147 -0.229940 -0.310521 -0.454353
7 -0.134777 -0.498305 0.113867 -0.418609 -0.102233 0.015306 0.108599 0.132459 0.518870 0.033535 -0.075007 0.428982 0.051856 -0.357163 0.409922 -0.419464 -0.210212 -0.350422
8 -0.143470 -0.507883 0.149348 -0.379923 -0.097859 0.008546 0.127137 0.126849 0.469437 0.061826 -0.064920 0.402819 0.034594 -0.310128 0.368207 -0.394974 -0.188974 -0.318774
15 -0.199937 -0.556755 0.181817 -0.438333 -0.091599 0.025163 0.151716 0.102349 0.515424 0.054974 -0.034126 0.459987 0.064849 -0.320655 0.386377 -0.411505 -0.266440 -0.375597
17 -0.014525 -0.602150 0.160057 -0.049936 -0.353130 0.011966 0.440834 0.286807 0.488982 0.239235 0.093935 0.533202 0.118756 -0.257155 0.282503 -0.135344 -0.309607 -0.539260
12 -0.177965 -0.531530 0.143359 -0.378663 -0.118215 -0.014644 0.120885 0.120766 0.475837 0.076964 -0.010931 0.465955 0.049005 -0.303781 0.363041 -0.354428 -0.253780 -0.343445
9 -0.163656 -0.514287 0.124877 -0.398652 -0.101133 -0.002185 0.127671 0.150204 0.529421 0.054918 -0.045008 0.462052 0.057920 -0.352796 0.373151 -0.403529 -0.240112 -0.345293
10 -0.108959 -0.543713 0.130054 -0.309984 -0.145137 0.041207 0.227518 0.161403 0.512097 0.077158 -0.001458 0.475650 0.050796 -0.294746 0.344100 -0.314582 -0.241198 -0.367701
1 -0.168556 -0.527737 0.164957 -0.375351 -0.098951 -0.025029 0.140670 0.157770 0.502214 0.066490 -0.050418 0.428652 0.073596 -0.325557 0.346433 -0.382667 -0.217110 -0.372322
6 -0.028413 -0.564911 0.146430 -0.111933 -0.263163 0.032671 0.365224 0.249178 0.456934 0.175489 0.059055 0.477183 0.079861 -0.292241 0.323240 -0.202625 -0.292555 -0.477625
0 -0.161174 -0.472426 0.133116 -0.413679 -0.091448 0.010379 0.081595 0.105093 0.454319 0.036042 -0.032471 0.396469 0.052179 -0.301509 0.378528 -0.404321 -0.188298 -0.320320
14 -0.143807 -0.499056 0.159198 -0.357160 -0.098701 0.005364 0.125583 0.133276 0.450149 0.079279 -0.058191 0.432148 0.046792 -0.304448 0.349926 -0.343488 -0.208619 -0.352627
11 -0.174461 -0.522028 0.150699 -0.370874 -0.077063 -0.016984 0.108968 0.158119 0.507968 0.029276 -0.051948 0.437765 0.037966 -0.306016 0.396515 -0.418542 -0.238247 -0.356582
3 -0.024675 0.005665 0.025365 0.004601 0.007865 -0.001883 0.014761 -0.000233 -0.026227 -0.010111 0.011993 -0.020661 -0.026950 -0.026588 -0.012274 -0.019090 0.026092 -0.020014
