18 18
4 -0.216438 -0.332371 0.071177 -0.050853 -0.109347 -0.095220 0.142567 0.347187 0.542432 -0.019502 0.339140 0.639353 0.017621 -0.229704 0.179235 -0.150479 -0.247020 -0.489881
17 -0.194521 -0.341039 0.062391 -0.033987 -0.145094 -0.105267 0.163638 0.294763 0.551726 0.031691 0.303339 0.608843 0.029159 -0.169226 0.137269 -0.085738 -0.218220 -0.475045
11 -0.236080 -0.377240 0.097026 -0.058169 -0.123453 -0.083709 0.158942 0.347217 0.563622 -0.024484 0.310569 0.650854 -0.022709 -0.208839 0.223959 -0.170304 -0.262756 -0.511666
6 -0.206832 -0.322653 0.075317 -0.005666 -0.093725 -0.051948 0.162448 0.302687 0.498391 0.009523 0.337099 0.550694 -0.037234 -0.247352 0.138395 -0.084247 -0.191244 -0.413612
13 -0.213306 -0.351865 0.093910 -0.062822 -0.124075 -0.070620 0.177302 0.288265 0.559874 0.028993 0.339842 0.589342 -0.017869 -0.271550 0.156520 -0.105336 -0.223231 -0.466095
2 -0.174663 -0.365586 0.063452 -0.104318 -0.175123 -0.083486 0.198914 0.368796 0.494930 -0.027481 0.278497 0.681458 0.054752 -0.233068 0.247578 -0.239183 -0.341035 -0.514999
1 -0.215811 -0.346483 0.095069 -0.079374 -0.095837 -0.094420 0.146881 0.285502 0.502651 0.004233 0.259485 0.542529 0.012018 -0.212817 0.147001 -0.142744 -0.195808 -0.444358
8 -0.231010 -0.378435 0.116995 -0.049108 -0.125579 -0.028654 0.185861 0.308575 0.511131 0.024431 0.325776 0.583076 -0.069568 -0.270267 0.170616 -0.132098 -0.166447 -0.428837
10 -0.222773 -0.339606 0.086837 -0.034098 -0.093355 -0.016721 0.177866 0.295611 0.534796 -0.005916 0.357541 0.603282 -0.074528 -0.239813 0.124847 -0.064161 -0.165216 -0.396870
9 -0.245004 -0.349403 0.067714 -0.056166 -0.102874 -0.055422 0.159081 0.318983 0.547996 0.005294 0.347778 0.620704 -0.036556 -0.289919 0.131563 -0.113710 -0.205056 -0.410007
7 -0.180135 -0.326296 0.057095 -0.049751 -0.138227 -0.043974 0.168475 0.300805 0.539055 0.009359 0.308047 0.589501 -0.015842 -0.258791 0.156999 -0.086733 -0.192232 -0.427676
0 -0.211850 -0.373340 0.073298 -0.106773 -0.161004 -0.064624 0.164434 0.317965 0.527773 -0.007050 0.324440 0.641607 0.023605 -0.224968 0.227787 -0.182586 -0.254237 -0.504337
12 -0.233598 -0.355377 0.079356 -0.065494 -0.128253 -0.075151 0.143829 0.273010 0.498382 0.027592 0.340398 0.608269 -0.026799 -0.217005 0.146426 -0.087253 -0.221357 -0.417626
5 -0.202634 -0.379937 0.041372 -0.063549 -0.109328 -0.097191 0.191842 0.288013 0.572735 -0.020875 0.327381 0.644843 -0.004704 -0.194719 0.205568 -0.173525 -0.271374 -0.522294
3 -0.257194 -0.332523 0.130430 -0.039375 -0.099679 -0.040219 0.182925 0.306681 0.476537 0.004150 0.355417 0.567779 -0.087220 -0.309370 0.119988 -0.110841 -0.151506 -0.421487
14 -0.243719 -0.378037 0.126146 -0.071145 -0.094010 -0.044718 0.155706 0.294936 0.534172 0.030026 0.318019 0.627807 -0.055079 -0.265540 0.139049 -0.083552 -0.174724 -0.443268
15 -0.244175 -0.351951 0.097525 -0.074939 -0.096828 -0.030413 0.170699 0.258520 0.511825 -0.002249 0.339019 0.569484 -0.029640 -0.237545 0.154270 -0.118003 -0.212563 -0.440989
16 -0.191411 -0.351874 0.072632 -0.090640 -0.162994 -0.088523 0.199072 0.321578 0.524922 -0.012734 0.257867 0.653857 0.024225 -0.174195 0.260905 -0.215503 -0.329879 -0.552894
