18 18
15 -0.245410 -0.286015 0.022245 -0.154152 -0.109082 0.144573 0.229450 0.179793 0.466626 -0.170202 0.363482 0.495028 -0.115676 -0.224466 0.331354 -0.305772 -0.196530 -0.450856
6 -0.240132 -0.297092 0.017163 -0.104692 -0.099324 0.128444 0.241299 0.257935 0.475742 -0.164228 0.368435 0.504229 -0.145651 -0.298998 0.317221 -0.320397 -0.125827 -0.465171
9 -0.264255 -0.300250 -0.030900 -0.186507 -0.113831 0.131279 0.200928 0.244651 0.529500 -0.166660 0.348129 0.558493 -0.110356 -0.308479 0.297867 -0.319022 -0.146756 -0.399328
0 -0.235662 -0.297159 -0.002067 -0.184760 -0.153638 0.133002 0.189667 0.204145 0.477457 -0.146935 0.368804 0.533073 -0.104205 -0.229832 0.336092 -0.296643 -0.143470 -0.421739
10 -0.222270 -0.289499 -0.025873 -0.161266 -0.114179 0.151266 0.203257 0.191146 0.519990 -0.174461 0.373960 0.533968 -0.113006 -0.192706 0.300926 -0.242070 -0.175505 -0.368568
3 -0.257232 -0.244096 0.051318 -0.095709 -0.076739 0.108854 0.240386 0.219548 0.392305 -0.185984 0.360271 0.429045 -0.163329 -0.284423 0.272852 -0.326287 -0.083352 -0.473013
11 -0.242981 -0.286971 0.009372 -0.129635 -0.107992 0.101235 0.185262 0.219501 0.490620 -0.171441 0.344221 0.515425 -0.119708 -0.188563 0.331536 -0.295317 -0.188356 -0.420823
4 -0.235695 -0.235543 0.017201 -0.097579 -0.073535 0.100847 0.217233 0.261535 0.453243 -0.196302 0.377175 0.479863 -0.116619 -0.289587 0.293155 -0.335069 -0.114443 -0.484725
1 -0.258417 -0.307778 0.026723 -0.156678 -0.096282 0.092223 0.205105 0.231296 0.497032 -0.157850 0.332521 0.498540 -0.104870 -0.259551 0.294678 -0.308178 -0.130708 -0.437734
2 -0.214518 -0.269536 0.011078 -0.125821 -0.096666 0.120884 0.245816 0.246359 0.435681 -0.186902 0.347930 0.489906 -0.117071 -0.299624 0.295635 -0.345572 -0.143694 -0.447092
12 -0.247580 -0.291554 -0.005793 -0.159559 -0.136306 0.106437 0.187264 0.174401 0.458418 -0.140307 0.378258 0.540881 -0.117488 -0.193925 0.313090 -0.263129 -0.194446 -0.408017
7 -0.219656 -0.274152 -0.014270 -0.134651 -0.117285 0.135208 0.229058 0.238754 0.492954 -0.183432 0.344466 0.501415 -0.127805 -0.308318 0.323482 -0.314006 -0.118382 -0.467664
5 -0.227775 -0.281850 -0.010274 -0.108940 -0.067881 0.102876 0.254816 0.184527 0.470155 -0.188842 0.374174 0.488444 -0.156757 -0.252778 0.312594 -0.333132 -0.154513 -0.476962
16 -0.216188 -0.264667 -0.001111 -0.153894 -0.138070 0.115604 0.215051 0.179325 0.477072 -0.137105 0.330233 0.523869 -0.111820 -0.178721 0.333475 -0.282300 -0.208263 -0.424806
17 -0.241653 -0.301772 0.009821 -0.141830 -0.151903 0.111070 0.234803 0.214546 0.527562 -0.132567 0.373552 0.563924 -0.103825 -0.210990 0.309989 -0.263894 -0.181580 -0.457354
14 -0.260019 -0.327321 0.032630 -0.190681 -0.110239 0.137821 0.201169 0.216624 0.491328 -0.135028 0.324449 0.550193 -0.126245 -0.271771 0.318947 -0.292495 -0.135318 -0.434368
8 -0.229489 -0.300331 0.026256 -0.124642 -0.121168 0.138395 0.238739 0.235391 0.458905 -0.147053 0.331460 0.490452 -0.141523 -0.268796 0.315794 -0.321709 -0.113343 -0.428387
13 -0.220074 -0.302053 0.004860 -0.198224 -0.142175 0.124474 0.212366 0.179962 0.522721 -0.132034 0.357261 0.530867 -0.089999 -0.256671 0.338173 -0.282744 -0.223364 -0.427718
