18 18
0 -0.224843 -0.604550 0.123277 -0.334233 -0.120224 0.114731 0.179489 0.184052 0.502617 -0.012047 -0.085306 0.509579 -0.172578 -0.172177 0.370053 -0.366295 0.117253 -0.309954
8 -0.221602 -0.611930 0.158916 -0.295977 -0.074758 0.075469 0.200838 0.216638 0.539891 0.011758 -0.118390 0.517256 -0.190058 -0.202884 0.336854 -0.364074 0.124687 -0.335246
10 -0.193927 -0.559195 0.149097 -0.297959 -0.039005 0.085252 0.216282 0.187501 0.582143 0.015005 -0.033503 0.586022 -0.190085 -0.186398 0.245889 -0.224725 0.122007 -0.338060
16 -0.221476 -0.566129 0.152521 -0.302938 -0.073716 0.079384 0.221639 0.176841 0.531620 0.008467 -0.110186 0.521376 -0.188639 -0.165964 0.333402 -0.337495 0.070220 -0.362387
2 -0.195600 -0.582954 0.142448 -0.306111 -0.093160 0.090465 0.217023 0.207701 0.478763 -0.007115 -0.127140 0.494791 -0.155212 -0.199309 0.322226 -0.371507 0.087800 -0.304630
5 -0.203365 -0.585028 0.111542 -0.285598 -0.046992 0.071789 0.227527 0.165727 0.527408 -0.026950 -0.101029 0.493467 -0.190530 -0.179152 0.330737 -0.370956 0.082060 -0.333508
11 -0.251801 -0.610081 0.149954 -0.288356 -0.066768 0.076798 0.191821 0.221798 0.525420 -0.044344 -0.129526 0.487828 -0.196714 -0.174468 0.367539 -0.408355 0.077305 -0.322613
17 -0.212615 -0.570059 0.142616 -0.276552 -0.094340 0.057070 0.204023 0.199676 0.538943 0.031661 -0.080554 0.541576 -0.154663 -0.160105 0.283537 -0.285620 0.107255 -0.346718
1 -0.238157 -0.596231 0.174710 -0.308447 -0.046450 0.049214 0.198537 0.199111 0.527728 0.008367 -0.120172 0.489974 -0.157514 -0.196370 0.287570 -0.335171 0.114802 -0.340585
14 -0.234260 -0.597012 0.169109 -0.310892 -0.054821 0.084829 0.189051 0.192610 0.501664 0.002139 -0.150568 0.496850 -0.191455 -0.197970 0.334071 -0.360439 0.110831 -0.330312
7 -0.197758 -0.581223 0.113481 -0.307999 -0.105530 0.104933 0.204993 0.207062 0.528340 -0.023844 -0.138711 0.493268 -0.171266 -0.215887 0.359987 -0.373945 0.108489 -0.319725
12 -0.249002 -0.623100 0.156681 -0.330847 -0.079184 0.068660 0.200020 0.170168 0.537011 0.016907 -0.070866 0.565230 -0.195803 -0.189383 0.325249 -0.321548 0.075712 -0.343965
9 -0.222967 -0.565281 0.113428 -0.304416 -0.071176 0.074872 0.185100 0.205433 0.542134 -0.000797 -0.089746 0.530973 -0.166320 -0.209753 0.301074 -0.334088 0.092228 -0.306935
13 -0.195940 -0.573117 0.174341 -0.318999 -0.054944 0.051461 0.215674 0.182643 0.570181 0.037526 -0.091757 0.529372 -0.166709 -0.234230 0.291183 -0.297178 0.087418 -0.372450
4 -0.213636 -0.543855 0.149616 -0.288821 -0.029567 0.044655 0.171261 0.215505 0.551222 -0.007662 -0.056481 0.543455 -0.159976 -0.207534 0.283516 -0.306365 0.110509 -0.362714
15 -0.249124 -0.601661 0.165318 -0.315931 -0.066256 0.106868 0.223688 0.156173 0.521036 -0.005955 -0.084676 0.502739 -0.178856 -0.167949 0.330942 -0.341094 0.069889 -0.347379
6 -0.213521 -0.599773 0.148239 -0.268571 -0.068839 0.086209 0.224208 0.198348 0.524478 0.005709 -0.087813 0.503846 -0.187464 -0.190048 0.337718 -0.334256 0.083638 -0.350509
3 -0.247728 -0.605722 0.176139 -0.310323 -0.075064 0.079698 0.237964 0.215500 0.517909 -0.022377 -0.117117 0.502976 -0.213809 -0.246226 0.335549 -0.408489 0.132786 -0.364615
