18 18
17 -0.284704 -0.248479 0.062074 0.055215 -0.030427 -0.022222 0.266180 0.159086 0.506510 -0.135313 0.366015 0.577095 -0.104545 0.238483 0.319771 -0.221403 -0.319374 -0.608802
12 -0.183756 -0.324240 0.080033 0.021481 -0.115753 0.001374 0.236303 0.199789 0.468129 -0.053639 0.245190 0.555826 -0.119960 0.071856 0.446702 -0.313114 -0.334844 -0.564545
4 -0.143617 -0.228528 0.050630 0.068387 -0.052501 0.004193 0.210873 0.210662 0.440762 -0.110132 0.246047 0.485608 -0.092854 0.111845 0.385187 -0.292175 -0.285629 -0.526910
15 -0.168295 -0.293228 0.068808 0.031072 -0.089995 0.051223 0.273686 0.170916 0.471088 -0.094905 0.236156 0.496061 -0.114274 0.100987 0.427594 -0.314647 -0.312616 -0.547040
0 -0.228348 -0.280118 0.065783 0.007508 -0.070809 0.011573 0.227775 0.168249 0.472699 -0.112072 0.309523 0.533447 -0.103500 0.157085 0.404960 -0.282855 -0.288966 -0.567477
5 -0.207471 -0.279049 0.023205 0.042181 -0.034344 -0.007060 0.266129 0.137716 0.501748 -0.130215 0.325503 0.548160 -0.127239 0.176146 0.396324 -0.286790 -0.324097 -0.586398
2 -0.060281 -0.304899 0.050276 0.064489 -0.151475 0.041103 0.292903 0.250060 0.456937 -0.053748 0.167826 0.519253 -0.105806 0.021940 0.455194 -0.363271 -0.311378 -0.525979
1 -0.353788 -0.260955 0.094196 -0.002946 0.062479 -0.060185 0.202169 0.143821 0.483126 -0.177280 0.361010 0.541319 -0.089945 0.230390 0.299069 -0.253766 -0.314923 -0.604577
6 -0.018864 -0.331307 0.065609 0.105455 -0.204821 0.060178 0.315646 0.279174 0.479437 0.000070 0.127832 0.478103 -0.132231 -0.044783 0.511168 -0.363187 -0.280583 -0.544234
9 -0.091737 -0.313536 0.046248 0.054292 -0.165345 0.041354 0.295722 0.252665 0.504057 -0.031057 0.163532 0.520556 -0.121330 -0.030881 0.450667 -0.353163 -0.300109 -0.524068
11 -0.062862 -0.319988 0.056437 0.076220 -0.151752 0.032119 0.246392 0.260950 0.480723 -0.050989 0.137805 0.481743 -0.120548 0.019905 0.487811 -0.361499 -0.283017 -0.506549
16 -0.244788 -0.223097 0.081311 0.048040 -0.019693 0.027188 0.278108 0.156475 0.446629 -0.148020 0.249296 0.507998 -0.143400 0.217179 0.365192 -0.286157 -0.331603 -0.565278
13 0.341360 -0.409039 0.015160 0.107843 -0.489249 0.120086 0.362634 0.343855 0.512573 0.211895 -0.136970 0.392722 -0.093150 -0.313999 0.693388 -0.460587 -0.220896 -0.422796
8 0.490635 -0.477979 0.000920 0.155888 -0.621800 0.172457 0.392121 0.408384 0.496880 0.305492 -0.267768 0.348686 -0.123783 -0.410971 0.783379 -0.520117 -0.132072 -0.332760
10 -0.232642 -0.251433 0.066368 0.063869 -0.004631 0.057904 0.286047 0.173278 0.480722 -0.174031 0.280551 0.524425 -0.156542 0.218796 0.351089 -0.258324 -0.300027 -0.540352
14 -0.162812 -0.282956 0.091354 0.025771 -0.070046 0.029485 0.234564 0.188971 0.432182 -0.070039 0.187329 0.501500 -0.121416 0.084540 0.399855 -0.290361 -0.279861 -0.526758
7 0.366621 -0.417529 -0.018750 0.124024 -0.518907 0.147954 0.366349 0.385184 0.551645 0.195436 -0.148763 0.418714 -0.101649 -0.325590 0.733256 -0.476161 -0.193488 -0.422596
3 -0.198405 -0.292073 0.101941 0.049764 -0.086155 0.019538 0.291637 0.204712 0.450544 -0.091208 0.237550 0.491988 -0.151577 0.049401 0.397480 -0.333154 -0.271274 -0.580247
