18 18
10 -0.213469 -0.445125 0.148497 -0.220255 -0.155891 0.295184 0.234450 0.166015 0.150306 -0.117662 0.237180 0.648600 -0.400600 -0.010801 0.414460 -0.316079 -0.062171 -0.253014
0 -0.221147 -0.451806 0.171882 -0.244562 -0.183004 0.269049 0.201746 0.150146 0.106965 -0.087847 0.235000 0.605405 -0.371504 -0.031293 0.439039 -0.342941 -0.043913 -0.277237
17 -0.180546 -0.445072 0.163911 -0.181077 -0.241262 0.219850 0.244501 0.191710 0.195803 -0.001356 0.213900 0.678259 -0.331793 -0.032465 0.421729 -0.265866 -0.135483 -0.329951
16 -0.206531 -0.422702 0.169072 -0.211375 -0.184224 0.246771 0.232430 0.158418 0.127666 -0.065546 0.187365 0.626218 -0.375091 -0.014406 0.432083 -0.332765 -0.101407 -0.296896
3 -0.235937 -0.418355 0.191533 -0.206512 -0.145573 0.251438 0.218479 0.173030 0.080572 -0.111855 0.220848 0.580951 -0.392654 -0.053284 0.391478 -0.351315 -0.027981 -0.281713
11 -0.226388 -0.455022 0.188287 -0.205585 -0.151009 0.246108 0.202230 0.200299 0.146207 -0.108934 0.204067 0.626160 -0.392450 -0.027247 0.455944 -0.364248 -0.087250 -0.294170
4 -0.180081 -0.380230 0.157555 -0.182268 -0.170340 0.207958 0.184902 0.190406 0.149170 -0.058653 0.216755 0.609515 -0.313010 -0.039243 0.398597 -0.290122 -0.100805 -0.299999
5 -0.186408 -0.451562 0.139216 -0.202430 -0.161370 0.230575 0.244026 0.141681 0.165742 -0.074208 0.219846 0.631692 -0.373385 -0.032972 0.430359 -0.327026 -0.115059 -0.307396
12 -0.203699 -0.442126 0.154940 -0.217343 -0.209852 0.224913 0.209623 0.139333 0.142451 -0.013542 0.219337 0.660185 -0.348594 -0.031312 0.408272 -0.261774 -0.152721 -0.271528
6 -0.179145 -0.461498 0.165006 -0.187996 -0.210760 0.253964 0.252391 0.191441 0.164426 -0.033052 0.225932 0.663843 -0.365953 -0.063799 0.460060 -0.304947 -0.145836 -0.329222
14 -0.214686 -0.469466 0.199385 -0.237464 -0.185799 0.266091 0.219501 0.178645 0.133191 -0.039648 0.183243 0.680096 -0.382899 -0.051904 0.431885 -0.310675 -0.087529 -0.292780
2 -0.192865 -0.439491 0.161591 -0.225304 -0.188118 0.255638 0.223773 0.195102 0.105682 -0.084315 0.205968 0.653554 -0.354343 -0.049803 0.413348 -0.346447 -0.088407 -0.261069
13 -0.169780 -0.451563 0.182675 -0.227716 -0.205973 0.248755 0.257492 0.157036 0.178248 -0.023317 0.194277 0.649277 -0.365475 -0.071852 0.456040 -0.315901 -0.154979 -0.325397
9 -0.209014 -0.453511 0.140381 -0.225663 -0.194235 0.260764 0.235718 0.187965 0.182077 -0.066220 0.228647 0.681705 -0.373772 -0.076273 0.432098 -0.329018 -0.123336 -0.279796
8 -0.180334 -0.463883 0.175816 -0.197269 -0.209213 0.260070 0.251986 0.188394 0.166647 -0.027950 0.188722 0.653596 -0.380806 -0.051710 0.445326 -0.323940 -0.102257 -0.285545
7 -0.159397 -0.440307 0.138571 -0.206671 -0.229244 0.256997 0.239905 0.182805 0.194026 -0.038039 0.197184 0.661586 -0.348788 -0.068035 0.452820 -0.289644 -0.126863 -0.306189
15 -0.025404 -0.016269 0.019351 -0.021953 0.006735 0.026510 0.013636 -0.025312 0.000633 -0.010033 0.011049 -0.002501 0.001724 0.010837 0.011554 -0.010070 -0.020449 -0.014280
1 -0.027660 -0.027217 0.026180 -0.019122 0.012075 -0.026796 -0.004699 0.019366 0.022084 0.001540 -0.016522 -0.005216 0.015504 -0.011155 -0.013895 -0.016653 0.015775 -0.011908
