18 18
10 -0.285715 -0.402900 0.029234 -0.241064 -0.108158 0.116349 0.221851 0.160198 0.050922 -0.171903 0.396651 0.722401 -0.317514 -0.269015 0.230358 -0.343891 -0.133897 -0.299027
11 -0.321334 -0.437991 0.057475 -0.200495 -0.054098 0.056282 0.199872 0.215872 0.078830 -0.203532 0.360664 0.665796 -0.326229 -0.297535 0.244907 -0.401419 -0.135515 -0.317507
2 -0.260493 -0.406337 0.040934 -0.209641 -0.083258 0.073126 0.228889 0.194946 0.030777 -0.179715 0.349262 0.653280 -0.288674 -0.313570 0.209872 -0.384513 -0.130364 -0.294392
12 -0.320800 -0.421710 0.055885 -0.272788 -0.139594 0.083167 0.178560 0.138655 -0.002714 -0.127031 0.397851 0.728065 -0.304494 -0.279848 0.247187 -0.344966 -0.156650 -0.303655
14 -0.301647 -0.415944 0.079080 -0.255475 -0.085458 0.093110 0.178034 0.166083 0.012491 -0.147191 0.335866 0.689716 -0.313413 -0.293618 0.238568 -0.357793 -0.110650 -0.306084
16 -0.296753 -0.384313 0.056765 -0.269745 -0.140763 0.108676 0.207326 0.132927 0.007544 -0.133769 0.357559 0.721915 -0.306556 -0.244891 0.273269 -0.366177 -0.169779 -0.331687
6 -0.269835 -0.397746 0.058655 -0.161548 -0.054624 0.065364 0.221305 0.206025 0.048423 -0.170215 0.345526 0.590781 -0.299325 -0.309643 0.206684 -0.358008 -0.113236 -0.305332
1 -0.323091 -0.447814 0.075365 -0.240610 -0.074227 0.047162 0.209918 0.211161 0.067553 -0.171203 0.358992 0.684517 -0.297389 -0.325476 0.211962 -0.396889 -0.111137 -0.329277
9 -0.304696 -0.403772 0.039769 -0.229123 -0.078064 0.072235 0.201406 0.194963 0.060290 -0.171050 0.352932 0.670296 -0.299649 -0.324480 0.216967 -0.382877 -0.138074 -0.288227
5 -0.289096 -0.438361 0.026214 -0.198269 -0.046984 0.050433 0.242518 0.172029 0.082148 -0.192488 0.377947 0.650527 -0.318230 -0.308841 0.217331 -0.394869 -0.129331 -0.327186
4 -0.280784 -0.348325 0.053074 -0.234718 -0.106398 0.081295 0.157510 0.184923 0.019162 -0.152549 0.381012 0.691050 -0.266096 -0.278508 0.231629 -0.349168 -0.120856 -0.323355
0 -0.302492 -0.404176 0.054971 -0.282610 -0.149590 0.107614 0.170973 0.156611 0.013301 -0.140470 0.392349 0.706159 -0.288201 -0.281845 0.270564 -0.366517 -0.113092 -0.317187
7 -0.266904 -0.401495 0.018261 -0.246138 -0.131443 0.096343 0.203308 0.176320 0.068635 -0.157538 0.349661 0.695376 -0.284300 -0.315550 0.256720 -0.356604 -0.131744 -0.316048
3 -0.310033 -0.393883 0.081252 -0.190939 -0.055867 0.057666 0.217728 0.195731 0.030301 -0.182167 0.351360 0.604092 -0.322836 -0.327429 0.195778 -0.382976 -0.084517 -0.321233
17 -0.297095 -0.422635 0.056498 -0.205046 -0.109526 0.052085 0.224368 0.198143 0.076150 -0.146585 0.374837 0.698768 -0.286999 -0.288626 0.207844 -0.352219 -0.123154 -0.341421
15 -0.303633 -0.406157 0.068444 -0.223088 -0.064635 0.093373 0.217004 0.155248 0.057891 -0.177159 0.347826 0.613896 -0.282205 -0.278566 0.218883 -0.363914 -0.132638 -0.312086
13 0.019096 0.002747 0.009678 -0.019404 -0.008210 -0.004883 0.008138 -0.018294 0.006568 0.019257 -0.015253 -0.018294 0.012156 -0.023377 0.007956 -0.002520 -0.021393 -0.009389
8 0.003889 -0.024784 0.014791 0.006068 -0.018192 0.009774 0.013932 0.005426 -0.001505 0.020585 -0.012265 0.000073 -0.017512 0.000480 0.021614 -0.017675 0.015234 0.001164
