18 18
8 -0.108478 -0.493589 0.246135 -0.201574 -0.016983 -0.046104 0.339878 0.067892 0.312418 0.001311 -0.010267 0.125745 -0.113851 -0.335495 0.365364 -0.483251 -0.090930 -0.551135
10 -0.114445 -0.497468 0.224415 -0.205758 0.018591 -0.037595 0.348891 0.110423 0.346431 -0.063073 0.014821 0.162227 -0.119202 -0.366828 0.367800 -0.496361 -0.101927 -0.561253
1 -0.130671 -0.511141 0.250261 -0.226680 -0.002682 -0.092482 0.322942 0.117293 0.338678 -0.028080 -0.037651 0.124880 -0.069607 -0.351516 0.372938 -0.522996 -0.086727 -0.600826
3 -0.144927 -0.430701 0.239181 -0.199005 0.029076 -0.059237 0.318940 0.087842 0.258153 -0.071029 0.036243 0.109533 -0.132211 -0.410592 0.342977 -0.522677 -0.092377 -0.561312
0 -0.116324 -0.475387 0.234442 -0.226117 -0.032650 -0.040615 0.295681 0.077154 0.290064 -0.017663 0.009238 0.123361 -0.084619 -0.323452 0.386308 -0.483180 -0.078789 -0.559280
5 -0.090574 -0.482968 0.193248 -0.227876 0.003138 -0.057618 0.357126 0.024175 0.333027 -0.030722 0.010948 0.139867 -0.107582 -0.348836 0.375832 -0.496164 -0.131084 -0.577160
15 -0.127643 -0.476913 0.245405 -0.241713 -0.001104 -0.029979 0.335642 0.033494 0.306981 -0.026512 0.011331 0.119913 -0.083820 -0.338468 0.366533 -0.482129 -0.145523 -0.570595
2 -0.076442 -0.452878 0.199865 -0.204572 -0.006442 -0.065902 0.316547 0.130147 0.274269 -0.054639 -0.019349 0.145997 -0.066733 -0.370808 0.360426 -0.515655 -0.111916 -0.537743
13 -0.081621 -0.510003 0.261203 -0.266447 -0.029172 -0.062831 0.386082 0.049404 0.355061 0.005520 -0.030671 0.112675 -0.081437 -0.419030 0.418973 -0.536403 -0.160046 -0.641576
9 -0.122320 -0.448345 0.207145 -0.220037 0.001068 -0.047866 0.315100 0.072573 0.319860 -0.029724 0.024978 0.144757 -0.100504 -0.390210 0.352935 -0.491600 -0.132727 -0.534116
16 -0.110179 -0.455884 0.230198 -0.204032 -0.015719 -0.063909 0.332424 0.086563 0.301864 -0.023126 -0.030750 0.135862 -0.097597 -0.319432 0.388699 -0.502662 -0.129031 -0.590992
12 -0.142126 -0.490423 0.232160 -0.232645 -0.009562 -0.064629 0.296470 0.050515 0.280815 -0.015422 0.029542 0.156163 -0.104349 -0.343393 0.365370 -0.471353 -0.131013 -0.545524
6 -0.097985 -0.487045 0.236263 -0.191264 -0.008278 -0.054076 0.341806 0.107412 0.302111 -0.028103 -0.007735 0.115415 -0.095833 -0.369207 0.400798 -0.507263 -0.121331 -0.603408
7 -0.104636 -0.576172 0.249666 -0.266536 -0.030639 -0.054637 0.389450 0.117827 0.410375 -0.044602 -0.025669 0.159321 -0.090055 -0.447635 0.472545 -0.585578 -0.127682 -0.694440
11 -0.141888 -0.478441 0.237219 -0.203296 0.021103 -0.064503 0.289566 0.100706 0.316183 -0.060383 0.005028 0.132651 -0.112589 -0.339798 0.385403 -0.513879 -0.117713 -0.553979
14 -0.129975 -0.474296 0.258771 -0.224682 0.009885 -0.047367 0.295852 0.071128 0.287136 -0.007700 -0.023690 0.136925 -0.102677 -0.340317 0.353261 -0.462457 -0.086179 -0.549192
4 -0.128658 -0.443758 0.228847 -0.186559 0.033043 -0.084414 0.291182 0.138007 0.303952 -0.072051 0.037503 0.147426 -0.087103 -0.377544 0.362370 -0.523214 -0.098916 -0.589297
17 -0.102140 -0.489935 0.230177 -0.184638 -0.049980 -0.080251 0.338339 0.109770 0.341322 0.006340 -0.005528 0.161456 -0.073272 -0.317709 0.362777 -0.463369 -0.093880 -0.596539
