18 18
8 -0.186972 -0.438863 0.054684 -0.167354 -0.223058 0.062033 0.212136 0.181829 0.373131 0.057348 0.085075 0.468886 -0.236873 -0.220731 0.464765 -0.467557 -0.120817 -0.307266
1 -0.237543 -0.482718 0.084015 -0.193354 -0.214344 0.028288 0.225294 0.205325 0.415669 0.058427 0.094177 0.508215 -0.226634 -0.239354 0.459981 -0.489223 -0.124529 -0.365513
14 -0.211849 -0.465428 0.094997 -0.201886 -0.200060 0.073559 0.188284 0.170775 0.349208 0.074016 0.063814 0.498318 -0.243157 -0.233807 0.465187 -0.445631 -0.106852 -0.330657
2 -0.162420 -0.410275 0.025620 -0.160771 -0.211447 0.052051 0.226790 0.205639 0.340973 0.025262 0.115365 0.490484 -0.199612 -0.249050 0.427510 -0.473150 -0.149987 -0.305050
6 -0.201097 -0.464604 0.072308 -0.143730 -0.217652 0.071438 0.231435 0.208467 0.378701 0.062871 0.114194 0.497337 -0.242236 -0.244960 0.476125 -0.452774 -0.126196 -0.364199
4 -0.202197 -0.386281 0.044512 -0.154774 -0.188618 0.029704 0.176612 0.205124 0.380445 0.021483 0.142258 0.486739 -0.193271 -0.222728 0.430280 -0.446828 -0.127282 -0.349850
12 -0.213696 -0.422374 0.035885 -0.175138 -0.221035 0.039890 0.186940 0.152355 0.362488 0.053975 0.138590 0.499158 -0.221429 -0.193206 0.432053 -0.412560 -0.153797 -0.308582
16 -0.203184 -0.414942 0.062373 -0.171523 -0.214764 0.053888 0.224331 0.167652 0.373220 0.052892 0.085903 0.488965 -0.230353 -0.190751 0.461079 -0.455729 -0.153933 -0.351766
9 -0.199272 -0.399330 0.011233 -0.186252 -0.197147 0.058951 0.185319 0.171643 0.401859 0.025078 0.098950 0.476045 -0.213206 -0.222325 0.421130 -0.439657 -0.151742 -0.263371
0 -0.212339 -0.455607 0.057805 -0.204905 -0.230742 0.073957 0.193298 0.164753 0.378212 0.052088 0.118310 0.488839 -0.224307 -0.215283 0.474397 -0.457067 -0.114158 -0.326681
7 -0.172540 -0.417777 0.006553 -0.178746 -0.233203 0.069838 0.209087 0.189912 0.423608 0.025121 0.108715 0.495172 -0.217130 -0.246963 0.474851 -0.454734 -0.135989 -0.324838
15 -0.224811 -0.448004 0.079882 -0.201663 -0.203137 0.087837 0.202128 0.137262 0.366605 0.047682 0.095916 0.468497 -0.218838 -0.192655 0.453531 -0.434323 -0.146366 -0.322422
17 -0.202130 -0.449339 0.082653 -0.158291 -0.232185 0.040414 0.213760 0.173645 0.384205 0.095495 0.082265 0.493932 -0.208835 -0.191965 0.423635 -0.397844 -0.112084 -0.347467
10 -0.186884 -0.413693 0.025692 -0.159374 -0.197075 0.077915 0.224416 0.169919 0.404758 0.020569 0.117942 0.490182 -0.232568 -0.184536 0.424459 -0.418226 -0.126212 -0.296211
11 -0.229446 -0.443640 0.044717 -0.185788 -0.189241 0.055921 0.166273 0.181726 0.414194 0.003980 0.094053 0.475674 -0.243207 -0.184664 0.476618 -0.472820 -0.159251 -0.288638
13 -0.195557 -0.449304 0.072517 -0.214432 -0.213591 0.059922 0.207436 0.142724 0.404938 0.065255 0.064845 0.462965 -0.224793 -0.221439 0.473287 -0.456049 -0.165317 -0.318718
5 -0.167323 -0.424978 0.022027 -0.145682 -0.176620 0.045178 0.233734 0.155997 0.361742 0.029824 0.122148 0.474509 -0.229851 -0.219485 0.432797 -0.445380 -0.127004 -0.339875
3 -0.217086 -0.425059 0.066714 -0.162173 -0.205543 0.053679 0.238000 0.194831 0.356961 0.027727 0.127525 0.477806 -0.251970 -0.266305 0.443853 -0.488873 -0.111532 -0.358037
