18 18
7 -0.118889 -0.493457 0.097423 -0.454788 -0.206496 0.335338 0.298732 -0.115516 0.240054 0.015925 -0.031160 0.406004 -0.161883 -0.282949 0.478179 -0.344901 -0.201049 -0.287352
15 -0.169181 -0.494654 0.148662 -0.463544 -0.166114 0.330841 0.299352 -0.157524 0.199795 0.010208 -0.008831 0.367704 -0.164361 -0.243004 0.461299 -0.366735 -0.212510 -0.310442
2 -0.118809 -0.476841 0.115312 -0.425491 -0.155260 0.311454 0.315338 -0.076628 0.157604 -0.021600 -0.009094 0.402870 -0.152375 -0.298946 0.436048 -0.414960 -0.221808 -0.283686
3 -0.191191 -0.484391 0.161515 -0.431411 -0.126005 0.311293 0.329935 -0.111416 0.148455 -0.042429 0.037043 0.382512 -0.220691 -0.327870 0.456665 -0.457079 -0.185782 -0.367517
1 -0.177183 -0.535493 0.155819 -0.473181 -0.170795 0.288982 0.309778 -0.080484 0.253074 0.008095 -0.014969 0.422723 -0.153982 -0.290701 0.464738 -0.415800 -0.200361 -0.340621
13 -0.098704 -0.427064 0.141723 -0.454063 -0.180650 0.268299 0.244771 -0.155830 0.181032 0.060537 -0.063606 0.302216 -0.105752 -0.236189 0.422525 -0.302906 -0.199234 -0.270299
16 -0.131012 -0.439147 0.128754 -0.426376 -0.169976 0.280707 0.273099 -0.131700 0.180581 0.024908 -0.043032 0.360852 -0.148190 -0.199326 0.440002 -0.338933 -0.213001 -0.294409
17 -0.144261 -0.477542 0.124417 -0.404803 -0.212496 0.274174 0.299076 -0.099407 0.255675 0.057769 -0.005184 0.406917 -0.138043 -0.215129 0.413447 -0.304555 -0.187805 -0.304196
9 -0.160993 -0.481703 0.083811 -0.417833 -0.185761 0.306145 0.301831 -0.092704 0.280828 0.026908 -0.000698 0.431750 -0.173376 -0.263714 0.433572 -0.341688 -0.207469 -0.268619
14 -0.138783 -0.488828 0.159469 -0.486275 -0.169614 0.302955 0.255449 -0.148956 0.177138 0.056241 -0.074511 0.372423 -0.141145 -0.238021 0.431948 -0.313383 -0.175307 -0.271272
12 -0.172031 -0.498359 0.134071 -0.448297 -0.179331 0.287220 0.275616 -0.135406 0.179301 0.029167 0.013020 0.407894 -0.169641 -0.237451 0.441577 -0.345798 -0.222755 -0.287482
5 -0.154618 -0.493235 0.108350 -0.418824 -0.123654 0.288881 0.319631 -0.135569 0.197100 -0.032065 0.039660 0.396564 -0.194387 -0.261170 0.451661 -0.417025 -0.212676 -0.343514
0 -0.150926 -0.509588 0.149654 -0.497704 -0.185123 0.325150 0.270911 -0.148164 0.170825 0.012561 -0.003464 0.377155 -0.152801 -0.254494 0.494018 -0.392248 -0.184911 -0.316809
8 -0.152855 -0.510738 0.131413 -0.411107 -0.187158 0.316938 0.316867 -0.097191 0.220589 0.024782 0.002405 0.403222 -0.195324 -0.260495 0.468751 -0.390862 -0.180883 -0.307174
6 -0.145616 -0.476241 0.136224 -0.389758 -0.132889 0.313558 0.316248 -0.078498 0.171880 -0.021069 0.021089 0.380557 -0.191647 -0.302269 0.460810 -0.408652 -0.207907 -0.335279
10 -0.147102 -0.488641 0.113782 -0.429220 -0.152209 0.332092 0.312817 -0.114898 0.225558 -0.015580 0.012467 0.408039 -0.189562 -0.242519 0.440813 -0.353580 -0.191458 -0.287142
4 -0.159749 -0.423565 0.130067 -0.381531 -0.098684 0.267399 0.278200 -0.057437 0.169395 -0.064144 0.072575 0.392664 -0.161610 -0.308653 0.428306 -0.444115 -0.194889 -0.371015
11 -0.182072 -0.548464 0.151261 -0.469814 -0.175779 0.324311 0.301748 -0.098672 0.258486 -0.009281 -0.013312 0.435263 -0.195579 -0.271041 0.532634 -0.435588 -0.232337 -0.348684
