18 18
14 -0.381420 -0.519034 0.490991 -0.150901 0.003197 -0.051096 0.209264 0.198710 0.170199 0.005911 0.090486 0.414360 -0.295241 -0.176673 0.239827 -0.406461 0.182372 -0.634905
9 -0.359901 -0.496022 0.418090 -0.131108 -0.005482 -0.060017 0.221476 0.225268 0.199508 -0.008576 0.125208 0.430549 -0.283406 -0.213960 0.238338 -0.434894 0.150688 -0.603515
17 -0.349639 -0.458668 0.438188 -0.075529 -0.024028 -0.084060 0.218937 0.222887 0.184364 0.009197 0.123420 0.402974 -0.250632 -0.147700 0.170270 -0.343149 0.184255 -0.605259
6 -0.317787 -0.470944 0.418555 -0.097304 -0.003612 -0.045370 0.216006 0.206412 0.146605 -0.002451 0.115581 0.362916 -0.267637 -0.194159 0.239345 -0.388831 0.145916 -0.584220
16 -0.353685 -0.464942 0.446525 -0.125830 -0.014505 -0.052013 0.218826 0.184361 0.153479 0.003119 0.083954 0.375860 -0.273763 -0.138017 0.233985 -0.396128 0.131041 -0.598452
2 -0.334941 -0.474159 0.433057 -0.111340 -0.012267 -0.059472 0.214146 0.238136 0.138777 -0.013303 0.100325 0.406255 -0.252980 -0.184641 0.185084 -0.396769 0.172565 -0.569893
3 -0.358826 -0.441252 0.450123 -0.099489 -0.000412 -0.052073 0.208303 0.199391 0.123742 -0.011323 0.110353 0.344466 -0.285192 -0.182525 0.185256 -0.383213 0.202354 -0.585257
0 -0.338561 -0.472900 0.421221 -0.143315 -0.031460 -0.031335 0.192008 0.183608 0.145321 -0.000783 0.125062 0.365926 -0.255237 -0.165689 0.238842 -0.390466 0.172347 -0.563450
7 -0.316126 -0.479162 0.397251 -0.124540 -0.021434 -0.043526 0.224451 0.199316 0.202837 -0.024899 0.109535 0.392185 -0.272162 -0.203470 0.246946 -0.390135 0.159699 -0.596107
4 -0.302901 -0.410764 0.377603 -0.099242 0.020238 -0.073650 0.180654 0.197783 0.172010 -0.037386 0.136003 0.358132 -0.237461 -0.181413 0.214152 -0.378965 0.142875 -0.580390
13 -0.310118 -0.468541 0.422583 -0.146562 -0.009453 -0.056250 0.219997 0.163996 0.178772 0.011461 0.086956 0.349270 -0.253673 -0.195576 0.255770 -0.410034 0.109208 -0.592031
1 -0.367891 -0.502059 0.441475 -0.144287 0.003894 -0.081164 0.206544 0.210750 0.187539 -0.006734 0.103478 0.376556 -0.252019 -0.186417 0.214654 -0.415426 0.171636 -0.600280
10 -0.349459 -0.468887 0.435171 -0.103920 0.006807 -0.022393 0.220367 0.206381 0.186294 -0.025852 0.122451 0.391036 -0.287179 -0.136092 0.194977 -0.355678 0.184721 -0.578020
11 -0.356122 -0.476851 0.430801 -0.105521 0.008221 -0.061508 0.183366 0.215684 0.179866 -0.027960 0.094150 0.366712 -0.269932 -0.140728 0.243019 -0.399814 0.136385 -0.571082
5 -0.290206 -0.464455 0.336722 -0.113210 0.017507 -0.064757 0.229174 0.153803 0.189751 -0.036894 0.129845 0.376467 -0.266099 -0.166543 0.236945 -0.403532 0.115550 -0.562120
12 -0.352531 -0.489248 0.409503 -0.143397 -0.016592 -0.070137 0.194978 0.159863 0.148705 0.005714 0.141208 0.402474 -0.267546 -0.164938 0.225900 -0.372996 0.118209 -0.566666
15 -0.359736 -0.480474 0.441614 -0.146258 -0.001917 -0.018465 0.220884 0.162043 0.169747 -0.015971 0.115523 0.366607 -0.266846 -0.157368 0.243385 -0.400506 0.134613 -0.598674
8 -0.325739 -0.471992 0.421932 -0.111145 -0.036210 -0.030992 0.208360 0.190251 0.152117 0.025211 0.086450 0.356921 -0.268560 -0.147102 0.236012 -0.383076 0.168485 -0.542356
