18 18
2 -0.151309 -0.446773 0.236818 -0.114610 0.074817 -0.019476 0.229754 0.108360 -0.005249 -0.180659 0.254952 0.292995 -0.319765 -0.337389 0.410570 -0.540198 -0.210585 -0.492979
6 -0.171433 -0.458703 0.275575 -0.067266 0.057373 -0.012045 0.224055 0.144968 -0.013726 -0.143649 0.292064 0.287144 -0.325136 -0.334375 0.415326 -0.496212 -0.195271 -0.512631
11 -0.188195 -0.453179 0.252244 -0.072154 0.063653 -0.030534 0.187248 0.133142 0.013646 -0.165849 0.275274 0.285485 -0.333147 -0.277358 0.423829 -0.507534 -0.196811 -0.473893
5 -0.189853 -0.455393 0.205555 -0.113472 0.123900 -0.054845 0.234577 0.041601 0.062131 -0.205878 0.275155 0.282537 -0.350798 -0.283433 0.410961 -0.546012 -0.220726 -0.519638
7 -0.154002 -0.432974 0.205369 -0.125526 0.081512 -0.018384 0.223214 0.068467 0.053978 -0.192489 0.237974 0.269879 -0.329530 -0.340385 0.420870 -0.518965 -0.200826 -0.503317
3 -0.200659 -0.414401 0.278338 -0.097968 0.091930 -0.031203 0.217956 0.088723 -0.040474 -0.169218 0.274127 0.246873 -0.359544 -0.348941 0.367252 -0.509361 -0.154455 -0.501399
16 -0.193195 -0.404641 0.248882 -0.096626 0.081028 -0.042517 0.219983 0.075165 0.012849 -0.164359 0.242123 0.267853 -0.336149 -0.271693 0.400117 -0.512112 -0.214920 -0.509653
1 -0.215489 -0.486779 0.289492 -0.124816 0.091106 -0.048139 0.218649 0.118059 0.023610 -0.173984 0.267559 0.282156 -0.335714 -0.337796 0.406061 -0.548605 -0.179792 -0.525315
0 -0.142647 -0.447077 0.258701 -0.082640 -0.019245 0.037321 0.188797 0.147614 -0.033198 -0.107196 0.305985 0.285869 -0.296380 -0.271543 0.423199 -0.455030 -0.132587 -0.438784
12 -0.209247 -0.450978 0.253213 -0.117754 0.053880 -0.041698 0.185237 0.070105 -0.023878 -0.138387 0.309226 0.305366 -0.329176 -0.287051 0.391094 -0.478418 -0.215148 -0.474931
4 -0.159177 -0.402095 0.246234 -0.068388 0.070752 -0.037932 0.177497 0.155456 0.003115 -0.165310 0.293938 0.283667 -0.290712 -0.317585 0.391545 -0.490225 -0.176685 -0.495325
14 -0.180464 -0.433343 0.274989 -0.126607 0.105538 -0.015111 0.187934 0.074330 -0.027838 -0.146068 0.217657 0.266842 -0.349923 -0.323362 0.370917 -0.476902 -0.143710 -0.465393
13 -0.146653 -0.437346 0.273403 -0.091490 0.052971 -0.025596 0.222010 0.118829 -0.002549 -0.131699 0.264487 0.266334 -0.319027 -0.348664 0.410359 -0.497192 -0.201373 -0.502903
8 -0.157255 -0.477798 0.290408 -0.067945 0.001392 0.019239 0.224265 0.148822 -0.037589 -0.102544 0.287620 0.296614 -0.343269 -0.298813 0.436574 -0.497923 -0.153651 -0.468933
15 -0.225017 -0.439365 0.260180 -0.144629 0.106311 -0.014172 0.223643 0.028192 0.025653 -0.191163 0.257299 0.253700 -0.328200 -0.282695 0.400170 -0.525248 -0.226238 -0.509836
17 -0.170871 -0.447751 0.262489 -0.066055 0.032420 -0.038073 0.224916 0.139531 0.027601 -0.127634 0.289787 0.312881 -0.303260 -0.301391 0.385137 -0.465645 -0.188730 -0.517046
10 -0.156012 -0.439390 0.242314 -0.071465 0.076852 0.006765 0.226707 0.129033 0.021746 -0.171050 0.290525 0.299970 -0.336346 -0.300985 0.383619 -0.462465 -0.174635 -0.470753
9 -0.008402 0.003844 -0.023332 -0.006576 0.000593 0.000225 -0.003692 0.013429 0.026437 -0.004111 0.005667 0.021814 0.003016 -0.025362 -0.007905 -0.006482 -0.012628 0.018993
