18 18
16 -0.382199 -0.319495 0.277255 -0.206865 -0.188993 0.354127 0.242892 0.332504 0.151363 0.136344 -0.093238 0.619960 -0.287935 -0.637480 0.257072 -0.262330 0.252165 -0.486546
8 -0.399715 -0.393199 0.286053 -0.219050 -0.232048 0.369051 0.243636 0.369137 0.173021 0.190513 -0.118044 0.670241 -0.315811 -0.686954 0.248002 -0.255664 0.334016 -0.442493
14 -0.404453 -0.399007 0.329176 -0.276816 -0.189011 0.348664 0.200921 0.327513 0.190692 0.190296 -0.153794 0.636411 -0.292403 -0.706817 0.272071 -0.245572 0.264717 -0.469040
17 -0.372546 -0.375465 0.289535 -0.219702 -0.225812 0.310445 0.227119 0.336293 0.216177 0.187672 -0.100062 0.630361 -0.252215 -0.643838 0.255492 -0.227353 0.215615 -0.476037
7 -0.341765 -0.352323 0.247268 -0.225279 -0.212886 0.346760 0.213373 0.331583 0.200874 0.148229 -0.117165 0.592160 -0.263585 -0.667690 0.259547 -0.225051 0.256103 -0.422810
11 0.212853 -0.571869 0.750881 -0.748114 -0.072189 -0.089189 0.094406 -0.334083 0.742636 0.189707 -0.737359 -0.504651 0.070153 -0.638424 1.535687 -0.910234 -1.863071 -0.789808
13 0.226052 -0.579130 0.773376 -0.805358 -0.117322 -0.055455 0.143451 -0.351657 0.744543 0.251376 -0.755908 -0.473358 0.082117 -0.744392 1.535492 -0.907344 -1.859769 -0.833713
3 -0.348993 -0.344587 0.300365 -0.227448 -0.182422 0.303145 0.218059 0.297389 0.153638 0.144047 -0.113692 0.520675 -0.274379 -0.653621 0.270943 -0.278621 0.189838 -0.436551
4 -0.405053 -0.326936 0.286675 -0.206796 -0.181033 0.352729 0.214044 0.385728 0.169150 0.126025 -0.047635 0.657033 -0.266778 -0.688801 0.248017 -0.267971 0.281666 -0.501470
9 -0.396266 -0.382654 0.270590 -0.248653 -0.211961 0.336169 0.216340 0.339548 0.219288 0.179820 -0.119784 0.641363 -0.283937 -0.697247 0.248830 -0.243391 0.244853 -0.426942
12 -0.419087 -0.421396 0.304340 -0.269237 -0.235450 0.337618 0.214968 0.320731 0.187153 0.200884 -0.099118 0.669969 -0.294683 -0.688139 0.286337 -0.249066 0.211790 -0.462057
6 -0.344647 -0.351279 0.274253 -0.192588 -0.190095 0.338825 0.229048 0.332224 0.180722 0.150407 -0.080665 0.576371 -0.260397 -0.649130 0.278611 -0.240241 0.197977 -0.462436
1 -0.384043 -0.385787 0.308930 -0.253335 -0.185298 0.298820 0.211244 0.339132 0.208882 0.159186 -0.133390 0.579396 -0.248159 -0.665424 0.260217 -0.275098 0.222241 -0.453965
15 -0.427341 -0.362173 0.305302 -0.235304 -0.179989 0.402255 0.245068 0.315207 0.169093 0.125069 -0.045496 0.623513 -0.280734 -0.664987 0.264420 -0.248981 0.250264 -0.496700
2 -0.345008 -0.362294 0.269186 -0.243388 -0.218087 0.349705 0.237692 0.371565 0.156788 0.158945 -0.142392 0.652415 -0.270462 -0.706128 0.261678 -0.293557 0.246523 -0.428288
10 0.005737 -0.002757 -0.014246 0.006132 0.011972 0.026533 0.015869 -0.001352 0.023172 -0.019827 0.015226 0.016952 -0.017475 0.021206 -0.010712 0.022008 0.009309 0.018390
0 -0.005399 -0.014495 0.001279 -0.026652 -0.021820 0.016369 -0.010898 -0.008016 -0.006711 0.000758 0.022893 0.001004 0.004839 -0.000095 0.023655 -0.011355 0.019530 -0.003746
5 0.004065 -0.024114 -0.027650 -0.000619 0.020703 -0.008521 0.024223 -0.023969 0.025914 -0.018771 0.021210 0.020548 -0.020024 0.006829 0.014933 -0.023795 -0.013973 -0.021943
