18 18
13 -0.073114 -0.789876 0.359880 -0.714253 -0.462878 0.412471 0.002302 0.166463 0.293528 0.139171 0.128519 0.627928 0.129478 -0.319623 0.678732 -0.379206 -0.065574 -0.253973
7 -0.033705 -0.822202 0.347955 -0.694447 -0.473026 0.477565 0.016491 0.204196 0.380419 0.112674 0.125315 0.656966 0.143454 -0.312628 0.634828 -0.293023 0.087477 -0.243343
11 -0.206512 -0.700713 0.295106 -0.667331 -0.454141 0.291721 -0.059317 0.168153 0.112398 0.133488 0.184802 0.701509 0.059468 -0.263403 0.767308 -0.524452 -0.332191 -0.263597
0 -0.090418 -0.536379 -0.392081 -1.065365 -1.104134 -0.104946 -0.519912 -0.677575 -1.845657 0.370589 1.262481 0.677564 0.473442 0.182318 -0.091569 0.001182 -0.277282 0.851990
14 -0.082046 -0.765030 0.361773 -0.659565 -0.394664 0.412152 -0.020674 0.158768 0.276449 0.126517 0.103392 0.616516 0.110454 -0.258041 0.572485 -0.282718 0.055630 -0.210682
8 -0.095835 -0.724034 0.317997 -0.609167 -0.430908 0.375644 0.012481 0.164647 0.227975 0.140229 0.132792 0.611951 0.077089 -0.256190 0.634821 -0.368201 -0.071177 -0.223173
4 -0.109102 -0.749648 0.356386 -0.663328 -0.418371 0.392180 -0.021201 0.223989 0.310089 0.109782 0.147401 0.672938 0.120527 -0.304986 0.674716 -0.393243 -0.068355 -0.288500
9 -0.300417 -0.561905 0.244370 -0.622825 -0.417092 0.235529 -0.027427 0.188593 0.093179 0.155113 0.132907 0.762319 -0.028659 -0.337101 0.932885 -0.718926 -0.679636 -0.368580
6 -0.183205 -0.649061 0.269562 -0.622885 -0.459893 0.298255 -0.013477 0.152431 0.072921 0.161810 0.187838 0.688790 0.040730 -0.283116 0.780479 -0.519531 -0.390446 -0.289842
12 -0.118338 -0.541208 -0.376486 -1.039432 -1.080621 -0.130563 -0.514931 -0.688024 -1.817529 0.387516 1.246190 0.696764 0.447277 0.204018 -0.105849 0.039114 -0.326938 0.834910
2 -0.067794 -0.533565 -0.349933 -1.013324 -1.041474 -0.090691 -0.458724 -0.600229 -1.722202 0.351318 1.150227 0.681495 0.452609 0.139997 -0.070473 -0.034901 -0.310998 0.792217
10 -0.085303 -0.712472 0.295728 -0.619153 -0.402450 0.398061 0.007748 0.161705 0.264089 0.099290 0.157406 0.627820 0.085485 -0.239553 0.592353 -0.315291 -0.045927 -0.200723
17 -0.085642 -0.677864 0.296573 -0.560136 -0.414835 0.340269 0.019571 0.170621 0.272168 0.136305 0.141604 0.607068 0.108258 -0.224173 0.539587 -0.277728 -0.033342 -0.235226
16 -0.342427 -0.522747 0.269043 -0.609545 -0.417953 0.205959 -0.000019 0.176139 0.052272 0.169561 0.088405 0.772016 -0.087373 -0.300768 1.050152 -0.820809 -0.830366 -0.462886
1 -0.139964 -0.696746 0.316756 -0.639089 -0.398821 0.306380 -0.030483 0.163001 0.200528 0.123802 0.128492 0.591000 0.111481 -0.268837 0.595099 -0.380060 -0.105518 -0.225886
15 -0.114110 -0.721716 0.326202 -0.644375 -0.399511 0.395100 -0.000149 0.130993 0.234518 0.106028 0.155840 0.601441 0.112031 -0.240128 0.584728 -0.324953 -0.050627 -0.218698
3 -0.024675 0.005665 0.025365 0.004601 0.007865 -0.001883 0.014761 -0.000233 -0.026227 -0.010111 0.011993 -0.020661 -0.026950 -0.026588 -0.012274 -0.019090 0.026092 -0.020014
5 0.004065 -0.024114 -0.027650 -0.000619 0.020703 -0.008521 0.024223 -0.023969 0.025914 -0.018771 0.021210 0.020548 -0.020024 0.006829 0.014933 -0.023795 -0.013973 -0.021943
