18 18
4 -0.106962 -0.330039 0.043874 -0.133389 -0.018275 -0.050209 0.172484 0.465931 0.692937 -0.203613 0.162526 0.318975 0.050188 -0.361360 0.280144 -0.351987 0.127077 -0.527658
0 -0.095199 -0.350574 0.044026 -0.166926 -0.062934 0.005148 0.200680 0.402614 0.658354 -0.175922 0.145039 0.302972 0.035879 -0.368915 0.313045 -0.366720 0.119487 -0.507433
10 -0.099986 -0.352452 0.037647 -0.139553 -0.023370 0.008538 0.224871 0.398785 0.680069 -0.189211 0.138047 0.307069 -0.000091 -0.320652 0.275350 -0.323709 0.106420 -0.478638
12 -0.133587 -0.369026 0.063808 -0.155993 -0.046961 -0.037392 0.197836 0.395779 0.646929 -0.148674 0.148530 0.323628 0.013889 -0.350014 0.287517 -0.339911 0.071352 -0.505209
7 -0.061580 -0.340435 0.012114 -0.153883 -0.063427 0.009011 0.212193 0.432017 0.710502 -0.193882 0.119304 0.308888 0.046930 -0.392332 0.311064 -0.336092 0.112057 -0.504240
6 -0.073040 -0.330560 0.053257 -0.113417 -0.038552 0.007372 0.220322 0.411364 0.636487 -0.162856 0.124080 0.279776 0.023862 -0.367938 0.302886 -0.354216 0.085780 -0.506381
9 -0.065889 -0.362703 0.012033 -0.154283 -0.062414 0.041795 0.267900 0.441939 0.712871 -0.182386 0.116824 0.344645 0.025666 -0.453099 0.333588 -0.438305 0.064620 -0.506994
1 -0.144254 -0.367848 0.095328 -0.176756 -0.012487 -0.043573 0.208771 0.372355 0.614173 -0.154980 0.076608 0.245950 0.021753 -0.333615 0.243206 -0.347720 0.111348 -0.472246
16 -0.116433 -0.336120 0.064833 -0.152585 -0.033611 -0.030849 0.227196 0.381634 0.639092 -0.163236 0.102118 0.296279 0.001877 -0.321340 0.291358 -0.356900 0.076752 -0.524518
8 -0.059163 -0.376592 0.068766 -0.131586 -0.068085 0.045168 0.266528 0.395428 0.619907 -0.137284 0.077727 0.283665 0.001117 -0.394800 0.328699 -0.421829 0.092830 -0.477257
15 -0.086040 -0.388987 0.055977 -0.166245 -0.054632 0.063301 0.272940 0.410454 0.689378 -0.184538 0.127202 0.318941 0.027598 -0.418874 0.361466 -0.445321 0.057207 -0.547771
5 -0.086013 -0.348027 0.027533 -0.139706 -0.012122 -0.015789 0.232662 0.348502 0.622361 -0.175979 0.127970 0.286364 -0.003487 -0.328314 0.282804 -0.362262 0.073174 -0.487398
3 -0.137346 -0.298357 0.088030 -0.138349 -0.011790 -0.033928 0.200221 0.336890 0.541169 -0.161825 0.110246 0.216116 -0.009952 -0.324942 0.221550 -0.308888 0.118431 -0.468239
13 -0.061247 -0.319910 0.053914 -0.150847 -0.047522 -0.010456 0.208609 0.373465 0.643823 -0.139766 0.098073 0.264895 0.043381 -0.361498 0.288721 -0.340387 0.064543 -0.483068
17 -0.096250 -0.341293 0.053611 -0.122129 -0.057752 -0.034736 0.221062 0.410859 0.666299 -0.149165 0.122658 0.313855 0.038291 -0.325059 0.259378 -0.319014 0.102068 -0.504831
11 -0.113812 -0.351075 0.056438 -0.124947 -0.024645 -0.021856 0.170612 0.417449 0.650626 -0.188754 0.112568 0.289864 0.015085 -0.310623 0.295272 -0.338313 0.084822 -0.463798
2 -0.040033 -0.358898 0.040275 -0.155408 -0.060401 0.037410 0.255396 0.410857 0.599571 -0.167811 0.092237 0.304659 0.038607 -0.401336 0.309090 -0.419197 0.055777 -0.457248
14 -0.011733 -0.016220 0.026785 -0.021827 0.014521 0.009558 -0.015588 -0.009492 -0.015071 0.014490 -0.026914 0.011819 -0.010079 -0.001944 0.000728 0.009641 0.015475 -0.000266
