18 18
9 -0.443401 -0.355219 0.448217 -0.117858 0.184772 0.128609 0.132765 0.157591 0.058373 -0.114200 0.137147 0.258613 -0.389666 -0.256185 0.161365 -0.335418 0.153381 -0.390759
2 -0.444647 -0.378709 0.511954 -0.120052 0.229657 0.147496 0.152230 0.170342 -0.036813 -0.149419 0.131330 0.237010 -0.409132 -0.274619 0.157788 -0.377039 0.176357 -0.403388
3 -0.483958 -0.368318 0.552086 -0.105177 0.248414 0.141818 0.153503 0.156551 -0.048364 -0.150096 0.134467 0.182901 -0.441897 -0.285501 0.153337 -0.377284 0.205048 -0.425568
11 -0.471646 -0.390014 0.508383 -0.111821 0.215652 0.116951 0.116445 0.181176 0.051416 -0.142505 0.126570 0.241762 -0.407932 -0.235571 0.190027 -0.363449 0.159198 -0.416851
14 -0.486130 -0.394681 0.543867 -0.128139 0.263289 0.167560 0.133590 0.144170 -0.022853 -0.141185 0.109848 0.225327 -0.444816 -0.266828 0.177948 -0.355664 0.186960 -0.422041
10 -0.459900 -0.383053 0.478533 -0.105473 0.222347 0.159695 0.140091 0.150315 0.066476 -0.144834 0.151160 0.256931 -0.414496 -0.206024 0.163351 -0.301202 0.163670 -0.390335
6 -0.390164 -0.332193 0.440838 -0.063074 0.215719 0.141438 0.140616 0.143427 -0.000835 -0.130716 0.122963 0.171256 -0.371934 -0.243564 0.165998 -0.300089 0.127928 -0.374845
0 -0.458452 -0.386414 0.501100 -0.143271 0.159297 0.129362 0.127987 0.152196 0.020817 -0.103106 0.147783 0.244179 -0.376856 -0.231208 0.177460 -0.344213 0.198422 -0.413675
1 -0.500074 -0.432224 0.564626 -0.136381 0.204205 0.091153 0.152545 0.209782 0.056054 -0.100906 0.105342 0.225360 -0.360356 -0.274089 0.149433 -0.372817 0.207181 -0.436408
7 -0.431615 -0.371543 0.475940 -0.117193 0.205615 0.154479 0.144448 0.164646 0.031650 -0.147581 0.119053 0.220759 -0.402204 -0.297895 0.184855 -0.347853 0.174093 -0.419423
17 -0.467179 -0.388229 0.509454 -0.107950 0.160084 0.115745 0.160014 0.173516 0.064377 -0.088995 0.145354 0.289445 -0.392074 -0.228387 0.152999 -0.322816 0.178434 -0.452487
16 -0.457255 -0.363190 0.500021 -0.112590 0.194156 0.130596 0.152330 0.150049 0.030035 -0.117301 0.110726 0.241233 -0.401457 -0.217020 0.182949 -0.344253 0.142127 -0.426233
12 -0.465147 -0.387278 0.480570 -0.129069 0.178599 0.118509 0.113637 0.117641 0.008188 -0.094434 0.154483 0.256426 -0.387893 -0.213799 0.164237 -0.298554 0.132069 -0.389158
13 -0.437524 -0.374389 0.511230 -0.137464 0.194100 0.131130 0.149546 0.150867 0.040293 -0.105849 0.113096 0.225087 -0.388298 -0.284036 0.178694 -0.350457 0.149711 -0.429251
8 -0.453406 -0.409196 0.524481 -0.108072 0.169666 0.135856 0.159176 0.171749 0.029619 -0.083613 0.116297 0.242427 -0.399857 -0.233650 0.183274 -0.351710 0.190914 -0.414177
4 -0.492804 -0.383122 0.544548 -0.112768 0.244565 0.127385 0.125369 0.200434 0.024974 -0.145916 0.157768 0.252614 -0.401365 -0.275642 0.170814 -0.374306 0.189369 -0.459255
15 -0.465479 -0.375874 0.509141 -0.131008 0.228519 0.172443 0.152015 0.120390 -0.010070 -0.144380 0.137742 0.204832 -0.398478 -0.247280 0.177191 -0.353689 0.147946 -0.415239
5 -0.452199 -0.397183 0.478926 -0.114960 0.221559 0.120041 0.167236 0.135685 0.041499 -0.135958 0.144222 0.244037 -0.412140 -0.242570 0.176480 -0.369102 0.163310 -0.432706
