18 18
0 -0.336255 -0.537100 0.342217 -0.355706 -0.206289 0.096132 0.073138 -0.012233 0.083858 0.164287 0.239113 0.415161 -0.165813 -0.155748 0.418595 -0.334156 -0.070262 -0.389490
2 -0.333865 -0.559039 0.385154 -0.350208 -0.201311 0.053978 0.147218 0.003288 0.044784 0.176935 0.251276 0.451784 -0.163161 -0.200803 0.415736 -0.402498 -0.137041 -0.463321
13 -0.308590 -0.516273 0.348173 -0.338999 -0.193368 0.040339 0.112809 -0.035177 0.098476 0.191008 0.204472 0.386412 -0.147958 -0.175841 0.391925 -0.332078 -0.128774 -0.424133
12 -0.353115 -0.525890 0.342240 -0.334658 -0.200566 0.025603 0.098519 -0.049683 0.044293 0.189519 0.264863 0.428001 -0.155402 -0.128632 0.366692 -0.310275 -0.140467 -0.403950
8 -0.311978 -0.535005 0.343830 -0.314512 -0.191990 0.079976 0.083782 0.012396 0.093354 0.182905 0.185668 0.397550 -0.179940 -0.165267 0.413104 -0.342216 -0.070013 -0.377996
3 -0.333800 -0.485031 0.362024 -0.300079 -0.155179 0.058886 0.125989 -0.005981 0.025539 0.143256 0.242469 0.354733 -0.195563 -0.222019 0.358425 -0.353329 -0.063564 -0.421680
4 -0.331477 -0.501906 0.357844 -0.318662 -0.161152 0.031106 0.070003 0.015691 0.084119 0.157760 0.242225 0.413712 -0.145558 -0.184017 0.392061 -0.354206 -0.091440 -0.446865
1 -0.363395 -0.549301 0.371358 -0.347570 -0.174933 0.021363 0.102676 -0.002663 0.093612 0.171117 0.221056 0.405100 -0.143038 -0.162301 0.368514 -0.347559 -0.099997 -0.425413
16 -0.318816 -0.481593 0.335433 -0.307911 -0.185504 0.040550 0.127774 -0.024744 0.074174 0.167915 0.215476 0.401122 -0.156959 -0.126691 0.383783 -0.341974 -0.134478 -0.432824
9 -0.316989 -0.502387 0.290854 -0.324296 -0.174906 0.101952 0.056072 0.033271 0.145270 0.147257 0.192533 0.441395 -0.173171 -0.191689 0.398300 -0.317786 -0.095110 -0.334953
15 -0.374585 -0.558774 0.374369 -0.364853 -0.194666 0.091756 0.129533 -0.041043 0.087387 0.164739 0.260700 0.442512 -0.166959 -0.142621 0.416829 -0.354612 -0.145156 -0.442999
14 -0.348686 -0.543752 0.372223 -0.351941 -0.164639 0.068126 0.062633 -0.016601 0.075803 0.178958 0.194391 0.423769 -0.173795 -0.161305 0.399769 -0.318922 -0.084734 -0.407457
5 -0.325062 -0.533363 0.323843 -0.312508 -0.150428 0.029109 0.131499 -0.033762 0.089966 0.146648 0.250133 0.406616 -0.175873 -0.163194 0.385067 -0.358145 -0.113057 -0.442070
6 -0.314165 -0.523660 0.355432 -0.294388 -0.172264 0.070418 0.133863 0.015918 0.068377 0.165040 0.249786 0.402971 -0.183511 -0.208301 0.407538 -0.354677 -0.109890 -0.444629
17 -0.334794 -0.529611 0.347880 -0.308975 -0.218007 0.039770 0.125374 -0.003784 0.112325 0.192181 0.243646 0.441478 -0.142634 -0.125152 0.369131 -0.307040 -0.106834 -0.436731
7 -0.292194 -0.505315 0.308748 -0.332634 -0.194971 0.096380 0.082259 0.010788 0.111322 0.146586 0.193157 0.407886 -0.160994 -0.201540 0.407086 -0.318305 -0.086783 -0.386378
11 -0.339582 -0.532017 0.333602 -0.321235 -0.166706 0.071278 0.045072 0.026352 0.128370 0.134272 0.194273 0.426008 -0.178221 -0.136114 0.424872 -0.332815 -0.105999 -0.380906
10 -0.348070 -0.578786 0.351561 -0.358697 -0.179373 0.146882 0.084986 0.012527 0.145013 0.150188 0.233765 0.481479 -0.225405 -0.168952 0.458895 -0.340871 -0.071470 -0.388598
