18 18
0 -0.292035 -0.522894 0.356040 -0.409527 -0.359630 -0.013689 0.042713 0.034664 0.015776 0.215177 0.112261 0.304151 0.001536 -0.083899 0.418917 -0.316022 0.004735 -0.453357
12 -0.289865 -0.583672 0.332896 -0.476296 -0.372381 0.026197 -0.004188 0.007900 0.034186 0.280576 0.040756 0.381770 -0.036286 -0.109067 0.382393 -0.231818 -0.004143 -0.276894
10 -0.301205 -0.671307 0.291336 -0.371640 -0.326734 0.190992 0.125174 0.131570 0.236898 0.163106 0.055934 0.468189 -0.207738 -0.068713 0.394237 -0.280674 0.101815 -0.155533
4 -0.326009 -0.512119 0.389247 -0.352342 -0.317151 -0.082677 0.061183 0.097678 0.031686 0.178785 0.164256 0.325708 0.011397 -0.090426 0.409798 -0.356779 -0.022340 -0.564656
8 -0.300949 -0.713366 0.307860 -0.393950 -0.369997 0.187687 0.105843 0.146058 0.235554 0.217962 -0.006536 0.471217 -0.199554 -0.087517 0.443785 -0.326902 0.098648 -0.128745
3 -0.319967 -0.532422 0.364169 -0.344035 -0.307617 0.015754 0.095780 0.079859 0.048245 0.165561 0.111279 0.313253 -0.089218 -0.097722 0.375883 -0.332022 0.040579 -0.408802
7 -0.251837 -0.605544 0.285365 -0.424630 -0.374960 0.120147 0.063548 0.082816 0.157693 0.223374 0.009805 0.408753 -0.100421 -0.130262 0.412781 -0.263492 0.052720 -0.223419
2 -0.277026 -0.557067 0.360845 -0.435792 -0.372115 -0.019897 0.059888 0.052263 0.006644 0.234614 0.073820 0.357145 0.006194 -0.117896 0.419536 -0.335218 -0.029319 -0.437349
9 -0.324024 -0.700095 0.287402 -0.409235 -0.354046 0.188849 0.103835 0.152472 0.257615 0.192141 0.027838 0.502296 -0.204720 -0.114049 0.418529 -0.317846 0.085486 -0.130788
5 -0.306915 -0.537919 0.343654 -0.338358 -0.309105 -0.069483 0.119039 0.037984 0.060143 0.169353 0.168682 0.328238 -0.027347 -0.055214 0.427178 -0.362237 -0.052560 -0.576480
11 -0.311212 -0.598326 0.313680 -0.345802 -0.300825 0.064858 0.057305 0.122841 0.159502 0.158195 0.042289 0.379329 -0.123497 -0.055026 0.408045 -0.320051 0.028415 -0.263524
1 -0.317109 -0.593029 0.381219 -0.461700 -0.352376 -0.018534 0.032293 0.056770 0.063795 0.250813 0.035971 0.343983 -0.008075 -0.119343 0.394873 -0.309616 0.011805 -0.387026
17 -0.315451 -0.578037 0.379160 -0.385020 -0.389936 -0.028104 0.090797 0.065887 0.083450 0.248285 0.105587 0.372233 -0.015867 -0.064415 0.416463 -0.303377 -0.013178 -0.492318
14 -0.272752 -0.584296 0.348002 -0.484807 -0.351405 0.050646 -0.003860 0.023841 0.047543 0.278067 -0.012882 0.378495 -0.043875 -0.126631 0.385274 -0.238842 0.032966 -0.271295
6 -0.304570 -0.543240 0.365044 -0.304998 -0.322831 -0.005440 0.109535 0.104208 0.064024 0.183513 0.142868 0.324944 -0.058439 -0.076123 0.431236 -0.342739 -0.011063 -0.499655
15 -0.355090 -0.620612 0.416967 -0.450735 -0.388416 0.024629 0.095323 0.033986 0.057332 0.229758 0.114826 0.366743 -0.026459 -0.072785 0.472193 -0.356443 -0.030361 -0.507846
16 -0.307034 -0.526948 0.363717 -0.365402 -0.341794 -0.018421 0.089180 0.051905 0.051133 0.208416 0.078992 0.327315 -0.039523 -0.047765 0.422597 -0.329454 -0.036981 -0.472951
13 -0.258338 -0.607775 0.340397 -0.502748 -0.382960 0.066469 0.028663 0.020344 0.096682 0.286744 -0.000259 0.380365 -0.049398 -0.148403 0.396708 -0.249113 0.011338 -0.252290
