18 18
10 -0.391684 -0.607185 0.330943 -0.221710 0.128858 0.097852 0.200079 0.040304 0.119997 -0.141787 0.142698 0.429153 -0.362368 0.021513 0.338830 -0.412628 -0.066764 -0.388393
1 -0.407618 -0.606519 0.375211 -0.215981 0.155742 0.015296 0.191436 0.091154 0.097055 -0.141955 0.139944 0.356127 -0.315686 -0.088694 0.313580 -0.480239 -0.011287 -0.456735
12 -0.401337 -0.605054 0.336955 -0.235952 0.090650 0.051369 0.154650 0.012087 0.090527 -0.085502 0.155369 0.437316 -0.324616 0.023635 0.327258 -0.359584 -0.117905 -0.356864
2 -0.340082 -0.553437 0.336916 -0.183820 0.161892 0.016783 0.206225 0.128044 0.035736 -0.183840 0.161355 0.326908 -0.296247 -0.160560 0.306738 -0.535965 0.008055 -0.457719
0 -0.363740 -0.559048 0.329172 -0.227392 0.099264 0.049824 0.171327 0.070534 0.075766 -0.134577 0.175636 0.370176 -0.304687 -0.075728 0.346023 -0.462471 -0.017057 -0.441956
14 -0.414087 -0.651855 0.392915 -0.257608 0.127743 0.086026 0.170372 0.033952 0.084314 -0.094855 0.107096 0.448965 -0.372443 -0.019279 0.380119 -0.434643 -0.065296 -0.429483
11 -0.364735 -0.565226 0.329830 -0.183293 0.131669 0.050253 0.147705 0.064323 0.105033 -0.130102 0.101308 0.378805 -0.344731 0.017289 0.355084 -0.426955 -0.071677 -0.391325
3 -0.374864 -0.529721 0.346977 -0.160894 0.175000 0.014762 0.199312 0.103015 0.035188 -0.186956 0.179926 0.286697 -0.341530 -0.160047 0.302293 -0.518878 0.045661 -0.490434
5 -0.351518 -0.558053 0.300405 -0.159633 0.190172 -0.003459 0.213404 0.078790 0.082996 -0.197084 0.197119 0.317682 -0.342239 -0.137163 0.324043 -0.525291 0.014014 -0.501292
4 -0.375896 -0.538888 0.352180 -0.173788 0.195828 -0.004750 0.169188 0.147583 0.063301 -0.205529 0.214476 0.337968 -0.297447 -0.160656 0.315840 -0.541435 0.024366 -0.516768
16 -0.379437 -0.568539 0.348742 -0.210124 0.126529 0.046140 0.208928 0.067590 0.081407 -0.142317 0.137176 0.396465 -0.347063 -0.046866 0.363765 -0.492312 -0.059452 -0.471900
8 -0.334097 -0.559342 0.333817 -0.167512 0.115129 0.062288 0.188587 0.065510 0.078771 -0.108178 0.108270 0.341343 -0.343336 -0.049271 0.341100 -0.440670 -0.017525 -0.407317
7 -0.330523 -0.552836 0.313098 -0.185113 0.131466 0.044047 0.190830 0.103416 0.085346 -0.167919 0.151303 0.345390 -0.325280 -0.149931 0.356704 -0.496164 0.002894 -0.474585
17 -0.379038 -0.597154 0.353198 -0.211243 0.075303 0.043458 0.192830 0.057592 0.127932 -0.079279 0.139643 0.448872 -0.316347 0.012270 0.331582 -0.391838 -0.077752 -0.430178
9 -0.386652 -0.570874 0.304330 -0.240319 0.091366 0.068791 0.171013 0.049093 0.134779 -0.107104 0.139030 0.450412 -0.318279 -0.008324 0.329394 -0.399203 -0.105855 -0.361538
15 -0.407276 -0.605035 0.362312 -0.242371 0.120054 0.083087 0.189123 0.022336 0.101174 -0.120404 0.148071 0.401914 -0.323076 -0.011724 0.342098 -0.414863 -0.086630 -0.413763
6 -0.348603 -0.552225 0.323595 -0.164503 0.130055 0.059140 0.197159 0.089522 0.075684 -0.142765 0.164321 0.354920 -0.328764 -0.077978 0.338380 -0.450235 -0.038556 -0.442259
13 -0.349142 -0.577029 0.352275 -0.232656 0.097245 0.052538 0.182542 0.015531 0.111411 -0.073869 0.109821 0.399464 -0.322644 -0.016188 0.347270 -0.392696 -0.109921 -0.406746
