18 18
16 -0.350658 -0.418722 0.419029 -0.267194 -0.140015 -0.025484 0.208398 -0.072071 0.223656 0.130519 -0.010315 0.239205 -0.083898 0.102221 0.366777 -0.281249 -0.285986 -0.552616
0 -0.392067 -0.492272 0.443927 -0.331556 -0.131374 -0.002425 0.186289 -0.075388 0.256116 0.107607 0.056595 0.270128 -0.071823 0.091186 0.387428 -0.302542 -0.234226 -0.575668
8 -0.354039 -0.503098 0.455108 -0.268864 -0.145613 -0.011569 0.221927 -0.039951 0.247744 0.146289 -0.020903 0.261324 -0.106589 0.079576 0.399345 -0.312386 -0.247142 -0.559339
5 -0.356809 -0.481573 0.385856 -0.290590 -0.073852 -0.020694 0.214658 -0.084026 0.283852 0.072688 0.052335 0.286175 -0.094280 0.082440 0.361244 -0.303489 -0.247824 -0.570919
7 -0.316305 -0.463102 0.400338 -0.272279 -0.149183 -0.009964 0.218983 -0.035216 0.276029 0.117226 -0.020303 0.260816 -0.073268 0.042506 0.385967 -0.287341 -0.261624 -0.557350
10 -0.380534 -0.492105 0.438591 -0.304100 -0.087670 0.003450 0.213563 -0.063243 0.299662 0.087462 0.042137 0.292098 -0.098246 0.099624 0.367158 -0.279635 -0.246885 -0.576039
13 -0.332081 -0.471078 0.442318 -0.284950 -0.153496 -0.041383 0.220248 -0.065174 0.263492 0.158442 -0.027679 0.240498 -0.069729 0.057458 0.394216 -0.293429 -0.309373 -0.578095
11 -0.347729 -0.495566 0.443285 -0.227183 -0.128640 -0.042219 0.208925 0.005164 0.276058 0.120555 -0.045043 0.260947 -0.107915 0.085372 0.413955 -0.318576 -0.289567 -0.566225
2 -0.334310 -0.481029 0.433239 -0.276537 -0.147629 -0.022265 0.239073 -0.035753 0.226904 0.132234 -0.023823 0.276398 -0.074128 0.069057 0.367070 -0.311410 -0.293717 -0.546679
3 -0.413334 -0.493072 0.479468 -0.304762 -0.117894 -0.019308 0.240973 -0.069849 0.251059 0.105586 0.034708 0.262496 -0.110234 0.059497 0.376184 -0.328850 -0.258236 -0.624927
14 -0.361090 -0.458733 0.431229 -0.293303 -0.076214 -0.007912 0.156238 -0.058399 0.222308 0.108280 -0.009773 0.257932 -0.085394 0.079538 0.339871 -0.263060 -0.212575 -0.516283
17 -0.333413 -0.448270 0.410896 -0.235441 -0.147769 -0.040871 0.222602 -0.032861 0.268547 0.139606 0.009288 0.275454 -0.064292 0.094553 0.334732 -0.250454 -0.260304 -0.559346
1 -0.398873 -0.510704 0.479678 -0.304028 -0.138023 -0.057868 0.218425 -0.035203 0.277837 0.141613 -0.021045 0.255256 -0.062718 0.070967 0.371364 -0.315572 -0.278510 -0.596015
6 -0.342969 -0.485626 0.442029 -0.244623 -0.141615 -0.021070 0.227489 -0.024735 0.260730 0.138868 0.004600 0.251671 -0.087218 0.061918 0.401412 -0.291621 -0.283386 -0.590322
12 -0.391900 -0.479920 0.427643 -0.309956 -0.141490 -0.025774 0.192194 -0.094181 0.228581 0.130345 0.043992 0.281920 -0.081994 0.094382 0.358203 -0.270328 -0.286828 -0.544530
15 -0.387823 -0.452078 0.427175 -0.313472 -0.113722 0.009242 0.213657 -0.101520 0.233014 0.096341 0.042391 0.248796 -0.064742 0.098356 0.338825 -0.282030 -0.268890 -0.545910
4 -0.375361 -0.449910 0.439238 -0.287199 -0.093256 -0.038855 0.175557 -0.032163 0.271987 0.092711 0.052294 0.273878 -0.054934 0.072813 0.361972 -0.298642 -0.251774 -0.595746
9 -0.008402 0.003844 -0.023332 -0.006576 0.000593 0.000225 -0.003692 0.013429 0.026437 -0.004111 0.005667 0.021814 0.003016 -0.025362 -0.007905 -0.006482 -0.012628 0.018993
