18 18
0 -0.354337 -0.636171 0.214121 -0.417615 -0.093962 0.196803 0.074783 0.132845 0.191084 0.056399 -0.005080 0.524422 -0.269250 -0.406228 0.401672 -0.305747 -0.145598 -0.181050
3 -0.334505 -0.570726 0.204569 -0.312899 -0.042379 0.178292 0.094226 0.128698 0.150228 0.043104 0.021715 0.483763 -0.327168 -0.429497 0.356168 -0.278845 -0.162673 -0.170517
7 -0.310320 -0.580369 0.187076 -0.373432 -0.082976 0.181705 0.062900 0.128736 0.230710 0.056437 -0.041356 0.490868 -0.247027 -0.394166 0.382928 -0.255144 -0.156561 -0.175269
9 -0.318812 -0.573402 0.139001 -0.311585 -0.057204 0.181708 0.070971 0.152812 0.215363 0.049931 0.021716 0.548213 -0.310997 -0.442430 0.378469 -0.273687 -0.223463 -0.120915
1 -0.381054 -0.630272 0.267815 -0.417281 -0.052588 0.128067 0.071853 0.154070 0.235553 0.077091 -0.067412 0.502021 -0.223542 -0.386802 0.344939 -0.293670 -0.150790 -0.224898
14 -0.341555 -0.598359 0.234882 -0.395652 -0.045317 0.172744 0.050073 0.115726 0.179101 0.073839 -0.054122 0.500332 -0.261396 -0.391229 0.364617 -0.266007 -0.145198 -0.182133
13 -0.311625 -0.576613 0.204699 -0.381150 -0.069360 0.152234 0.073666 0.113982 0.219840 0.084816 -0.036211 0.493794 -0.246933 -0.412981 0.371286 -0.268098 -0.214675 -0.181835
12 -0.335038 -0.579239 0.171629 -0.331141 -0.075234 0.158892 0.042185 0.100354 0.185747 0.075245 0.032770 0.527559 -0.285941 -0.359660 0.375921 -0.230455 -0.218223 -0.138859
2 -0.284216 -0.579295 0.158388 -0.320459 -0.057013 0.184508 0.099304 0.146281 0.143943 0.045735 0.007462 0.545281 -0.296287 -0.446115 0.370667 -0.295095 -0.203820 -0.136930
4 -0.352223 -0.588031 0.218029 -0.373970 -0.055146 0.160153 0.044833 0.153612 0.211185 0.053873 0.000851 0.544483 -0.265534 -0.401020 0.394323 -0.294334 -0.175022 -0.205363
8 -0.298925 -0.578764 0.180047 -0.292232 -0.077933 0.174888 0.060530 0.131811 0.184227 0.077248 -0.002376 0.490297 -0.300482 -0.364795 0.394678 -0.259759 -0.177990 -0.129098
16 -0.344462 -0.571906 0.235958 -0.374749 -0.075098 0.145957 0.084516 0.121959 0.190068 0.083294 -0.059323 0.496442 -0.254005 -0.342217 0.369815 -0.284090 -0.178135 -0.220407
10 -0.303725 -0.563227 0.162934 -0.308967 -0.036235 0.191820 0.087781 0.118743 0.206027 0.036537 0.023117 0.539632 -0.314717 -0.375521 0.366453 -0.243162 -0.180843 -0.149432
6 -0.306185 -0.596658 0.188362 -0.291564 -0.046578 0.187291 0.087139 0.151385 0.186940 0.059094 0.015534 0.510040 -0.314365 -0.426964 0.395283 -0.258465 -0.199655 -0.172566
17 -0.348300 -0.612801 0.239427 -0.366277 -0.098407 0.136158 0.089687 0.160087 0.246069 0.097880 -0.032328 0.524210 -0.225772 -0.366932 0.347296 -0.254051 -0.165651 -0.227216
5 -0.304149 -0.580701 0.153043 -0.315439 -0.027310 0.154897 0.100776 0.101045 0.203518 0.033392 0.022526 0.524879 -0.307694 -0.385938 0.379307 -0.288406 -0.189681 -0.190178
15 -0.339615 -0.579831 0.207994 -0.369414 -0.050558 0.201683 0.080117 0.099605 0.189907 0.038830 -0.005139 0.489049 -0.265386 -0.376400 0.378707 -0.277168 -0.179400 -0.179912
11 -0.326585 -0.571763 0.177280 -0.298065 -0.046968 0.159546 0.044115 0.146175 0.203111 0.030466 0.009206 0.499540 -0.294657 -0.353549 0.387170 -0.265648 -0.196008 -0.146337
