18 18
13 -0.160764 -0.672269 0.416643 -0.340308 -0.078658 0.012969 0.349333 0.019029 0.373375 0.205379 -0.027266 0.329460 -0.146015 -0.164233 0.225994 -0.322874 -0.013674 -0.365014
1 -0.221492 -0.709270 0.426425 -0.262963 -0.057349 0.021976 0.337916 0.101654 0.440080 0.197690 -0.025309 0.385820 -0.154135 -0.090734 0.200989 -0.259522 0.039019 -0.374284
10 -0.183112 -0.668589 0.385684 -0.266159 -0.049207 0.067003 0.345782 0.068703 0.415628 0.162181 0.003259 0.385554 -0.186090 -0.080869 0.212263 -0.256215 0.024177 -0.336570
4 -0.182817 -0.629078 0.395232 -0.279438 -0.049418 0.005256 0.307562 0.088905 0.379475 0.155717 0.019256 0.350465 -0.138907 -0.129429 0.219773 -0.318079 0.020712 -0.382321
14 -0.205195 -0.687313 0.420863 -0.271226 -0.044633 0.051098 0.310456 0.070617 0.402036 0.199512 -0.039241 0.399514 -0.175108 -0.084093 0.214348 -0.233173 0.025493 -0.346974
5 -0.183740 -0.715536 0.389189 -0.304673 -0.051688 0.023927 0.379556 0.034657 0.432926 0.175785 0.007350 0.398968 -0.192454 -0.115796 0.245529 -0.328559 -0.001911 -0.397594
15 -0.220175 -0.680604 0.406849 -0.256259 -0.051262 0.069196 0.339510 0.062361 0.413947 0.171864 0.001796 0.379226 -0.159040 -0.063274 0.216436 -0.245517 -0.000999 -0.364118
16 -0.196735 -0.673114 0.425475 -0.297649 -0.080825 0.021402 0.360083 0.058320 0.396237 0.195829 -0.021074 0.374080 -0.173728 -0.102075 0.251138 -0.322030 -0.006844 -0.410847
8 -0.176434 -0.688766 0.416619 -0.273661 -0.085729 0.053044 0.355068 0.064456 0.378874 0.207630 -0.027180 0.369522 -0.188065 -0.104009 0.244631 -0.301230 0.030999 -0.357630
11 -0.213740 -0.693341 0.407597 -0.254060 -0.048446 0.031525 0.322908 0.098755 0.434173 0.163201 -0.016249 0.384266 -0.178319 -0.080883 0.236721 -0.285346 0.007928 -0.363406
9 -0.211476 -0.698295 0.398437 -0.268456 -0.064971 0.039693 0.344230 0.096400 0.455591 0.203367 -0.011700 0.422132 -0.166850 -0.117273 0.207211 -0.258276 0.004858 -0.355758
17 -0.190978 -0.645652 0.382577 -0.190686 -0.081821 0.035023 0.334639 0.108086 0.435187 0.204109 -0.004890 0.406836 -0.150032 -0.041343 0.182271 -0.183142 0.024782 -0.364874
2 -0.153528 -0.649831 0.385039 -0.318057 -0.079841 0.018787 0.343860 0.057897 0.339665 0.169423 -0.010071 0.350438 -0.140578 -0.148546 0.224584 -0.344795 -0.006322 -0.351743
0 -0.186244 -0.671334 0.398950 -0.320705 -0.096146 0.036424 0.321915 0.053725 0.369145 0.184219 0.016118 0.345892 -0.145963 -0.127621 0.246450 -0.315951 0.030303 -0.373231
12 -0.218375 -0.708097 0.411744 -0.304480 -0.081326 0.019813 0.325842 0.037713 0.386928 0.211065 0.013137 0.402439 -0.170902 -0.096108 0.225919 -0.268583 -0.018838 -0.362040
3 -0.219328 -0.698960 0.449521 -0.306841 -0.057845 0.031389 0.368731 0.059584 0.381022 0.179620 0.001659 0.363860 -0.201142 -0.148096 0.225646 -0.335210 0.038568 -0.401212
6 -0.196348 -0.692337 0.409140 -0.213740 -0.055985 0.055197 0.353083 0.111347 0.428493 0.191699 0.002362 0.392711 -0.178843 -0.087242 0.231885 -0.241109 0.011256 -0.388619
7 0.025536 0.002637 -0.024458 -0.006487 -0.021911 0.018456 0.005430 0.006920 0.025711 -0.005710 -0.012468 0.004183 0.006040 -0.027377 0.019628 0.004891 0.006248 -0.002409
