18 18
9 -0.302855 -0.550633 0.111584 -0.271829 -0.022957 -0.164151 0.041330 -0.067995 0.360442 0.020333 0.246760 0.513403 -0.136744 0.002758 0.331080 -0.257750 -0.466132 -0.293201
1 -0.435070 -0.786596 0.411190 -0.510101 -0.018308 -0.358782 -0.159720 -0.134337 0.220043 0.222520 0.155405 0.438841 -0.090140 -0.028087 0.277603 -0.275200 -0.378394 -0.243714
15 -0.288737 -0.505877 0.105717 -0.239829 -0.010123 -0.092932 0.086180 -0.099488 0.337140 -0.024494 0.252971 0.463891 -0.135550 0.050363 0.357838 -0.244910 -0.469866 -0.330703
5 -0.269923 -0.516602 0.040398 -0.185400 0.012970 -0.127949 0.142754 -0.081157 0.390797 -0.069692 0.295976 0.522172 -0.187866 0.039677 0.379766 -0.295177 -0.495873 -0.394359
11 -0.333269 -0.587049 0.210912 -0.290752 0.001093 -0.204360 -0.017368 -0.060201 0.284735 0.032660 0.213234 0.440519 -0.146636 0.015435 0.335583 -0.283861 -0.412285 -0.295922
6 -0.261180 -0.510322 0.077342 -0.166474 -0.017753 -0.098275 0.138724 -0.045942 0.379325 -0.039982 0.282846 0.507018 -0.174282 0.025858 0.402130 -0.272320 -0.501414 -0.398731
0 -0.323657 -0.596327 0.215720 -0.354005 -0.040641 -0.187560 -0.034477 -0.109813 0.244098 0.078426 0.225058 0.423194 -0.113892 0.001617 0.321758 -0.257216 -0.363734 -0.274018
13 -0.399170 -0.777182 0.395516 -0.505689 -0.039595 -0.319576 -0.117252 -0.185282 0.223870 0.230094 0.177545 0.465268 -0.126258 -0.030897 0.339045 -0.269786 -0.456668 -0.284860
17 -0.256854 -0.482700 0.067352 -0.167939 -0.051593 -0.119068 0.119389 -0.043489 0.384946 -0.012575 0.265979 0.511560 -0.141445 0.055071 0.346825 -0.221115 -0.461544 -0.367110
3 -0.346436 -0.566091 0.240349 -0.261324 0.009290 -0.222214 0.044794 -0.035845 0.233724 0.024139 0.223495 0.407867 -0.174029 -0.059326 0.290213 -0.331778 -0.346299 -0.349346
2 -0.303234 -0.575933 0.217401 -0.306225 -0.010187 -0.218273 0.000230 -0.056764 0.209699 0.057694 0.198455 0.422151 -0.109078 -0.033005 0.272804 -0.292944 -0.376860 -0.267119
10 -0.319607 -0.580849 0.170988 -0.287253 -0.002429 -0.160054 0.027662 -0.097412 0.314900 0.026288 0.257588 0.486347 -0.162581 0.039893 0.321176 -0.227520 -0.423959 -0.294581
4 -0.319785 -0.543986 0.172876 -0.251114 0.009160 -0.218747 0.027108 -0.026754 0.305114 0.002397 0.265879 0.478221 -0.134736 -0.020067 0.317358 -0.310463 -0.417862 -0.356575
12 -0.371459 -0.650922 0.254182 -0.380669 -0.042358 -0.237066 -0.072026 -0.152564 0.231088 0.135992 0.234523 0.476355 -0.131600 0.023821 0.308784 -0.205817 -0.434384 -0.258926
16 -0.276163 -0.509456 0.108305 -0.233816 -0.039953 -0.133080 0.094939 -0.082741 0.345520 0.009238 0.227471 0.500655 -0.152909 0.051119 0.384988 -0.270626 -0.491011 -0.362562
7 -0.233401 -0.481911 0.047185 -0.194961 -0.041914 -0.090860 0.114667 -0.053142 0.384437 -0.035671 0.238456 0.494089 -0.148382 0.008124 0.384484 -0.249814 -0.465080 -0.354044
8 -0.352305 -0.701575 0.331272 -0.398645 -0.055098 -0.264842 -0.079787 -0.101014 0.214117 0.180528 0.163748 0.426627 -0.127282 -0.023101 0.321535 -0.288705 -0.362672 -0.244413
14 -0.420546 -0.766708 0.391783 -0.483512 -0.015943 -0.282443 -0.130813 -0.174737 0.204645 0.213148 0.162593 0.481913 -0.142313 0.000676 0.319583 -0.225591 -0.406410 -0.259546
