18 18
5 -0.291372 -0.562669 0.168268 -0.330985 -0.081060 0.043594 0.147282 -0.254224 0.056775 0.139054 0.308473 0.459530 -0.229190 -0.019019 0.305865 -0.198273 -0.261590 -0.288293
13 -0.275092 -0.566160 0.213567 -0.388384 -0.130670 0.037578 0.154108 -0.285906 0.057857 0.197207 0.267686 0.447234 -0.205380 -0.050099 0.344378 -0.202707 -0.301369 -0.326212
10 -0.303988 -0.579311 0.202809 -0.357474 -0.112166 0.081309 0.154188 -0.247932 0.052445 0.159729 0.302321 0.478750 -0.231472 -0.008773 0.308740 -0.171684 -0.255338 -0.274882
16 -0.282868 -0.544557 0.211603 -0.363792 -0.133890 0.040562 0.169189 -0.255196 0.053227 0.181111 0.246040 0.467749 -0.215788 -0.012047 0.355941 -0.228353 -0.300439 -0.346233
0 -0.308125 -0.602149 0.234860 -0.406206 -0.166426 0.065593 0.140866 -0.266894 0.022043 0.195895 0.296497 0.461876 -0.203013 -0.026891 0.365522 -0.221080 -0.258113 -0.326648
2 -0.304264 -0.623072 0.234351 -0.405431 -0.147704 0.053551 0.176447 -0.249905 0.020676 0.192276 0.277843 0.514162 -0.209355 -0.049148 0.351957 -0.243304 -0.317840 -0.327480
8 -0.275428 -0.542531 0.213030 -0.320241 -0.129194 0.057131 0.138677 -0.211749 0.024888 0.177559 0.254898 0.421706 -0.205404 -0.024513 0.304767 -0.190996 -0.230245 -0.265574
3 -0.317777 -0.543448 0.234119 -0.346582 -0.115438 0.049034 0.148179 -0.239301 0.002728 0.163980 0.288080 0.425973 -0.230624 -0.049186 0.295299 -0.204824 -0.230140 -0.304525
14 -0.310265 -0.585830 0.249008 -0.402926 -0.123055 0.058160 0.126376 -0.262337 0.019147 0.203692 0.252957 0.474849 -0.214641 -0.039108 0.342726 -0.197534 -0.268469 -0.319035
1 -0.307333 -0.582312 0.234232 -0.374446 -0.103559 0.013866 0.143748 -0.226093 0.078143 0.170569 0.247591 0.437134 -0.191205 -0.043569 0.317519 -0.230648 -0.245953 -0.331160
4 -0.323365 -0.573692 0.199384 -0.348564 -0.092060 0.045314 0.102893 -0.231916 0.039719 0.154987 0.376324 0.513948 -0.213377 -0.036578 0.310296 -0.174869 -0.280346 -0.298378
6 -0.307755 -0.576832 0.196726 -0.307794 -0.095099 0.069499 0.129306 -0.226112 0.021333 0.162879 0.347212 0.479232 -0.235465 -0.030879 0.306119 -0.147187 -0.279769 -0.273275
15 -0.305040 -0.526887 0.223001 -0.344270 -0.110559 0.074557 0.134775 -0.243445 0.015774 0.155839 0.269774 0.410554 -0.185486 -0.011540 0.292357 -0.175400 -0.262563 -0.276716
12 -0.354827 -0.595140 0.192628 -0.343849 -0.111369 0.056827 0.087477 -0.263317 -0.003006 0.178478 0.387274 0.519314 -0.234326 -0.003395 0.279116 -0.110475 -0.293357 -0.232595
9 -0.341068 -0.612357 0.196462 -0.385350 -0.126099 0.063342 0.143272 -0.250650 0.059595 0.181485 0.339110 0.537689 -0.233049 -0.051315 0.332725 -0.201134 -0.312158 -0.289483
7 -0.305494 -0.626152 0.187916 -0.393476 -0.148551 0.079835 0.150461 -0.267391 0.075712 0.180877 0.332388 0.534716 -0.235620 -0.061794 0.374516 -0.190210 -0.298086 -0.325591
11 -0.314269 -0.582892 0.219672 -0.355436 -0.107953 0.037815 0.126320 -0.223055 0.066003 0.151267 0.274780 0.469065 -0.222114 -0.013472 0.353847 -0.225835 -0.283305 -0.315377
17 -0.316287 -0.584440 0.235880 -0.351662 -0.157652 0.037129 0.157473 -0.236638 0.053165 0.207750 0.294924 0.491219 -0.197821 -0.003531 0.311645 -0.172988 -0.275359 -0.331154
