18 18
3 -0.349314 -0.333241 0.319273 -0.208830 0.026612 0.049976 0.216280 0.198416 0.380716 -0.101312 0.309939 0.365383 -0.121033 -0.230647 0.193536 -0.395540 0.050100 -0.522634
2 -0.299781 -0.381709 0.271913 -0.216261 -0.025616 0.021721 0.222504 0.239402 0.398422 -0.096207 0.353897 0.418435 -0.076037 -0.253542 0.234802 -0.450949 0.008259 -0.526464
5 -0.250857 -0.402530 0.136297 -0.156335 -0.041061 -0.019613 0.235443 0.202506 0.451330 -0.129857 0.454858 0.403314 -0.120255 -0.261595 0.276589 -0.463437 0.020538 -0.511317
8 -0.346362 -0.394853 0.306397 -0.234692 -0.022769 0.100862 0.215335 0.173634 0.439917 -0.052086 0.345953 0.453451 -0.124741 -0.181463 0.260067 -0.371191 0.015004 -0.521347
6 -0.298830 -0.384184 0.227982 -0.185626 -0.032963 0.061567 0.224440 0.200287 0.453327 -0.083606 0.423330 0.447597 -0.115744 -0.232834 0.266876 -0.375967 -0.007234 -0.531721
14 -0.455830 -0.271660 0.521654 -0.354397 0.180236 0.213824 0.137218 0.084231 0.358094 -0.022129 0.028720 0.431187 -0.088445 -0.043458 0.104842 -0.180249 -0.006707 -0.490631
1 -0.409461 -0.394976 0.388615 -0.280224 0.048973 0.040972 0.192502 0.230252 0.468672 -0.083653 0.277548 0.434615 -0.077906 -0.208218 0.204654 -0.414771 0.041505 -0.578280
13 -0.281498 -0.418497 0.217917 -0.213176 -0.080622 0.003287 0.233497 0.208622 0.470065 -0.077394 0.455914 0.435962 -0.093186 -0.288361 0.296009 -0.459023 -0.010101 -0.568832
16 -0.436171 -0.326025 0.447966 -0.296735 0.081411 0.109498 0.215604 0.180691 0.431738 -0.074429 0.194797 0.452478 -0.096478 -0.134576 0.198414 -0.369774 -0.024804 -0.594578
4 -0.412523 -0.337732 0.399673 -0.271647 0.086860 0.083777 0.178556 0.219723 0.454916 -0.103643 0.292623 0.456387 -0.079068 -0.187089 0.201456 -0.385170 0.019363 -0.594278
7 -0.314304 -0.383384 0.256188 -0.225870 -0.027029 0.053043 0.227668 0.232554 0.479806 -0.112146 0.366024 0.439537 -0.096879 -0.267099 0.262486 -0.429149 0.026167 -0.549832
10 -0.375658 -0.293455 0.362205 -0.259545 0.086993 0.166160 0.193640 0.129865 0.418204 -0.076527 0.214387 0.428068 -0.108206 -0.090574 0.156261 -0.252501 -0.006610 -0.470077
17 -0.340925 -0.370749 0.272947 -0.214243 -0.025625 0.065483 0.220090 0.185246 0.471869 -0.067104 0.381509 0.481666 -0.095970 -0.181480 0.224582 -0.342735 -0.003790 -0.540454
9 -0.308784 -0.310638 0.219447 -0.205555 0.009156 0.080375 0.181312 0.158796 0.410964 -0.084380 0.328582 0.413489 -0.106611 -0.202053 0.201094 -0.330365 -0.007773 -0.440035
12 -0.323613 -0.393265 0.219984 -0.209673 -0.048543 0.008432 0.179196 0.183272 0.410704 -0.081731 0.435444 0.441885 -0.107794 -0.225679 0.250262 -0.395805 0.003766 -0.508465
0 -0.347610 -0.406060 0.276136 -0.261957 -0.040791 0.093190 0.207365 0.178862 0.455220 -0.082883 0.417525 0.465174 -0.107221 -0.212733 0.278765 -0.399069 0.024358 -0.545958
15 -0.440503 -0.273878 0.464808 -0.317581 0.119935 0.219454 0.182536 0.073541 0.373046 -0.047236 0.130375 0.409980 -0.087310 -0.045527 0.146247 -0.221211 -0.050322 -0.492703
11 -0.331042 -0.380902 0.254028 -0.193062 0.002292 0.028996 0.183561 0.220421 0.439768 -0.116707 0.368246 0.418385 -0.118739 -0.210633 0.257556 -0.412105 0.014499 -0.515694
