18 18
4 -0.559416 -0.441905 0.387011 -0.186930 0.192209 0.051432 0.070516 0.087110 0.221761 -0.179335 0.400814 0.395213 -0.247620 -0.006376 0.133561 -0.194795 0.109308 -0.499945
3 -0.585720 -0.443743 0.417564 -0.184375 0.199071 0.069536 0.099982 0.081913 0.179082 -0.199028 0.394981 0.357828 -0.299752 -0.011608 0.101693 -0.211396 0.133261 -0.476158
12 -0.577579 -0.459076 0.394405 -0.226928 0.151454 0.071139 0.072594 0.003490 0.150835 -0.130984 0.376020 0.364475 -0.260950 0.024518 0.133374 -0.162217 0.038380 -0.431918
0 -0.564767 -0.458027 0.384817 -0.221143 0.174184 0.088317 0.064240 0.067595 0.181754 -0.192619 0.387734 0.359882 -0.260428 0.021276 0.128894 -0.199295 0.117587 -0.414301
17 -0.524833 -0.440903 0.382782 -0.170231 0.124553 0.043296 0.109879 0.072224 0.214075 -0.127668 0.385924 0.402373 -0.240080 0.017109 0.113319 -0.158185 0.085809 -0.499123
1 -0.644765 -0.521082 0.442632 -0.225339 0.240754 0.059196 0.084126 0.116596 0.252575 -0.231129 0.406186 0.410476 -0.283055 0.014613 0.105091 -0.221505 0.138030 -0.484863
14 -0.564976 -0.459666 0.422351 -0.240155 0.171706 0.092899 0.077751 0.004331 0.154445 -0.125321 0.330393 0.359602 -0.269937 0.009186 0.143722 -0.171205 0.069568 -0.457550
15 -0.586029 -0.460163 0.433835 -0.242625 0.171473 0.111235 0.114379 -0.011405 0.174463 -0.150701 0.356097 0.336248 -0.264606 0.021964 0.177552 -0.214706 0.016472 -0.496297
13 -0.541209 -0.453829 0.414466 -0.241044 0.139951 0.080706 0.112167 -0.006020 0.179208 -0.113720 0.347097 0.335708 -0.250474 -0.018381 0.160913 -0.187607 0.028116 -0.481023
2 -0.587424 -0.492642 0.402750 -0.217388 0.229698 0.091919 0.093564 0.125282 0.214011 -0.255580 0.402614 0.431952 -0.292710 0.022500 0.111416 -0.234450 0.107432 -0.432850
6 -0.565863 -0.476745 0.411655 -0.181035 0.169791 0.078609 0.098615 0.074113 0.193873 -0.152777 0.388468 0.370565 -0.264209 -0.007450 0.155975 -0.183772 0.078526 -0.497598
7 -0.486208 -0.433313 0.332721 -0.185266 0.142196 0.081693 0.089125 0.082075 0.249143 -0.167248 0.344763 0.379387 -0.239864 -0.028028 0.160261 -0.173195 0.106088 -0.466384
10 -0.612216 -0.466479 0.378299 -0.184260 0.299066 0.125896 0.082702 0.145524 0.265365 -0.330513 0.433980 0.447726 -0.342156 0.100745 0.065089 -0.193253 0.157177 -0.380148
5 -0.499164 -0.465873 0.311708 -0.171847 0.198531 0.045221 0.105638 0.068565 0.262913 -0.195603 0.393080 0.412212 -0.270422 -0.005882 0.138955 -0.210187 0.114443 -0.479064
9 -0.553317 -0.432095 0.347533 -0.179425 0.196109 0.061486 0.078394 0.112725 0.240785 -0.203027 0.390078 0.410752 -0.267663 -0.007219 0.097695 -0.198380 0.101662 -0.427096
11 -0.662530 -0.502964 0.425332 -0.188831 0.297430 0.090346 0.053456 0.174938 0.274197 -0.331159 0.423098 0.438580 -0.341169 0.085273 0.124369 -0.250253 0.131388 -0.437025
16 -0.570177 -0.432646 0.418704 -0.225524 0.154457 0.095936 0.116170 -0.000393 0.167482 -0.138772 0.333213 0.349901 -0.279798 0.041777 0.183264 -0.204662 0.010970 -0.493461
8 -0.482212 -0.433942 0.356260 -0.171918 0.136099 0.062819 0.095217 0.061780 0.189993 -0.123534 0.319892 0.340780 -0.248747 -0.007507 0.143491 -0.192643 0.098530 -0.427381
