18 18
17 -0.193440 -0.433390 0.067668 -0.092849 0.043783 -0.025482 0.371083 0.020611 0.279135 -0.136174 0.370463 0.548818 -0.157948 0.008450 0.219715 -0.359003 -0.144285 -0.566575
8 -0.206776 -0.449988 0.113188 -0.083609 0.062581 0.018668 0.373494 0.021485 0.229662 -0.161098 0.335861 0.469329 -0.244273 -0.021610 0.288063 -0.439366 -0.099744 -0.556045
0 -0.220097 -0.452562 0.088706 -0.158287 0.065092 0.012795 0.329212 -0.016934 0.211184 -0.166373 0.369308 0.505279 -0.189540 -0.007912 0.272560 -0.416377 -0.130688 -0.549365
4 -0.181875 -0.371198 0.046445 -0.066454 0.082331 -0.057115 0.339696 0.093211 0.309872 -0.189292 0.419872 0.526617 -0.117022 -0.032681 0.218427 -0.399182 -0.117338 -0.609833
6 -0.192079 -0.443395 0.073953 -0.066051 0.081028 -0.015103 0.387087 0.075563 0.284293 -0.181543 0.403794 0.529539 -0.178157 -0.054224 0.257162 -0.415378 -0.134115 -0.608838
12 -0.288240 -0.555284 0.144152 -0.256610 0.100964 0.033713 0.302563 -0.176707 0.062068 -0.135103 0.310958 0.524486 -0.279272 0.051528 0.308090 -0.429464 -0.245737 -0.480484
15 -0.256036 -0.483987 0.132303 -0.181263 0.108800 0.042799 0.352765 -0.083689 0.172945 -0.177175 0.327262 0.488381 -0.228619 0.024416 0.281886 -0.433104 -0.192806 -0.543217
2 -0.193159 -0.448989 0.086409 -0.159635 0.086192 0.000466 0.335832 -0.014315 0.157735 -0.169484 0.322446 0.505415 -0.187678 -0.024892 0.254565 -0.437748 -0.172274 -0.516081
10 -0.195725 -0.415258 0.056675 -0.074869 0.085910 -0.000694 0.383538 0.057162 0.319410 -0.195064 0.410192 0.542634 -0.176187 0.001301 0.218869 -0.371496 -0.110506 -0.574833
5 -0.222553 -0.500699 0.085107 -0.210751 0.136600 0.027448 0.321966 -0.144772 0.112180 -0.177856 0.301461 0.482954 -0.260911 0.020939 0.283324 -0.439456 -0.205963 -0.478698
1 -0.193392 -0.413615 0.056794 -0.085371 0.072674 -0.071214 0.353673 0.097860 0.336401 -0.164349 0.374417 0.518198 -0.102065 -0.043853 0.186421 -0.380702 -0.104201 -0.577724
16 -0.206238 -0.401140 0.083837 -0.132348 0.076723 -0.010542 0.338413 -0.019377 0.213050 -0.159679 0.313937 0.485552 -0.192334 0.012091 0.270242 -0.418735 -0.173590 -0.566000
3 -0.278375 -0.454912 0.161559 -0.128722 0.119267 0.015892 0.359898 -0.028426 0.157181 -0.205840 0.352752 0.428513 -0.283875 -0.035306 0.275023 -0.470767 -0.110836 -0.582093
7 -0.161911 -0.423516 0.032499 -0.091439 0.041022 -0.003010 0.371953 0.051601 0.306911 -0.168997 0.365064 0.532304 -0.155421 -0.053315 0.244955 -0.378468 -0.126529 -0.559804
9 -0.193230 -0.392650 0.038277 -0.083178 0.063674 -0.022455 0.343262 0.064035 0.301204 -0.166271 0.368350 0.512031 -0.151908 -0.053781 0.207348 -0.375832 -0.123291 -0.521982
14 -0.255974 -0.511084 0.163918 -0.231521 0.124123 0.060264 0.285911 -0.141540 0.071104 -0.132963 0.238658 0.467558 -0.271962 0.028469 0.287127 -0.402075 -0.172106 -0.457163
11 -0.291839 -0.510475 0.169371 -0.152555 0.133535 0.026997 0.328566 -0.046283 0.162976 -0.210567 0.313295 0.468983 -0.310607 0.017155 0.331646 -0.495454 -0.157836 -0.557879
13 0.019096 0.002747 0.009678 -0.019404 -0.008210 -0.004883 0.008138 -0.018294 0.006568 0.019257 -0.015253 -0.018294 0.012156 -0.023377 0.007956 -0.002520 -0.021393 -0.009389
