18 18
10 -0.071819 -0.400227 0.170746 -0.092952 -0.139954 0.379287 0.524821 0.162794 0.122390 -0.142682 0.269060 0.318214 -0.339430 -0.238296 0.333305 -0.405426 0.174009 -0.396811
1 -0.090405 -0.419388 0.202360 -0.119512 -0.132751 0.326661 0.484487 0.170612 0.111764 -0.108989 0.202967 0.261824 -0.290657 -0.268883 0.322421 -0.438485 0.187584 -0.403059
0 -0.101306 -0.412035 0.205317 -0.136451 -0.178179 0.357796 0.494332 0.125946 0.092906 -0.112096 0.265131 0.294240 -0.301912 -0.218801 0.362986 -0.421083 0.140088 -0.429584
2 -0.080931 -0.389636 0.222153 -0.106890 -0.147736 0.321135 0.521890 0.174674 0.048621 -0.125318 0.246521 0.307047 -0.303117 -0.280801 0.325100 -0.473097 0.143374 -0.453280
15 -0.128195 -0.401083 0.233262 -0.135807 -0.163928 0.324374 0.511991 0.095626 0.099183 -0.099305 0.230255 0.297142 -0.286711 -0.187235 0.345403 -0.410955 0.053375 -0.455527
6 -0.073299 -0.411470 0.195137 -0.080341 -0.158535 0.351466 0.512890 0.155806 0.092608 -0.095689 0.238920 0.287763 -0.322447 -0.245493 0.371634 -0.417982 0.127703 -0.427112
7 -0.037521 -0.394191 0.172400 -0.103393 -0.171874 0.345780 0.496325 0.168885 0.100054 -0.110245 0.211777 0.274152 -0.310600 -0.315725 0.364814 -0.440966 0.178387 -0.424627
13 -0.083059 -0.399910 0.240247 -0.133028 -0.174276 0.319694 0.528624 0.139449 0.102314 -0.090633 0.225459 0.288375 -0.298880 -0.275234 0.357622 -0.452947 0.105049 -0.480682
11 -0.128851 -0.419792 0.220948 -0.106136 -0.140183 0.286359 0.459993 0.164305 0.111505 -0.123222 0.215374 0.291756 -0.309663 -0.219992 0.357773 -0.448148 0.096909 -0.423737
14 -0.101447 -0.415924 0.230214 -0.129305 -0.137711 0.339766 0.473555 0.148022 0.076172 -0.097126 0.207533 0.302826 -0.315992 -0.247341 0.346253 -0.427853 0.158896 -0.420993
16 -0.106074 -0.345665 0.212441 -0.107582 -0.165560 0.287849 0.490170 0.114709 0.090439 -0.090584 0.203249 0.291351 -0.281696 -0.172632 0.328761 -0.397016 0.054932 -0.445221
8 -0.054641 -0.421800 0.185988 -0.091019 -0.160071 0.356377 0.494383 0.162427 0.077340 -0.090397 0.215142 0.269492 -0.326802 -0.268850 0.354639 -0.442302 0.191455 -0.376125
9 -0.076734 -0.404900 0.159518 -0.109402 -0.149799 0.356175 0.497985 0.166117 0.114484 -0.116960 0.243952 0.307037 -0.314838 -0.285788 0.343986 -0.440154 0.153278 -0.389827
5 -0.055415 -0.407510 0.140907 -0.087948 -0.119812 0.319704 0.482645 0.118692 0.115255 -0.117094 0.234261 0.281258 -0.317487 -0.227899 0.347134 -0.414597 0.137743 -0.394330
3 -0.118419 -0.288253 0.266818 -0.074707 -0.087487 0.254202 0.461156 0.184406 0.014255 -0.151186 0.253562 0.221204 -0.312072 -0.336339 0.260227 -0.476390 0.225056 -0.509502
17 -0.095810 -0.389652 0.208096 -0.090680 -0.186313 0.299480 0.514404 0.147293 0.124128 -0.078318 0.243266 0.325762 -0.286930 -0.201928 0.322196 -0.388443 0.113585 -0.461666
12 -0.120486 -0.421228 0.212052 -0.130089 -0.174147 0.296737 0.471441 0.113165 0.068314 -0.079281 0.249602 0.307586 -0.309387 -0.233863 0.337274 -0.406878 0.096693 -0.414782
4 -0.107440 -0.301384 0.267726 -0.077514 -0.089133 0.260268 0.463695 0.229677 0.041825 -0.165668 0.286602 0.278669 -0.293846 -0.339626 0.297168 -0.514490 0.210812 -0.546096
