18 18
1 -0.219845 -0.422881 0.234013 -0.222553 0.103315 -0.006076 0.013664 0.388981 0.362628 -0.158613 -0.003783 0.405801 -0.055208 -0.227941 0.273736 -0.451429 0.152988 -0.373815
11 -0.307212 -0.438910 0.300883 -0.246181 0.103412 -0.069887 -0.083135 0.323980 0.341287 -0.163704 0.062057 0.416063 -0.060286 -0.121044 0.335733 -0.427423 0.081177 -0.440988
0 -0.226368 -0.416120 0.236475 -0.244734 0.055387 0.002957 -0.027383 0.324478 0.318541 -0.139933 0.060813 0.392838 -0.052447 -0.178518 0.317065 -0.419638 0.143115 -0.390532
2 -0.245177 -0.447322 0.281318 -0.266728 0.088542 -0.023576 -0.028345 0.371992 0.307160 -0.154258 0.039109 0.464938 -0.041461 -0.206416 0.315121 -0.462575 0.102900 -0.421126
17 -0.279059 -0.460267 0.283913 -0.243054 0.052098 -0.053005 -0.011342 0.336098 0.389888 -0.123976 0.060389 0.465201 -0.045588 -0.143540 0.315054 -0.405947 0.094015 -0.466397
7 -0.219371 -0.454770 0.229662 -0.260183 0.059427 0.018124 0.008221 0.361974 0.409254 -0.156178 0.013938 0.454924 -0.058787 -0.223414 0.338853 -0.428983 0.121225 -0.412478
8 -0.227201 -0.505534 0.246061 -0.245012 0.051575 0.041894 0.034434 0.388470 0.413698 -0.141321 0.005615 0.458742 -0.098048 -0.226578 0.369545 -0.489473 0.159503 -0.404670
3 -0.278610 -0.401806 0.302276 -0.232584 0.124060 -0.037725 -0.021038 0.351238 0.271680 -0.168598 0.054544 0.411435 -0.083076 -0.209824 0.277924 -0.458268 0.140380 -0.441965
5 -0.274682 -0.451690 0.261569 -0.255447 0.110592 -0.054831 -0.026344 0.282674 0.338393 -0.161400 0.080733 0.437564 -0.067757 -0.138785 0.319482 -0.431186 0.068740 -0.450068
4 -0.277819 -0.416891 0.303541 -0.239860 0.141463 -0.059745 -0.061132 0.413887 0.338720 -0.186242 0.067866 0.479501 -0.044141 -0.203230 0.305280 -0.481318 0.132726 -0.481005
16 -0.254592 -0.418696 0.273995 -0.236148 0.103066 -0.021920 0.004268 0.361113 0.333700 -0.163580 0.020561 0.462111 -0.079955 -0.180393 0.328399 -0.475668 0.097697 -0.459810
14 -0.294149 -0.443131 0.338374 -0.274094 0.144881 -0.046983 -0.080001 0.374074 0.291211 -0.156081 0.026410 0.477198 -0.060446 -0.191297 0.311851 -0.461565 0.137840 -0.466605
12 -0.341277 -0.476916 0.318094 -0.296274 0.072789 -0.077238 -0.084604 0.264204 0.323891 -0.122392 0.106730 0.464368 -0.053603 -0.105985 0.326901 -0.379609 0.042473 -0.451550
9 -0.231154 -0.458385 0.211159 -0.254148 0.078323 0.022546 0.011791 0.396131 0.423975 -0.164279 0.019599 0.473716 -0.068270 -0.254133 0.325865 -0.470492 0.125210 -0.386093
15 -0.341791 -0.471593 0.334830 -0.293299 0.092761 -0.040732 -0.055364 0.269105 0.328119 -0.148765 0.094059 0.428348 -0.048156 -0.111678 0.333754 -0.412681 0.056887 -0.468861
6 -0.226176 -0.429468 0.247244 -0.210001 0.081285 0.005103 -0.000155 0.355127 0.338055 -0.142127 0.042444 0.414753 -0.069389 -0.196541 0.320815 -0.421101 0.110031 -0.409353
10 -0.219675 -0.460300 0.223304 -0.243011 0.097496 0.041844 0.030550 0.383485 0.410578 -0.181045 0.025774 0.472674 -0.085259 -0.210957 0.312008 -0.442936 0.143589 -0.382908
13 -0.305845 -0.471828 0.341553 -0.308632 0.084072 -0.072151 -0.063272 0.304852 0.365880 -0.129101 0.061670 0.443796 -0.036091 -0.161752 0.348372 -0.427731 0.057334 -0.489700
