18 18
14 -0.012249 -0.235238 0.203835 -0.339072 -0.116197 -0.049250 0.303505 -0.019605 0.333887 0.078665 0.003901 0.141248 -0.061305 -0.404000 0.377932 -0.506435 -0.151973 -0.571653
11 -0.023462 -0.276894 0.151404 -0.300980 -0.131163 -0.086682 0.315572 0.034348 0.446215 0.029636 0.030848 0.159339 -0.090947 -0.411576 0.414673 -0.534792 -0.152085 -0.576315
9 -0.003951 -0.183880 0.173953 -0.338660 -0.136529 -0.056196 0.308315 -0.018587 0.331077 0.079413 0.027387 0.131597 -0.026283 -0.434354 0.369926 -0.532972 -0.202897 -0.551187
13 0.030803 -0.165496 0.257817 -0.387612 -0.142241 -0.038069 0.336363 -0.091529 0.225915 0.116155 0.008689 0.069165 0.009555 -0.440849 0.420786 -0.606506 -0.256763 -0.623900
8 0.027378 -0.151079 0.284319 -0.359849 -0.145399 0.021036 0.326788 -0.107861 0.100873 0.115650 0.031206 0.066263 -0.006672 -0.358775 0.447510 -0.641654 -0.247605 -0.590322
0 0.001709 -0.261507 0.167493 -0.350801 -0.165684 -0.047954 0.331175 -0.023629 0.388605 0.070952 0.058427 0.143830 -0.057919 -0.413636 0.418374 -0.528783 -0.157828 -0.587184
17 -0.001928 -0.278009 0.165244 -0.301778 -0.169388 -0.087966 0.351885 0.017273 0.439550 0.081176 0.044285 0.176517 -0.055502 -0.395598 0.379792 -0.493490 -0.155087 -0.604492
16 0.004380 -0.129602 0.255348 -0.349562 -0.125759 -0.033147 0.334851 -0.084059 0.187930 0.093713 0.018234 0.094410 -0.012486 -0.365387 0.408370 -0.595042 -0.253133 -0.626289
1 -0.030868 -0.258587 0.185053 -0.324203 -0.118289 -0.091400 0.311627 0.016987 0.392331 0.061944 0.010395 0.128490 -0.041444 -0.407466 0.343570 -0.500679 -0.136525 -0.559822
6 0.018696 -0.278359 0.178440 -0.304137 -0.145239 -0.056570 0.367290 0.009450 0.400673 0.067382 0.053409 0.152953 -0.077869 -0.432113 0.439122 -0.554819 -0.187619 -0.631478
7 0.028265 -0.258810 0.140282 -0.335921 -0.170446 -0.054045 0.349504 -0.002849 0.435519 0.068273 0.018897 0.151412 -0.055029 -0.448772 0.410770 -0.510268 -0.159753 -0.590699
5 0.013466 -0.275782 0.120143 -0.292635 -0.112860 -0.077785 0.350455 -0.021496 0.417038 0.036855 0.057160 0.166402 -0.087761 -0.382306 0.391299 -0.516128 -0.164008 -0.580992
4 0.006781 -0.163973 0.211337 -0.322671 -0.115711 -0.063590 0.305705 -0.021296 0.284892 0.061169 0.060956 0.118234 -0.015073 -0.408350 0.398012 -0.571011 -0.194399 -0.627018
3 -0.018838 -0.205331 0.203947 -0.310091 -0.121991 -0.057841 0.335150 -0.023994 0.300824 0.057557 0.039214 0.098415 -0.071117 -0.425432 0.364890 -0.536230 -0.148333 -0.591561
15 -0.008679 -0.183782 0.245892 -0.358079 -0.115240 0.005800 0.321654 -0.092530 0.206103 0.069927 0.054315 0.093778 -0.008590 -0.358142 0.412953 -0.580156 -0.240831 -0.598105
2 0.031045 -0.194394 0.203678 -0.335067 -0.129196 -0.026655 0.319916 -0.035904 0.221557 0.066299 0.033246 0.116974 -0.010653 -0.388506 0.385227 -0.566283 -0.210939 -0.556581
10 0.009761 -0.279513 0.154533 -0.320072 -0.134939 -0.044676 0.373189 0.000309 0.448169 0.039549 0.052883 0.172864 -0.097473 -0.407833 0.409993 -0.528436 -0.155446 -0.601176
12 -0.026600 -0.022358 0.002765 -0.019307 -0.014582 -0.010130 -0.018079 -0.025837 -0.017080 0.018496 0.026502 0.027636 -0.006702 0.013838 0.001462 0.019107 -0.024921 0.008452
