18 18
16 -0.208101 -0.479149 0.170297 -0.272715 -0.148133 0.140690 0.261680 -0.089473 0.251582 0.002059 0.036885 0.380759 -0.239211 -0.041677 0.536428 -0.401359 -0.402815 -0.390023
11 -0.260988 -0.488591 0.209654 -0.304460 -0.090756 0.118671 0.151306 -0.046786 0.245030 -0.030343 0.013275 0.363491 -0.188885 -0.014690 0.481719 -0.367247 -0.389757 -0.302984
14 -0.234246 -0.480103 0.209992 -0.320008 -0.102428 0.141052 0.181954 -0.085200 0.220763 0.008896 0.003918 0.358580 -0.187224 -0.049919 0.461872 -0.334547 -0.360983 -0.311786
1 -0.293219 -0.549473 0.259918 -0.368718 -0.072805 0.106720 0.181027 -0.022610 0.276790 -0.034624 -0.024966 0.374911 -0.153924 -0.041861 0.457082 -0.397752 -0.369495 -0.317130
12 -0.244561 -0.484399 0.164102 -0.312634 -0.150066 0.132585 0.180415 -0.113177 0.224452 0.017416 0.081632 0.381948 -0.187870 -0.044025 0.477924 -0.321843 -0.418609 -0.305300
7 -0.149537 -0.495479 0.112551 -0.256575 -0.195684 0.176890 0.281001 -0.081343 0.281233 0.002971 0.058419 0.367108 -0.246176 -0.115570 0.571642 -0.395133 -0.349490 -0.390203
15 -0.233428 -0.461129 0.180819 -0.317151 -0.121692 0.181980 0.218003 -0.113120 0.233075 -0.014267 0.062629 0.349557 -0.166114 -0.040819 0.467203 -0.345402 -0.408852 -0.312937
0 -0.240964 -0.498557 0.196972 -0.341382 -0.131051 0.156249 0.183884 -0.075962 0.239963 -0.015534 0.044698 0.359347 -0.176661 -0.043613 0.500238 -0.373805 -0.357336 -0.320626
8 -0.141052 -0.529129 0.117374 -0.210974 -0.232844 0.172587 0.325772 -0.101581 0.259546 0.054007 0.082497 0.378163 -0.309007 -0.106458 0.613619 -0.426513 -0.340961 -0.424301
3 -0.210551 -0.515652 0.183843 -0.267931 -0.157666 0.153515 0.290897 -0.090412 0.234811 -0.001208 0.068688 0.352220 -0.282954 -0.115806 0.546080 -0.431566 -0.337410 -0.416542
5 -0.160333 -0.568540 0.108503 -0.250383 -0.189242 0.167717 0.357451 -0.132782 0.307529 0.006645 0.108674 0.416173 -0.326745 -0.110985 0.644534 -0.471884 -0.398376 -0.479798
6 -0.184581 -0.460081 0.160606 -0.248992 -0.128752 0.147267 0.225627 -0.068472 0.232801 0.002691 0.054020 0.331715 -0.205427 -0.079198 0.498880 -0.347595 -0.369905 -0.344400
17 -0.212532 -0.464747 0.179852 -0.275693 -0.137587 0.120962 0.215757 -0.051288 0.252723 0.007371 0.045134 0.370885 -0.156937 -0.035010 0.425548 -0.324063 -0.357648 -0.321373
10 -0.251275 -0.547725 0.225830 -0.359089 -0.068012 0.161116 0.208298 -0.028861 0.288462 -0.060457 0.004286 0.414709 -0.180687 -0.023670 0.457760 -0.374134 -0.383680 -0.281905
2 -0.227052 -0.562817 0.228065 -0.353674 -0.108660 0.136044 0.234696 -0.018580 0.238149 -0.037605 -0.011659 0.418300 -0.186799 -0.068748 0.498185 -0.443470 -0.403735 -0.323420
13 -0.194380 -0.512939 0.207823 -0.326829 -0.124170 0.131162 0.236605 -0.071739 0.253478 0.001993 -0.000218 0.354832 -0.194131 -0.083894 0.500421 -0.397694 -0.388494 -0.342741
9 -0.225012 -0.469160 0.153214 -0.312341 -0.121766 0.151162 0.209411 -0.065329 0.273297 -0.010962 0.044149 0.378044 -0.169206 -0.082712 0.451964 -0.351548 -0.391144 -0.293257
4 -0.000863 0.026536 0.000487 0.011658 0.016931 -0.018308 -0.024615 0.027506 0.003913 -0.015616 0.024595 0.006644 0.019102 -0.007194 -0.007301 -0.006238 0.005807 -0.017039
