18 18
3 -0.363022 -0.538567 0.558884 -0.368384 0.135986 0.079484 0.118820 0.160470 0.131256 0.037903 -0.196812 0.123771 -0.049333 -0.309135 0.156385 -0.441450 0.099619 -0.279043
1 -0.357940 -0.533304 0.509116 -0.369460 0.124244 0.030578 0.078639 0.149937 0.195483 0.043576 -0.210417 0.152569 0.000768 -0.210701 0.139010 -0.390143 0.059236 -0.243535
13 -0.501246 -0.554004 0.707802 -0.556312 0.053991 0.062906 -0.079892 -0.205311 -0.059251 0.202420 -0.246383 0.108921 -0.028272 0.078917 0.250742 -0.215920 -0.143530 -0.287673
12 -0.559585 -0.573761 0.700238 -0.539185 0.026850 0.034759 -0.110907 -0.213908 -0.084259 0.209782 -0.188445 0.158549 -0.060714 0.136895 0.255655 -0.187473 -0.163281 -0.289104
16 -0.565553 -0.563937 0.723709 -0.538051 0.040271 0.038413 -0.079528 -0.201516 -0.065036 0.192499 -0.232524 0.148657 -0.070806 0.159164 0.285115 -0.236446 -0.170127 -0.336995
11 -0.499768 -0.558840 0.652882 -0.450399 0.081118 0.027164 -0.047754 -0.036860 0.012609 0.108121 -0.199637 0.135665 -0.065513 0.008297 0.254431 -0.320002 -0.080776 -0.301596
5 -0.404523 -0.622094 0.574644 -0.437926 0.146539 0.060838 0.100062 0.094425 0.181120 0.047982 -0.205132 0.185210 -0.043376 -0.222095 0.211572 -0.457645 0.030291 -0.313254
9 -0.348364 -0.506200 0.485591 -0.366809 0.102834 0.056927 0.066106 0.133705 0.165140 0.049910 -0.183751 0.164855 -0.018294 -0.232135 0.160564 -0.383536 0.029956 -0.227928
0 -0.460968 -0.559953 0.632606 -0.495340 0.051538 0.076510 -0.036046 -0.073675 -0.000416 0.133799 -0.193812 0.129637 -0.034358 -0.023792 0.247850 -0.296229 -0.047284 -0.277213
6 -0.382254 -0.675654 0.623261 -0.403291 0.148265 0.097485 0.166646 0.268837 0.242408 0.045215 -0.244065 0.184444 -0.028141 -0.392022 0.217906 -0.545343 0.101487 -0.331865
8 -0.268975 -0.518346 0.455761 -0.289308 0.104442 0.060299 0.150110 0.243486 0.215614 0.027887 -0.190586 0.148371 -0.029574 -0.324199 0.159479 -0.463030 0.115725 -0.235329
4 -0.385704 -0.572648 0.579917 -0.406516 0.172090 0.049901 0.078209 0.195011 0.192352 0.023028 -0.204760 0.176305 0.001391 -0.291174 0.167131 -0.474391 0.078321 -0.300592
2 -0.323852 -0.554214 0.516876 -0.365128 0.126928 0.056614 0.114946 0.205957 0.158384 0.023756 -0.203236 0.170653 -0.011311 -0.301212 0.162869 -0.467324 0.062217 -0.250351
14 -0.447841 -0.577574 0.671588 -0.530689 0.098675 0.139282 -0.039051 -0.140578 -0.035646 0.169399 -0.279229 0.115396 -0.046729 -0.020157 0.225330 -0.234350 -0.035779 -0.235208
10 -0.394770 -0.579307 0.558710 -0.405061 0.120513 0.085799 0.084480 0.093621 0.167365 0.053427 -0.189704 0.184291 -0.051084 -0.161661 0.185959 -0.373373 0.031967 -0.263853
17 -0.551905 -0.573671 0.715529 -0.516317 0.010204 0.025752 -0.076958 -0.178374 -0.044472 0.211269 -0.203281 0.166418 -0.048555 0.148234 0.253997 -0.201529 -0.144432 -0.332902
7 -0.366637 -0.647487 0.573754 -0.424707 0.123448 0.080593 0.137099 0.241943 0.259371 0.031030 -0.248304 0.201110 -0.016052 -0.365902 0.221713 -0.529555 0.095911 -0.315529
15 -0.413959 -0.543342 0.596771 -0.484690 0.095946 0.144283 0.012194 -0.095648 0.029645 0.114381 -0.227077 0.110775 -0.021802 -0.054520 0.209793 -0.267886 -0.044248 -0.230843
