18 18
10 -0.444309 -0.605857 0.405945 -0.208680 0.012133 -0.033221 0.223995 0.119067 0.245137 0.004810 0.146003 0.426501 -0.247418 0.029018 0.188561 -0.343233 0.068452 -0.440840
3 -0.540639 -0.592554 0.527439 -0.219030 0.022537 -0.115782 0.248719 0.089642 0.141055 0.056286 0.090828 0.420875 -0.238022 0.032205 0.020110 -0.320364 0.204042 -0.498652
9 -0.344460 -0.608143 0.299716 -0.180816 -0.056333 0.027504 0.190334 0.173413 0.306935 -0.008557 0.185443 0.343350 -0.237591 -0.110824 0.423762 -0.444498 -0.094020 -0.412321
4 -0.404406 -0.540724 0.424715 -0.205765 0.007108 -0.089457 0.194416 0.156807 0.221404 0.035477 0.100429 0.380205 -0.170131 -0.025269 0.187926 -0.373693 0.068593 -0.501404
16 -0.447994 -0.510151 0.476403 -0.211872 0.013429 -0.140161 0.237522 0.094838 0.161990 0.077726 0.000514 0.406112 -0.165913 0.080958 0.046164 -0.308517 0.123498 -0.510649
5 -0.416152 -0.575034 0.386733 -0.192206 0.013607 -0.078902 0.231905 0.088996 0.222332 0.025614 0.120352 0.392117 -0.218166 0.011554 0.168408 -0.347973 0.062475 -0.464481
15 -0.496102 -0.598120 0.496186 -0.232031 0.016739 -0.072417 0.250330 0.076220 0.180555 0.050511 0.094331 0.403758 -0.205074 0.040713 0.103019 -0.337905 0.109284 -0.502200
6 -0.176299 -0.741400 0.228063 -0.135926 -0.133533 0.167160 0.227031 0.311501 0.469057 -0.053723 0.275214 0.257425 -0.292845 -0.293307 0.934061 -0.682767 -0.362261 -0.537417
0 -0.187907 -0.672637 0.204661 -0.171838 -0.136439 0.154085 0.178347 0.234246 0.402703 -0.047566 0.263254 0.240127 -0.259771 -0.230030 0.819452 -0.604557 -0.284961 -0.454026
11 -0.325237 -0.583178 0.291216 -0.144007 -0.041378 0.014982 0.155026 0.171712 0.281428 -0.029469 0.168288 0.296537 -0.240013 -0.067059 0.451159 -0.445516 -0.111201 -0.406074
12 -0.366907 -0.640189 0.308577 -0.189679 -0.064830 0.018562 0.169929 0.142776 0.281315 0.000337 0.223892 0.363792 -0.256881 -0.065872 0.460549 -0.438625 -0.132661 -0.431094
17 -0.536878 -0.547924 0.587355 -0.221823 0.016364 -0.202569 0.268839 0.098849 0.144506 0.141411 -0.011057 0.477228 -0.139359 0.114976 -0.148431 -0.223526 0.286837 -0.554146
1 -0.498641 -0.548720 0.558535 -0.257301 0.047561 -0.197059 0.246145 0.125956 0.178443 0.110238 -0.045976 0.422789 -0.123013 0.056487 -0.061308 -0.299361 0.223620 -0.546107
14 -0.493733 -0.546183 0.545075 -0.254491 0.049498 -0.148869 0.222263 0.092720 0.140383 0.111493 -0.017447 0.442892 -0.162478 0.062351 -0.040812 -0.267062 0.225070 -0.513341
8 -0.437112 -0.606256 0.443721 -0.186821 -0.021887 -0.049597 0.232109 0.101311 0.184086 0.063842 0.104583 0.379504 -0.239015 0.010871 0.161466 -0.342836 0.112481 -0.431026
13 -0.181179 -0.734488 0.258779 -0.184248 -0.135608 0.136495 0.232973 0.266129 0.463825 -0.022704 0.237476 0.254839 -0.274819 -0.291045 0.881123 -0.669419 -0.341331 -0.534967
7 -0.466202 -0.510548 0.470946 -0.222931 0.013416 -0.122056 0.224718 0.078652 0.148140 0.072170 0.020487 0.419547 -0.166479 0.048235 -0.039447 -0.247817 0.226665 -0.467251
2 -0.430117 -0.570753 0.475403 -0.240929 0.006589 -0.116320 0.240574 0.142090 0.170589 0.057249 0.035408 0.425206 -0.164850 0.003502 0.113699 -0.384628 0.095034 -0.513240
