18 18
1 -0.481526 -0.553477 0.512928 -0.357487 0.034186 -0.103970 0.044946 0.148994 0.073960 0.039717 -0.047877 0.210000 -0.061062 -0.272483 0.136593 -0.399996 -0.047777 -0.323081
13 -0.439241 -0.529290 0.557728 -0.405539 0.014352 -0.114138 0.066827 0.070230 -0.001785 0.090930 -0.070512 0.172168 -0.050959 -0.320628 0.164221 -0.425479 -0.095046 -0.377481
8 -0.488394 -0.594265 0.468627 -0.348426 -0.015523 0.011694 0.042101 0.157738 0.060670 0.038979 -0.014068 0.249625 -0.150214 -0.265912 0.187332 -0.379383 -0.054322 -0.168876
4 -0.439893 -0.521672 0.538591 -0.351364 0.032072 -0.159785 0.053288 0.162905 0.054659 0.047636 -0.015519 0.230347 -0.029657 -0.322687 0.164737 -0.456988 -0.068379 -0.449102
6 -0.467106 -0.579401 0.511159 -0.331547 0.007768 -0.037580 0.070470 0.180852 0.070191 0.039986 -0.018000 0.233650 -0.111944 -0.312971 0.194327 -0.408079 -0.068804 -0.307101
0 -0.490518 -0.566028 0.517260 -0.401429 -0.005956 -0.049158 0.035889 0.098705 0.015268 0.053354 -0.008848 0.216512 -0.089505 -0.272338 0.176829 -0.403697 -0.057155 -0.288341
2 -0.508527 -0.598167 0.555013 -0.406595 0.005253 -0.044696 0.048977 0.139388 -0.019929 0.042267 -0.049640 0.229178 -0.096154 -0.308539 0.169136 -0.438963 -0.091330 -0.260141
9 -0.523643 -0.593999 0.420811 -0.359755 0.005747 0.026452 0.022544 0.210145 0.127971 -0.005917 0.023671 0.300697 -0.144932 -0.313868 0.162698 -0.377250 -0.072373 -0.117094
11 -0.507297 -0.570152 0.486873 -0.338289 0.027148 -0.052614 0.014556 0.158940 0.061330 0.004299 -0.025091 0.230508 -0.123207 -0.242767 0.187233 -0.402953 -0.083920 -0.241337
12 -0.562644 -0.611435 0.524758 -0.396441 0.008422 -0.048538 -0.003634 0.088906 -0.030958 0.047333 0.002577 0.248451 -0.139278 -0.241803 0.172612 -0.378047 -0.124477 -0.204497
17 -0.441931 -0.538213 0.510309 -0.338979 -0.018405 -0.121725 0.073992 0.142390 0.077576 0.080533 -0.033871 0.243577 -0.047598 -0.270297 0.143974 -0.386490 -0.069759 -0.374693
14 -0.503495 -0.571526 0.584264 -0.422148 0.042467 -0.065655 0.038116 0.077962 -0.021229 0.070169 -0.079075 0.208026 -0.093393 -0.290450 0.159505 -0.408021 -0.063012 -0.330576
3 -0.496308 -0.523102 0.546660 -0.369036 0.028641 -0.065340 0.059371 0.094899 -0.025104 0.043053 -0.037709 0.169271 -0.110962 -0.293893 0.136758 -0.406627 -0.048340 -0.306351
16 -0.441542 -0.505492 0.516207 -0.358104 0.010652 -0.098367 0.072829 0.102893 0.027773 0.060669 -0.059943 0.210502 -0.071805 -0.258074 0.172641 -0.416423 -0.094132 -0.370176
10 -0.549044 -0.644969 0.494794 -0.396801 0.031386 0.044317 0.054231 0.179830 0.106054 -0.012401 0.013748 0.300614 -0.168639 -0.292828 0.168089 -0.387229 -0.055212 -0.166114
5 -0.444115 -0.571083 0.456446 -0.356855 0.036458 -0.102879 0.082124 0.108487 0.077351 0.026201 -0.001532 0.254258 -0.093834 -0.277766 0.177179 -0.438800 -0.089529 -0.345028
7 -0.474068 -0.583639 0.496988 -0.377859 -0.014021 -0.029396 0.056786 0.170724 0.093415 0.027330 -0.038100 0.243203 -0.102541 -0.337734 0.196053 -0.411477 -0.058423 -0.288545
15 -0.509710 -0.539086 0.541377 -0.395632 0.029980 -0.016267 0.050381 0.057628 -0.009677 0.034941 -0.030294 0.182648 -0.093347 -0.246941 0.155468 -0.380183 -0.092433 -0.280252
