18 18
0 -0.239146 -0.437916 0.039668 -0.343368 -0.113207 0.127451 -0.057604 0.115499 0.158168 -0.048887 0.526942 0.660211 0.017118 -0.146755 0.358081 -0.254406 -0.149859 -0.308491
8 -0.249023 -0.423657 0.054268 -0.282370 -0.059971 0.105201 -0.011585 0.130795 0.173645 -0.073163 0.484907 0.611074 -0.025154 -0.156644 0.320542 -0.288703 -0.153523 -0.288641
1 -0.276332 -0.443718 0.086724 -0.341538 -0.070479 0.077003 -0.042062 0.145719 0.200018 -0.057618 0.481724 0.653504 0.029554 -0.162545 0.333243 -0.274808 -0.165158 -0.346494
15 -0.288283 -0.443733 0.062600 -0.338431 -0.044047 0.136134 -0.021134 0.099486 0.180592 -0.101382 0.527413 0.642555 -0.004141 -0.155649 0.330049 -0.286169 -0.192978 -0.306858
2 -0.231866 -0.431664 0.050547 -0.321325 -0.080917 0.107615 -0.022443 0.147815 0.156152 -0.068125 0.488997 0.661159 0.020079 -0.169222 0.328429 -0.280988 -0.181342 -0.304937
4 -0.273501 -0.403931 0.043517 -0.297669 -0.021923 0.073735 -0.055514 0.172502 0.195289 -0.116559 0.569540 0.674188 0.012923 -0.185668 0.302388 -0.303173 -0.179715 -0.328953
12 -0.282608 -0.450375 0.053538 -0.335007 -0.079087 0.092490 -0.053449 0.104494 0.162201 -0.055725 0.523757 0.678291 -0.010502 -0.147355 0.325154 -0.248577 -0.188538 -0.298866
3 -0.316110 -0.444941 0.070550 -0.327517 -0.017165 0.102900 -0.021827 0.153422 0.180886 -0.134104 0.581661 0.677155 -0.043825 -0.227137 0.302695 -0.331057 -0.160728 -0.328277
10 -0.259552 -0.424492 0.028619 -0.299066 -0.034883 0.122026 -0.020157 0.145909 0.206893 -0.111826 0.536065 0.674784 -0.019951 -0.153245 0.296121 -0.257311 -0.165378 -0.279132
13 -0.225297 -0.431781 0.062333 -0.348016 -0.095466 0.106960 -0.027406 0.109430 0.177868 -0.039428 0.493650 0.642632 0.024232 -0.182267 0.350830 -0.268346 -0.195600 -0.329788
7 -0.233470 -0.424147 0.018916 -0.316630 -0.076950 0.121309 -0.032022 0.131448 0.204209 -0.086304 0.480569 0.639013 -0.000872 -0.186020 0.332866 -0.257493 -0.158585 -0.293091
9 -0.293558 -0.436339 0.024667 -0.327861 -0.033400 0.100861 -0.038596 0.147764 0.214851 -0.109915 0.535302 0.686576 -0.017852 -0.206866 0.307061 -0.302471 -0.194966 -0.278825
14 -0.283097 -0.472842 0.094691 -0.364104 -0.068972 0.118720 -0.056831 0.125949 0.170481 -0.046639 0.497443 0.703344 -0.005517 -0.163983 0.361271 -0.262925 -0.159964 -0.347855
5 -0.275436 -0.475193 0.026788 -0.325183 -0.025760 0.097390 0.001254 0.123092 0.222300 -0.117827 0.568910 0.699541 -0.027852 -0.172158 0.344460 -0.329168 -0.194039 -0.344486
16 -0.245341 -0.387131 0.076134 -0.300192 -0.081718 0.092432 -0.008598 0.114354 0.170205 -0.051251 0.433926 0.616659 -0.006290 -0.121524 0.349578 -0.265743 -0.187349 -0.356931
17 -0.257635 -0.437784 0.070753 -0.309039 -0.111313 0.087838 -0.024015 0.141113 0.203300 -0.028877 0.496147 0.683387 0.025355 -0.130186 0.326356 -0.231438 -0.165420 -0.357128
6 -0.244729 -0.434917 0.064994 -0.300275 -0.086951 0.109463 -0.021416 0.145511 0.174058 -0.049290 0.513132 0.658301 0.010115 -0.161621 0.361065 -0.259749 -0.189587 -0.353667
11 -0.273675 -0.424501 0.052706 -0.290435 -0.031541 0.084319 -0.051140 0.151687 0.195923 -0.113032 0.497569 0.629760 -0.026767 -0.155049 0.330159 -0.298566 -0.174534 -0.297608
