18 18
1 -0.418796 -0.471800 0.331809 -0.120027 0.172066 -0.255651 0.056533 0.290369 0.452384 -0.061564 0.144086 0.395289 -0.116112 -0.149670 0.112417 -0.396501 0.049882 -0.476443
4 -0.366326 -0.486020 0.235954 -0.177375 0.118655 -0.215421 0.040972 0.206453 0.467719 -0.010574 0.203120 0.546387 -0.129815 -0.116051 0.152329 -0.346099 -0.006151 -0.454278
5 -0.326709 -0.476840 0.192366 -0.168360 0.142093 -0.198532 0.078539 0.135331 0.431252 -0.028070 0.169030 0.482558 -0.146386 -0.100735 0.136981 -0.328028 -0.022015 -0.407858
17 -0.359978 -0.562954 0.208072 -0.224484 0.054445 -0.202794 0.077355 0.130387 0.484769 0.073050 0.179122 0.613931 -0.135940 -0.083092 0.135987 -0.269672 -0.037839 -0.405961
14 -0.360084 -0.532063 0.236933 -0.242096 0.116718 -0.174389 0.049590 0.123295 0.433639 0.033629 0.147473 0.564638 -0.154187 -0.113550 0.145107 -0.305007 -0.007491 -0.399158
3 -0.433583 -0.422546 0.365294 -0.052485 0.178897 -0.249946 0.077756 0.304914 0.389690 -0.092070 0.157171 0.315475 -0.153530 -0.162034 0.109289 -0.411312 0.070369 -0.502177
11 -0.427586 -0.442950 0.341968 -0.056819 0.182497 -0.260467 0.040006 0.333901 0.449986 -0.104826 0.139607 0.368033 -0.147085 -0.114910 0.154342 -0.423807 0.028280 -0.499739
15 -0.408848 -0.433948 0.328071 -0.098555 0.163170 -0.197090 0.072126 0.250653 0.412019 -0.078365 0.149678 0.358802 -0.134324 -0.111265 0.140530 -0.381325 0.016923 -0.471879
13 -0.362760 -0.477254 0.290555 -0.161428 0.132344 -0.220708 0.076536 0.196299 0.448412 -0.012102 0.136580 0.428072 -0.128003 -0.134917 0.144723 -0.354045 -0.019316 -0.465063
8 -0.378585 -0.547982 0.266177 -0.183868 0.090957 -0.188806 0.081358 0.197295 0.472593 0.020197 0.161213 0.535771 -0.167772 -0.105130 0.176035 -0.356009 0.009129 -0.425071
0 -0.404706 -0.564283 0.256786 -0.228442 0.083259 -0.186912 0.057395 0.181922 0.485095 0.007258 0.210277 0.575654 -0.159960 -0.104789 0.194801 -0.366052 0.013183 -0.460605
10 -0.379403 -0.494222 0.260279 -0.155419 0.138630 -0.181649 0.089217 0.200306 0.465558 -0.035823 0.172846 0.491295 -0.163839 -0.099050 0.127991 -0.331642 0.012429 -0.431031
12 -0.362868 -0.517880 0.218187 -0.221277 0.088414 -0.186741 0.048236 0.109169 0.415748 0.031112 0.181194 0.539373 -0.150004 -0.084915 0.148863 -0.289789 -0.046169 -0.389384
9 -0.382684 -0.542525 0.203730 -0.229906 0.094963 -0.193316 0.060424 0.163825 0.490148 0.024115 0.186868 0.595304 -0.149906 -0.140773 0.142199 -0.328765 -0.024272 -0.389650
16 -0.384960 -0.521544 0.252290 -0.192016 0.090662 -0.197598 0.093320 0.165146 0.474167 0.016142 0.156668 0.556908 -0.173462 -0.070395 0.181719 -0.350366 -0.036969 -0.463010
6 -0.385874 -0.447556 0.312055 -0.060264 0.155696 -0.221263 0.071811 0.295336 0.419633 -0.063954 0.158071 0.373658 -0.145990 -0.133895 0.149831 -0.376372 0.021499 -0.472706
2 -0.346950 -0.536062 0.235973 -0.225557 0.099999 -0.192744 0.075899 0.176268 0.436071 0.012087 0.162432 0.559271 -0.128423 -0.136558 0.144907 -0.353820 -0.030451 -0.408115
7 0.025536 0.002637 -0.024458 -0.006487 -0.021911 0.018456 0.005430 0.006920 0.025711 -0.005710 -0.012468 0.004183 0.006040 -0.027377 0.019628 0.004891 0.006248 -0.002409
