18 18
5 -0.113808 -0.517232 -0.014697 -0.329326 -0.124931 0.056664 0.321022 -0.037584 0.458328 -0.033578 0.083214 0.431330 -0.173935 -0.277861 0.343758 -0.346906 -0.077535 -0.399874
0 -0.204134 -0.534334 0.039745 -0.407661 -0.144917 0.130526 0.265897 -0.071841 0.359837 -0.056613 0.176325 0.419725 -0.205967 -0.315654 0.366482 -0.366997 -0.021259 -0.396019
3 -0.210224 -0.510024 0.068366 -0.363979 -0.109172 0.094897 0.302543 -0.059871 0.346454 -0.055028 0.139995 0.390655 -0.228958 -0.321335 0.304622 -0.354047 -0.015077 -0.405848
8 -0.140235 -0.536485 0.057703 -0.350666 -0.125629 0.136619 0.294639 -0.016881 0.390473 -0.005974 0.065724 0.436906 -0.213665 -0.295808 0.334438 -0.330212 0.004814 -0.339177
12 -0.227297 -0.534706 0.037991 -0.407363 -0.124854 0.105510 0.222673 -0.126119 0.301739 -0.026296 0.188254 0.421510 -0.197807 -0.236363 0.317707 -0.293354 -0.082997 -0.337972
2 -0.111612 -0.519635 0.020193 -0.356735 -0.150138 0.084284 0.320122 -0.007805 0.410992 -0.019847 0.066396 0.451781 -0.162708 -0.316807 0.329142 -0.352836 -0.061676 -0.380170
13 -0.130444 -0.538054 0.035483 -0.405178 -0.169754 0.046942 0.346426 -0.056539 0.472034 0.001512 0.061782 0.411819 -0.149238 -0.355521 0.355360 -0.371760 -0.096520 -0.445525
7 -0.112348 -0.521772 0.003674 -0.365111 -0.165119 0.104642 0.312456 -0.015066 0.461724 -0.021471 0.065676 0.446047 -0.166072 -0.338517 0.351682 -0.328653 -0.038896 -0.393149
10 -0.134421 -0.552518 0.038076 -0.379424 -0.097978 0.157459 0.316324 -0.019513 0.454094 -0.034832 0.065961 0.482783 -0.217075 -0.287453 0.314764 -0.298847 -0.002761 -0.336965
17 -0.093431 -0.522651 0.019494 -0.261657 -0.207341 -0.058935 0.360621 0.038703 0.548972 0.049477 0.006970 0.477169 -0.110754 -0.223969 0.324376 -0.306297 -0.119445 -0.487668
11 -0.154593 -0.535584 0.029461 -0.309691 -0.140165 0.009820 0.298567 0.006571 0.475734 -0.036847 0.063549 0.439071 -0.177144 -0.242005 0.370857 -0.364171 -0.100244 -0.438831
16 -0.117957 -0.506590 0.025200 -0.314347 -0.173040 -0.000749 0.346348 -0.005618 0.488798 0.005390 0.018812 0.446694 -0.153283 -0.241669 0.362874 -0.356405 -0.121710 -0.469506
9 -0.141568 -0.497206 0.014187 -0.363948 -0.102275 0.140199 0.271579 -0.005024 0.417072 -0.031967 0.078645 0.458521 -0.191752 -0.331373 0.305228 -0.316010 -0.016774 -0.306361
1 -0.130624 -0.526868 0.044194 -0.343212 -0.160557 -0.003374 0.330269 0.032516 0.512075 0.004141 0.012713 0.436504 -0.123566 -0.317911 0.326947 -0.362623 -0.060547 -0.442936
14 -0.135258 -0.553902 0.078356 -0.382231 -0.089211 0.134585 0.288051 -0.008318 0.426290 0.001578 0.009414 0.472266 -0.204845 -0.308447 0.322190 -0.309056 0.011465 -0.351780
15 -0.217269 -0.492257 0.064976 -0.381535 -0.099830 0.129087 0.260006 -0.103211 0.311135 -0.058238 0.158853 0.364315 -0.189217 -0.259475 0.304847 -0.319764 -0.056035 -0.359991
6 -0.122726 -0.513575 0.025824 -0.318495 -0.146957 0.077381 0.320226 0.002806 0.438956 -0.014384 0.082976 0.431979 -0.174003 -0.316053 0.352740 -0.340271 -0.063335 -0.415171
4 -0.171152 -0.492971 0.037193 -0.353132 -0.108232 0.078334 0.258558 -0.022685 0.389384 -0.052458 0.142015 0.424463 -0.173722 -0.294244 0.322454 -0.341976 -0.039870 -0.396568
