18 18
9 -0.462580 -0.430557 0.079919 -0.569535 -0.185037 0.284021 -0.130008 -0.164938 0.290579 0.036494 0.238581 0.506413 -0.058852 0.045180 0.266883 -0.054744 -0.332678 0.149538
3 -0.435649 -0.332090 0.110657 -0.366423 -0.028234 0.156715 0.175554 0.060291 0.282300 -0.243067 0.471166 0.524714 -0.127979 -0.457976 0.342179 -0.476198 -0.314715 -0.523668
0 -0.457380 -0.443970 0.096236 -0.554469 -0.197401 0.284467 -0.117940 -0.164241 0.281100 0.014587 0.282138 0.507248 -0.074018 0.064321 0.312348 -0.075949 -0.304783 0.065754
15 -0.468467 -0.433021 0.128466 -0.529795 -0.145181 0.278753 -0.009119 -0.118303 0.284251 -0.044216 0.303494 0.484746 -0.062861 -0.082962 0.307485 -0.194059 -0.328194 -0.084131
4 -0.400326 -0.312876 0.082662 -0.359644 -0.039061 0.150588 0.095469 0.068270 0.306278 -0.210496 0.447699 0.533357 -0.076626 -0.356181 0.331957 -0.394490 -0.319347 -0.432342
13 -0.472297 -0.477769 0.126686 -0.621559 -0.223551 0.309436 -0.141926 -0.225095 0.295076 0.087986 0.209864 0.494088 -0.060778 0.114188 0.293539 -0.009425 -0.353314 0.175403
8 -0.446480 -0.450631 0.128404 -0.508991 -0.180119 0.276620 -0.030767 -0.120489 0.274784 0.005778 0.273366 0.495172 -0.096005 -0.036736 0.316734 -0.154157 -0.307042 -0.024381
16 -0.430157 -0.387636 0.094801 -0.464039 -0.126023 0.221112 0.016548 -0.085221 0.289333 -0.075893 0.311914 0.524465 -0.100461 -0.097196 0.329392 -0.225476 -0.359806 -0.165720
2 -0.433791 -0.409680 0.094744 -0.477075 -0.105810 0.220658 0.074471 -0.007046 0.300054 -0.147389 0.392628 0.572483 -0.082677 -0.280262 0.350304 -0.351472 -0.368199 -0.282166
10 -0.473674 -0.489207 0.077427 -0.579267 -0.196171 0.325862 -0.158402 -0.239713 0.305565 0.050078 0.238962 0.559118 -0.121360 0.215814 0.288241 0.056201 -0.376041 0.242841
11 -0.495072 -0.499891 0.081744 -0.566882 -0.197242 0.290226 -0.258383 -0.249998 0.280479 0.076917 0.185744 0.542517 -0.130802 0.314077 0.311716 0.098160 -0.402258 0.327255
1 -0.479884 -0.451123 0.131622 -0.538650 -0.131265 0.224941 -0.019291 -0.075295 0.320317 -0.053353 0.302485 0.522211 -0.065831 -0.124852 0.301472 -0.222432 -0.322322 -0.109205
17 -0.441577 -0.428365 0.104952 -0.482686 -0.188460 0.239438 -0.067573 -0.128142 0.291299 0.029326 0.270281 0.511906 -0.071486 0.042533 0.270639 -0.064226 -0.321148 0.017705
5 -0.351942 -0.315788 0.047110 -0.292668 0.009249 0.108253 0.218497 0.074667 0.316898 -0.271489 0.474170 0.520059 -0.118791 -0.447387 0.351170 -0.495047 -0.317329 -0.586411
14 -0.502707 -0.478747 0.128085 -0.595778 -0.174844 0.295841 -0.145288 -0.178428 0.284896 0.033250 0.249278 0.561380 -0.092717 0.061318 0.310900 -0.053590 -0.348190 0.091184
12 -0.463101 -0.456135 0.071132 -0.523796 -0.171633 0.245940 -0.145038 -0.213650 0.246117 0.025265 0.282806 0.559906 -0.123927 0.123138 0.300448 -0.008829 -0.406239 0.124118
7 -0.366180 -0.323850 0.057537 -0.356035 -0.059221 0.167123 0.140849 0.059929 0.321528 -0.219692 0.422476 0.523711 -0.093791 -0.402483 0.358188 -0.407952 -0.319547 -0.460535
6 -0.387663 -0.345281 0.096817 -0.328635 -0.029551 0.162208 0.191057 0.077727 0.295596 -0.227432 0.454528 0.514612 -0.116064 -0.432366 0.367767 -0.458372 -0.332590 -0.529909
