18 18
2 -0.212599 -0.482047 0.269259 -0.143876 -0.072656 0.082876 0.356980 0.285821 0.279032 -0.119953 0.308095 0.560507 -0.100891 -0.177466 0.189777 -0.367216 -0.067440 -0.502784
3 -0.239952 -0.411259 0.265768 -0.065827 -0.046040 0.034467 0.375755 0.328603 0.297756 -0.140261 0.343159 0.529561 -0.138197 -0.224909 0.130433 -0.370410 0.003857 -0.535556
1 -0.261226 -0.477103 0.291863 -0.162615 -0.031427 0.044115 0.296342 0.244337 0.306387 -0.103676 0.267811 0.480915 -0.087914 -0.154498 0.164028 -0.324442 -0.036715 -0.485470
14 -0.261665 -0.485215 0.299997 -0.175096 -0.026000 0.080289 0.293060 0.222237 0.289866 -0.093691 0.271786 0.534238 -0.119506 -0.132721 0.184411 -0.306188 -0.037066 -0.497630
15 -0.261562 -0.473052 0.289206 -0.171380 -0.039856 0.094854 0.311315 0.207734 0.281392 -0.112754 0.300843 0.494690 -0.099536 -0.129418 0.187056 -0.317547 -0.068314 -0.486909
13 -0.230951 -0.465768 0.287671 -0.194100 -0.051997 0.078005 0.304496 0.194002 0.303293 -0.083733 0.268840 0.499459 -0.097401 -0.159423 0.201586 -0.304961 -0.080803 -0.502414
10 -0.230886 -0.464395 0.249982 -0.146362 -0.030239 0.109482 0.324641 0.241917 0.321431 -0.142592 0.316204 0.546429 -0.130660 -0.128488 0.179363 -0.300547 -0.044334 -0.466414
6 -0.207203 -0.436622 0.252245 -0.057767 -0.052815 0.047398 0.354366 0.326551 0.311958 -0.112344 0.320261 0.525761 -0.113187 -0.197708 0.171235 -0.342935 -0.037696 -0.522918
5 -0.220061 -0.474436 0.223589 -0.108505 -0.025761 0.050771 0.352204 0.263618 0.339356 -0.146634 0.336432 0.544203 -0.127377 -0.163453 0.183090 -0.358927 -0.047152 -0.507461
7 -0.201935 -0.446157 0.231434 -0.125262 -0.072608 0.084048 0.333781 0.277400 0.328440 -0.124718 0.299811 0.537454 -0.105213 -0.189091 0.193391 -0.327663 -0.039534 -0.504536
11 -0.259937 -0.491906 0.287383 -0.144832 -0.034355 0.065990 0.298933 0.263710 0.320283 -0.131970 0.291233 0.533224 -0.122770 -0.126243 0.217241 -0.346002 -0.069929 -0.496844
16 -0.236503 -0.439140 0.270596 -0.150229 -0.047388 0.067365 0.320915 0.224114 0.294188 -0.103320 0.269752 0.513209 -0.113639 -0.122006 0.194832 -0.325835 -0.070977 -0.504469
17 -0.234304 -0.459411 0.270312 -0.099564 -0.073636 0.036130 0.342368 0.290159 0.331543 -0.088648 0.314538 0.554613 -0.091315 -0.141024 0.152845 -0.308825 -0.040890 -0.525104
0 -0.240318 -0.467044 0.266682 -0.197862 -0.062848 0.100991 0.270926 0.186294 0.262312 -0.097772 0.290483 0.473815 -0.097348 -0.121814 0.205047 -0.304755 -0.033116 -0.462442
4 -0.217717 -0.401851 0.244832 -0.071994 -0.021288 0.021648 0.306436 0.330867 0.315862 -0.144288 0.333040 0.518743 -0.091577 -0.191934 0.145109 -0.343804 -0.013788 -0.495590
12 -0.262542 -0.483064 0.272668 -0.169212 -0.063644 0.065555 0.294065 0.211748 0.277265 -0.090219 0.317466 0.538774 -0.113125 -0.134073 0.187429 -0.302159 -0.074575 -0.487945
8 -0.209788 -0.444715 0.259677 -0.074322 -0.063770 0.040514 0.337976 0.304850 0.305752 -0.084721 0.284347 0.512237 -0.117208 -0.173511 0.171206 -0.350189 -0.011087 -0.483833
9 -0.245213 -0.454854 0.245273 -0.117288 -0.049192 0.046060 0.332775 0.306767 0.348488 -0.117150 0.318763 0.566947 -0.105688 -0.192109 0.158208 -0.348219 -0.046629 -0.492654
