18 18
5 -0.212987 -0.428988 0.048615 -0.290072 0.109977 0.074186 0.286904 -0.188795 0.429513 -0.144704 0.253724 0.590047 -0.209490 0.164463 0.232370 -0.205690 -0.331999 -0.370850
10 -0.220306 -0.417294 0.062684 -0.283257 0.121975 0.115127 0.264525 -0.167778 0.439890 -0.164580 0.270607 0.605782 -0.215925 0.204630 0.217719 -0.157731 -0.312364 -0.336749
13 -0.194914 -0.404897 0.083071 -0.314641 0.076322 0.068746 0.285860 -0.193218 0.406401 -0.102393 0.210985 0.551561 -0.183422 0.118627 0.230572 -0.200591 -0.356583 -0.370560
17 -0.239368 -0.428640 0.091704 -0.283550 0.061413 0.054684 0.277022 -0.154146 0.433939 -0.101487 0.271356 0.614414 -0.174257 0.170239 0.201522 -0.167568 -0.321068 -0.388697
9 -0.231191 -0.417392 0.050701 -0.316344 0.081547 0.081126 0.277529 -0.168770 0.427189 -0.125948 0.248364 0.607406 -0.192731 0.112587 0.215972 -0.207191 -0.349077 -0.342806
3 -0.245716 -0.406048 0.092569 -0.287737 0.095132 0.085285 0.274009 -0.167143 0.377656 -0.141295 0.255064 0.557670 -0.223375 0.128405 0.209965 -0.202578 -0.287292 -0.364795
14 -0.250579 -0.455148 0.105493 -0.331771 0.114944 0.099644 0.250582 -0.183357 0.410778 -0.126435 0.229975 0.617829 -0.214621 0.166486 0.237195 -0.188517 -0.319845 -0.363936
4 -0.231181 -0.385495 0.078054 -0.277348 0.115635 0.070472 0.224750 -0.140593 0.411913 -0.152655 0.287126 0.585201 -0.172698 0.168866 0.208364 -0.175780 -0.307298 -0.360362
16 -0.227633 -0.414469 0.077909 -0.308929 0.072918 0.084405 0.310060 -0.193520 0.414682 -0.119700 0.230458 0.602139 -0.213531 0.166600 0.249860 -0.217968 -0.366249 -0.394560
15 -0.250422 -0.417575 0.091272 -0.306954 0.093222 0.116199 0.277423 -0.201167 0.393826 -0.141858 0.266608 0.561165 -0.198273 0.176041 0.230118 -0.189523 -0.332606 -0.356943
0 -0.215559 -0.401353 0.072954 -0.298574 0.064256 0.097590 0.229777 -0.166126 0.367891 -0.120881 0.256463 0.538823 -0.180512 0.149082 0.230945 -0.181438 -0.275348 -0.325852
2 -0.202534 -0.425571 0.068379 -0.313136 0.081306 0.087705 0.287629 -0.161288 0.385493 -0.132509 0.231338 0.600216 -0.188908 0.127897 0.225589 -0.220995 -0.344968 -0.345008
1 -0.264723 -0.449054 0.106479 -0.322282 0.108239 0.061173 0.257924 -0.151544 0.428117 -0.134458 0.238012 0.584547 -0.185907 0.146071 0.208705 -0.208819 -0.306349 -0.367384
7 -0.205838 -0.416079 0.053085 -0.302033 0.073218 0.105046 0.263566 -0.163893 0.427475 -0.137051 0.233107 0.582441 -0.193115 0.136677 0.241746 -0.181608 -0.311145 -0.347972
11 -0.254591 -0.440123 0.085029 -0.287529 0.116828 0.076362 0.225488 -0.139097 0.425324 -0.158782 0.241848 0.594438 -0.212154 0.185711 0.248754 -0.206564 -0.323254 -0.344901
8 -0.236926 -0.455606 0.093114 -0.302752 0.078953 0.095974 0.281379 -0.167734 0.410431 -0.116609 0.238538 0.590578 -0.220490 0.152019 0.248216 -0.218814 -0.309188 -0.355412
12 -0.252904 -0.436973 0.075893 -0.314548 0.084515 0.076806 0.250097 -0.198826 0.398033 -0.120030 0.283582 0.618964 -0.206078 0.180413 0.222349 -0.164555 -0.348771 -0.348061
6 0.007299 -0.006988 0.006429 0.025394 0.003018 0.008962 0.013628 0.017139 -0.003415 0.002961 0.009307 -0.005691 -0.008572 -0.012634 0.015137 0.000585 -0.007433 -0.019036
