18 18
15 -0.249929 -0.346269 0.385014 -0.096300 -0.103058 -0.001579 0.207016 0.227544 0.265167 0.020435 0.323052 0.253107 -0.009222 -0.121799 0.416832 -0.462213 -0.163834 -0.666453
0 -0.191807 -0.314063 0.330078 -0.105384 -0.163606 -0.005908 0.174705 0.266354 0.276036 0.036898 0.355088 0.259788 0.036187 -0.155370 0.402231 -0.431899 -0.120455 -0.607580
6 -0.210223 -0.336443 0.345344 -0.050913 -0.121018 -0.009895 0.210189 0.284324 0.285924 0.028647 0.314287 0.275524 -0.001461 -0.132389 0.391018 -0.413298 -0.171980 -0.634483
13 -0.176529 -0.319029 0.362286 -0.096728 -0.147884 -0.021024 0.215049 0.267910 0.298958 0.054983 0.330226 0.243560 0.037979 -0.187192 0.413218 -0.453030 -0.167644 -0.653809
17 -0.188129 -0.313544 0.318684 -0.044295 -0.183180 -0.029457 0.241240 0.306853 0.350928 0.061722 0.317339 0.312208 0.048260 -0.124205 0.325943 -0.362136 -0.161873 -0.615102
14 -0.284232 -0.388653 0.411680 -0.104432 -0.067272 -0.028443 0.160080 0.232980 0.240440 0.037129 0.248587 0.291943 -0.060257 -0.105500 0.420815 -0.447526 -0.151625 -0.664893
9 -0.189683 -0.301656 0.282273 -0.053706 -0.167791 -0.003915 0.241588 0.348892 0.382650 0.013334 0.363776 0.338910 0.045153 -0.180147 0.334897 -0.415788 -0.158274 -0.587352
11 -0.318994 -0.400849 0.406377 -0.084271 -0.051307 -0.063849 0.121422 0.235903 0.243240 0.007988 0.247612 0.293756 -0.079837 -0.046678 0.451210 -0.467152 -0.185659 -0.668770
8 -0.212829 -0.354117 0.393741 -0.066802 -0.137855 -0.024029 0.205882 0.274615 0.260952 0.057297 0.317878 0.251277 -0.014733 -0.143260 0.448152 -0.488816 -0.122797 -0.673379
2 -0.150914 -0.314048 0.326986 -0.066628 -0.183933 -0.003162 0.260011 0.343407 0.325789 0.034550 0.359486 0.309397 0.066342 -0.195183 0.373311 -0.456243 -0.163397 -0.629568
3 -0.267967 -0.346314 0.402454 -0.070257 -0.098492 -0.039251 0.199672 0.262849 0.244195 0.019745 0.331822 0.256516 -0.044679 -0.148408 0.414543 -0.483189 -0.126733 -0.698669
16 -0.237297 -0.323801 0.355306 -0.074374 -0.109156 -0.037108 0.177930 0.240961 0.254838 0.040388 0.236753 0.293050 -0.028601 -0.065534 0.395858 -0.413315 -0.192645 -0.629879
12 -0.310139 -0.390772 0.380257 -0.104779 -0.104548 -0.059299 0.129368 0.215759 0.233127 0.049808 0.288934 0.337053 -0.041312 -0.041861 0.406447 -0.400471 -0.208714 -0.627815
1 -0.270312 -0.366285 0.378765 -0.098346 -0.084615 -0.059504 0.160118 0.259095 0.272919 0.031486 0.244007 0.273874 -0.012073 -0.103658 0.372663 -0.432070 -0.147777 -0.619595
4 -0.207816 -0.291476 0.382495 -0.071808 -0.104487 -0.047115 0.159940 0.302785 0.260200 0.015489 0.376027 0.242725 0.037874 -0.171615 0.432905 -0.503077 -0.108604 -0.694603
5 -0.268199 -0.387945 0.348867 -0.076121 -0.051567 -0.047398 0.188335 0.208325 0.269389 0.002744 0.283712 0.298536 -0.076048 -0.077024 0.420210 -0.460954 -0.169667 -0.668926
10 -0.169563 -0.305484 0.300212 -0.047668 -0.141336 0.025006 0.251833 0.308254 0.353188 0.003617 0.362054 0.307293 0.015082 -0.139689 0.351102 -0.399902 -0.129496 -0.600567
7 0.025536 0.002637 -0.024458 -0.006487 -0.021911 0.018456 0.005430 0.006920 0.025711 -0.005710 -0.012468 0.004183 0.006040 -0.027377 0.019628 0.004891 0.006248 -0.002409
