18 18
3 -0.050439 -0.307690 0.149784 -0.096308 -0.353102 0.258441 0.373985 0.193517 0.338574 0.012641 0.081999 0.231427 -0.244662 -0.519939 0.303790 -0.195472 0.163014 -0.408728
13 -0.089067 -0.362084 0.239988 -0.169836 -0.276387 0.215697 0.326888 0.108950 0.339263 0.036107 0.093650 0.250831 -0.224383 -0.487749 0.385577 -0.203692 0.006003 -0.514477
0 -0.247029 -0.529884 0.256702 -0.223112 -0.486102 0.088595 0.214540 0.201829 0.358180 0.097292 0.257083 0.410913 -0.126516 -0.228015 0.436190 -0.229806 0.118510 -0.556356
4 -0.107635 -0.331651 0.198830 -0.122563 -0.285641 0.155645 0.273039 0.180557 0.328824 0.011317 0.164780 0.290429 -0.182196 -0.405403 0.353741 -0.211243 0.063904 -0.507340
16 -0.161036 -0.397781 0.279058 -0.175652 -0.279925 0.176822 0.303970 0.098763 0.324650 0.039545 0.116577 0.294849 -0.234623 -0.380199 0.438625 -0.235241 -0.024648 -0.590796
6 -0.039091 -0.340774 0.184925 -0.104510 -0.294569 0.280595 0.381157 0.162072 0.364641 0.015928 0.093323 0.253168 -0.251245 -0.535060 0.393189 -0.194687 0.060174 -0.500996
12 -0.137999 -0.397721 0.190964 -0.165301 -0.350961 0.174350 0.277545 0.127478 0.325964 0.053422 0.161527 0.319372 -0.196326 -0.369912 0.358538 -0.166900 0.042034 -0.455910
7 0.085353 -0.290136 0.035931 -0.081966 -0.471739 0.384047 0.473239 0.267075 0.475117 0.006918 0.020902 0.267559 -0.238572 -0.664980 0.328948 -0.161888 0.220905 -0.341822
2 -0.160508 -0.438694 0.248894 -0.177949 -0.339133 0.143741 0.286776 0.172425 0.309478 0.044384 0.151651 0.333813 -0.176434 -0.347086 0.380089 -0.230996 0.041703 -0.508117
1 -0.206095 -0.460555 0.264475 -0.181797 -0.350842 0.102126 0.263882 0.195791 0.356818 0.053716 0.153898 0.322458 -0.159953 -0.327258 0.362002 -0.228130 0.089881 -0.519985
11 -0.230653 -0.486234 0.293343 -0.178244 -0.350769 0.114926 0.244723 0.184046 0.358841 0.042766 0.170858 0.349680 -0.204708 -0.306095 0.454111 -0.253782 0.038092 -0.585817
15 -0.154426 -0.394693 0.291258 -0.184168 -0.246281 0.244566 0.329955 0.078173 0.322346 0.014717 0.099417 0.253664 -0.250719 -0.457426 0.422913 -0.223890 -0.018383 -0.560392
14 -0.141818 -0.393815 0.253971 -0.169055 -0.282408 0.188264 0.269672 0.121061 0.302191 0.052388 0.095828 0.287163 -0.219729 -0.387774 0.376774 -0.184767 0.053664 -0.500765
10 -0.039084 -0.363141 0.125417 -0.115151 -0.386875 0.286130 0.397241 0.221864 0.419840 0.007358 0.116185 0.307081 -0.228305 -0.481341 0.312068 -0.165157 0.162184 -0.381959
17 -0.223818 -0.521250 0.279944 -0.176767 -0.483400 0.111085 0.309050 0.232476 0.418753 0.099255 0.218365 0.425556 -0.173142 -0.319539 0.424444 -0.223786 0.101920 -0.616128
5 -0.094142 -0.378412 0.163443 -0.142989 -0.272989 0.186297 0.329316 0.117140 0.360838 0.001690 0.148827 0.292239 -0.218170 -0.404125 0.363925 -0.214773 0.031365 -0.486872
9 0.031670 -0.262097 0.026748 -0.074283 -0.388326 0.292828 0.397365 0.248499 0.422721 0.003289 0.063435 0.267431 -0.201260 -0.570063 0.258155 -0.166583 0.176273 -0.297512
8 0.007472 -0.357736 0.118972 -0.092701 -0.452798 0.322147 0.442530 0.249351 0.424639 0.041419 0.063890 0.283486 -0.250119 -0.574419 0.345938 -0.198783 0.201421 -0.389244
