18 18
1 -0.260291 -0.544356 0.156564 -0.423213 -0.176472 0.153207 0.081719 0.023425 0.201887 -0.015947 0.109236 0.415171 -0.045181 -0.054222 0.446846 -0.335036 -0.129883 -0.299871
2 -0.215570 -0.551955 0.104504 -0.429680 -0.200158 0.191624 0.111560 0.038241 0.186750 -0.045361 0.142432 0.476326 -0.047773 -0.073938 0.462692 -0.358038 -0.170592 -0.259178
7 -0.207445 -0.543512 0.110372 -0.409713 -0.225945 0.221457 0.106860 -0.002213 0.218531 -0.008525 0.115804 0.453238 -0.081191 -0.053467 0.513988 -0.307923 -0.149328 -0.309812
15 -0.306677 -0.586800 0.199499 -0.485465 -0.225170 0.242616 0.095746 -0.083949 0.191870 0.027148 0.126538 0.461927 -0.085287 0.020737 0.546171 -0.315504 -0.178356 -0.362755
0 -0.247544 -0.524904 0.142267 -0.436243 -0.211932 0.203645 0.065460 -0.033818 0.174693 0.001803 0.140748 0.425931 -0.068403 -0.020690 0.500730 -0.318229 -0.124554 -0.307790
11 -0.240218 -0.524701 0.136069 -0.380915 -0.172521 0.168005 0.060505 0.038465 0.202257 -0.047444 0.119967 0.429299 -0.078765 -0.028828 0.503964 -0.355321 -0.158432 -0.293614
14 -0.269997 -0.556012 0.187389 -0.450625 -0.204774 0.222886 0.075638 -0.069482 0.179195 0.048534 0.085659 0.466346 -0.105592 0.011880 0.517732 -0.283163 -0.146395 -0.335925
12 -0.247345 -0.519685 0.139478 -0.391062 -0.209093 0.177974 0.074009 -0.037783 0.165715 0.023570 0.143767 0.441346 -0.084443 0.001965 0.483652 -0.276621 -0.175624 -0.296427
9 -0.254610 -0.563978 0.089571 -0.438406 -0.197790 0.201353 0.109484 0.034929 0.259054 -0.045080 0.162977 0.519489 -0.075733 -0.078742 0.492688 -0.370032 -0.185005 -0.282382
17 -0.252538 -0.546656 0.167714 -0.397472 -0.246231 0.191068 0.107840 -0.034729 0.213441 0.055714 0.117791 0.468181 -0.076103 0.028145 0.500336 -0.265813 -0.165722 -0.354289
16 -0.253882 -0.527632 0.163717 -0.417544 -0.223151 0.206358 0.108580 -0.053153 0.186041 0.033450 0.100299 0.449758 -0.096519 0.024334 0.519117 -0.297783 -0.181725 -0.349035
6 -0.205839 -0.564577 0.111985 -0.377043 -0.194764 0.199446 0.134720 0.054679 0.208955 -0.036381 0.153728 0.468815 -0.075795 -0.079625 0.505558 -0.360352 -0.182348 -0.315095
13 -0.210380 -0.526894 0.134880 -0.416353 -0.202795 0.183253 0.103989 -0.014667 0.207099 0.004607 0.113599 0.429498 -0.060981 -0.055315 0.489527 -0.324231 -0.177450 -0.308653
10 -0.244906 -0.580452 0.088362 -0.429578 -0.177269 0.241688 0.133936 0.041377 0.276962 -0.085299 0.185501 0.530259 -0.102396 -0.038642 0.487815 -0.353480 -0.162108 -0.275175
3 -0.235519 -0.531889 0.119946 -0.387423 -0.168555 0.167335 0.121121 0.059429 0.184169 -0.069500 0.163732 0.430668 -0.079606 -0.117521 0.438807 -0.383694 -0.126529 -0.294129
8 -0.213541 -0.528185 0.135722 -0.374164 -0.207145 0.191107 0.108580 0.000955 0.187676 0.014017 0.110791 0.424797 -0.086699 -0.026311 0.475792 -0.315877 -0.132978 -0.285322
4 -0.229361 -0.572971 0.111010 -0.418191 -0.190070 0.166827 0.104668 0.081417 0.216422 -0.061504 0.184136 0.504049 -0.034383 -0.104901 0.489191 -0.399965 -0.175226 -0.327841
5 -0.233860 -0.590811 0.092985 -0.428755 -0.184840 0.186261 0.133621 -0.003457 0.240374 -0.046953 0.164960 0.498113 -0.087440 -0.054860 0.504974 -0.374634 -0.176952 -0.322797
