18 18
17 -0.302068 -0.426476 0.187194 -0.090187 -0.185453 -0.197271 0.110423 0.148533 0.309752 0.028414 0.387589 0.721853 -0.067863 0.083554 0.169410 -0.138366 -0.154601 -0.549179
12 -0.335455 -0.450816 0.183594 -0.126274 -0.127138 -0.171124 0.076802 0.097961 0.281690 -0.013115 0.384248 0.666518 -0.113977 0.097005 0.210266 -0.183814 -0.165527 -0.498300
5 -0.356632 -0.520276 0.129091 -0.111234 0.019500 -0.123024 0.108872 0.050633 0.394176 -0.164079 0.372155 0.585509 -0.192635 0.125929 0.323214 -0.323464 -0.163100 -0.544087
7 -0.279965 -0.419329 0.190968 -0.126254 -0.180850 -0.160932 0.109446 0.157091 0.291548 0.006977 0.365237 0.698753 -0.089333 0.022952 0.201329 -0.186933 -0.110428 -0.543833
4 -0.340484 -0.452022 0.167646 -0.096945 -0.050772 -0.157616 0.058760 0.133096 0.341411 -0.099092 0.382545 0.620945 -0.114641 0.093145 0.250033 -0.241819 -0.132340 -0.521914
14 -0.346563 -0.482345 0.225672 -0.139768 -0.102466 -0.155132 0.081611 0.121798 0.292513 -0.022421 0.352367 0.678343 -0.122488 0.076777 0.221558 -0.208386 -0.117630 -0.533486
2 -0.303182 -0.465871 0.164689 -0.116232 -0.113386 -0.152604 0.095764 0.131713 0.282452 -0.049021 0.364509 0.671812 -0.098342 0.084212 0.221731 -0.218463 -0.168498 -0.486076
1 -0.345488 -0.444989 0.254930 -0.135299 -0.079220 -0.190157 0.106013 0.166687 0.327031 -0.040569 0.302350 0.572053 -0.106972 0.032304 0.208098 -0.289958 -0.066661 -0.548431
10 -0.318791 -0.447716 0.204051 -0.116146 -0.102587 -0.146422 0.128914 0.137293 0.331160 -0.048379 0.370006 0.667365 -0.139913 0.083787 0.214877 -0.228389 -0.114485 -0.531085
11 -0.382283 -0.523706 0.174356 -0.103001 0.024754 -0.126770 0.079260 0.113838 0.409293 -0.182734 0.328923 0.550606 -0.203763 0.123497 0.351938 -0.364358 -0.137222 -0.532593
15 -0.390170 -0.520250 0.184512 -0.134849 0.005754 -0.094977 0.104078 0.057929 0.378825 -0.156082 0.357124 0.551272 -0.176741 0.118278 0.325893 -0.329392 -0.152403 -0.543040
0 -0.317730 -0.440494 0.199431 -0.137761 -0.129188 -0.139236 0.081757 0.120299 0.281249 -0.027864 0.369220 0.614990 -0.100403 0.064808 0.224073 -0.220369 -0.090860 -0.509315
3 -0.347158 -0.421755 0.269493 -0.116228 -0.107279 -0.166332 0.129954 0.157998 0.258933 -0.034148 0.345415 0.587678 -0.145161 0.009563 0.198295 -0.284667 -0.048228 -0.567052
8 -0.309927 -0.452431 0.211845 -0.108083 -0.102521 -0.136770 0.111406 0.126637 0.296132 -0.030009 0.313307 0.576790 -0.142141 0.064643 0.243895 -0.261209 -0.083897 -0.501932
16 -0.308818 -0.408101 0.232510 -0.123404 -0.125979 -0.160597 0.128754 0.132011 0.273413 -0.010031 0.316649 0.621525 -0.124732 0.061664 0.221687 -0.255403 -0.112891 -0.556518
13 -0.303681 -0.437257 0.208522 -0.135523 -0.105639 -0.166196 0.111938 0.109126 0.318298 -0.027990 0.343929 0.617352 -0.111715 0.047717 0.238505 -0.248306 -0.148857 -0.555603
6 0.007299 -0.006988 0.006429 0.025394 0.003018 0.008962 0.013628 0.017139 -0.003415 0.002961 0.009307 -0.005691 -0.008572 -0.012634 0.015137 0.000585 -0.007433 -0.019036
9 -0.008402 0.003844 -0.023332 -0.006576 0.000593 0.000225 -0.003692 0.013429 0.026437 -0.004111 0.005667 0.021814 0.003016 -0.025362 -0.007905 -0.006482 -0.012628 0.018993
