18 18
9 -0.158438 -0.409539 0.137900 -0.179604 0.067884 -0.074778 0.097465 0.390006 0.406661 -0.151734 0.112229 0.359522 0.000417 -0.368197 0.303332 -0.545081 -0.146388 -0.328640
2 -0.131577 -0.420972 0.160118 -0.182768 0.050003 -0.063945 0.106038 0.382934 0.354523 -0.139140 0.090527 0.349840 0.016749 -0.346610 0.305989 -0.538994 -0.148188 -0.318021
0 -0.198226 -0.443282 0.191334 -0.228909 0.010903 -0.048132 0.088428 0.356703 0.393617 -0.116934 0.109024 0.355320 0.008043 -0.296652 0.347903 -0.545847 -0.136645 -0.350489
10 -0.129183 -0.428170 0.146530 -0.165812 0.080977 -0.041139 0.114269 0.394859 0.416267 -0.179629 0.133919 0.367698 -0.009466 -0.347151 0.319754 -0.534197 -0.128619 -0.341649
5 -0.087657 -0.431396 0.099301 -0.146247 0.125667 -0.081179 0.121294 0.355682 0.395841 -0.194604 0.136603 0.341825 -0.022816 -0.367152 0.326295 -0.557410 -0.139297 -0.356092
11 -0.235574 -0.496738 0.221113 -0.214368 0.050663 -0.089628 0.081323 0.429625 0.445837 -0.152555 0.091272 0.395047 -0.012200 -0.330127 0.379452 -0.623690 -0.168114 -0.380805
8 -0.141319 -0.440143 0.170716 -0.167952 0.037163 -0.064272 0.109752 0.388011 0.389110 -0.121106 0.092250 0.345166 -0.012210 -0.338021 0.329575 -0.542009 -0.119397 -0.332237
15 -0.335901 -0.511309 0.288738 -0.306606 -0.047947 -0.020299 0.132142 0.296015 0.450995 -0.059188 0.057542 0.397332 0.022093 -0.160703 0.365342 -0.523575 -0.240074 -0.381449
1 -0.191518 -0.457326 0.195097 -0.208873 0.055704 -0.093337 0.101599 0.386903 0.418144 -0.128992 0.082404 0.344542 0.018472 -0.330149 0.298216 -0.546796 -0.126460 -0.356374
3 -0.122601 -0.392631 0.149798 -0.132309 0.116701 -0.084905 0.106835 0.413821 0.348046 -0.203660 0.158738 0.326352 -0.031116 -0.445794 0.313805 -0.602289 -0.091903 -0.387750
17 -0.275216 -0.447222 0.237242 -0.227820 -0.058228 -0.088000 0.102311 0.347141 0.430969 -0.035973 0.068029 0.398191 0.026237 -0.192988 0.295785 -0.472039 -0.176850 -0.356780
13 -0.131221 -0.444990 0.181431 -0.205780 0.062205 -0.085790 0.107168 0.393253 0.411151 -0.135415 0.099266 0.347275 0.013205 -0.406305 0.343777 -0.581737 -0.159360 -0.374900
4 -0.053468 -0.368880 0.108003 -0.114304 0.155552 -0.094668 0.071147 0.454073 0.371291 -0.237088 0.178867 0.333911 0.015913 -0.477730 0.329280 -0.597353 -0.100343 -0.387124
7 -0.088567 -0.412991 0.112873 -0.168504 0.058135 -0.040773 0.108345 0.397493 0.417348 -0.182363 0.121313 0.349705 0.006514 -0.402633 0.355741 -0.550884 -0.122432 -0.360567
14 -0.208520 -0.470390 0.226649 -0.231318 0.046583 -0.059334 0.087840 0.378998 0.402877 -0.109604 0.069919 0.384682 -0.004973 -0.322989 0.341392 -0.542830 -0.141877 -0.365792
6 -0.089438 -0.435436 0.143739 -0.124074 0.129201 -0.075011 0.114843 0.453860 0.400256 -0.212272 0.168164 0.359688 -0.010201 -0.465195 0.376603 -0.615106 -0.141473 -0.421482
16 -0.281310 -0.450817 0.247343 -0.260809 -0.044749 -0.052422 0.131788 0.313544 0.430279 -0.058296 0.039668 0.386033 0.001297 -0.175426 0.362995 -0.523053 -0.222344 -0.387102
12 -0.223390 -0.460236 0.192539 -0.228733 0.011565 -0.077527 0.081210 0.344012 0.392549 -0.103614 0.124820 0.395118 0.002488 -0.291806 0.335498 -0.523666 -0.183962 -0.350014
