18 18
9 -0.247022 -0.223931 0.127697 -0.357468 -0.019436 0.323869 0.329606 -0.224304 0.384792 -0.035528 0.388879 0.408445 -0.272459 -0.282944 0.436055 -0.206979 -0.480989 -0.516892
3 -0.261695 -0.277501 0.209256 -0.360247 -0.016323 0.308378 0.315971 -0.291255 0.254972 0.010692 0.361238 0.334157 -0.305130 -0.240139 0.401315 -0.176552 -0.392145 -0.501001
13 -0.211668 -0.384266 0.234976 -0.443147 -0.064566 0.286457 0.263807 -0.411984 0.184926 0.147434 0.285632 0.304567 -0.273287 -0.200181 0.400721 -0.096990 -0.396286 -0.400673
14 -0.237442 -0.423336 0.254330 -0.428837 -0.029762 0.295514 0.232447 -0.416298 0.142430 0.150834 0.259455 0.326054 -0.300683 -0.142939 0.370683 -0.064721 -0.329330 -0.361506
12 -0.269526 -0.462094 0.258760 -0.462109 -0.067774 0.293261 0.247789 -0.462885 0.147788 0.169708 0.331036 0.360734 -0.321792 -0.141100 0.410298 -0.066587 -0.403149 -0.389938
0 -0.222123 -0.405334 0.226076 -0.427342 -0.070185 0.289626 0.225453 -0.409913 0.130975 0.140016 0.297052 0.298564 -0.273137 -0.135123 0.382649 -0.079393 -0.319764 -0.353606
4 -0.234470 -0.122007 0.127071 -0.266818 0.009918 0.288088 0.314462 -0.114736 0.399473 -0.105937 0.412877 0.387786 -0.233365 -0.271308 0.419440 -0.234637 -0.455928 -0.580373
16 -0.215142 -0.197220 0.151047 -0.299307 -0.020540 0.280195 0.312187 -0.218963 0.307622 -0.026413 0.323601 0.340928 -0.259820 -0.185295 0.411622 -0.194442 -0.429309 -0.503723
10 -0.219465 -0.302535 0.169705 -0.352710 -0.019624 0.316801 0.297183 -0.307579 0.273463 0.024915 0.347075 0.354707 -0.288687 -0.161220 0.383044 -0.115885 -0.384366 -0.420127
15 -0.251962 -0.316554 0.214060 -0.375692 -0.019542 0.316151 0.291967 -0.324646 0.242520 0.039330 0.328279 0.327924 -0.268914 -0.182708 0.398402 -0.144765 -0.402224 -0.455947
8 -0.244935 -0.427787 0.247647 -0.416326 -0.062269 0.313301 0.290876 -0.392592 0.206089 0.132984 0.316987 0.352196 -0.327443 -0.167877 0.436668 -0.125888 -0.382285 -0.424799
6 -0.232702 -0.250258 0.177404 -0.314569 -0.012782 0.325293 0.333489 -0.223110 0.325298 -0.013060 0.381318 0.368173 -0.283072 -0.251964 0.439490 -0.184205 -0.446560 -0.536533
17 -0.238090 -0.243320 0.169310 -0.305136 -0.046835 0.280351 0.323554 -0.217380 0.341426 0.000770 0.368841 0.382128 -0.252272 -0.199249 0.395980 -0.162966 -0.410392 -0.531721
7 -0.200505 -0.177883 0.115695 -0.287518 -0.029994 0.308151 0.318974 -0.164848 0.376285 -0.064644 0.349833 0.365674 -0.242204 -0.255798 0.426208 -0.196315 -0.417914 -0.531258
11 -0.246131 -0.275441 0.184923 -0.333396 -0.011925 0.284049 0.278694 -0.242699 0.302658 -0.016348 0.341880 0.343739 -0.281178 -0.185380 0.433912 -0.190432 -0.420792 -0.483553
5 -0.208667 -0.369388 0.175375 -0.370373 -0.018903 0.264244 0.270917 -0.370728 0.210303 0.078609 0.306308 0.326077 -0.287751 -0.145327 0.375097 -0.116414 -0.357614 -0.395567
1 -0.027660 -0.027217 0.026180 -0.019122 0.012075 -0.026796 -0.004699 0.019366 0.022084 0.001540 -0.016522 -0.005216 0.015504 -0.011155 -0.013895 -0.016653 0.015775 -0.011908
2 0.021368 -0.003688 -0.004957 -0.007525 -0.007603 0.001755 0.011077 0.016235 -0.024745 -0.003279 -0.008624 0.014563 0.014594 -0.017313 -0.004715 -0.020484 -0.014205 0.014938
