18 18
8 -0.311032 -0.516452 0.256519 -0.388600 -0.158418 0.183630 0.190149 0.163383 0.216499 0.033171 -0.003909 0.345704 -0.211745 -0.442618 0.335863 -0.513401 0.101978 -0.242787
1 -0.275948 -0.450317 0.285235 -0.435795 -0.106387 0.141239 0.164917 0.151565 0.201410 0.011692 -0.069025 0.262284 -0.113559 -0.480729 0.293678 -0.493464 0.099045 -0.304870
13 -0.241647 -0.417758 0.285254 -0.459097 -0.135277 0.162934 0.175809 0.110364 0.201931 0.039287 -0.059951 0.251111 -0.109947 -0.515895 0.323658 -0.493029 0.067406 -0.331431
0 -0.277832 -0.479764 0.185663 -0.393025 -0.175339 0.194611 0.163399 0.160142 0.211892 -0.003278 0.059515 0.350029 -0.196841 -0.456156 0.339942 -0.499922 0.109881 -0.224564
4 -0.240478 -0.391534 0.268344 -0.427366 -0.095028 0.154162 0.154837 0.173712 0.200309 -0.008444 -0.011817 0.289637 -0.105996 -0.540155 0.317364 -0.528172 0.104349 -0.355474
3 -0.267595 -0.416815 0.212990 -0.369308 -0.121560 0.169896 0.176545 0.168254 0.167448 -0.033674 0.033255 0.277764 -0.195850 -0.512311 0.297788 -0.513111 0.128034 -0.255409
2 -0.216892 -0.431453 0.220177 -0.402652 -0.133960 0.177323 0.190826 0.172199 0.157093 -0.012339 -0.023267 0.308650 -0.143334 -0.518675 0.303991 -0.521842 0.091570 -0.255679
9 -0.336878 -0.524841 0.137520 -0.373183 -0.166814 0.188998 0.164973 0.225093 0.273891 -0.027545 0.102819 0.437968 -0.256343 -0.511947 0.324901 -0.533853 0.088358 -0.151359
14 -0.266898 -0.437646 0.322571 -0.477866 -0.106620 0.185332 0.152662 0.095451 0.173302 0.043396 -0.109612 0.260689 -0.113411 -0.468723 0.322065 -0.460880 0.087160 -0.329619
16 -0.291907 -0.450593 0.272475 -0.426942 -0.140414 0.174469 0.186007 0.125647 0.207284 0.027339 -0.046017 0.318276 -0.169269 -0.444822 0.344999 -0.507788 0.058613 -0.314053
15 -0.274805 -0.419981 0.283024 -0.447218 -0.108825 0.193605 0.159559 0.077002 0.188952 0.006362 -0.043245 0.250070 -0.110175 -0.418903 0.319478 -0.445495 0.046927 -0.310683
6 -0.258401 -0.463384 0.250421 -0.391001 -0.131374 0.186183 0.195930 0.170041 0.197844 0.007078 -0.004406 0.297453 -0.166542 -0.508965 0.335391 -0.507282 0.088702 -0.301055
10 -0.300199 -0.505616 0.167939 -0.361145 -0.149068 0.203717 0.185401 0.185322 0.245958 -0.026517 0.075251 0.395618 -0.245782 -0.444235 0.309219 -0.481755 0.104682 -0.174257
11 -0.325243 -0.520219 0.202216 -0.368905 -0.142204 0.170014 0.153997 0.214522 0.251481 -0.035769 0.042688 0.378174 -0.232965 -0.459991 0.351675 -0.531901 0.083350 -0.211833
7 -0.227444 -0.420223 0.254121 -0.450093 -0.146759 0.193741 0.177146 0.126617 0.216906 0.013132 -0.076882 0.272886 -0.114252 -0.510417 0.342160 -0.483796 0.088682 -0.323201
17 -0.275376 -0.452263 0.274313 -0.405002 -0.151232 0.150196 0.187222 0.147168 0.222245 0.039922 -0.028825 0.314928 -0.128944 -0.453524 0.296084 -0.462811 0.088013 -0.320414
5 -0.254761 -0.456434 0.208493 -0.401396 -0.107666 0.160654 0.189227 0.115393 0.220981 -0.011060 0.002398 0.310353 -0.167900 -0.452853 0.318874 -0.493504 0.067684 -0.286106
12 -0.330812 -0.513328 0.161857 -0.371075 -0.176635 0.173992 0.144338 0.159693 0.205612 0.009709 0.117672 0.416035 -0.246690 -0.447499 0.319348 -0.470735 0.068216 -0.165577
