18 18
9 -0.206085 -0.445602 0.012637 -0.293997 -0.038412 0.105611 0.294634 0.063564 0.551132 -0.067060 0.180931 0.502084 -0.183868 -0.291328 0.333004 -0.467604 -0.313934 -0.226836
11 -0.322349 -0.495973 0.101789 -0.203612 0.205427 0.096630 0.139743 0.129751 0.541673 -0.240051 0.180546 0.408390 -0.244848 -0.086442 0.299749 -0.396953 -0.123808 -0.231920
15 -0.311003 -0.514571 0.088631 -0.217528 0.204097 0.171428 0.181927 0.055833 0.508668 -0.238980 0.183535 0.364775 -0.278478 -0.107036 0.370983 -0.414474 -0.138741 -0.266355
8 -0.238151 -0.528305 0.073467 -0.241875 0.070546 0.145070 0.269654 0.064660 0.521184 -0.120915 0.145159 0.426356 -0.276143 -0.201245 0.406244 -0.490790 -0.198517 -0.259107
3 -0.237963 -0.421953 0.087322 -0.241097 0.041620 0.111087 0.252489 0.071367 0.471771 -0.124998 0.188185 0.414418 -0.238989 -0.260493 0.311504 -0.449852 -0.195393 -0.262762
16 -0.201371 -0.451029 0.039715 -0.245054 0.018976 0.133857 0.287846 0.026683 0.493155 -0.094554 0.132623 0.422149 -0.243667 -0.202307 0.410035 -0.469647 -0.277133 -0.285508
10 -0.302220 -0.495203 0.076346 -0.210480 0.199263 0.138186 0.182111 0.106856 0.553527 -0.241390 0.205687 0.428427 -0.262220 -0.092249 0.280651 -0.367948 -0.110995 -0.215179
12 -0.291034 -0.497127 0.073543 -0.245376 0.104230 0.120089 0.189284 0.047191 0.482734 -0.154174 0.198315 0.424038 -0.246808 -0.149172 0.336668 -0.393055 -0.195035 -0.241925
14 -0.267559 -0.500670 0.100201 -0.248919 0.119328 0.149941 0.205436 0.060290 0.483000 -0.144397 0.146940 0.418310 -0.261892 -0.178864 0.355111 -0.414779 -0.160918 -0.258942
4 -0.304555 -0.498168 0.086720 -0.214458 0.203434 0.119148 0.165433 0.123730 0.555900 -0.239590 0.212523 0.424991 -0.252480 -0.135661 0.330241 -0.420906 -0.125026 -0.272666
7 -0.269176 -0.511997 0.039263 -0.210359 0.163034 0.172057 0.183704 0.074962 0.535975 -0.231403 0.172070 0.377021 -0.286633 -0.160630 0.403570 -0.410198 -0.129109 -0.267342
13 -0.192754 -0.434728 0.067644 -0.298809 -0.036456 0.091445 0.285835 0.056451 0.534050 -0.055580 0.165390 0.457334 -0.154691 -0.275566 0.309407 -0.437742 -0.299354 -0.247686
2 -0.205578 -0.478286 0.062609 -0.308596 -0.020250 0.111403 0.306507 0.081548 0.519983 -0.087056 0.170345 0.498616 -0.173245 -0.283766 0.327874 -0.491699 -0.301410 -0.242455
17 -0.242769 -0.480448 0.069661 -0.286037 -0.040333 0.090908 0.298344 0.091538 0.586399 -0.070516 0.207689 0.528904 -0.164188 -0.241312 0.300228 -0.430590 -0.281656 -0.274154
1 -0.336057 -0.522873 0.114818 -0.227137 0.222167 0.102978 0.150576 0.118289 0.541251 -0.235793 0.170454 0.386642 -0.246548 -0.110276 0.291912 -0.394751 -0.084325 -0.249333
5 -0.221393 -0.477418 0.027168 -0.221600 0.108904 0.107448 0.239200 0.028757 0.488873 -0.152053 0.161442 0.390861 -0.242002 -0.156103 0.342502 -0.423268 -0.195612 -0.245222
0 -0.224817 -0.471578 0.053399 -0.309997 -0.030777 0.129375 0.270711 0.055959 0.532561 -0.090390 0.207095 0.482116 -0.188514 -0.251376 0.355064 -0.459088 -0.260969 -0.257080
6 -0.274872 -0.508881 0.083582 -0.196891 0.143763 0.153621 0.214072 0.083484 0.495227 -0.183896 0.186030 0.384124 -0.285149 -0.180541 0.392895 -0.431414 -0.171918 -0.288596
