18 18
13 -0.158757 -0.439434 0.358536 -0.326682 -0.022528 0.223186 0.319847 -0.090224 0.020780 0.069910 0.015471 0.201074 -0.120445 -0.301766 0.410555 -0.425103 -0.246950 -0.482968
0 -0.239925 -0.511086 0.299358 -0.348362 -0.028563 0.259847 0.263573 -0.053207 0.127878 0.018389 0.108338 0.288009 -0.166719 -0.286909 0.446454 -0.447018 -0.229845 -0.409754
2 -0.153550 -0.452383 0.340986 -0.319940 -0.015502 0.244517 0.325313 -0.063675 -0.009601 0.039082 0.021227 0.226761 -0.115371 -0.292408 0.392302 -0.432747 -0.236721 -0.448790
3 -0.196831 -0.407854 0.409913 -0.302919 -0.007252 0.229866 0.306078 -0.080887 -0.078800 0.047900 0.014342 0.132990 -0.134830 -0.297700 0.348012 -0.406228 -0.139586 -0.480929
16 -0.178194 -0.430984 0.388382 -0.297663 -0.031548 0.225742 0.346874 -0.072413 -0.006900 0.070152 -0.013374 0.210394 -0.139464 -0.255104 0.414627 -0.433961 -0.242232 -0.525615
9 -0.310987 -0.539992 0.118627 -0.332678 0.033836 0.232158 0.191007 0.019636 0.388083 -0.062678 0.178924 0.434123 -0.232114 -0.309942 0.414783 -0.442532 -0.304870 -0.215060
8 -0.226768 -0.497082 0.255347 -0.300452 -0.013404 0.228558 0.258257 -0.029120 0.167703 0.022012 0.087149 0.298014 -0.193352 -0.282210 0.418858 -0.430503 -0.235720 -0.340134
6 -0.192030 -0.465889 0.365849 -0.291287 -0.009005 0.251761 0.322813 -0.046454 0.019126 0.046054 0.046603 0.217720 -0.152334 -0.300314 0.413460 -0.424221 -0.223355 -0.477950
1 -0.231423 -0.490364 0.360104 -0.332808 -0.008065 0.207878 0.284698 -0.040885 0.085513 0.045548 0.021625 0.229656 -0.126009 -0.282592 0.383248 -0.427852 -0.198518 -0.444287
14 -0.198060 -0.442503 0.412384 -0.333855 -0.000172 0.252763 0.273005 -0.096664 -0.048911 0.064990 -0.019689 0.173360 -0.122958 -0.259097 0.374741 -0.383520 -0.159292 -0.466536
15 -0.232326 -0.463744 0.359833 -0.333455 0.001986 0.264821 0.284782 -0.092627 0.039147 0.021657 0.054730 0.207161 -0.134836 -0.252842 0.398346 -0.416214 -0.225057 -0.450624
12 -0.239975 -0.503155 0.305739 -0.335236 -0.020599 0.222070 0.277345 -0.082364 0.086117 0.045235 0.093436 0.301450 -0.170387 -0.271418 0.421251 -0.417381 -0.280878 -0.417651
5 -0.170275 -0.456974 0.299206 -0.293932 0.003195 0.214868 0.326259 -0.093120 0.048616 0.030316 0.054933 0.239111 -0.148082 -0.252227 0.397778 -0.420687 -0.241836 -0.465913
17 -0.174771 -0.454723 0.381171 -0.276846 -0.056913 0.201433 0.354484 -0.056869 0.010898 0.095015 0.023048 0.238385 -0.112303 -0.254897 0.378749 -0.397323 -0.232105 -0.527252
4 -0.204974 -0.443992 0.334960 -0.297236 0.003983 0.209465 0.282970 -0.027245 0.064932 0.023695 0.080107 0.253099 -0.132170 -0.288143 0.399789 -0.439307 -0.233686 -0.466914
10 -0.304455 -0.568304 0.125147 -0.343717 0.053436 0.276506 0.210265 -0.003609 0.396082 -0.092871 0.200157 0.443993 -0.259899 -0.275973 0.428806 -0.433951 -0.294302 -0.209940
11 -0.297099 -0.534226 0.182351 -0.323536 0.048050 0.231549 0.183529 0.003953 0.305503 -0.074800 0.150957 0.373090 -0.232164 -0.274394 0.443866 -0.458280 -0.283960 -0.268703
7 -0.167036 -0.451226 0.334731 -0.321966 -0.044924 0.256920 0.306009 -0.066864 0.041014 0.045423 0.024054 0.212569 -0.121949 -0.299562 0.415067 -0.405326 -0.200581 -0.466247
