18 18
1 -0.235271 -0.549789 0.007885 -0.222503 -0.062750 0.011969 0.162222 0.277246 0.447942 -0.050770 0.169063 0.632282 -0.095122 -0.240011 0.219646 -0.335028 -0.205722 -0.134579
12 -0.302418 -0.567654 -0.005444 -0.263045 -0.075815 0.063844 0.125403 0.189922 0.435439 -0.043331 0.222612 0.698765 -0.151943 -0.145967 0.251037 -0.258358 -0.319253 -0.087421
6 -0.191117 -0.499938 -0.014226 -0.165509 -0.061439 0.062406 0.177855 0.257730 0.407854 -0.050093 0.185755 0.601641 -0.122341 -0.215778 0.226213 -0.278409 -0.219269 -0.125381
15 -0.287871 -0.542582 0.015052 -0.270556 -0.057827 0.095293 0.157976 0.172232 0.435732 -0.069899 0.190728 0.625413 -0.127986 -0.142312 0.256733 -0.286357 -0.300349 -0.115444
9 -0.246067 -0.517068 -0.041309 -0.234676 -0.068967 0.055814 0.144984 0.259048 0.467448 -0.066264 0.192971 0.670407 -0.113494 -0.219817 0.221660 -0.294759 -0.267300 -0.079111
2 -0.160730 -0.526887 -0.041740 -0.178422 -0.092020 0.020372 0.192548 0.341345 0.408886 -0.056694 0.186332 0.683086 -0.083681 -0.283856 0.194545 -0.342494 -0.205034 -0.103244
10 -0.263976 -0.516378 -0.024475 -0.232220 -0.052370 0.092636 0.150972 0.195307 0.453341 -0.078091 0.208294 0.651492 -0.147066 -0.116152 0.221241 -0.237428 -0.274768 -0.074575
13 -0.232691 -0.533374 -0.001241 -0.260241 -0.078480 0.058153 0.161521 0.208908 0.450032 -0.036731 0.176708 0.636904 -0.115379 -0.211796 0.243260 -0.290347 -0.277997 -0.108724
14 -0.257096 -0.551849 0.022224 -0.260410 -0.056207 0.053504 0.134676 0.224080 0.419171 -0.029843 0.159134 0.661666 -0.122400 -0.211154 0.223718 -0.286399 -0.230732 -0.101928
0 -0.228959 -0.520162 -0.013546 -0.254117 -0.091774 0.066404 0.139942 0.220559 0.417575 -0.055824 0.203398 0.613225 -0.096889 -0.196199 0.244193 -0.300653 -0.207831 -0.106009
4 -0.201673 -0.521458 -0.027351 -0.181227 -0.061322 0.017837 0.164294 0.315674 0.440362 -0.064219 0.218526 0.682974 -0.097960 -0.254670 0.218108 -0.332752 -0.216509 -0.142616
8 -0.194589 -0.549506 -0.008252 -0.186551 -0.094522 0.037848 0.184351 0.281689 0.415857 -0.028488 0.174375 0.642851 -0.122744 -0.236608 0.229407 -0.328474 -0.183835 -0.113866
11 -0.276446 -0.513269 -0.005844 -0.224042 -0.048947 0.064175 0.110103 0.216471 0.447874 -0.087219 0.178548 0.612281 -0.140787 -0.111612 0.259318 -0.268979 -0.285202 -0.093911
7 -0.200291 -0.508548 -0.042531 -0.221751 -0.098512 0.069224 0.149749 0.254772 0.453605 -0.060017 0.172986 0.637698 -0.106425 -0.219540 0.236822 -0.275319 -0.215267 -0.099870
5 -0.197234 -0.547414 -0.043029 -0.188010 -0.051487 0.028214 0.199925 0.247129 0.436740 -0.067586 0.203824 0.655029 -0.136207 -0.229272 0.234814 -0.340699 -0.225364 -0.143722
17 -0.227729 -0.521856 -0.012447 -0.197027 -0.098106 0.033340 0.171440 0.249692 0.449974 -0.032161 0.200637 0.663901 -0.102356 -0.167088 0.212612 -0.267081 -0.241506 -0.134342
3 -0.240134 -0.548474 0.002038 -0.193586 -0.073000 0.030521 0.194403 0.297633 0.417744 -0.063985 0.211277 0.665008 -0.141989 -0.268670 0.208387 -0.345876 -0.191550 -0.138910
16 -0.276796 -0.514768 0.006819 -0.259184 -0.069291 0.073871 0.155579 0.173895 0.431251 -0.056060 0.169128 0.634351 -0.144685 -0.118465 0.269150 -0.287720 -0.307733 -0.130100
