18 18
7 -0.027992 -0.409090 -0.273586 -0.150604 -0.447157 0.479540 0.390195 -0.323675 0.238249 0.064368 0.174911 0.680801 -0.549879 0.050377 0.596200 -0.011157 -0.342983 -0.154991
16 -0.057476 -0.380134 -0.212713 -0.129190 -0.375585 0.404888 0.390991 -0.295816 0.218745 0.060268 0.161340 0.654589 -0.508516 0.109134 0.548296 -0.055853 -0.363359 -0.197796
3 -0.083038 -0.388467 -0.202476 -0.137875 -0.362934 0.401844 0.378006 -0.279250 0.209105 0.035491 0.191105 0.627961 -0.521829 0.039889 0.520486 -0.063340 -0.304975 -0.191747
9 -0.065211 -0.387549 -0.265364 -0.139536 -0.380507 0.416934 0.356242 -0.291344 0.244284 0.053740 0.185782 0.667252 -0.514645 0.054230 0.526015 -0.027492 -0.357217 -0.119319
15 -0.061607 -0.414487 -0.230034 -0.146759 -0.369322 0.471276 0.433390 -0.350459 0.221147 0.044270 0.198654 0.670800 -0.518419 0.123275 0.551143 -0.041936 -0.399628 -0.178614
10 -0.020966 -0.383101 -0.257624 -0.103906 -0.379014 0.455219 0.397898 -0.308142 0.231520 0.045060 0.188841 0.662703 -0.539015 0.127169 0.526708 0.007317 -0.333141 -0.124249
12 -0.041719 -0.429807 -0.282250 -0.138565 -0.475999 0.483195 0.392351 -0.404361 0.174561 0.120317 0.214723 0.721969 -0.599674 0.134685 0.589494 0.044690 -0.391804 -0.105764
11 -0.092187 -0.441385 -0.230032 -0.141839 -0.400408 0.422160 0.341395 -0.282156 0.254900 0.044747 0.180848 0.688530 -0.559867 0.083492 0.602573 -0.052117 -0.348228 -0.163615
2 -0.014984 -0.386781 -0.246894 -0.137240 -0.380992 0.435993 0.401542 -0.304387 0.178427 0.050227 0.166959 0.668005 -0.507166 0.073069 0.538953 -0.052869 -0.369317 -0.146979
1 -0.984916 -1.083175 0.449968 -0.669377 0.036487 -0.548328 -0.106576 1.111628 1.654084 -0.480502 0.113660 1.190901 0.052252 -0.488617 0.648953 -0.960417 0.122797 -1.244652
4 -0.974970 -1.033605 0.443499 -0.643179 0.060722 -0.565126 -0.140657 1.143644 1.652138 -0.502201 0.151872 1.200949 0.072509 -0.494433 0.644789 -0.961870 0.124333 -1.261912
8 -0.035223 -0.412148 -0.219813 -0.115939 -0.413115 0.427607 0.377023 -0.305487 0.202370 0.097310 0.160959 0.644211 -0.532683 0.107329 0.556655 -0.026212 -0.320810 -0.137623
14 -0.098726 -0.423203 -0.171146 -0.178797 -0.352405 0.377234 0.303943 -0.253654 0.233849 0.061602 0.137778 0.652507 -0.486316 0.049008 0.528138 -0.042665 -0.282838 -0.178703
17 -0.055728 -0.392314 -0.212024 -0.109651 -0.387497 0.377640 0.383944 -0.264429 0.246498 0.075318 0.182181 0.664042 -0.474694 0.100985 0.499023 -0.017431 -0.330375 -0.189917
6 -0.044492 -0.390972 -0.215842 -0.107555 -0.354540 0.427156 0.397725 -0.284394 0.201832 0.050631 0.188851 0.621363 -0.500322 0.070710 0.526665 -0.037175 -0.349350 -0.180149
0 -0.087234 -0.409635 -0.201894 -0.172209 -0.373235 0.385396 0.321841 -0.255643 0.240799 0.042258 0.191413 0.637573 -0.467486 0.061668 0.540550 -0.065800 -0.295254 -0.179949
5 -0.058710 -0.405925 -0.241198 -0.140967 -0.314495 0.361985 0.369369 -0.272051 0.268061 0.013804 0.186345 0.653426 -0.480470 0.066869 0.513718 -0.075872 -0.331283 -0.194293
13 0.019096 0.002747 0.009678 -0.019404 -0.008210 -0.004883 0.008138 -0.018294 0.006568 0.019257 -0.015253 -0.018294 0.012156 -0.023377 0.007956 -0.002520 -0.021393 -0.009389
