18 18
16 -0.307399 -0.358988 0.217070 -0.140513 -0.194105 0.057622 0.309276 0.084739 0.244838 -0.053053 0.184855 0.365476 -0.272016 -0.074918 0.464473 -0.465590 -0.223473 -0.525109
15 -0.315681 -0.385179 0.168764 -0.131755 -0.154058 0.161775 0.259044 0.085984 0.275602 -0.120592 0.216526 0.340433 -0.308180 -0.082686 0.464621 -0.436734 -0.150102 -0.408709
9 -0.311115 -0.366681 0.097755 -0.098048 -0.155394 0.198184 0.205887 0.139656 0.302574 -0.154797 0.243630 0.366636 -0.362180 -0.125107 0.474090 -0.433108 -0.088761 -0.320707
3 -0.329094 -0.377887 0.121538 -0.084910 -0.149873 0.261522 0.215549 0.139802 0.277218 -0.195462 0.258810 0.333606 -0.441985 -0.140219 0.510409 -0.457989 -0.020319 -0.313359
11 -0.318156 -0.400188 0.069847 -0.048355 -0.123809 0.291597 0.140136 0.175567 0.340660 -0.233986 0.254460 0.350391 -0.458814 -0.080218 0.548104 -0.433969 -0.003679 -0.232731
12 -0.331511 -0.411120 0.197355 -0.157255 -0.206432 0.077343 0.259391 0.078274 0.242996 -0.053418 0.237258 0.387617 -0.279291 -0.088621 0.456434 -0.428711 -0.200186 -0.459708
2 -0.277229 -0.372539 0.157829 -0.121549 -0.176149 0.130545 0.245704 0.130741 0.230938 -0.107594 0.206293 0.347283 -0.283731 -0.119819 0.441054 -0.441601 -0.133408 -0.381784
0 -0.320808 -0.414631 0.134452 -0.131577 -0.187826 0.218509 0.228609 0.112439 0.295040 -0.146230 0.254816 0.358970 -0.376305 -0.104568 0.520252 -0.456551 -0.067109 -0.364812
7 -0.277021 -0.393818 0.058369 -0.084356 -0.160411 0.292665 0.200780 0.143598 0.357850 -0.201633 0.220960 0.347728 -0.421243 -0.119535 0.533787 -0.422699 -0.016624 -0.268967
8 -0.314816 -0.449300 0.099086 -0.067172 -0.160595 0.289380 0.220795 0.151937 0.361070 -0.182958 0.236228 0.373286 -0.472467 -0.088257 0.562141 -0.462688 -0.019607 -0.285735
13 -0.279075 -0.384189 0.242679 -0.172782 -0.201278 0.034981 0.321834 0.071639 0.253910 -0.019216 0.160560 0.327498 -0.215215 -0.121599 0.434444 -0.449366 -0.241389 -0.525675
6 -0.284562 -0.378248 0.174147 -0.088753 -0.172218 0.134119 0.270427 0.130003 0.254505 -0.096380 0.220809 0.338302 -0.311744 -0.113337 0.469044 -0.434149 -0.140041 -0.440601
1 -0.337199 -0.422547 0.233190 -0.148361 -0.172431 0.041933 0.287012 0.120082 0.279139 -0.065348 0.189593 0.352427 -0.259064 -0.103601 0.434404 -0.464689 -0.171908 -0.508187
17 -0.299303 -0.377819 0.201309 -0.113005 -0.199734 0.051819 0.290876 0.097813 0.268280 -0.040056 0.198890 0.361330 -0.251943 -0.066265 0.409297 -0.404022 -0.172781 -0.482247
5 -0.307735 -0.417631 0.164121 -0.119281 -0.153735 0.086741 0.302931 0.079394 0.296275 -0.103178 0.226647 0.373772 -0.320399 -0.076725 0.470000 -0.465560 -0.177731 -0.482614
10 -0.286265 -0.388264 0.071423 -0.069401 -0.121203 0.293768 0.213040 0.134229 0.351587 -0.213140 0.240551 0.351374 -0.433565 -0.072600 0.496356 -0.397951 -0.023470 -0.250306
4 -0.324981 -0.377059 0.143739 -0.092376 -0.160754 0.171218 0.218929 0.164767 0.305216 -0.162666 0.279058 0.388827 -0.358372 -0.115228 0.516360 -0.477124 -0.101046 -0.416198
14 -0.011733 -0.016220 0.026785 -0.021827 0.014521 0.009558 -0.015588 -0.009492 -0.015071 0.014490 -0.026914 0.011819 -0.010079 -0.001944 0.000728 0.009641 0.015475 -0.000266
