18 18
11 -0.458334 -0.552985 0.389608 -0.323210 -0.032458 0.085477 0.065441 0.007958 0.167929 -0.016263 -0.127999 0.270821 -0.245928 0.033996 0.518988 -0.469100 -0.163129 -0.388044
15 -0.459875 -0.563296 0.387446 -0.361257 -0.043562 0.125963 0.098507 -0.050601 0.160971 -0.002781 -0.107667 0.270531 -0.225586 0.031518 0.500536 -0.441928 -0.175719 -0.385265
5 -0.410469 -0.560576 0.342204 -0.332965 -0.031479 0.100325 0.136863 -0.064822 0.166199 -0.006271 -0.103675 0.268949 -0.257282 0.029520 0.497456 -0.460089 -0.148113 -0.394890
8 -0.411747 -0.548384 0.378211 -0.320752 -0.068013 0.105866 0.115283 -0.020610 0.150478 0.027110 -0.138595 0.254274 -0.249345 0.019935 0.503844 -0.456196 -0.127810 -0.377834
16 -0.424160 -0.536290 0.375777 -0.335649 -0.061035 0.097682 0.129454 -0.041967 0.154866 0.019804 -0.153054 0.273246 -0.254175 0.048553 0.512887 -0.463038 -0.170456 -0.405571
6 -0.413827 -0.527811 0.370280 -0.290722 -0.031555 0.098138 0.096302 0.007940 0.153173 -0.000656 -0.099169 0.256864 -0.229858 0.002212 0.498115 -0.435600 -0.163073 -0.398145
4 -0.426392 -0.508846 0.381384 -0.314116 -0.020255 0.076248 0.071740 0.018287 0.167162 -0.014278 -0.103569 0.274757 -0.213869 -0.001408 0.489574 -0.453965 -0.149175 -0.418245
0 -0.426838 -0.551903 0.355742 -0.366516 -0.078518 0.117214 0.090744 -0.056370 0.131253 0.017064 -0.090777 0.255245 -0.226270 0.028176 0.490355 -0.438017 -0.117364 -0.353072
2 -0.444453 -0.566584 0.403316 -0.348410 -0.045969 0.100811 0.085286 0.027500 0.141993 -0.005613 -0.149241 0.301611 -0.228747 -0.009553 0.520620 -0.495484 -0.184149 -0.390634
12 -0.448035 -0.558310 0.357686 -0.353593 -0.066737 0.087763 0.076955 -0.069474 0.131510 0.033096 -0.085384 0.286925 -0.232087 0.040114 0.465821 -0.390155 -0.169827 -0.351003
7 -0.403067 -0.540083 0.360928 -0.341870 -0.063936 0.118973 0.104766 -0.014359 0.182339 0.000681 -0.147398 0.266338 -0.231211 -0.008765 0.516014 -0.445162 -0.136571 -0.395332
3 -0.479835 -0.568581 0.427193 -0.356218 -0.043193 0.111640 0.121477 -0.021710 0.144706 -0.007285 -0.130800 0.265239 -0.280523 -0.007369 0.528610 -0.507972 -0.139711 -0.437333
14 -0.448112 -0.553088 0.401476 -0.354168 -0.023983 0.102699 0.067049 -0.025082 0.141578 0.017289 -0.145508 0.279171 -0.236590 0.009208 0.477187 -0.420919 -0.135910 -0.374567
9 -0.476835 -0.564307 0.362953 -0.368751 -0.044616 0.090772 0.069905 -0.009932 0.195516 0.004283 -0.114194 0.319666 -0.234627 -0.009199 0.495059 -0.453281 -0.180612 -0.371030
1 -0.428622 -0.550116 0.392722 -0.336135 -0.032957 0.072506 0.108107 0.001155 0.178822 0.005452 -0.149742 0.246008 -0.218541 0.000549 0.476725 -0.463553 -0.121929 -0.403865
10 0.005737 -0.002757 -0.014246 0.006132 0.011972 0.026533 0.015869 -0.001352 0.023172 -0.019827 0.015226 0.016952 -0.017475 0.021206 -0.010712 0.022008 0.009309 0.018390
13 0.019096 0.002747 0.009678 -0.019404 -0.008210 -0.004883 0.008138 -0.018294 0.006568 0.019257 -0.015253 -0.018294 0.012156 -0.023377 0.007956 -0.002520 -0.021393 -0.009389
17 -0.002915 -0.006397 0.005624 0.018021 -0.026928 -0.018564 0.015689 0.014203 0.025956 0.022864 0.010492 0.027524 0.013101 0.016295 -0.014503 0.021066 0.000664 -0.026546
