18 18
7 -0.068517 -0.431997 0.026926 -0.313223 -0.189254 0.254983 0.314448 0.047678 0.607245 -0.072557 -0.060042 0.345183 -0.082062 -0.242167 0.412942 -0.196851 0.020655 -0.459713
16 -0.122783 -0.433422 0.076572 -0.326398 -0.196800 0.269209 0.334997 0.012299 0.551926 -0.053782 -0.048545 0.358113 -0.123124 -0.185408 0.440889 -0.227545 -0.020147 -0.484374
14 -0.139278 -0.480379 0.091625 -0.341074 -0.149549 0.248518 0.299031 0.012901 0.588354 -0.053311 -0.043948 0.399275 -0.114045 -0.187918 0.411454 -0.194183 -0.000907 -0.477283
9 -0.124522 -0.442455 0.041459 -0.327123 -0.171947 0.247339 0.301226 0.032631 0.606515 -0.062845 -0.024827 0.378228 -0.091547 -0.222858 0.394727 -0.197594 -0.022467 -0.441259
15 -0.140926 -0.426444 0.090919 -0.320895 -0.169008 0.278979 0.301933 -0.009226 0.499695 -0.067720 -0.001401 0.299354 -0.096529 -0.189537 0.397152 -0.198826 -0.009576 -0.440345
13 -0.092265 -0.469722 0.074344 -0.337971 -0.175128 0.240024 0.339540 0.002854 0.629453 -0.042392 -0.058462 0.359812 -0.098233 -0.220186 0.428830 -0.217369 -0.036228 -0.506991
1 -0.136381 -0.446600 0.091141 -0.324448 -0.156006 0.223203 0.286863 0.041295 0.549724 -0.061226 -0.042470 0.316830 -0.077575 -0.212250 0.374877 -0.208294 0.028813 -0.444035
10 -0.110511 -0.466400 0.054681 -0.320244 -0.164369 0.283977 0.339900 0.026527 0.624655 -0.088033 -0.012498 0.385563 -0.122589 -0.191988 0.413092 -0.193109 0.012015 -0.468040
5 -0.100369 -0.471560 0.023765 -0.284724 -0.110831 0.173108 0.324413 0.008050 0.651608 -0.079904 -0.014732 0.411536 -0.110883 -0.146574 0.375946 -0.213020 -0.046483 -0.481045
17 -0.103634 -0.443546 0.054529 -0.268988 -0.158147 0.177101 0.311492 0.049660 0.633260 -0.044386 -0.027132 0.396885 -0.078769 -0.154961 0.353737 -0.171471 -0.022482 -0.471157
11 -0.137975 -0.459037 0.073335 -0.290518 -0.124265 0.193717 0.274035 0.039637 0.602704 -0.079658 -0.034520 0.375609 -0.109558 -0.147920 0.405167 -0.214083 -0.038496 -0.461507
4 -0.129919 -0.423085 0.073850 -0.307904 -0.160088 0.234676 0.275864 0.045166 0.554375 -0.076449 0.015815 0.352727 -0.087491 -0.210822 0.398025 -0.206658 0.005338 -0.467957
0 -0.137093 -0.470231 0.075340 -0.342672 -0.190628 0.261680 0.299563 0.013407 0.559631 -0.063602 0.005530 0.359205 -0.105402 -0.192758 0.427754 -0.220263 0.013070 -0.463473
6 -0.110862 -0.445617 0.074475 -0.283268 -0.166225 0.257015 0.318406 0.046188 0.551663 -0.060801 -0.007937 0.334185 -0.108045 -0.215532 0.405698 -0.194421 -0.000681 -0.463301
2 -0.104739 -0.468715 0.063465 -0.336840 -0.185207 0.260401 0.333319 0.045524 0.569062 -0.075666 -0.031442 0.385497 -0.093529 -0.229009 0.419452 -0.239874 -0.009055 -0.466538
12 -0.161659 -0.455497 0.082398 -0.328704 -0.178693 0.228195 0.277715 -0.024494 0.519660 -0.033655 0.008570 0.374218 -0.113477 -0.155701 0.399048 -0.175516 -0.044109 -0.444479
8 -0.142767 -0.494975 0.102528 -0.322667 -0.201339 0.289250 0.338682 0.026525 0.549408 -0.055163 -0.008720 0.356710 -0.146167 -0.205571 0.452200 -0.242609 0.022295 -0.470672
3 -0.159985 -0.454766 0.107798 -0.316271 -0.166185 0.263642 0.330751 0.021587 0.526180 -0.081541 0.003407 0.330775 -0.145190 -0.228941 0.409536 -0.238146 0.029619 -0.488311
