18 18
2 -0.220173 -0.583871 0.233083 -0.266301 -0.254936 0.284866 0.302435 0.090842 0.224428 -0.023380 0.120627 0.335983 -0.233669 -0.203948 0.431343 -0.398837 0.026572 -0.291482
15 -0.226505 -0.606916 0.201602 -0.296809 -0.273717 0.322258 0.281036 0.000788 0.270972 -0.021358 0.155196 0.326404 -0.214456 -0.135052 0.477628 -0.344760 -0.051076 -0.264633
3 -0.315392 -0.513561 0.346084 -0.228095 -0.160665 0.252303 0.318121 0.142845 0.162234 -0.047412 0.137999 0.278723 -0.306968 -0.283803 0.351274 -0.440679 0.184652 -0.426430
7 -0.227224 -0.512653 0.256513 -0.228329 -0.216973 0.265519 0.291618 0.138047 0.225429 -0.032940 0.107966 0.288288 -0.245926 -0.265999 0.389839 -0.381739 0.124445 -0.355506
4 -0.310771 -0.503576 0.328265 -0.230233 -0.145995 0.234035 0.273772 0.161578 0.193291 -0.056239 0.158655 0.319078 -0.265014 -0.253402 0.359854 -0.430279 0.143356 -0.427136
11 -0.218705 -0.580894 0.189962 -0.253872 -0.256870 0.270667 0.241908 0.056520 0.280427 -0.040809 0.137437 0.315696 -0.226173 -0.131667 0.471545 -0.355258 -0.017636 -0.259408
0 -0.146832 -0.571604 0.148264 -0.268000 -0.328793 0.320568 0.266223 0.020662 0.251102 0.003395 0.157684 0.292406 -0.194159 -0.154573 0.470532 -0.305552 0.008430 -0.211699
8 -0.195911 -0.556164 0.229198 -0.231019 -0.264388 0.281176 0.289330 0.076837 0.220502 0.011049 0.097462 0.288734 -0.239595 -0.179201 0.422910 -0.355822 0.054710 -0.262750
14 -0.412061 -0.477143 0.451990 -0.243529 -0.035296 0.214848 0.274363 0.190705 0.108130 -0.046803 0.069106 0.329069 -0.346072 -0.279799 0.288911 -0.476659 0.252005 -0.498789
16 -0.424348 -0.447606 0.459700 -0.229493 -0.038179 0.201384 0.305379 0.203114 0.110705 -0.059663 0.062655 0.327136 -0.356155 -0.253662 0.297534 -0.516946 0.231440 -0.536645
1 -0.377563 -0.481959 0.404355 -0.235433 -0.064973 0.182653 0.271342 0.195541 0.150680 -0.049629 0.074893 0.291975 -0.290029 -0.266077 0.281470 -0.464134 0.220615 -0.455156
9 -0.325746 -0.469597 0.304616 -0.221609 -0.114347 0.228153 0.274832 0.151208 0.184380 -0.045789 0.111102 0.329530 -0.296309 -0.246834 0.313167 -0.417980 0.148792 -0.372834
6 -0.264049 -0.518399 0.302148 -0.201943 -0.175387 0.258247 0.312378 0.139331 0.178021 -0.028184 0.136856 0.282031 -0.274739 -0.254865 0.371247 -0.394585 0.124002 -0.395496
13 -0.187827 -0.561257 0.212331 -0.267926 -0.268979 0.277491 0.288239 0.039222 0.258298 0.003091 0.136570 0.292236 -0.217180 -0.208678 0.441253 -0.343950 0.003521 -0.296975
17 -0.256545 -0.565946 0.275577 -0.228972 -0.254236 0.264517 0.323080 0.114655 0.244665 -0.001646 0.141981 0.335166 -0.253299 -0.209485 0.397932 -0.372525 0.091490 -0.371942
12 -0.234703 -0.563856 0.220604 -0.263361 -0.257527 0.257228 0.251371 0.034537 0.212323 0.004012 0.163559 0.315988 -0.228150 -0.171339 0.420019 -0.322218 0.007348 -0.288306
10 -0.200478 -0.552693 0.202833 -0.230442 -0.244888 0.312900 0.308455 0.075725 0.253904 -0.035669 0.146733 0.322067 -0.261027 -0.168502 0.411564 -0.333031 0.064387 -0.265282
5 -0.212319 -0.594870 0.167475 -0.247871 -0.235804 0.276722 0.309351 0.030702 0.294704 -0.051223 0.183837 0.342886 -0.262591 -0.163947 0.459576 -0.377995 0.012030 -0.316581
