18 18
4 -0.335724 -0.505985 0.361514 -0.116795 -0.008077 -0.001250 0.062022 0.314723 0.200350 -0.084164 0.179927 0.276754 -0.102639 -0.138527 0.368809 -0.447145 -0.080873 -0.389750
0 -0.368690 -0.574553 0.357107 -0.200058 -0.079269 0.018259 0.021409 0.254492 0.212349 -0.034715 0.206540 0.319154 -0.115787 -0.139023 0.414850 -0.420055 -0.077624 -0.371723
1 -0.382056 -0.619055 0.411825 -0.199208 -0.065941 -0.006477 0.078805 0.319214 0.244819 -0.048869 0.153600 0.281825 -0.086114 -0.175334 0.399754 -0.495004 -0.065770 -0.406612
6 -0.349201 -0.577105 0.380393 -0.118697 -0.038809 0.016717 0.083659 0.315601 0.219639 -0.051017 0.179520 0.302237 -0.135891 -0.148028 0.420854 -0.450051 -0.102179 -0.413361
8 -0.338256 -0.574223 0.375751 -0.142169 -0.052089 0.012662 0.063236 0.284131 0.213982 -0.023976 0.142460 0.298022 -0.144325 -0.126637 0.406743 -0.433871 -0.080910 -0.357666
10 -0.382339 -0.591874 0.359122 -0.172404 -0.024378 0.026447 0.041585 0.248239 0.259491 -0.053900 0.202484 0.356980 -0.163675 -0.094472 0.396183 -0.380186 -0.105438 -0.352194
11 -0.434826 -0.595647 0.388723 -0.170988 -0.009419 -0.024730 -0.039426 0.241490 0.262217 -0.044957 0.186550 0.352148 -0.172402 -0.066454 0.410486 -0.353424 -0.142505 -0.352147
9 -0.402518 -0.589019 0.355877 -0.181929 -0.041182 -0.005455 0.023659 0.277672 0.267458 -0.034433 0.185811 0.366352 -0.140766 -0.151267 0.393601 -0.410809 -0.131379 -0.352952
12 -0.477282 -0.639918 0.386878 -0.241457 -0.062246 -0.041819 -0.066244 0.157044 0.241837 0.034151 0.242659 0.426791 -0.173947 -0.070990 0.402670 -0.287236 -0.193615 -0.348892
5 -0.366861 -0.599952 0.344789 -0.164323 -0.021296 -0.009743 0.074441 0.247616 0.250242 -0.060366 0.188458 0.331831 -0.146727 -0.122736 0.406401 -0.445878 -0.124274 -0.397026
2 -0.305910 -0.578168 0.346096 -0.169364 -0.083605 0.012875 0.109266 0.316271 0.195835 -0.053497 0.147542 0.306229 -0.088910 -0.187438 0.400836 -0.505738 -0.095311 -0.374008
16 -0.329662 -0.532710 0.359783 -0.133977 -0.058717 0.003353 0.105865 0.288140 0.200093 -0.046555 0.141695 0.298454 -0.122749 -0.128012 0.415180 -0.478336 -0.124598 -0.417310
15 -0.371327 -0.562319 0.378088 -0.180814 -0.053095 0.032036 0.065830 0.232751 0.207512 -0.042485 0.176299 0.293731 -0.114769 -0.118133 0.395958 -0.414633 -0.120117 -0.383155
3 -0.344873 -0.514650 0.362822 -0.142056 -0.048162 0.005804 0.078847 0.262103 0.172885 -0.046606 0.160408 0.256722 -0.133586 -0.161887 0.352203 -0.424424 -0.064877 -0.368060
17 -0.418730 -0.601305 0.381272 -0.196240 -0.087149 -0.032622 -0.005948 0.219739 0.268750 0.022010 0.212416 0.391925 -0.132455 -0.087215 0.383262 -0.317394 -0.137571 -0.378489
7 -0.354922 -0.598299 0.355120 -0.190090 -0.093251 0.021394 0.059505 0.284012 0.259040 -0.037773 0.170743 0.338169 -0.119044 -0.175162 0.433054 -0.437862 -0.101644 -0.389418
13 -0.407412 -0.595510 0.402593 -0.219724 -0.054273 -0.020608 -0.015917 0.194165 0.251856 0.017211 0.183744 0.348004 -0.145387 -0.111830 0.418152 -0.342748 -0.172559 -0.381073
14 -0.418385 -0.592094 0.398454 -0.206038 -0.012601 -0.006569 -0.030297 0.203858 0.228916 0.001373 0.164113 0.363262 -0.163212 -0.088277 0.384549 -0.323125 -0.118822 -0.343030
