18 18
6 -0.039889 -0.542345 0.050547 -0.227468 -0.127034 0.008103 0.473387 0.184709 0.398981 -0.096267 0.171138 0.556462 0.008906 -0.205970 0.233476 -0.432067 -0.142472 -0.511878
12 -0.066833 -0.563072 0.034385 -0.279725 -0.163187 -0.009489 0.433782 0.114378 0.379697 -0.060596 0.190756 0.588481 0.019951 -0.152364 0.204564 -0.364604 -0.154619 -0.460584
2 -0.012404 -0.500407 0.027959 -0.247979 -0.117233 0.004741 0.440029 0.175728 0.367563 -0.108947 0.134512 0.537443 0.039334 -0.205257 0.193587 -0.425337 -0.126919 -0.440331
10 -0.031615 -0.520966 0.008927 -0.247260 -0.112596 0.031793 0.450760 0.137522 0.418489 -0.118330 0.176872 0.551072 0.003791 -0.160771 0.190868 -0.362472 -0.104489 -0.432527
16 -0.043626 -0.520231 0.046904 -0.259351 -0.125880 0.016688 0.481085 0.133317 0.400004 -0.099900 0.135891 0.568856 -0.007268 -0.152614 0.241528 -0.435556 -0.151011 -0.518572
15 -0.068635 -0.524212 0.058790 -0.267922 -0.112148 0.034508 0.458384 0.114314 0.397084 -0.108682 0.160592 0.534445 0.015443 -0.173352 0.225350 -0.420563 -0.151110 -0.501236
14 -0.055262 -0.516208 0.058038 -0.272309 -0.103676 0.023750 0.419627 0.114766 0.365777 -0.083080 0.129753 0.542665 0.000402 -0.165851 0.197542 -0.373064 -0.101137 -0.456090
7 -0.003593 -0.511021 -0.013298 -0.257074 -0.154888 0.028289 0.436375 0.139592 0.432173 -0.099430 0.155199 0.550993 0.032692 -0.202616 0.224949 -0.367951 -0.109416 -0.451800
5 -0.029844 -0.506687 -0.017680 -0.222332 -0.091462 -0.006229 0.430139 0.118372 0.409112 -0.123131 0.194079 0.524286 -0.002801 -0.162559 0.208749 -0.387378 -0.118841 -0.448885
3 -0.066554 -0.481897 0.067182 -0.228662 -0.107422 -0.000926 0.444579 0.155642 0.346947 -0.109918 0.162283 0.483490 -0.002791 -0.216612 0.176483 -0.413330 -0.085505 -0.475316
11 -0.091285 -0.532865 0.059699 -0.206725 -0.077481 -0.039041 0.386289 0.236860 0.413500 -0.142920 0.156298 0.532326 -0.000709 -0.195244 0.229569 -0.456725 -0.144562 -0.448621
0 -0.031537 -0.565305 0.001984 -0.287758 -0.164148 0.029851 0.464331 0.127785 0.434891 -0.105019 0.213500 0.575226 0.022750 -0.186922 0.241522 -0.404829 -0.087821 -0.488745
13 -0.030186 -0.475198 0.047021 -0.243752 -0.110245 -0.004111 0.401579 0.130121 0.375699 -0.076715 0.119788 0.484869 0.023699 -0.194405 0.209133 -0.388349 -0.148785 -0.437434
8 -0.041513 -0.524168 0.057375 -0.231348 -0.126000 0.013353 0.448127 0.159787 0.377163 -0.085261 0.138005 0.519305 -0.006636 -0.182909 0.221872 -0.423337 -0.101405 -0.461971
4 -0.051385 -0.502679 0.046022 -0.235582 -0.101146 -0.025705 0.413288 0.204423 0.397674 -0.118539 0.178077 0.549101 0.043277 -0.207902 0.195695 -0.424216 -0.119501 -0.480231
1 -0.072486 -0.504566 0.072844 -0.247372 -0.101949 -0.023547 0.415623 0.159941 0.379674 -0.086849 0.121421 0.485649 0.028837 -0.181717 0.182195 -0.404260 -0.101050 -0.464217
17 -0.018748 -0.518534 -0.009749 -0.221937 -0.173552 -0.000444 0.458935 0.128737 0.439972 -0.068006 0.197547 0.565524 0.030925 -0.144854 0.196262 -0.329035 -0.111087 -0.475930
9 -0.076181 -0.515448 0.019302 -0.235690 -0.106622 -0.020598 0.412025 0.198560 0.416492 -0.111037 0.170095 0.550535 0.018494 -0.221286 0.198075 -0.424765 -0.155128 -0.428749
