18 18
9 -0.110700 -0.432180 -0.050327 -0.262357 -0.032465 0.178032 0.197965 -0.068941 0.485130 -0.198441 0.173984 0.378955 -0.352406 -0.019211 0.558162 -0.446320 -0.151910 -0.262043
4 -0.140650 -0.416205 -0.005395 -0.224752 -0.023925 0.100020 0.174171 -0.045391 0.431129 -0.186711 0.229718 0.386151 -0.315156 0.037813 0.517073 -0.445159 -0.134853 -0.337081
11 -0.167874 -0.547673 -0.037464 -0.361246 0.111860 0.296295 0.023762 -0.166003 0.551990 -0.268816 0.117167 0.194725 -0.436018 -0.108580 0.643369 -0.383632 -0.021868 -0.089088
10 -0.088848 -0.418557 -0.041360 -0.212202 -0.048499 0.169458 0.256145 -0.053820 0.474824 -0.203441 0.205223 0.419322 -0.358655 0.060218 0.529491 -0.421601 -0.145673 -0.303742
16 -0.064878 -0.326479 -0.004850 -0.126387 -0.149690 0.041664 0.353196 0.016061 0.395682 -0.127630 0.173201 0.521722 -0.283689 0.173245 0.516861 -0.495760 -0.282534 -0.489850
17 -0.046312 -0.315276 0.005501 -0.054859 -0.235537 -0.033331 0.431372 0.092453 0.398249 -0.082014 0.218414 0.637664 -0.233465 0.236110 0.465124 -0.491452 -0.315528 -0.579219
7 -0.072166 -0.457283 -0.055433 -0.277648 -0.038558 0.230000 0.184394 -0.098101 0.504372 -0.200858 0.128060 0.327018 -0.361142 -0.047664 0.603825 -0.409576 -0.108621 -0.245725
12 -0.219854 -0.567003 -0.013977 -0.356148 0.029952 0.184568 0.081781 -0.172970 0.472757 -0.206541 0.242764 0.320141 -0.399212 -0.019894 0.584293 -0.408001 -0.094788 -0.193841
0 -0.179720 -0.528494 -0.018543 -0.349060 0.036370 0.218640 0.079211 -0.154478 0.467511 -0.219151 0.207271 0.265106 -0.375304 -0.041782 0.584857 -0.412009 -0.037767 -0.186913
2 -0.013747 -0.318204 -0.021209 -0.095063 -0.192360 0.015107 0.380572 0.077943 0.351569 -0.117326 0.174798 0.563722 -0.231390 0.167597 0.468146 -0.496449 -0.302148 -0.460444
3 -0.086573 -0.340684 0.015841 -0.131741 -0.121303 0.058738 0.329831 0.005581 0.355381 -0.143646 0.192447 0.455320 -0.311013 0.106143 0.482946 -0.482977 -0.205270 -0.446059
5 -0.146777 -0.464410 -0.029529 -0.239408 0.000793 0.097457 0.203415 -0.096780 0.440450 -0.191728 0.227144 0.379196 -0.342371 0.045265 0.513091 -0.446978 -0.139422 -0.323624
14 -0.127073 -0.480810 -0.006371 -0.304385 0.020268 0.224629 0.140580 -0.120240 0.468553 -0.191115 0.123672 0.322816 -0.377599 -0.024575 0.577109 -0.400823 -0.086649 -0.222365
8 -0.106865 -0.494181 -0.023185 -0.273470 -0.016501 0.215791 0.168137 -0.103249 0.487026 -0.182109 0.134220 0.311624 -0.382434 -0.024066 0.600692 -0.424718 -0.088675 -0.226325
1 -0.216359 -0.532583 0.016076 -0.318978 0.046610 0.124328 0.106667 -0.100615 0.468349 -0.200183 0.204041 0.303710 -0.341315 -0.020768 0.506096 -0.423695 -0.056043 -0.230492
13 -0.113567 -0.467630 -0.017987 -0.309459 0.007439 0.199229 0.151709 -0.133909 0.487578 -0.188852 0.148644 0.285961 -0.357707 -0.053070 0.580380 -0.417637 -0.117961 -0.241222
15 -0.127916 -0.462682 -0.010004 -0.285522 -0.000044 0.226903 0.176711 -0.117976 0.468926 -0.203406 0.145118 0.313177 -0.352420 -0.005359 0.581824 -0.423506 -0.131629 -0.252164
6 0.007299 -0.006988 0.006429 0.025394 0.003018 0.008962 0.013628 0.017139 -0.003415 0.002961 0.009307 -0.005691 -0.008572 -0.012634 0.015137 0.000585 -0.007433 -0.019036
