18 18
9 -0.256958 -0.407594 -0.162545 -0.152937 -0.151392 -0.076759 -0.005472 0.257475 0.583694 -0.055395 0.443997 0.630261 -0.111991 -0.398900 0.187237 -0.158842 -0.146498 -0.150903
0 -0.311406 -0.400040 0.021287 -0.176383 -0.146223 -0.039447 0.043260 0.216486 0.444100 -0.034677 0.400110 0.566085 -0.096114 -0.288987 0.244898 -0.243402 -0.109188 -0.333565
4 -0.336297 -0.337066 0.096340 -0.120188 -0.087132 -0.082480 0.048909 0.272209 0.421967 -0.049010 0.406284 0.587459 -0.075358 -0.265114 0.233386 -0.287942 -0.125864 -0.453048
11 -0.271206 -0.425914 -0.109860 -0.137347 -0.142825 -0.085847 -0.006648 0.251119 0.556693 -0.066667 0.436924 0.617179 -0.133765 -0.337960 0.235473 -0.188908 -0.162065 -0.206632
14 -0.395969 -0.436525 0.168131 -0.195317 -0.087484 -0.034872 0.082923 0.180660 0.387024 -0.006649 0.327128 0.590015 -0.137353 -0.233592 0.282086 -0.305791 -0.134925 -0.474316
6 -0.263893 -0.375348 -0.004151 -0.108029 -0.128097 -0.054331 0.059603 0.244296 0.446665 -0.025738 0.387132 0.548467 -0.102391 -0.307536 0.218488 -0.208727 -0.124189 -0.309592
12 -0.246956 -0.412403 -0.158528 -0.149810 -0.187144 -0.086458 -0.004140 0.206687 0.533518 -0.026675 0.482511 0.631299 -0.115024 -0.348395 0.192931 -0.117112 -0.173851 -0.155186
7 -0.233124 -0.392837 -0.116977 -0.146917 -0.172678 -0.051716 0.028437 0.248014 0.545287 -0.051579 0.421834 0.615773 -0.105383 -0.368486 0.230039 -0.177370 -0.138342 -0.228517
2 -0.278333 -0.378384 0.024336 -0.141736 -0.130251 -0.064042 0.059149 0.262800 0.422700 -0.038746 0.372400 0.583625 -0.079188 -0.300767 0.221220 -0.261408 -0.141393 -0.326077
1 -0.302996 -0.392145 0.014020 -0.144094 -0.118796 -0.090611 0.040432 0.255199 0.466496 -0.037650 0.374596 0.544126 -0.079537 -0.310896 0.186124 -0.225283 -0.097379 -0.308195
8 -0.256526 -0.402623 -0.046595 -0.128135 -0.158843 -0.057975 0.053053 0.229720 0.485498 -0.021944 0.403394 0.579391 -0.122961 -0.315707 0.227306 -0.210813 -0.119521 -0.258324
15 -0.477714 -0.398630 0.329914 -0.202996 -0.044933 0.009316 0.164385 0.113951 0.281691 -0.018906 0.284224 0.534251 -0.119132 -0.088448 0.334925 -0.405400 -0.202922 -0.661367
3 -0.358510 -0.367452 0.110612 -0.138430 -0.113893 -0.058030 0.098406 0.215719 0.385398 -0.031387 0.393476 0.546791 -0.121264 -0.281580 0.224649 -0.284812 -0.110437 -0.441858
17 -0.350435 -0.389221 0.111086 -0.129675 -0.134241 -0.075088 0.099265 0.244934 0.441526 -0.003907 0.378847 0.600150 -0.084722 -0.242560 0.228944 -0.267254 -0.126131 -0.465898
5 -0.295127 -0.419217 -0.020174 -0.148038 -0.102472 -0.064541 0.082721 0.169550 0.471018 -0.047023 0.400228 0.583638 -0.140649 -0.267918 0.240901 -0.243005 -0.148030 -0.341597
10 -0.263997 -0.434958 -0.123595 -0.139954 -0.153081 -0.058644 0.037829 0.257602 0.590738 -0.066297 0.481243 0.662054 -0.136846 -0.353783 0.209562 -0.164308 -0.138137 -0.217682
13 -0.231790 -0.409497 -0.108722 -0.150890 -0.176583 -0.085850 0.039321 0.238584 0.561981 -0.021839 0.445445 0.598694 -0.099094 -0.400310 0.204127 -0.170788 -0.149820 -0.225260
16 -0.498201 -0.362620 0.401964 -0.192837 -0.036575 -0.004755 0.190628 0.117735 0.229409 0.000351 0.232709 0.537983 -0.129680 -0.037201 0.362572 -0.456076 -0.209268 -0.759197
