18 18
4 -0.220384 -0.305426 0.178595 -0.146748 -0.208426 0.081940 0.250546 0.165032 0.276927 0.033683 0.277291 0.537825 -0.173116 -0.113477 0.390068 -0.335441 -0.119537 -0.565570
0 -0.224486 -0.350587 0.170048 -0.191731 -0.245524 0.109741 0.255752 0.139267 0.269600 0.052080 0.269523 0.533729 -0.188793 -0.127260 0.414020 -0.336923 -0.099046 -0.520800
10 -0.262131 -0.394234 0.129367 -0.157197 -0.195825 0.102255 0.225372 0.149442 0.326853 0.015318 0.320068 0.617594 -0.239479 -0.053544 0.362713 -0.279104 -0.113528 -0.412192
7 -0.179363 -0.308013 0.140192 -0.157637 -0.226847 0.116889 0.259620 0.148391 0.299001 0.033201 0.227900 0.524971 -0.183167 -0.143570 0.408098 -0.315066 -0.114554 -0.543111
9 -0.291535 -0.414520 0.094626 -0.167615 -0.204465 0.078687 0.186318 0.164560 0.340573 0.027032 0.351573 0.667812 -0.245774 -0.082786 0.371086 -0.303464 -0.134319 -0.363068
13 -0.199451 -0.325700 0.179948 -0.185689 -0.219690 0.094867 0.264842 0.113607 0.277072 0.061381 0.230066 0.510138 -0.184128 -0.146925 0.402567 -0.329442 -0.142479 -0.560560
14 -0.207395 -0.307386 0.209380 -0.176731 -0.186596 0.118989 0.245684 0.117810 0.244477 0.052338 0.187822 0.496110 -0.189514 -0.128730 0.385872 -0.304438 -0.106880 -0.576330
16 -0.230056 -0.331183 0.180958 -0.160520 -0.244869 0.089092 0.312173 0.151060 0.303496 0.054572 0.250736 0.577836 -0.211495 -0.101272 0.425924 -0.357367 -0.154167 -0.592457
2 -0.193879 -0.336702 0.168875 -0.172917 -0.233722 0.096745 0.284697 0.166282 0.255658 0.042947 0.231754 0.538163 -0.171535 -0.148254 0.386860 -0.353278 -0.122735 -0.526262
3 -0.235954 -0.311796 0.190533 -0.151352 -0.199727 0.089457 0.267441 0.134730 0.249436 0.035830 0.247740 0.495635 -0.214698 -0.135858 0.362168 -0.322054 -0.091762 -0.539389
1 -0.254158 -0.373064 0.194550 -0.202129 -0.219351 0.072815 0.256878 0.160263 0.301265 0.049606 0.231297 0.528383 -0.176488 -0.143909 0.377997 -0.350310 -0.101028 -0.532668
17 -0.218163 -0.330244 0.173543 -0.125586 -0.239847 0.062284 0.284040 0.160144 0.309789 0.072033 0.263048 0.564206 -0.184120 -0.087135 0.362502 -0.289448 -0.116961 -0.546446
6 -0.202271 -0.328424 0.168232 -0.129744 -0.211513 0.091634 0.270578 0.163938 0.273832 0.046911 0.249111 0.511915 -0.190529 -0.132289 0.390382 -0.322757 -0.122126 -0.541702
8 -0.244208 -0.392990 0.154897 -0.152859 -0.226539 0.092045 0.223024 0.148658 0.280740 0.061818 0.277073 0.558743 -0.227942 -0.084303 0.388526 -0.313033 -0.093523 -0.423889
5 -0.220977 -0.362456 0.123905 -0.152144 -0.182344 0.079199 0.255783 0.113278 0.303603 0.020395 0.280984 0.561453 -0.219757 -0.086023 0.381771 -0.317320 -0.129826 -0.495236
12 -0.294402 -0.427883 0.136096 -0.187070 -0.227715 0.071340 0.187094 0.123384 0.286013 0.057486 0.347611 0.641662 -0.241026 -0.066049 0.388299 -0.290064 -0.145881 -0.406642
11 -0.269770 -0.390610 0.139663 -0.144724 -0.187485 0.071998 0.189134 0.179968 0.323212 0.004136 0.307641 0.610389 -0.234789 -0.068336 0.410742 -0.335856 -0.135682 -0.449769
15 -0.223796 -0.317601 0.188966 -0.184353 -0.190625 0.138864 0.254256 0.104391 0.249925 0.020842 0.231166 0.476596 -0.174668 -0.113249 0.396409 -0.328238 -0.134294 -0.541564
