18 18
3 -0.401379 -0.492066 0.232433 -0.137822 0.050133 -0.061888 0.223688 0.052617 0.109833 -0.081107 0.316591 0.313820 -0.308349 -0.242392 0.231446 -0.412292 -0.015931 -0.470454
5 -0.345319 -0.497669 0.165037 -0.142280 0.043457 -0.062847 0.231842 0.018714 0.164111 -0.072866 0.319413 0.368173 -0.287924 -0.177536 0.264871 -0.409133 -0.066159 -0.470647
6 -0.369497 -0.535515 0.215277 -0.107728 0.032972 -0.052211 0.261314 0.069562 0.132899 -0.062193 0.348178 0.352420 -0.304689 -0.239433 0.273072 -0.421164 -0.051652 -0.508793
10 -0.425454 -0.488491 0.233501 -0.255182 0.021921 0.018900 0.150319 0.043908 0.195841 -0.053855 0.226178 0.413747 -0.270086 -0.086427 0.251772 -0.373782 -0.043680 -0.348113
14 -0.492213 -0.548660 0.303318 -0.311205 0.018684 0.001528 0.121415 0.051218 0.179423 -0.022273 0.196412 0.442395 -0.276320 -0.109719 0.279754 -0.413141 -0.036603 -0.392146
1 -0.449035 -0.522086 0.264313 -0.242609 0.021804 -0.051162 0.155180 0.077079 0.192466 -0.042347 0.231868 0.385020 -0.251369 -0.153862 0.248852 -0.419304 -0.026872 -0.423000
11 -0.464411 -0.499228 0.258588 -0.243834 0.027060 -0.027816 0.102735 0.084130 0.190331 -0.066970 0.204736 0.387992 -0.269664 -0.107560 0.276302 -0.402805 -0.055378 -0.356798
0 -0.453565 -0.515221 0.260490 -0.301354 -0.024910 0.002473 0.122105 0.063374 0.180545 -0.027116 0.236364 0.424715 -0.244382 -0.114995 0.284428 -0.413868 -0.014523 -0.382822
4 -0.401831 -0.485498 0.220427 -0.157585 0.046831 -0.067117 0.177480 0.084911 0.158794 -0.077929 0.324601 0.374969 -0.265474 -0.193851 0.251242 -0.406686 -0.037687 -0.467700
8 -0.405688 -0.544505 0.242455 -0.176628 0.008939 -0.025027 0.220095 0.060393 0.157366 -0.038217 0.279294 0.385318 -0.305582 -0.173534 0.286444 -0.439388 -0.034172 -0.451674
9 -0.442088 -0.469541 0.217833 -0.277576 0.004937 -0.008831 0.113744 0.077491 0.208389 -0.039510 0.203883 0.430861 -0.237855 -0.138278 0.246639 -0.386018 -0.058916 -0.340985
2 -0.409492 -0.544834 0.241796 -0.214010 0.012561 -0.036431 0.207113 0.072398 0.132802 -0.056504 0.283762 0.407696 -0.273097 -0.194967 0.265706 -0.444555 -0.065505 -0.433527
7 -0.364755 -0.535816 0.190467 -0.145802 0.012796 -0.044650 0.252167 0.062391 0.172617 -0.074168 0.328005 0.370079 -0.301739 -0.263748 0.291329 -0.426018 -0.039509 -0.513498
15 -0.497136 -0.534682 0.295765 -0.299391 0.014928 0.017457 0.141758 0.036479 0.184913 -0.045239 0.228048 0.408944 -0.264142 -0.102333 0.285406 -0.425295 -0.063948 -0.399176
12 -0.423287 -0.523305 0.221304 -0.204640 0.006801 -0.046702 0.162315 0.029731 0.134088 -0.037113 0.303192 0.388159 -0.272873 -0.158926 0.251197 -0.368446 -0.073463 -0.400433
16 -0.448326 -0.491168 0.249535 -0.271487 -0.007203 -0.019304 0.149556 0.057589 0.199584 -0.028933 0.198415 0.448172 -0.270126 -0.093120 0.298278 -0.421662 -0.078118 -0.420810
13 -0.411231 -0.499995 0.256074 -0.248894 0.012273 -0.026748 0.161277 0.035687 0.165650 -0.030091 0.234892 0.362505 -0.254777 -0.167349 0.266503 -0.399247 -0.070178 -0.398996
17 -0.426747 -0.489944 0.245656 -0.232765 -0.031256 -0.027495 0.157074 0.074611 0.204536 -0.006756 0.223922 0.433224 -0.232375 -0.091183 0.247157 -0.373161 -0.041626 -0.410515
