18 18
6 0.037902 -0.281897 -0.029290 -0.146439 -0.190732 0.114037 0.342999 0.152893 0.368787 0.028427 0.164558 0.450328 -0.033330 -0.442208 0.333052 -0.297967 -0.277099 -0.431000
8 -0.161138 -0.470194 -0.172548 -0.166911 -0.001111 0.007561 0.194733 0.128739 0.505193 -0.111343 0.362161 0.669109 -0.098352 -0.225851 0.314436 -0.397200 -0.343538 -0.284050
9 -0.256781 -0.458785 -0.254719 -0.160334 0.108539 -0.060827 0.088045 0.109831 0.537867 -0.184216 0.442365 0.710577 -0.085899 -0.125128 0.221874 -0.366586 -0.388527 -0.176269
4 -0.339865 -0.526865 -0.232028 -0.232896 0.142424 -0.126080 0.027676 0.120207 0.564139 -0.206915 0.545789 0.807007 -0.009691 -0.112212 0.213322 -0.392707 -0.442690 -0.225536
2 0.015089 -0.285263 -0.054374 -0.201595 -0.183878 0.064926 0.321844 0.127358 0.375319 0.015460 0.177743 0.490522 -0.002439 -0.434617 0.297746 -0.316947 -0.322169 -0.409245
13 0.184919 -0.159298 0.059971 -0.211366 -0.374898 0.151805 0.508327 0.102341 0.368751 0.162160 0.008139 0.329225 -0.002294 -0.662024 0.389179 -0.290115 -0.323700 -0.604453
17 0.053765 -0.245273 0.001559 -0.167407 -0.273954 0.088919 0.397836 0.136102 0.407361 0.090774 0.124086 0.446157 -0.005158 -0.478365 0.311312 -0.264020 -0.293333 -0.495870
5 -0.277980 -0.518088 -0.315192 -0.158454 0.190148 -0.103389 0.085972 0.042207 0.579014 -0.248546 0.512157 0.754439 -0.131536 -0.039658 0.260688 -0.416086 -0.438681 -0.201393
15 -0.118149 -0.381701 -0.062640 -0.234740 -0.104697 0.053262 0.257717 0.093840 0.443815 -0.030344 0.265160 0.552601 -0.002241 -0.331996 0.282307 -0.316064 -0.351865 -0.364862
16 0.167634 -0.134935 0.062481 -0.187402 -0.373568 0.150923 0.525703 0.109390 0.351864 0.147033 -0.004906 0.344628 -0.037076 -0.618043 0.400394 -0.306188 -0.314307 -0.637472
7 0.110504 -0.200015 0.012897 -0.217555 -0.326226 0.133960 0.438857 0.131629 0.399035 0.098738 0.064035 0.393463 0.009771 -0.601075 0.348549 -0.278564 -0.288790 -0.540590
12 -0.396186 -0.584002 -0.244965 -0.256775 0.140617 -0.138542 0.010018 0.051946 0.549444 -0.187892 0.560069 0.827064 -0.041675 -0.054163 0.200741 -0.353991 -0.477405 -0.169948
14 0.113365 -0.213456 0.028355 -0.187801 -0.270752 0.144015 0.417824 0.115229 0.361477 0.101863 0.039251 0.393164 -0.047170 -0.539863 0.362712 -0.290121 -0.265343 -0.517594
3 0.080990 -0.182707 0.043019 -0.181468 -0.287519 0.118822 0.442129 0.116528 0.338196 0.087535 0.083204 0.353953 -0.042245 -0.577237 0.325095 -0.299778 -0.261733 -0.541626
11 -0.250868 -0.462106 -0.219406 -0.149612 0.108656 -0.071568 0.104164 0.103742 0.540353 -0.194105 0.413773 0.680108 -0.111720 -0.112691 0.272984 -0.393527 -0.410150 -0.235700
1 -0.320593 -0.507030 -0.169811 -0.241093 0.103586 -0.124978 0.070381 0.092734 0.532306 -0.151750 0.420132 0.684040 -0.009600 -0.132870 0.182648 -0.352710 -0.384878 -0.224170
0 -0.106133 -0.390029 -0.121340 -0.229791 -0.096787 0.033775 0.221314 0.107332 0.457617 -0.056705 0.326454 0.601525 -0.022993 -0.318073 0.311714 -0.347115 -0.336737 -0.357464
10 0.015433 -0.300315 -0.063909 -0.168383 -0.165914 0.123166 0.348980 0.143249 0.431007 -0.006563 0.199391 0.511622 -0.050170 -0.410460 0.312046 -0.293776 -0.290752 -0.403197
