18 18
0 -0.341606 -0.483625 0.217843 -0.470292 -0.281784 0.145478 0.091761 0.028713 0.334781 0.053480 0.081795 0.417996 -0.021056 -0.235369 0.337580 -0.237729 -0.097032 -0.321661
11 -0.394540 -0.496188 0.262077 -0.457282 -0.240156 0.108409 0.062921 0.042035 0.366324 0.033584 0.056717 0.435081 -0.036223 -0.191318 0.350610 -0.245854 -0.131083 -0.353241
3 -0.391975 -0.490433 0.257556 -0.466920 -0.256484 0.133178 0.116780 0.043899 0.338145 0.032062 0.086617 0.428995 -0.065359 -0.287436 0.336780 -0.282608 -0.100836 -0.376375
7 -0.254411 -0.456194 0.152706 -0.424354 -0.287380 0.159512 0.118287 0.067351 0.374327 0.050645 0.039525 0.430252 -0.013810 -0.287718 0.325083 -0.218488 -0.101756 -0.294401
2 -0.319479 -0.494817 0.231105 -0.468933 -0.282363 0.139696 0.117631 0.062158 0.322275 0.050086 0.055187 0.447164 -0.016738 -0.263729 0.343994 -0.280218 -0.136838 -0.332809
16 -0.330994 -0.446855 0.227808 -0.437646 -0.255630 0.131204 0.118017 0.032873 0.344889 0.051784 0.049679 0.441132 -0.047443 -0.216493 0.348741 -0.253115 -0.147665 -0.361838
8 -0.309626 -0.518330 0.211280 -0.445969 -0.313572 0.159339 0.136395 0.069212 0.369610 0.081532 0.061850 0.461797 -0.043386 -0.277098 0.370179 -0.271655 -0.112934 -0.329433
9 -0.331158 -0.509343 0.191240 -0.472561 -0.297494 0.151418 0.123741 0.084681 0.403867 0.058754 0.059286 0.484661 -0.025355 -0.305079 0.340636 -0.267079 -0.143903 -0.315188
13 -0.333711 -0.470975 0.249941 -0.474147 -0.259008 0.118469 0.098814 0.013218 0.339337 0.073007 0.033515 0.386441 -0.009167 -0.242080 0.319301 -0.229493 -0.134682 -0.332298
1 -0.364495 -0.496055 0.257370 -0.461394 -0.241081 0.101640 0.098361 0.063961 0.351805 0.045887 0.033256 0.402131 -0.013798 -0.245570 0.309059 -0.264814 -0.099065 -0.336409
12 -0.358074 -0.478284 0.217499 -0.458449 -0.260987 0.116374 0.076438 0.005927 0.328170 0.066015 0.087929 0.452994 -0.030713 -0.213253 0.316740 -0.199647 -0.149197 -0.320989
4 -0.326133 -0.464699 0.222740 -0.444762 -0.252494 0.119897 0.090819 0.086212 0.363798 0.035881 0.080952 0.447165 -0.007442 -0.265629 0.334164 -0.268937 -0.129048 -0.357157
15 -0.400228 -0.499533 0.273326 -0.496300 -0.243545 0.148763 0.102368 -0.006274 0.353550 0.044539 0.069369 0.432548 -0.026286 -0.213749 0.343354 -0.243425 -0.152970 -0.369031
10 -0.270908 -0.447255 0.158990 -0.404423 -0.252939 0.161143 0.126205 0.056122 0.365319 0.034533 0.074937 0.433995 -0.037349 -0.237071 0.299419 -0.204893 -0.093637 -0.276752
17 -0.334146 -0.474307 0.218662 -0.431245 -0.291411 0.118014 0.115907 0.043477 0.373230 0.080217 0.078875 0.466695 -0.015637 -0.227136 0.314549 -0.205317 -0.120610 -0.355671
14 -0.397423 -0.521357 0.285477 -0.508729 -0.249166 0.134885 0.074987 0.016013 0.342579 0.072398 0.029452 0.449922 -0.034672 -0.230505 0.332060 -0.226429 -0.115868 -0.346629
5 -0.336161 -0.521489 0.202968 -0.468618 -0.254319 0.133047 0.139530 0.033436 0.390721 0.034374 0.079738 0.470652 -0.050146 -0.257517 0.363204 -0.289265 -0.149402 -0.367711
6 -0.323055 -0.497162 0.233197 -0.435064 -0.264409 0.147499 0.122268 0.071507 0.348918 0.053002 0.061127 0.424417 -0.033821 -0.266953 0.349359 -0.255567 -0.130783 -0.348553
