18 18
14 -0.268456 -0.511865 0.381567 -0.172983 0.000571 0.095866 0.332228 -0.018822 0.149939 0.101627 0.010011 0.258440 -0.280193 -0.193084 0.306271 -0.304477 -0.077675 -0.503026
2 -0.256563 -0.528082 0.379579 -0.161651 -0.005813 0.071125 0.369833 0.020182 0.142356 0.086370 0.036051 0.263506 -0.263253 -0.234601 0.294408 -0.358534 -0.102238 -0.512220
16 -0.294097 -0.524968 0.406360 -0.148204 -0.016080 0.094720 0.403812 -0.009122 0.167668 0.093048 0.036427 0.266065 -0.319389 -0.182826 0.346854 -0.365900 -0.103439 -0.582941
12 -0.304447 -0.532600 0.355932 -0.182653 -0.019942 0.102331 0.327429 -0.053678 0.141237 0.104264 0.073228 0.310178 -0.323736 -0.163958 0.318560 -0.287878 -0.119621 -0.473594
5 -0.265101 -0.534912 0.350872 -0.143421 0.016834 0.056915 0.384807 -0.015340 0.197875 0.067317 0.059425 0.248705 -0.280804 -0.202927 0.309307 -0.357412 -0.095985 -0.550734
3 -0.316886 -0.516912 0.488564 -0.114401 0.008315 0.000712 0.415081 0.073139 0.118482 0.082592 0.059806 0.103386 -0.236019 -0.323636 0.236698 -0.414644 0.024555 -0.644682
17 -0.291810 -0.511410 0.439282 -0.092392 -0.031555 -0.021380 0.397156 0.071858 0.178968 0.117723 0.056338 0.162300 -0.186411 -0.239020 0.222825 -0.338432 -0.014843 -0.620137
13 -0.253552 -0.535103 0.405321 -0.168776 -0.011494 0.042333 0.394017 -0.006085 0.204496 0.112444 0.013915 0.203402 -0.234506 -0.258336 0.303204 -0.355815 -0.108635 -0.575387
10 -0.288575 -0.532409 0.361230 -0.141651 0.006585 0.114577 0.381469 -0.009891 0.192946 0.068261 0.075043 0.290024 -0.324981 -0.165043 0.303102 -0.303064 -0.080625 -0.508826
15 -0.292210 -0.524529 0.399313 -0.158960 0.002782 0.082334 0.374743 -0.016548 0.163169 0.078803 0.052216 0.220471 -0.251992 -0.197838 0.298372 -0.345647 -0.099855 -0.547222
6 -0.286452 -0.534883 0.461944 -0.098679 -0.004278 0.018262 0.403245 0.074589 0.148766 0.103237 0.054044 0.125599 -0.216539 -0.283713 0.276706 -0.375631 -0.015954 -0.637776
7 -0.247164 -0.518656 0.348117 -0.164913 -0.031758 0.108672 0.367748 -0.008575 0.201876 0.086765 0.030461 0.270671 -0.281258 -0.217628 0.338269 -0.318692 -0.091275 -0.530351
9 -0.296492 -0.539469 0.376988 -0.157305 0.004476 0.059779 0.365281 0.038656 0.208030 0.081277 0.046520 0.259913 -0.268128 -0.258920 0.293735 -0.363911 -0.091849 -0.527789
0 -0.298193 -0.542097 0.467876 -0.146982 -0.025200 0.024448 0.380902 0.063431 0.138144 0.098724 0.066103 0.124829 -0.200180 -0.284078 0.281455 -0.397815 0.019619 -0.627684
1 -0.302568 -0.524307 0.439671 -0.131452 0.008942 -0.013403 0.361222 0.069583 0.169921 0.088436 0.032503 0.143525 -0.191132 -0.254649 0.233981 -0.370336 -0.012421 -0.578863
4 -0.301704 -0.526660 0.398280 -0.152526 0.011820 0.064406 0.352423 0.019564 0.173480 0.078647 0.083462 0.284267 -0.286637 -0.213194 0.310518 -0.354607 -0.085977 -0.561499
8 -0.273991 -0.531999 0.385540 -0.141446 -0.024588 0.096109 0.365267 -0.004092 0.149057 0.107881 0.042776 0.249506 -0.306518 -0.192765 0.318380 -0.333399 -0.060421 -0.506074
11 -0.283082 -0.517824 0.363976 -0.134387 0.012161 0.067341 0.322465 0.028720 0.187189 0.058055 0.035917 0.256554 -0.286592 -0.176450 0.320481 -0.341006 -0.096840 -0.497698
