18 18
0 -0.295119 -0.408499 0.101331 -0.383646 0.021670 0.168378 -0.030022 0.223040 0.354157 -0.128759 0.251140 0.464133 -0.035108 -0.431040 0.298630 -0.280405 -0.049761 -0.271496
1 -0.291277 -0.428876 0.157867 -0.332745 0.039775 0.122535 -0.003535 0.294796 0.393271 -0.090636 0.150968 0.474794 -0.045050 -0.433633 0.270215 -0.271330 -0.049118 -0.293051
6 -0.191148 -0.459559 0.234919 -0.157138 -0.071181 0.148527 0.028878 0.459660 0.342696 0.057618 0.016399 0.582737 -0.094118 -0.343428 0.315894 -0.185442 -0.088483 -0.267089
14 -0.255677 -0.476747 0.212287 -0.305202 -0.021357 0.168020 -0.014101 0.369051 0.365864 -0.005275 0.071617 0.581459 -0.076721 -0.414035 0.316695 -0.230809 -0.062431 -0.271566
7 -0.244944 -0.400198 0.100799 -0.352802 0.000822 0.166510 -0.013962 0.297009 0.390477 -0.107628 0.171201 0.487776 -0.037029 -0.496827 0.306395 -0.275293 -0.051350 -0.270829
13 -0.262201 -0.407396 0.113794 -0.405510 0.027326 0.158600 -0.009223 0.245717 0.392489 -0.111363 0.198538 0.466801 -0.031962 -0.534044 0.315927 -0.304944 -0.090787 -0.293470
16 -0.202662 -0.436552 0.211947 -0.225675 -0.076662 0.145644 0.025075 0.407405 0.348662 0.042193 0.009509 0.585499 -0.085479 -0.353134 0.327629 -0.218218 -0.112071 -0.266611
2 -0.234334 -0.476357 0.180936 -0.307079 -0.041156 0.163544 0.010287 0.410322 0.370584 -0.027503 0.098090 0.607835 -0.054490 -0.460851 0.323157 -0.276529 -0.100761 -0.264832
4 -0.280105 -0.366013 0.119481 -0.348075 0.049715 0.128258 -0.047265 0.304462 0.362117 -0.129320 0.223886 0.479371 -0.023779 -0.503040 0.272038 -0.288647 -0.041707 -0.292978
15 -0.339240 -0.419761 0.109860 -0.414621 0.068007 0.190508 -0.000446 0.170123 0.386995 -0.169444 0.266905 0.450651 -0.048301 -0.442162 0.308552 -0.303110 -0.089042 -0.310975
5 -0.292868 -0.419677 0.057020 -0.377384 0.083750 0.157288 0.027392 0.148698 0.407231 -0.174985 0.271738 0.450927 -0.077743 -0.427996 0.312309 -0.312447 -0.084776 -0.319004
10 -0.263418 -0.452281 0.145257 -0.312200 0.004875 0.185038 0.015329 0.340325 0.414278 -0.080203 0.163966 0.567112 -0.078473 -0.425984 0.306439 -0.244284 -0.071036 -0.270961
9 -0.233151 -0.420605 0.157018 -0.256674 -0.026838 0.140470 0.000304 0.385265 0.382060 -0.020040 0.087263 0.552113 -0.062688 -0.423821 0.283237 -0.232107 -0.082997 -0.240469
17 -0.220428 -0.465176 0.213755 -0.203064 -0.082403 0.132679 0.034180 0.434840 0.394314 0.038614 0.065238 0.609323 -0.067274 -0.353992 0.300721 -0.197498 -0.081136 -0.295955
8 -0.199375 -0.462271 0.222114 -0.202261 -0.080536 0.148394 0.024184 0.429772 0.350654 0.049630 0.019883 0.555472 -0.088582 -0.368548 0.315589 -0.224883 -0.048879 -0.246419
11 -0.276856 -0.470586 0.190359 -0.286718 -0.008293 0.148384 -0.017743 0.395854 0.402137 -0.059280 0.109647 0.572681 -0.080346 -0.416244 0.338999 -0.274769 -0.086123 -0.286008
3 -0.291332 -0.395910 0.152532 -0.339664 0.029607 0.151776 -0.001994 0.290282 0.341650 -0.112236 0.189690 0.459705 -0.072530 -0.500839 0.275802 -0.294520 -0.024839 -0.292973
12 -0.292965 -0.429852 0.118713 -0.368364 -0.009736 0.144785 -0.032695 0.249604 0.343161 -0.077646 0.221500 0.512556 -0.051159 -0.451341 0.296633 -0.253575 -0.085913 -0.259513
