18 18
11 -0.327604 -0.419575 0.306235 -0.039463 -0.177603 -0.111562 0.263078 0.214153 0.402469 -0.003043 0.258787 0.403650 -0.123126 0.025373 0.287257 -0.289892 -0.119119 -0.637911
2 -0.296941 -0.377145 0.285432 -0.059255 -0.191397 -0.071591 0.284693 0.194779 0.288028 0.028830 0.259497 0.426490 -0.087765 0.004347 0.221717 -0.272769 -0.063347 -0.613534
17 -0.339378 -0.354414 0.295261 -0.031986 -0.188045 -0.091041 0.260028 0.181405 0.293284 0.054062 0.292419 0.424697 -0.081920 0.040172 0.179722 -0.217636 -0.012308 -0.648291
0 -0.326925 -0.375991 0.294356 -0.088795 -0.202166 -0.053000 0.243456 0.163711 0.284609 0.036706 0.288153 0.404701 -0.088608 0.018205 0.237546 -0.258857 -0.018100 -0.626174
6 -0.280684 -0.375555 0.275969 -0.008957 -0.170081 -0.081860 0.295062 0.187655 0.327512 0.034548 0.279444 0.388857 -0.108951 0.002754 0.230841 -0.231355 -0.072387 -0.622925
3 -0.366653 -0.376818 0.334289 -0.040936 -0.168046 -0.092792 0.301824 0.178987 0.282662 0.018164 0.322405 0.398800 -0.142439 -0.012895 0.215207 -0.292931 -0.015890 -0.696662
7 -0.273351 -0.384645 0.257532 -0.062131 -0.230167 -0.061129 0.288143 0.182807 0.371052 0.027135 0.243668 0.433247 -0.101812 0.001829 0.278950 -0.254692 -0.074877 -0.655897
9 -0.307511 -0.348969 0.248317 -0.063961 -0.166943 -0.070851 0.243002 0.185026 0.328625 0.018685 0.253592 0.404033 -0.089105 -0.011307 0.210038 -0.245151 -0.068150 -0.560910
14 -0.332097 -0.358065 0.321077 -0.082608 -0.158003 -0.053209 0.229431 0.148423 0.240597 0.064855 0.241673 0.420729 -0.099060 0.023759 0.203242 -0.222768 -0.010387 -0.627955
4 -0.348498 -0.376066 0.309591 -0.042752 -0.174274 -0.106881 0.274230 0.217078 0.345391 0.012361 0.333418 0.454423 -0.096108 0.008223 0.237612 -0.285175 -0.054084 -0.707645
10 -0.309841 -0.387901 0.283095 -0.055801 -0.180824 -0.049379 0.290121 0.171252 0.357668 0.010987 0.276702 0.426087 -0.120066 0.040701 0.232749 -0.231380 -0.062700 -0.618518
16 -0.343183 -0.345620 0.306641 -0.061304 -0.182928 -0.066991 0.267582 0.160816 0.271999 0.046277 0.271463 0.430218 -0.105086 0.045552 0.229287 -0.257805 -0.047943 -0.676830
1 -0.324525 -0.390300 0.298665 -0.076699 -0.173766 -0.090995 0.256465 0.189015 0.334430 0.030991 0.236692 0.388681 -0.078826 0.004970 0.208673 -0.252116 -0.040355 -0.606514
15 -0.357985 -0.405958 0.336063 -0.083993 -0.187538 -0.057314 0.292157 0.155556 0.323381 0.035007 0.291527 0.425004 -0.100383 0.025581 0.245272 -0.266999 -0.075988 -0.679380
8 -0.270935 -0.397310 0.292899 -0.055169 -0.228953 -0.057423 0.298188 0.185061 0.328997 0.062664 0.224932 0.416722 -0.109699 0.016683 0.265936 -0.271488 -0.058709 -0.619857
12 -0.318749 -0.402091 0.289505 -0.068962 -0.205327 -0.100787 0.260543 0.154775 0.333983 0.048264 0.287729 0.435312 -0.110370 0.026781 0.252884 -0.240508 -0.117512 -0.628328
13 -0.263049 -0.393311 0.297193 -0.079542 -0.221922 -0.084132 0.303243 0.163247 0.372777 0.058032 0.220870 0.401759 -0.086790 -0.003738 0.267725 -0.258580 -0.122217 -0.642202
5 -0.353765 -0.441712 0.287861 -0.030181 -0.167145 -0.113134 0.350070 0.179529 0.375587 0.004419 0.356379 0.482711 -0.152644 0.021011 0.263432 -0.318511 -0.064841 -0.748904
