18 18
10 -0.149708 -0.343294 0.216710 -0.040165 -0.069475 0.160386 0.284155 0.437930 0.351959 -0.170744 0.012459 0.483221 -0.289611 -0.240131 0.370767 -0.376038 -0.089781 -0.402559
9 -0.158197 -0.364886 0.152549 -0.072101 -0.062351 0.187819 0.253691 0.435763 0.313540 -0.174608 0.029721 0.523669 -0.303373 -0.330414 0.354056 -0.373614 -0.104139 -0.305584
7 -0.101513 -0.329595 0.227786 -0.034645 -0.156297 0.173859 0.303982 0.409257 0.360072 -0.137933 -0.094933 0.404810 -0.281640 -0.232823 0.472848 -0.405279 -0.126940 -0.452509
2 -0.121777 -0.328516 0.215571 -0.038556 -0.099368 0.133377 0.270997 0.411728 0.290707 -0.147364 -0.040522 0.422204 -0.251866 -0.227588 0.385132 -0.402280 -0.118497 -0.390371
11 -0.144967 -0.320340 0.301207 0.010280 -0.140005 0.086196 0.283495 0.402758 0.376979 -0.120155 -0.126218 0.361411 -0.281099 -0.114037 0.490861 -0.434950 -0.174455 -0.516295
3 -0.161242 -0.315456 0.284826 -0.019608 -0.113587 0.114633 0.305772 0.398255 0.308665 -0.129832 -0.051374 0.380762 -0.296537 -0.226250 0.405513 -0.420778 -0.100226 -0.483349
6 -0.140016 -0.351347 0.216459 -0.021374 -0.074230 0.162643 0.283041 0.431789 0.309272 -0.153983 0.000105 0.448404 -0.296093 -0.271907 0.393282 -0.386947 -0.104220 -0.402304
13 -0.111587 -0.307449 0.299374 -0.027861 -0.149983 0.102023 0.309902 0.371383 0.367012 -0.091418 -0.125683 0.351869 -0.250348 -0.164741 0.470450 -0.422985 -0.187561 -0.513746
4 -0.157745 -0.270983 0.244399 -0.002350 -0.051091 0.075169 0.231745 0.443795 0.339083 -0.153003 0.023760 0.416293 -0.231076 -0.222015 0.357252 -0.393581 -0.083063 -0.472521
16 -0.140308 -0.285486 0.297283 0.002471 -0.135369 0.076867 0.300533 0.380027 0.365819 -0.098073 -0.109918 0.360094 -0.254737 -0.112483 0.462686 -0.422138 -0.172620 -0.546120
0 -0.153332 -0.337211 0.269570 -0.045128 -0.131211 0.129595 0.280162 0.400125 0.344042 -0.132454 -0.034550 0.396714 -0.263359 -0.192652 0.451432 -0.427926 -0.106328 -0.488380
15 -0.160864 -0.329102 0.300930 -0.038549 -0.121088 0.136099 0.303185 0.363240 0.355306 -0.125478 -0.084922 0.367580 -0.258807 -0.144481 0.462278 -0.424737 -0.174631 -0.504055
8 -0.132593 -0.343321 0.259082 -0.013977 -0.127334 0.131049 0.289688 0.409752 0.328233 -0.110923 -0.067129 0.403347 -0.291586 -0.201564 0.434463 -0.413981 -0.099269 -0.442251
1 -0.186084 -0.337617 0.263586 -0.041514 -0.056858 0.067424 0.247622 0.438675 0.360302 -0.136819 -0.006513 0.414725 -0.231673 -0.234302 0.348113 -0.401450 -0.064158 -0.461268
5 -0.150287 -0.343288 0.238687 -0.022897 -0.077889 0.095728 0.302928 0.390877 0.375585 -0.150398 -0.017057 0.432766 -0.282611 -0.193039 0.423616 -0.431652 -0.132373 -0.500157
17 -0.145567 -0.306639 0.303103 0.017368 -0.161189 0.055439 0.304694 0.403990 0.388883 -0.079973 -0.074243 0.386500 -0.236982 -0.120401 0.431549 -0.398502 -0.145871 -0.555525
14 -0.150719 -0.348895 0.209759 -0.074753 -0.049690 0.164493 0.229977 0.393050 0.276681 -0.136989 -0.020129 0.468354 -0.281672 -0.263621 0.352291 -0.346762 -0.084637 -0.340617
12 -0.176338 -0.380299 0.204180 -0.076257 -0.085454 0.151523 0.245866 0.404952 0.302385 -0.141916 0.031555 0.518694 -0.300237 -0.266427 0.382174 -0.363418 -0.128021 -0.363604
