18 18
11 -0.455090 -0.469008 0.216434 -0.271767 0.113731 -0.000574 -0.116573 0.017081 0.426648 -0.233739 0.265320 0.329962 -0.159362 0.174810 0.383899 -0.268804 -0.139808 -0.329888
1 -0.413125 -0.458349 0.230817 -0.299675 0.076948 0.034246 -0.057765 0.080710 0.378622 -0.230512 0.272882 0.287522 -0.103831 0.047241 0.336790 -0.293624 -0.069283 -0.322614
2 -0.426635 -0.507154 0.251792 -0.332842 0.053246 0.113406 -0.012326 0.140041 0.344064 -0.307462 0.364115 0.334313 -0.126267 -0.015841 0.403613 -0.385337 -0.061871 -0.365029
15 -0.468415 -0.494417 0.226419 -0.317805 0.108485 0.081123 -0.045907 0.006180 0.430798 -0.281259 0.333800 0.336694 -0.148826 0.129331 0.397974 -0.308502 -0.128356 -0.375574
4 -0.430417 -0.442601 0.238775 -0.298868 0.090982 0.096248 -0.043538 0.135739 0.362814 -0.327721 0.409149 0.313091 -0.119827 -0.007044 0.392537 -0.362240 -0.051217 -0.403276
5 -0.397002 -0.447338 0.153310 -0.273725 0.118775 0.044900 -0.035838 -0.011574 0.420130 -0.269858 0.311406 0.329183 -0.156513 0.129367 0.369913 -0.291917 -0.121234 -0.348181
0 -0.434796 -0.485070 0.226526 -0.328159 0.053677 0.075547 -0.076789 0.047369 0.378648 -0.246747 0.329158 0.317246 -0.127804 0.074427 0.402884 -0.306615 -0.077194 -0.342904
3 -0.443185 -0.468087 0.262955 -0.306908 0.060137 0.119076 0.007338 0.113567 0.330243 -0.314431 0.392935 0.283483 -0.165170 -0.035911 0.394813 -0.379921 -0.014069 -0.411282
12 -0.476007 -0.495219 0.227623 -0.314961 0.083843 -0.000231 -0.130364 -0.011039 0.375792 -0.200914 0.307221 0.362246 -0.149547 0.155111 0.367456 -0.231582 -0.166230 -0.310367
9 -0.427002 -0.455866 0.185232 -0.296891 0.083034 0.061798 -0.056779 0.048694 0.431494 -0.248592 0.299400 0.338846 -0.132884 0.076854 0.364380 -0.289896 -0.111285 -0.320692
16 -0.416984 -0.425287 0.191600 -0.274818 0.092654 0.035543 -0.047932 -0.017319 0.405046 -0.227871 0.262372 0.325420 -0.155908 0.166376 0.372782 -0.273898 -0.142162 -0.356573
7 -0.419456 -0.500811 0.201307 -0.328467 0.055457 0.088040 -0.055776 0.053990 0.454024 -0.268847 0.306326 0.343459 -0.136708 0.062048 0.425631 -0.303830 -0.097297 -0.358584
10 -0.437484 -0.491040 0.205524 -0.300391 0.098135 0.085352 -0.046391 0.036329 0.440448 -0.278878 0.329702 0.352836 -0.163183 0.127039 0.386192 -0.279741 -0.097966 -0.341595
6 -0.410368 -0.469171 0.240693 -0.277156 0.056139 0.103838 -0.014747 0.108725 0.352888 -0.269235 0.362135 0.294772 -0.142352 -0.000337 0.409702 -0.329465 -0.071448 -0.391892
13 -0.429736 -0.495153 0.242340 -0.339357 0.070324 0.030080 -0.084344 0.002899 0.424475 -0.206120 0.289284 0.325598 -0.129616 0.086024 0.402505 -0.271888 -0.153908 -0.353755
14 -0.454142 -0.500592 0.242910 -0.324867 0.108139 0.049854 -0.096646 0.012507 0.396409 -0.225467 0.266197 0.348771 -0.152414 0.119789 0.380323 -0.269813 -0.108641 -0.332883
8 -0.432408 -0.528570 0.237961 -0.316288 0.048954 0.065230 -0.053521 0.054019 0.427380 -0.221465 0.292806 0.344744 -0.154102 0.085091 0.421109 -0.315102 -0.099052 -0.339923
17 -0.410122 -0.445934 0.195976 -0.251489 0.062745 0.030507 -0.048033 0.036361 0.419646 -0.214725 0.298471 0.343009 -0.127540 0.136125 0.343337 -0.243452 -0.101944 -0.350839
