18 18
9 -0.222890 -0.382309 0.310035 -0.407969 -0.045636 0.154614 0.272427 -0.047947 -0.024871 0.059977 -0.143687 0.345621 -0.298862 -0.194407 0.311130 -0.508739 -0.152647 -0.228282
1 -0.262815 -0.446420 0.381187 -0.442893 -0.037065 0.131836 0.286272 -0.037699 -0.030835 0.067461 -0.148943 0.359039 -0.300821 -0.194269 0.318075 -0.552390 -0.133705 -0.279417
16 -0.219234 -0.370149 0.335311 -0.402428 -0.053955 0.146900 0.292304 -0.065931 -0.053064 0.073113 -0.161881 0.339040 -0.313777 -0.158704 0.330175 -0.518340 -0.157198 -0.272595
2 -0.197665 -0.423907 0.342422 -0.426495 -0.067961 0.163690 0.321193 -0.035543 -0.060171 0.065759 -0.151542 0.389319 -0.287925 -0.199889 0.327192 -0.554693 -0.176098 -0.254141
0 -0.216508 -0.403810 0.335035 -0.435724 -0.071659 0.175308 0.275319 -0.066932 -0.064066 0.065064 -0.122615 0.335719 -0.299582 -0.184914 0.340025 -0.523909 -0.120001 -0.249104
10 -0.213307 -0.410831 0.330119 -0.421667 -0.036596 0.178519 0.312178 -0.060273 -0.024347 0.047747 -0.127491 0.360878 -0.326310 -0.173128 0.314685 -0.502688 -0.140447 -0.238631
11 -0.252141 -0.451775 0.356641 -0.413727 -0.032056 0.130955 0.285157 -0.025313 -0.005985 0.042988 -0.124106 0.385242 -0.330985 -0.174264 0.372911 -0.566180 -0.185729 -0.295202
8 -0.208465 -0.406430 0.354317 -0.404712 -0.074263 0.164093 0.289227 -0.051632 -0.068777 0.088957 -0.145027 0.332212 -0.302369 -0.182488 0.313804 -0.512579 -0.107122 -0.234891
15 -0.240149 -0.412802 0.347545 -0.417489 -0.046791 0.184955 0.297672 -0.075807 -0.047027 0.047599 -0.120115 0.342239 -0.287988 -0.157650 0.312755 -0.508015 -0.157942 -0.252139
6 -0.214063 -0.433478 0.352071 -0.401554 -0.049752 0.159428 0.319369 -0.031832 -0.032335 0.071684 -0.125337 0.376231 -0.324775 -0.209036 0.371920 -0.554405 -0.188011 -0.309030
17 -0.222891 -0.439911 0.351062 -0.403961 -0.084093 0.135708 0.333340 -0.030137 -0.004697 0.088235 -0.120477 0.414094 -0.294007 -0.176136 0.327384 -0.529947 -0.168201 -0.308818
5 -0.204530 -0.411174 0.283174 -0.378194 -0.014693 0.121157 0.293695 -0.060713 0.002118 0.031563 -0.096331 0.357706 -0.309523 -0.169362 0.330282 -0.522577 -0.172437 -0.278028
3 -0.241897 -0.392850 0.374055 -0.423177 -0.038667 0.149987 0.301431 -0.062327 -0.092705 0.063438 -0.141787 0.326821 -0.339510 -0.223063 0.299824 -0.533985 -0.115700 -0.263912
14 -0.208049 -0.356316 0.343416 -0.394858 -0.025466 0.147102 0.239816 -0.071491 -0.083934 0.083793 -0.179411 0.303291 -0.294446 -0.172416 0.270550 -0.435667 -0.099021 -0.212011
12 -0.303295 -0.486777 0.432597 -0.508822 -0.054769 0.120667 0.276348 -0.081989 -0.092866 0.113539 -0.104119 0.433633 -0.341962 -0.215914 0.331667 -0.550913 -0.168187 -0.295895
13 -0.193058 -0.391732 0.358188 -0.438253 -0.060108 0.130571 0.290418 -0.071579 -0.048674 0.103857 -0.161463 0.322706 -0.282724 -0.221308 0.318618 -0.507783 -0.160139 -0.267218
4 -0.304469 -0.457737 0.449121 -0.494349 -0.019602 0.104948 0.273564 -0.027230 -0.069730 0.080889 -0.101186 0.438501 -0.335306 -0.243196 0.342037 -0.608650 -0.141867 -0.348608
7 0.025536 0.002637 -0.024458 -0.006487 -0.021911 0.018456 0.005430 0.006920 0.025711 -0.005710 -0.012468 0.004183 0.006040 -0.027377 0.019628 0.004891 0.006248 -0.002409
