18 18
12 -0.337241 -0.662440 0.231197 -0.393681 -0.271020 0.022243 0.142943 0.032335 0.167293 0.143762 0.139376 0.432731 -0.078837 -0.087744 0.339649 -0.400990 -0.145698 -0.194475
3 -0.222545 -0.579267 0.156793 -0.283891 -0.261385 0.054897 0.260324 0.333140 0.236348 0.042370 0.094534 0.390987 -0.064817 -0.374830 0.275774 -0.630923 0.089781 -0.157147
10 -0.241593 -0.621550 0.158207 -0.314918 -0.264982 0.072593 0.229176 0.226050 0.266006 0.062930 0.130653 0.447998 -0.067904 -0.205199 0.302134 -0.496317 -0.008083 -0.155979
11 -0.343584 -0.681235 0.249900 -0.381574 -0.248315 0.020941 0.159645 0.129528 0.229480 0.089471 0.117953 0.430295 -0.082687 -0.137060 0.377486 -0.509352 -0.112098 -0.229312
0 -0.243146 -0.630642 0.171134 -0.357638 -0.294923 0.080258 0.182990 0.231366 0.213757 0.074928 0.128691 0.406190 -0.034556 -0.247609 0.337500 -0.542392 0.016055 -0.137081
2 -0.132549 -0.579479 0.086655 -0.298677 -0.301774 0.085022 0.245870 0.439276 0.225375 0.039090 0.035176 0.404162 0.011142 -0.467329 0.258831 -0.684295 0.123086 -0.019647
6 -0.192051 -0.538706 0.144786 -0.226976 -0.226895 0.038158 0.242644 0.289913 0.246802 0.042245 0.129430 0.393914 -0.056959 -0.267380 0.288567 -0.527247 0.008733 -0.210221
8 -0.124290 -0.552285 0.093074 -0.261453 -0.285356 0.093468 0.234004 0.416152 0.231391 0.054085 0.022808 0.355820 -0.015513 -0.444552 0.260197 -0.649311 0.161818 -0.019722
1 -0.177201 -0.574517 0.119006 -0.302526 -0.268200 0.058834 0.209050 0.378464 0.241948 0.053728 0.030066 0.358762 0.005151 -0.407612 0.238448 -0.612772 0.128352 -0.043121
4 -0.231784 -0.528380 0.147720 -0.257115 -0.203282 -0.004322 0.211144 0.318466 0.279655 0.015537 0.143440 0.425585 -0.040499 -0.298286 0.284021 -0.598482 0.017076 -0.229556
5 -0.205003 -0.550775 0.096486 -0.242267 -0.187219 -0.006536 0.269023 0.278317 0.296667 0.006244 0.133621 0.441758 -0.077677 -0.294054 0.281371 -0.611679 0.002548 -0.229160
9 -0.102028 -0.484177 0.014106 -0.233516 -0.251142 0.075494 0.232536 0.488279 0.270864 0.007870 0.018443 0.372378 0.011662 -0.530406 0.200504 -0.679178 0.172046 0.026048
17 -0.231223 -0.576135 0.172561 -0.268579 -0.267699 0.018714 0.244730 0.243612 0.265560 0.085213 0.121082 0.429925 -0.049090 -0.221041 0.283548 -0.504304 -0.010137 -0.227137
7 -0.155540 -0.561081 0.083887 -0.296466 -0.286304 0.084430 0.227415 0.338534 0.270746 0.043247 0.053654 0.401242 -0.017961 -0.382039 0.287695 -0.589075 0.076319 -0.085277
16 -0.292508 -0.613101 0.199692 -0.317154 -0.246600 0.007378 0.247719 0.196797 0.265929 0.070931 0.130212 0.464969 -0.089367 -0.185382 0.351920 -0.569239 -0.089027 -0.284005
15 -0.349253 -0.694733 0.264549 -0.420989 -0.259847 0.058727 0.193784 0.080436 0.208957 0.105621 0.131823 0.425220 -0.069289 -0.142574 0.373881 -0.507416 -0.128733 -0.236416
13 -0.318153 -0.674285 0.256949 -0.410644 -0.267116 0.013373 0.198301 0.108417 0.229175 0.125700 0.112245 0.418902 -0.067546 -0.200790 0.368044 -0.531866 -0.116077 -0.253558
14 -0.365892 -0.723862 0.289899 -0.440106 -0.259890 0.031642 0.176660 0.089136 0.206953 0.136654 0.102450 0.467528 -0.091785 -0.156112 0.381770 -0.513938 -0.112438 -0.254884
