18 18
6 -0.087137 -0.473245 0.415455 -0.384110 -0.248216 0.217920 0.176663 -0.051319 0.009500 0.272272 0.010341 0.352689 -0.055239 -0.363760 0.379734 -0.134619 0.107078 -0.611908
14 -0.093398 -0.461051 0.416817 -0.413144 -0.234362 0.213876 0.142976 -0.070080 -0.000413 0.272957 -0.031502 0.351571 -0.053081 -0.344481 0.344761 -0.114288 0.128562 -0.559207
16 -0.095395 -0.497987 0.398874 -0.422441 -0.300336 0.223860 0.226739 -0.092138 0.064963 0.295653 -0.037117 0.410015 -0.054499 -0.299560 0.432783 -0.173022 0.059128 -0.646987
13 -0.059924 -0.486563 0.422929 -0.443680 -0.266274 0.181106 0.159286 -0.095888 0.022038 0.319979 -0.031282 0.356154 -0.030854 -0.379682 0.357942 -0.114198 0.087300 -0.586074
7 -0.059203 -0.462546 0.371414 -0.423482 -0.279047 0.222155 0.159203 -0.067271 0.044834 0.265621 -0.012350 0.363173 -0.029190 -0.377852 0.378169 -0.120351 0.108331 -0.576499
5 -0.075795 -0.498677 0.342151 -0.402509 -0.227566 0.183785 0.196302 -0.107134 0.077027 0.252053 0.000192 0.386500 -0.061662 -0.311105 0.377744 -0.153797 0.068977 -0.591671
0 -0.086625 -0.491410 0.395978 -0.435996 -0.273099 0.221489 0.159044 -0.084679 0.020535 0.274620 0.007970 0.363078 -0.040685 -0.340697 0.384027 -0.140754 0.119525 -0.578588
17 -0.095155 -0.488037 0.391580 -0.391547 -0.288312 0.185563 0.196875 -0.071343 0.073601 0.299566 -0.013845 0.388425 -0.028554 -0.298572 0.352612 -0.115171 0.087639 -0.597284
2 -0.059756 -0.490980 0.387454 -0.429771 -0.273138 0.204365 0.185586 -0.067637 0.021749 0.283390 -0.033189 0.386537 -0.019516 -0.352664 0.363931 -0.148091 0.075723 -0.570593
8 -0.077913 -0.503074 0.400087 -0.401252 -0.283505 0.217997 0.195047 -0.072897 0.038809 0.296127 -0.028226 0.365357 -0.057339 -0.324456 0.389985 -0.152087 0.105777 -0.574383
3 -0.112485 -0.458709 0.444873 -0.410367 -0.248048 0.204594 0.169165 -0.065134 -0.024483 0.266547 0.023875 0.331949 -0.067747 -0.401287 0.346254 -0.147974 0.143980 -0.614104
1 -0.106379 -0.505576 0.390497 -0.434360 -0.238893 0.167021 0.163737 -0.068282 0.081734 0.270951 -0.047086 0.365912 -0.019202 -0.325875 0.352240 -0.150342 0.097339 -0.576320
15 -0.108014 -0.464409 0.377023 -0.406674 -0.246338 0.220823 0.183100 -0.101501 0.046573 0.249166 -0.004101 0.343953 -0.032080 -0.290698 0.364481 -0.139728 0.060018 -0.561150
4 -0.092853 -0.429634 0.412623 -0.398031 -0.222885 0.177893 0.127804 -0.035580 0.010436 0.246750 0.035332 0.353995 -0.019366 -0.366965 0.340034 -0.142440 0.119753 -0.606694
12 -0.099650 -0.492361 0.380920 -0.429629 -0.283914 0.184874 0.135583 -0.108973 0.011698 0.303715 0.011973 0.399330 -0.040104 -0.315618 0.364428 -0.092648 0.061106 -0.546422
11 -0.022755 -0.017997 0.010402 0.008892 0.014438 -0.011029 -0.020096 0.023319 0.018649 -0.022508 -0.004615 0.005927 -0.014992 0.016644 0.025927 -0.023252 -0.010098 -0.005158
10 0.005737 -0.002757 -0.014246 0.006132 0.011972 0.026533 0.015869 -0.001352 0.023172 -0.019827 0.015226 0.016952 -0.017475 0.021206 -0.010712 0.022008 0.009309 0.018390
9 -0.008402 0.003844 -0.023332 -0.006576 0.000593 0.000225 -0.003692 0.013429 0.026437 -0.004111 0.005667 0.021814 0.003016 -0.025362 -0.007905 -0.006482 -0.012628 0.018993
