18 18
15 -0.374634 -0.499340 0.205753 -0.287641 0.013966 0.248591 0.243620 -0.229997 0.343373 -0.004765 0.084533 0.388524 -0.218270 0.132158 0.391799 -0.133083 -0.436660 -0.350733
5 -0.365674 -0.510198 0.149486 -0.255987 0.063617 0.197006 0.244155 -0.210208 0.389627 -0.048225 0.094777 0.424483 -0.258037 0.147696 0.398735 -0.175378 -0.437067 -0.357008
1 -0.381134 -0.531425 0.206147 -0.289433 0.031306 0.206615 0.244698 -0.178313 0.411368 -0.014813 0.049067 0.406475 -0.222663 0.115343 0.391332 -0.162588 -0.410683 -0.364504
14 -0.364992 -0.504025 0.210717 -0.285338 0.033560 0.232543 0.214531 -0.207463 0.343991 0.004297 0.043621 0.406339 -0.241680 0.126298 0.392656 -0.127557 -0.408095 -0.335266
9 -0.368726 -0.483284 0.156159 -0.265900 0.031434 0.215453 0.222987 -0.175154 0.391535 -0.028809 0.076025 0.418331 -0.229505 0.110136 0.379045 -0.154526 -0.431632 -0.316080
17 -0.357425 -0.495698 0.185818 -0.228888 0.002998 0.195584 0.258658 -0.169279 0.400138 0.001498 0.085561 0.427534 -0.221462 0.152496 0.374904 -0.124031 -0.420814 -0.379327
11 -0.407669 -0.532959 0.184128 -0.256511 0.076835 0.201750 0.209723 -0.170112 0.411076 -0.074333 0.073234 0.429743 -0.276304 0.169785 0.434636 -0.198758 -0.449918 -0.351495
10 -0.364344 -0.512995 0.166272 -0.252911 0.056004 0.244632 0.265361 -0.187871 0.427548 -0.057569 0.087366 0.434196 -0.265646 0.166003 0.395470 -0.141372 -0.425398 -0.343922
8 -0.357935 -0.536429 0.205687 -0.273120 -0.000560 0.249937 0.264422 -0.197577 0.388409 0.008831 0.055734 0.412759 -0.252701 0.125942 0.427232 -0.159289 -0.418497 -0.353676
16 -0.364701 -0.483217 0.182673 -0.260543 0.034111 0.215920 0.242094 -0.197694 0.373235 -0.030896 0.054190 0.411019 -0.253592 0.161130 0.416794 -0.169873 -0.446533 -0.362376
7 -0.352910 -0.536873 0.176428 -0.309033 -0.006224 0.274043 0.268679 -0.212495 0.433501 -0.015634 0.053745 0.433134 -0.240052 0.097346 0.449688 -0.146116 -0.447842 -0.372740
12 -0.368849 -0.516868 0.193260 -0.298502 -0.020850 0.234322 0.230890 -0.230261 0.352113 0.023616 0.087362 0.420897 -0.226728 0.123207 0.403643 -0.106373 -0.446693 -0.341658
6 -0.348971 -0.505136 0.188704 -0.238405 0.027182 0.232879 0.258942 -0.177617 0.374528 -0.016952 0.080879 0.396081 -0.242277 0.118199 0.413053 -0.144310 -0.431704 -0.373421
13 -0.328255 -0.482565 0.190982 -0.280115 0.011188 0.216231 0.238575 -0.206965 0.371106 0.006764 0.049989 0.373525 -0.214665 0.099585 0.393621 -0.137028 -0.431786 -0.343934
0 -0.005399 -0.014495 0.001279 -0.026652 -0.021820 0.016369 -0.010898 -0.008016 -0.006711 0.000758 0.022893 0.001004 0.004839 -0.000095 0.023655 -0.011355 0.019530 -0.003746
3 -0.024675 0.005665 0.025365 0.004601 0.007865 -0.001883 0.014761 -0.000233 -0.026227 -0.010111 0.011993 -0.020661 -0.026950 -0.026588 -0.012274 -0.019090 0.026092 -0.020014
2 0.021368 -0.003688 -0.004957 -0.007525 -0.007603 0.001755 0.011077 0.016235 -0.024745 -0.003279 -0.008624 0.014563 0.014594 -0.017313 -0.004715 -0.020484 -0.014205 0.014938
4 -0.000863 0.026536 0.000487 0.011658 0.016931 -0.018308 -0.024615 0.027506 0.003913 -0.015616 0.024595 0.006644 0.019102 -0.007194 -0.007301 -0.006238 0.005807 -0.017039
