18 18
1 -0.374168 -0.627770 0.238584 -0.288925 -0.032962 0.020767 0.038287 0.017222 0.227032 0.056234 0.289351 0.567878 -0.131684 -0.145344 0.331135 -0.138506 -0.295652 -0.411981
17 -0.331337 -0.592555 0.202498 -0.249836 -0.073836 0.037687 0.063340 -0.000323 0.225341 0.074193 0.302857 0.576143 -0.142932 -0.115137 0.330533 -0.104377 -0.287890 -0.403925
14 -0.328662 -0.616442 0.258197 -0.338724 -0.027721 0.115891 0.021940 -0.055695 0.179773 0.075621 0.172888 0.491830 -0.179048 -0.170222 0.399369 -0.147924 -0.247253 -0.361402
13 -0.303517 -0.593912 0.237470 -0.316673 -0.052562 0.068555 0.043461 -0.042604 0.198807 0.085155 0.220981 0.493773 -0.140196 -0.175838 0.369313 -0.140198 -0.290737 -0.374552
5 -0.313159 -0.590286 0.150217 -0.266445 -0.027265 0.052481 0.071172 -0.037197 0.237216 0.024921 0.317747 0.574051 -0.164338 -0.123198 0.362619 -0.144440 -0.312168 -0.400631
0 -0.348407 -0.625109 0.209635 -0.297453 -0.074856 0.060329 0.042993 -0.008395 0.203398 0.056492 0.343632 0.588717 -0.145605 -0.132960 0.375675 -0.139005 -0.294132 -0.416301
15 -0.321830 -0.588395 0.220702 -0.317091 -0.040739 0.146141 0.055657 -0.063674 0.214037 0.037910 0.224613 0.476122 -0.166545 -0.166853 0.416450 -0.153395 -0.287357 -0.381810
3 -0.372446 -0.613238 0.239949 -0.296086 -0.032996 0.076824 0.063748 -0.019755 0.187727 0.034196 0.304579 0.536232 -0.195296 -0.183193 0.367683 -0.161534 -0.277373 -0.425184
4 -0.318178 -0.552016 0.188241 -0.250904 -0.043178 0.043161 0.023445 0.017575 0.206287 0.039104 0.328776 0.568277 -0.128952 -0.139156 0.354760 -0.125671 -0.302380 -0.418166
11 -0.338288 -0.586515 0.221430 -0.275651 -0.030650 0.059529 0.017880 0.001364 0.206659 0.036823 0.238796 0.507810 -0.157526 -0.132291 0.369251 -0.150605 -0.283844 -0.366168
10 -0.329034 -0.613053 0.186490 -0.265257 -0.050412 0.080136 0.070995 -0.004128 0.234662 0.038006 0.345831 0.612289 -0.165146 -0.118437 0.339521 -0.091346 -0.306812 -0.388586
7 -0.269886 -0.573815 0.172759 -0.305253 -0.074306 0.157608 0.051793 -0.035828 0.234121 0.034164 0.229312 0.491154 -0.170239 -0.212188 0.437642 -0.130375 -0.268741 -0.383500
6 -0.294980 -0.583582 0.194658 -0.252038 -0.052479 0.100989 0.060516 -0.005759 0.201552 0.050956 0.287678 0.525664 -0.166708 -0.164731 0.397386 -0.123142 -0.299176 -0.404106
12 -0.358707 -0.601535 0.212576 -0.284211 -0.060750 0.029980 0.030193 -0.031277 0.171251 0.075605 0.318713 0.574566 -0.152688 -0.117402 0.326287 -0.104087 -0.311207 -0.375792
16 -0.321249 -0.576379 0.192487 -0.270537 -0.061801 0.073520 0.068199 -0.018689 0.211691 0.047459 0.289612 0.563642 -0.166622 -0.124878 0.389749 -0.138780 -0.323694 -0.427637
8 -0.319601 -0.622541 0.240867 -0.304464 -0.058865 0.102987 0.054357 -0.031801 0.195429 0.073855 0.210266 0.495610 -0.182121 -0.163677 0.402688 -0.170448 -0.250910 -0.367497
2 -0.335669 -0.637746 0.224097 -0.290896 -0.068107 0.051120 0.064602 0.016750 0.183462 0.061910 0.320512 0.621442 -0.142140 -0.159332 0.359782 -0.145394 -0.335515 -0.417051
9 -0.323924 -0.573710 0.196645 -0.306001 -0.041160 0.089527 0.035211 -0.017521 0.216879 0.052626 0.227787 0.507866 -0.152057 -0.189813 0.361905 -0.150411 -0.280792 -0.344320
