18 18
0 -0.220105 -0.523798 0.132910 -0.245678 -0.111444 0.018032 0.306767 0.237784 0.341468 -0.010803 0.107600 0.461929 -0.205177 -0.368697 0.314219 -0.528526 -0.092767 -0.336842
3 -0.212019 -0.468031 0.123599 -0.183922 -0.065007 0.001411 0.315301 0.266654 0.308043 -0.051111 0.105507 0.416734 -0.227553 -0.398199 0.255102 -0.512142 -0.064009 -0.317933
9 -0.184209 -0.470386 0.065913 -0.191359 -0.069545 -0.002656 0.304816 0.297160 0.375250 -0.050705 0.089994 0.471933 -0.195121 -0.404860 0.255081 -0.516001 -0.101582 -0.272261
5 -0.172970 -0.512700 0.040579 -0.164290 -0.019952 -0.025444 0.339439 0.311417 0.412437 -0.112104 0.104130 0.480284 -0.233711 -0.403622 0.282718 -0.572345 -0.089487 -0.314130
2 -0.145184 -0.468072 0.062494 -0.171955 -0.059267 -0.014701 0.311506 0.333108 0.337779 -0.080721 0.066423 0.459712 -0.185058 -0.409884 0.253377 -0.546560 -0.082297 -0.267029
13 -0.199100 -0.489910 0.165574 -0.265863 -0.120914 0.009818 0.312438 0.179112 0.317850 0.050147 0.049617 0.419954 -0.181869 -0.359936 0.295374 -0.480702 -0.150076 -0.331850
12 -0.224776 -0.513954 0.109820 -0.226381 -0.093002 -0.018362 0.295885 0.252689 0.336350 -0.020960 0.104670 0.494331 -0.212333 -0.377847 0.282407 -0.514188 -0.125869 -0.306814
10 -0.195911 -0.513186 0.078760 -0.190522 -0.053183 0.019226 0.331161 0.306046 0.399638 -0.081289 0.107732 0.493204 -0.235585 -0.389789 0.276189 -0.528966 -0.086642 -0.293556
16 -0.215155 -0.476916 0.148863 -0.232272 -0.107839 0.010960 0.317324 0.205336 0.313068 0.017158 0.056816 0.448476 -0.206313 -0.323866 0.298660 -0.491855 -0.142292 -0.342320
17 -0.196516 -0.477063 0.114440 -0.173874 -0.101556 -0.021944 0.316051 0.278334 0.357683 -0.011190 0.093137 0.474926 -0.184563 -0.348853 0.254448 -0.480518 -0.102909 -0.333100
1 -0.200869 -0.476544 0.101716 -0.186052 -0.041169 -0.041396 0.281406 0.317533 0.368451 -0.066303 0.065474 0.440461 -0.182109 -0.391360 0.243296 -0.530401 -0.056291 -0.299662
7 -0.137000 -0.428903 0.037851 -0.158032 -0.067945 -0.000146 0.282882 0.311396 0.366827 -0.085174 0.071057 0.433447 -0.184778 -0.400449 0.266239 -0.496012 -0.064910 -0.272102
4 -0.204089 -0.502047 0.105941 -0.188820 -0.059669 -0.024404 0.324275 0.359244 0.398416 -0.072046 0.127451 0.526296 -0.207501 -0.439362 0.292808 -0.580993 -0.103658 -0.359325
11 -0.177455 -0.441783 0.046395 -0.116136 -0.009270 -0.037780 0.257445 0.348875 0.376634 -0.135244 0.091443 0.439186 -0.213675 -0.359845 0.266136 -0.535586 -0.075631 -0.273096
8 -0.184065 -0.489339 0.118784 -0.192759 -0.091783 0.009671 0.302395 0.252171 0.327318 -0.011225 0.064292 0.426139 -0.211016 -0.351278 0.288806 -0.504778 -0.078659 -0.289754
6 -0.175644 -0.477548 0.097535 -0.152163 -0.062048 0.004362 0.322477 0.320159 0.350054 -0.055542 0.099861 0.450697 -0.210797 -0.404481 0.281937 -0.519259 -0.095307 -0.324397
14 -0.216739 -0.514520 0.146100 -0.241108 -0.070303 0.010718 0.292421 0.240151 0.326616 -0.004687 0.052646 0.468815 -0.212378 -0.372262 0.280076 -0.500033 -0.091237 -0.311565
15 -0.216025 -0.486692 0.120510 -0.224826 -0.070910 0.022437 0.299791 0.221749 0.331417 -0.037074 0.086354 0.429666 -0.184382 -0.344466 0.270320 -0.491365 -0.119902 -0.301227
