18 18
4 -0.262888 -0.470623 0.321026 -0.348183 -0.120237 0.049441 0.200246 0.055245 0.125139 0.072319 0.150365 0.303825 -0.061202 -0.296074 0.371919 -0.489782 -0.112398 -0.484013
12 -0.315837 -0.547809 0.300459 -0.381099 -0.202672 0.076653 0.209199 -0.053072 0.182271 0.182496 0.129946 0.380847 -0.116048 -0.206614 0.331238 -0.332274 -0.139107 -0.389887
1 -0.307221 -0.555131 0.340090 -0.378845 -0.161914 0.044083 0.236078 0.037060 0.190390 0.123365 0.104659 0.329576 -0.084257 -0.271368 0.347040 -0.448441 -0.090374 -0.453850
8 -0.301930 -0.603752 0.316807 -0.374185 -0.241865 0.101284 0.269708 -0.024728 0.259883 0.210685 0.091936 0.402151 -0.140781 -0.202379 0.352373 -0.345746 -0.098358 -0.390055
2 -0.256993 -0.507877 0.337330 -0.381524 -0.133161 0.059772 0.231846 0.061829 0.066653 0.068049 0.124060 0.302306 -0.058527 -0.336338 0.394570 -0.557676 -0.133511 -0.484017
0 -0.275323 -0.524168 0.295230 -0.367630 -0.197051 0.090604 0.216589 -0.005183 0.177417 0.139113 0.130194 0.329042 -0.101603 -0.223743 0.349449 -0.381135 -0.077262 -0.394258
3 -0.270176 -0.458010 0.327137 -0.339186 -0.122429 0.059282 0.221170 0.032786 0.080232 0.069964 0.133305 0.253240 -0.101110 -0.313667 0.350959 -0.488412 -0.072648 -0.461714
17 -0.287065 -0.552582 0.302364 -0.336841 -0.226537 0.050863 0.264006 0.011637 0.246768 0.182212 0.113763 0.396033 -0.102561 -0.201423 0.312031 -0.344580 -0.101914 -0.422475
16 -0.269360 -0.477013 0.314646 -0.362246 -0.161000 0.092015 0.230942 -0.026713 0.134483 0.122964 0.086254 0.303859 -0.098225 -0.228120 0.370154 -0.415806 -0.136811 -0.442749
13 -0.296740 -0.606048 0.328758 -0.406048 -0.248292 0.082171 0.282138 -0.041320 0.285881 0.222948 0.096702 0.401010 -0.117872 -0.232313 0.352633 -0.348715 -0.134267 -0.421350
9 -0.326003 -0.599133 0.299477 -0.390436 -0.214217 0.069976 0.259429 0.019213 0.268419 0.169925 0.131495 0.422528 -0.123947 -0.271185 0.351889 -0.404435 -0.124255 -0.416743
15 -0.308290 -0.511189 0.357799 -0.408222 -0.143096 0.127507 0.230425 -0.052021 0.108740 0.105253 0.116745 0.293819 -0.080295 -0.260877 0.397736 -0.464178 -0.154027 -0.487477
10 -0.299754 -0.569662 0.309101 -0.379504 -0.189725 0.125947 0.270812 -0.033663 0.246006 0.150451 0.126773 0.391838 -0.137914 -0.208773 0.347756 -0.351758 -0.112434 -0.416669
14 -0.308049 -0.546480 0.354979 -0.412253 -0.166244 0.112313 0.219633 -0.039508 0.148424 0.159553 0.087444 0.345372 -0.112722 -0.259536 0.372643 -0.401046 -0.107973 -0.444451
7 -0.264402 -0.518993 0.327252 -0.401763 -0.172214 0.115422 0.244551 0.004187 0.144121 0.094632 0.110054 0.308884 -0.078259 -0.326257 0.423870 -0.498373 -0.117324 -0.508139
11 -0.283215 -0.528961 0.308386 -0.330459 -0.154559 0.050927 0.212493 0.050630 0.191246 0.096082 0.104829 0.324698 -0.108975 -0.227621 0.360773 -0.425776 -0.104734 -0.411749
6 -0.252897 -0.499654 0.313985 -0.318138 -0.139991 0.069333 0.229723 0.047647 0.126430 0.101311 0.134214 0.294017 -0.096473 -0.289427 0.377433 -0.452022 -0.105020 -0.461926
5 -0.266125 -0.530728 0.296281 -0.363331 -0.121873 0.055045 0.251174 0.016148 0.148867 0.069034 0.154157 0.324166 -0.105144 -0.298198 0.397554 -0.518161 -0.115840 -0.496745
