18 18
0 -0.101081 -0.389996 -0.001678 -0.171069 -0.038569 0.006248 0.260010 0.103068 0.455914 -0.191718 0.236082 0.457850 -0.157660 -0.154256 0.383847 -0.402796 -0.123229 -0.515607
3 -0.128080 -0.370060 0.031488 -0.145667 -0.014392 -0.015671 0.276179 0.114838 0.437320 -0.196409 0.210604 0.424188 -0.179852 -0.174737 0.346706 -0.406453 -0.114509 -0.528394
14 -0.127384 -0.426513 0.034664 -0.185034 -0.013653 0.000024 0.270085 0.092499 0.473348 -0.180947 0.199019 0.487265 -0.179358 -0.148961 0.390341 -0.397481 -0.146486 -0.549347
6 -0.078218 -0.370402 0.008200 -0.105310 -0.003995 0.000516 0.290772 0.170371 0.466073 -0.206048 0.206184 0.438497 -0.175311 -0.194924 0.377436 -0.423088 -0.118242 -0.541250
2 -0.078212 -0.378212 -0.003327 -0.152086 -0.023094 -0.022637 0.283634 0.144787 0.451963 -0.201997 0.190445 0.464040 -0.140858 -0.170300 0.345902 -0.417709 -0.140273 -0.503968
11 -0.135054 -0.392608 0.017534 -0.140666 -0.002976 -0.033091 0.243370 0.134861 0.490072 -0.215035 0.193445 0.448313 -0.173968 -0.130101 0.380574 -0.414365 -0.154447 -0.524461
12 -0.153311 -0.441029 0.016444 -0.195792 -0.049300 -0.028398 0.253074 0.066321 0.475780 -0.166732 0.240103 0.499410 -0.164428 -0.118290 0.384044 -0.371223 -0.193886 -0.528479
17 -0.114028 -0.385823 0.010037 -0.127521 -0.042592 -0.038885 0.288607 0.129417 0.507718 -0.173586 0.208459 0.479697 -0.144232 -0.112553 0.336507 -0.365333 -0.143323 -0.547364
1 -0.141690 -0.413139 0.040508 -0.171333 -0.000256 -0.054587 0.269541 0.147205 0.512772 -0.198118 0.179179 0.455232 -0.146506 -0.162683 0.348382 -0.426609 -0.125978 -0.551294
5 -0.098096 -0.371401 -0.031572 -0.136627 0.005348 -0.030242 0.268758 0.073117 0.471906 -0.200305 0.220037 0.446659 -0.167353 -0.112921 0.343446 -0.377861 -0.152263 -0.501210
16 -0.121831 -0.372656 0.019792 -0.153466 -0.030077 -0.019620 0.280228 0.091939 0.467875 -0.178945 0.185678 0.458169 -0.168246 -0.104045 0.378290 -0.397918 -0.177126 -0.549532
9 -0.118508 -0.371806 -0.011999 -0.152326 -0.013351 -0.018444 0.274628 0.130972 0.498021 -0.198343 0.207941 0.474234 -0.153966 -0.169649 0.340024 -0.401198 -0.153639 -0.508190
10 -0.100542 -0.363082 -0.011064 -0.130628 0.005366 0.000228 0.283650 0.116560 0.496818 -0.213654 0.208291 0.464760 -0.171572 -0.109125 0.327834 -0.365968 -0.128025 -0.497527
7 -0.086813 -0.388889 -0.016615 -0.159944 -0.043304 -0.002249 0.273067 0.138953 0.503958 -0.204319 0.195818 0.467564 -0.159889 -0.191556 0.388067 -0.406134 -0.123380 -0.527353
4 -0.096216 -0.338177 0.001953 -0.126886 0.003549 -0.041164 0.240595 0.150809 0.466611 -0.206471 0.215747 0.441167 -0.132530 -0.152547 0.329817 -0.389091 -0.119707 -0.514282
13 -0.099902 -0.390651 0.013467 -0.180780 -0.034863 -0.016871 0.271344 0.068116 0.476067 -0.167523 0.198305 0.438766 -0.148568 -0.149061 0.372681 -0.380678 -0.178454 -0.524915
8 -0.091318 -0.383302 0.018220 -0.140296 -0.034145 -0.009242 0.259963 0.119329 0.436390 -0.164042 0.180365 0.426280 -0.165058 -0.148262 0.358984 -0.394551 -0.109682 -0.480125
15 -0.150269 -0.435278 0.028135 -0.192493 -0.022497 0.012590 0.290584 0.075838 0.499816 -0.205022 0.229692 0.475894 -0.167798 -0.133091 0.400529 -0.412905 -0.180875 -0.559620
