18 18
9 -0.381914 -0.416970 0.268158 -0.142189 -0.007358 -0.147147 0.128247 0.326925 0.263727 -0.067157 0.245465 0.347366 -0.130917 -0.446976 0.190480 -0.456288 -0.021326 -0.472421
0 -0.367329 -0.428461 0.289608 -0.164167 -0.043255 -0.121726 0.126572 0.303060 0.226967 -0.055215 0.252065 0.310630 -0.119129 -0.425682 0.217459 -0.452365 0.024353 -0.490607
13 -0.365075 -0.429117 0.308075 -0.170404 -0.015546 -0.155471 0.141871 0.278667 0.223947 -0.042247 0.224379 0.311485 -0.130212 -0.451227 0.205807 -0.462509 -0.036342 -0.501402
12 -0.424606 -0.458414 0.286981 -0.154690 -0.000130 -0.173126 0.097806 0.239782 0.174690 -0.058669 0.273576 0.353760 -0.168803 -0.346577 0.178181 -0.421317 -0.035014 -0.447362
2 -0.365121 -0.439719 0.285792 -0.149518 -0.010890 -0.151121 0.142236 0.309901 0.195416 -0.069557 0.245358 0.351156 -0.129470 -0.433338 0.190259 -0.470831 -0.030388 -0.477700
4 -0.354834 -0.359940 0.276735 -0.112459 0.012715 -0.162546 0.097213 0.293102 0.193017 -0.071577 0.252005 0.302375 -0.116246 -0.382024 0.163924 -0.415569 -0.008315 -0.470130
1 -0.356934 -0.426197 0.283181 -0.151077 -0.013760 -0.155969 0.132654 0.311042 0.242953 -0.055404 0.201326 0.299062 -0.101871 -0.416386 0.175104 -0.440105 0.019926 -0.470638
14 -0.398179 -0.439529 0.317595 -0.160577 0.011868 -0.147031 0.104977 0.276459 0.199600 -0.049338 0.208106 0.344263 -0.154370 -0.383167 0.193073 -0.433492 -0.007178 -0.475466
3 -0.394773 -0.399937 0.293554 -0.113155 0.012162 -0.153421 0.132981 0.269626 0.169812 -0.075569 0.246802 0.293332 -0.174466 -0.387107 0.151397 -0.425583 0.027156 -0.467909
17 -0.369153 -0.404951 0.285958 -0.110316 -0.040066 -0.166017 0.136648 0.295726 0.238170 -0.035005 0.243454 0.337710 -0.121483 -0.364470 0.169010 -0.400617 -0.011544 -0.492844
6 -0.365137 -0.434870 0.306008 -0.126093 -0.010873 -0.132815 0.148795 0.333360 0.243689 -0.054088 0.244547 0.321973 -0.134345 -0.456114 0.220116 -0.453546 -0.015453 -0.519672
11 -0.422251 -0.432568 0.285658 -0.119568 0.039783 -0.172239 0.081320 0.281039 0.208868 -0.106527 0.236558 0.325170 -0.179890 -0.316371 0.198879 -0.450102 -0.027220 -0.445051
5 -0.365079 -0.427502 0.244071 -0.126433 0.025647 -0.155655 0.137162 0.240270 0.215949 -0.085799 0.249918 0.325792 -0.164532 -0.347596 0.185222 -0.436574 -0.017422 -0.462483
8 -0.352728 -0.451701 0.295343 -0.140115 -0.046367 -0.133741 0.151314 0.314563 0.235110 -0.035918 0.218240 0.320925 -0.140875 -0.427589 0.221455 -0.466867 0.019134 -0.484504
10 -0.396472 -0.433354 0.273713 -0.128868 0.026684 -0.137647 0.120298 0.279062 0.226118 -0.095714 0.255391 0.350746 -0.174815 -0.337300 0.173768 -0.419287 -0.007344 -0.438901
7 -0.321331 -0.414658 0.235534 -0.139709 -0.037748 -0.118484 0.143395 0.297276 0.245127 -0.073608 0.227928 0.317972 -0.119576 -0.432221 0.203423 -0.421141 0.014662 -0.470891
15 -0.394042 -0.415658 0.305813 -0.155236 0.006236 -0.124913 0.135985 0.248868 0.207140 -0.064742 0.240029 0.312624 -0.139881 -0.371432 0.194253 -0.435994 -0.043613 -0.482758
16 -0.400335 -0.427079 0.308584 -0.143263 -0.013101 -0.163029 0.146309 0.298135 0.229851 -0.058537 0.227823 0.353058 -0.161666 -0.389745 0.219905 -0.476530 -0.039057 -0.527422
