18 18
0 -0.324044 -0.370868 0.351787 -0.214487 0.101837 -0.028022 0.200299 0.111830 -0.075564 -0.185793 0.330416 0.055253 -0.089355 -0.380655 0.143902 -0.505506 0.113099 -0.531932
3 -0.401466 -0.269443 0.412351 -0.158483 0.290912 -0.276296 0.255122 0.246113 -0.221572 -0.326974 0.440723 -0.102122 -0.084973 -0.737667 -0.150016 -0.695502 0.350907 -0.658039
6 -0.255635 -0.607320 0.366971 -0.235889 -0.097037 0.310831 0.273584 0.060964 0.164679 -0.058309 0.235260 0.274099 -0.203327 -0.127699 0.564551 -0.382001 -0.117285 -0.548003
7 -0.207607 -0.609010 0.317031 -0.292152 -0.145511 0.349555 0.269282 0.035088 0.236549 -0.048699 0.182109 0.302329 -0.185559 -0.141037 0.605664 -0.367690 -0.112211 -0.528447
1 -0.377770 -0.294996 0.385777 -0.177358 0.255168 -0.252339 0.215462 0.228951 -0.138706 -0.277638 0.372570 -0.050878 -0.042023 -0.616887 -0.097641 -0.631034 0.272227 -0.603746
15 -0.341065 -0.513408 0.382485 -0.280167 -0.008279 0.204171 0.231627 -0.017082 0.066790 -0.104318 0.253505 0.199703 -0.137871 -0.116175 0.400057 -0.403936 -0.129558 -0.521870
14 -0.220942 -0.499963 0.322041 -0.212425 -0.029184 0.198396 0.212948 0.072950 0.106020 -0.062017 0.183099 0.207706 -0.169182 -0.192233 0.382574 -0.342718 0.014315 -0.457786
10 -0.281568 -0.708142 0.377891 -0.304629 -0.140673 0.423733 0.304311 -0.007129 0.266127 -0.045674 0.236824 0.376038 -0.237737 -0.009275 0.659506 -0.342125 -0.186414 -0.546425
2 -0.330661 -0.318841 0.367916 -0.173977 0.196063 -0.165074 0.236483 0.207252 -0.171586 -0.254763 0.367748 -0.001787 -0.067417 -0.575424 -0.016947 -0.616644 0.209523 -0.577428
13 -0.232766 -0.569434 0.358294 -0.258524 -0.079798 0.260589 0.260857 0.029486 0.160910 -0.049145 0.204335 0.220714 -0.174545 -0.162967 0.492663 -0.366738 -0.089366 -0.513912
17 -0.265890 -0.562926 0.352710 -0.226875 -0.084703 0.217236 0.269757 0.066969 0.167055 -0.055736 0.249546 0.269211 -0.158696 -0.153144 0.437557 -0.367404 -0.063445 -0.546373
12 -0.348934 -0.550284 0.368855 -0.283006 -0.046433 0.184563 0.217038 -0.004960 0.068746 -0.072512 0.286501 0.263657 -0.156225 -0.122007 0.414691 -0.386552 -0.136271 -0.520526
11 -0.251697 -0.626688 0.339953 -0.244863 -0.123796 0.344447 0.230007 0.024235 0.217873 -0.043626 0.185375 0.303275 -0.215585 -0.013399 0.610205 -0.325699 -0.161294 -0.475665
5 -0.329556 -0.376355 0.332761 -0.185384 0.182387 -0.110903 0.254864 0.140566 -0.055543 -0.242186 0.369359 0.048491 -0.109361 -0.480466 0.073405 -0.577103 0.158395 -0.595216
4 -0.390973 -0.317781 0.407164 -0.175862 0.266169 -0.226215 0.228578 0.264989 -0.151485 -0.317035 0.445805 -0.014464 -0.062775 -0.670668 -0.042442 -0.696241 0.276727 -0.682920
16 -0.344847 -0.432991 0.375331 -0.254407 0.034562 0.079577 0.234071 0.038982 -0.002256 -0.135960 0.270692 0.167305 -0.129518 -0.218464 0.304586 -0.478609 -0.066712 -0.566157
9 -0.267472 -0.629288 0.337006 -0.289496 -0.114138 0.327769 0.268614 0.044255 0.237021 -0.055625 0.223651 0.328429 -0.193621 -0.133642 0.573645 -0.388638 -0.139654 -0.523944
8 -0.225678 -0.648931 0.361368 -0.270305 -0.142785 0.337466 0.294586 0.070056 0.217562 -0.034668 0.200746 0.303238 -0.211181 -0.160536 0.609546 -0.419084 -0.074167 -0.553035
