18 18
17 -0.408339 -0.526735 0.340921 -0.416418 -0.086144 -0.073132 0.118347 0.177784 0.413280 -0.000092 -0.022037 0.553973 -0.049690 -0.166793 0.176125 -0.292684 -0.045173 -0.451834
0 -0.426427 -0.502476 0.326635 -0.472416 -0.105867 -0.060699 0.055637 0.153394 0.334857 -0.016753 0.019005 0.456599 -0.047659 -0.227457 0.187594 -0.309376 -0.022596 -0.363369
10 -0.406870 -0.523546 0.331159 -0.445454 -0.048488 -0.036657 0.100155 0.160823 0.397224 -0.036221 -0.015965 0.533607 -0.073038 -0.179920 0.178528 -0.293293 -0.035827 -0.400118
11 -0.452502 -0.510304 0.352732 -0.421023 -0.007944 -0.095900 0.016097 0.201494 0.378323 -0.057866 -0.025766 0.482747 -0.061536 -0.179457 0.181573 -0.317774 -0.027558 -0.393895
3 -0.443933 -0.447485 0.335704 -0.417508 -0.052907 -0.079048 0.040884 0.140111 0.263155 -0.030104 0.016764 0.374455 -0.087190 -0.248628 0.129477 -0.289766 -0.003452 -0.325061
12 -0.493681 -0.528997 0.356831 -0.482494 -0.072575 -0.101351 0.012327 0.129519 0.313113 -0.002583 0.024950 0.467521 -0.072372 -0.215638 0.153702 -0.274943 -0.050227 -0.343183
5 -0.413784 -0.555603 0.326923 -0.453697 -0.037914 -0.070393 0.114179 0.147898 0.418900 -0.039052 -0.007724 0.558133 -0.074192 -0.184877 0.207789 -0.344127 -0.054976 -0.459394
16 -0.384751 -0.476911 0.317986 -0.399061 -0.061681 -0.049245 0.115235 0.138034 0.372004 -0.014750 -0.041297 0.506547 -0.068505 -0.130998 0.204070 -0.304750 -0.068197 -0.436969
8 -0.389136 -0.529805 0.333992 -0.420102 -0.088315 -0.042436 0.113145 0.157067 0.367745 0.000685 -0.031755 0.502826 -0.076103 -0.183438 0.209414 -0.322729 -0.036009 -0.403051
15 -0.406857 -0.518385 0.345598 -0.433663 -0.041941 -0.014945 0.118749 0.143571 0.394355 -0.039568 -0.021235 0.526464 -0.052599 -0.150702 0.210168 -0.321031 -0.057737 -0.453706
14 -0.448305 -0.529929 0.393857 -0.472997 0.010805 -0.072016 0.011059 0.172238 0.357288 -0.016714 -0.053776 0.522342 -0.049277 -0.197732 0.153539 -0.280572 0.006655 -0.408508
13 -0.406202 -0.498838 0.348947 -0.478393 -0.093410 -0.085874 0.066655 0.141986 0.339770 0.010123 -0.019453 0.448045 -0.038104 -0.257825 0.169305 -0.299444 -0.056693 -0.374759
9 -0.445589 -0.493619 0.309246 -0.462472 -0.075957 -0.079096 0.044342 0.171491 0.357548 -0.021732 0.003958 0.473775 -0.051325 -0.257494 0.153582 -0.306321 -0.052073 -0.329346
2 -0.365750 -0.482956 0.312767 -0.432269 -0.081617 -0.063784 0.084819 0.168408 0.300487 -0.013710 -0.021497 0.469707 -0.034349 -0.227713 0.155981 -0.309297 -0.051203 -0.343123
7 -0.425312 -0.505487 0.326978 -0.458436 -0.072722 -0.062527 0.051593 0.163964 0.372424 -0.028716 -0.023341 0.479255 -0.054546 -0.227293 0.186990 -0.292545 -0.026709 -0.388708
4 -0.426837 -0.492862 0.370189 -0.432158 0.005662 -0.093266 0.029079 0.216929 0.392215 -0.046385 -0.014377 0.538167 -0.022648 -0.194266 0.157459 -0.307427 -0.007144 -0.452825
1 -0.491388 -0.510726 0.367084 -0.462120 -0.035896 -0.125398 0.010359 0.170832 0.329063 -0.024881 -0.009303 0.400308 -0.049329 -0.246388 0.119877 -0.299146 -0.004774 -0.337537
6 0.007299 -0.006988 0.006429 0.025394 0.003018 0.008962 0.013628 0.017139 -0.003415 0.002961 0.009307 -0.005691 -0.008572 -0.012634 0.015137 0.000585 -0.007433 -0.019036
