18 18
17 -0.312450 -0.545403 0.420586 -0.300269 -0.322398 0.041549 0.258562 0.028875 0.060510 0.262487 0.077492 0.390646 -0.132313 -0.271000 0.314167 -0.339443 -0.192231 -0.419028
1 -0.317094 -0.535831 0.422205 -0.334900 -0.264365 0.032781 0.216969 0.025513 0.039835 0.230952 0.029150 0.324100 -0.116774 -0.283883 0.316420 -0.372632 -0.181948 -0.380417
7 -0.285157 -0.552578 0.398084 -0.342306 -0.321846 0.078008 0.245565 0.026179 0.057722 0.240779 0.029629 0.369180 -0.140721 -0.326286 0.383233 -0.384066 -0.209594 -0.401642
11 -0.310846 -0.544327 0.399123 -0.310057 -0.282433 0.068114 0.209799 0.021320 0.041389 0.208120 0.055620 0.355325 -0.164373 -0.248836 0.390690 -0.394747 -0.235818 -0.369440
15 -0.290849 -0.479310 0.371897 -0.305720 -0.252571 0.096608 0.216822 -0.029118 0.007010 0.194077 0.076006 0.298561 -0.139417 -0.244256 0.318637 -0.335510 -0.191731 -0.335658
12 -0.333016 -0.527840 0.382419 -0.338625 -0.284682 0.052733 0.196958 -0.043328 -0.008712 0.240295 0.114443 0.368400 -0.158604 -0.260992 0.321452 -0.334718 -0.215437 -0.342196
2 -0.270140 -0.513237 0.381156 -0.314858 -0.290157 0.071196 0.243534 0.016263 -0.001928 0.223484 0.056211 0.355223 -0.127211 -0.283280 0.320303 -0.368404 -0.212324 -0.350132
8 -0.311666 -0.546399 0.417822 -0.317289 -0.302965 0.073721 0.232432 0.003761 0.015942 0.250545 0.064478 0.347068 -0.168810 -0.281176 0.352737 -0.373480 -0.170952 -0.363382
13 -0.252929 -0.491935 0.383191 -0.324932 -0.293473 0.071799 0.236845 -0.024486 0.025050 0.240384 0.041163 0.306099 -0.131234 -0.286844 0.353763 -0.358993 -0.228608 -0.371783
16 -0.293372 -0.503859 0.400377 -0.310549 -0.291181 0.069206 0.235846 0.002295 0.016768 0.232363 0.032813 0.345620 -0.150308 -0.242356 0.371408 -0.378508 -0.236830 -0.393173
14 -0.342146 -0.557977 0.444738 -0.340354 -0.276818 0.051560 0.212109 0.023154 0.024631 0.257606 0.038989 0.393544 -0.148055 -0.293002 0.297899 -0.328322 -0.156870 -0.368379
9 -0.322331 -0.530948 0.383152 -0.324630 -0.293094 0.056033 0.230118 0.028124 0.060849 0.235469 0.066925 0.388709 -0.141891 -0.307460 0.302728 -0.344143 -0.194694 -0.346123
10 -0.287774 -0.504810 0.371318 -0.301300 -0.271185 0.088583 0.244240 0.001275 0.055034 0.206145 0.085488 0.360771 -0.158729 -0.251798 0.305197 -0.317239 -0.176558 -0.347060
3 -0.332802 -0.508885 0.415567 -0.311424 -0.280735 0.056504 0.236440 -0.006556 -0.002756 0.221534 0.092840 0.332702 -0.177273 -0.299241 0.310109 -0.362538 -0.164274 -0.386096
0 -0.303673 -0.527867 0.389279 -0.351327 -0.306387 0.088320 0.211839 -0.029820 0.004314 0.227081 0.094522 0.334720 -0.149692 -0.268331 0.373292 -0.376044 -0.188424 -0.365185
5 -0.284244 -0.529016 0.355635 -0.311241 -0.258996 0.054911 0.244066 -0.021229 0.054749 0.205528 0.081790 0.360251 -0.158564 -0.259565 0.344693 -0.369825 -0.211467 -0.385035
6 -0.264117 -0.488109 0.374283 -0.261784 -0.263500 0.071863 0.229290 0.028001 0.019968 0.215827 0.057807 0.310222 -0.143986 -0.267156 0.335463 -0.343333 -0.198755 -0.370598
4 -0.365935 -0.583143 0.468611 -0.356259 -0.308915 0.046099 0.229105 0.039140 0.039298 0.254290 0.105867 0.416179 -0.145366 -0.326336 0.359669 -0.406961 -0.204951 -0.439934
