18 18
10 -0.257350 -0.500674 0.280389 -0.191279 -0.195614 0.049976 0.336146 -0.022568 0.394978 0.148411 0.295690 0.548441 -0.112362 0.036578 0.282027 -0.170470 -0.152363 -0.642259
1 -0.298770 -0.520175 0.329744 -0.163241 -0.154430 -0.035039 0.298122 0.086511 0.361680 0.139860 0.214783 0.481712 -0.093433 -0.016968 0.216131 -0.216948 -0.020517 -0.581355
14 -0.274273 -0.495114 0.322946 -0.181413 -0.111874 0.051263 0.300109 -0.052268 0.276022 0.139349 0.158517 0.408747 -0.169977 -0.005230 0.226029 -0.155508 -0.005550 -0.521571
12 -0.264043 -0.507918 0.270565 -0.293225 -0.200777 0.104849 0.308252 -0.268204 0.284940 0.190457 0.266472 0.455998 -0.136293 0.063264 0.311321 -0.099994 -0.258157 -0.583870
3 -0.293693 -0.489717 0.327355 -0.195331 -0.133141 0.048837 0.341964 -0.079388 0.284429 0.125843 0.216640 0.405927 -0.178503 -0.025712 0.233963 -0.188377 -0.040497 -0.579337
5 -0.251101 -0.513442 0.256640 -0.233782 -0.136268 0.074237 0.345019 -0.185075 0.323359 0.128894 0.242361 0.436705 -0.165704 0.025809 0.278311 -0.158979 -0.144182 -0.579062
16 -0.282294 -0.505685 0.314138 -0.178615 -0.204272 -0.000333 0.335700 0.021674 0.370356 0.169137 0.239161 0.528137 -0.112116 0.020301 0.279058 -0.218775 -0.104507 -0.651291
15 -0.269850 -0.480049 0.289384 -0.271741 -0.148860 0.145820 0.342506 -0.252791 0.293724 0.142567 0.230430 0.404179 -0.150890 0.049720 0.293212 -0.120320 -0.203527 -0.582471
9 -0.274620 -0.484115 0.273308 -0.129932 -0.201615 -0.046068 0.272917 0.168575 0.412990 0.153345 0.281987 0.581981 -0.058823 -0.034248 0.238793 -0.229481 -0.061946 -0.612661
17 -0.267424 -0.483064 0.301687 -0.120461 -0.230382 -0.053916 0.291739 0.130761 0.389259 0.187484 0.270539 0.553678 -0.048750 0.009514 0.223949 -0.189252 -0.065703 -0.632629
8 -0.280866 -0.540077 0.333907 -0.159655 -0.188948 0.009124 0.334374 0.036752 0.345683 0.173200 0.208652 0.483683 -0.139608 -0.009611 0.262554 -0.221325 -0.025663 -0.596671
6 -0.268461 -0.512386 0.308851 -0.114366 -0.199387 -0.023909 0.306553 0.130804 0.387710 0.167132 0.280822 0.552765 -0.086091 -0.009817 0.281460 -0.226010 -0.098063 -0.661857
11 -0.306094 -0.539470 0.324832 -0.136103 -0.183482 -0.038481 0.285296 0.141407 0.406266 0.133202 0.264589 0.561747 -0.101323 0.009873 0.282354 -0.248200 -0.070527 -0.640297
0 -0.255652 -0.476592 0.283976 -0.177591 -0.223740 0.003598 0.262255 0.059724 0.349974 0.164196 0.290839 0.520696 -0.055623 0.012406 0.270001 -0.192372 -0.071816 -0.605365
2 -0.255853 -0.513058 0.300121 -0.154516 -0.193801 -0.021302 0.313954 0.102939 0.347701 0.150925 0.245066 0.542201 -0.081091 -0.023665 0.243550 -0.235316 -0.082680 -0.604011
7 -0.244196 -0.485013 0.278043 -0.169123 -0.179101 0.041978 0.320728 0.006710 0.354472 0.133913 0.206753 0.461372 -0.124273 -0.026975 0.258895 -0.175932 -0.040141 -0.568278
13 -0.233957 -0.491273 0.291182 -0.263849 -0.190214 0.079431 0.338238 -0.170312 0.344549 0.181269 0.233580 0.456716 -0.118408 0.008969 0.312996 -0.158579 -0.203562 -0.633693
4 -0.257708 -0.454210 0.287488 -0.151041 -0.182154 -0.021230 0.259177 0.074342 0.358587 0.145694 0.294386 0.536203 -0.054909 0.007145 0.249082 -0.188743 -0.094952 -0.624231
