18 18
1 -0.345190 -0.432853 0.383161 -0.341930 -0.227161 0.050694 0.056594 0.114543 0.348067 0.216541 0.314129 0.475434 0.015231 -0.277273 0.182152 -0.029694 0.010523 -0.476814
12 -0.350703 -0.438343 0.369105 -0.349690 -0.252241 0.048575 0.038880 0.065309 0.294856 0.249091 0.338158 0.509921 0.001837 -0.253736 0.187162 0.004797 -0.048910 -0.446344
0 -0.322004 -0.418419 0.366102 -0.352625 -0.270261 0.098958 0.063714 0.098110 0.331854 0.221947 0.370875 0.496967 0.003619 -0.293982 0.219205 -0.022445 0.018834 -0.491874
7 -0.276176 -0.395024 0.339282 -0.321641 -0.294350 0.166226 0.149401 0.126114 0.394044 0.213936 0.332254 0.509102 -0.060383 -0.367454 0.253809 -0.026434 0.045929 -0.521194
4 -0.337990 -0.393244 0.384450 -0.320656 -0.226722 0.071035 0.050100 0.125508 0.340847 0.209614 0.382632 0.505433 0.003444 -0.303121 0.201207 -0.020211 -0.006052 -0.516355
13 -0.294604 -0.397946 0.370216 -0.351202 -0.247027 0.062150 0.064829 0.066907 0.322419 0.247893 0.302187 0.456818 0.021272 -0.292820 0.195850 -0.013456 -0.034243 -0.467252
8 -0.313139 -0.433352 0.381912 -0.319163 -0.268035 0.102281 0.102799 0.097390 0.321802 0.241868 0.307236 0.483108 -0.041519 -0.284340 0.227444 -0.040832 0.013749 -0.475539
16 -0.330077 -0.416752 0.396713 -0.341952 -0.275993 0.122327 0.137078 0.095285 0.351218 0.235504 0.325408 0.531687 -0.052826 -0.296973 0.245394 -0.042067 -0.014269 -0.547522
15 -0.336093 -0.407871 0.371502 -0.337811 -0.219618 0.107734 0.089330 0.051246 0.287899 0.198508 0.312874 0.453319 -0.009391 -0.251545 0.198228 -0.030370 -0.041952 -0.460762
10 -0.288451 -0.383479 0.339277 -0.303266 -0.234250 0.141306 0.123468 0.100760 0.353068 0.188465 0.339803 0.487784 -0.050705 -0.283737 0.196592 -0.002317 0.027465 -0.465332
14 -0.319921 -0.405818 0.386799 -0.338961 -0.217769 0.099790 0.069110 0.081970 0.300731 0.226639 0.289747 0.475694 -0.032937 -0.290321 0.193308 -0.013489 0.019237 -0.462380
17 -0.317054 -0.407840 0.367411 -0.308060 -0.266563 0.063643 0.087543 0.108174 0.350776 0.238479 0.332365 0.504046 0.006255 -0.269059 0.183470 0.003435 -0.003463 -0.500870
6 -0.301251 -0.397696 0.369136 -0.293301 -0.228095 0.094533 0.097439 0.102878 0.306404 0.217258 0.324785 0.460713 -0.020712 -0.286137 0.207810 -0.021520 -0.023243 -0.485744
3 -0.306598 -0.353751 0.363589 -0.281989 -0.210602 0.110949 0.130086 0.085330 0.267200 0.176565 0.293737 0.412502 -0.080499 -0.300685 0.184057 -0.054418 0.034791 -0.468486
2 -0.302502 -0.421301 0.369227 -0.345461 -0.253440 0.080264 0.088347 0.100059 0.291751 0.226059 0.307272 0.504449 0.016604 -0.289053 0.190076 -0.036114 -0.037739 -0.459314
11 -0.360194 -0.450793 0.395469 -0.336296 -0.237410 0.066531 0.040303 0.126241 0.357419 0.204186 0.341844 0.511226 -0.014498 -0.272126 0.239668 -0.044116 -0.021692 -0.501806
9 -0.327658 -0.398336 0.348934 -0.324189 -0.244534 0.100737 0.094455 0.114197 0.355189 0.213134 0.339347 0.512880 -0.029603 -0.314956 0.200954 -0.031541 -0.013213 -0.472404
5 0.004065 -0.024114 -0.027650 -0.000619 0.020703 -0.008521 0.024223 -0.023969 0.025914 -0.018771 0.021210 0.020548 -0.020024 0.006829 0.014933 -0.023795 -0.013973 -0.021943
