18 18
0 -0.351926 -0.572668 0.142772 -0.186928 -0.061087 0.076699 0.227116 0.146832 0.358245 -0.096844 0.330955 0.514494 -0.291462 -0.073753 0.347229 -0.434992 -0.014304 -0.349796
2 -0.321698 -0.541228 0.152873 -0.171098 -0.032521 0.045380 0.240783 0.165669 0.295508 -0.101946 0.279856 0.499270 -0.265291 -0.109731 0.304520 -0.453122 -0.052337 -0.340899
4 -0.325239 -0.491641 0.110716 -0.131838 -0.012682 0.055037 0.211750 0.166409 0.371159 -0.126249 0.332521 0.503963 -0.266045 -0.077841 0.299528 -0.400690 -0.038387 -0.342692
10 -0.341610 -0.569026 0.091168 -0.143676 -0.036035 0.119027 0.254704 0.130333 0.449513 -0.112690 0.326645 0.541540 -0.319587 -0.017629 0.326171 -0.369591 -0.024640 -0.310865
8 -0.337630 -0.564083 0.122677 -0.149933 -0.066714 0.103613 0.240390 0.116098 0.393962 -0.067719 0.297971 0.505558 -0.313168 -0.034177 0.337046 -0.379474 -0.018129 -0.306775
9 -0.373619 -0.565233 0.081643 -0.167805 -0.062584 0.123648 0.227936 0.131909 0.467037 -0.097284 0.334266 0.558305 -0.310343 -0.051207 0.336342 -0.378829 -0.045003 -0.286004
6 -0.325133 -0.548721 0.115421 -0.120922 -0.027784 0.084009 0.255478 0.162849 0.384642 -0.108602 0.314853 0.504050 -0.299950 -0.078440 0.331804 -0.404793 -0.049859 -0.350103
1 -0.372163 -0.582601 0.165762 -0.180948 -0.028076 0.036914 0.231280 0.166323 0.381540 -0.094104 0.292549 0.506183 -0.276324 -0.085783 0.310312 -0.438207 -0.018863 -0.358203
17 -0.330587 -0.537082 0.105625 -0.126924 -0.073526 0.075014 0.235932 0.125581 0.412989 -0.058893 0.294824 0.509169 -0.273804 -0.018792 0.289105 -0.329710 -0.031507 -0.310836
15 -0.354606 -0.542597 0.118426 -0.168876 -0.044270 0.121884 0.231710 0.084470 0.396159 -0.094128 0.315440 0.506953 -0.292457 -0.024481 0.336159 -0.371344 -0.059616 -0.324296
16 -0.329806 -0.507321 0.135818 -0.151995 -0.041617 0.063197 0.231884 0.132950 0.343095 -0.089070 0.273350 0.493991 -0.287455 -0.046458 0.323546 -0.406929 -0.053899 -0.347176
5 -0.304018 -0.522312 0.083790 -0.141848 -0.008786 0.058633 0.246778 0.100651 0.373242 -0.113935 0.304053 0.487850 -0.288449 -0.054864 0.309501 -0.398636 -0.057704 -0.336349
14 -0.335464 -0.533794 0.156473 -0.171573 -0.024520 0.079442 0.200437 0.118575 0.324088 -0.068354 0.250693 0.484167 -0.287780 -0.066822 0.301819 -0.370677 -0.011303 -0.314643
12 -0.355884 -0.549890 0.115653 -0.165865 -0.056280 0.072052 0.207838 0.102277 0.362280 -0.073965 0.324141 0.521411 -0.291190 -0.036417 0.311824 -0.355646 -0.060352 -0.307763
3 -0.357011 -0.506414 0.162763 -0.148965 -0.017003 0.056424 0.240919 0.150129 0.310811 -0.115322 0.302105 0.467922 -0.304704 -0.108448 0.291502 -0.434825 -0.013453 -0.357528
13 -0.325772 -0.539943 0.142482 -0.174703 -0.048615 0.066909 0.231976 0.120462 0.368981 -0.072691 0.284822 0.482128 -0.275026 -0.085328 0.323005 -0.399145 -0.056414 -0.337679
11 -0.344751 -0.527782 0.119862 -0.133312 -0.026000 0.066160 0.198602 0.155052 0.384298 -0.115828 0.285138 0.487548 -0.293972 -0.036826 0.324737 -0.393510 -0.041715 -0.308194
7 -0.293255 -0.512569 0.086741 -0.148346 -0.050998 0.084389 0.232728 0.137993 0.388187 -0.106572 0.279244 0.483227 -0.267040 -0.086547 0.319357 -0.377872 -0.037190 -0.323288
