18 18
1 -0.363570 -0.456860 0.162203 -0.161991 0.051120 0.028717 0.280271 0.221761 0.395862 -0.205649 0.264132 0.471611 -0.262472 -0.301268 0.249435 -0.429006 -0.115797 -0.449470
14 -0.375861 -0.442770 0.228840 -0.215964 0.042349 0.095447 0.213942 0.080009 0.298103 -0.099434 0.167079 0.426632 -0.301322 -0.228826 0.297769 -0.360615 -0.122842 -0.416055
11 -0.370753 -0.436588 0.176674 -0.158787 0.056948 0.053452 0.232809 0.168995 0.360167 -0.192525 0.240940 0.446109 -0.293444 -0.240965 0.295537 -0.410583 -0.142651 -0.431165
7 -0.323758 -0.453760 0.130297 -0.232558 -0.027680 0.140750 0.266065 0.130893 0.398318 -0.152799 0.184455 0.453105 -0.260615 -0.291823 0.310976 -0.368792 -0.120438 -0.370017
12 -0.383718 -0.452832 0.174095 -0.196253 0.023940 0.067254 0.229589 0.103355 0.325881 -0.136199 0.259641 0.472138 -0.284951 -0.230276 0.284547 -0.358933 -0.173731 -0.409383
2 -0.325395 -0.433396 0.136656 -0.148281 0.050566 0.043610 0.288216 0.213074 0.352476 -0.214953 0.279347 0.496850 -0.271349 -0.301202 0.261462 -0.435378 -0.157446 -0.447756
3 -0.371347 -0.409759 0.173547 -0.110162 0.089769 0.018742 0.291387 0.201211 0.336717 -0.229965 0.332322 0.460761 -0.318996 -0.310999 0.247109 -0.442606 -0.124609 -0.512977
4 -0.342856 -0.383563 0.149922 -0.096780 0.106519 -0.001630 0.250804 0.230635 0.366911 -0.235665 0.337793 0.480291 -0.267769 -0.276662 0.241481 -0.421568 -0.137796 -0.508738
10 -0.361614 -0.460255 0.167538 -0.194920 0.031890 0.119248 0.291427 0.140110 0.386259 -0.176010 0.237301 0.483900 -0.314918 -0.260736 0.289776 -0.392452 -0.127178 -0.412813
15 -0.368707 -0.440982 0.197957 -0.230764 0.020206 0.125728 0.247112 0.074474 0.324824 -0.131440 0.196580 0.418459 -0.268125 -0.233717 0.300144 -0.378764 -0.147509 -0.399041
0 -0.335367 -0.416443 0.166039 -0.173248 0.026961 0.071637 0.232223 0.142738 0.312480 -0.163590 0.265489 0.420706 -0.264584 -0.247761 0.280111 -0.384593 -0.106103 -0.418665
8 -0.355010 -0.469853 0.202050 -0.221458 -0.028819 0.125005 0.267405 0.098811 0.338476 -0.089862 0.166048 0.440316 -0.302854 -0.255523 0.328654 -0.401442 -0.123785 -0.386691
13 -0.373124 -0.454746 0.221184 -0.211061 0.043086 0.067816 0.267395 0.105143 0.347640 -0.133132 0.240062 0.456294 -0.302974 -0.280976 0.316991 -0.423837 -0.178265 -0.486115
17 -0.358763 -0.446529 0.163848 -0.165184 0.002273 0.061161 0.282786 0.171122 0.397055 -0.152102 0.257648 0.491544 -0.264089 -0.257385 0.268725 -0.377742 -0.141520 -0.456658
6 -0.335745 -0.399676 0.178873 -0.095069 0.089994 0.027822 0.255793 0.160930 0.308857 -0.170436 0.287908 0.432820 -0.294034 -0.245244 0.275261 -0.391003 -0.173948 -0.490059
16 -0.352812 -0.411574 0.203751 -0.210454 0.007176 0.094940 0.247568 0.067390 0.298503 -0.100276 0.172221 0.431655 -0.297987 -0.211907 0.326784 -0.393460 -0.176802 -0.428479
9 -0.352550 -0.448658 0.151621 -0.271387 -0.046142 0.153747 0.250274 0.079085 0.372350 -0.088952 0.141687 0.448591 -0.261819 -0.278017 0.302664 -0.362858 -0.138691 -0.322204
5 -0.316876 -0.404092 0.115998 -0.116010 0.096952 0.016601 0.270842 0.141359 0.353494 -0.205188 0.295710 0.460839 -0.287971 -0.237544 0.258627 -0.402342 -0.162624 -0.476823
