18 18
10 -0.074811 -0.403936 0.287100 -0.291271 -0.075916 0.204976 0.358545 0.036733 0.184325 -0.078073 -0.015339 0.305799 -0.251013 -0.154381 0.436998 -0.509530 0.015506 -0.478150
5 -0.084109 -0.396457 0.286908 -0.283075 -0.067770 0.152869 0.355638 0.016010 0.158421 -0.078526 -0.003926 0.298560 -0.249469 -0.169962 0.477596 -0.574597 -0.023031 -0.556617
16 -0.104670 -0.305637 0.320004 -0.244890 -0.075580 0.150707 0.312790 0.032893 0.104075 -0.055561 -0.024664 0.262854 -0.234950 -0.134336 0.452470 -0.522545 -0.029247 -0.543254
13 -0.099328 -0.350505 0.356800 -0.282432 -0.083963 0.134988 0.325447 0.036869 0.132710 -0.037877 -0.027176 0.253263 -0.215094 -0.191938 0.449433 -0.544401 -0.018758 -0.573452
2 -0.064112 -0.371359 0.307023 -0.283168 -0.099656 0.155322 0.332799 0.055356 0.113303 -0.048317 -0.035305 0.286572 -0.205713 -0.188572 0.437961 -0.546245 -0.018910 -0.501621
0 -0.099772 -0.349906 0.304279 -0.290418 -0.092406 0.173204 0.290420 0.025058 0.099387 -0.058977 0.009281 0.266347 -0.214280 -0.164161 0.464932 -0.534976 0.010861 -0.521795
14 -0.108166 -0.385653 0.351849 -0.303640 -0.064243 0.172177 0.313515 0.038610 0.113394 -0.046706 -0.047095 0.290088 -0.239530 -0.188405 0.451396 -0.542929 0.018283 -0.539331
11 -0.127512 -0.378762 0.333147 -0.264622 -0.062255 0.151564 0.300107 0.054556 0.144192 -0.083095 -0.017374 0.272929 -0.249916 -0.147372 0.476802 -0.559900 -0.011871 -0.543580
15 -0.112348 -0.385568 0.320110 -0.291159 -0.071776 0.187849 0.337202 0.014163 0.139661 -0.066499 -0.010937 0.272292 -0.228999 -0.154373 0.442323 -0.528177 -0.015450 -0.514677
3 -0.144537 -0.320858 0.359958 -0.243973 -0.061433 0.139820 0.316325 0.043423 0.074576 -0.066013 0.005648 0.227627 -0.262339 -0.197733 0.425102 -0.554809 0.040335 -0.567784
1 -0.114116 -0.395854 0.337547 -0.292810 -0.077947 0.137967 0.323504 0.062237 0.157995 -0.053034 -0.041017 0.271379 -0.215032 -0.187110 0.435325 -0.550412 0.016504 -0.534673
17 -0.132098 -0.331906 0.366011 -0.218758 -0.098346 0.097778 0.313763 0.069981 0.119659 -0.022278 0.008614 0.277732 -0.215940 -0.153718 0.417548 -0.519131 0.011925 -0.609617
4 -0.147401 -0.306185 0.376375 -0.229762 -0.046995 0.100813 0.282099 0.086827 0.105415 -0.070506 0.022224 0.264146 -0.222005 -0.177219 0.432499 -0.563488 0.025355 -0.620512
8 -0.072665 -0.400714 0.301813 -0.272926 -0.102721 0.174551 0.341910 0.035924 0.142415 -0.034139 -0.033723 0.271635 -0.245695 -0.172879 0.455710 -0.534289 0.018330 -0.489112
9 -0.080384 -0.352721 0.254056 -0.268142 -0.078783 0.154950 0.307868 0.051505 0.164932 -0.056910 -0.018853 0.279005 -0.210686 -0.193367 0.397673 -0.496681 -0.006222 -0.443079
7 -0.067897 -0.352298 0.301314 -0.281761 -0.102737 0.185833 0.325932 0.057455 0.151118 -0.067406 -0.037523 0.286323 -0.228523 -0.206266 0.480461 -0.540359 0.008012 -0.540547
6 -0.118824 -0.323014 0.352903 -0.208209 -0.064843 0.137889 0.318807 0.069063 0.089952 -0.053274 0.015850 0.247947 -0.240633 -0.176627 0.450977 -0.539421 -0.003733 -0.593469
12 -0.026600 -0.022358 0.002765 -0.019307 -0.014582 -0.010130 -0.018079 -0.025837 -0.017080 0.018496 0.026502 0.027636 -0.006702 0.013838 0.001462 0.019107 -0.024921 0.008452
