18 18
14 -0.234022 -0.483237 0.323974 -0.177182 -0.215891 0.004875 0.224437 0.168782 0.283097 0.116739 0.155915 0.551891 -0.202190 -0.163132 0.355477 -0.197882 -0.008917 -0.651203
16 -0.218720 -0.388528 0.268977 -0.128937 -0.225647 -0.067852 0.259496 0.156571 0.275588 0.105153 0.217960 0.574235 -0.166980 -0.102115 0.316374 -0.217683 -0.069203 -0.704784
6 -0.193252 -0.453246 0.288639 -0.127580 -0.209330 0.022096 0.230225 0.185262 0.277756 0.102136 0.148324 0.481690 -0.198543 -0.180427 0.365000 -0.194356 -0.027912 -0.592225
13 -0.207298 -0.459541 0.303779 -0.181530 -0.228213 -0.003351 0.226824 0.154022 0.290544 0.117853 0.150379 0.488987 -0.176835 -0.189736 0.352252 -0.204861 -0.036151 -0.618650
12 -0.244368 -0.420023 0.268392 -0.160909 -0.236122 -0.065919 0.226962 0.132375 0.249678 0.115874 0.279721 0.585387 -0.153424 -0.116910 0.272843 -0.168431 -0.052793 -0.648957
15 -0.241488 -0.432393 0.290794 -0.166712 -0.214081 -0.008206 0.253250 0.134375 0.277569 0.087780 0.228015 0.538163 -0.168113 -0.129210 0.321945 -0.208420 -0.050806 -0.663887
0 -0.207429 -0.416381 0.274418 -0.175989 -0.232427 0.000707 0.205779 0.146637 0.228274 0.096883 0.189511 0.468055 -0.146757 -0.153196 0.319141 -0.203086 -0.002372 -0.583983
17 -0.198074 -0.316035 0.199996 -0.062337 -0.236516 -0.177856 0.272645 0.168901 0.317713 0.111338 0.364564 0.643383 -0.065241 -0.038897 0.183262 -0.159822 -0.055667 -0.755310
7 -0.180248 -0.450940 0.256852 -0.161554 -0.235159 0.026662 0.233611 0.173102 0.313435 0.088873 0.148733 0.504611 -0.183621 -0.194276 0.362245 -0.191865 -0.017902 -0.603736
10 -0.218777 -0.429923 0.270008 -0.149741 -0.217833 -0.014482 0.268395 0.160672 0.305600 0.081090 0.245351 0.582434 -0.183703 -0.119402 0.299428 -0.185800 -0.018746 -0.674297
2 -0.183279 -0.387698 0.252812 -0.152544 -0.222384 -0.042225 0.233548 0.165461 0.221786 0.091918 0.205998 0.519086 -0.119136 -0.146605 0.270024 -0.211594 -0.038187 -0.606678
11 -0.233090 -0.451569 0.288554 -0.138208 -0.194309 -0.004904 0.194552 0.187783 0.277780 0.063195 0.150255 0.486516 -0.203990 -0.144684 0.357477 -0.221879 -0.027034 -0.592541
1 -0.244111 -0.466609 0.308670 -0.173835 -0.219313 -0.054942 0.228608 0.195709 0.295898 0.100093 0.185611 0.516149 -0.144207 -0.172913 0.310538 -0.228343 -0.012485 -0.645376
9 -0.215975 -0.415256 0.248179 -0.145030 -0.188782 0.020283 0.188211 0.171785 0.279034 0.079191 0.132152 0.457073 -0.184876 -0.181104 0.314859 -0.189389 -0.026543 -0.524689
8 -0.214631 -0.490598 0.304962 -0.157283 -0.242688 0.018895 0.229952 0.176553 0.274691 0.121092 0.138661 0.491042 -0.204679 -0.175427 0.367186 -0.218929 -0.002811 -0.582793
3 -0.236817 -0.403139 0.290697 -0.143444 -0.208363 -0.029245 0.245706 0.147638 0.236616 0.088362 0.220616 0.501603 -0.189112 -0.166156 0.277091 -0.197308 -0.000921 -0.642295
4 -0.211859 -0.346633 0.236530 -0.096092 -0.206671 -0.131856 0.235109 0.194791 0.304330 0.081729 0.321732 0.611657 -0.101343 -0.104129 0.250747 -0.205927 -0.044677 -0.736563
5 -0.178109 -0.334736 0.172459 -0.093069 -0.177413 -0.130721 0.268168 0.117594 0.298140 0.068454 0.321279 0.594022 -0.113359 -0.059023 0.230996 -0.200512 -0.065468 -0.700887
