18 18
4 -0.201569 -0.467637 0.215233 -0.269253 0.019061 -0.115039 0.145082 0.208775 0.390844 -0.079356 0.186296 0.295915 -0.007848 -0.366535 0.278126 -0.510274 -0.018579 -0.462120
8 -0.227099 -0.494485 0.246473 -0.276216 -0.034123 -0.073323 0.172499 0.133806 0.353615 -0.019412 0.139922 0.273556 -0.047733 -0.278970 0.299539 -0.488116 -0.027882 -0.434187
1 -0.241093 -0.554494 0.256934 -0.327413 -0.002700 -0.124925 0.178664 0.197330 0.438061 -0.053189 0.157782 0.310427 -0.004162 -0.369690 0.290676 -0.537858 -0.022118 -0.479148
0 -0.240937 -0.519631 0.248858 -0.335210 -0.034428 -0.064132 0.158963 0.138564 0.378097 -0.046689 0.179358 0.290797 -0.026960 -0.320558 0.322607 -0.513219 -0.018486 -0.465622
9 -0.237388 -0.488834 0.208873 -0.303473 -0.014257 -0.094023 0.150131 0.166682 0.395573 -0.047629 0.162410 0.311534 -0.016406 -0.338024 0.266158 -0.492939 -0.045050 -0.413948
13 -0.204005 -0.468746 0.251431 -0.312668 -0.024322 -0.088362 0.166276 0.104805 0.367714 -0.016231 0.129543 0.257543 -0.017935 -0.312811 0.302456 -0.485914 -0.073972 -0.466942
2 -0.186814 -0.488414 0.214495 -0.293062 -0.018759 -0.088899 0.180714 0.184830 0.356124 -0.059517 0.149360 0.302055 -0.004217 -0.348216 0.280316 -0.523550 -0.049138 -0.427956
15 -0.314000 -0.540303 0.321038 -0.350503 -0.029320 -0.035024 0.196724 0.060744 0.381588 -0.027292 0.159040 0.289094 -0.053329 -0.235661 0.355820 -0.530425 -0.088279 -0.538982
12 -0.287835 -0.588939 0.274152 -0.365166 -0.037110 -0.106068 0.163681 0.140737 0.415378 -0.024292 0.204543 0.366624 -0.029138 -0.340090 0.329551 -0.538076 -0.070024 -0.499285
6 -0.193561 -0.484072 0.213888 -0.256899 0.000690 -0.073030 0.172283 0.174256 0.364530 -0.056958 0.165124 0.273230 -0.038230 -0.346212 0.294894 -0.472763 -0.035892 -0.435983
11 -0.249138 -0.510152 0.247898 -0.287589 0.002968 -0.100337 0.141180 0.166280 0.383027 -0.066498 0.157248 0.292146 -0.048378 -0.313919 0.322979 -0.523338 -0.047862 -0.458182
17 -0.254774 -0.505612 0.267077 -0.292550 -0.056181 -0.090765 0.176782 0.133115 0.395236 -0.002890 0.157640 0.314810 -0.015502 -0.257581 0.285856 -0.470959 -0.051333 -0.491077
5 -0.212048 -0.509348 0.195532 -0.287408 0.007517 -0.099616 0.186294 0.138304 0.401798 -0.070820 0.186581 0.314261 -0.043107 -0.329964 0.304235 -0.517919 -0.046430 -0.466447
14 -0.257580 -0.547394 0.288056 -0.347776 -0.003053 -0.085965 0.158748 0.146597 0.387299 -0.029815 0.144291 0.327926 -0.038957 -0.347091 0.316516 -0.531393 -0.033228 -0.493627
3 -0.227447 -0.472075 0.237702 -0.278013 0.001721 -0.095932 0.173570 0.159749 0.336738 -0.062629 0.168929 0.257734 -0.049153 -0.366419 0.263676 -0.500985 -0.005516 -0.441000
7 -0.225329 -0.552670 0.234066 -0.342918 -0.029378 -0.071285 0.187131 0.168624 0.454506 -0.062127 0.169600 0.335619 -0.028526 -0.384950 0.352291 -0.544368 -0.041578 -0.508802
16 -0.309692 -0.553590 0.324330 -0.349441 -0.049538 -0.078607 0.209978 0.103093 0.421360 -0.011869 0.152979 0.343635 -0.057337 -0.250057 0.380476 -0.581860 -0.093279 -0.590895
10 -0.234324 -0.527308 0.234594 -0.307558 0.001194 -0.067635 0.191103 0.154099 0.425115 -0.067591 0.183053 0.328996 -0.052239 -0.322164 0.303491 -0.512388 -0.033889 -0.468721
