18 18
6 -0.272662 -0.429377 0.155811 -0.179697 0.069803 0.044048 0.163178 0.178932 0.320894 -0.164314 0.121833 0.481839 -0.268771 -0.077221 0.406613 -0.380236 -0.204331 -0.437060
12 -0.309157 -0.462869 0.146963 -0.227255 0.079319 0.018797 0.143537 0.083064 0.323723 -0.121385 0.133973 0.523965 -0.275305 -0.022146 0.361147 -0.319915 -0.228639 -0.390608
14 -0.368135 -0.541389 0.258894 -0.258805 0.200371 0.042490 0.196242 -0.048587 0.321998 -0.071624 0.064093 0.499610 -0.345168 0.036494 0.324696 -0.280865 -0.185116 -0.444670
4 -0.327596 -0.430055 0.193535 -0.196014 0.134726 0.008644 0.134798 0.174273 0.355375 -0.191425 0.137553 0.504940 -0.286241 -0.054600 0.400300 -0.412425 -0.193441 -0.492938
5 -0.323456 -0.505269 0.176854 -0.216771 0.184871 0.006973 0.208419 -0.032632 0.342925 -0.113149 0.118672 0.488021 -0.329459 0.033207 0.331865 -0.320174 -0.201762 -0.447527
11 -0.311445 -0.427508 0.183445 -0.181859 0.098258 0.024846 0.121503 0.159051 0.314067 -0.176571 0.101364 0.450876 -0.274292 -0.024061 0.388543 -0.375124 -0.185218 -0.418771
7 -0.256437 -0.431632 0.122516 -0.218269 0.072064 0.054259 0.157990 0.126353 0.353761 -0.162792 0.100324 0.493501 -0.265223 -0.071204 0.405356 -0.363628 -0.196016 -0.427463
15 -0.382826 -0.558972 0.239248 -0.270572 0.177230 0.062486 0.236243 -0.051356 0.352453 -0.106460 0.117000 0.522090 -0.338776 0.040454 0.354803 -0.315821 -0.228877 -0.466668
10 -0.326188 -0.492432 0.184132 -0.218598 0.135086 0.059289 0.192967 0.086770 0.364478 -0.158230 0.118488 0.522650 -0.318797 0.001178 0.365397 -0.332842 -0.190566 -0.431922
13 -0.322564 -0.494560 0.234153 -0.242801 0.164258 0.022993 0.208507 -0.013030 0.338728 -0.087277 0.081372 0.456506 -0.308136 -0.010018 0.342574 -0.319517 -0.216557 -0.456027
0 -0.286084 -0.452584 0.148594 -0.255696 0.031023 0.072359 0.135249 0.162024 0.329616 -0.179973 0.149717 0.514648 -0.251618 -0.069406 0.438603 -0.401541 -0.178039 -0.436692
3 -0.362447 -0.484955 0.231652 -0.225747 0.136076 0.041703 0.195760 0.085974 0.321412 -0.160127 0.130469 0.494648 -0.339486 -0.043611 0.378023 -0.385347 -0.174926 -0.486023
16 -0.313959 -0.435045 0.184893 -0.208861 0.101789 0.031906 0.175028 0.107905 0.339286 -0.149663 0.090283 0.494744 -0.296645 -0.010973 0.400060 -0.377491 -0.221636 -0.469377
17 -0.315283 -0.476071 0.189206 -0.207978 0.087756 0.019393 0.187701 0.094204 0.365331 -0.110855 0.111998 0.525898 -0.283198 -0.007668 0.358770 -0.324465 -0.200167 -0.458814
1 -0.331666 -0.470194 0.198955 -0.224196 0.121205 -0.001448 0.157837 0.116766 0.349610 -0.143823 0.084638 0.466055 -0.267975 -0.037236 0.356306 -0.374382 -0.181510 -0.448996
8 -0.335479 -0.529079 0.212884 -0.229689 0.126127 0.045116 0.207971 0.039052 0.341993 -0.103298 0.099459 0.513961 -0.337095 -0.000075 0.388161 -0.357384 -0.196521 -0.449472
2 -0.245849 -0.432026 0.121685 -0.222823 0.023385 0.058466 0.156489 0.228771 0.308449 -0.203080 0.129954 0.541475 -0.239045 -0.104104 0.432402 -0.435334 -0.221026 -0.416955
9 -0.286154 -0.437364 0.121748 -0.223298 0.087986 0.038051 0.162991 0.121590 0.377700 -0.146075 0.108877 0.524425 -0.269030 -0.070099 0.374659 -0.359574 -0.228005 -0.401065
