18 18
2 -0.037773 -0.469092 0.160687 -0.146104 0.063890 0.093821 0.161013 0.315922 0.174492 -0.165449 0.018637 0.449329 -0.114360 -0.266190 0.409724 -0.488325 -0.202863 -0.331103
11 -0.106972 -0.533235 0.174187 -0.151206 0.163537 0.070162 0.097200 0.268690 0.228870 -0.203461 0.017865 0.486694 -0.186931 -0.176575 0.446925 -0.475559 -0.238548 -0.341163
5 -0.089024 -0.546411 0.128439 -0.161986 0.164595 0.076995 0.122306 0.186870 0.216690 -0.182019 0.058258 0.476243 -0.198501 -0.163016 0.424803 -0.444060 -0.227054 -0.320240
15 -0.104976 -0.498489 0.232409 -0.142294 0.047666 0.123588 0.222068 0.286933 0.208636 -0.157436 0.031836 0.446702 -0.146668 -0.210407 0.460198 -0.518426 -0.225868 -0.433299
9 -0.079240 -0.475951 0.141105 -0.139862 0.069412 0.101823 0.148711 0.297796 0.237627 -0.154816 0.039953 0.454743 -0.132635 -0.246297 0.402346 -0.450084 -0.197264 -0.313116
3 -0.101801 -0.470522 0.210840 -0.130076 0.093175 0.078911 0.176792 0.283693 0.175610 -0.169043 0.039048 0.435579 -0.177307 -0.243471 0.410379 -0.492499 -0.180863 -0.393120
0 -0.085325 -0.527147 0.184134 -0.167124 0.017170 0.127314 0.162386 0.298677 0.211307 -0.140329 0.064439 0.448114 -0.132219 -0.242468 0.460315 -0.488248 -0.163613 -0.350902
10 -0.080395 -0.546986 0.154791 -0.154737 0.136863 0.121192 0.150885 0.258522 0.237595 -0.191708 0.052454 0.496706 -0.192270 -0.191094 0.430062 -0.443807 -0.202374 -0.317178
1 -0.096919 -0.508974 0.208346 -0.147554 0.053292 0.075480 0.175907 0.335363 0.232527 -0.145922 0.009254 0.429874 -0.115901 -0.257388 0.403478 -0.492488 -0.166979 -0.373693
12 -0.126575 -0.553351 0.171037 -0.193103 0.130646 0.070113 0.090016 0.197103 0.187002 -0.144701 0.056470 0.529648 -0.196084 -0.169710 0.435527 -0.428388 -0.259431 -0.321299
8 -0.054570 -0.485329 0.192233 -0.117644 0.011619 0.115741 0.191601 0.347458 0.208230 -0.134052 -0.002147 0.416239 -0.130148 -0.262931 0.434360 -0.503034 -0.146426 -0.352989
14 -0.092105 -0.523717 0.178002 -0.185811 0.146991 0.097515 0.094476 0.241214 0.187805 -0.158039 0.004318 0.485542 -0.174203 -0.219531 0.417993 -0.437006 -0.201787 -0.311121
4 -0.068400 -0.457667 0.193742 -0.134792 0.113940 0.060235 0.139974 0.321758 0.201528 -0.181682 0.042125 0.480161 -0.134130 -0.240164 0.422822 -0.499708 -0.203672 -0.399805
16 -0.053623 -0.416731 0.242685 -0.087042 -0.015202 0.062662 0.278362 0.351854 0.205097 -0.120744 -0.008279 0.450446 -0.119062 -0.209204 0.445199 -0.543916 -0.229399 -0.509456
7 -0.039664 -0.462210 0.143797 -0.136534 0.061528 0.101273 0.163870 0.304701 0.231827 -0.168840 0.013447 0.451106 -0.133605 -0.257190 0.430228 -0.466000 -0.196128 -0.360219
6 -0.074208 -0.505000 0.185677 -0.107505 0.058854 0.113229 0.187837 0.297782 0.212207 -0.139223 0.048114 0.434326 -0.156250 -0.227050 0.444649 -0.463299 -0.203599 -0.374392
13 -0.063512 -0.488938 0.176310 -0.167522 0.103531 0.076146 0.141622 0.226214 0.204358 -0.139867 0.016770 0.442806 -0.152254 -0.217152 0.422337 -0.448229 -0.234081 -0.347159
17 -0.051902 -0.423106 0.232139 -0.071360 -0.025111 0.046460 0.267717 0.366012 0.230430 -0.110219 0.022279 0.464104 -0.098744 -0.217350 0.407644 -0.499767 -0.203556 -0.499527
