18 18
16 -0.195160 -0.425439 0.174912 -0.235473 -0.246505 0.061861 0.151446 0.200159 0.371751 0.195457 0.017067 0.475827 -0.071075 -0.295183 0.344180 -0.214147 -0.177482 -0.349120
0 -0.201906 -0.484486 0.181030 -0.282081 -0.307766 0.099491 0.133708 0.211656 0.409801 0.234167 0.051160 0.515214 -0.045931 -0.323386 0.389198 -0.204437 -0.162347 -0.349044
14 -0.224792 -0.494560 0.206320 -0.291602 -0.239248 0.080617 0.127733 0.193642 0.413009 0.220979 0.002825 0.532109 -0.076444 -0.324836 0.367790 -0.195650 -0.182684 -0.362100
6 -0.190108 -0.469448 0.187563 -0.220049 -0.278183 0.081034 0.168603 0.252227 0.403822 0.233243 0.043923 0.496951 -0.066226 -0.371149 0.360623 -0.211946 -0.163772 -0.365760
2 -0.201909 -0.490648 0.200292 -0.248406 -0.284093 0.052653 0.176980 0.281194 0.379106 0.215480 0.031230 0.525285 -0.049480 -0.384400 0.334771 -0.267774 -0.155524 -0.362712
9 -0.220378 -0.477097 0.167588 -0.259599 -0.275354 0.063548 0.148238 0.253171 0.435185 0.215364 0.043573 0.530704 -0.056250 -0.369623 0.342209 -0.232416 -0.166852 -0.336746
13 -0.173081 -0.461651 0.179420 -0.278072 -0.268083 0.092019 0.149203 0.183276 0.422999 0.222059 0.019417 0.482768 -0.051279 -0.331965 0.373263 -0.188401 -0.207668 -0.337784
17 -0.213712 -0.485113 0.195369 -0.238575 -0.323713 0.042544 0.151278 0.270865 0.442759 0.253228 0.039761 0.546409 -0.021207 -0.311725 0.331227 -0.190332 -0.154033 -0.369516
12 -0.220007 -0.495667 0.172318 -0.289422 -0.296442 0.083244 0.119656 0.193096 0.420540 0.236044 0.056510 0.549346 -0.058526 -0.308108 0.377012 -0.171343 -0.218489 -0.329066
1 -0.237819 -0.490746 0.205242 -0.258422 -0.258579 0.024005 0.133053 0.257405 0.420893 0.217333 0.030688 0.499098 -0.033736 -0.338041 0.318244 -0.225515 -0.131171 -0.358942
5 -0.219001 -0.491989 0.158794 -0.237045 -0.225563 0.025061 0.168265 0.210833 0.430277 0.183194 0.066006 0.533000 -0.084772 -0.326273 0.351443 -0.250356 -0.172465 -0.398069
4 -0.224395 -0.472055 0.199062 -0.234884 -0.275978 0.039848 0.146323 0.295013 0.431916 0.211290 0.080056 0.544847 -0.046703 -0.372873 0.351981 -0.251076 -0.144155 -0.407053
7 -0.148705 -0.428104 0.138744 -0.243594 -0.286350 0.106864 0.136227 0.214062 0.412501 0.202636 0.010358 0.465782 -0.039569 -0.329349 0.356134 -0.170874 -0.154430 -0.308942
3 -0.236542 -0.445800 0.214422 -0.228003 -0.232581 0.045201 0.175263 0.223876 0.369474 0.194350 0.058192 0.471249 -0.098316 -0.378535 0.319129 -0.249139 -0.125914 -0.398278
10 -0.188065 -0.477784 0.161185 -0.247885 -0.266555 0.113293 0.160408 0.225116 0.441248 0.189946 0.054986 0.527065 -0.074191 -0.299536 0.354869 -0.178354 -0.167839 -0.322034
11 -0.224991 -0.489565 0.190529 -0.261449 -0.269634 0.070018 0.109812 0.243200 0.439991 0.202276 0.016835 0.515820 -0.057021 -0.295093 0.386731 -0.216184 -0.190207 -0.338141
15 -0.220181 -0.458217 0.193389 -0.273267 -0.238200 0.104120 0.152660 0.167416 0.404698 0.192839 0.039376 0.487899 -0.061990 -0.296157 0.365139 -0.205598 -0.205486 -0.359708
8 -0.181714 -0.500407 0.207855 -0.234958 -0.323233 0.110328 0.192060 0.263984 0.410653 0.260035 0.017059 0.503353 -0.077542 -0.375518 0.388010 -0.242477 -0.141196 -0.345109
