18 18
2 -0.212261 -0.490391 0.071271 -0.095610 -0.046252 0.069614 0.197074 0.224484 0.363319 -0.097243 0.141035 0.450001 -0.235980 -0.229273 0.433243 -0.457686 -0.199305 -0.329208
7 -0.202242 -0.472024 0.062308 -0.109155 -0.058691 0.112053 0.180150 0.190395 0.397858 -0.089651 0.121637 0.440877 -0.248482 -0.219385 0.462414 -0.409219 -0.184774 -0.335107
15 -0.252442 -0.466651 0.101887 -0.153004 -0.022565 0.150912 0.179779 0.125629 0.363134 -0.101544 0.146059 0.419540 -0.251225 -0.197448 0.456442 -0.416696 -0.206555 -0.331908
12 -0.281777 -0.515493 0.106761 -0.161903 -0.056177 0.137207 0.152860 0.135410 0.386807 -0.060679 0.143129 0.511292 -0.296539 -0.186010 0.510952 -0.407427 -0.246030 -0.336797
0 -0.240026 -0.489903 0.081668 -0.136633 -0.051573 0.094071 0.165679 0.187230 0.372293 -0.096373 0.170267 0.426675 -0.234096 -0.223038 0.448285 -0.443309 -0.156847 -0.328446
8 -0.239921 -0.517560 0.112098 -0.106510 -0.056976 0.112689 0.196722 0.192601 0.391731 -0.064162 0.112452 0.450471 -0.285590 -0.203977 0.484593 -0.448490 -0.181701 -0.343920
5 -0.221883 -0.494069 0.050824 -0.101417 -0.013267 0.082082 0.204982 0.159542 0.395830 -0.110006 0.166036 0.448790 -0.273113 -0.193726 0.450218 -0.446212 -0.195711 -0.346431
3 -0.263983 -0.484433 0.109572 -0.100979 -0.020295 0.064332 0.201467 0.211562 0.361818 -0.114407 0.172761 0.407674 -0.270536 -0.265700 0.426062 -0.477015 -0.146914 -0.371115
9 -0.250816 -0.479492 0.073881 -0.136579 -0.031297 0.124747 0.177755 0.174244 0.416958 -0.091262 0.130408 0.472891 -0.276736 -0.236858 0.470507 -0.436589 -0.218643 -0.323359
14 -0.261910 -0.511426 0.130989 -0.146019 -0.024692 0.120972 0.165157 0.176898 0.380829 -0.071891 0.103731 0.470402 -0.285825 -0.220772 0.478501 -0.428736 -0.181032 -0.350260
4 -0.274118 -0.504941 0.098775 -0.124626 -0.012178 0.085867 0.172105 0.228067 0.420951 -0.126115 0.196115 0.488326 -0.261952 -0.257004 0.491479 -0.499096 -0.200820 -0.397715
17 -0.255589 -0.511665 0.103572 -0.088644 -0.064213 0.063370 0.206398 0.215804 0.422585 -0.068791 0.154643 0.467653 -0.249818 -0.205868 0.435339 -0.423289 -0.180891 -0.377118
1 -0.258242 -0.510861 0.100981 -0.108972 -0.024147 0.033577 0.178499 0.227769 0.400869 -0.096661 0.139157 0.416132 -0.219336 -0.222065 0.401472 -0.445335 -0.150471 -0.343393
10 -0.240561 -0.487868 0.081525 -0.123164 -0.027642 0.144253 0.187867 0.171631 0.412249 -0.106569 0.149135 0.474380 -0.283704 -0.181658 0.457084 -0.400903 -0.187106 -0.322868
6 -0.209244 -0.463818 0.085953 -0.068152 -0.023302 0.091479 0.197413 0.201057 0.353344 -0.091151 0.156633 0.400178 -0.255693 -0.228500 0.445127 -0.430995 -0.186011 -0.354262
11 -0.245195 -0.467834 0.095293 -0.084434 -0.020388 0.057841 0.150232 0.207375 0.376998 -0.107178 0.125874 0.405550 -0.248104 -0.182748 0.425878 -0.418512 -0.172320 -0.325195
16 -0.236735 -0.449066 0.096228 -0.104875 -0.045935 0.094957 0.187392 0.171227 0.377559 -0.075735 0.104640 0.444315 -0.269224 -0.176461 0.466206 -0.422014 -0.216525 -0.359022
13 -0.215584 -0.454246 0.097190 -0.146945 -0.041270 0.102823 0.172180 0.137456 0.377716 -0.062989 0.105808 0.412401 -0.243514 -0.219858 0.445964 -0.403106 -0.211381 -0.325549
