18 18
4 -0.205643 -0.139244 0.370532 -0.147995 -0.101489 -0.051918 0.061353 0.214407 -0.018809 -0.071548 0.523826 0.110586 -0.016371 -0.492187 0.362333 -0.401041 0.109945 -0.770625
13 -0.231908 -0.255989 0.304835 -0.207880 -0.140059 -0.029508 0.048178 0.148181 0.076315 -0.043982 0.399787 0.172271 -0.093990 -0.397864 0.422313 -0.397613 -0.026776 -0.613939
2 -0.220071 -0.244563 0.316476 -0.196989 -0.146051 -0.028503 0.055335 0.184306 0.007836 -0.056659 0.443728 0.189863 -0.074300 -0.426903 0.405496 -0.419394 0.016074 -0.632830
0 -0.286324 -0.300281 0.311572 -0.219692 -0.166347 -0.018792 0.003263 0.180466 0.063388 -0.061356 0.460917 0.220433 -0.119872 -0.380134 0.468593 -0.430396 0.027675 -0.628920
8 -0.466677 -0.538456 0.182102 -0.187199 -0.149391 -0.039166 -0.151029 0.187432 0.280940 -0.072547 0.245159 0.446951 -0.384992 -0.058085 0.594192 -0.430694 -0.155132 -0.287463
9 -0.473288 -0.505162 0.145766 -0.197095 -0.129914 -0.040237 -0.159288 0.202920 0.318907 -0.097288 0.257524 0.469088 -0.356764 -0.089761 0.563364 -0.415448 -0.188414 -0.268980
14 -0.262742 -0.254768 0.345504 -0.192890 -0.112157 -0.025020 0.024929 0.166740 0.034227 -0.042506 0.408040 0.184948 -0.105689 -0.390248 0.416733 -0.389890 0.042641 -0.656251
15 -0.323151 -0.317633 0.301947 -0.203984 -0.121080 -0.000642 0.017101 0.135961 0.097162 -0.069174 0.381244 0.231194 -0.152310 -0.286407 0.450806 -0.399805 -0.058207 -0.565179
3 -0.285794 -0.245900 0.323527 -0.164331 -0.111142 -0.031135 0.039159 0.162669 0.026989 -0.071005 0.432029 0.162908 -0.141368 -0.377395 0.392765 -0.397759 0.047464 -0.623046
7 -0.348033 -0.400359 0.215996 -0.200078 -0.158432 -0.032531 -0.075523 0.187974 0.194163 -0.075360 0.319361 0.332253 -0.237790 -0.233971 0.514257 -0.404965 -0.078065 -0.442669
11 -0.453711 -0.507465 0.187852 -0.182763 -0.121275 -0.069816 -0.167448 0.194334 0.254333 -0.098625 0.259445 0.418523 -0.345138 -0.068564 0.560555 -0.423305 -0.167180 -0.302123
1 -0.331211 -0.353679 0.301105 -0.211044 -0.124709 -0.062411 -0.019210 0.189480 0.136011 -0.057307 0.342077 0.247087 -0.151123 -0.302523 0.430481 -0.410837 -0.036477 -0.527892
6 -0.226036 -0.202835 0.357492 -0.137236 -0.109415 -0.030235 0.078245 0.194610 0.001952 -0.050758 0.473449 0.125160 -0.063752 -0.448088 0.399679 -0.393072 0.051251 -0.744347
16 -0.338911 -0.344330 0.230477 -0.168719 -0.124510 -0.029853 -0.033287 0.153741 0.163459 -0.067396 0.289509 0.301878 -0.237116 -0.165073 0.490177 -0.403014 -0.105287 -0.468475
17 -0.287446 -0.296697 0.289715 -0.165355 -0.155538 -0.042515 0.018188 0.182620 0.117431 -0.035873 0.382706 0.252069 -0.127221 -0.295641 0.419912 -0.367287 -0.033824 -0.571984
5 -0.211388 -0.210664 0.284009 -0.153225 -0.084431 -0.038250 0.081893 0.138487 0.037047 -0.080327 0.469939 0.153969 -0.092023 -0.393119 0.383233 -0.397623 0.052567 -0.680450
12 -0.486579 -0.545799 0.167581 -0.214802 -0.153064 -0.076470 -0.193860 0.150081 0.242532 -0.062617 0.271520 0.465452 -0.374682 -0.037152 0.554085 -0.395313 -0.187858 -0.260639
10 -0.416096 -0.466820 0.162747 -0.184835 -0.117709 -0.009465 -0.110003 0.187902 0.292170 -0.115188 0.295036 0.427567 -0.343700 -0.097299 0.542640 -0.389606 -0.128134 -0.309780
