18 18
14 -0.261578 -0.593387 0.314777 -0.198785 0.081122 -0.035823 0.160865 0.156660 0.154389 -0.051246 0.054908 0.417190 -0.225316 -0.131910 0.380282 -0.500104 -0.086002 -0.441697
11 -0.298326 -0.529969 0.293124 -0.138861 0.069473 0.005033 0.226983 0.185570 0.204417 -0.119954 0.099129 0.346267 -0.258533 -0.141623 0.319482 -0.519833 -0.036200 -0.406919
5 -0.268837 -0.582086 0.260506 -0.163957 0.084043 -0.026092 0.243575 0.137548 0.204697 -0.105986 0.112127 0.398082 -0.255704 -0.125704 0.354050 -0.533106 -0.084057 -0.442006
2 -0.256497 -0.575461 0.297236 -0.175188 0.062810 -0.020113 0.225408 0.189462 0.155623 -0.089310 0.077371 0.397851 -0.220345 -0.157596 0.348925 -0.548283 -0.085452 -0.425685
4 -0.249517 -0.520066 0.291494 -0.150398 0.070319 -0.049039 0.168897 0.192053 0.164090 -0.076450 0.095900 0.376419 -0.191704 -0.134859 0.338715 -0.498495 -0.072775 -0.437937
12 -0.312497 -0.592070 0.302429 -0.197524 0.055499 -0.028563 0.191824 0.133436 0.155335 -0.067678 0.120141 0.409001 -0.248783 -0.130366 0.345838 -0.497876 -0.095103 -0.411511
1 -0.300222 -0.558152 0.305839 -0.166267 0.069457 -0.022480 0.234459 0.197019 0.226607 -0.098943 0.079902 0.354379 -0.214342 -0.146850 0.291307 -0.509450 -0.031914 -0.411299
8 -0.325038 -0.496729 0.302551 -0.120595 0.016318 0.118690 0.371958 0.181136 0.241519 -0.124242 0.125669 0.304022 -0.322185 -0.210681 0.229075 -0.524018 0.086109 -0.367409
16 -0.286365 -0.519496 0.298916 -0.140868 0.042540 0.010174 0.274815 0.177591 0.206135 -0.096642 0.076340 0.375301 -0.264866 -0.130369 0.322782 -0.524442 -0.048837 -0.443076
3 -0.407620 -0.439372 0.330706 -0.110833 0.053617 0.177762 0.453034 0.179691 0.251598 -0.201057 0.182232 0.249366 -0.381926 -0.272075 0.121219 -0.539488 0.171362 -0.371110
10 -0.336071 -0.470680 0.268669 -0.111662 0.052252 0.136128 0.371476 0.181210 0.277591 -0.176762 0.162261 0.315817 -0.312706 -0.173742 0.167240 -0.460803 0.089687 -0.333529
9 -0.358104 -0.521205 0.288567 -0.153225 0.059502 0.082831 0.334502 0.208657 0.275232 -0.161419 0.151001 0.369113 -0.299994 -0.224296 0.238586 -0.547399 0.026861 -0.389606
6 -0.251004 -0.568682 0.299397 -0.145217 0.066516 -0.011157 0.222080 0.185015 0.174582 -0.073554 0.089018 0.375906 -0.232389 -0.154826 0.366086 -0.509460 -0.082319 -0.450316
13 -0.262412 -0.574721 0.317258 -0.190092 0.061637 -0.012438 0.237823 0.152569 0.196164 -0.069223 0.081717 0.366988 -0.231490 -0.173106 0.357985 -0.522381 -0.091191 -0.444926
17 -0.299187 -0.525945 0.296358 -0.124237 0.014178 0.020603 0.299519 0.192216 0.244924 -0.085128 0.111366 0.375915 -0.252390 -0.150576 0.262081 -0.479927 0.001128 -0.423145
7 -0.263950 -0.542517 0.267198 -0.162766 0.027795 0.041116 0.270684 0.194532 0.239411 -0.114688 0.091484 0.381382 -0.244013 -0.189623 0.321440 -0.511173 -0.017612 -0.414637
0 -0.267537 -0.549263 0.282668 -0.186569 0.037620 0.000098 0.196764 0.154109 0.170576 -0.079877 0.108805 0.365101 -0.216987 -0.137406 0.347963 -0.499091 -0.045117 -0.411544
15 -0.369612 -0.464059 0.308270 -0.139724 0.052632 0.160656 0.388841 0.159508 0.251093 -0.178079 0.159754 0.278282 -0.308878 -0.208442 0.181372 -0.512902 0.080873 -0.367538
