18 18
0 -0.367685 -0.500482 0.417955 -0.511011 -0.159797 0.148035 0.151415 0.004063 0.137494 0.166983 0.057378 0.445648 -0.066599 -0.232474 0.302649 -0.370071 -0.106149 -0.367334
4 -0.280809 -0.330428 0.206055 -0.098576 0.057400 -0.002852 0.148996 0.341958 0.412374 -0.175466 0.359202 0.508028 -0.137253 -0.274702 0.275801 -0.390082 -0.062196 -0.554751
9 -0.343324 -0.464512 0.286574 -0.378350 -0.113815 0.085578 0.148931 0.200200 0.350789 0.061386 0.165358 0.558596 -0.096029 -0.328538 0.264565 -0.359327 -0.182698 -0.331106
3 -0.311722 -0.364179 0.302465 -0.234885 -0.011045 0.053436 0.172213 0.165067 0.229509 -0.037564 0.202775 0.395673 -0.133221 -0.256855 0.243271 -0.371740 -0.034629 -0.464589
2 -0.331765 -0.487975 0.366406 -0.417283 -0.127686 0.108161 0.191744 0.129877 0.215329 0.092112 0.115895 0.512996 -0.084018 -0.286159 0.288444 -0.402318 -0.141734 -0.395742
16 -0.372389 -0.479541 0.411452 -0.411118 -0.109866 0.098663 0.195859 0.081140 0.217795 0.105607 0.094521 0.482041 -0.106108 -0.222592 0.316015 -0.393831 -0.131113 -0.480961
17 -0.305480 -0.392059 0.285213 -0.174088 -0.024001 0.021818 0.195778 0.250420 0.352720 -0.055586 0.273186 0.489988 -0.120143 -0.245319 0.263169 -0.351481 -0.064036 -0.558695
6 -0.303100 -0.431153 0.273468 -0.221829 -0.033717 0.071967 0.189341 0.251601 0.342938 -0.039829 0.246592 0.506411 -0.147076 -0.290465 0.300121 -0.371980 -0.126312 -0.472567
1 -0.356678 -0.466404 0.371205 -0.392783 -0.091390 0.052436 0.144690 0.136256 0.246604 0.092849 0.092582 0.443939 -0.067112 -0.266507 0.238909 -0.362475 -0.108845 -0.371941
15 -0.385164 -0.487422 0.419208 -0.453025 -0.102719 0.139172 0.176833 0.038797 0.182621 0.105479 0.095317 0.451227 -0.081758 -0.236288 0.296733 -0.384262 -0.120061 -0.430100
14 -0.370599 -0.484473 0.422954 -0.441759 -0.094106 0.105016 0.145074 0.068718 0.180249 0.131459 0.058021 0.465381 -0.085918 -0.251318 0.276442 -0.359271 -0.097561 -0.413808
8 -0.324477 -0.465029 0.329373 -0.349928 -0.113938 0.087095 0.155243 0.161660 0.277221 0.083981 0.133117 0.492272 -0.107431 -0.269666 0.281898 -0.361518 -0.125374 -0.360363
13 -0.330908 -0.458855 0.371333 -0.407170 -0.120335 0.077449 0.161055 0.110904 0.250459 0.118412 0.107233 0.466713 -0.071703 -0.289909 0.263255 -0.347372 -0.155652 -0.387363
10 -0.327310 -0.472191 0.281858 -0.346563 -0.094313 0.105444 0.177706 0.208900 0.363778 0.025946 0.197631 0.567052 -0.128596 -0.288049 0.259925 -0.340788 -0.162891 -0.334827
11 -0.303435 -0.419007 0.222250 -0.222067 -0.038658 0.036995 0.127642 0.276653 0.392359 -0.056686 0.229048 0.515002 -0.138852 -0.268705 0.274740 -0.352903 -0.153233 -0.358594
5 -0.285421 -0.395041 0.203754 -0.148508 0.049030 0.020541 0.198223 0.254963 0.399116 -0.143342 0.321600 0.513271 -0.170326 -0.252860 0.299930 -0.406952 -0.083513 -0.548141
7 -0.257968 -0.378850 0.191947 -0.165384 -0.006483 0.063429 0.182761 0.295382 0.417726 -0.134293 0.298566 0.514876 -0.149471 -0.307765 0.313730 -0.378666 -0.078245 -0.513811
12 -0.341426 -0.456436 0.289873 -0.316507 -0.094005 0.054090 0.139484 0.187072 0.317109 0.037558 0.220451 0.543849 -0.113245 -0.268267 0.270594 -0.327579 -0.167671 -0.394127
