18 18
6 -0.355948 -0.508491 0.136394 -0.226310 -0.053021 0.253891 0.176279 0.055465 0.192399 -0.144698 0.451739 0.381945 -0.280552 -0.278226 0.352359 -0.357810 0.030841 -0.333847
3 -0.395486 -0.478068 0.172201 -0.214855 -0.023744 0.220884 0.179418 0.056581 0.149318 -0.165197 0.455187 0.363587 -0.297782 -0.272730 0.293807 -0.375366 0.059526 -0.331753
14 -0.420756 -0.584620 0.174263 -0.267433 -0.039162 0.265623 0.177524 0.027648 0.223575 -0.149271 0.446674 0.435338 -0.330785 -0.225597 0.353182 -0.355165 0.070117 -0.325094
8 -0.361971 -0.558615 0.143654 -0.213064 -0.082693 0.245155 0.190959 0.017731 0.241564 -0.111588 0.401063 0.384302 -0.318167 -0.148319 0.343592 -0.308714 0.076444 -0.273669
9 -0.381812 -0.514149 0.118739 -0.256805 -0.055683 0.255629 0.169095 0.055806 0.228348 -0.157622 0.455845 0.419509 -0.283464 -0.285503 0.344557 -0.377842 0.028462 -0.307197
15 -0.385294 -0.495419 0.155957 -0.257958 -0.035144 0.261109 0.171071 0.019117 0.189842 -0.159410 0.435438 0.365021 -0.261416 -0.240738 0.330111 -0.358482 0.019717 -0.317514
7 -0.332909 -0.486683 0.101613 -0.231207 -0.070282 0.245445 0.166992 0.037823 0.227922 -0.146080 0.401269 0.364891 -0.261794 -0.242445 0.327242 -0.313738 0.051245 -0.288476
5 -0.373841 -0.549548 0.103428 -0.225758 -0.030253 0.224031 0.195150 0.004277 0.257750 -0.167363 0.446724 0.405721 -0.313579 -0.175565 0.334916 -0.340929 0.042235 -0.311628
11 -0.362502 -0.504778 0.124040 -0.220013 -0.041364 0.218242 0.137064 0.052632 0.239251 -0.165375 0.409988 0.377035 -0.276873 -0.186595 0.350633 -0.344439 0.027735 -0.293449
4 -0.417264 -0.509744 0.185109 -0.245470 -0.017972 0.235025 0.167637 0.101138 0.170774 -0.183262 0.532884 0.437233 -0.265536 -0.334004 0.330320 -0.428743 0.035937 -0.396997
12 -0.397131 -0.574020 0.127857 -0.249310 -0.085130 0.233016 0.166555 -0.020021 0.239917 -0.115096 0.449294 0.419177 -0.312362 -0.135073 0.332532 -0.273989 0.043084 -0.271405
1 -0.387017 -0.537645 0.145014 -0.242803 -0.043041 0.206570 0.159566 0.045246 0.248844 -0.143137 0.399243 0.367214 -0.265328 -0.198939 0.308972 -0.329758 0.062216 -0.294631
0 -0.345847 -0.516534 0.115813 -0.260721 -0.096273 0.258374 0.152327 0.018543 0.215857 -0.131559 0.439821 0.377865 -0.270569 -0.206897 0.361129 -0.330130 0.069940 -0.291179
10 -0.370617 -0.549928 0.109267 -0.224508 -0.054090 0.265619 0.194571 0.012938 0.275292 -0.163109 0.451763 0.408498 -0.316990 -0.146204 0.326264 -0.282839 0.064498 -0.272710
2 -0.384073 -0.519471 0.182633 -0.246078 -0.035584 0.245369 0.196027 0.089961 0.124883 -0.163455 0.472969 0.432705 -0.278048 -0.326644 0.320393 -0.432240 0.022849 -0.345255
13 -0.330087 -0.498948 0.133456 -0.255559 -0.070319 0.238363 0.177352 0.018990 0.221856 -0.122913 0.415733 0.363125 -0.262585 -0.260916 0.346442 -0.339094 0.021731 -0.316464
17 -0.398625 -0.554888 0.163569 -0.209955 -0.073123 0.214387 0.201179 0.053665 0.239164 -0.125451 0.462324 0.434596 -0.285152 -0.190230 0.312038 -0.325932 0.051381 -0.350753
16 -0.003066 0.009981 0.006043 0.000869 -0.007381 -0.001770 0.017455 -0.006904 0.000948 0.004908 -0.016488 0.011175 -0.012361 0.022003 0.021550 -0.015661 -0.025305 -0.027720
