18 18
13 -0.242961 -0.627230 0.407407 -0.482014 -0.099134 0.023163 0.121027 0.009074 0.203273 0.180746 0.012888 0.376201 -0.048780 -0.303667 0.326499 -0.339028 -0.095522 -0.389689
14 -0.283390 -0.617269 0.437069 -0.512092 -0.080299 0.010677 0.074081 0.015788 0.179301 0.201816 -0.018618 0.437479 -0.016651 -0.267026 0.264696 -0.277655 -0.089620 -0.372427
1 -0.294977 -0.578362 0.412215 -0.480860 -0.068457 -0.032044 0.070822 0.041198 0.207429 0.171502 -0.007341 0.399630 0.018955 -0.237870 0.212260 -0.270803 -0.087757 -0.351818
17 -0.285343 -0.610419 0.409888 -0.468527 -0.125115 -0.017091 0.102624 0.035139 0.229685 0.209552 0.019775 0.466588 -0.004333 -0.220830 0.244893 -0.251208 -0.109634 -0.384386
15 -0.282066 -0.583711 0.396307 -0.467547 -0.066503 0.036272 0.107663 -0.008066 0.193816 0.140665 0.024821 0.373768 -0.029165 -0.227056 0.278011 -0.297031 -0.107265 -0.371061
4 -0.252020 -0.634436 0.384446 -0.413016 -0.090850 0.012855 0.110490 0.084181 0.226674 0.137258 0.073054 0.404646 -0.071698 -0.302969 0.361498 -0.386761 -0.058537 -0.422748
11 -0.211531 -0.651923 0.329259 -0.338866 -0.092570 0.052635 0.142118 0.084351 0.231474 0.087474 0.059194 0.330213 -0.154503 -0.276968 0.429880 -0.422594 -0.035042 -0.384317
3 -0.191330 -0.622774 0.317764 -0.319062 -0.095994 0.066922 0.190742 0.074682 0.189098 0.077758 0.086921 0.279060 -0.182613 -0.345295 0.406841 -0.449851 0.032532 -0.403062
12 -0.316725 -0.591164 0.407137 -0.498472 -0.086483 -0.015277 0.055074 -0.012639 0.175398 0.185682 0.034599 0.436758 -0.013453 -0.210531 0.234670 -0.240240 -0.133156 -0.340897
6 -0.168818 -0.664699 0.319022 -0.314408 -0.112685 0.079558 0.192941 0.093206 0.221569 0.112422 0.080562 0.321000 -0.167799 -0.346687 0.458539 -0.445190 -0.015043 -0.419030
2 -0.210592 -0.595500 0.362372 -0.442423 -0.106637 0.023452 0.123312 0.055221 0.170660 0.155559 0.011341 0.387616 -0.029544 -0.294637 0.298064 -0.346282 -0.081496 -0.347978
5 -0.203083 -0.667420 0.290154 -0.360898 -0.071431 0.048995 0.192656 0.029361 0.261296 0.080167 0.093516 0.348581 -0.159560 -0.290699 0.414079 -0.436358 -0.035000 -0.412727
8 -0.160011 -0.665011 0.286286 -0.278796 -0.119621 0.093449 0.210350 0.080008 0.229433 0.084964 0.078416 0.277687 -0.212009 -0.303403 0.475913 -0.473413 0.029692 -0.385288
16 -0.283716 -0.584246 0.412977 -0.489453 -0.097395 -0.003705 0.098899 0.012307 0.202515 0.187675 -0.012991 0.435749 -0.017503 -0.222233 0.273258 -0.284825 -0.133467 -0.388781
0 -0.195927 -0.632021 0.306224 -0.373615 -0.116754 0.076896 0.156937 0.041334 0.207577 0.096698 0.089629 0.306322 -0.134397 -0.287621 0.406903 -0.410450 0.008842 -0.373386
7 -0.235350 -0.577892 0.357945 -0.458192 -0.109324 0.016285 0.092366 0.038418 0.227419 0.164005 -0.000213 0.409115 -0.011005 -0.269101 0.283482 -0.277463 -0.093887 -0.358594
9 -0.256797 -0.600210 0.350866 -0.436574 -0.094346 0.018233 0.108180 0.058265 0.231385 0.147759 0.036713 0.409397 -0.048665 -0.291285 0.300156 -0.336037 -0.087442 -0.352699
10 -0.267064 -0.553258 0.374954 -0.454755 -0.069481 0.025943 0.084947 0.019470 0.205075 0.152588 0.017517 0.427412 -0.014624 -0.193192 0.212860 -0.218418 -0.102354 -0.314072
