18 18
7 -0.201305 -0.473603 0.340412 -0.262048 -0.070973 0.043587 0.130455 0.309618 0.409547 -0.038355 -0.141400 0.187621 -0.059649 -0.375013 0.340895 -0.350304 0.163257 -0.489084
14 -0.221360 -0.535487 0.320173 -0.325326 -0.041559 0.072578 0.092900 0.264780 0.382636 -0.032423 -0.119653 0.260988 -0.105212 -0.383354 0.375434 -0.365609 0.159903 -0.448197
11 -0.234966 -0.481773 0.324933 -0.250929 -0.044656 0.023647 0.089596 0.289019 0.381097 -0.048077 -0.105119 0.207897 -0.086448 -0.320797 0.345963 -0.354460 0.126172 -0.449135
1 -0.251147 -0.455694 0.402133 -0.245941 -0.028017 -0.019120 0.111639 0.326325 0.381810 -0.031214 -0.145462 0.146644 -0.033499 -0.336485 0.275981 -0.360002 0.172121 -0.496870
6 -0.211094 -0.494265 0.302809 -0.249800 -0.049239 0.050201 0.121209 0.284141 0.368151 -0.039332 -0.082534 0.216014 -0.096914 -0.356791 0.349305 -0.348923 0.134778 -0.452527
9 -0.230571 -0.584883 0.223325 -0.361831 -0.067098 0.087642 0.108316 0.264272 0.451357 -0.063166 -0.056909 0.330813 -0.134819 -0.448752 0.423152 -0.409823 0.111201 -0.417965
0 -0.225934 -0.577616 0.256603 -0.353318 -0.079958 0.095823 0.095760 0.248848 0.397800 -0.057907 -0.044353 0.288675 -0.125222 -0.399138 0.426530 -0.393786 0.153858 -0.433096
3 -0.248238 -0.478200 0.366717 -0.256989 -0.041426 0.036412 0.129164 0.300350 0.358276 -0.052996 -0.099419 0.181503 -0.104962 -0.376296 0.323677 -0.378086 0.179188 -0.489258
10 -0.212898 -0.523285 0.287142 -0.290506 -0.040375 0.086873 0.123689 0.283256 0.419286 -0.068680 -0.084770 0.257035 -0.114120 -0.363114 0.352513 -0.343202 0.157880 -0.423315
2 -0.195424 -0.530159 0.306496 -0.301768 -0.056894 0.075301 0.122451 0.305282 0.366277 -0.058816 -0.105858 0.259975 -0.093551 -0.392215 0.371716 -0.399790 0.147632 -0.433504
15 -0.240712 -0.478841 0.347062 -0.277831 -0.055880 0.060757 0.127075 0.258421 0.374288 -0.040321 -0.094874 0.202452 -0.065950 -0.324746 0.334628 -0.344527 0.116396 -0.471518
4 -0.217831 -0.420188 0.343522 -0.230150 -0.023176 -0.001447 0.086110 0.318221 0.370035 -0.053069 -0.092137 0.180184 -0.045107 -0.343945 0.298413 -0.352887 0.152003 -0.478433
13 -0.204080 -0.477912 0.344682 -0.288958 -0.059888 0.027916 0.124778 0.273762 0.395405 -0.019697 -0.122970 0.191847 -0.059925 -0.382560 0.342391 -0.362047 0.120870 -0.482976
8 -0.191609 -0.480266 0.341839 -0.243284 -0.065408 0.063344 0.130413 0.286995 0.362212 -0.019386 -0.128894 0.188491 -0.091167 -0.333230 0.343567 -0.355027 0.168286 -0.439990
5 -0.200079 -0.532144 0.222873 -0.299392 -0.036714 0.051191 0.128009 0.220704 0.402061 -0.068753 -0.047135 0.275813 -0.127860 -0.359552 0.381033 -0.385459 0.104080 -0.432026
16 -0.231906 -0.460987 0.347549 -0.257112 -0.062138 0.020261 0.130419 0.286907 0.386042 -0.031301 -0.121908 0.203984 -0.077264 -0.323291 0.343588 -0.364458 0.122379 -0.504168
17 -0.230038 -0.480571 0.356084 -0.243807 -0.086457 0.013158 0.134141 0.311637 0.410534 -0.009452 -0.102579 0.227911 -0.050872 -0.328332 0.312134 -0.327833 0.147966 -0.505419
12 -0.240896 -0.542474 0.269532 -0.326756 -0.073542 0.046596 0.089045 0.229466 0.374872 -0.026614 -0.052204 0.285864 -0.112567 -0.369595 0.369956 -0.346298 0.103366 -0.420701
