18 18
7 0.052120 -0.360288 -0.426757 -0.023323 -0.381882 0.359863 0.126778 0.400014 0.728787 -0.097656 0.051391 0.570894 -0.242552 -0.311343 0.378695 -0.101453 0.061575 0.268726
0 -0.193421 -0.475745 0.084470 -0.327391 -0.343134 0.231223 0.204987 0.251096 0.462120 0.040009 0.074141 0.436524 -0.101429 -0.369179 0.411620 -0.423766 0.029557 -0.190858
3 -0.205937 -0.449789 0.092377 -0.288575 -0.318185 0.221724 0.227372 0.260237 0.449911 0.023488 0.061602 0.422097 -0.136103 -0.386930 0.370055 -0.416185 0.038766 -0.193226
1 -0.220154 -0.498586 0.114520 -0.323967 -0.327298 0.187286 0.207748 0.280221 0.496517 0.047855 0.028200 0.433159 -0.092382 -0.379956 0.378480 -0.424331 0.034716 -0.205751
9 -0.094659 -0.392803 -0.168304 -0.159816 -0.324094 0.260570 0.161311 0.335923 0.590065 -0.030720 0.066002 0.509104 -0.172888 -0.346494 0.353332 -0.273293 0.019919 0.047607
13 -0.188048 -0.460243 0.132882 -0.342844 -0.323374 0.204138 0.223950 0.222297 0.465406 0.069657 0.027034 0.407093 -0.079655 -0.385547 0.383050 -0.416547 -0.010933 -0.227365
16 -0.177014 -0.434956 0.083502 -0.290643 -0.327546 0.208503 0.237190 0.238512 0.464902 0.051966 0.027478 0.443748 -0.121598 -0.337797 0.401709 -0.407390 -0.017352 -0.214469
2 -0.079515 -0.394889 -0.083427 -0.207841 -0.311346 0.239706 0.191284 0.292262 0.480422 -0.013405 0.048797 0.461892 -0.121817 -0.339975 0.340837 -0.321193 0.001990 -0.021535
14 -0.228848 -0.479738 0.172497 -0.342949 -0.295129 0.215600 0.208846 0.228354 0.437086 0.075847 0.006793 0.434926 -0.109282 -0.364700 0.390005 -0.414417 0.017323 -0.238406
8 -0.059004 -0.406612 -0.168264 -0.130150 -0.344950 0.282432 0.165794 0.316277 0.564533 -0.010290 0.041934 0.482972 -0.197322 -0.306605 0.370832 -0.239413 0.043744 0.077374
15 -0.281243 -0.507993 0.241888 -0.400856 -0.303878 0.220519 0.245880 0.184784 0.423042 0.078554 0.039318 0.411621 -0.069916 -0.363677 0.410970 -0.476688 -0.028144 -0.321857
6 -0.040998 -0.387387 -0.213822 -0.088968 -0.330102 0.286909 0.167211 0.361090 0.597220 -0.049913 0.070308 0.495354 -0.197819 -0.321952 0.372644 -0.223246 0.027501 0.072483
17 -0.240360 -0.475564 0.193957 -0.338060 -0.328332 0.159102 0.240131 0.240162 0.437306 0.092483 0.048422 0.430702 -0.060294 -0.361766 0.358184 -0.441940 0.002720 -0.306214
11 -0.072691 -0.364042 -0.180550 -0.098569 -0.288018 0.239760 0.116924 0.328052 0.564043 -0.063314 0.046022 0.462747 -0.187185 -0.260071 0.348053 -0.217683 0.020857 0.069858
4 -0.164935 -0.406169 0.039749 -0.250796 -0.298515 0.192481 0.175058 0.293649 0.471031 0.008659 0.073459 0.437654 -0.099719 -0.356663 0.350514 -0.377571 0.030092 -0.159803
5 -0.179658 -0.481762 0.049878 -0.303616 -0.308629 0.202181 0.250760 0.242199 0.504275 0.023894 0.073637 0.467357 -0.126078 -0.367747 0.395539 -0.438326 -0.000250 -0.215059
10 -0.030399 -0.390794 -0.270502 -0.103714 -0.331190 0.325359 0.161453 0.337136 0.640014 -0.072976 0.079270 0.538794 -0.214314 -0.281156 0.346786 -0.170744 0.041961 0.154882
12 -0.078105 -0.403724 -0.208264 -0.142452 -0.347767 0.262016 0.131569 0.305565 0.575967 -0.023879 0.083833 0.525857 -0.187688 -0.298285 0.351135 -0.198367 0.011596 0.093014
