18 18
8 -0.234151 -0.664072 0.227661 -0.214781 -0.162128 -0.024561 0.142352 0.124690 0.222395 0.098558 0.180572 0.485853 -0.181581 0.013907 0.314659 -0.390712 0.077972 -0.238461
1 -0.269782 -0.701820 0.244991 -0.254154 -0.130337 -0.052736 0.138863 0.142683 0.252923 0.077952 0.187026 0.504000 -0.162066 -0.010526 0.298088 -0.418724 0.082730 -0.258357
0 -0.279043 -0.717068 0.246802 -0.275034 -0.181661 -0.024648 0.138784 0.134521 0.229585 0.085662 0.242473 0.542309 -0.172467 0.000074 0.343144 -0.447333 0.102678 -0.282413
12 -0.259579 -0.680613 0.220004 -0.252342 -0.154029 -0.038217 0.124815 0.094454 0.209082 0.096034 0.216133 0.515708 -0.171960 0.013952 0.296789 -0.368376 0.040312 -0.226552
5 -0.224253 -0.681048 0.181606 -0.221543 -0.116305 -0.029826 0.170534 0.093751 0.257138 0.053420 0.217451 0.522834 -0.196044 0.013677 0.320303 -0.402800 0.050301 -0.267795
2 -0.235355 -0.716786 0.232785 -0.256743 -0.148042 -0.036631 0.159755 0.162784 0.215100 0.062273 0.213280 0.568253 -0.172392 -0.023824 0.324744 -0.462156 0.059184 -0.257016
11 -0.244997 -0.627449 0.217653 -0.203528 -0.116242 -0.045998 0.102471 0.149085 0.213346 0.041560 0.188219 0.474529 -0.170905 0.011799 0.304223 -0.398335 0.054768 -0.235928
17 -0.255075 -0.651709 0.236218 -0.211084 -0.190500 -0.041914 0.156764 0.116312 0.246211 0.117369 0.195794 0.508264 -0.151118 0.047972 0.286913 -0.354710 0.060175 -0.280417
13 -0.214193 -0.637314 0.224167 -0.246200 -0.146978 -0.028694 0.147505 0.085819 0.231723 0.100454 0.164967 0.453944 -0.153793 -0.015673 0.304131 -0.375590 0.028213 -0.241978
10 -0.250008 -0.711864 0.212136 -0.241796 -0.129070 -0.008579 0.162927 0.125057 0.274254 0.059276 0.215438 0.543967 -0.202516 0.024839 0.308831 -0.390770 0.078254 -0.230999
4 -0.250966 -0.647596 0.228303 -0.224657 -0.117271 -0.056721 0.117720 0.167242 0.222943 0.045007 0.236348 0.537636 -0.158659 -0.014854 0.298175 -0.428200 0.072317 -0.276460
6 -0.218728 -0.639522 0.213159 -0.196235 -0.124533 -0.015194 0.150209 0.133326 0.215024 0.070271 0.194601 0.474028 -0.173113 -0.011639 0.302685 -0.369626 0.050398 -0.250056
16 -0.264985 -0.686263 0.244250 -0.245367 -0.166231 -0.032508 0.167481 0.118518 0.236969 0.085110 0.196651 0.540381 -0.187675 0.036119 0.342833 -0.431558 0.034030 -0.296267
9 -0.269627 -0.710783 0.212091 -0.263330 -0.146577 -0.028249 0.150021 0.139298 0.277445 0.080151 0.208867 0.557274 -0.180738 -0.027860 0.312395 -0.421313 0.054362 -0.236959
15 -0.258083 -0.653868 0.231220 -0.244149 -0.123362 0.001203 0.149231 0.087935 0.214193 0.057599 0.203868 0.481277 -0.163513 0.016891 0.304983 -0.390542 0.034025 -0.252667
3 -0.275427 -0.682913 0.257847 -0.234660 -0.135298 -0.035611 0.159128 0.141890 0.197791 0.056921 0.223134 0.508052 -0.205458 -0.033356 0.305177 -0.442791 0.091931 -0.279831
7 -0.238577 -0.728601 0.225807 -0.256540 -0.168777 -0.014238 0.160791 0.147757 0.264190 0.066964 0.205944 0.553266 -0.184939 -0.026976 0.356361 -0.437088 0.070014 -0.280253
14 -0.250604 -0.653826 0.239990 -0.238899 -0.128758 -0.015920 0.121350 0.103635 0.208952 0.093880 0.157029 0.490704 -0.178248 0.014819 0.292922 -0.361205 0.085421 -0.241014
