18 18
4 -0.416973 -0.607519 0.317748 -0.510369 -0.135867 0.100773 0.058404 -0.139360 0.207093 0.138740 0.191738 0.510206 -0.205685 -0.089148 0.501225 -0.418158 -0.344942 -0.300850
8 -0.360963 -0.583802 0.319631 -0.460996 -0.167468 0.120648 0.076000 -0.167221 0.150780 0.188559 0.115345 0.422982 -0.210071 -0.052016 0.488027 -0.365539 -0.306810 -0.235647
11 -0.401821 -0.567823 0.315019 -0.467435 -0.128997 0.094881 0.034075 -0.163616 0.169521 0.135658 0.128382 0.421026 -0.198134 -0.007705 0.480059 -0.362838 -0.342544 -0.247610
9 -0.348455 -0.539843 0.212591 -0.438045 -0.126102 0.086035 0.076569 -0.076588 0.233770 0.103032 0.157534 0.473365 -0.177637 -0.141492 0.397838 -0.370060 -0.264369 -0.219881
1 -0.375396 -0.578320 0.261768 -0.457596 -0.113608 0.073518 0.090214 -0.094881 0.227389 0.101153 0.137330 0.445205 -0.181594 -0.118389 0.405631 -0.380025 -0.255627 -0.263173
5 -0.325042 -0.564009 0.191800 -0.424013 -0.105349 0.092051 0.125657 -0.127381 0.248715 0.077663 0.162381 0.454130 -0.208036 -0.115534 0.424917 -0.376886 -0.271256 -0.262308
14 -0.366836 -0.557981 0.296702 -0.464268 -0.123425 0.099650 0.051191 -0.131018 0.159807 0.146600 0.123997 0.462000 -0.197395 -0.082188 0.423730 -0.352276 -0.275479 -0.241962
10 -0.343486 -0.549070 0.233601 -0.444538 -0.122181 0.127747 0.101633 -0.110749 0.218258 0.096554 0.173509 0.488044 -0.204914 -0.089760 0.407140 -0.353298 -0.269817 -0.223696
0 -0.365249 -0.582316 0.242180 -0.476367 -0.144560 0.112737 0.081019 -0.112082 0.212806 0.100471 0.184334 0.471114 -0.190334 -0.113609 0.442946 -0.389463 -0.249716 -0.253894
12 -0.381456 -0.559203 0.301551 -0.469374 -0.159707 0.092259 0.031177 -0.192455 0.115026 0.179237 0.141295 0.422796 -0.188583 -0.026099 0.441201 -0.313917 -0.334747 -0.215018
3 -0.372449 -0.544378 0.260101 -0.433530 -0.118019 0.090305 0.105904 -0.080507 0.185771 0.082733 0.176039 0.451303 -0.213301 -0.157674 0.391021 -0.396663 -0.234875 -0.267948
13 -0.327377 -0.526641 0.271556 -0.465997 -0.149292 0.087649 0.069411 -0.162696 0.172987 0.155916 0.116241 0.386790 -0.156913 -0.099090 0.423870 -0.331038 -0.302607 -0.233462
7 -0.317443 -0.537570 0.209997 -0.437368 -0.148903 0.119053 0.097012 -0.101540 0.236567 0.098931 0.138740 0.454566 -0.183391 -0.137765 0.435854 -0.354601 -0.269913 -0.252230
15 -0.373605 -0.523434 0.282919 -0.461519 -0.127134 0.134317 0.078923 -0.198008 0.157798 0.127595 0.137147 0.391753 -0.166196 -0.024665 0.436796 -0.328595 -0.331464 -0.250512
2 -0.315938 -0.557138 0.231192 -0.436289 -0.133209 0.088871 0.105983 -0.068043 0.178900 0.100332 0.141178 0.477481 -0.170822 -0.149525 0.391558 -0.390010 -0.268184 -0.226721
17 -0.369965 -0.579159 0.258372 -0.445783 -0.161652 0.072619 0.097372 -0.092470 0.245254 0.137973 0.175301 0.510773 -0.179366 -0.099166 0.419979 -0.365634 -0.287043 -0.287005
6 -0.342009 -0.559382 0.241441 -0.414399 -0.116292 0.107849 0.108307 -0.085831 0.219633 0.098514 0.160689 0.457049 -0.205036 -0.124092 0.433413 -0.367464 -0.275988 -0.269324
16 -0.348367 -0.498927 0.289136 -0.449706 -0.144886 0.114287 0.087075 -0.201095 0.143322 0.156480 0.091474 0.409933 -0.186520 0.007079 0.466138 -0.340855 -0.362762 -0.267755
