18 18
16 -0.011802 -0.457651 -0.053971 -0.504443 -0.199999 0.162319 0.102228 -0.141241 0.123108 0.114197 -0.042740 0.634884 -0.062753 -0.272498 0.363039 -0.145356 -0.335296 -0.182314
1 -0.088282 -0.531667 -0.013189 -0.499318 -0.128140 0.143330 0.108029 -0.108775 0.194431 0.067465 -0.012921 0.622534 -0.100482 -0.277149 0.322400 -0.182199 -0.255056 -0.165279
5 -0.017327 -0.543260 -0.076419 -0.526682 -0.175275 0.175000 0.129950 -0.170954 0.170581 0.092445 0.002074 0.678168 -0.102922 -0.285666 0.389281 -0.169595 -0.330872 -0.195446
9 -0.058144 -0.479027 -0.058728 -0.473290 -0.146911 0.165367 0.103151 -0.099823 0.200896 0.070285 -0.003312 0.646439 -0.101796 -0.296177 0.322250 -0.159350 -0.270739 -0.133594
2 -0.013579 -0.507060 -0.056300 -0.508038 -0.179553 0.172325 0.111866 -0.115062 0.137761 0.088561 -0.022308 0.654908 -0.067762 -0.299714 0.342632 -0.165635 -0.308229 -0.150802
7 -0.003126 -0.483955 -0.069039 -0.495237 -0.185511 0.190897 0.116163 -0.125059 0.183729 0.082159 -0.026143 0.637545 -0.087564 -0.300025 0.368313 -0.143295 -0.285794 -0.170518
0 -0.025872 -0.534379 -0.042933 -0.552553 -0.217253 0.207401 0.091798 -0.164239 0.133563 0.116015 0.006413 0.649956 -0.080209 -0.286260 0.405091 -0.153396 -0.296981 -0.177672
15 -0.045717 -0.499999 -0.042063 -0.529523 -0.174038 0.192473 0.114022 -0.163773 0.146705 0.086476 -0.005979 0.632422 -0.063586 -0.276292 0.358356 -0.153924 -0.335349 -0.181132
13 0.018968 -0.514046 -0.046233 -0.566414 -0.227928 0.189832 0.113606 -0.191461 0.137060 0.147675 -0.034046 0.640850 -0.059065 -0.315638 0.406895 -0.139043 -0.354513 -0.198422
6 -0.005408 -0.495272 -0.038980 -0.489458 -0.196086 0.186137 0.099687 -0.135724 0.113938 0.121746 -0.014932 0.613969 -0.073118 -0.288699 0.380583 -0.131816 -0.319878 -0.185107
10 -0.090151 -0.545519 -0.018715 -0.434735 -0.088975 0.209948 0.169095 -0.110358 0.265946 0.021265 0.041453 0.666866 -0.210342 -0.198593 0.344079 -0.169258 -0.226185 -0.153499
12 -0.050196 -0.527898 -0.060151 -0.543451 -0.206152 0.163344 0.076881 -0.161614 0.142288 0.124709 0.009387 0.704721 -0.077122 -0.276875 0.356096 -0.117158 -0.337415 -0.153989
14 -0.017624 -0.534696 -0.028642 -0.561056 -0.197516 0.207254 0.088916 -0.170615 0.124787 0.137807 -0.049741 0.684724 -0.088196 -0.302048 0.397012 -0.128438 -0.322356 -0.181509
8 -0.112943 -0.567150 0.020597 -0.423127 -0.096602 0.182494 0.159106 -0.096854 0.233837 0.047177 0.016930 0.623629 -0.215393 -0.219560 0.353174 -0.215282 -0.194598 -0.160541
3 -0.100973 -0.524162 0.009637 -0.452390 -0.103439 0.183462 0.147999 -0.117466 0.176758 0.037019 0.026465 0.606385 -0.191332 -0.270162 0.337894 -0.200230 -0.215981 -0.178214
11 -0.116031 -0.562851 -0.002486 -0.450640 -0.097351 0.171608 0.115168 -0.090222 0.240939 0.023444 0.016047 0.656115 -0.191121 -0.223184 0.382442 -0.215214 -0.253590 -0.167557
17 -0.042846 -0.535291 -0.045092 -0.504034 -0.203829 0.163751 0.134386 -0.118916 0.210650 0.114224 0.000689 0.715716 -0.082804 -0.278190 0.356191 -0.138677 -0.311652 -0.210401
4 -0.068244 -0.483427 -0.032470 -0.466535 -0.119990 0.148773 0.089647 -0.082613 0.197482 0.053503 0.020546 0.658588 -0.103903 -0.276511 0.330757 -0.173299 -0.262643 -0.179955
