18 18
3 -0.337245 -0.669477 0.289721 -0.356781 -0.146145 -0.024414 0.093549 0.057993 0.145235 0.021502 0.169916 0.352570 -0.132603 -0.129742 0.337954 -0.435545 0.059042 -0.339944
11 -0.355197 -0.696891 0.282971 -0.356410 -0.122452 -0.036565 0.053205 0.055373 0.181116 0.010402 0.148617 0.394899 -0.134009 -0.046396 0.372526 -0.426653 0.009372 -0.321187
2 -0.302553 -0.672240 0.250876 -0.367024 -0.152621 -0.042115 0.080339 0.091949 0.158838 0.021476 0.161267 0.397939 -0.076031 -0.128256 0.314595 -0.430720 0.028797 -0.298567
1 -0.370396 -0.688383 0.271191 -0.363127 -0.106083 -0.077592 0.046122 0.097444 0.224719 0.016643 0.153472 0.349260 -0.060628 -0.097297 0.270709 -0.396818 0.073413 -0.280668
7 -0.288343 -0.654088 0.223527 -0.363964 -0.175027 -0.019977 0.071079 0.083121 0.211384 0.022405 0.162571 0.364080 -0.083793 -0.153174 0.346922 -0.410434 0.056664 -0.308636
10 -0.350607 -0.693687 0.256542 -0.359039 -0.118470 -0.017258 0.074784 0.069595 0.220589 -0.000682 0.188624 0.397986 -0.113617 -0.058465 0.312748 -0.390198 0.061044 -0.283944
12 -0.362013 -0.698642 0.261416 -0.383905 -0.163355 -0.042917 0.045879 0.028212 0.152656 0.048402 0.195980 0.405678 -0.109797 -0.085079 0.330832 -0.383316 0.007338 -0.291007
0 -0.346739 -0.663237 0.238757 -0.372407 -0.141772 -0.031675 0.027467 0.060496 0.181651 0.018740 0.180449 0.351171 -0.072280 -0.075014 0.304597 -0.379253 0.068489 -0.249631
4 -0.342769 -0.651518 0.254352 -0.358714 -0.120373 -0.067208 0.036295 0.120273 0.213420 0.005273 0.204438 0.376241 -0.054031 -0.141593 0.292656 -0.415995 0.064959 -0.306682
9 -0.350531 -0.660471 0.230614 -0.368978 -0.131784 -0.051089 0.051257 0.101424 0.226477 0.017066 0.182694 0.380765 -0.070848 -0.150174 0.284164 -0.400723 0.037723 -0.261162
6 -0.321535 -0.688673 0.274179 -0.342153 -0.146518 -0.026295 0.082272 0.100388 0.179728 0.027642 0.178415 0.369006 -0.098087 -0.136994 0.345589 -0.418352 0.036377 -0.329342
8 -0.316533 -0.675030 0.270595 -0.345346 -0.152728 -0.020651 0.079229 0.056190 0.166051 0.046934 0.144988 0.360081 -0.114284 -0.090052 0.339364 -0.404495 0.038088 -0.295522
5 -0.330616 -0.692157 0.235946 -0.355376 -0.114020 -0.045723 0.089167 0.037295 0.214326 0.006972 0.193781 0.387258 -0.115485 -0.080500 0.332533 -0.418629 0.036197 -0.325437
15 -0.348235 -0.673346 0.286328 -0.376943 -0.128926 -0.000211 0.082177 0.018878 0.155111 0.021002 0.156611 0.380388 -0.107796 -0.067213 0.340539 -0.397850 -0.007913 -0.319876
17 -0.346939 -0.691980 0.276278 -0.345622 -0.160193 -0.057834 0.082390 0.074185 0.214037 0.046412 0.177308 0.404723 -0.089842 -0.068438 0.312556 -0.385696 0.044235 -0.335481
13 -0.291954 -0.663610 0.278495 -0.391037 -0.159300 -0.029808 0.085744 0.024644 0.165426 0.055699 0.142066 0.370468 -0.098296 -0.123259 0.355207 -0.413942 -0.000669 -0.338443
14 -0.352326 -0.697780 0.295585 -0.387357 -0.118314 -0.019019 0.051928 0.037708 0.160429 0.041207 0.127082 0.398904 -0.121166 -0.083653 0.338163 -0.393727 0.036211 -0.307798
16 -0.346502 -0.687206 0.290389 -0.376947 -0.149186 -0.026542 0.090728 0.026002 0.155365 0.040689 0.123800 0.412231 -0.132997 -0.053863 0.374530 -0.425324 -0.022153 -0.347107
