18 18
5 -0.254369 -0.415613 0.051583 -0.135190 0.046885 -0.011716 0.194870 0.007345 0.281870 -0.104780 0.380994 0.384422 -0.249736 -0.282861 0.384382 -0.396194 -0.182792 -0.536783
9 -0.285931 -0.399320 0.057037 -0.131302 0.018499 -0.002960 0.168372 0.074974 0.321258 -0.082411 0.392992 0.439165 -0.236203 -0.318944 0.371362 -0.375556 -0.201000 -0.510473
1 -0.306401 -0.428221 0.127128 -0.150104 0.036431 -0.040184 0.172644 0.091346 0.292582 -0.086707 0.354921 0.388955 -0.189618 -0.307184 0.354461 -0.421644 -0.191213 -0.551136
17 -0.267400 -0.396691 0.100986 -0.110463 -0.002820 -0.026368 0.186473 0.063536 0.280064 -0.054714 0.359751 0.396862 -0.198224 -0.264400 0.345950 -0.353783 -0.180314 -0.549531
8 -0.275522 -0.430304 0.112088 -0.116368 -0.001738 0.011933 0.179974 0.071746 0.276175 -0.053293 0.374709 0.402791 -0.240764 -0.289338 0.396485 -0.378433 -0.167877 -0.531856
11 -0.274650 -0.379594 0.094822 -0.110619 0.039797 -0.017232 0.137800 0.076242 0.275631 -0.102286 0.336200 0.372547 -0.224020 -0.260377 0.378539 -0.391418 -0.194884 -0.510477
7 -0.257317 -0.403174 0.068549 -0.145616 0.007397 0.013188 0.176953 0.049503 0.299237 -0.092646 0.358472 0.399777 -0.238345 -0.334816 0.412080 -0.386897 -0.180744 -0.560478
6 -0.254655 -0.382720 0.092090 -0.099030 0.022210 0.002646 0.174301 0.059666 0.248374 -0.070249 0.348136 0.370937 -0.237820 -0.303347 0.384149 -0.364326 -0.180902 -0.548824
16 -0.268746 -0.377621 0.083920 -0.121173 0.009734 0.002918 0.183534 0.029158 0.273844 -0.067117 0.338665 0.406471 -0.251821 -0.249764 0.397076 -0.373474 -0.201590 -0.547792
13 -0.241240 -0.374967 0.096466 -0.153973 0.018620 -0.017593 0.181591 0.014280 0.261286 -0.069391 0.310215 0.346003 -0.214601 -0.320964 0.382825 -0.398826 -0.202487 -0.563194
15 -0.280277 -0.394731 0.108197 -0.145874 0.032452 0.022632 0.187196 0.030801 0.262371 -0.092984 0.365510 0.371761 -0.208624 -0.271368 0.368154 -0.386112 -0.205891 -0.528633
3 -0.288204 -0.378160 0.107440 -0.135027 0.032077 -0.018453 0.194522 0.025343 0.232439 -0.094454 0.336933 0.345556 -0.255221 -0.326012 0.358020 -0.407122 -0.156724 -0.571721
12 -0.282309 -0.393619 0.087111 -0.140962 0.008224 -0.012128 0.130664 0.019742 0.235268 -0.055385 0.361532 0.390984 -0.216720 -0.245987 0.356522 -0.324041 -0.199235 -0.483181
14 -0.288209 -0.411862 0.116373 -0.145035 0.035853 0.002565 0.137842 0.050465 0.250331 -0.061606 0.325478 0.398733 -0.236818 -0.291500 0.376353 -0.351050 -0.159871 -0.526069
4 -0.255779 -0.344904 0.089657 -0.112990 0.035961 -0.024143 0.133420 0.077535 0.258448 -0.088932 0.363505 0.367557 -0.186360 -0.283371 0.346630 -0.360789 -0.166676 -0.524480
2 -0.253168 -0.409091 0.094109 -0.148526 0.029401 -0.013203 0.185359 0.090490 0.259764 -0.103428 0.379507 0.411316 -0.188036 -0.321487 0.372941 -0.444303 -0.229733 -0.523972
0 -0.268339 -0.398182 0.092087 -0.158195 0.001849 0.007495 0.174961 0.037464 0.261709 -0.087190 0.364138 0.371622 -0.215489 -0.291455 0.391450 -0.408708 -0.165154 -0.548382
10 -0.274689 -0.409537 0.072185 -0.113261 0.018151 0.032564 0.198556 0.049141 0.321956 -0.086743 0.399940 0.422612 -0.259163 -0.244837 0.359976 -0.330130 -0.166971 -0.502900
