18 18
14 -0.124200 -0.570408 0.346107 -0.485485 -0.093823 0.317500 0.348991 -0.117715 0.213960 0.138241 -0.091020 0.340744 -0.124610 -0.339324 0.436325 -0.311807 -0.313720 -0.382764
13 -0.081856 -0.559965 0.316254 -0.447009 -0.112317 0.281837 0.362553 -0.072189 0.268430 0.120954 -0.084737 0.315370 -0.099648 -0.351242 0.430653 -0.324856 -0.329375 -0.368484
8 -0.101105 -0.571287 0.294943 -0.388705 -0.100113 0.232298 0.360047 0.010544 0.247259 0.080964 -0.025562 0.352439 -0.117053 -0.351073 0.400703 -0.396962 -0.269246 -0.355919
7 -0.067379 -0.581985 0.264466 -0.421606 -0.126406 0.303891 0.382075 -0.020883 0.334514 0.073651 -0.069441 0.367854 -0.121053 -0.366072 0.456148 -0.335996 -0.304019 -0.375432
6 -0.098362 -0.557808 0.322546 -0.401293 -0.069520 0.261383 0.375667 -0.015193 0.212827 0.083291 -0.023367 0.334614 -0.112277 -0.384055 0.421699 -0.385848 -0.307400 -0.416217
15 -0.135182 -0.607576 0.353436 -0.496613 -0.127993 0.353426 0.375979 -0.136087 0.252343 0.131318 -0.076985 0.325668 -0.114585 -0.309597 0.474158 -0.314462 -0.356224 -0.385924
2 -0.097905 -0.483429 0.265011 -0.333329 0.021324 0.097548 0.323998 0.132934 0.127237 -0.052284 0.089879 0.358072 -0.058194 -0.432913 0.282183 -0.538546 -0.214370 -0.384207
9 -0.119174 -0.530969 0.238763 -0.399628 -0.064371 0.217588 0.353557 0.013991 0.293338 0.050540 0.000331 0.400670 -0.105148 -0.388514 0.359276 -0.385458 -0.307870 -0.348390
17 -0.093350 -0.561771 0.276551 -0.380563 -0.142049 0.242453 0.369436 -0.020040 0.295725 0.124751 -0.043966 0.376311 -0.092555 -0.297603 0.375904 -0.295623 -0.303437 -0.348728
12 -0.142563 -0.612637 0.317528 -0.465410 -0.120871 0.287453 0.354333 -0.096536 0.274816 0.122270 -0.035661 0.385584 -0.132610 -0.315768 0.450229 -0.312685 -0.366805 -0.376993
0 -0.105147 -0.540561 0.307425 -0.452795 -0.113522 0.285769 0.320753 -0.075295 0.190279 0.102890 -0.030152 0.304852 -0.093788 -0.338414 0.429132 -0.340449 -0.274930 -0.363801
3 -0.182984 -0.436618 0.275619 -0.272821 0.152998 -0.024195 0.308917 0.207528 0.106658 -0.173019 0.219806 0.352818 -0.090779 -0.502085 0.209896 -0.664788 -0.142854 -0.487868
1 -0.158021 -0.494333 0.310448 -0.343774 0.085106 0.038589 0.300229 0.155319 0.136564 -0.077750 0.107439 0.333334 -0.049891 -0.458827 0.263140 -0.585480 -0.181744 -0.444436
16 -0.125298 -0.551184 0.323894 -0.452859 -0.113165 0.290121 0.372232 -0.098519 0.250225 0.119371 -0.074638 0.341826 -0.124642 -0.308241 0.451272 -0.338481 -0.349340 -0.408162
4 -0.194314 -0.390166 0.252925 -0.233610 0.242664 -0.149424 0.257905 0.318459 0.087612 -0.249307 0.321183 0.406622 -0.031460 -0.547017 0.152789 -0.778497 -0.134377 -0.535267
10 -0.083972 -0.596321 0.275577 -0.392640 -0.065381 0.295662 0.396536 0.023443 0.320098 0.008936 0.001152 0.395762 -0.142419 -0.336813 0.414543 -0.371059 -0.272069 -0.360491
5 -0.153767 -0.435257 0.220590 -0.269083 0.164834 -0.046818 0.307014 0.172476 0.123495 -0.164111 0.222665 0.372328 -0.072086 -0.464162 0.211474 -0.656969 -0.179212 -0.478161
11 -0.103035 -0.546515 0.267948 -0.356199 -0.057928 0.246753 0.305717 0.019145 0.291702 0.006076 -0.037541 0.324755 -0.134572 -0.281837 0.424942 -0.348177 -0.267729 -0.336361
