18 18
16 -0.525062 -0.544505 0.358018 -0.406037 -0.039415 0.135111 0.101004 0.047069 0.390730 0.025266 -0.041109 0.496576 -0.141681 0.006764 0.182487 -0.134504 0.013844 -0.344272
3 -0.531728 -0.551045 0.342154 -0.388662 -0.026845 0.145556 0.103359 0.055484 0.383204 -0.005148 0.007232 0.468113 -0.168859 -0.056641 0.166933 -0.149521 0.059745 -0.325748
17 -0.492541 -0.533751 0.306876 -0.351647 -0.065107 0.101797 0.103243 0.068470 0.417560 0.032581 0.015574 0.500287 -0.114877 -0.009362 0.140507 -0.098389 0.025318 -0.324875
9 -0.505203 -0.584730 0.279305 -0.413357 -0.033799 0.161353 0.090510 0.098627 0.489959 -0.011254 -0.017772 0.500146 -0.130061 -0.112656 0.201042 -0.173258 0.047202 -0.292926
10 -0.509893 -0.596956 0.321561 -0.421460 -0.037039 0.203660 0.112677 0.071006 0.452304 -0.010650 0.003429 0.502224 -0.141804 -0.054425 0.170682 -0.115530 0.077076 -0.284135
1 -0.486696 -0.601724 0.324892 -0.415342 -0.042459 0.145215 0.091347 0.103331 0.449950 0.014576 -0.043721 0.440984 -0.105371 -0.114623 0.182778 -0.163027 0.094721 -0.292630
14 -0.490714 -0.581000 0.347089 -0.428465 -0.019593 0.181178 0.075500 0.058302 0.387494 0.018495 -0.057460 0.452837 -0.134548 -0.081290 0.190272 -0.139346 0.083869 -0.288352
11 -0.503504 -0.601030 0.306394 -0.392498 -0.032981 0.157553 0.080568 0.107957 0.479950 -0.024182 -0.026978 0.488633 -0.148558 -0.067373 0.226283 -0.170826 0.059131 -0.307181
7 -0.408791 -0.608548 0.259243 -0.419308 -0.079694 0.237839 0.112612 0.108752 0.499107 -0.005209 -0.067696 0.444220 -0.131848 -0.190962 0.265526 -0.171729 0.124724 -0.280912
0 -0.462883 -0.569661 0.283368 -0.416197 -0.059621 0.181160 0.077737 0.075793 0.424350 -0.006294 -0.005384 0.439519 -0.116721 -0.104905 0.222461 -0.170805 0.090044 -0.285053
15 -0.482158 -0.525310 0.304138 -0.389322 -0.021569 0.158535 0.094629 0.030462 0.384351 -0.007119 -0.004850 0.428143 -0.110821 -0.033502 0.173792 -0.140969 0.013749 -0.288885
12 -0.500994 -0.545444 0.305722 -0.393792 -0.056041 0.124621 0.068833 0.022430 0.362443 0.034860 0.019535 0.485311 -0.129284 -0.007711 0.162068 -0.092131 0.002929 -0.279048
5 -0.457994 -0.541531 0.248852 -0.357685 -0.007683 0.118201 0.106985 0.042106 0.430742 -0.023576 0.014835 0.469349 -0.141974 -0.031136 0.185279 -0.154029 0.012076 -0.306542
2 -0.478253 -0.574229 0.316041 -0.413422 -0.049084 0.164234 0.105702 0.078781 0.387195 0.002772 -0.016399 0.486514 -0.116122 -0.075596 0.175474 -0.157947 0.041755 -0.283240
6 -0.511677 -0.608392 0.322198 -0.389367 -0.038240 0.173628 0.114106 0.110719 0.472433 -0.004145 -0.005909 0.495221 -0.146133 -0.099519 0.221022 -0.165869 0.051938 -0.342710
8 -0.443814 -0.637548 0.304352 -0.409813 -0.070627 0.226183 0.119871 0.104890 0.474465 0.016528 -0.060480 0.449167 -0.156476 -0.150976 0.264089 -0.192649 0.125463 -0.283123
13 0.019096 0.002747 0.009678 -0.019404 -0.008210 -0.004883 0.008138 -0.018294 0.006568 0.019257 -0.015253 -0.018294 0.012156 -0.023377 0.007956 -0.002520 -0.021393 -0.009389
4 -0.000863 0.026536 0.000487 0.011658 0.016931 -0.018308 -0.024615 0.027506 0.003913 -0.015616 0.024595 0.006644 0.019102 -0.007194 -0.007301 -0.006238 0.005807 -0.017039
