18 18
1 -0.317356 -0.606747 0.479425 -0.201875 0.108770 0.225343 0.185228 0.268821 0.095284 0.003041 -0.029971 0.336056 -0.307290 -0.239629 0.274384 -0.359081 0.176814 -0.301790
0 -0.279125 -0.564672 0.438163 -0.214584 0.069820 0.265789 0.164099 0.226711 0.061071 0.005270 -0.010026 0.311616 -0.286830 -0.214017 0.286522 -0.327585 0.194421 -0.261133
10 -0.302941 -0.595372 0.459062 -0.217273 0.098772 0.297543 0.174870 0.211859 0.092879 -0.005698 -0.007943 0.364965 -0.349635 -0.186030 0.295554 -0.289764 0.164863 -0.247240
4 -0.322694 -0.593304 0.490109 -0.188820 0.111460 0.234085 0.175617 0.291137 0.082583 -0.005254 0.026885 0.388999 -0.317741 -0.240547 0.299050 -0.378187 0.184090 -0.353763
11 -0.326138 -0.606018 0.474997 -0.219355 0.095234 0.229691 0.118457 0.225497 0.087026 -0.004903 -0.004797 0.355021 -0.333816 -0.182609 0.324882 -0.320949 0.112805 -0.270177
3 -0.324180 -0.574386 0.478652 -0.179331 0.097732 0.254697 0.213981 0.242800 0.054605 -0.009784 0.006291 0.331069 -0.348878 -0.240889 0.278531 -0.363815 0.195659 -0.325802
6 -0.288733 -0.599245 0.464154 -0.175428 0.096439 0.291694 0.203394 0.262881 0.078624 0.001005 -0.014317 0.339765 -0.334593 -0.233012 0.308011 -0.329405 0.169544 -0.291325
17 -0.311088 -0.605917 0.480339 -0.185718 0.068006 0.240876 0.204923 0.265643 0.104556 0.027190 -0.001016 0.380522 -0.309466 -0.210110 0.279198 -0.327165 0.181807 -0.329255
5 -0.297793 -0.595300 0.425305 -0.191381 0.104904 0.228032 0.199136 0.208090 0.102796 -0.014330 0.023898 0.366414 -0.332614 -0.198978 0.296372 -0.347519 0.136745 -0.314497
9 -0.320478 -0.605767 0.452310 -0.205817 0.098759 0.283467 0.201224 0.272144 0.106237 -0.008808 -0.012271 0.379022 -0.333970 -0.258417 0.286156 -0.361337 0.185336 -0.276806
12 -0.370570 -0.661318 0.513973 -0.280419 0.067110 0.222281 0.112795 0.165742 0.055934 0.053022 0.044118 0.422660 -0.343117 -0.176125 0.327799 -0.291814 0.084823 -0.294163
2 -0.250966 -0.556199 0.424748 -0.183037 0.083336 0.246818 0.199955 0.260372 0.047079 0.001002 -0.032918 0.330550 -0.279928 -0.242409 0.253667 -0.349906 0.172991 -0.252818
8 -0.255016 -0.572074 0.437050 -0.178644 0.063589 0.254952 0.188748 0.231374 0.063127 0.033090 -0.047208 0.306615 -0.302493 -0.212162 0.278988 -0.327014 0.191933 -0.245354
7 -0.267482 -0.580029 0.426184 -0.205255 0.073198 0.300183 0.190712 0.252691 0.107562 -0.012669 -0.034600 0.340249 -0.311997 -0.247110 0.303337 -0.320635 0.191543 -0.262011
14 -0.280713 -0.574335 0.466011 -0.228216 0.094476 0.265784 0.142633 0.194816 0.039382 0.035366 -0.062518 0.323121 -0.311727 -0.204534 0.268209 -0.283089 0.181822 -0.226922
16 -0.297353 -0.554529 0.452455 -0.190651 0.085579 0.248974 0.194344 0.230763 0.081488 0.001950 -0.027959 0.355292 -0.327741 -0.191921 0.304521 -0.340785 0.130036 -0.307718
13 -0.323026 -0.646411 0.521845 -0.271639 0.083263 0.248189 0.152954 0.191181 0.078507 0.043339 -0.004839 0.373498 -0.338880 -0.234992 0.338107 -0.331878 0.103646 -0.307191
15 -0.305422 -0.574567 0.459633 -0.210570 0.099711 0.291520 0.193884 0.208026 0.075569 -0.008436 -0.019743 0.326564 -0.313873 -0.202164 0.288222 -0.327312 0.155465 -0.271631
