18 18
8 -0.315635 -0.592529 0.239250 -0.367724 0.006135 0.069144 0.112326 -0.076273 0.157268 0.013136 0.081634 0.392246 -0.220335 -0.196570 0.349435 -0.395587 -0.122129 -0.295849
11 -0.361038 -0.604513 0.222543 -0.379783 0.036584 0.050139 0.046707 -0.051252 0.176719 -0.042444 0.106092 0.428174 -0.236342 -0.187432 0.393670 -0.424961 -0.152807 -0.302089
5 -0.300149 -0.585549 0.191105 -0.374937 0.062187 0.039391 0.151656 -0.130710 0.204809 -0.030991 0.103033 0.388149 -0.226675 -0.196230 0.315864 -0.388881 -0.129755 -0.335607
0 -0.368796 -0.653250 0.232040 -0.445993 0.000465 0.072280 0.076782 -0.094206 0.179416 -0.021729 0.164700 0.450487 -0.230108 -0.230078 0.405815 -0.438131 -0.126329 -0.337793
7 -0.323331 -0.601376 0.217567 -0.418070 0.011424 0.078567 0.097977 -0.092049 0.191907 -0.014959 0.080123 0.418079 -0.221363 -0.242782 0.370994 -0.392616 -0.130297 -0.319961
17 -0.342050 -0.609031 0.260808 -0.382200 0.012577 0.045455 0.133103 -0.080768 0.198543 0.021936 0.070669 0.429235 -0.206031 -0.191946 0.318524 -0.368441 -0.135859 -0.343297
9 -0.364176 -0.622690 0.215279 -0.423852 0.021841 0.070747 0.085752 -0.085840 0.185191 -0.004641 0.089558 0.463899 -0.224121 -0.224680 0.360860 -0.410230 -0.169102 -0.288037
4 -0.344084 -0.554577 0.231568 -0.383456 0.047176 0.032530 0.063191 -0.060740 0.180493 -0.030611 0.119508 0.404798 -0.192989 -0.217712 0.327528 -0.389217 -0.121710 -0.332070
14 -0.364562 -0.622887 0.297449 -0.427645 0.070546 0.076073 0.104274 -0.116648 0.149349 0.022178 0.002046 0.412896 -0.227706 -0.193276 0.315213 -0.370867 -0.120507 -0.309008
12 -0.369821 -0.631921 0.226294 -0.425944 0.007382 0.062019 0.066734 -0.124234 0.150170 0.005868 0.144241 0.457713 -0.238518 -0.193242 0.375012 -0.378283 -0.171423 -0.301236
2 -0.322553 -0.611992 0.240504 -0.410029 0.021731 0.072822 0.105528 -0.071957 0.130491 -0.003805 0.063944 0.437298 -0.213037 -0.222803 0.353126 -0.422725 -0.160342 -0.287440
6 -0.327636 -0.607450 0.218978 -0.366492 0.024009 0.075841 0.092101 -0.064471 0.161948 -0.012555 0.127888 0.424978 -0.231541 -0.211122 0.382728 -0.396895 -0.155956 -0.314501
13 -0.328138 -0.589388 0.254443 -0.422136 0.027329 0.043950 0.111382 -0.121113 0.186774 0.003257 0.089518 0.372038 -0.212648 -0.242643 0.337667 -0.387655 -0.136609 -0.340198
10 -0.358263 -0.635879 0.231727 -0.407649 0.042399 0.089286 0.106167 -0.094881 0.204231 -0.034141 0.136911 0.457448 -0.257717 -0.196851 0.361717 -0.384294 -0.135927 -0.311807
1 -0.350198 -0.581008 0.261872 -0.391289 0.058392 0.024860 0.105346 -0.076386 0.197455 -0.011018 0.062360 0.362422 -0.186919 -0.207732 0.279378 -0.367563 -0.098424 -0.320224
16 -0.374425 -0.630065 0.256694 -0.434791 0.031269 0.070887 0.116017 -0.118979 0.171071 -0.006876 0.073871 0.451079 -0.255890 -0.198352 0.395552 -0.436760 -0.172657 -0.356538
15 -0.385456 -0.636931 0.289770 -0.426147 0.059088 0.091395 0.129867 -0.116859 0.175631 -0.008345 0.066068 0.417459 -0.212478 -0.183934 0.330806 -0.395790 -0.156466 -0.331518
3 -0.356605 -0.554810 0.254839 -0.378421 0.049178 0.045686 0.108110 -0.096170 0.145850 -0.027611 0.099617 0.353756 -0.233796 -0.228002 0.297162 -0.385843 -0.089779 -0.326005
