18 18
8 -0.187468 -0.529769 0.333306 -0.439038 -0.259753 0.100122 0.146065 0.063249 0.132100 0.323188 -0.092322 0.488556 -0.132655 -0.297190 0.330344 -0.360154 0.008699 -0.247883
14 -0.208562 -0.517994 0.372218 -0.472182 -0.231420 0.083011 0.094416 0.044268 0.092148 0.354253 -0.122888 0.485381 -0.121545 -0.311158 0.288503 -0.318332 0.031047 -0.238784
3 -0.206090 -0.497009 0.359278 -0.452671 -0.245411 0.077235 0.134639 0.096745 0.114869 0.306722 -0.057703 0.497153 -0.133458 -0.383397 0.322887 -0.391973 0.060388 -0.307739
2 -0.128320 -0.488821 0.302671 -0.446684 -0.256735 0.087330 0.124334 0.102985 0.082064 0.302011 -0.078887 0.509160 -0.083335 -0.375651 0.325598 -0.379219 0.007056 -0.237789
9 -0.195633 -0.538498 0.290145 -0.483860 -0.251949 0.100485 0.128898 0.070571 0.173824 0.296853 -0.064821 0.533348 -0.116541 -0.346253 0.326132 -0.365806 -0.035529 -0.203438
1 -0.201281 -0.532808 0.340906 -0.453986 -0.241175 0.052138 0.121119 0.097946 0.160112 0.311178 -0.097136 0.468049 -0.091689 -0.325786 0.307819 -0.364458 0.023856 -0.271276
4 -0.195604 -0.544509 0.348498 -0.497646 -0.256537 0.083153 0.113005 0.103154 0.158637 0.317061 -0.058144 0.559566 -0.105895 -0.378513 0.360463 -0.409194 0.017805 -0.300570
10 -0.177178 -0.499638 0.255623 -0.421690 -0.193234 0.126159 0.143274 0.045564 0.196228 0.208843 -0.027794 0.494527 -0.140384 -0.244416 0.303623 -0.317765 -0.028134 -0.193780
16 -0.193000 -0.495350 0.312418 -0.449584 -0.228564 0.095439 0.139176 0.036127 0.151347 0.285457 -0.095109 0.492346 -0.135437 -0.265815 0.329261 -0.350063 -0.037645 -0.254624
0 -0.198684 -0.521298 0.323747 -0.483217 -0.274672 0.097658 0.105916 0.045707 0.126810 0.324788 -0.056550 0.490539 -0.104530 -0.305535 0.323878 -0.335331 0.016381 -0.234646
13 -0.161311 -0.497671 0.298517 -0.449246 -0.229757 0.093281 0.136100 0.030592 0.156113 0.282486 -0.086919 0.443277 -0.108797 -0.296273 0.314227 -0.339406 -0.046457 -0.217847
5 -0.156678 -0.500300 0.259388 -0.422685 -0.189138 0.086859 0.142102 0.032622 0.159838 0.230757 -0.050044 0.476067 -0.129174 -0.285061 0.322988 -0.361379 -0.019941 -0.256113
17 -0.196016 -0.501851 0.336250 -0.419505 -0.267477 0.061921 0.131704 0.078780 0.146247 0.338822 -0.063524 0.523451 -0.098763 -0.293064 0.286116 -0.302316 0.020864 -0.287286
7 -0.166284 -0.519829 0.318333 -0.476208 -0.272295 0.107612 0.130379 0.091233 0.168416 0.311057 -0.090976 0.519132 -0.111393 -0.378331 0.358203 -0.373745 0.033826 -0.285288
11 -0.187829 -0.489552 0.277619 -0.401892 -0.186258 0.081059 0.107128 0.082795 0.183512 0.207692 -0.056565 0.460760 -0.130105 -0.260724 0.331060 -0.361512 -0.026837 -0.229653
15 -0.219081 -0.514926 0.341354 -0.474636 -0.225170 0.110874 0.134780 0.023698 0.132825 0.294506 -0.070338 0.487215 -0.109469 -0.288662 0.310463 -0.344205 -0.022394 -0.269979
12 -0.218722 -0.537878 0.322963 -0.471430 -0.271500 0.071028 0.094217 0.022312 0.108304 0.341736 -0.056651 0.494365 -0.111430 -0.279580 0.297109 -0.296209 -0.039491 -0.197197
6 -0.179952 -0.536618 0.338703 -0.434585 -0.250620 0.097333 0.145016 0.111735 0.152036 0.309715 -0.066006 0.513534 -0.123615 -0.356744 0.358712 -0.373903 0.010128 -0.298239
