18 18
8 -0.363559 -0.652994 0.203086 -0.375189 -0.132673 0.170632 0.030916 0.018946 0.161140 0.004656 0.090041 0.448800 -0.253673 0.018827 0.518951 -0.413598 -0.087516 -0.183367
15 -0.415652 -0.665905 0.220123 -0.418022 -0.121747 0.177738 0.011633 -0.000311 0.153281 -0.018587 0.125130 0.459207 -0.235067 0.024075 0.512730 -0.410463 -0.114881 -0.200146
1 -0.404494 -0.669284 0.217571 -0.410469 -0.103985 0.133336 0.002176 0.034461 0.181611 -0.016193 0.088279 0.451993 -0.229052 0.010041 0.487596 -0.411806 -0.083283 -0.190637
6 -0.389911 -0.659964 0.209159 -0.374791 -0.131734 0.154983 0.003789 0.046178 0.146699 -0.003467 0.129547 0.466356 -0.249817 0.005545 0.530097 -0.411864 -0.106202 -0.208448
11 -0.439011 -0.667368 0.234039 -0.392281 -0.122389 0.116624 -0.061249 0.060520 0.133211 -0.027927 0.122035 0.461137 -0.254816 0.029227 0.550056 -0.450238 -0.093913 -0.202469
9 -0.401733 -0.624421 0.184686 -0.391453 -0.130553 0.135864 -0.021770 0.038442 0.149055 -0.004496 0.131242 0.469960 -0.231793 -0.006799 0.491640 -0.407676 -0.103790 -0.174958
0 -0.430768 -0.666748 0.227694 -0.445766 -0.179364 0.146901 -0.070475 0.016944 0.091581 0.005380 0.184057 0.466061 -0.225856 0.021155 0.558373 -0.436718 -0.058045 -0.205664
5 -0.388071 -0.644068 0.174301 -0.384826 -0.091109 0.135442 0.010133 -0.011728 0.161453 -0.031371 0.138486 0.459862 -0.258578 0.031003 0.496191 -0.407676 -0.104937 -0.201303
16 -0.392093 -0.623425 0.206889 -0.389570 -0.131601 0.143959 0.009708 0.010106 0.136345 -0.001793 0.103118 0.461296 -0.247925 0.037346 0.515552 -0.414409 -0.121687 -0.214966
7 -0.342976 -0.627402 0.164965 -0.406581 -0.127376 0.172115 0.010647 0.012396 0.193738 -0.022584 0.071023 0.451358 -0.221539 -0.014865 0.505735 -0.381873 -0.082460 -0.183728
14 -0.408455 -0.663272 0.227809 -0.428879 -0.099299 0.160342 -0.021043 0.001927 0.141234 -0.003338 0.081838 0.475532 -0.256509 0.017048 0.507223 -0.397190 -0.082250 -0.190468
12 -0.412145 -0.634148 0.198152 -0.409377 -0.139679 0.126670 -0.040421 -0.013481 0.105658 0.016069 0.150562 0.479894 -0.237825 0.039114 0.482190 -0.364040 -0.120296 -0.171709
2 -0.356235 -0.617045 0.191253 -0.389773 -0.144013 0.143923 -0.008853 0.041701 0.095905 -0.003685 0.115800 0.459653 -0.215475 -0.004639 0.496297 -0.421283 -0.101860 -0.166908
17 -0.378936 -0.624973 0.200268 -0.361085 -0.157107 0.120500 0.004193 0.038768 0.162004 0.018261 0.129987 0.468008 -0.211086 0.030917 0.478360 -0.372348 -0.088458 -0.212197
10 -0.385434 -0.649430 0.187096 -0.395547 -0.117403 0.184177 0.012870 0.011416 0.170084 -0.027447 0.134086 0.480151 -0.259862 0.042430 0.499897 -0.381134 -0.089915 -0.168963
3 -0.424621 -0.627821 0.236248 -0.387543 -0.125525 0.128113 -0.019460 0.031549 0.088284 -0.014445 0.139577 0.431689 -0.260834 -0.009623 0.493535 -0.428370 -0.064265 -0.207743
13 0.019096 0.002747 0.009678 -0.019404 -0.008210 -0.004883 0.008138 -0.018294 0.006568 0.019257 -0.015253 -0.018294 0.012156 -0.023377 0.007956 -0.002520 -0.021393 -0.009389
4 -0.000863 0.026536 0.000487 0.011658 0.016931 -0.018308 -0.024615 0.027506 0.003913 -0.015616 0.024595 0.006644 0.019102 -0.007194 -0.007301 -0.006238 0.005807 -0.017039
