18 18
10 -0.244434 -0.514466 0.145565 -0.106123 0.157866 0.180228 0.278459 -0.015363 0.464664 -0.157952 0.130738 0.332095 -0.413541 0.006716 0.373870 -0.322514 -0.057296 -0.318564
13 -0.223558 -0.514604 0.164724 -0.120355 0.138418 0.157406 0.297487 -0.026130 0.481446 -0.135209 0.111645 0.302291 -0.392523 -0.044930 0.404392 -0.350156 -0.087185 -0.375825
15 -0.293695 -0.538044 0.167790 -0.165431 0.151736 0.197082 0.247976 -0.062641 0.430274 -0.154781 0.127399 0.344434 -0.419103 -0.002579 0.433558 -0.370894 -0.111264 -0.338521
11 -0.258246 -0.507367 0.155155 -0.096337 0.142947 0.142523 0.239007 0.006546 0.448462 -0.156734 0.111156 0.308504 -0.392786 0.002719 0.395726 -0.341963 -0.078199 -0.328968
5 -0.244063 -0.542087 0.127172 -0.118581 0.170409 0.151897 0.290835 -0.044040 0.478486 -0.164166 0.137889 0.347734 -0.431843 -0.012667 0.416279 -0.375083 -0.087040 -0.367629
8 -0.262623 -0.540710 0.214714 -0.137159 0.141344 0.169553 0.229634 0.007063 0.416961 -0.125085 0.091595 0.324604 -0.421927 -0.012768 0.456598 -0.414730 -0.014262 -0.366856
1 -0.285637 -0.557682 0.264453 -0.144657 0.164856 0.112818 0.260021 0.066711 0.498459 -0.136342 0.097288 0.286258 -0.353731 -0.046793 0.386000 -0.408957 0.037979 -0.427013
14 -0.290699 -0.564383 0.247033 -0.165984 0.189630 0.174988 0.213402 0.006481 0.441147 -0.140868 0.081340 0.360179 -0.441439 -0.022172 0.477821 -0.423941 -0.017825 -0.411409
0 -0.290794 -0.580200 0.264600 -0.193230 0.137392 0.175995 0.227954 0.038914 0.476314 -0.144257 0.130118 0.324722 -0.392313 -0.037849 0.490060 -0.460655 0.046692 -0.443110
17 -0.241408 -0.510049 0.175849 -0.078346 0.120939 0.133042 0.297196 0.024299 0.489477 -0.124531 0.134246 0.325916 -0.366824 -0.002472 0.356195 -0.317801 -0.037385 -0.385690
6 -0.224878 -0.490898 0.166534 -0.080281 0.143646 0.153152 0.262605 0.016139 0.427791 -0.132389 0.120759 0.291312 -0.377730 -0.031838 0.387267 -0.333713 -0.055926 -0.359720
4 -0.288234 -0.535032 0.253785 -0.136678 0.194646 0.137961 0.223222 0.070944 0.484511 -0.172364 0.133699 0.332718 -0.394473 -0.039408 0.453074 -0.453078 0.014610 -0.453915
12 -0.289377 -0.537723 0.145856 -0.164481 0.129437 0.156507 0.213685 -0.068557 0.403615 -0.121978 0.143946 0.366708 -0.415825 -0.006419 0.408653 -0.328239 -0.117053 -0.308050
7 -0.220155 -0.507774 0.121498 -0.121302 0.136223 0.182775 0.261542 -0.021754 0.462515 -0.154156 0.101488 0.341538 -0.415772 -0.036388 0.426289 -0.341582 -0.075729 -0.339440
16 -0.258717 -0.503290 0.201782 -0.115973 0.143619 0.156491 0.254556 0.005733 0.431879 -0.139164 0.086661 0.323838 -0.414170 0.006509 0.447474 -0.393431 -0.063398 -0.403161
3 -0.257608 -0.472329 0.192266 -0.100803 0.150576 0.134847 0.257656 0.004236 0.396237 -0.145068 0.118064 0.266466 -0.389872 -0.045826 0.349944 -0.352549 -0.012304 -0.356689
9 -0.271751 -0.522253 0.128737 -0.153426 0.141468 0.163602 0.232000 -0.020494 0.460767 -0.138786 0.125926 0.364014 -0.401618 -0.045323 0.401765 -0.357390 -0.095017 -0.307148
2 0.021368 -0.003688 -0.004957 -0.007525 -0.007603 0.001755 0.011077 0.016235 -0.024745 -0.003279 -0.008624 0.014563 0.014594 -0.017313 -0.004715 -0.020484 -0.014205 0.014938
