18 18
16 -0.383053 -0.401636 0.343289 -0.207229 -0.258400 -0.015308 0.185282 -0.062125 0.102798 0.181035 0.187331 0.353939 -0.226600 0.067739 0.429352 -0.285651 -0.266473 -0.519297
8 -0.381698 -0.431556 0.379503 -0.195333 -0.258642 0.004503 0.181256 -0.034824 0.092503 0.200506 0.174156 0.325153 -0.226724 0.045518 0.423240 -0.281485 -0.217101 -0.510053
13 -0.306159 -0.462040 0.292153 -0.260490 -0.229743 0.050220 0.304913 -0.127848 0.190126 0.190917 0.205831 0.375891 -0.235841 -0.069915 0.419405 -0.281485 -0.341140 -0.493369
6 -0.341394 -0.453081 0.320577 -0.192334 -0.178446 0.052738 0.257434 -0.042532 0.168322 0.145525 0.194902 0.349767 -0.232998 -0.035615 0.402733 -0.267845 -0.294577 -0.522994
11 -0.417890 -0.421188 0.391342 -0.195306 -0.236650 -0.031514 0.115175 -0.004641 0.099520 0.163387 0.168525 0.323973 -0.207076 0.081541 0.433042 -0.286750 -0.240529 -0.527355
4 -0.389028 -0.385498 0.363040 -0.190252 -0.225172 -0.026230 0.136772 -0.007255 0.103610 0.161012 0.204283 0.335503 -0.190517 0.043083 0.405942 -0.279471 -0.231707 -0.534310
17 -0.384882 -0.405722 0.359828 -0.190240 -0.274620 -0.031640 0.168311 -0.033893 0.111895 0.200031 0.197108 0.359649 -0.194726 0.067678 0.400030 -0.249375 -0.238118 -0.534471
1 -0.415403 -0.452471 0.405387 -0.223379 -0.206681 -0.028954 0.171524 -0.002996 0.132940 0.170369 0.146476 0.309127 -0.185115 0.012344 0.381471 -0.289828 -0.219571 -0.527200
9 -0.347839 -0.448398 0.276471 -0.227985 -0.215930 0.043026 0.256400 -0.067344 0.195741 0.155820 0.215120 0.400824 -0.240806 -0.041540 0.414971 -0.288247 -0.313154 -0.484153
15 -0.365048 -0.425470 0.342798 -0.225321 -0.175293 0.061180 0.211493 -0.073924 0.127091 0.133519 0.171379 0.302647 -0.202253 0.007538 0.375631 -0.256424 -0.252965 -0.471167
0 -0.390029 -0.421948 0.347186 -0.237883 -0.277813 0.006311 0.151125 -0.060445 0.091707 0.179319 0.220855 0.347065 -0.210586 0.049349 0.447947 -0.286471 -0.238721 -0.522195
14 -0.392245 -0.449060 0.394795 -0.225857 -0.202255 0.024326 0.173638 -0.042340 0.102890 0.178667 0.141066 0.342383 -0.228744 0.021620 0.406768 -0.262063 -0.217441 -0.511189
7 -0.358306 -0.436647 0.326203 -0.228413 -0.252520 0.031224 0.202183 -0.044808 0.153962 0.156998 0.176869 0.351619 -0.214527 -0.004388 0.440101 -0.278273 -0.263737 -0.524063
10 -0.335234 -0.449692 0.278790 -0.217116 -0.213260 0.060345 0.270693 -0.085381 0.191499 0.147262 0.233388 0.408629 -0.258448 0.008988 0.405509 -0.256859 -0.293146 -0.482927
2 -0.347260 -0.457646 0.333587 -0.235227 -0.219533 0.029057 0.235632 -0.044424 0.125944 0.157172 0.178641 0.370693 -0.209228 -0.019476 0.403191 -0.297511 -0.291422 -0.489684
12 -0.372130 -0.404736 0.309979 -0.215729 -0.240451 -0.015196 0.145217 -0.073795 0.092233 0.176914 0.209992 0.356160 -0.207170 0.044417 0.391150 -0.237713 -0.272661 -0.470793
5 -0.313892 -0.471327 0.255309 -0.220075 -0.186998 0.031586 0.296090 -0.111016 0.200173 0.142826 0.218897 0.395849 -0.260273 -0.025548 0.406255 -0.293294 -0.296148 -0.482987
3 -0.398165 -0.408171 0.371908 -0.198953 -0.230136 -0.004825 0.189091 -0.041266 0.087675 0.161032 0.197223 0.318030 -0.237242 0.007525 0.395580 -0.285050 -0.221001 -0.526417
