18 18
8 -0.172653 -0.211992 0.175651 -0.017363 -0.271787 0.158762 0.245797 0.536937 0.236209 -0.131446 0.268802 0.239210 -0.199283 -0.619436 0.355489 -0.659514 0.102296 -0.296213
11 -0.205629 -0.251068 0.169069 -0.041447 -0.179174 0.110504 0.200543 0.491361 0.267916 -0.163718 0.218421 0.255910 -0.210810 -0.540448 0.363726 -0.649913 0.064686 -0.313337
0 -0.181688 -0.220201 0.158252 -0.060599 -0.242884 0.144098 0.220543 0.493580 0.241894 -0.144165 0.272129 0.246433 -0.182045 -0.584537 0.357655 -0.650893 0.088721 -0.311205
2 -0.213658 -0.277938 0.164118 -0.100149 -0.099240 0.050363 0.218188 0.416557 0.231314 -0.143597 0.138796 0.283303 -0.180106 -0.485370 0.251444 -0.593619 0.048924 -0.272979
9 -0.216063 -0.230090 0.145142 -0.061150 -0.156292 0.087737 0.212603 0.454578 0.264504 -0.140169 0.201187 0.269910 -0.184518 -0.532817 0.269228 -0.587285 0.059665 -0.268280
3 -0.253558 -0.260826 0.202180 -0.067528 -0.138756 0.083583 0.237674 0.455533 0.229761 -0.159995 0.207957 0.249738 -0.225373 -0.547999 0.280375 -0.631689 0.096538 -0.318623
17 -0.209322 -0.261306 0.175128 -0.018390 -0.228212 0.095224 0.258328 0.511664 0.299587 -0.119669 0.247879 0.291240 -0.195058 -0.559264 0.306951 -0.606197 0.081649 -0.336808
5 -0.340779 -0.513715 0.202452 -0.211146 0.150233 -0.070817 0.230746 0.225720 0.358859 -0.148578 -0.032396 0.382251 -0.308524 -0.322592 0.270560 -0.624631 0.032308 -0.384765
1 -0.301294 -0.378324 0.221672 -0.155283 -0.005695 -0.009349 0.212574 0.366164 0.301004 -0.139893 0.063625 0.293046 -0.212952 -0.419941 0.246113 -0.599941 0.064114 -0.329022
16 -0.247854 -0.273121 0.192201 -0.101441 -0.093595 0.056390 0.228615 0.384354 0.246163 -0.137731 0.127465 0.279525 -0.212289 -0.437925 0.284051 -0.598605 0.038942 -0.325222
15 -0.260182 -0.275102 0.203831 -0.105523 -0.149162 0.121137 0.237787 0.436655 0.249612 -0.165493 0.216221 0.270602 -0.195796 -0.524572 0.323439 -0.658901 0.049727 -0.329484
6 -0.162402 -0.209516 0.153990 0.001599 -0.211321 0.133617 0.233451 0.490662 0.232285 -0.132084 0.246734 0.226311 -0.185936 -0.558634 0.320615 -0.578326 0.069010 -0.295025
10 -0.166039 -0.202942 0.138878 -0.007191 -0.208106 0.150777 0.242369 0.503729 0.270222 -0.161732 0.267871 0.255505 -0.201300 -0.557041 0.297181 -0.573583 0.090906 -0.267998
13 -0.146272 -0.218494 0.163250 -0.035066 -0.222846 0.124785 0.235938 0.462512 0.266155 -0.116522 0.227240 0.218553 -0.188871 -0.583501 0.345684 -0.603055 0.057633 -0.319167
14 -0.332071 -0.458290 0.244411 -0.201961 0.081408 -0.025315 0.202354 0.292689 0.307162 -0.121235 -0.017694 0.356586 -0.279053 -0.380578 0.262618 -0.601285 0.070395 -0.358710
4 -0.202965 -0.205988 0.162874 -0.046876 -0.152498 0.078383 0.192950 0.486165 0.250511 -0.160509 0.236559 0.261056 -0.170482 -0.545869 0.295124 -0.624155 0.079289 -0.317015
7 -0.187583 -0.263891 0.149304 -0.075512 -0.164907 0.105768 0.226857 0.436194 0.284925 -0.145119 0.173462 0.261766 -0.198346 -0.536599 0.319494 -0.590317 0.076689 -0.306479
12 -0.026600 -0.022358 0.002765 -0.019307 -0.014582 -0.010130 -0.018079 -0.025837 -0.017080 0.018496 0.026502 0.027636 -0.006702 0.013838 0.001462 0.019107 -0.024921 0.008452
