18 18
0 -0.224737 -0.594766 0.275300 -0.424304 -0.141555 0.050131 0.103621 -0.025529 0.254582 0.148719 -0.039919 0.294444 -0.176989 -0.207224 0.417906 -0.391773 -0.011257 -0.268830
16 -0.250019 -0.614406 0.307888 -0.438726 -0.120256 0.064856 0.134748 -0.019639 0.277456 0.151655 -0.100214 0.342700 -0.205554 -0.201559 0.435106 -0.408903 -0.069361 -0.287316
7 -0.196954 -0.620292 0.273435 -0.464266 -0.153013 0.077311 0.145002 -0.013988 0.335470 0.161858 -0.104531 0.330933 -0.171922 -0.273344 0.428526 -0.385520 -0.025136 -0.287926
11 -0.278536 -0.639028 0.301571 -0.409327 -0.084585 0.052647 0.084358 0.011556 0.283499 0.111975 -0.086904 0.329949 -0.206656 -0.181245 0.429251 -0.405322 -0.061016 -0.241024
5 -0.228211 -0.636382 0.255417 -0.416418 -0.096593 0.048792 0.157438 -0.042920 0.325930 0.128066 -0.049987 0.336709 -0.217545 -0.209533 0.427565 -0.406271 -0.045086 -0.299572
8 -0.247435 -0.660316 0.318452 -0.432259 -0.128916 0.069501 0.133705 -0.016169 0.286947 0.169895 -0.092601 0.318896 -0.214887 -0.211800 0.438011 -0.409712 -0.020503 -0.267961
15 -0.322119 -0.643027 0.323999 -0.429792 -0.063861 0.124653 0.099195 -0.053632 0.246570 0.101292 -0.036419 0.326930 -0.195420 -0.129642 0.397259 -0.345286 -0.108061 -0.225496
1 -0.284118 -0.622280 0.331079 -0.431729 -0.074449 0.056095 0.095410 0.003173 0.285684 0.131965 -0.104486 0.295855 -0.167398 -0.195555 0.363122 -0.354762 -0.025184 -0.244078
9 -0.254347 -0.622537 0.269676 -0.444343 -0.109552 0.065244 0.114323 -0.002701 0.303218 0.144595 -0.081496 0.366762 -0.186830 -0.239898 0.392929 -0.383996 -0.066952 -0.229339
2 -0.214784 -0.637722 0.285368 -0.449774 -0.119931 0.060698 0.135691 0.005005 0.266563 0.149261 -0.101421 0.359004 -0.183986 -0.257892 0.411513 -0.421856 -0.050919 -0.245702
12 -0.315413 -0.659486 0.311649 -0.437423 -0.097839 0.076226 0.072875 -0.050515 0.219312 0.142576 -0.034428 0.363598 -0.215677 -0.152235 0.405266 -0.349143 -0.095333 -0.213696
13 -0.181725 -0.585649 0.285922 -0.443781 -0.138860 0.029551 0.152896 -0.027034 0.324724 0.185683 -0.113408 0.294826 -0.161251 -0.260230 0.395194 -0.378427 -0.039936 -0.297262
10 -0.262255 -0.645155 0.286455 -0.429089 -0.082940 0.124755 0.137523 -0.025086 0.315838 0.110434 -0.052003 0.360849 -0.215421 -0.173038 0.396660 -0.338829 -0.055038 -0.229398
14 -0.252328 -0.604546 0.306216 -0.432730 -0.085499 0.069725 0.087413 -0.026584 0.238215 0.150918 -0.114180 0.316945 -0.192475 -0.199745 0.380295 -0.351316 -0.023684 -0.225800
4 -0.231716 -0.609869 0.309474 -0.429659 -0.114205 0.035518 0.121822 0.008289 0.321700 0.150259 -0.055235 0.325237 -0.178022 -0.236350 0.420092 -0.407217 -0.020680 -0.324882
6 -0.272178 -0.641091 0.308444 -0.392161 -0.079032 0.116287 0.118464 -0.014516 0.266150 0.119366 -0.034297 0.321754 -0.206952 -0.178251 0.410091 -0.337106 -0.073916 -0.250412
17 -0.214489 -0.621208 0.288584 -0.424989 -0.161938 0.034100 0.169501 -0.005794 0.355917 0.188358 -0.074134 0.362380 -0.170762 -0.221180 0.397439 -0.362775 -0.032072 -0.329121
3 -0.265339 -0.596774 0.322792 -0.413088 -0.108048 0.056617 0.135558 -0.017439 0.247606 0.134528 -0.060690 0.288666 -0.221040 -0.235591 0.397017 -0.402806 -0.003265 -0.292132
