18 18
11 -0.362612 -0.465065 0.417072 -0.329449 -0.095886 0.129811 -0.004476 0.141723 0.082701 -0.071617 0.131394 0.193216 -0.181529 -0.282566 0.486847 -0.491285 -0.075424 -0.355008
0 -0.321445 -0.438535 0.391001 -0.343646 -0.131839 0.156857 0.013039 0.094278 0.038197 -0.036388 0.152688 0.180419 -0.162880 -0.289074 0.477430 -0.467752 -0.052073 -0.349160
3 -0.376768 -0.444279 0.439916 -0.323611 -0.097730 0.135266 0.034728 0.097232 0.007811 -0.050117 0.154779 0.181799 -0.205893 -0.299244 0.451292 -0.480646 -0.063410 -0.379683
4 -0.370939 -0.435456 0.445388 -0.349639 -0.076257 0.118135 -0.009098 0.109835 0.014933 -0.052441 0.157884 0.218416 -0.162530 -0.285946 0.476326 -0.503940 -0.093048 -0.405831
1 -0.358070 -0.464363 0.429222 -0.338851 -0.094929 0.112677 0.011739 0.141767 0.069142 -0.041217 0.119191 0.175515 -0.147548 -0.303372 0.440582 -0.478995 -0.037929 -0.366175
14 -0.367119 -0.450968 0.455692 -0.365182 -0.063080 0.134770 -0.005233 0.058589 -0.017286 -0.019387 0.094975 0.213174 -0.182239 -0.245292 0.454831 -0.456878 -0.082795 -0.370628
10 -0.358639 -0.498591 0.420375 -0.348548 -0.135847 0.197706 0.049493 0.131592 0.100956 -0.064678 0.179198 0.220084 -0.217814 -0.317509 0.508133 -0.488639 -0.063364 -0.360060
2 -0.316196 -0.452882 0.414444 -0.329449 -0.126162 0.150859 0.038947 0.149675 0.024717 -0.047019 0.132219 0.201807 -0.166685 -0.337923 0.484603 -0.519521 -0.077716 -0.360352
12 -0.362926 -0.451579 0.402762 -0.343176 -0.123546 0.130659 -0.001575 0.066027 0.014600 -0.019530 0.159124 0.231269 -0.186116 -0.243915 0.470403 -0.440322 -0.123916 -0.341920
8 -0.350409 -0.485664 0.447204 -0.318936 -0.140563 0.158499 0.040498 0.119958 0.034328 -0.016957 0.139290 0.192763 -0.209177 -0.294425 0.514035 -0.505750 -0.052195 -0.379869
6 -0.322076 -0.455756 0.416680 -0.292184 -0.122303 0.159968 0.042388 0.148698 0.047921 -0.036560 0.151618 0.176157 -0.190824 -0.325281 0.502869 -0.489096 -0.067244 -0.386446
9 -0.321350 -0.421965 0.366185 -0.315255 -0.116705 0.151863 0.038783 0.119076 0.071567 -0.036906 0.135094 0.199984 -0.175271 -0.323848 0.444864 -0.458848 -0.088619 -0.319356
16 -0.361027 -0.435097 0.437779 -0.337603 -0.100399 0.132182 0.035548 0.082890 0.012191 -0.032996 0.112063 0.216529 -0.192970 -0.245598 0.491410 -0.493922 -0.114013 -0.407747
17 -0.373643 -0.471021 0.444732 -0.324563 -0.132724 0.119972 0.028532 0.126792 0.052584 -0.022542 0.159979 0.235193 -0.169682 -0.274755 0.474029 -0.474739 -0.079354 -0.410403
7 -0.316359 -0.462961 0.388019 -0.336242 -0.148331 0.176430 0.037173 0.131138 0.093747 -0.048463 0.130368 0.193662 -0.181779 -0.330404 0.509676 -0.480650 -0.063896 -0.361966
13 -0.305236 -0.440577 0.393859 -0.346254 -0.144069 0.157580 0.051689 0.071996 0.070963 -0.010491 0.127746 0.171754 -0.175532 -0.322835 0.471931 -0.449474 -0.112411 -0.338384
5 -0.345656 -0.469238 0.389245 -0.338928 -0.073570 0.128010 0.044923 0.054374 0.051735 -0.050618 0.150812 0.222977 -0.196080 -0.251535 0.466592 -0.475779 -0.103779 -0.377830
15 -0.368307 -0.438298 0.432146 -0.361228 -0.076832 0.156763 0.031610 0.036175 -0.002224 -0.038203 0.132192 0.203898 -0.172658 -0.232890 0.461110 -0.469097 -0.120932 -0.380009
