18 18
2 -0.300248 -0.478596 0.144163 -0.389998 -0.015814 0.006767 0.117045 0.031037 0.150867 -0.099120 0.302266 0.379768 -0.198950 -0.535924 0.207128 -0.327587 0.112015 -0.430812
12 -0.320828 -0.493944 0.105085 -0.389683 0.008273 0.008210 -0.007969 0.051675 0.180710 -0.107939 0.320614 0.387925 -0.245096 -0.585384 0.209686 -0.245596 0.140216 -0.305484
1 -0.309786 -0.480270 0.139082 -0.373150 0.018865 -0.007949 0.043532 0.079612 0.211339 -0.108496 0.270961 0.347116 -0.204038 -0.557245 0.190875 -0.278954 0.162004 -0.353139
6 -0.294751 -0.485317 0.124860 -0.350866 0.005751 0.030184 0.063561 0.073866 0.189937 -0.107904 0.310916 0.369174 -0.237718 -0.576917 0.226259 -0.270426 0.134456 -0.372360
0 -0.292776 -0.489710 0.107350 -0.391579 -0.026017 0.048505 0.016552 0.051727 0.198245 -0.097800 0.303532 0.374342 -0.216251 -0.538051 0.247082 -0.258336 0.146764 -0.330579
14 -0.307611 -0.486979 0.146633 -0.389105 -0.000878 0.032315 0.042799 0.032895 0.191023 -0.074468 0.258906 0.383788 -0.209256 -0.501929 0.222711 -0.251147 0.123774 -0.375600
7 -0.262575 -0.451005 0.095325 -0.363268 -0.018587 0.031961 0.059250 0.067288 0.215645 -0.110529 0.275055 0.369752 -0.217772 -0.583852 0.224632 -0.268743 0.149990 -0.361981
4 -0.320046 -0.418709 0.117067 -0.344745 0.053903 -0.043845 0.081662 0.046803 0.184757 -0.156242 0.380571 0.371321 -0.236084 -0.584402 0.175733 -0.331512 0.155631 -0.450993
3 -0.330470 -0.411945 0.143309 -0.341621 0.040038 -0.029714 0.103123 0.006822 0.129095 -0.129393 0.330455 0.306472 -0.251015 -0.540381 0.153661 -0.316788 0.162417 -0.417762
13 -0.300892 -0.496498 0.134648 -0.405780 -0.018983 0.019579 0.064092 0.031206 0.218409 -0.082551 0.294818 0.374280 -0.215536 -0.573983 0.238948 -0.276232 0.106578 -0.392625
15 -0.337537 -0.496772 0.172609 -0.390933 -0.041205 0.052118 0.121395 0.002047 0.211659 -0.072590 0.295843 0.395792 -0.183690 -0.440646 0.241280 -0.278440 0.067420 -0.460868
10 -0.287345 -0.472748 0.098702 -0.363070 0.021290 0.043949 0.045179 0.068809 0.222858 -0.136011 0.311453 0.387126 -0.249593 -0.553777 0.199659 -0.244383 0.163830 -0.315677
5 -0.275651 -0.387319 0.044996 -0.300186 0.104492 -0.073467 0.125086 -0.023967 0.153799 -0.181350 0.381288 0.312026 -0.277170 -0.561436 0.142358 -0.347366 0.147283 -0.407650
16 -0.324347 -0.427642 0.196740 -0.339985 -0.106128 0.001404 0.224685 -0.031846 0.230229 -0.005009 0.273319 0.462138 -0.156501 -0.306165 0.252533 -0.294421 -0.012036 -0.622424
9 -0.334791 -0.520448 0.104265 -0.408517 0.002085 0.017447 0.063970 0.074298 0.240087 -0.119361 0.334791 0.433354 -0.250853 -0.644318 0.227779 -0.315412 0.135898 -0.382379
8 -0.290921 -0.503929 0.136043 -0.361672 -0.024127 0.029904 0.081501 0.053451 0.194209 -0.077991 0.282956 0.373651 -0.239590 -0.544009 0.244674 -0.296331 0.138677 -0.375451
17 -0.308359 -0.415270 0.186398 -0.305138 -0.114712 -0.027954 0.228036 -0.008324 0.245717 0.005596 0.300790 0.471163 -0.133094 -0.316889 0.203333 -0.268685 0.027089 -0.622492
11 -0.335839 -0.520900 0.144336 -0.377950 0.000541 0.024287 0.012621 0.079860 0.232294 -0.116486 0.279507 0.385573 -0.229913 -0.499144 0.256515 -0.267350 0.115584 -0.356272
