18 18
3 -0.247728 -0.475650 0.280510 -0.263192 0.017552 0.179947 0.395524 0.015397 0.156655 -0.052172 0.214630 0.386325 -0.182797 -0.303846 0.251720 -0.428580 -0.083056 -0.505861
1 -0.276633 -0.539963 0.258046 -0.317403 0.037878 0.215797 0.336772 0.016853 0.248669 -0.073600 0.177743 0.418512 -0.149646 -0.235316 0.257060 -0.394782 -0.071514 -0.420206
16 -0.253194 -0.492933 0.239339 -0.293701 0.016487 0.241793 0.349008 0.001604 0.230353 -0.073531 0.168085 0.444283 -0.172886 -0.199127 0.303845 -0.402102 -0.107098 -0.444609
2 -0.226281 -0.522481 0.243731 -0.304948 0.013376 0.231182 0.381235 0.016487 0.184603 -0.071409 0.194478 0.449246 -0.153616 -0.275164 0.283263 -0.436483 -0.123417 -0.441985
0 -0.264031 -0.538789 0.234300 -0.324847 0.002739 0.289352 0.316251 0.009767 0.237299 -0.088972 0.212103 0.437292 -0.164570 -0.204479 0.311743 -0.396214 -0.051003 -0.391109
9 -0.275440 -0.522212 0.200539 -0.282223 0.042695 0.307050 0.300388 0.065921 0.294730 -0.121721 0.182839 0.448982 -0.200633 -0.213625 0.276566 -0.384719 -0.059152 -0.301845
15 -0.264927 -0.502336 0.234852 -0.305958 0.029397 0.273425 0.333211 -0.024566 0.228309 -0.094225 0.195485 0.400641 -0.155498 -0.186610 0.284336 -0.382487 -0.090006 -0.400107
7 -0.222277 -0.493610 0.198545 -0.294924 0.008496 0.269588 0.323656 0.016761 0.255141 -0.095131 0.167547 0.426914 -0.162563 -0.234185 0.296708 -0.374553 -0.072854 -0.380019
17 -0.249965 -0.523515 0.256104 -0.268339 -0.008384 0.211024 0.397504 0.030072 0.252456 -0.042177 0.216905 0.475436 -0.160980 -0.241010 0.275597 -0.394456 -0.096126 -0.493742
13 -0.224707 -0.501381 0.239462 -0.312754 0.010504 0.233123 0.338567 -0.010891 0.233019 -0.054304 0.174157 0.399960 -0.148528 -0.246001 0.282658 -0.384112 -0.102522 -0.413170
12 -0.263338 -0.525468 0.233891 -0.319311 0.006126 0.221488 0.323654 -0.031393 0.196680 -0.051126 0.216028 0.454335 -0.161069 -0.214620 0.273746 -0.360503 -0.127083 -0.410630
8 -0.235920 -0.512323 0.235001 -0.276553 0.009301 0.270529 0.311092 0.021014 0.219878 -0.064270 0.150939 0.401150 -0.179707 -0.194243 0.291350 -0.378572 -0.050696 -0.340143
4 -0.248723 -0.493400 0.263159 -0.279344 0.035659 0.205373 0.348737 0.049239 0.202893 -0.080628 0.237021 0.444924 -0.153955 -0.283475 0.281853 -0.433021 -0.099875 -0.486998
6 -0.220749 -0.487830 0.255789 -0.248571 0.018290 0.211225 0.369288 0.030830 0.177630 -0.051380 0.198748 0.395042 -0.169291 -0.271891 0.284003 -0.403216 -0.100879 -0.471562
5 -0.224770 -0.500815 0.202356 -0.269440 0.040448 0.204552 0.371283 -0.013977 0.229741 -0.083522 0.209746 0.409167 -0.177557 -0.231286 0.272104 -0.408628 -0.097594 -0.439118
10 -0.264454 -0.531826 0.212803 -0.280032 0.050952 0.323062 0.335128 0.042857 0.288035 -0.133466 0.199558 0.448406 -0.207844 -0.180863 0.271628 -0.365351 -0.048346 -0.325179
14 -0.270436 -0.542310 0.270495 -0.321580 0.038730 0.263908 0.329022 0.004652 0.223474 -0.065432 0.167000 0.459244 -0.176715 -0.225319 0.288445 -0.384615 -0.067534 -0.422376
11 -0.282837 -0.524874 0.228252 -0.258086 0.052788 0.282061 0.257248 0.082475 0.265009 -0.135433 0.168141 0.423350 -0.207489 -0.170229 0.306076 -0.394906 -0.056250 -0.307347
