18 18
1 -0.177170 -0.547928 0.277840 -0.120753 -0.057762 0.240340 0.347835 0.183231 0.269082 -0.046259 0.060891 0.276164 -0.211794 -0.122894 0.500135 -0.410667 -0.048640 -0.498482
0 -0.129841 -0.506360 0.237153 -0.108920 -0.090784 0.280002 0.345109 0.146164 0.227847 -0.038455 0.099526 0.274760 -0.229976 -0.119155 0.522237 -0.398159 -0.039205 -0.491931
2 -0.145163 -0.474585 0.247187 -0.097597 -0.052468 0.245384 0.329236 0.188178 0.208632 -0.080957 0.085525 0.285229 -0.214582 -0.126056 0.475661 -0.403468 -0.083326 -0.463986
10 -0.269525 -0.476156 0.240760 -0.098778 0.013434 0.275054 0.275173 0.201671 0.291778 -0.189598 0.202345 0.374357 -0.335867 -0.073991 0.490095 -0.351679 -0.112931 -0.442831
3 -0.219704 -0.461472 0.272612 -0.092672 -0.027649 0.245091 0.316780 0.174066 0.214660 -0.110235 0.136011 0.281792 -0.285578 -0.132683 0.468113 -0.393377 -0.057979 -0.497826
13 -0.170491 -0.483754 0.249438 -0.117065 -0.060660 0.252253 0.327689 0.154053 0.264079 -0.068036 0.108147 0.294903 -0.252288 -0.133803 0.504091 -0.382196 -0.107782 -0.474075
9 -0.185250 -0.470381 0.218751 -0.092450 -0.040787 0.249117 0.315447 0.183708 0.273893 -0.088374 0.110383 0.322749 -0.260947 -0.132101 0.488319 -0.389826 -0.094916 -0.461009
17 -0.155926 -0.506745 0.251944 -0.074606 -0.087219 0.238962 0.366263 0.173550 0.267808 -0.031019 0.090969 0.304424 -0.224291 -0.098348 0.476057 -0.370066 -0.066982 -0.509057
11 -0.239130 -0.489116 0.260897 -0.090548 -0.012675 0.225662 0.263772 0.205053 0.262509 -0.135769 0.132295 0.317198 -0.277980 -0.084627 0.500165 -0.388849 -0.104754 -0.462123
16 -0.140084 -0.476772 0.250768 -0.086981 -0.070892 0.248120 0.372024 0.153480 0.240715 -0.040170 0.047388 0.270210 -0.236933 -0.095779 0.513439 -0.407931 -0.082914 -0.519358
7 -0.132290 -0.476635 0.215271 -0.091097 -0.076813 0.267231 0.337829 0.170261 0.260052 -0.069153 0.082504 0.287726 -0.236319 -0.135680 0.501503 -0.373609 -0.065118 -0.474858
15 -0.169759 -0.498922 0.268611 -0.113849 -0.059324 0.277577 0.350406 0.140879 0.234786 -0.059804 0.087892 0.271502 -0.226980 -0.110597 0.501820 -0.396708 -0.082377 -0.497119
14 -0.146832 -0.526973 0.283846 -0.106837 -0.056293 0.275497 0.352250 0.164951 0.225638 -0.031155 0.044838 0.289536 -0.244050 -0.132673 0.513205 -0.401422 -0.046576 -0.506847
6 -0.132020 -0.505750 0.243236 -0.055219 -0.055792 0.270286 0.365735 0.169804 0.234841 -0.044880 0.096536 0.271911 -0.245820 -0.114924 0.506344 -0.384139 -0.072304 -0.496880
4 -0.204631 -0.459048 0.263437 -0.086004 -0.010377 0.231186 0.280361 0.217290 0.250305 -0.124358 0.154515 0.319218 -0.248007 -0.125449 0.490059 -0.401899 -0.079714 -0.511383
12 -0.265218 -0.518988 0.255871 -0.121731 -0.032396 0.239694 0.276022 0.157967 0.247255 -0.115955 0.187894 0.370483 -0.303830 -0.075341 0.508368 -0.365197 -0.130555 -0.470367
8 -0.140568 -0.516665 0.259288 -0.083159 -0.082640 0.268288 0.361479 0.164006 0.231937 -0.031079 0.074660 0.276717 -0.250227 -0.114356 0.510878 -0.404122 -0.047118 -0.478991
5 -0.104744 -0.497226 0.200282 -0.083266 -0.055477 0.243753 0.376115 0.104364 0.237407 -0.044378 0.091100 0.264450 -0.233282 -0.097148 0.481789 -0.397474 -0.062969 -0.486725
