18 18
4 -0.308210 -0.483970 0.362303 -0.172208 -0.122791 0.030118 0.350513 0.023904 0.308132 -0.016782 0.230469 0.303739 -0.255421 -0.094777 0.418415 -0.432593 -0.129275 -0.662452
3 -0.306260 -0.445313 0.340111 -0.170273 -0.116582 0.052780 0.365643 0.008247 0.245060 -0.049094 0.200306 0.227699 -0.269910 -0.090352 0.359863 -0.435404 -0.070014 -0.581180
11 -0.287652 -0.439909 0.316412 -0.136356 -0.105783 0.014050 0.285062 0.049415 0.287757 -0.033259 0.164492 0.254809 -0.235268 -0.037558 0.387673 -0.398589 -0.105490 -0.550390
13 -0.265568 -0.454946 0.340532 -0.182273 -0.134269 0.035603 0.345546 -0.008641 0.284702 0.010220 0.164659 0.249599 -0.235084 -0.088602 0.390107 -0.392891 -0.134685 -0.590888
1 -0.314381 -0.494320 0.340163 -0.196925 -0.114124 0.025710 0.339532 0.039610 0.322523 -0.048415 0.170358 0.249256 -0.232994 -0.062667 0.379694 -0.444491 -0.069366 -0.589161
8 -0.283304 -0.495063 0.356955 -0.169595 -0.156043 0.068559 0.374539 0.020057 0.270784 -0.003878 0.172918 0.249523 -0.274983 -0.073419 0.408714 -0.446658 -0.068366 -0.580547
17 -0.281267 -0.467493 0.337416 -0.138123 -0.160776 0.028844 0.383579 0.018193 0.296707 0.012520 0.194704 0.288277 -0.237543 -0.053627 0.369708 -0.386165 -0.118321 -0.617952
15 -0.322219 -0.489005 0.351420 -0.204728 -0.103785 0.064214 0.353363 -0.038815 0.276823 -0.030623 0.191485 0.256715 -0.249513 -0.043009 0.383710 -0.399621 -0.137117 -0.577543
5 -0.263501 -0.447737 0.281420 -0.164414 -0.091657 0.032496 0.351061 -0.033822 0.269294 -0.035921 0.196417 0.258093 -0.252264 -0.062064 0.364932 -0.399587 -0.125513 -0.562152
12 -0.293863 -0.451826 0.310744 -0.176559 -0.125665 0.029828 0.309526 -0.027471 0.246804 0.004290 0.200191 0.277330 -0.246044 -0.052112 0.361764 -0.353575 -0.137664 -0.545537
16 -0.276763 -0.442120 0.329232 -0.171430 -0.133440 0.053682 0.364583 0.000641 0.266039 -0.020601 0.164389 0.256336 -0.257520 -0.055986 0.399326 -0.426254 -0.121958 -0.595807
10 -0.282038 -0.462209 0.301188 -0.183504 -0.108416 0.083061 0.341469 0.010390 0.317034 -0.065710 0.196846 0.265285 -0.258054 -0.028585 0.366456 -0.369731 -0.064626 -0.520746
0 -0.273689 -0.461757 0.304001 -0.208422 -0.143305 0.065443 0.286921 0.012089 0.279917 -0.034303 0.194314 0.239424 -0.213709 -0.049352 0.397904 -0.401189 -0.053975 -0.532232
2 -0.274556 -0.488464 0.338275 -0.194327 -0.143252 0.059238 0.367559 0.033120 0.271099 -0.031191 0.184694 0.282585 -0.244674 -0.097339 0.405256 -0.457351 -0.109737 -0.587238
7 -0.253576 -0.462543 0.304863 -0.179877 -0.153494 0.079553 0.377982 0.003314 0.299639 -0.028183 0.177878 0.261089 -0.254281 -0.105984 0.409286 -0.412162 -0.105233 -0.598539
14 -0.315256 -0.498621 0.374112 -0.197470 -0.113736 0.047947 0.336940 -0.009977 0.276926 0.007904 0.169111 0.293797 -0.270897 -0.070268 0.395119 -0.389913 -0.107902 -0.604071
6 -0.272273 -0.475188 0.342331 -0.145567 -0.131657 0.060812 0.381646 0.017035 0.276448 -0.008276 0.197501 0.260296 -0.266530 -0.094696 0.410237 -0.413886 -0.126683 -0.622973
9 -0.289412 -0.472284 0.308937 -0.174086 -0.139041 0.055003 0.376924 0.024823 0.323270 -0.023922 0.210006 0.302528 -0.258507 -0.115931 0.408117 -0.444840 -0.136309 -0.619866
