18 18
16 -0.277382 -0.443858 0.168546 -0.303353 0.108628 -0.229055 0.113660 0.033948 0.395486 -0.049156 0.100671 0.402390 -0.139527 -0.108363 0.325495 -0.543747 -0.218556 -0.447364
9 -0.288038 -0.446814 0.150903 -0.310449 0.106800 -0.220098 0.093606 0.048610 0.403149 -0.045455 0.129445 0.396629 -0.118093 -0.163483 0.274139 -0.512400 -0.183884 -0.393184
10 -0.292986 -0.484912 0.162587 -0.316434 0.127363 -0.206565 0.116551 0.048342 0.434479 -0.071091 0.136098 0.426693 -0.150372 -0.117289 0.298265 -0.530315 -0.178623 -0.408579
13 -0.242078 -0.485627 0.195436 -0.328896 0.088031 -0.207385 0.122511 0.005532 0.369507 -0.002131 0.096758 0.331950 -0.131074 -0.185256 0.330855 -0.537209 -0.198067 -0.421281
12 -0.307225 -0.509752 0.172621 -0.336598 0.098123 -0.234540 0.096781 -0.004768 0.361577 -0.025991 0.164789 0.418223 -0.146440 -0.135927 0.310533 -0.527148 -0.216125 -0.419751
11 -0.291736 -0.467693 0.161091 -0.284065 0.116770 -0.218527 0.083230 0.054206 0.359590 -0.078507 0.118149 0.384484 -0.164393 -0.127199 0.307175 -0.540129 -0.165214 -0.398343
4 -0.292505 -0.437410 0.171638 -0.295648 0.141174 -0.262616 0.077123 0.071791 0.422153 -0.069338 0.150255 0.415892 -0.101132 -0.130773 0.289964 -0.538114 -0.187608 -0.452017
14 -0.292371 -0.488475 0.197957 -0.330136 0.111291 -0.210754 0.095473 0.022672 0.348088 -0.027633 0.105297 0.401307 -0.156070 -0.156544 0.302562 -0.531024 -0.157176 -0.423798
17 -0.304374 -0.485202 0.175642 -0.300187 0.086212 -0.252401 0.120411 0.050857 0.408477 -0.036013 0.147272 0.443078 -0.132483 -0.125191 0.278335 -0.526893 -0.174905 -0.454246
3 -0.317337 -0.481751 0.188053 -0.310795 0.118636 -0.234260 0.124230 0.034459 0.342376 -0.072382 0.154600 0.391852 -0.183191 -0.180885 0.289446 -0.580550 -0.140193 -0.452369
1 -0.303220 -0.468258 0.181805 -0.305487 0.130507 -0.249330 0.094176 0.067007 0.401292 -0.059267 0.107806 0.382434 -0.113676 -0.133812 0.257541 -0.526545 -0.143055 -0.415643
8 -0.279433 -0.496918 0.186148 -0.304023 0.089847 -0.210635 0.118339 0.046344 0.385085 -0.027284 0.109303 0.389598 -0.158390 -0.144169 0.332275 -0.560316 -0.169459 -0.417032
2 -0.257566 -0.470039 0.147822 -0.311250 0.105254 -0.218962 0.116796 0.044105 0.333169 -0.065380 0.126963 0.401705 -0.136313 -0.162353 0.284426 -0.556984 -0.177508 -0.392823
15 -0.322534 -0.500992 0.199271 -0.341328 0.127745 -0.212503 0.120839 0.021389 0.410334 -0.062339 0.139162 0.406881 -0.134488 -0.131651 0.320376 -0.567746 -0.210164 -0.453382
6 -0.261480 -0.477234 0.186598 -0.280505 0.102385 -0.200699 0.122233 0.043901 0.355651 -0.030463 0.126785 0.360329 -0.151581 -0.163713 0.327903 -0.531402 -0.187392 -0.435026
0 -0.281509 -0.478865 0.175188 -0.333735 0.083346 -0.199512 0.092700 0.029271 0.372205 -0.044739 0.141002 0.386207 -0.130244 -0.137221 0.332352 -0.543195 -0.165880 -0.424176
5 -0.265035 -0.494166 0.121741 -0.306006 0.130763 -0.227226 0.134311 0.003469 0.380012 -0.078275 0.159095 0.405564 -0.164364 -0.146173 0.299180 -0.556936 -0.176796 -0.423732
7 -0.251032 -0.459535 0.136830 -0.308913 0.082730 -0.194955 0.109170 0.037338 0.390666 -0.056453 0.114351 0.395528 -0.135936 -0.160973 0.313724 -0.514901 -0.171041 -0.410050
