18 18
11 -0.126738 -0.442711 0.063934 -0.355692 -0.271046 0.282856 0.150672 -0.140521 0.365011 0.052773 0.245383 0.353974 -0.161124 -0.253992 0.574939 -0.197068 -0.134302 -0.435221
13 0.067617 -0.396280 0.123668 -0.528405 -0.358634 0.509170 0.275283 -0.263612 0.394911 0.133946 0.138225 0.220993 -0.047778 -0.380951 0.602580 -0.148419 -0.101064 -0.442859
7 0.073992 -0.375868 0.075029 -0.495520 -0.372103 0.498593 0.246329 -0.222255 0.392783 0.108249 0.141725 0.232221 -0.047123 -0.375687 0.591358 -0.131025 -0.077389 -0.406487
12 -0.123130 -0.434237 0.056598 -0.390610 -0.294904 0.290965 0.142512 -0.190371 0.325181 0.091033 0.263197 0.363163 -0.138510 -0.268539 0.560456 -0.154203 -0.161800 -0.418400
4 0.012760 -0.359268 0.095590 -0.446601 -0.305897 0.433070 0.209601 -0.187111 0.373706 0.081765 0.200711 0.260663 -0.055778 -0.336794 0.560185 -0.150649 -0.089218 -0.433572
8 -0.017640 -0.420052 0.100715 -0.407220 -0.298404 0.400192 0.239618 -0.199683 0.338793 0.111281 0.153249 0.268566 -0.131626 -0.288066 0.535311 -0.167207 -0.057867 -0.385733
9 -0.112973 -0.409966 0.027041 -0.369445 -0.273055 0.284680 0.157027 -0.155081 0.363342 0.073009 0.247397 0.370142 -0.128447 -0.300423 0.545424 -0.176407 -0.159048 -0.416539
10 -0.023648 -0.400953 0.064982 -0.410472 -0.291766 0.417175 0.227206 -0.192513 0.388250 0.063013 0.212398 0.312305 -0.123707 -0.273251 0.556849 -0.133123 -0.095321 -0.412258
0 -0.008659 -0.364898 0.067052 -0.429896 -0.316330 0.395804 0.186824 -0.192071 0.339997 0.079713 0.210795 0.262182 -0.065848 -0.301807 0.563432 -0.151943 -0.092846 -0.414569
5 -0.085419 -0.405224 0.010883 -0.341370 -0.244424 0.271547 0.176455 -0.172722 0.363021 0.036934 0.263108 0.352214 -0.142932 -0.250072 0.556547 -0.185437 -0.149665 -0.447044
6 -0.045874 -0.413242 0.070769 -0.391020 -0.299892 0.376348 0.204680 -0.174337 0.360734 0.083295 0.237914 0.309158 -0.117813 -0.320354 0.593657 -0.163905 -0.133848 -0.455491
16 -0.067733 -0.393619 0.053591 -0.390720 -0.307351 0.330253 0.191212 -0.179434 0.367335 0.081126 0.223189 0.351364 -0.125040 -0.278546 0.609182 -0.180410 -0.168885 -0.478696
14 -0.041250 -0.408767 0.110191 -0.433305 -0.272930 0.396722 0.199049 -0.204077 0.341595 0.096616 0.158198 0.294333 -0.114118 -0.293870 0.547729 -0.148518 -0.081746 -0.419259
17 -0.100060 -0.427861 0.065078 -0.372965 -0.325059 0.299584 0.188362 -0.161834 0.386486 0.100893 0.266736 0.385045 -0.111270 -0.270354 0.567046 -0.146685 -0.150040 -0.488991
15 -0.017886 -0.386019 0.115032 -0.453810 -0.289583 0.446959 0.241235 -0.229759 0.354050 0.077629 0.175449 0.240630 -0.072007 -0.303106 0.563748 -0.167284 -0.111668 -0.437022
3 -0.115866 -0.409285 0.086010 -0.379089 -0.274911 0.314055 0.185182 -0.170682 0.322594 0.065115 0.249347 0.311150 -0.157124 -0.313592 0.538951 -0.190255 -0.102250 -0.445985
1 -0.027660 -0.027217 0.026180 -0.019122 0.012075 -0.026796 -0.004699 0.019366 0.022084 0.001540 -0.016522 -0.005216 0.015504 -0.011155 -0.013895 -0.016653 0.015775 -0.011908
2 0.021368 -0.003688 -0.004957 -0.007525 -0.007603 0.001755 0.011077 0.016235 -0.024745 -0.003279 -0.008624 0.014563 0.014594 -0.017313 -0.004715 -0.020484 -0.014205 0.014938
