18 18
1 -0.495245 -0.466213 0.328468 -0.345366 -0.176580 0.001385 0.077816 -0.108943 0.174986 0.105317 0.174052 0.474044 -0.224989 0.083599 0.378915 -0.199012 -0.270166 -0.472844
2 -0.391920 -0.417441 0.270433 -0.307635 -0.201742 0.023590 0.091301 -0.161139 0.116360 0.125340 0.134365 0.452899 -0.214486 0.137115 0.413172 -0.163687 -0.358938 -0.443712
10 -0.443814 -0.445473 0.272391 -0.333120 -0.175950 0.068903 0.098389 -0.151844 0.187093 0.086752 0.192227 0.513039 -0.260524 0.123916 0.388623 -0.142423 -0.302017 -0.444355
7 -0.393591 -0.422235 0.252106 -0.314975 -0.231400 0.028435 0.070662 -0.187403 0.172435 0.140110 0.128100 0.471383 -0.218605 0.161387 0.445644 -0.118623 -0.375000 -0.457272
11 -0.412306 -0.419324 0.257225 -0.250045 -0.220051 -0.026089 0.001981 -0.148565 0.165436 0.137435 0.108220 0.425186 -0.204139 0.252581 0.455935 -0.120861 -0.366803 -0.406574
12 -0.416845 -0.420126 0.264821 -0.298799 -0.222355 -0.008543 0.035807 -0.218381 0.114897 0.171884 0.136686 0.439800 -0.209820 0.220348 0.416069 -0.092141 -0.383345 -0.410975
9 -0.455814 -0.434766 0.263260 -0.320579 -0.204354 0.016510 0.059565 -0.120463 0.187174 0.118453 0.174251 0.508772 -0.222076 0.109435 0.394698 -0.159285 -0.317518 -0.424451
3 -0.482600 -0.436552 0.317708 -0.319584 -0.196359 0.020079 0.078172 -0.155192 0.145319 0.113438 0.178793 0.464696 -0.261314 0.121929 0.409203 -0.175198 -0.298437 -0.480409
15 -0.392290 -0.400372 0.270653 -0.296753 -0.210299 0.030266 0.059744 -0.228071 0.131767 0.154762 0.099195 0.395554 -0.188836 0.225390 0.433604 -0.103149 -0.393802 -0.424306
5 -0.378522 -0.429251 0.229216 -0.277318 -0.168953 0.009496 0.126998 -0.203213 0.175160 0.106704 0.163996 0.453271 -0.252337 0.168297 0.425748 -0.165952 -0.364039 -0.483333
4 -0.456231 -0.413335 0.292711 -0.302259 -0.185999 0.000578 0.036661 -0.096500 0.165277 0.100473 0.191766 0.479666 -0.204514 0.121391 0.395937 -0.169692 -0.292263 -0.453363
14 -0.407586 -0.416553 0.286806 -0.294248 -0.188345 -0.003405 0.029752 -0.188139 0.133573 0.163063 0.088449 0.432940 -0.215815 0.210266 0.415475 -0.103839 -0.329730 -0.421924
0 -0.423689 -0.427618 0.278045 -0.310534 -0.242938 0.011560 0.030785 -0.173832 0.143621 0.152348 0.145283 0.439428 -0.203917 0.199685 0.450015 -0.136164 -0.321455 -0.431895
13 -0.390113 -0.403142 0.279084 -0.301210 -0.232533 -0.010639 0.053175 -0.197905 0.155404 0.173120 0.107485 0.418756 -0.192853 0.188241 0.439279 -0.117114 -0.392813 -0.445982
16 -0.413746 -0.406247 0.282861 -0.280982 -0.227184 -0.008247 0.068020 -0.202998 0.147057 0.167438 0.101931 0.442437 -0.226155 0.251714 0.464612 -0.129593 -0.400775 -0.472153
6 -0.375559 -0.420455 0.262707 -0.241324 -0.200004 0.013355 0.108617 -0.161329 0.143236 0.137581 0.145995 0.417799 -0.227971 0.165374 0.435540 -0.135788 -0.371778 -0.471499
17 -0.399591 -0.404511 0.255270 -0.242378 -0.254430 -0.035938 0.033545 -0.136073 0.179477 0.171108 0.130587 0.460874 -0.176544 0.233724 0.406685 -0.085865 -0.347866 -0.428521
8 -0.410263 -0.434512 0.286088 -0.285874 -0.213450 0.018648 0.077040 -0.138722 0.142979 0.145429 0.129430 0.434251 -0.229362 0.142444 0.418034 -0.165285 -0.285091 -0.423047
