18 18
7 -0.251267 -0.318620 0.222311 0.012243 -0.068528 -0.132545 0.207331 0.306499 0.428926 -0.030504 0.092869 0.443900 -0.118313 -0.089316 0.362574 -0.342342 -0.351334 -0.594977
15 -0.232859 -0.288505 0.198985 -0.005026 -0.025550 -0.070360 0.195895 0.248514 0.385836 -0.048696 0.097687 0.375535 -0.079886 -0.077002 0.301064 -0.292224 -0.316964 -0.502660
13 -0.219394 -0.306260 0.228206 -0.001403 -0.050149 -0.130561 0.221583 0.277147 0.421151 -0.018583 0.083018 0.406634 -0.090860 -0.099503 0.331685 -0.327919 -0.356200 -0.566832
16 -0.300308 -0.316746 0.277661 0.017994 -0.064045 -0.165567 0.220936 0.275295 0.362392 -0.001141 0.089164 0.454643 -0.158951 -0.013066 0.368327 -0.373421 -0.393019 -0.644788
1 -0.309235 -0.362643 0.299700 -0.008108 -0.046618 -0.195565 0.220681 0.311328 0.409375 -0.009320 0.076632 0.440819 -0.124998 -0.055594 0.333183 -0.383762 -0.348318 -0.623248
2 -0.228338 -0.324599 0.230010 0.015635 -0.050826 -0.137141 0.229846 0.324385 0.388061 -0.038267 0.089338 0.441332 -0.090521 -0.079087 0.321989 -0.360936 -0.352936 -0.558256
4 -0.303912 -0.318418 0.280156 0.028701 -0.032586 -0.180895 0.183257 0.348252 0.408595 -0.036566 0.136252 0.471158 -0.116967 -0.061202 0.356164 -0.375440 -0.370562 -0.642971
5 -0.218407 -0.320656 0.176431 0.018824 -0.015889 -0.122516 0.233789 0.264447 0.434282 -0.061288 0.115923 0.421709 -0.113316 -0.068028 0.323653 -0.337755 -0.337360 -0.554716
9 -0.233420 -0.284038 0.177644 0.006923 -0.040452 -0.112261 0.190230 0.290135 0.414173 -0.037435 0.093196 0.413910 -0.093729 -0.109256 0.300056 -0.314391 -0.326416 -0.505496
11 -0.312226 -0.338691 0.275396 0.021391 -0.043028 -0.174355 0.170473 0.291348 0.371242 -0.025025 0.096468 0.436721 -0.155715 -0.011258 0.364815 -0.363072 -0.366654 -0.598868
8 -0.284948 -0.342464 0.294703 0.007457 -0.074405 -0.160996 0.207552 0.261297 0.325912 0.024535 0.070320 0.417869 -0.167695 -0.022004 0.359461 -0.370520 -0.339433 -0.588547
6 -0.231416 -0.301453 0.213973 0.038975 -0.036959 -0.106892 0.204120 0.304641 0.394745 -0.030636 0.102385 0.402467 -0.107006 -0.098368 0.336611 -0.314539 -0.338451 -0.561686
10 -0.219014 -0.295860 0.194373 0.025483 -0.028609 -0.095045 0.218113 0.282593 0.415444 -0.056268 0.099953 0.409438 -0.117574 -0.049680 0.298171 -0.296863 -0.304527 -0.504155
17 -0.273895 -0.323178 0.242515 0.038056 -0.082505 -0.164586 0.223649 0.297569 0.425962 0.002726 0.128705 0.473392 -0.118673 -0.045606 0.330536 -0.314636 -0.358150 -0.630411
3 -0.328308 -0.322674 0.311285 0.003909 -0.053961 -0.179256 0.213367 0.263573 0.315073 -0.002958 0.101443 0.417955 -0.180532 -0.052720 0.338998 -0.384270 -0.346038 -0.638518
12 -0.333128 -0.329166 0.292531 -0.019427 -0.080850 -0.192623 0.167611 0.206130 0.271270 0.042299 0.113262 0.442777 -0.174035 0.013328 0.335804 -0.333469 -0.386901 -0.599440
14 -0.277376 -0.336314 0.264681 -0.014912 -0.032313 -0.129510 0.190673 0.278670 0.384331 -0.011617 0.069461 0.441631 -0.129033 -0.075891 0.336575 -0.331175 -0.334773 -0.573437
0 -0.005399 -0.014495 0.001279 -0.026652 -0.021820 0.016369 -0.010898 -0.008016 -0.006711 0.000758 0.022893 0.001004 0.004839 -0.000095 0.023655 -0.011355 0.019530 -0.003746
