18 18
1 -0.189286 -0.470532 0.356976 -0.250741 0.047328 -0.092604 0.171086 0.244076 0.079742 -0.055680 0.107399 0.274316 -0.096695 -0.468100 0.320918 -0.514197 -0.264714 -0.459369
6 -0.169516 -0.466496 0.369170 -0.230091 0.047502 -0.055362 0.178715 0.223818 0.051900 -0.042367 0.113065 0.270553 -0.123531 -0.461515 0.368318 -0.504941 -0.311500 -0.479549
11 -0.181872 -0.458829 0.352930 -0.232218 0.051892 -0.059915 0.138375 0.222686 0.069023 -0.071586 0.093374 0.269063 -0.128210 -0.407387 0.373399 -0.514742 -0.295119 -0.451279
3 -0.173669 -0.433629 0.307448 -0.155344 0.085015 -0.123895 0.248033 0.372390 0.049254 -0.184980 0.242965 0.304752 -0.161991 -0.627999 0.311669 -0.638834 -0.214269 -0.535672
2 -0.120622 -0.421438 0.266787 -0.191444 0.025320 -0.091614 0.197990 0.301882 0.037955 -0.106282 0.162078 0.307638 -0.089462 -0.499666 0.302022 -0.545656 -0.260495 -0.421744
13 -0.191578 -0.554146 0.591507 -0.524194 0.020937 0.078770 0.150212 -0.229016 -0.068178 0.209892 -0.111266 0.173656 -0.142221 -0.274013 0.485180 -0.364781 -0.551578 -0.471267
12 -0.207587 -0.506193 0.411134 -0.327262 0.023449 -0.037832 0.154842 0.082381 0.004925 0.025996 0.092328 0.284925 -0.137796 -0.385255 0.377906 -0.455515 -0.373251 -0.452784
8 -0.167833 -0.485287 0.385933 -0.256301 0.024414 -0.044524 0.183214 0.188086 0.030972 -0.012697 0.091369 0.268207 -0.136802 -0.433247 0.375493 -0.515606 -0.296698 -0.458859
0 -0.152453 -0.448335 0.286925 -0.222704 0.002146 -0.076891 0.170776 0.294163 0.070711 -0.095612 0.189247 0.318912 -0.096634 -0.481316 0.344184 -0.548312 -0.229926 -0.461821
9 -0.166916 -0.415393 0.284328 -0.204021 0.052961 -0.084327 0.162817 0.292470 0.093666 -0.103233 0.146063 0.299375 -0.104345 -0.495599 0.306759 -0.526526 -0.259175 -0.425367
10 -0.155926 -0.450470 0.316814 -0.219126 0.064321 -0.043275 0.210326 0.225754 0.077703 -0.098150 0.159301 0.302982 -0.148551 -0.461415 0.333081 -0.502908 -0.277620 -0.464476
4 -0.140998 -0.382913 0.250837 -0.131374 0.105619 -0.142942 0.215682 0.396421 0.079224 -0.207077 0.265073 0.327354 -0.119445 -0.617060 0.295044 -0.616241 -0.225027 -0.515553
7 -0.132385 -0.438744 0.278594 -0.212432 0.008071 -0.071647 0.193347 0.294984 0.099696 -0.096832 0.151509 0.317406 -0.100318 -0.519839 0.344573 -0.531199 -0.253299 -0.467954
16 -0.170689 -0.455238 0.374501 -0.273564 0.020989 -0.049596 0.183625 0.154436 0.042577 -0.009734 0.072083 0.285516 -0.125072 -0.393503 0.380166 -0.495718 -0.346927 -0.476906
15 -0.228061 -0.548886 0.537007 -0.451407 0.040346 0.064546 0.167752 -0.107058 -0.032301 0.104699 -0.021264 0.213408 -0.146991 -0.297558 0.449529 -0.420146 -0.470878 -0.477872
14 -0.211468 -0.536569 0.540787 -0.440229 0.054131 0.046873 0.139570 -0.082103 -0.046877 0.120791 -0.053538 0.225442 -0.156908 -0.320000 0.433879 -0.399054 -0.432536 -0.468037
17 -0.166495 -0.439251 0.323157 -0.203556 -0.000816 -0.090278 0.176804 0.247366 0.087862 -0.032480 0.140405 0.311741 -0.090904 -0.421512 0.308968 -0.470326 -0.263814 -0.469998
5 -0.132616 -0.420227 0.233355 -0.171630 0.054793 -0.094136 0.201772 0.255491 0.096333 -0.121172 0.182987 0.305033 -0.128424 -0.459202 0.316311 -0.529036 -0.242254 -0.451246
