18 18
1 -0.392366 -0.475824 0.310241 -0.493728 -0.017845 0.061398 0.258274 -0.040167 0.320008 0.015977 0.107860 0.320084 -0.023216 -0.317310 0.090282 -0.306116 -0.169822 -0.330092
12 -0.419490 -0.522814 0.311795 -0.546768 -0.059004 0.074144 0.267487 -0.090947 0.311775 0.047198 0.172942 0.393422 -0.046806 -0.350737 0.119955 -0.304153 -0.227450 -0.351534
7 -0.317576 -0.488140 0.280045 -0.516941 -0.080815 0.121011 0.334183 -0.041404 0.292693 0.004646 0.109756 0.336561 -0.043682 -0.472434 0.158080 -0.352077 -0.181305 -0.396240
3 -0.312126 -0.382973 0.274468 -0.409956 0.000962 0.097316 0.307489 -0.020839 0.214746 -0.050784 0.114995 0.253977 -0.088167 -0.398255 0.107840 -0.359782 -0.135187 -0.349830
8 -0.381674 -0.487778 0.301222 -0.491480 -0.007968 0.142714 0.299477 -0.040322 0.366897 -0.011046 0.103302 0.338838 -0.081599 -0.320573 0.148573 -0.352497 -0.172782 -0.316814
15 -0.419167 -0.501757 0.314096 -0.540568 0.007488 0.152175 0.300284 -0.077361 0.364206 -0.031482 0.131250 0.345778 -0.058122 -0.328218 0.134926 -0.342526 -0.211053 -0.338772
13 -0.352612 -0.487191 0.316285 -0.540703 -0.043685 0.096948 0.316058 -0.084356 0.325105 0.029782 0.113223 0.331164 -0.035262 -0.398869 0.144744 -0.344994 -0.227566 -0.387523
2 -0.352529 -0.487941 0.306467 -0.518712 -0.039555 0.112870 0.324552 -0.034114 0.277369 -0.005638 0.118088 0.354157 -0.043737 -0.406787 0.125468 -0.370513 -0.202516 -0.354294
14 -0.390238 -0.477237 0.312895 -0.506736 -0.002650 0.121294 0.241805 -0.064804 0.315142 0.019120 0.090866 0.343195 -0.059137 -0.302417 0.111605 -0.282281 -0.164476 -0.298471
16 -0.342974 -0.426789 0.274411 -0.476504 -0.000212 0.113837 0.317844 -0.044294 0.314769 -0.042316 0.100472 0.329310 -0.074031 -0.344871 0.155407 -0.376141 -0.216888 -0.370037
9 -0.399789 -0.462658 0.251813 -0.523461 0.025300 0.134457 0.293584 -0.034997 0.420136 -0.059337 0.132575 0.374732 -0.063433 -0.358861 0.123543 -0.365260 -0.220909 -0.306362
4 -0.332016 -0.408479 0.268893 -0.448620 0.009760 0.081532 0.265668 -0.008710 0.291931 -0.044012 0.144608 0.323696 -0.038019 -0.362713 0.117195 -0.347275 -0.171069 -0.357084
5 -0.346722 -0.459934 0.233222 -0.465102 0.044117 0.104464 0.309955 -0.060986 0.338791 -0.074401 0.151176 0.347533 -0.092843 -0.330946 0.131961 -0.368177 -0.192363 -0.340549
0 -0.353733 -0.468274 0.281587 -0.508166 -0.062548 0.100680 0.262414 -0.064016 0.285241 0.015450 0.147200 0.328395 -0.034098 -0.348807 0.148846 -0.323896 -0.171630 -0.351168
6 -0.330546 -0.468611 0.300115 -0.453097 -0.038209 0.105911 0.318037 -0.025827 0.259391 0.005130 0.132948 0.317902 -0.063762 -0.406914 0.138714 -0.334393 -0.183788 -0.381737
17 -0.377138 -0.494875 0.313947 -0.490611 -0.086059 0.060793 0.290367 -0.071469 0.329392 0.074977 0.147183 0.370975 -0.021794 -0.316480 0.104612 -0.266016 -0.200340 -0.382553
10 -0.399096 -0.466443 0.272556 -0.497518 0.053257 0.167071 0.301459 -0.041385 0.409835 -0.078015 0.142499 0.367815 -0.094140 -0.292212 0.107352 -0.325607 -0.180631 -0.288737
11 -0.409731 -0.479774 0.302479 -0.490698 0.031387 0.109649 0.270917 -0.016740 0.378134 -0.061319 0.119549 0.348095 -0.077537 -0.316391 0.145204 -0.367641 -0.204660 -0.334688
