18 18
4 -0.204361 -0.506245 0.236679 -0.245098 -0.331308 0.012027 0.207170 0.267128 0.466699 0.159410 0.254673 0.531078 -0.051249 -0.309830 0.270658 -0.264603 0.127188 -0.468553
2 -0.191178 -0.517431 0.243324 -0.258477 -0.335065 0.032475 0.212498 0.218818 0.370568 0.173367 0.193276 0.492150 -0.055866 -0.275141 0.254808 -0.251667 0.095584 -0.389073
12 -0.262252 -0.551696 0.274719 -0.290405 -0.336195 0.023640 0.170973 0.160142 0.365423 0.201629 0.211897 0.514963 -0.078734 -0.221755 0.263379 -0.208948 0.068832 -0.393977
0 -0.224123 -0.530872 0.251315 -0.276825 -0.348426 0.045258 0.182793 0.180904 0.373209 0.179302 0.217764 0.470307 -0.063408 -0.235803 0.270477 -0.231359 0.129060 -0.395174
14 -0.294122 -0.566967 0.351224 -0.319553 -0.277332 0.048379 0.153628 0.117017 0.301311 0.212890 0.109693 0.469620 -0.112889 -0.181382 0.263184 -0.206328 0.089254 -0.385146
13 -0.233484 -0.559131 0.302898 -0.306483 -0.344790 0.030866 0.215963 0.166505 0.387678 0.213780 0.169754 0.477405 -0.074424 -0.268344 0.279639 -0.244810 0.076742 -0.424187
1 -0.276944 -0.552841 0.321041 -0.293568 -0.298279 0.011116 0.173218 0.174909 0.355697 0.193266 0.139698 0.441386 -0.064047 -0.211175 0.234820 -0.229195 0.113414 -0.390460
8 -0.244020 -0.525150 0.298404 -0.257427 -0.312900 0.043424 0.174305 0.149497 0.312665 0.199180 0.142041 0.417846 -0.086352 -0.181029 0.250625 -0.213103 0.105933 -0.352496
3 -0.214449 -0.489308 0.238311 -0.222136 -0.323387 0.024948 0.225374 0.236655 0.394645 0.146008 0.244235 0.488021 -0.090208 -0.309366 0.250062 -0.258294 0.140912 -0.443575
7 -0.153575 -0.474759 0.182757 -0.227030 -0.337512 0.046667 0.211320 0.227022 0.426420 0.148138 0.198740 0.479455 -0.056157 -0.304689 0.269953 -0.232640 0.115386 -0.400696
15 -0.277110 -0.534086 0.307128 -0.297010 -0.287461 0.063143 0.185999 0.130904 0.345980 0.172034 0.167455 0.451553 -0.081371 -0.193072 0.269372 -0.232414 0.071968 -0.406541
11 -0.250518 -0.533532 0.276102 -0.247693 -0.298605 0.021712 0.169166 0.207183 0.374750 0.155867 0.178880 0.482295 -0.093596 -0.216256 0.283010 -0.248376 0.082308 -0.402606
6 -0.213734 -0.534425 0.262365 -0.234162 -0.325355 0.044173 0.218167 0.208235 0.381448 0.181912 0.208890 0.486400 -0.084301 -0.254863 0.279003 -0.231708 0.088628 -0.428357
17 -0.217756 -0.508266 0.249909 -0.225352 -0.349380 0.011955 0.210939 0.207922 0.397413 0.192456 0.211925 0.499838 -0.055829 -0.226039 0.236867 -0.202752 0.105092 -0.425815
5 -0.167370 -0.496338 0.158659 -0.209347 -0.303884 0.016844 0.237682 0.202125 0.438761 0.127381 0.248156 0.495240 -0.077363 -0.262610 0.260501 -0.256599 0.096183 -0.410342
16 -0.266420 -0.515637 0.309116 -0.285820 -0.293409 0.042411 0.183864 0.134621 0.320923 0.185038 0.128924 0.460699 -0.106379 -0.173286 0.286889 -0.239299 0.056268 -0.418232
9 -0.224382 -0.520742 0.228037 -0.264042 -0.331006 0.031273 0.200109 0.225051 0.431830 0.171583 0.212425 0.517352 -0.068534 -0.287244 0.259203 -0.244837 0.091412 -0.395437
10 -0.194352 -0.500278 0.216553 -0.228528 -0.310567 0.054201 0.216722 0.208171 0.412850 0.144621 0.222953 0.495646 -0.083958 -0.235858 0.245089 -0.210149 0.112807 -0.384625
