18 18
2 -0.165943 -0.650000 0.182037 -0.387405 -0.267588 0.134137 0.181068 0.067265 0.249515 0.110877 0.129087 0.427940 -0.032670 -0.222917 0.360561 -0.320460 -0.035504 -0.246326
0 -0.218605 -0.690496 0.208215 -0.455032 -0.306568 0.187731 0.125382 0.044665 0.286932 0.124723 0.139315 0.426873 -0.027265 -0.172734 0.396886 -0.265822 0.013754 -0.225864
10 -0.219786 -0.699374 0.196428 -0.427717 -0.276948 0.219592 0.150995 0.051180 0.327556 0.099459 0.153951 0.461847 -0.060461 -0.149203 0.386350 -0.235968 -0.002079 -0.207775
7 -0.165211 -0.619336 0.154871 -0.386235 -0.275832 0.168708 0.153519 0.055603 0.298425 0.103228 0.123666 0.408868 -0.031160 -0.215811 0.367229 -0.253429 -0.007360 -0.235262
12 -0.239512 -0.652425 0.203937 -0.420355 -0.282879 0.153924 0.100781 0.027807 0.257601 0.135622 0.137622 0.432404 -0.038825 -0.134899 0.350698 -0.214173 -0.034346 -0.191627
9 -0.218172 -0.645761 0.179766 -0.419531 -0.271859 0.164550 0.135119 0.066632 0.308568 0.116965 0.124430 0.439649 -0.028200 -0.193794 0.351587 -0.258792 -0.013873 -0.206877
13 -0.185259 -0.654185 0.205220 -0.415859 -0.278456 0.146938 0.153792 0.037440 0.285237 0.134564 0.123500 0.399386 -0.031648 -0.208846 0.370567 -0.275145 -0.029620 -0.241374
3 -0.219821 -0.669901 0.206970 -0.396501 -0.262445 0.160334 0.184610 0.059820 0.276175 0.094983 0.168131 0.425446 -0.079062 -0.235687 0.378113 -0.318008 0.010187 -0.276554
14 -0.224823 -0.685312 0.229151 -0.436359 -0.266363 0.177786 0.139336 0.043848 0.281113 0.132871 0.110044 0.444556 -0.051854 -0.184456 0.384300 -0.266714 0.004180 -0.245186
4 -0.216563 -0.711963 0.200036 -0.408462 -0.261104 0.135220 0.168766 0.094776 0.322529 0.093496 0.205569 0.487238 -0.048556 -0.250280 0.417372 -0.362520 -0.025148 -0.312946
15 -0.222836 -0.651410 0.208296 -0.407291 -0.257489 0.167386 0.160122 0.031324 0.275815 0.105427 0.139871 0.411552 -0.038512 -0.169430 0.369132 -0.281435 -0.035647 -0.245337
1 -0.228892 -0.664003 0.217630 -0.423202 -0.253011 0.144805 0.138304 0.081462 0.312226 0.109397 0.108518 0.413096 -0.022300 -0.195237 0.350809 -0.275499 0.018700 -0.239976
11 -0.249716 -0.687147 0.224957 -0.401070 -0.256060 0.142905 0.105933 0.082067 0.299251 0.095640 0.127634 0.434279 -0.057367 -0.145568 0.403175 -0.296795 -0.032846 -0.226859
8 -0.191302 -0.659058 0.197794 -0.361250 -0.271362 0.129947 0.169640 0.063898 0.270039 0.127486 0.133344 0.420852 -0.070001 -0.187359 0.385530 -0.323805 -0.018538 -0.250264
5 -0.177307 -0.653682 0.134832 -0.346210 -0.218074 0.096948 0.198876 0.028487 0.294349 0.077016 0.190189 0.446011 -0.087561 -0.207870 0.390005 -0.355425 -0.062914 -0.300006
6 -0.190578 -0.667598 0.188608 -0.370726 -0.258261 0.161525 0.174200 0.076645 0.286339 0.104803 0.162793 0.422780 -0.055756 -0.226942 0.402219 -0.306154 -0.026732 -0.273347
16 -0.216480 -0.647947 0.211606 -0.412418 -0.285219 0.158336 0.161905 0.046980 0.286756 0.129626 0.104534 0.440305 -0.047181 -0.150160 0.385668 -0.278372 -0.038267 -0.258983
17 -0.216833 -0.664033 0.212315 -0.407046 -0.311201 0.149732 0.156070 0.065288 0.316875 0.154135 0.125862 0.456323 -0.016404 -0.156711 0.350733 -0.232198 0.003388 -0.255858
