18 18
5 -0.150696 -0.555025 0.121172 -0.251375 -0.115356 0.048784 0.152243 0.063965 0.440221 -0.018334 0.027291 0.410844 -0.064608 0.002095 0.448551 -0.359256 -0.107454 -0.381973
11 -0.168535 -0.527209 0.138025 -0.217660 -0.110022 0.039997 0.091785 0.159789 0.468938 -0.054962 -0.019244 0.390536 -0.057106 0.007293 0.483469 -0.379027 -0.104660 -0.370079
1 -0.240853 -0.643313 0.177132 -0.339226 -0.156347 0.001783 0.138896 0.132823 0.428030 -0.009537 0.038798 0.440704 -0.019429 -0.057997 0.382093 -0.381259 -0.092193 -0.350205
8 -0.162177 -0.603565 0.169707 -0.287374 -0.186353 0.075626 0.162598 0.122677 0.431368 0.009725 0.002556 0.420955 -0.054154 -0.022885 0.491553 -0.398732 -0.096109 -0.381530
15 -0.227618 -0.605548 0.180476 -0.326676 -0.160827 0.061171 0.149203 0.084606 0.394685 -0.013667 0.062910 0.431912 -0.038706 -0.025927 0.432171 -0.371792 -0.130509 -0.364132
7 -0.124142 -0.506258 0.112410 -0.260569 -0.160606 0.077117 0.127318 0.109730 0.414547 -0.020775 -0.001603 0.369997 -0.030608 -0.048330 0.440038 -0.327355 -0.085586 -0.337630
10 -0.174148 -0.581071 0.130457 -0.289933 -0.162216 0.077823 0.153686 0.115188 0.441764 -0.027711 0.047268 0.451759 -0.056351 -0.014809 0.440236 -0.344788 -0.100024 -0.341253
12 -0.271143 -0.651491 0.171758 -0.364315 -0.197911 -0.004922 0.127010 0.068516 0.351867 0.031205 0.116311 0.497974 -0.042822 -0.050162 0.373110 -0.343674 -0.142946 -0.319919
6 -0.163600 -0.554854 0.157782 -0.247620 -0.157515 0.058300 0.140943 0.147226 0.424009 -0.007492 0.015374 0.401889 -0.041995 -0.039426 0.460702 -0.366297 -0.107879 -0.388792
9 -0.189637 -0.574320 0.131328 -0.296171 -0.168489 0.051852 0.135077 0.138337 0.465116 -0.012062 0.027009 0.452487 -0.036281 -0.059162 0.447056 -0.380531 -0.118830 -0.355462
17 -0.173405 -0.532475 0.145091 -0.249554 -0.183014 0.027649 0.141179 0.115277 0.417234 0.021053 0.038197 0.433975 -0.027239 -0.013500 0.397537 -0.317344 -0.100271 -0.358348
13 -0.145920 -0.534169 0.158087 -0.276344 -0.156323 0.046508 0.140437 0.091507 0.420798 0.010678 0.002604 0.384940 -0.033832 -0.035849 0.451628 -0.358509 -0.122337 -0.369225
4 -0.182957 -0.560761 0.152714 -0.284761 -0.148234 0.036475 0.111900 0.165333 0.438050 -0.038720 0.043789 0.432405 -0.020657 -0.040687 0.460779 -0.391107 -0.107056 -0.393643
0 -0.145846 -0.533448 0.143210 -0.275163 -0.173648 0.086101 0.120833 0.095737 0.414499 -0.004503 0.020745 0.387369 -0.038707 -0.006860 0.485804 -0.360839 -0.081553 -0.366246
14 -0.181469 -0.588286 0.183592 -0.296919 -0.146556 0.069306 0.122287 0.115867 0.432477 0.004726 -0.020749 0.426686 -0.051489 -0.022825 0.473760 -0.365268 -0.089171 -0.385497
16 -0.186673 -0.586148 0.162227 -0.301779 -0.184432 0.053584 0.156185 0.149035 0.444811 -0.015836 -0.002447 0.442932 -0.046249 -0.022336 0.494876 -0.410924 -0.134269 -0.412225
2 -0.239389 -0.658780 0.162820 -0.376726 -0.201609 0.005576 0.161053 0.119692 0.341636 0.001828 0.095738 0.504863 -0.017375 -0.089777 0.361072 -0.389845 -0.136937 -0.315395
3 -0.293650 -0.657145 0.196596 -0.369174 -0.185123 0.000772 0.169214 0.090325 0.347535 0.003284 0.130189 0.489793 -0.065230 -0.097926 0.357000 -0.390224 -0.100800 -0.354001
