18 18
10 -0.128809 -0.487016 0.205440 -0.314891 -0.302441 0.281937 0.142738 0.177533 0.378701 0.063116 0.259393 0.455536 -0.007194 -0.264855 0.459256 -0.163286 0.063482 -0.486708
3 -0.159802 -0.444316 0.219334 -0.281833 -0.252717 0.214960 0.118272 0.169939 0.293205 0.049879 0.248126 0.387799 -0.024215 -0.279535 0.404494 -0.194356 0.082103 -0.475335
0 -0.162959 -0.492555 0.216350 -0.350727 -0.307053 0.218257 0.072006 0.183016 0.313535 0.076028 0.245273 0.422663 0.037261 -0.264610 0.442426 -0.212314 0.093594 -0.450255
2 -0.110269 -0.454543 0.206199 -0.327588 -0.289917 0.215677 0.102461 0.205607 0.290187 0.060619 0.205824 0.425593 0.047856 -0.301578 0.420657 -0.225057 0.049041 -0.445642
4 -0.128761 -0.434201 0.198102 -0.284760 -0.273696 0.209075 0.088957 0.212721 0.349791 0.051719 0.269623 0.437660 0.032343 -0.284870 0.440400 -0.192049 0.063861 -0.506775
13 -0.111796 -0.465851 0.220078 -0.337158 -0.312392 0.232712 0.121127 0.164992 0.361334 0.096273 0.217310 0.415999 0.029831 -0.309475 0.466023 -0.184733 0.029132 -0.508100
1 -0.168574 -0.497606 0.226680 -0.334558 -0.273637 0.179891 0.083013 0.223311 0.348542 0.065363 0.214821 0.424223 0.047836 -0.281031 0.407279 -0.222239 0.091205 -0.467404
7 -0.107163 -0.462622 0.183889 -0.326131 -0.310692 0.255873 0.112736 0.166532 0.361880 0.072053 0.198940 0.427131 0.015395 -0.290932 0.463129 -0.167326 0.044646 -0.469105
6 -0.124027 -0.462877 0.206483 -0.265360 -0.278336 0.234875 0.123935 0.190431 0.327872 0.078489 0.235096 0.418079 -0.002196 -0.259936 0.442831 -0.167843 0.043778 -0.486942
12 -0.164531 -0.497506 0.210454 -0.326151 -0.297039 0.216409 0.090552 0.161674 0.323005 0.086048 0.261804 0.466794 0.003259 -0.259934 0.443381 -0.168852 0.032256 -0.475113
11 -0.148957 -0.458848 0.210373 -0.291922 -0.260083 0.193539 0.076206 0.190860 0.327442 0.054977 0.190362 0.408090 0.006817 -0.238161 0.437239 -0.203237 0.029564 -0.441959
17 -0.134357 -0.467560 0.214976 -0.293020 -0.319254 0.206769 0.121123 0.195287 0.361352 0.103365 0.231470 0.451363 0.032998 -0.259378 0.422267 -0.164072 0.063114 -0.493795
16 -0.133014 -0.459475 0.205755 -0.288301 -0.293185 0.234637 0.140426 0.158671 0.355448 0.081181 0.216936 0.456535 -0.023697 -0.235720 0.478412 -0.179282 0.003606 -0.529263
9 -0.143327 -0.453300 0.188791 -0.316126 -0.286338 0.230147 0.107948 0.180159 0.355153 0.073310 0.219998 0.432074 0.010921 -0.294014 0.429699 -0.184787 0.035688 -0.450056
8 -0.123870 -0.472681 0.215880 -0.295698 -0.300553 0.232864 0.119418 0.169233 0.322268 0.093908 0.204532 0.409419 -0.006669 -0.259510 0.451246 -0.190973 0.054088 -0.458749
5 -0.134070 -0.485701 0.176099 -0.305087 -0.254246 0.202034 0.120394 0.165697 0.346433 0.044965 0.254237 0.442465 0.001825 -0.262549 0.433595 -0.215072 0.049201 -0.479672
15 -0.157156 -0.482870 0.231873 -0.334243 -0.284580 0.259996 0.124087 0.133357 0.329505 0.076062 0.221860 0.420661 0.006907 -0.249678 0.457147 -0.179276 0.012373 -0.484083
14 -0.145444 -0.494952 0.249004 -0.350534 -0.291401 0.251914 0.099568 0.157150 0.329078 0.106559 0.185339 0.444023 0.004519 -0.277054 0.455617 -0.168493 0.054842 -0.481123
