18 18
12 -0.291723 -0.429090 0.151242 -0.244221 -0.063325 -0.069652 0.209496 0.058438 0.258065 -0.021704 0.435198 0.507296 -0.117881 -0.207528 0.195952 -0.383886 -0.100562 -0.457787
0 -0.276657 -0.381086 0.099864 -0.246054 -0.040526 -0.063926 0.226632 0.104111 0.295979 -0.114450 0.505798 0.507938 -0.096433 -0.239431 0.209528 -0.476383 -0.034805 -0.517154
3 -0.254128 -0.253837 0.046116 -0.123648 0.088862 -0.140454 0.200150 0.063151 0.207918 -0.169233 0.537155 0.465029 -0.144322 -0.207080 0.157256 -0.474719 -0.080427 -0.521846
2 -0.255312 -0.384784 0.094150 -0.222597 -0.016269 -0.081692 0.244717 0.112498 0.271075 -0.108884 0.470428 0.532056 -0.104194 -0.243154 0.193421 -0.486806 -0.091428 -0.492620
1 -0.297282 -0.410424 0.126654 -0.222174 -0.007523 -0.115475 0.256321 0.142614 0.341351 -0.103241 0.472602 0.526496 -0.106488 -0.248713 0.167257 -0.483963 -0.033450 -0.536132
6 -0.258952 -0.364061 0.086706 -0.157230 0.023797 -0.098183 0.237848 0.108895 0.280864 -0.119685 0.510268 0.511206 -0.135959 -0.225647 0.206885 -0.466708 -0.082187 -0.538927
14 -0.299161 -0.424852 0.137285 -0.244211 0.011240 -0.082286 0.234453 0.078920 0.280658 -0.090260 0.485260 0.569519 -0.147189 -0.234135 0.218671 -0.484263 -0.071683 -0.550236
10 -0.262272 -0.395640 0.105760 -0.208565 -0.023696 -0.042783 0.266883 0.122053 0.330857 -0.105826 0.454565 0.517093 -0.129660 -0.217142 0.169977 -0.423242 -0.029005 -0.477902
9 -0.290481 -0.412696 0.109341 -0.229917 -0.050515 -0.067176 0.254135 0.142037 0.348527 -0.079656 0.447343 0.529937 -0.117129 -0.271393 0.186110 -0.458035 -0.055528 -0.480536
7 -0.261574 -0.436970 0.104106 -0.238394 -0.069723 -0.052484 0.277913 0.139883 0.366669 -0.092813 0.449872 0.543733 -0.122121 -0.283862 0.233717 -0.478907 -0.041409 -0.532331
8 -0.297663 -0.487461 0.162959 -0.242541 -0.076427 -0.064920 0.303753 0.137006 0.353249 -0.057754 0.471493 0.558829 -0.143718 -0.264371 0.236989 -0.509503 -0.035147 -0.557827
4 -0.252699 -0.268943 0.000127 -0.121037 0.108472 -0.171219 0.174185 0.108982 0.278205 -0.214136 0.630300 0.548104 -0.112988 -0.211040 0.192597 -0.522974 -0.106469 -0.568925
16 -0.255887 -0.304073 0.058488 -0.164688 0.047542 -0.118328 0.234422 0.076099 0.262790 -0.143031 0.488839 0.528475 -0.145132 -0.177876 0.198748 -0.488732 -0.117807 -0.539234
13 -0.256170 -0.373011 0.128434 -0.234500 -0.019436 -0.093049 0.236383 0.061084 0.278380 -0.062947 0.453220 0.489559 -0.104393 -0.242838 0.199316 -0.446997 -0.110065 -0.516218
11 -0.293597 -0.442839 0.127554 -0.210508 -0.015626 -0.074635 0.224887 0.129535 0.332955 -0.107641 0.437843 0.521175 -0.148663 -0.218211 0.246149 -0.476934 -0.068095 -0.509100
17 -0.264974 -0.382869 0.132396 -0.194708 -0.060466 -0.092427 0.262165 0.121235 0.318686 -0.049602 0.435754 0.518316 -0.098878 -0.204013 0.153042 -0.401824 -0.048156 -0.511573
5 -0.218258 -0.298838 -0.021130 -0.128549 0.097516 -0.131976 0.203710 0.042103 0.264990 -0.182489 0.533938 0.505742 -0.141633 -0.164082 0.196409 -0.474737 -0.118758 -0.497561
15 -0.307266 -0.387908 0.141150 -0.235884 0.003462 -0.070592 0.233460 0.049647 0.264982 -0.093444 0.498445 0.508976 -0.115977 -0.214977 0.203624 -0.458007 -0.115699 -0.530810
