18 18
17 -0.202816 -0.528289 0.130372 -0.123949 -0.067378 -0.062383 0.296170 -0.081838 0.171576 0.020422 0.419821 0.538877 -0.174781 -0.002143 0.190587 -0.225343 -0.158782 -0.496833
7 -0.224992 -0.591002 0.123091 -0.189326 -0.023123 -0.026436 0.293796 -0.071208 0.193054 -0.034732 0.394107 0.566964 -0.201550 -0.094528 0.258191 -0.304157 -0.164650 -0.504475
15 -0.292794 -0.595788 0.173525 -0.226635 0.024060 -0.022811 0.261702 -0.091672 0.171634 -0.044849 0.390044 0.551813 -0.196517 -0.068029 0.247513 -0.324501 -0.188160 -0.488030
8 -0.161945 -0.514526 0.122697 -0.120240 -0.064718 -0.023056 0.280017 -0.066339 0.149585 0.017156 0.361333 0.487783 -0.188191 -0.015953 0.215578 -0.247229 -0.125051 -0.425853
0 -0.238691 -0.539580 0.134181 -0.212585 -0.018855 -0.021342 0.223679 -0.080518 0.161984 -0.026112 0.396205 0.543541 -0.186540 -0.057380 0.240241 -0.292102 -0.139114 -0.445997
6 -0.256837 -0.622801 0.160298 -0.160620 0.018759 -0.047667 0.298610 -0.045508 0.172939 -0.038325 0.411829 0.563424 -0.219423 -0.080329 0.268755 -0.332563 -0.188978 -0.528993
2 -0.198704 -0.593783 0.127853 -0.176087 -0.033640 -0.035281 0.315098 -0.072555 0.148425 -0.023239 0.412068 0.583368 -0.193719 -0.053688 0.237910 -0.317147 -0.189327 -0.488776
10 -0.209745 -0.540387 0.115031 -0.164215 -0.011490 -0.008886 0.285453 -0.091202 0.188424 -0.034203 0.418140 0.557303 -0.206608 -0.008898 0.200608 -0.244118 -0.156364 -0.449920
1 -0.254734 -0.578671 0.156775 -0.183339 0.014097 -0.091014 0.246482 -0.024683 0.190430 -0.027195 0.335406 0.516159 -0.173713 -0.084733 0.230191 -0.333228 -0.159162 -0.486923
12 -0.248094 -0.557682 0.128951 -0.180363 -0.022878 -0.058333 0.239100 -0.094015 0.144637 -0.003010 0.396629 0.549073 -0.196345 -0.037785 0.224986 -0.259816 -0.187770 -0.449048
5 -0.210441 -0.526026 0.097182 -0.162850 0.024804 -0.053610 0.256266 -0.092929 0.168640 -0.044297 0.354126 0.502096 -0.199049 -0.037963 0.223359 -0.289807 -0.170516 -0.445094
14 -0.325639 -0.640769 0.195858 -0.254581 0.065142 -0.042978 0.224916 -0.070760 0.178259 -0.038097 0.376635 0.620993 -0.230184 -0.095956 0.259805 -0.338410 -0.178404 -0.504641
11 -0.295186 -0.598530 0.158352 -0.196400 0.044726 -0.062185 0.221702 -0.036258 0.197867 -0.067450 0.378309 0.582511 -0.222138 -0.058022 0.269450 -0.348854 -0.189909 -0.481776
9 -0.285549 -0.579250 0.129501 -0.213136 0.026887 -0.048806 0.239081 -0.051737 0.204959 -0.044839 0.398021 0.593532 -0.200612 -0.107356 0.232949 -0.323097 -0.188745 -0.457864
16 -0.244791 -0.569691 0.145650 -0.189070 -0.013647 -0.043405 0.286647 -0.084535 0.171343 -0.025060 0.380714 0.576826 -0.216829 -0.033955 0.261933 -0.323379 -0.195632 -0.510699
4 -0.244210 -0.567321 0.146304 -0.165315 -0.005490 -0.064279 0.269443 -0.060215 0.177342 -0.033534 0.454772 0.583504 -0.192941 -0.048448 0.230660 -0.304366 -0.167775 -0.525780
3 -0.234087 -0.526457 0.149460 -0.151780 -0.019309 -0.040062 0.291313 -0.088795 0.125708 -0.020125 0.404992 0.492830 -0.211231 -0.056429 0.188245 -0.271632 -0.131924 -0.474059
13 -0.223532 -0.589351 0.154867 -0.200056 -0.019096 -0.049590 0.290440 -0.092326 0.182870 -0.004987 0.403165 0.560793 -0.194792 -0.074469 0.247721 -0.304999 -0.197726 -0.508911
