18 18
9 -0.319049 -0.424271 0.123377 -0.209566 -0.302650 0.043203 0.119840 0.155088 0.400233 0.025332 0.384719 0.551570 -0.043439 0.090080 0.401925 -0.276504 -0.128767 -0.442850
1 -0.351942 -0.404783 0.182442 -0.230460 -0.243260 -0.005069 0.082449 0.108167 0.345809 0.020210 0.325856 0.453030 -0.026470 0.112354 0.347139 -0.258813 -0.098141 -0.443503
12 -0.398094 -0.457127 0.180809 -0.246698 -0.296176 0.015518 0.070595 0.093715 0.359198 0.039006 0.418529 0.555676 -0.045194 0.148779 0.412047 -0.244822 -0.171932 -0.477024
16 -0.332624 -0.402223 0.172084 -0.220055 -0.306697 0.038951 0.130588 0.102966 0.358075 0.039458 0.358579 0.518251 -0.057368 0.156294 0.418958 -0.276364 -0.138791 -0.490383
13 -0.268858 -0.424302 0.149588 -0.215291 -0.314129 0.059242 0.144219 0.110724 0.371491 0.043409 0.375153 0.508482 -0.053253 0.106594 0.428382 -0.272550 -0.123159 -0.461868
8 -0.290848 -0.453202 0.156561 -0.183390 -0.307807 0.069262 0.139168 0.137485 0.357193 0.041902 0.360486 0.515244 -0.077952 0.130983 0.425856 -0.277027 -0.091727 -0.432802
5 -0.279011 -0.412592 0.115580 -0.195222 -0.270871 0.041126 0.148119 0.093561 0.361299 0.010951 0.376810 0.507147 -0.072960 0.128664 0.399818 -0.279472 -0.107794 -0.453918
10 -0.284029 -0.420195 0.118065 -0.170220 -0.263067 0.074374 0.126197 0.140104 0.372548 -0.001613 0.370223 0.515997 -0.071787 0.135247 0.378896 -0.229500 -0.100706 -0.395811
0 -0.292026 -0.423255 0.147666 -0.232524 -0.325014 0.078528 0.122193 0.099721 0.330532 0.031217 0.401729 0.504610 -0.054095 0.129484 0.427575 -0.275508 -0.077964 -0.449109
7 -0.311928 -0.428737 0.138016 -0.205351 -0.302057 0.053477 0.097767 0.141504 0.392457 0.017368 0.366244 0.522140 -0.034379 0.101026 0.418090 -0.238705 -0.126597 -0.457000
2 -0.263649 -0.451363 0.120075 -0.179411 -0.304082 0.070705 0.136521 0.185392 0.349346 0.011878 0.369550 0.551886 -0.043680 0.097505 0.415837 -0.286305 -0.121759 -0.411540
4 -0.335366 -0.397448 0.164370 -0.206970 -0.287279 0.022389 0.087384 0.153155 0.379053 0.016188 0.409878 0.532433 -0.025298 0.120954 0.404483 -0.272130 -0.116984 -0.491882
6 -0.296142 -0.465409 0.139482 -0.141050 -0.286475 0.064011 0.126118 0.195259 0.390886 0.018731 0.381697 0.541502 -0.061563 0.109724 0.437807 -0.253362 -0.139048 -0.454095
11 -0.323151 -0.448538 0.149307 -0.157347 -0.244738 0.040201 0.083478 0.174573 0.369527 -0.016244 0.339284 0.500556 -0.072346 0.132807 0.421238 -0.273445 -0.128898 -0.417933
15 -0.393863 -0.435983 0.196217 -0.246899 -0.265309 0.047067 0.093117 0.082230 0.367173 0.010730 0.393673 0.507964 -0.037134 0.144384 0.409312 -0.257930 -0.167489 -0.490198
17 -0.353456 -0.429871 0.173982 -0.205114 -0.318962 0.006678 0.115176 0.133835 0.400075 0.052965 0.391792 0.545208 -0.025220 0.147109 0.382135 -0.238172 -0.121302 -0.500267
3 -0.335411 -0.418561 0.178801 -0.208718 -0.297439 0.052949 0.142631 0.121143 0.332122 0.014743 0.395648 0.503262 -0.081757 0.104955 0.408813 -0.296669 -0.091576 -0.486786
14 -0.011733 -0.016220 0.026785 -0.021827 0.014521 0.009558 -0.015588 -0.009492 -0.015071 0.014490 -0.026914 0.011819 -0.010079 -0.001944 0.000728 0.009641 0.015475 -0.000266
