18 18
7 -0.294659 -0.563977 0.325543 -0.360505 -0.017708 0.225188 0.269707 0.080955 0.332866 -0.047712 0.030966 0.447872 -0.247167 -0.133037 0.350552 -0.383125 0.028764 -0.393344
6 -0.312142 -0.556000 0.369861 -0.326012 0.037314 0.199558 0.284501 0.090730 0.286292 -0.058513 0.047749 0.423820 -0.256160 -0.118556 0.319589 -0.391356 0.022764 -0.423421
17 -0.368630 -0.622273 0.412011 -0.371012 0.004328 0.193703 0.313595 0.109555 0.362588 -0.050824 0.062951 0.510955 -0.263631 -0.100906 0.331693 -0.424766 0.026885 -0.473699
15 -0.366238 -0.581414 0.401457 -0.378345 0.043838 0.228711 0.303022 0.055294 0.306158 -0.083666 0.059907 0.438077 -0.264801 -0.101444 0.332013 -0.431103 0.008304 -0.449356
3 -0.352719 -0.554645 0.401373 -0.339005 0.043062 0.188520 0.305438 0.093110 0.283339 -0.078260 0.060396 0.428151 -0.290111 -0.136256 0.305377 -0.435151 0.043603 -0.438909
14 -0.327148 -0.543706 0.379302 -0.360109 0.040797 0.184679 0.239841 0.057778 0.260930 -0.041615 0.006614 0.412298 -0.245652 -0.101031 0.295411 -0.374391 0.042994 -0.391011
12 -0.335953 -0.576216 0.353684 -0.363913 -0.005562 0.191189 0.244475 0.052340 0.281918 -0.026446 0.064613 0.456239 -0.254441 -0.089944 0.322806 -0.366908 0.002012 -0.369712
0 -0.348495 -0.601312 0.383212 -0.397823 -0.012620 0.216064 0.266661 0.077551 0.314226 -0.048133 0.063702 0.463427 -0.255324 -0.109428 0.362905 -0.434606 0.047447 -0.425271
2 -0.360494 -0.639319 0.453964 -0.407363 0.053086 0.213803 0.369831 0.130758 0.314236 -0.100156 0.047360 0.525433 -0.289009 -0.161715 0.348973 -0.525346 0.002610 -0.505135
10 -0.304686 -0.542636 0.333368 -0.328778 0.045512 0.208662 0.275323 0.080255 0.318693 -0.079858 0.043340 0.444164 -0.259569 -0.076306 0.283571 -0.358783 0.025007 -0.359765
1 -0.332081 -0.554600 0.363139 -0.362200 0.032559 0.155890 0.242234 0.077945 0.299480 -0.045952 0.012089 0.397211 -0.217176 -0.112853 0.282039 -0.386862 0.037745 -0.377894
16 -0.378865 -0.610416 0.444362 -0.379411 0.056367 0.201052 0.357777 0.107606 0.333756 -0.091972 0.041298 0.511752 -0.311723 -0.115132 0.370012 -0.511734 -0.009095 -0.532138
4 -0.327150 -0.535041 0.367248 -0.337926 0.049762 0.175676 0.264161 0.113434 0.309176 -0.081331 0.073281 0.453287 -0.239196 -0.124617 0.314264 -0.423194 0.017912 -0.438567
11 -0.333683 -0.545409 0.358789 -0.314303 0.049251 0.171129 0.246646 0.104433 0.304760 -0.087562 0.035711 0.422261 -0.262307 -0.080766 0.321064 -0.410860 0.004179 -0.391982
13 -0.288012 -0.540752 0.347913 -0.362942 -0.008816 0.189132 0.256137 0.047535 0.296843 -0.016763 0.026321 0.396169 -0.220157 -0.124398 0.317384 -0.372304 0.009696 -0.379141
9 -0.340304 -0.591146 0.337232 -0.382987 -0.015269 0.210717 0.250750 0.076132 0.343015 -0.020400 0.034219 0.467680 -0.253855 -0.137789 0.348505 -0.409016 0.014492 -0.372499
8 -0.295900 -0.570445 0.339752 -0.336318 -0.029446 0.203364 0.255407 0.066717 0.298919 -0.001376 0.023967 0.416307 -0.252119 -0.099077 0.343712 -0.386774 0.040318 -0.354958
5 -0.289557 -0.529423 0.303186 -0.323430 0.042763 0.160848 0.270301 0.049794 0.297315 -0.071563 0.058643 0.425384 -0.247315 -0.092038 0.301446 -0.395348 0.004644 -0.389517
