18 18
15 -0.247946 -0.530966 0.056109 -0.297316 0.020631 0.134062 0.300814 0.034051 0.433914 -0.111468 0.296450 0.441664 -0.133081 -0.344533 0.324770 -0.405702 -0.319494 -0.356865
3 -0.242880 -0.517454 0.049626 -0.269273 0.010879 0.112191 0.322847 0.083747 0.417652 -0.123256 0.322895 0.435318 -0.157428 -0.413777 0.301893 -0.436651 -0.256876 -0.364896
9 -0.216835 -0.494828 0.006795 -0.266039 0.009404 0.105726 0.283875 0.086748 0.441505 -0.108904 0.293361 0.452006 -0.119990 -0.382002 0.293777 -0.404536 -0.286649 -0.321919
13 -0.205147 -0.502532 0.049004 -0.276204 0.004575 0.096547 0.300150 0.043054 0.443827 -0.080491 0.261679 0.433364 -0.133931 -0.359671 0.316084 -0.388330 -0.313586 -0.355678
8 -0.208762 -0.556216 0.045423 -0.262338 -0.023693 0.127775 0.323620 0.086713 0.443914 -0.079481 0.284422 0.464335 -0.160100 -0.381112 0.355137 -0.434934 -0.278307 -0.350175
12 -0.225073 -0.521646 0.035419 -0.268647 -0.025868 0.092496 0.269721 0.040004 0.399937 -0.059250 0.296359 0.474851 -0.143299 -0.333148 0.313952 -0.361794 -0.303820 -0.328725
10 -0.215059 -0.514018 0.024279 -0.250169 0.010711 0.132197 0.312797 0.059421 0.453601 -0.110988 0.303338 0.467982 -0.164835 -0.324456 0.305657 -0.367635 -0.273672 -0.329237
11 -0.237838 -0.520700 0.053563 -0.243469 0.016294 0.088592 0.267772 0.076008 0.444109 -0.107265 0.268339 0.451128 -0.155499 -0.312435 0.339195 -0.399628 -0.307917 -0.354514
7 -0.167662 -0.490661 0.004009 -0.256371 -0.025781 0.130226 0.299117 0.086879 0.442335 -0.099526 0.267076 0.436510 -0.125087 -0.386792 0.326529 -0.386325 -0.262265 -0.330532
2 -0.181165 -0.515386 0.021260 -0.277318 -0.008608 0.124813 0.309430 0.096451 0.399310 -0.112541 0.286363 0.454279 -0.111667 -0.388935 0.313397 -0.436232 -0.285286 -0.322840
17 -0.221097 -0.527565 0.048359 -0.241793 -0.030000 0.087034 0.319529 0.073862 0.461165 -0.061003 0.292534 0.487389 -0.138120 -0.339737 0.311061 -0.375807 -0.296527 -0.381122
6 -0.191513 -0.522900 0.032844 -0.239382 -0.004830 0.128980 0.320874 0.091737 0.429634 -0.092347 0.295869 0.442703 -0.145304 -0.384971 0.337767 -0.406144 -0.284288 -0.357302
14 -0.232644 -0.539057 0.071294 -0.278026 0.003852 0.108160 0.287286 0.050037 0.423773 -0.060587 0.253216 0.486598 -0.165839 -0.354346 0.326966 -0.383625 -0.288729 -0.365400
1 -0.235896 -0.531919 0.058444 -0.286298 0.019207 0.093305 0.291915 0.101841 0.432291 -0.107864 0.268710 0.411031 -0.108071 -0.384826 0.283780 -0.420518 -0.242645 -0.336099
0 -0.207361 -0.536225 0.029195 -0.295970 -0.027449 0.137748 0.299999 0.067439 0.430356 -0.097631 0.316084 0.452360 -0.125582 -0.368244 0.344980 -0.419625 -0.263559 -0.349795
5 -0.199765 -0.481992 0.012369 -0.235778 0.024997 0.085226 0.286491 0.028465 0.410702 -0.101683 0.283389 0.426468 -0.145786 -0.304211 0.296944 -0.374309 -0.277344 -0.337186
4 -0.211471 -0.463614 0.037665 -0.232927 0.021091 0.084570 0.265500 0.094092 0.417153 -0.108199 0.308882 0.438426 -0.119423 -0.353112 0.291455 -0.389403 -0.265922 -0.354527
16 -0.214011 -0.481160 0.047366 -0.247770 -0.005734 0.099068 0.301988 0.060082 0.404791 -0.087939 0.259746 0.436646 -0.145645 -0.318154 0.318977 -0.399905 -0.292944 -0.361988
