18 18
2 -0.322815 -0.503352 0.308965 -0.291301 -0.234370 0.224670 0.255792 0.024101 0.092311 0.088307 0.279548 0.583564 -0.169478 -0.030680 0.256810 -0.092425 -0.211169 -0.350717
3 -0.320980 -0.491573 0.327282 -0.244227 -0.203293 0.222512 0.285234 -0.006899 0.095080 0.085477 0.268856 0.489377 -0.229085 -0.081175 0.292926 -0.136389 -0.155010 -0.413683
12 -0.362193 -0.503299 0.304365 -0.297932 -0.226204 0.211385 0.217289 -0.016480 0.099796 0.096763 0.308438 0.576640 -0.186248 -0.001423 0.250855 -0.048760 -0.223658 -0.338109
10 -0.326421 -0.505311 0.291341 -0.274692 -0.214664 0.259328 0.274504 0.025645 0.163585 0.065626 0.293782 0.588028 -0.209451 -0.017610 0.263852 -0.068998 -0.179414 -0.353983
0 -0.346161 -0.516727 0.309371 -0.313710 -0.252735 0.248690 0.244197 0.010346 0.135127 0.084891 0.319578 0.591754 -0.184812 -0.023368 0.304975 -0.098294 -0.188445 -0.389631
17 -0.316948 -0.483319 0.289165 -0.244663 -0.245058 0.211309 0.266736 0.030910 0.169977 0.100388 0.292897 0.582352 -0.172467 -0.010784 0.253897 -0.056446 -0.186539 -0.398506
6 -0.306473 -0.498234 0.307910 -0.238299 -0.206434 0.228933 0.265437 0.012789 0.120481 0.097997 0.273392 0.524051 -0.210301 -0.054644 0.310232 -0.103168 -0.194193 -0.404333
11 -0.334838 -0.478018 0.294133 -0.253208 -0.197105 0.205599 0.220746 0.040958 0.161525 0.053293 0.265825 0.541450 -0.186842 -0.005040 0.274905 -0.097711 -0.188031 -0.361557
4 -0.275100 -0.470767 0.288507 -0.229360 -0.192583 0.207898 0.253718 0.018078 0.146523 0.075778 0.256599 0.500284 -0.192801 -0.067229 0.330070 -0.153567 -0.160409 -0.427223
15 -0.337012 -0.523824 0.326431 -0.285857 -0.203019 0.265212 0.283966 -0.028166 0.137645 0.075497 0.277049 0.531496 -0.203388 -0.028636 0.312342 -0.118299 -0.202604 -0.404361
8 -0.250227 -0.514938 0.293390 -0.221376 -0.222511 0.221127 0.295654 -0.005066 0.134497 0.113980 0.196541 0.460933 -0.229287 -0.071678 0.368682 -0.192611 -0.134534 -0.403633
16 -0.329018 -0.475554 0.294931 -0.276836 -0.236704 0.217676 0.262998 0.017134 0.150093 0.085312 0.256893 0.573526 -0.185428 0.002596 0.279291 -0.092132 -0.217248 -0.383614
5 -0.253173 -0.526624 0.256527 -0.236231 -0.190904 0.217003 0.310849 -0.036573 0.156151 0.078828 0.243073 0.506239 -0.235099 -0.057901 0.362294 -0.184773 -0.172468 -0.431017
7 -0.256301 -0.541000 0.279363 -0.263488 -0.249126 0.265458 0.315734 0.001508 0.183496 0.091840 0.223757 0.527593 -0.226782 -0.098483 0.394542 -0.175607 -0.163719 -0.434159
1 -0.364447 -0.498542 0.311574 -0.294153 -0.206102 0.178187 0.221923 0.040894 0.159099 0.077493 0.269240 0.555061 -0.150053 -0.016687 0.220011 -0.075165 -0.181878 -0.356513
14 -0.325797 -0.512266 0.325330 -0.286985 -0.197834 0.236926 0.246965 -0.011511 0.121321 0.101239 0.243714 0.548379 -0.207913 -0.037808 0.295083 -0.094293 -0.172465 -0.391091
9 -0.349731 -0.500901 0.282338 -0.286217 -0.228238 0.228344 0.255097 0.035839 0.179346 0.077996 0.291665 0.591874 -0.189375 -0.054062 0.264112 -0.092014 -0.206348 -0.354444
13 -0.290611 -0.473632 0.300211 -0.276071 -0.211808 0.214808 0.253729 -0.019049 0.135102 0.100425 0.253948 0.504524 -0.173922 -0.049692 0.279503 -0.089852 -0.206610 -0.375563
