18 18
0 -0.366081 -0.581306 0.400652 -0.299444 0.070687 -0.040388 0.091982 0.207436 0.463769 0.000877 0.003396 0.415233 -0.101169 -0.092490 0.240229 -0.317972 -0.182071 -0.306938
8 -0.365207 -0.611308 0.426516 -0.277341 0.068632 -0.031544 0.119734 0.225309 0.473523 0.028374 -0.032098 0.428457 -0.132405 -0.099835 0.242461 -0.325332 -0.191286 -0.289447
1 -0.359680 -0.561002 0.400155 -0.275858 0.089948 -0.058238 0.092103 0.221337 0.457514 0.011462 -0.050716 0.378142 -0.089147 -0.099546 0.188861 -0.296686 -0.175270 -0.261706
12 -0.394574 -0.611476 0.417392 -0.320816 0.084445 -0.054041 0.079098 0.177862 0.441982 0.028496 0.001774 0.452994 -0.111200 -0.090405 0.219123 -0.286582 -0.252050 -0.265926
17 -0.373894 -0.590248 0.428439 -0.263059 0.064650 -0.067219 0.114609 0.241899 0.502765 0.028016 -0.014595 0.448339 -0.099476 -0.083614 0.205011 -0.290033 -0.191951 -0.325022
2 -0.348724 -0.597722 0.415192 -0.311808 0.090472 -0.051397 0.118775 0.227011 0.450726 0.003571 -0.021082 0.456916 -0.094155 -0.129043 0.222627 -0.348591 -0.241219 -0.290293
6 -0.362112 -0.588743 0.420884 -0.263882 0.084885 -0.035105 0.112374 0.236249 0.470352 0.013287 -0.018120 0.419103 -0.113455 -0.108479 0.237739 -0.303919 -0.215497 -0.307453
11 -0.379624 -0.588781 0.415394 -0.268239 0.093310 -0.048169 0.069537 0.231864 0.470170 -0.001989 -0.036786 0.410540 -0.120267 -0.073951 0.232197 -0.301931 -0.203195 -0.264717
10 -0.356022 -0.579329 0.396702 -0.269251 0.095829 -0.013414 0.114762 0.217369 0.485086 -0.007502 -0.012733 0.433394 -0.123645 -0.072617 0.204238 -0.273125 -0.191671 -0.261257
13 -0.332938 -0.568271 0.417325 -0.298840 0.092177 -0.058169 0.110064 0.203448 0.473319 0.022069 -0.034782 0.404687 -0.098019 -0.128852 0.217537 -0.314252 -0.215639 -0.297205
3 -0.383517 -0.573102 0.432202 -0.278617 0.104255 -0.056726 0.126151 0.220237 0.450335 -0.012419 0.003468 0.409867 -0.136653 -0.127687 0.210151 -0.340403 -0.177145 -0.329752
14 -0.371612 -0.593827 0.439159 -0.305423 0.108273 -0.030483 0.082214 0.212511 0.450354 0.018760 -0.052637 0.428615 -0.116411 -0.106007 0.212426 -0.295614 -0.184686 -0.275031
9 -0.377642 -0.588740 0.387133 -0.287718 0.083237 -0.036790 0.094714 0.231665 0.493299 0.010108 -0.026902 0.441943 -0.110584 -0.116319 0.211088 -0.306249 -0.217048 -0.249735
5 -0.328371 -0.567627 0.364652 -0.288976 0.145117 -0.072206 0.132166 0.179048 0.473703 -0.033651 0.016874 0.446491 -0.122524 -0.106091 0.220972 -0.349001 -0.226187 -0.325355
15 -0.381369 -0.588323 0.425746 -0.302501 0.097036 -0.012490 0.113138 0.185454 0.461033 -0.003892 -0.007388 0.417923 -0.109426 -0.084732 0.228190 -0.307590 -0.226092 -0.295547
4 -0.365812 -0.562153 0.416064 -0.292683 0.144489 -0.086942 0.091707 0.253458 0.494929 -0.033939 0.024143 0.469627 -0.092409 -0.128108 0.215498 -0.358786 -0.216838 -0.345676
7 -0.323471 -0.551246 0.368539 -0.280106 0.056985 -0.023465 0.101467 0.208935 0.469378 0.005393 -0.041817 0.398082 -0.096686 -0.119172 0.230828 -0.283513 -0.187555 -0.275405
16 -0.338939 -0.524535 0.387000 -0.268595 0.076334 -0.044855 0.115137 0.192935 0.440890 0.007026 -0.033883 0.407728 -0.108665 -0.071249 0.228210 -0.303732 -0.222032 -0.308141
