18 18
0 -0.258399 -0.360532 0.358963 -0.342028 -0.128840 0.239564 0.283915 0.155551 0.199934 -0.036958 0.102112 0.543975 0.062110 -0.120765 0.220664 -0.333266 -0.190089 -0.450446
15 -0.279127 -0.363307 0.373712 -0.338318 -0.105043 0.240750 0.286175 0.132843 0.205476 -0.034342 0.072191 0.521756 0.061228 -0.100160 0.212705 -0.324465 -0.229426 -0.438797
14 -0.247738 -0.371461 0.387575 -0.325660 -0.115381 0.230767 0.259054 0.154727 0.183041 0.014467 0.014280 0.520837 0.050378 -0.122475 0.217029 -0.301394 -0.197988 -0.416328
2 -0.219808 -0.370668 0.371728 -0.313363 -0.140167 0.227813 0.303708 0.203021 0.174812 -0.004532 0.042726 0.569595 0.079154 -0.150078 0.227120 -0.359292 -0.246149 -0.442883
9 -0.262105 -0.371070 0.348461 -0.330845 -0.122219 0.246760 0.294948 0.182034 0.244049 -0.027554 0.082053 0.578595 0.051757 -0.148477 0.222093 -0.335345 -0.240648 -0.414587
1 -0.275403 -0.379273 0.379742 -0.329934 -0.125008 0.203226 0.271682 0.176582 0.237919 -0.002472 0.023406 0.504606 0.072925 -0.121804 0.199806 -0.315900 -0.194846 -0.414815
10 -0.256962 -0.378354 0.355433 -0.310302 -0.115017 0.265991 0.286315 0.170701 0.240306 -0.037282 0.079345 0.569649 0.029535 -0.083705 0.212623 -0.286865 -0.217717 -0.382620
3 -0.282521 -0.317256 0.378795 -0.291234 -0.075688 0.200431 0.305237 0.155651 0.167529 -0.061758 0.119774 0.498676 0.026327 -0.141747 0.170326 -0.345124 -0.156619 -0.485197
8 -0.226073 -0.424248 0.403641 -0.301848 -0.173319 0.259941 0.302900 0.186289 0.190086 0.057584 0.024400 0.556150 0.028585 -0.134872 0.284770 -0.353455 -0.227505 -0.419357
12 -0.300955 -0.390383 0.378070 -0.345570 -0.119740 0.225526 0.265078 0.141828 0.208477 -0.017977 0.102995 0.588758 0.041426 -0.096219 0.215522 -0.302252 -0.246263 -0.426989
11 -0.295662 -0.372362 0.365035 -0.310664 -0.102149 0.223169 0.237829 0.185539 0.239915 -0.060917 0.067136 0.540116 0.030376 -0.086707 0.227917 -0.311841 -0.215709 -0.400413
4 -0.256664 -0.273377 0.364534 -0.268641 -0.025592 0.157900 0.279055 0.175572 0.168063 -0.086994 0.191588 0.529483 0.068322 -0.126830 0.150542 -0.349782 -0.163057 -0.533877
7 -0.226057 -0.359753 0.345107 -0.320604 -0.147957 0.258218 0.285583 0.176186 0.228509 -0.017312 0.033801 0.525539 0.061386 -0.149139 0.238840 -0.306134 -0.207679 -0.415726
16 -0.244811 -0.348848 0.367020 -0.314181 -0.144811 0.228479 0.305270 0.164230 0.217416 -0.001725 0.024752 0.554657 0.054499 -0.100077 0.242260 -0.335853 -0.246145 -0.462021
13 -0.220090 -0.375903 0.385502 -0.316626 -0.135580 0.232293 0.293939 0.155151 0.199407 0.023386 0.059310 0.527803 0.047465 -0.149813 0.249374 -0.328165 -0.249204 -0.428035
6 -0.227522 -0.414243 0.413228 -0.284051 -0.148893 0.259416 0.325278 0.209699 0.189707 0.034735 0.060937 0.577058 0.037575 -0.154944 0.287122 -0.358252 -0.263387 -0.475696
17 -0.239300 -0.359919 0.362611 -0.289018 -0.157686 0.211689 0.306904 0.176327 0.232290 0.015120 0.073858 0.569944 0.069687 -0.099558 0.202321 -0.296014 -0.210487 -0.467008
5 -0.242562 -0.318449 0.323572 -0.283436 -0.022275 0.158885 0.334089 0.119610 0.196988 -0.087383 0.168658 0.519839 0.034933 -0.118209 0.167245 -0.367241 -0.178543 -0.530738
