18 18
9 -0.311320 -0.473468 0.240175 -0.317162 -0.118042 0.053734 0.121617 0.099694 0.369695 0.034508 0.158355 0.441651 -0.090933 -0.223799 0.347788 -0.255509 -0.239989 -0.415771
7 -0.284608 -0.479941 0.255828 -0.342485 -0.168157 0.063336 0.131691 0.051020 0.381126 0.060645 0.151595 0.432051 -0.068815 -0.207177 0.387867 -0.215991 -0.249502 -0.478117
0 -0.322324 -0.492638 0.283982 -0.337842 -0.143955 0.047507 0.110061 0.075470 0.346523 0.043403 0.183401 0.416344 -0.073327 -0.187030 0.372934 -0.253442 -0.210422 -0.465029
4 -0.410975 -0.464211 0.310359 -0.259428 0.055442 -0.087795 0.123208 0.195596 0.343658 -0.114834 0.246789 0.492686 -0.127683 -0.208028 0.326199 -0.448949 -0.209778 -0.599515
15 -0.301900 -0.442223 0.264029 -0.327389 -0.122742 0.072356 0.130551 -0.022987 0.348497 0.060743 0.155371 0.402731 -0.060623 -0.114885 0.349219 -0.173171 -0.286492 -0.458688
1 -0.408660 -0.525229 0.354917 -0.295557 -0.019348 -0.058458 0.153687 0.194137 0.342553 -0.043864 0.166726 0.422670 -0.111634 -0.249526 0.321175 -0.416305 -0.170983 -0.555121
14 -0.307991 -0.445510 0.276676 -0.306228 -0.067007 0.043913 0.085103 0.043207 0.313960 0.029969 0.133788 0.407057 -0.099455 -0.135998 0.333263 -0.213371 -0.204806 -0.436068
3 -0.432167 -0.481883 0.361874 -0.267899 0.003041 -0.059642 0.170009 0.152086 0.292343 -0.073425 0.214568 0.428258 -0.174571 -0.241668 0.333270 -0.438923 -0.193292 -0.607376
2 -0.374961 -0.524453 0.325406 -0.311564 -0.037086 -0.025340 0.158205 0.173474 0.318065 -0.049158 0.190014 0.475654 -0.121006 -0.249672 0.354175 -0.420682 -0.223338 -0.543970
10 -0.314709 -0.509772 0.263928 -0.323473 -0.102481 0.079226 0.128386 0.083418 0.393174 0.013754 0.178646 0.466992 -0.114507 -0.164692 0.372949 -0.231061 -0.237776 -0.442564
8 -0.296115 -0.514619 0.273094 -0.316561 -0.145544 0.061307 0.143536 0.081941 0.352695 0.060903 0.148915 0.435871 -0.107479 -0.198822 0.387920 -0.264069 -0.230599 -0.444678
11 -0.358348 -0.505787 0.291536 -0.290137 -0.047450 0.013559 0.082799 0.119819 0.359952 -0.028908 0.171627 0.447507 -0.133944 -0.150537 0.391251 -0.305266 -0.243309 -0.474194
12 -0.315402 -0.487670 0.260035 -0.339887 -0.158120 0.032323 0.106190 0.016289 0.339171 0.081400 0.194424 0.454140 -0.074590 -0.158072 0.359359 -0.184567 -0.287258 -0.450856
13 -0.335391 -0.504731 0.314833 -0.358840 -0.128945 0.002412 0.148181 0.047386 0.387087 0.055731 0.183608 0.456521 -0.077993 -0.211054 0.394525 -0.281406 -0.296779 -0.562364
16 -0.338586 -0.425634 0.282444 -0.270497 -0.047830 -0.019230 0.143999 0.078220 0.310834 -0.015169 0.162583 0.425739 -0.119362 -0.138196 0.338882 -0.317416 -0.240867 -0.525939
6 -0.326649 -0.497495 0.293856 -0.286394 -0.089137 0.032993 0.155291 0.119291 0.348069 0.016190 0.177825 0.434608 -0.112612 -0.219744 0.374085 -0.295806 -0.243036 -0.509513
17 -0.317976 -0.461789 0.280484 -0.297851 -0.147885 0.009852 0.154444 0.045841 0.384200 0.072640 0.185051 0.459955 -0.063094 -0.147889 0.340149 -0.201550 -0.273909 -0.531556
5 -0.369339 -0.482230 0.264350 -0.272707 0.021708 -0.062733 0.157435 0.097670 0.341833 -0.084379 0.229279 0.473057 -0.150342 -0.166637 0.345160 -0.404871 -0.233105 -0.570496
