18 18
2 -0.199795 -0.710852 0.185099 -0.278751 -0.082921 0.196229 0.208248 -0.047450 0.225832 -0.046553 0.352350 0.556861 -0.110311 0.039772 0.457005 -0.259828 -0.427020 -0.297094
12 -0.270773 -0.668512 0.235018 -0.295325 -0.107878 0.161427 0.147693 -0.129142 0.165266 0.034857 0.319748 0.468589 -0.104120 0.069737 0.414684 -0.186607 -0.414592 -0.283790
11 -0.242264 -0.655300 0.194261 -0.254367 -0.069167 0.175451 0.151572 -0.069228 0.230471 -0.048139 0.322991 0.480636 -0.115976 0.076199 0.439279 -0.214296 -0.405990 -0.290463
7 -0.179923 -0.727723 0.121138 -0.269807 -0.113905 0.212909 0.208965 -0.044445 0.301729 -0.074543 0.402265 0.604771 -0.127419 0.031073 0.521751 -0.249112 -0.441590 -0.332627
0 -0.202287 -0.666133 0.154866 -0.263144 -0.104870 0.176603 0.164600 -0.051694 0.238105 -0.039049 0.360558 0.505987 -0.105910 0.048895 0.448810 -0.229133 -0.351517 -0.297838
6 -0.221866 -0.691396 0.203932 -0.245997 -0.090273 0.184470 0.194585 -0.054905 0.226340 -0.014521 0.345729 0.505319 -0.118719 0.044797 0.455612 -0.222820 -0.404935 -0.323129
17 -0.245183 -0.661736 0.222574 -0.265039 -0.123069 0.162986 0.182106 -0.092648 0.227642 0.026777 0.315226 0.489094 -0.088812 0.078917 0.401456 -0.171789 -0.386869 -0.315916
5 -0.192361 -0.675585 0.131781 -0.236617 -0.053394 0.149430 0.196913 -0.065728 0.248339 -0.055936 0.356976 0.521918 -0.140560 0.051198 0.444733 -0.255732 -0.385379 -0.301391
13 -0.221973 -0.626588 0.234162 -0.292211 -0.086931 0.182346 0.176827 -0.129967 0.206657 0.019047 0.289517 0.430597 -0.086845 0.043536 0.415541 -0.185817 -0.416500 -0.310107
15 -0.269385 -0.612993 0.259921 -0.304528 -0.071793 0.217551 0.178242 -0.162254 0.178052 0.006095 0.285310 0.400551 -0.083100 0.072500 0.395995 -0.176198 -0.407882 -0.306262
4 -0.202478 -0.643090 0.157303 -0.233957 -0.072513 0.162748 0.159939 -0.025901 0.254728 -0.062350 0.384765 0.540054 -0.099477 0.052622 0.442767 -0.224890 -0.399416 -0.318660
10 -0.208534 -0.616533 0.171876 -0.244355 -0.059000 0.196233 0.181798 -0.084787 0.228971 -0.041189 0.320440 0.469948 -0.119507 0.078545 0.388050 -0.172532 -0.365496 -0.261605
14 -0.257178 -0.628228 0.264414 -0.291920 -0.062977 0.175626 0.142692 -0.116406 0.166056 0.032563 0.245535 0.428744 -0.100968 0.059997 0.375978 -0.167378 -0.352221 -0.279016
8 -0.243802 -0.719510 0.254234 -0.274150 -0.105504 0.159407 0.191083 -0.063876 0.203878 0.042360 0.268203 0.465754 -0.128306 0.041189 0.436037 -0.256060 -0.336372 -0.292322
1 -0.262969 -0.706745 0.234781 -0.277065 -0.071728 0.114759 0.165779 -0.029060 0.243230 -0.000311 0.282770 0.470420 -0.093753 0.033937 0.397275 -0.249554 -0.330171 -0.300828
16 -0.003066 0.009981 0.006043 0.000869 -0.007381 -0.001770 0.017455 -0.006904 0.000948 0.004908 -0.016488 0.011175 -0.012361 0.022003 0.021550 -0.015661 -0.025305 -0.027720
3 -0.024675 0.005665 0.025365 0.004601 0.007865 -0.001883 0.014761 -0.000233 -0.026227 -0.010111 0.011993 -0.020661 -0.026950 -0.026588 -0.012274 -0.019090 0.026092 -0.020014
9 -0.008402 0.003844 -0.023332 -0.006576 0.000593 0.000225 -0.003692 0.013429 0.026437 -0.004111 0.005667 0.021814 0.003016 -0.025362 -0.007905 -0.006482 -0.012628 0.018993
