18 18
8 -0.292428 -0.472135 0.292756 -0.110099 -0.128476 0.187387 0.320306 -0.028151 0.254946 0.097422 0.229503 0.622745 -0.246759 0.192069 0.161271 0.024616 -0.161105 -0.389132
9 -0.289065 -0.465183 0.220567 -0.100570 -0.107937 0.168775 0.356089 -0.027551 0.348341 0.077328 0.288645 0.717133 -0.234061 0.201725 0.108846 0.065234 -0.207514 -0.399533
16 -0.274159 -0.431497 0.279154 -0.122585 -0.127088 0.186234 0.339416 -0.050893 0.243787 0.078632 0.187351 0.610701 -0.241455 0.207564 0.184426 0.001148 -0.221329 -0.410931
15 -0.300291 -0.452243 0.283482 -0.138723 -0.110080 0.204272 0.316493 -0.058529 0.243120 0.060124 0.225211 0.585885 -0.215978 0.190769 0.165728 0.013772 -0.203934 -0.388350
17 -0.213813 -0.440088 0.183831 -0.045046 -0.109399 0.142926 0.408651 -0.036276 0.364124 0.083280 0.306602 0.709923 -0.191663 0.240288 0.064315 0.114758 -0.197502 -0.433183
12 -0.301264 -0.471331 0.240059 -0.109846 -0.100222 0.156395 0.315565 -0.063754 0.269216 0.080094 0.286507 0.668951 -0.234806 0.225097 0.113185 0.073846 -0.209915 -0.373144
2 -0.228442 -0.461056 0.225291 -0.103978 -0.113892 0.181133 0.379126 -0.028260 0.281466 0.064800 0.260196 0.682841 -0.204069 0.189783 0.119590 0.040125 -0.214877 -0.396990
0 -0.281500 -0.467126 0.269018 -0.159162 -0.155382 0.203220 0.323459 -0.064381 0.257791 0.081624 0.273374 0.629344 -0.210986 0.188229 0.175164 0.034330 -0.180880 -0.406394
10 -0.225935 -0.471601 0.161259 -0.069069 -0.070616 0.193816 0.415278 -0.060185 0.386919 0.039971 0.339380 0.744165 -0.240784 0.260431 0.077097 0.120789 -0.197260 -0.400444
11 -0.300001 -0.449851 0.270435 -0.115596 -0.103921 0.164511 0.267186 -0.009989 0.261630 0.047826 0.202142 0.590392 -0.234072 0.190909 0.182439 -0.002481 -0.195280 -0.365250
13 -0.248237 -0.438054 0.267654 -0.153233 -0.141011 0.186290 0.333973 -0.080077 0.262607 0.103600 0.225358 0.597647 -0.207728 0.162027 0.157756 0.045579 -0.206738 -0.398180
3 -0.318845 -0.449714 0.302389 -0.116130 -0.100503 0.180056 0.334285 -0.046771 0.233140 0.066551 0.246727 0.603524 -0.264169 0.172995 0.135906 0.016868 -0.163934 -0.414919
4 -0.285101 -0.447595 0.258604 -0.084310 -0.086296 0.158879 0.343962 -0.013014 0.318546 0.061881 0.309997 0.701977 -0.220722 0.213748 0.113539 0.060996 -0.195544 -0.443651
6 -0.248205 -0.488309 0.235265 -0.063298 -0.099400 0.196928 0.420795 -0.029610 0.333314 0.064841 0.303743 0.709940 -0.237333 0.218081 0.137300 0.066950 -0.224626 -0.460450
7 -0.261700 -0.481367 0.262502 -0.154586 -0.173950 0.222544 0.355760 -0.045796 0.294810 0.080968 0.230038 0.663292 -0.221084 0.162465 0.199822 0.032429 -0.208899 -0.431669
14 -0.299837 -0.471295 0.288985 -0.139614 -0.103298 0.189014 0.309718 -0.056039 0.260507 0.091984 0.219871 0.648101 -0.237696 0.200234 0.142649 0.057844 -0.178362 -0.394714
5 -0.211196 -0.514260 0.127215 -0.070800 -0.067698 0.165900 0.454412 -0.086236 0.424282 0.040518 0.354790 0.785255 -0.246074 0.261021 0.103652 0.084929 -0.229488 -0.451324
1 -0.027660 -0.027217 0.026180 -0.019122 0.012075 -0.026796 -0.004699 0.019366 0.022084 0.001540 -0.016522 -0.005216 0.015504 -0.011155 -0.013895 -0.016653 0.015775 -0.011908
