18 18
12 -0.440224 -0.498601 0.336304 -0.447495 -0.193069 0.163322 0.108162 -0.105027 -0.048684 0.099101 0.276903 0.521313 -0.282532 -0.095854 0.258610 -0.252083 -0.067225 -0.239706
2 -0.372392 -0.453121 0.359619 -0.455134 -0.207210 0.168103 0.128576 0.001628 -0.108309 0.109493 0.201568 0.468416 -0.214640 -0.279785 0.219666 -0.316830 0.001849 -0.226764
1 -0.399439 -0.441492 0.391599 -0.458909 -0.169912 0.105873 0.103496 0.032009 -0.064809 0.107321 0.173652 0.406629 -0.170370 -0.315345 0.172068 -0.324944 0.055637 -0.260276
4 -0.447775 -0.482819 0.395857 -0.479212 -0.189314 0.160741 0.105306 -0.023292 -0.060811 0.099096 0.274104 0.517623 -0.245356 -0.236911 0.247970 -0.321699 -0.001404 -0.287666
10 -0.425337 -0.498970 0.325446 -0.434624 -0.167161 0.209117 0.149330 -0.094817 -0.002741 0.062708 0.279869 0.523412 -0.306185 -0.093129 0.256907 -0.254799 -0.035655 -0.238223
7 -0.405927 -0.487242 0.349790 -0.474933 -0.221562 0.198246 0.136624 -0.030130 -0.033813 0.091816 0.228038 0.503302 -0.257090 -0.262822 0.277831 -0.314453 -0.003805 -0.270896
3 -0.398624 -0.407717 0.370299 -0.414654 -0.165139 0.141395 0.124246 -0.016618 -0.097885 0.082361 0.212790 0.401387 -0.239387 -0.264237 0.192391 -0.307645 0.039187 -0.259137
11 -0.435507 -0.494821 0.307638 -0.385995 -0.138911 0.156747 0.098127 -0.084528 0.026982 0.031293 0.268528 0.524830 -0.313108 0.006409 0.295969 -0.267550 -0.098137 -0.242362
13 -0.395022 -0.468127 0.378439 -0.472314 -0.194617 0.154655 0.132003 -0.047013 -0.046271 0.112963 0.227130 0.466186 -0.234639 -0.252841 0.246480 -0.315617 -0.019310 -0.276610
16 -0.427385 -0.482852 0.332715 -0.424266 -0.186531 0.180807 0.147706 -0.101886 -0.020152 0.085821 0.250694 0.528283 -0.309346 -0.065596 0.292519 -0.280884 -0.083083 -0.267830
17 -0.418295 -0.479352 0.354832 -0.422653 -0.195947 0.128200 0.133887 -0.048976 -0.006446 0.111028 0.262048 0.500218 -0.226636 -0.133895 0.213058 -0.262577 -0.018650 -0.286785
0 -0.412594 -0.483378 0.365853 -0.478150 -0.211481 0.168491 0.111701 -0.054257 -0.054974 0.106230 0.258913 0.473109 -0.228404 -0.200289 0.255032 -0.305923 0.016464 -0.274326
8 -0.403339 -0.492322 0.386863 -0.445659 -0.214227 0.169221 0.138275 -0.027768 -0.072751 0.133923 0.210447 0.468368 -0.253251 -0.232254 0.255380 -0.320452 0.012745 -0.254554
6 -0.373791 -0.461552 0.365653 -0.417430 -0.201533 0.176916 0.135599 -0.010442 -0.082215 0.117906 0.222944 0.447501 -0.239930 -0.243956 0.258748 -0.297446 -0.003875 -0.269167
9 -0.419693 -0.464141 0.360760 -0.466153 -0.192556 0.156813 0.118434 0.001529 -0.051953 0.109321 0.222220 0.480482 -0.227250 -0.297612 0.214046 -0.322356 0.010861 -0.240173
5 -0.414462 -0.500445 0.325249 -0.438843 -0.161715 0.154981 0.152232 -0.087060 -0.012875 0.073850 0.272507 0.504117 -0.272258 -0.148908 0.257262 -0.311695 -0.033525 -0.285940
15 -0.445008 -0.495399 0.375406 -0.469834 -0.182504 0.190411 0.139439 -0.095514 -0.041726 0.094178 0.260985 0.484394 -0.248980 -0.147132 0.250911 -0.287827 -0.039605 -0.271332
14 -0.414597 -0.482187 0.370522 -0.447332 -0.168512 0.172096 0.109849 -0.068482 -0.058395 0.110684 0.209190 0.487489 -0.266337 -0.159156 0.245749 -0.269793 -0.012558 -0.247702
