18 18
1 -0.191144 -0.442421 0.041598 -0.065902 -0.229100 -0.058236 0.216813 0.302694 0.579215 -0.074190 0.173597 0.471567 -0.057679 -0.003455 0.494379 -0.404965 -0.224012 -0.530806
11 -0.196302 -0.433935 0.142516 -0.159521 -0.259044 -0.006790 0.124742 0.129152 0.433057 0.052509 0.112364 0.401252 -0.071873 -0.000374 0.511053 -0.287908 -0.272244 -0.478901
6 -0.143461 -0.408835 0.097851 -0.100374 -0.266522 0.028182 0.184261 0.167036 0.442364 0.038163 0.150416 0.398394 -0.064999 -0.013495 0.502475 -0.276280 -0.256494 -0.487813
7 -0.170400 -0.446238 0.055508 -0.164024 -0.283020 0.028073 0.194422 0.184174 0.559583 -0.006102 0.148098 0.476005 -0.065105 -0.044799 0.530629 -0.321468 -0.267129 -0.497711
0 -0.137305 -0.393701 0.010818 -0.042672 -0.260926 0.009057 0.197016 0.280480 0.510037 -0.073578 0.206019 0.435871 -0.060098 0.027610 0.510936 -0.360005 -0.190235 -0.481986
3 -0.191424 -0.407998 0.095147 -0.114726 -0.241951 -0.009376 0.208011 0.173958 0.455397 -0.008917 0.160913 0.408953 -0.088409 -0.041453 0.464864 -0.336634 -0.230221 -0.501637
2 -0.179457 -0.488970 0.067711 -0.193605 -0.288682 0.024637 0.232813 0.167323 0.556686 0.009862 0.159780 0.527639 -0.068606 -0.052644 0.525640 -0.344918 -0.319799 -0.502600
16 -0.183266 -0.397584 0.089093 -0.143000 -0.251041 0.001517 0.182225 0.140925 0.476528 0.025234 0.129116 0.435091 -0.065339 0.025382 0.481277 -0.292814 -0.276958 -0.485350
12 -0.288914 -0.557817 0.349048 -0.532684 -0.363953 0.071432 0.028654 -0.288988 0.281951 0.368669 0.057678 0.382779 -0.038922 -0.089455 0.493945 -0.061630 -0.411439 -0.433999
9 -0.189495 -0.416558 0.003174 -0.162166 -0.235859 0.031027 0.195405 0.192105 0.614634 -0.029973 0.163743 0.505249 -0.072956 -0.049731 0.454477 -0.298220 -0.274380 -0.415444
8 -0.176709 -0.422457 0.101689 -0.159231 -0.251290 0.013658 0.169056 0.127248 0.469425 0.049534 0.112560 0.415408 -0.074899 -0.007556 0.464696 -0.281736 -0.241755 -0.433238
17 -0.164478 -0.408122 0.065696 -0.100479 -0.272106 -0.017092 0.195025 0.189771 0.511736 0.020206 0.162352 0.453768 -0.049852 0.005994 0.453058 -0.278766 -0.243670 -0.483050
4 -0.178437 -0.408688 0.018239 -0.066904 -0.227338 -0.039505 0.202903 0.292525 0.589081 -0.085022 0.212235 0.507821 -0.057744 -0.003554 0.502577 -0.386001 -0.249959 -0.532810
13 -0.278608 -0.586346 0.462530 -0.674391 -0.400504 0.117111 0.012173 -0.431973 0.250250 0.496134 -0.029095 0.326594 -0.017162 -0.162004 0.523420 -0.006599 -0.465944 -0.453319
10 -0.197136 -0.445237 -0.009817 -0.196411 -0.210665 0.073769 0.229100 0.163390 0.681399 -0.060468 0.180448 0.545341 -0.099247 -0.026990 0.436332 -0.263841 -0.276694 -0.394481
5 -0.191891 -0.484016 0.056920 -0.202178 -0.232926 -0.001685 0.234748 0.074687 0.544134 0.013183 0.173390 0.490977 -0.093925 -0.053479 0.483006 -0.315467 -0.313888 -0.506159
14 -0.297320 -0.589986 0.473064 -0.653561 -0.373770 0.125157 -0.013707 -0.412320 0.205154 0.485348 -0.032194 0.335813 -0.033566 -0.137745 0.498742 0.008986 -0.410357 -0.432651
15 -0.274443 -0.543100 0.327821 -0.484392 -0.332038 0.102624 0.093846 -0.228999 0.336598 0.294893 0.061577 0.379911 -0.039271 -0.083225 0.503464 -0.122270 -0.401620 -0.465345
