18 18
9 -0.152709 -0.340887 0.194230 -0.242128 0.012972 0.314112 0.068657 0.224063 0.222258 -0.015241 0.029240 0.600467 -0.292338 -0.391836 0.462465 -0.208748 -0.343743 -0.238803
14 -0.113371 -0.371919 0.193177 -0.222900 0.013113 0.303991 0.122384 0.212251 0.199575 -0.009281 0.031548 0.614161 -0.300740 -0.377711 0.440569 -0.208093 -0.310953 -0.266064
6 -0.083675 -0.346503 0.151656 -0.166692 -0.004996 0.282539 0.149820 0.236206 0.230743 -0.019844 0.082404 0.589025 -0.278626 -0.386988 0.441597 -0.205848 -0.335131 -0.288100
12 -0.184480 -0.358234 0.241098 -0.257884 0.009652 0.310387 0.022304 0.183153 0.173540 0.009458 0.026580 0.590056 -0.310931 -0.326920 0.486861 -0.169359 -0.348732 -0.238773
10 -0.092713 -0.355177 0.140093 -0.182743 0.009477 0.308895 0.163347 0.209770 0.249926 -0.040621 0.083598 0.621837 -0.306955 -0.348271 0.419883 -0.180790 -0.316559 -0.253795
7 -0.135106 -0.364242 0.223909 -0.281448 -0.009405 0.362010 0.044701 0.234348 0.233542 -0.006347 -0.016137 0.611888 -0.310601 -0.409311 0.544043 -0.203615 -0.346558 -0.256612
13 -0.116346 -0.348292 0.214080 -0.260034 -0.003286 0.303368 0.080284 0.212139 0.222534 0.004956 0.018224 0.593700 -0.285127 -0.410143 0.495421 -0.215764 -0.359145 -0.272655
4 -0.122535 -0.325800 0.182927 -0.201207 0.024607 0.271868 0.098743 0.245243 0.222435 -0.035642 0.076560 0.619271 -0.273785 -0.379318 0.442012 -0.230930 -0.337040 -0.293909
2 -0.054500 -0.354309 0.122271 -0.195083 -0.023442 0.277543 0.179761 0.239827 0.207159 -0.031791 0.072702 0.631674 -0.263294 -0.404268 0.410449 -0.237085 -0.329466 -0.247608
3 -0.132605 -0.369416 0.193198 -0.207831 0.004968 0.316000 0.159914 0.243942 0.223118 -0.038127 0.090241 0.635827 -0.332173 -0.442538 0.457563 -0.245852 -0.328721 -0.314208
1 -0.191102 -0.375982 0.263848 -0.263975 0.032168 0.294797 0.061154 0.226376 0.223215 -0.007213 -0.003223 0.584007 -0.294405 -0.367829 0.473967 -0.220964 -0.332579 -0.278544
15 -0.177886 -0.364425 0.248571 -0.264701 0.022123 0.341894 0.076893 0.181231 0.196506 -0.015991 0.017676 0.560947 -0.294682 -0.350119 0.483994 -0.212292 -0.358062 -0.269860
17 -0.025300 -0.359087 0.062238 -0.120518 -0.058113 0.210455 0.275285 0.251014 0.298701 -0.020125 0.155709 0.687071 -0.244761 -0.401158 0.348734 -0.213386 -0.313791 -0.322279
8 -0.115652 -0.384575 0.196124 -0.206205 -0.016252 0.310346 0.144024 0.223395 0.217423 0.001717 0.048516 0.604800 -0.311523 -0.378215 0.466843 -0.230264 -0.318089 -0.275278
0 -0.146699 -0.385020 0.216071 -0.271894 -0.013899 0.339216 0.086620 0.230696 0.223724 -0.014438 0.062041 0.635116 -0.304304 -0.404528 0.511711 -0.231986 -0.330635 -0.285005
16 -0.171428 -0.344673 0.257022 -0.256768 0.015514 0.321518 0.068371 0.215001 0.203312 -0.004369 -0.014726 0.611928 -0.326303 -0.345809 0.522216 -0.227291 -0.374342 -0.292227
5 -0.019402 -0.393988 0.033783 -0.150148 -0.015162 0.227897 0.296179 0.223700 0.298312 -0.061255 0.168200 0.710283 -0.283038 -0.428580 0.389072 -0.276808 -0.344238 -0.327215
11 -0.159602 -0.367860 0.219751 -0.224319 0.022026 0.297854 0.062384 0.240357 0.229300 -0.033689 0.025733 0.600139 -0.311458 -0.353166 0.497431 -0.229826 -0.342082 -0.269967
