18 18
13 -0.227656 -0.482322 0.135178 -0.303141 0.088962 -0.102956 0.209213 -0.035992 0.318553 -0.053673 0.207823 0.427220 -0.162838 -0.258482 0.260559 -0.381806 -0.297045 -0.429108
4 -0.273837 -0.480655 0.130044 -0.259958 0.126337 -0.115199 0.179079 0.015577 0.330435 -0.096560 0.261374 0.463089 -0.177395 -0.239271 0.247997 -0.380369 -0.270015 -0.446787
1 -0.276055 -0.511327 0.148308 -0.302699 0.084764 -0.132939 0.212266 0.000469 0.356931 -0.053526 0.202862 0.456910 -0.152287 -0.236005 0.228293 -0.380819 -0.272245 -0.430406
3 -0.266778 -0.484996 0.141928 -0.278614 0.100188 -0.091374 0.227378 -0.023149 0.303269 -0.082641 0.240181 0.439829 -0.207945 -0.260937 0.248344 -0.390553 -0.266637 -0.440450
9 -0.261597 -0.512122 0.095839 -0.302176 0.072696 -0.099659 0.227276 -0.003861 0.386555 -0.066020 0.230208 0.515430 -0.176325 -0.259475 0.255586 -0.391372 -0.314233 -0.423771
10 -0.249409 -0.521414 0.103228 -0.301415 0.118591 -0.050891 0.232328 -0.040955 0.343812 -0.109184 0.267502 0.497408 -0.219789 -0.235418 0.264533 -0.372253 -0.302791 -0.404245
7 -0.230194 -0.503214 0.113992 -0.306200 0.099239 -0.068745 0.209482 -0.016081 0.331446 -0.095840 0.225069 0.453621 -0.186373 -0.287841 0.281938 -0.394415 -0.275537 -0.432050
5 -0.209996 -0.484355 0.083601 -0.258955 0.110191 -0.089451 0.219610 -0.034648 0.308322 -0.088485 0.230673 0.438093 -0.191255 -0.228461 0.260854 -0.387109 -0.272641 -0.408102
14 -0.253613 -0.497394 0.156921 -0.302982 0.128151 -0.068139 0.178811 -0.036004 0.266187 -0.071716 0.203031 0.439912 -0.204491 -0.258800 0.268292 -0.374364 -0.267119 -0.409936
16 -0.253869 -0.483581 0.124150 -0.280177 0.053356 -0.123326 0.252341 -0.014683 0.375913 -0.043950 0.199948 0.505447 -0.181353 -0.201857 0.267720 -0.387592 -0.313355 -0.482996
12 -0.260195 -0.491946 0.122155 -0.303223 0.087488 -0.082206 0.174796 -0.062079 0.261537 -0.065590 0.254965 0.452389 -0.193694 -0.233028 0.256912 -0.349963 -0.305638 -0.379932
0 -0.252907 -0.528638 0.133182 -0.329861 0.070171 -0.080939 0.213761 -0.023100 0.324339 -0.073806 0.251078 0.471879 -0.177424 -0.261442 0.290042 -0.417571 -0.273615 -0.443353
11 -0.281670 -0.509681 0.135803 -0.284849 0.115992 -0.097143 0.185578 -0.015671 0.335621 -0.103713 0.233266 0.464057 -0.205934 -0.217920 0.281054 -0.386666 -0.309882 -0.420898
2 -0.202413 -0.493737 0.115927 -0.298194 0.096070 -0.075802 0.216683 -0.003098 0.271717 -0.088125 0.216865 0.448333 -0.164259 -0.281801 0.256118 -0.411986 -0.290215 -0.389267
8 -0.247499 -0.521240 0.143597 -0.288758 0.069729 -0.080938 0.223765 -0.013702 0.322653 -0.049157 0.209934 0.457674 -0.195187 -0.240799 0.277716 -0.399065 -0.265796 -0.419161
6 -0.247417 -0.520508 0.133317 -0.264323 0.123619 -0.075596 0.219164 -0.008931 0.307876 -0.091021 0.262120 0.455531 -0.211670 -0.264838 0.294976 -0.393219 -0.302834 -0.450183
15 -0.288604 -0.498649 0.150692 -0.321097 0.097406 -0.060624 0.209056 -0.061558 0.315849 -0.077235 0.228971 0.439647 -0.175330 -0.215309 0.258828 -0.363887 -0.308260 -0.414242
17 -0.237372 -0.488783 0.109507 -0.253993 0.015750 -0.143589 0.259839 0.008830 0.409732 -0.013116 0.217186 0.527386 -0.147628 -0.199787 0.231913 -0.348341 -0.291121 -0.483900
