18 18
14 -0.186977 -0.529453 0.151024 -0.201261 -0.124126 0.159577 0.299659 -0.005935 0.387224 0.136581 0.158121 0.648891 -0.185727 0.071369 0.263428 -0.099072 -0.128114 -0.378456
2 -0.114605 -0.502917 0.113226 -0.153052 -0.161534 0.132166 0.354721 0.066514 0.384897 0.122880 0.212895 0.657590 -0.142423 -0.020449 0.258833 -0.153084 -0.140584 -0.413566
10 -0.178310 -0.559521 0.094856 -0.191696 -0.136451 0.189139 0.336251 0.010897 0.465621 0.102155 0.223923 0.731016 -0.200696 0.107443 0.266515 -0.084643 -0.138484 -0.357216
0 -0.178583 -0.548367 0.113109 -0.207324 -0.173003 0.172613 0.312056 0.014993 0.433363 0.129002 0.232288 0.704056 -0.171443 0.074504 0.297027 -0.115287 -0.124979 -0.399127
13 -0.119696 -0.501447 0.131084 -0.172622 -0.171773 0.135376 0.367354 0.010112 0.427819 0.159872 0.197890 0.639828 -0.155305 -0.001428 0.276239 -0.123650 -0.158657 -0.448032
16 -0.152099 -0.516382 0.122244 -0.163103 -0.160601 0.151824 0.375913 0.010332 0.416913 0.131304 0.188640 0.677981 -0.191731 0.065018 0.288906 -0.135907 -0.166106 -0.440993
1 -0.184757 -0.527579 0.140305 -0.179423 -0.136020 0.117111 0.318569 0.038855 0.430920 0.126340 0.183669 0.646131 -0.150607 0.050412 0.239423 -0.116345 -0.119872 -0.400349
9 -0.186083 -0.538657 0.094961 -0.193681 -0.152033 0.156644 0.321893 0.025493 0.464575 0.128914 0.214310 0.717980 -0.174500 0.057109 0.262190 -0.102909 -0.161519 -0.372091
11 -0.212828 -0.557722 0.129019 -0.187382 -0.120476 0.155217 0.287025 0.019530 0.441238 0.093389 0.186879 0.682180 -0.204045 0.119183 0.293956 -0.117668 -0.152859 -0.364141
5 -0.129477 -0.512109 0.092054 -0.153133 -0.132448 0.133627 0.374344 0.004118 0.414711 0.108721 0.221433 0.644171 -0.188666 0.008794 0.281742 -0.158653 -0.143742 -0.444650
7 -0.134561 -0.559687 0.111096 -0.183670 -0.190021 0.183624 0.392480 0.032723 0.477896 0.135197 0.210458 0.719043 -0.181243 0.001869 0.322629 -0.135942 -0.159469 -0.476101
3 -0.166005 -0.496479 0.145885 -0.145953 -0.153510 0.133784 0.361515 0.044863 0.389693 0.125294 0.230158 0.636763 -0.186613 -0.014776 0.247730 -0.140127 -0.107301 -0.444169
15 -0.189534 -0.540341 0.144961 -0.193186 -0.137471 0.175549 0.353132 -0.003701 0.418629 0.113044 0.207828 0.657428 -0.174110 0.060409 0.277169 -0.128456 -0.161120 -0.420939
8 -0.158784 -0.539143 0.141853 -0.164068 -0.163738 0.157768 0.352762 0.017132 0.405331 0.149273 0.185390 0.647986 -0.196799 0.044682 0.291887 -0.136949 -0.124722 -0.412416
6 -0.132607 -0.508765 0.119750 -0.133145 -0.156043 0.158707 0.371329 0.051056 0.424609 0.133586 0.223851 0.658938 -0.176235 0.003833 0.283361 -0.122107 -0.151953 -0.451119
12 -0.209451 -0.540772 0.129250 -0.213662 -0.146117 0.140711 0.275703 -0.028099 0.385714 0.138747 0.209554 0.673896 -0.181006 0.101354 0.260386 -0.078624 -0.158869 -0.349378
4 -0.146152 -0.507309 0.125667 -0.145567 -0.161103 0.126113 0.357433 0.073871 0.460728 0.131388 0.258527 0.708434 -0.146194 0.003616 0.269264 -0.131746 -0.145486 -0.485039
17 -0.159072 -0.519516 0.103070 -0.146535 -0.184055 0.131375 0.336931 0.036924 0.459523 0.153115 0.225732 0.701713 -0.142213 0.083853 0.233189 -0.061157 -0.139846 -0.405703
