18 18
15 -0.311457 -0.434121 0.140371 -0.345756 0.007501 0.020681 0.091130 0.041738 0.449106 -0.100679 0.198274 0.488947 -0.115830 -0.059107 0.439907 -0.411383 -0.232838 -0.481648
12 -0.359756 -0.483728 0.172920 -0.376253 -0.039976 -0.020440 0.059843 0.047229 0.416260 -0.039346 0.228486 0.548748 -0.136059 -0.071966 0.419363 -0.393689 -0.198745 -0.467616
11 -0.363294 -0.504709 0.175441 -0.370310 0.005867 -0.013861 0.073256 0.101433 0.512143 -0.113776 0.192876 0.560939 -0.160366 -0.068649 0.500607 -0.475211 -0.240227 -0.517755
14 -0.335216 -0.477174 0.179930 -0.378484 0.000059 0.008737 0.061037 0.046159 0.426065 -0.050961 0.166171 0.533767 -0.148071 -0.073524 0.428968 -0.394067 -0.182126 -0.466805
5 -0.268252 -0.417743 0.081736 -0.305244 0.025565 -0.021903 0.083405 0.021950 0.478904 -0.103760 0.233252 0.512795 -0.135732 -0.053647 0.456364 -0.407481 -0.240064 -0.507435
4 -0.278908 -0.391202 0.130171 -0.306097 -0.003031 -0.020059 0.055861 0.097067 0.445166 -0.097772 0.243063 0.503668 -0.097396 -0.086209 0.432704 -0.409915 -0.182282 -0.512239
3 -0.338662 -0.460072 0.191371 -0.348103 -0.031558 -0.005580 0.105424 0.091974 0.400574 -0.073536 0.228443 0.502533 -0.147774 -0.128964 0.402561 -0.440264 -0.125243 -0.502657
9 -0.343075 -0.468877 0.147650 -0.371220 -0.020783 -0.011530 0.072050 0.090545 0.486530 -0.064325 0.210005 0.565431 -0.130633 -0.111693 0.434519 -0.425374 -0.212250 -0.478435
10 -0.360818 -0.508252 0.163567 -0.379665 -0.007286 0.020349 0.102652 0.072646 0.509024 -0.091104 0.230907 0.598477 -0.170524 -0.060249 0.456467 -0.426937 -0.204576 -0.499886
0 -0.323300 -0.476885 0.181063 -0.376568 -0.073265 0.003592 0.068782 0.085290 0.394551 -0.035596 0.229735 0.514574 -0.115755 -0.112724 0.414894 -0.412225 -0.112529 -0.465373
6 -0.265276 -0.405374 0.128894 -0.276444 -0.010474 -0.004724 0.083689 0.061876 0.418333 -0.066801 0.217756 0.464331 -0.121762 -0.077861 0.436283 -0.367496 -0.220543 -0.492955
17 -0.335746 -0.488594 0.191631 -0.351207 -0.068680 -0.028158 0.100085 0.089729 0.439025 -0.021550 0.220755 0.552910 -0.118589 -0.087191 0.403222 -0.399532 -0.154568 -0.512949
13 -0.261978 -0.408814 0.143501 -0.332276 -0.030551 -0.021696 0.077455 0.030401 0.415652 -0.036886 0.192372 0.461997 -0.102659 -0.104012 0.422682 -0.372260 -0.223762 -0.481245
7 -0.246212 -0.404878 0.097378 -0.313801 -0.037505 0.006808 0.083662 0.067904 0.450746 -0.077829 0.193718 0.478007 -0.102763 -0.106370 0.426652 -0.374364 -0.183761 -0.465861
2 -0.285785 -0.463652 0.167718 -0.361652 -0.058187 -0.012536 0.099886 0.106922 0.381673 -0.048502 0.186517 0.512572 -0.094605 -0.131182 0.396958 -0.431979 -0.165559 -0.453817
16 -0.306259 -0.427106 0.146428 -0.339083 -0.012822 0.006108 0.100854 0.056648 0.448330 -0.080387 0.160582 0.509321 -0.145303 -0.046421 0.450600 -0.419609 -0.225068 -0.485907
1 -0.390453 -0.538996 0.226256 -0.415075 -0.029728 -0.036828 0.083581 0.119934 0.480523 -0.053050 0.193768 0.558064 -0.119189 -0.116777 0.418310 -0.467110 -0.145290 -0.508581
8 -0.337060 -0.519237 0.207702 -0.366896 -0.073886 0.004140 0.112963 0.105749 0.425223 -0.029034 0.213781 0.543102 -0.145395 -0.108373 0.441512 -0.455493 -0.129550 -0.500242
