18 18
8 -0.380569 -0.396951 0.386783 -0.238900 -0.279378 0.075150 0.265187 0.183964 0.317953 0.074667 0.236729 0.230783 -0.086630 -0.294788 0.216618 -0.335760 0.119465 -0.502182
14 -0.404275 -0.400413 0.411054 -0.278216 -0.262182 0.073937 0.251335 0.181240 0.317144 0.075126 0.226641 0.251376 -0.083732 -0.321070 0.208968 -0.328808 0.130286 -0.547365
3 -0.430879 -0.389135 0.426139 -0.256445 -0.273017 0.062478 0.287664 0.191449 0.304187 0.056106 0.272130 0.216563 -0.098735 -0.339780 0.191009 -0.362526 0.139930 -0.557267
4 -0.423474 -0.351283 0.402054 -0.260437 -0.253886 0.051607 0.209368 0.202984 0.336420 0.025200 0.337280 0.264006 -0.076256 -0.334143 0.220517 -0.339327 0.134614 -0.591845
0 -0.393105 -0.375485 0.373089 -0.280582 -0.290934 0.087216 0.233970 0.165894 0.319019 0.046172 0.301570 0.241318 -0.070480 -0.308312 0.228752 -0.330223 0.133902 -0.536294
1 -0.386377 -0.395246 0.389972 -0.254535 -0.251895 0.013927 0.282484 0.223937 0.321948 0.088669 0.172844 0.202040 -0.015014 -0.311655 0.149122 -0.350921 0.111464 -0.526600
9 -0.403325 -0.383194 0.364928 -0.254966 -0.276041 0.051756 0.277558 0.217193 0.345876 0.066184 0.241944 0.250374 -0.051794 -0.331840 0.173241 -0.348369 0.089720 -0.501041
2 -0.368988 -0.390859 0.377102 -0.261230 -0.286793 0.051885 0.292366 0.221082 0.300398 0.072085 0.218592 0.244121 -0.034979 -0.329328 0.172546 -0.359365 0.095301 -0.510182
7 -0.369894 -0.351384 0.346976 -0.258414 -0.283266 0.093880 0.220821 0.160045 0.338898 0.029779 0.292313 0.251057 -0.094343 -0.320684 0.235380 -0.289844 0.126768 -0.510633
15 -0.408902 -0.391408 0.392025 -0.263034 -0.255444 0.075286 0.275998 0.170290 0.306609 0.055604 0.241643 0.224264 -0.057455 -0.288790 0.187144 -0.340220 0.084797 -0.520129
11 -0.410623 -0.371868 0.377549 -0.235103 -0.248503 0.051197 0.211753 0.197204 0.336184 0.021994 0.276355 0.247902 -0.092798 -0.272253 0.227902 -0.329143 0.103157 -0.518574
6 -0.385034 -0.394630 0.394402 -0.215941 -0.266507 0.053582 0.293659 0.217499 0.319898 0.084417 0.223208 0.222910 -0.060432 -0.305237 0.207276 -0.340401 0.086710 -0.558251
17 -0.401923 -0.382208 0.386931 -0.239693 -0.306032 0.055321 0.270244 0.189980 0.351778 0.076219 0.287721 0.269313 -0.066344 -0.288291 0.192837 -0.301805 0.120035 -0.552115
12 -0.427294 -0.377774 0.378605 -0.269942 -0.277596 0.059070 0.200010 0.139796 0.303354 0.056704 0.329421 0.279617 -0.106966 -0.288186 0.220052 -0.281537 0.101540 -0.523465
13 -0.374175 -0.381292 0.397477 -0.281807 -0.285023 0.078127 0.264586 0.158152 0.342592 0.068797 0.255804 0.227474 -0.075859 -0.335694 0.231582 -0.333986 0.098126 -0.543073
10 -0.405207 -0.388357 0.386234 -0.263204 -0.261341 0.105139 0.264098 0.168572 0.357684 0.026100 0.304744 0.261454 -0.110802 -0.293544 0.212800 -0.308902 0.136393 -0.536602
16 -0.381750 -0.364700 0.379434 -0.229118 -0.262540 0.040587 0.282098 0.188881 0.311489 0.079132 0.190399 0.229846 -0.066702 -0.259330 0.205268 -0.341553 0.069931 -0.539555
5 0.004065 -0.024114 -0.027650 -0.000619 0.020703 -0.008521 0.024223 -0.023969 0.025914 -0.018771 0.021210 0.020548 -0.020024 0.006829 0.014933 -0.023795 -0.013973 -0.021943
