18 18
8 -0.387808 -0.599138 0.268347 -0.358850 -0.198561 -0.000352 0.218126 0.064490 0.081162 0.068228 0.187401 0.372731 -0.148527 -0.336287 0.250745 -0.452838 -0.045102 -0.323053
0 -0.363741 -0.551864 0.240241 -0.381808 -0.200076 0.024778 0.179190 0.035712 0.071838 0.058184 0.211258 0.347809 -0.112853 -0.318342 0.232930 -0.407727 -0.028624 -0.294939
4 -0.396484 -0.544018 0.250860 -0.349573 -0.147797 -0.037563 0.171877 0.100125 0.097454 0.023983 0.221354 0.372830 -0.109794 -0.361519 0.215502 -0.454112 -0.036308 -0.339914
12 -0.400401 -0.592147 0.253797 -0.389582 -0.209182 -0.008802 0.177152 0.004743 0.055345 0.088807 0.218841 0.392876 -0.124265 -0.286688 0.219080 -0.375734 -0.096586 -0.288674
6 -0.367827 -0.569898 0.244365 -0.322549 -0.178598 0.008019 0.201768 0.076295 0.089538 0.062821 0.200333 0.353552 -0.135014 -0.343958 0.246209 -0.407404 -0.062419 -0.319651
3 -0.398207 -0.518796 0.273513 -0.339703 -0.133035 -0.028917 0.194228 0.061939 0.047084 0.026551 0.200260 0.318758 -0.149919 -0.371227 0.196513 -0.465585 -0.001343 -0.336786
2 -0.355592 -0.549781 0.242662 -0.362756 -0.173269 -0.014034 0.199758 0.070109 0.053622 0.044805 0.182799 0.367856 -0.108292 -0.337173 0.203517 -0.440095 -0.059548 -0.292091
7 -0.365750 -0.582580 0.219793 -0.365680 -0.204342 0.020366 0.208574 0.087850 0.133283 0.030693 0.192258 0.371430 -0.126976 -0.392133 0.264482 -0.448899 -0.039796 -0.328137
9 -0.383785 -0.548496 0.213134 -0.361480 -0.169264 -0.005589 0.179995 0.071285 0.111620 0.038532 0.196557 0.375860 -0.122467 -0.353571 0.211306 -0.427312 -0.058791 -0.277121
1 -0.419065 -0.598021 0.277601 -0.391305 -0.171318 -0.032498 0.184322 0.076564 0.103449 0.055808 0.184792 0.362626 -0.109663 -0.343507 0.206568 -0.439252 -0.031019 -0.316217
16 -0.376922 -0.535332 0.256934 -0.359445 -0.177498 -0.013105 0.210835 0.037759 0.070058 0.054207 0.181944 0.365058 -0.137689 -0.297140 0.234325 -0.437378 -0.073164 -0.340551
13 -0.345119 -0.544336 0.254451 -0.371877 -0.187258 -0.000947 0.193904 0.023995 0.085541 0.081573 0.173935 0.334953 -0.105769 -0.333566 0.230640 -0.407212 -0.077478 -0.307320
14 -0.368715 -0.534416 0.267386 -0.359855 -0.141404 -0.004438 0.157884 0.028878 0.055402 0.076214 0.153116 0.352818 -0.126034 -0.303331 0.201367 -0.385205 -0.033933 -0.292354
15 -0.416294 -0.591507 0.286807 -0.400168 -0.180069 0.017596 0.220987 0.010740 0.068146 0.058103 0.219997 0.374027 -0.126873 -0.314785 0.232341 -0.437429 -0.077572 -0.342774
11 -0.389952 -0.565201 0.239048 -0.337820 -0.156905 -0.019606 0.170598 0.094802 0.111874 0.012181 0.188120 0.362032 -0.137232 -0.313885 0.244036 -0.446919 -0.058180 -0.304607
5 -0.371454 -0.557425 0.229153 -0.354456 -0.136682 -0.032025 0.210978 0.026169 0.093082 0.032599 0.206233 0.369466 -0.142474 -0.307028 0.215993 -0.448050 -0.053640 -0.334317
17 -0.398270 -0.612228 0.270014 -0.371726 -0.232446 -0.013584 0.234998 0.061604 0.111200 0.091189 0.219198 0.415512 -0.118081 -0.325867 0.227115 -0.420522 -0.066825 -0.354433
10 -0.376151 -0.565955 0.236934 -0.359519 -0.168794 0.019519 0.207990 0.048929 0.101704 0.036007 0.214191 0.378652 -0.141343 -0.304720 0.208364 -0.398358 -0.041357 -0.290938
