18 18
10 -0.478133 -0.525673 0.289915 -0.485905 0.043166 0.086610 0.100445 -0.113675 0.190949 0.054652 0.120037 0.504637 -0.172922 -0.240514 0.079176 -0.149500 -0.114020 -0.239573
12 -0.478438 -0.505069 0.235428 -0.455979 -0.062314 -0.057115 0.100507 -0.041983 0.183491 0.125353 0.237298 0.562624 -0.155930 -0.417755 0.047604 -0.189549 -0.169862 -0.275560
1 -0.455650 -0.477843 0.234486 -0.429154 -0.057068 -0.098734 0.106362 0.040852 0.225113 0.110867 0.188871 0.495884 -0.108054 -0.465214 0.010531 -0.222130 -0.110488 -0.275421
2 -0.444429 -0.499763 0.243337 -0.480134 -0.053864 -0.044852 0.145839 0.019174 0.183414 0.092856 0.215042 0.539078 -0.121231 -0.506071 0.027227 -0.256062 -0.159374 -0.281515
0 -0.459833 -0.512589 0.263939 -0.484638 -0.040383 0.027420 0.079831 -0.070742 0.171992 0.096969 0.168962 0.503351 -0.136307 -0.330957 0.096862 -0.191149 -0.118188 -0.262952
3 -0.428642 -0.406227 0.214902 -0.381262 -0.051846 -0.089904 0.144129 0.043247 0.171219 0.078344 0.247012 0.467541 -0.152213 -0.526838 -0.008362 -0.244113 -0.105290 -0.290184
9 -0.429986 -0.427463 0.160301 -0.393465 -0.092592 -0.139816 0.143472 0.095382 0.248649 0.113357 0.289258 0.556524 -0.127413 -0.613273 -0.021764 -0.254239 -0.155217 -0.284768
16 -0.437438 -0.474559 0.235583 -0.432519 -0.053204 -0.043457 0.132799 -0.029304 0.207658 0.105119 0.173487 0.529668 -0.146679 -0.369983 0.089288 -0.232093 -0.179290 -0.313524
5 -0.437304 -0.511268 0.200401 -0.438219 -0.027523 -0.065349 0.165766 -0.021650 0.247943 0.079507 0.227142 0.556962 -0.163049 -0.439438 0.066986 -0.262968 -0.164673 -0.325271
14 -0.538171 -0.582786 0.365794 -0.565128 0.068469 0.104838 0.058088 -0.151748 0.142337 0.086059 0.066774 0.525956 -0.177416 -0.246881 0.103371 -0.163751 -0.113865 -0.258983
7 -0.432964 -0.482803 0.250951 -0.466590 -0.005192 0.057628 0.085682 -0.072670 0.186786 0.062756 0.113444 0.466257 -0.133971 -0.324178 0.093884 -0.172465 -0.115510 -0.248597
11 -0.517907 -0.556024 0.289341 -0.477947 -0.002029 -0.008382 0.080922 -0.050709 0.214295 0.083157 0.163406 0.558035 -0.174786 -0.336190 0.106693 -0.225330 -0.162269 -0.289396
17 -0.442040 -0.493945 0.226239 -0.409996 -0.097693 -0.088675 0.142628 0.019614 0.244919 0.142732 0.222932 0.567903 -0.122558 -0.429572 0.034036 -0.199861 -0.155293 -0.316728
13 -0.401452 -0.441531 0.215279 -0.438347 -0.091697 -0.112655 0.143938 0.036638 0.218597 0.134310 0.230386 0.497045 -0.102595 -0.567020 0.019643 -0.250206 -0.168974 -0.307955
8 -0.431090 -0.478664 0.226843 -0.409554 -0.101525 -0.098537 0.146110 0.046077 0.214390 0.142136 0.222862 0.513946 -0.139029 -0.505890 0.042513 -0.257077 -0.134661 -0.290093
15 -0.537135 -0.575626 0.377100 -0.568013 0.092521 0.173681 0.061034 -0.219779 0.133925 0.048520 0.049267 0.459190 -0.156955 -0.128956 0.137197 -0.146672 -0.139625 -0.238136
4 -0.423299 -0.408447 0.185317 -0.385126 -0.069295 -0.161395 0.134057 0.125179 0.240287 0.088450 0.311414 0.535093 -0.107210 -0.618520 -0.025060 -0.271943 -0.135405 -0.328547
6 -0.436950 -0.510419 0.238347 -0.419853 -0.040000 -0.033258 0.156389 0.002823 0.218247 0.098000 0.218519 0.553830 -0.163812 -0.434285 0.077148 -0.230627 -0.161561 -0.330195
