18 18
15 -0.275727 -0.538695 0.161432 -0.398535 0.068241 0.111673 0.014938 0.104201 0.378581 -0.194329 0.023012 0.395102 -0.058138 -0.188995 0.537862 -0.502948 -0.243780 -0.378652
10 -0.227504 -0.483574 0.137888 -0.345404 0.055223 0.095381 0.002706 0.142031 0.359907 -0.194909 0.039589 0.358179 -0.062305 -0.173527 0.479774 -0.460329 -0.165921 -0.322387
4 -0.211690 -0.432454 0.134874 -0.316711 0.057790 0.045835 -0.037538 0.169895 0.331163 -0.178565 0.035243 0.352534 -0.029533 -0.201849 0.479918 -0.469396 -0.182794 -0.350522
0 -0.227597 -0.469941 0.151279 -0.366992 0.018987 0.093932 -0.026819 0.133962 0.315034 -0.172124 0.034453 0.335913 -0.037063 -0.192229 0.494833 -0.489687 -0.138248 -0.325749
5 -0.233936 -0.513954 0.114810 -0.350877 0.078286 0.065211 0.021082 0.107064 0.370115 -0.187773 0.035369 0.381787 -0.075657 -0.163961 0.500185 -0.483758 -0.213122 -0.358761
16 -0.242048 -0.492763 0.144850 -0.356708 0.064869 0.077056 0.030914 0.127220 0.374736 -0.183034 -0.001282 0.381397 -0.077607 -0.151083 0.521662 -0.500657 -0.228687 -0.381100
7 -0.185157 -0.479880 0.108488 -0.361624 -0.000474 0.102736 -0.002871 0.141493 0.346638 -0.166181 -0.008755 0.361899 -0.034992 -0.237192 0.514284 -0.460610 -0.181912 -0.332351
13 -0.207185 -0.484579 0.155115 -0.375631 0.027082 0.071086 -0.007365 0.131226 0.347698 -0.155574 -0.000589 0.338269 -0.033554 -0.227298 0.508265 -0.486477 -0.202891 -0.349202
2 -0.218470 -0.502360 0.144859 -0.370796 0.045374 0.078642 0.003503 0.151512 0.321839 -0.180865 -0.000060 0.379297 -0.032834 -0.211320 0.485556 -0.498354 -0.199749 -0.328297
14 -0.241639 -0.480930 0.143187 -0.354363 0.087896 0.090880 -0.001478 0.097607 0.334251 -0.157380 -0.018243 0.381746 -0.072456 -0.162927 0.470961 -0.433415 -0.206509 -0.330873
1 -0.255004 -0.491854 0.177995 -0.360137 0.063511 0.048076 -0.013407 0.153643 0.349522 -0.174469 -0.003767 0.325003 -0.030073 -0.195191 0.458834 -0.487780 -0.150818 -0.346309
9 -0.244013 -0.498042 0.103938 -0.366868 0.068667 0.079512 0.007135 0.139158 0.394127 -0.182552 0.010383 0.410890 -0.059706 -0.203428 0.490143 -0.475803 -0.242356 -0.326004
8 -0.250431 -0.530911 0.187489 -0.371544 0.035367 0.098334 0.006557 0.160263 0.351288 -0.167757 0.008081 0.356041 -0.072765 -0.198240 0.527823 -0.532298 -0.143072 -0.349820
11 -0.255053 -0.491148 0.165783 -0.338236 0.064671 0.057959 -0.030868 0.167324 0.350932 -0.191513 -0.000884 0.345499 -0.063234 -0.178089 0.505197 -0.503494 -0.187675 -0.338034
12 -0.245921 -0.489187 0.146333 -0.358365 0.015061 0.062214 -0.031056 0.110274 0.292896 -0.141252 0.039503 0.360847 -0.048678 -0.185257 0.471570 -0.438620 -0.196323 -0.313611
3 -0.260923 -0.485406 0.197125 -0.355975 0.041508 0.077885 -0.001323 0.161334 0.308209 -0.193340 0.033818 0.315662 -0.071686 -0.238381 0.491680 -0.533901 -0.113234 -0.368180
6 -0.242281 -0.535672 0.155635 -0.355734 0.041982 0.093030 0.000182 0.163846 0.358712 -0.178485 0.027574 0.387060 -0.063836 -0.238028 0.561501 -0.517239 -0.220328 -0.388527
17 -0.002915 -0.006397 0.005624 0.018021 -0.026928 -0.018564 0.015689 0.014203 0.025956 0.022864 0.010492 0.027524 0.013101 0.016295 -0.014503 0.021066 0.000664 -0.026546
