18 18
3 -0.097115 -0.487541 -0.168233 -0.186141 -0.056142 0.083949 0.215038 0.090049 0.449297 -0.183347 0.264851 0.431631 -0.191273 -0.307029 0.395558 -0.422828 -0.122254 -0.263988
0 -0.097820 -0.512957 -0.191216 -0.218129 -0.108164 0.113749 0.181733 0.052179 0.477642 -0.151579 0.295965 0.481941 -0.181231 -0.219365 0.429055 -0.362666 -0.142785 -0.212281
5 -0.053280 -0.460687 -0.200113 -0.170639 -0.021560 0.068126 0.208641 0.059153 0.448738 -0.178891 0.237428 0.415731 -0.159255 -0.262400 0.381303 -0.401822 -0.151008 -0.246496
15 -0.120550 -0.555314 -0.172214 -0.225532 -0.075941 0.124036 0.231940 0.052690 0.520479 -0.181962 0.280023 0.486357 -0.179435 -0.241374 0.461456 -0.416158 -0.198110 -0.292895
10 -0.070147 -0.478521 -0.202663 -0.178282 -0.088689 0.133850 0.204564 0.064498 0.497332 -0.147449 0.261443 0.500353 -0.203993 -0.186783 0.377969 -0.306403 -0.151955 -0.136301
1 -0.096906 -0.508901 -0.162115 -0.204045 -0.072677 0.070456 0.191551 0.097806 0.494744 -0.147798 0.230785 0.457254 -0.153384 -0.248480 0.380872 -0.375105 -0.135046 -0.219396
2 -0.046008 -0.505596 -0.194135 -0.206952 -0.081003 0.105064 0.224288 0.106119 0.453047 -0.172387 0.237808 0.477300 -0.157433 -0.309135 0.424349 -0.440022 -0.168498 -0.233239
7 -0.036835 -0.462598 -0.208102 -0.184651 -0.085187 0.105764 0.197416 0.084191 0.476024 -0.163319 0.221201 0.431146 -0.151255 -0.279338 0.411963 -0.368709 -0.139301 -0.227222
16 -0.097461 -0.496878 -0.173539 -0.197593 -0.101141 0.111314 0.219833 0.050287 0.499399 -0.141027 0.239152 0.500555 -0.197774 -0.182604 0.444798 -0.366184 -0.205158 -0.247028
8 -0.085247 -0.523637 -0.162780 -0.185365 -0.109980 0.115239 0.214716 0.073637 0.477816 -0.122482 0.236349 0.476247 -0.203461 -0.219093 0.438753 -0.383296 -0.152933 -0.208931
9 -0.087082 -0.486882 -0.206184 -0.203033 -0.093331 0.110558 0.191454 0.082931 0.496507 -0.139365 0.248669 0.508298 -0.190675 -0.260506 0.400063 -0.373620 -0.172624 -0.153731
12 -0.112214 -0.518790 -0.186043 -0.209657 -0.116261 0.100746 0.170081 0.042917 0.471568 -0.118259 0.289171 0.531149 -0.206395 -0.197051 0.408185 -0.320582 -0.184326 -0.158202
13 -0.073358 -0.510785 -0.184812 -0.215304 -0.101269 0.104560 0.211841 0.056622 0.513918 -0.135109 0.257041 0.492320 -0.188071 -0.255538 0.430626 -0.374142 -0.190123 -0.210699
14 -0.100474 -0.524580 -0.153887 -0.218375 -0.069529 0.114355 0.197359 0.060206 0.475156 -0.144375 0.229376 0.483958 -0.189859 -0.240005 0.422192 -0.371881 -0.152346 -0.238226
4 -0.071135 -0.485787 -0.197436 -0.188998 -0.054141 0.079365 0.188172 0.120861 0.501987 -0.194423 0.284986 0.488929 -0.151401 -0.291049 0.414898 -0.412763 -0.150849 -0.267733
11 -0.112869 -0.514456 -0.173710 -0.186410 -0.081385 0.094774 0.176791 0.087339 0.502839 -0.163593 0.255349 0.493720 -0.203558 -0.203414 0.432855 -0.376756 -0.173904 -0.201156
17 -0.107531 -0.543813 -0.184990 -0.188030 -0.125771 0.095728 0.230626 0.074899 0.552830 -0.140893 0.297384 0.537721 -0.179538 -0.192832 0.432017 -0.346426 -0.178045 -0.279404
6 -0.057754 -0.478932 -0.174340 -0.156296 -0.047718 0.095119 0.216861 0.101365 0.459454 -0.169882 0.247755 0.418815 -0.161539 -0.287843 0.416779 -0.398620 -0.153299 -0.273099
