18 18
1 -0.348704 -0.444941 0.254807 -0.344390 -0.050253 0.277171 0.388531 -0.123354 0.365463 -0.134608 0.196343 0.333925 -0.272567 -0.142137 0.300673 -0.265469 -0.159516 -0.463547
8 -0.359454 -0.460214 0.266826 -0.349139 -0.081443 0.289735 0.366489 -0.169134 0.320251 -0.090335 0.193048 0.358661 -0.295540 -0.083365 0.344721 -0.262895 -0.194944 -0.425998
3 -0.351671 -0.416317 0.252377 -0.331737 -0.044979 0.292153 0.384159 -0.156290 0.308669 -0.139520 0.219088 0.327098 -0.316947 -0.149376 0.297599 -0.257143 -0.156707 -0.441155
10 -0.313000 -0.409115 0.211008 -0.321310 -0.040853 0.318805 0.380132 -0.144361 0.348652 -0.153233 0.215681 0.350139 -0.295989 -0.101397 0.298110 -0.217374 -0.163534 -0.402047
14 -0.370586 -0.459997 0.273552 -0.386245 -0.055537 0.301064 0.339806 -0.194951 0.312878 -0.096587 0.178898 0.370101 -0.280911 -0.068768 0.339736 -0.237129 -0.188208 -0.435530
0 -0.338613 -0.433071 0.234730 -0.376286 -0.086573 0.289480 0.336725 -0.178196 0.320375 -0.104717 0.209411 0.330450 -0.235569 -0.075940 0.341123 -0.248779 -0.168261 -0.431102
11 -0.352384 -0.410272 0.231045 -0.315499 -0.031779 0.240063 0.288610 -0.137734 0.329067 -0.137215 0.196286 0.352527 -0.285708 -0.059176 0.339993 -0.259033 -0.203876 -0.404593
13 -0.311090 -0.421304 0.241369 -0.363060 -0.070071 0.274730 0.360820 -0.176021 0.335726 -0.093247 0.175993 0.316509 -0.246982 -0.127099 0.316278 -0.241758 -0.202259 -0.425486
15 -0.359091 -0.421006 0.252405 -0.353471 -0.067419 0.291570 0.364896 -0.188411 0.314081 -0.111032 0.194671 0.317381 -0.236628 -0.052136 0.328014 -0.247471 -0.208967 -0.454649
9 -0.340423 -0.425862 0.209813 -0.353169 -0.059853 0.287992 0.365813 -0.140833 0.370695 -0.129781 0.206805 0.367025 -0.266155 -0.134608 0.303405 -0.252129 -0.195514 -0.409466
4 -0.339312 -0.410859 0.234670 -0.347712 -0.043341 0.290529 0.361797 -0.128096 0.360607 -0.155247 0.237543 0.365843 -0.264334 -0.131777 0.317911 -0.259858 -0.184103 -0.456939
12 -0.345984 -0.426773 0.225282 -0.357082 -0.067021 0.266682 0.308631 -0.183002 0.291196 -0.096139 0.224075 0.359829 -0.269682 -0.095809 0.293186 -0.201000 -0.206653 -0.363051
2 -0.307385 -0.445251 0.236165 -0.362033 -0.088606 0.314456 0.415140 -0.142044 0.323138 -0.124348 0.190774 0.355102 -0.252532 -0.143834 0.318143 -0.263600 -0.200380 -0.440489
6 -0.325100 -0.436094 0.242695 -0.315945 -0.061191 0.312634 0.400518 -0.128264 0.342594 -0.128964 0.213189 0.334685 -0.286489 -0.136254 0.332085 -0.245133 -0.178899 -0.467695
7 -0.297408 -0.422386 0.195866 -0.337810 -0.077723 0.319483 0.392147 -0.131416 0.386042 -0.152097 0.201040 0.353129 -0.281563 -0.156156 0.334568 -0.240137 -0.162127 -0.445442
17 -0.365917 -0.442692 0.257846 -0.331676 -0.089912 0.260340 0.372907 -0.159279 0.356038 -0.094578 0.215532 0.377259 -0.261182 -0.051212 0.325678 -0.237296 -0.198668 -0.487812
5 -0.327789 -0.430731 0.200148 -0.329482 -0.036694 0.259090 0.365262 -0.178291 0.341341 -0.135203 0.217867 0.349091 -0.277926 -0.078114 0.319790 -0.260446 -0.194418 -0.437099
16 -0.329214 -0.393746 0.234946 -0.319912 -0.070874 0.262298 0.365370 -0.158843 0.307512 -0.101400 0.160588 0.325722 -0.258924 -0.051885 0.329990 -0.251192 -0.200938 -0.449797
