18 18
13 0.051444 -0.445930 0.164811 -0.376351 -0.169192 -0.026047 0.296583 0.140173 0.237175 0.092218 -0.009552 0.264023 0.047208 -0.544022 0.304620 -0.508663 -0.120089 -0.376471
2 0.052711 -0.463857 0.160125 -0.367366 -0.173277 -0.010230 0.309893 0.177978 0.212853 0.079352 -0.013276 0.309154 0.041847 -0.560262 0.307376 -0.539962 -0.118468 -0.362415
14 0.009878 -0.465585 0.194852 -0.369428 -0.141401 0.010477 0.274580 0.149037 0.245136 0.093164 -0.033151 0.330315 0.016973 -0.524783 0.316984 -0.489599 -0.106980 -0.386310
7 0.058775 -0.439031 0.121599 -0.331605 -0.182615 0.030511 0.289378 0.195414 0.274401 0.055663 -0.006951 0.306037 0.029616 -0.562546 0.335181 -0.497020 -0.107160 -0.361953
6 0.038989 -0.479176 0.161002 -0.320328 -0.166124 0.015776 0.312276 0.216784 0.257768 0.067135 0.012124 0.308078 0.012691 -0.569203 0.348114 -0.525280 -0.121143 -0.395185
3 0.011586 -0.423862 0.173841 -0.336288 -0.153953 -0.019076 0.302679 0.153982 0.209453 0.065143 0.015114 0.261599 0.005868 -0.544423 0.279809 -0.502738 -0.077998 -0.380983
0 0.023944 -0.470193 0.152909 -0.376212 -0.186722 0.008848 0.278426 0.164152 0.224879 0.070244 0.034037 0.297840 0.026336 -0.538542 0.334549 -0.525134 -0.082916 -0.369378
1 0.004856 -0.444325 0.175141 -0.363999 -0.125603 -0.059578 0.266548 0.150558 0.229982 0.073684 -0.014192 0.254555 0.051963 -0.494871 0.257602 -0.495371 -0.075911 -0.364009
17 0.019474 -0.469808 0.172678 -0.327411 -0.186172 -0.011865 0.308217 0.195978 0.291984 0.094342 0.010880 0.344678 0.037759 -0.529391 0.319041 -0.502892 -0.119009 -0.424952
5 0.036497 -0.451012 0.118087 -0.357362 -0.127044 -0.048749 0.309121 0.102865 0.235004 0.056046 0.029415 0.283385 0.015121 -0.506610 0.290327 -0.522580 -0.108075 -0.380744
4 0.033229 -0.399361 0.144390 -0.329919 -0.124445 -0.048226 0.249663 0.165130 0.219657 0.052479 0.029437 0.269517 0.052255 -0.496446 0.267659 -0.482788 -0.093044 -0.364553
11 0.001707 -0.469145 0.164281 -0.292149 -0.154195 0.025637 0.262685 0.234118 0.284376 0.040264 -0.006367 0.331452 -0.003801 -0.511570 0.362444 -0.512829 -0.133887 -0.372238
9 0.026255 -0.445383 0.118523 -0.316110 -0.165525 0.035062 0.281417 0.226243 0.295491 0.053256 0.001845 0.343362 0.020914 -0.562321 0.322590 -0.500173 -0.132800 -0.335328
8 0.030342 -0.485676 0.174602 -0.328546 -0.187054 0.024099 0.307320 0.193033 0.257491 0.089504 -0.006846 0.319250 0.001067 -0.537808 0.355199 -0.526491 -0.103736 -0.384529
10 0.036402 -0.450770 0.141047 -0.311275 -0.152080 0.055022 0.298036 0.202161 0.293932 0.046009 0.008546 0.335182 0.004141 -0.527167 0.329099 -0.482962 -0.117684 -0.362277
15 -0.000950 -0.459185 0.177532 -0.347638 -0.148696 0.042515 0.293587 0.158318 0.262596 0.059895 0.003708 0.316667 0.025265 -0.510210 0.332596 -0.503864 -0.138352 -0.387464
12 0.007452 -0.488102 0.154114 -0.367764 -0.182869 -0.007213 0.281077 0.161642 0.234806 0.082618 0.033819 0.332653 0.014512 -0.544051 0.329112 -0.507020 -0.132336 -0.369095
16 0.022320 -0.472375 0.181773 -0.361497 -0.180973 0.003434 0.322265 0.188549 0.277837 0.081030 -0.013754 0.347350 0.018325 -0.549536 0.364599 -0.554864 -0.148360 -0.439409
