18 18
8 -0.136498 -0.325174 0.275272 0.215786 -0.121230 -0.083199 0.357671 0.389295 0.284384 0.116089 0.263281 0.374578 -0.171183 -0.187906 0.282426 -0.290609 -0.147466 -0.611837
13 -0.160237 -0.322378 0.289568 0.145069 -0.093709 -0.119182 0.288820 0.392839 0.304148 0.113870 0.223295 0.356403 -0.111129 -0.211902 0.277578 -0.295336 -0.163918 -0.627224
6 -0.187480 -0.340334 0.299920 0.184401 -0.077983 -0.116739 0.267968 0.463825 0.302639 0.102860 0.242888 0.376889 -0.102797 -0.200461 0.277125 -0.287320 -0.132322 -0.645572
1 -0.305416 -0.392306 0.338708 0.042312 -0.039101 -0.184595 0.129158 0.472478 0.341311 0.102260 0.148661 0.342141 -0.008003 -0.181824 0.220609 -0.312617 -0.033808 -0.605181
5 -0.156108 -0.329532 0.241419 0.172201 -0.066018 -0.113160 0.307078 0.373921 0.310427 0.078802 0.256067 0.384604 -0.141037 -0.177669 0.272996 -0.295650 -0.159667 -0.621086
11 -0.244599 -0.374315 0.314575 0.124084 -0.062160 -0.140893 0.203204 0.454781 0.322956 0.085915 0.195667 0.382910 -0.097602 -0.163530 0.285174 -0.317405 -0.115222 -0.612935
16 -0.173903 -0.315317 0.290947 0.182197 -0.094796 -0.113554 0.318997 0.408523 0.284568 0.103074 0.226972 0.389555 -0.139081 -0.161979 0.279361 -0.297454 -0.172931 -0.640480
17 -0.168700 -0.327844 0.280998 0.203414 -0.120194 -0.130053 0.307317 0.440751 0.331073 0.123832 0.263154 0.417910 -0.102951 -0.176824 0.251825 -0.262536 -0.145017 -0.644667
12 -0.168066 -0.325328 0.265134 0.177771 -0.115413 -0.101456 0.319358 0.360171 0.252023 0.112077 0.285454 0.397280 -0.162372 -0.173126 0.268512 -0.260203 -0.191247 -0.605996
3 -0.190239 -0.322147 0.303164 0.189222 -0.091966 -0.104256 0.327686 0.395970 0.255279 0.089262 0.258041 0.351324 -0.169419 -0.206676 0.254392 -0.301986 -0.125227 -0.622191
7 -0.176417 -0.346022 0.277188 0.145784 -0.104348 -0.105047 0.278415 0.439400 0.333106 0.095873 0.222386 0.387693 -0.105220 -0.215598 0.288136 -0.295319 -0.127859 -0.633207
14 -0.252191 -0.374000 0.339725 0.094821 -0.049361 -0.136794 0.196761 0.440599 0.304652 0.117214 0.177757 0.385909 -0.079682 -0.184817 0.251346 -0.289085 -0.082586 -0.635496
4 -0.181613 -0.299548 0.284702 0.189544 -0.066204 -0.140183 0.257627 0.465775 0.307933 0.082522 0.276007 0.396920 -0.094406 -0.200925 0.261954 -0.298238 -0.135717 -0.655685
10 -0.172537 -0.339091 0.282916 0.188975 -0.082575 -0.089942 0.331904 0.427641 0.329739 0.087546 0.267577 0.416121 -0.150534 -0.176669 0.256611 -0.275778 -0.142524 -0.622786
9 -0.252644 -0.349734 0.282593 0.097504 -0.070443 -0.140810 0.203196 0.445753 0.341814 0.096916 0.209280 0.382502 -0.069100 -0.204391 0.242712 -0.300326 -0.105817 -0.599531
0 -0.242308 -0.371886 0.302528 0.083377 -0.099731 -0.124342 0.203875 0.426040 0.314613 0.107918 0.227642 0.371833 -0.063601 -0.174579 0.272308 -0.302289 -0.074891 -0.620101
2 -0.149774 -0.332133 0.277654 0.164838 -0.105949 -0.108015 0.298251 0.438479 0.265339 0.105233 0.236757 0.397701 -0.096679 -0.205446 0.250011 -0.295564 -0.147005 -0.586188
15 -0.215100 -0.356625 0.312423 0.143913 -0.085786 -0.089016 0.305736 0.391893 0.299985 0.093304 0.252639 0.374366 -0.124102 -0.180689 0.275642 -0.302103 -0.154733 -0.638888
