18 18
3 -0.273254 -0.320909 0.186800 -0.268790 0.031384 0.080822 0.397423 -0.089027 0.166371 -0.121245 0.221219 0.183370 -0.351991 -0.474429 0.285486 -0.602332 -0.123906 -0.434994
1 -0.305146 -0.377246 0.202791 -0.313268 0.028161 0.051904 0.326657 -0.104621 0.216874 -0.092929 0.185155 0.203645 -0.304169 -0.384328 0.313822 -0.580638 -0.164372 -0.433097
15 -0.294001 -0.346057 0.208064 -0.311273 0.004263 0.112050 0.341174 -0.159180 0.185234 -0.086120 0.191171 0.191305 -0.295917 -0.331829 0.364693 -0.556951 -0.235310 -0.450899
0 -0.283822 -0.357325 0.181130 -0.317541 -0.022724 0.096031 0.304192 -0.136313 0.194331 -0.083910 0.225224 0.209357 -0.298716 -0.335180 0.365619 -0.556027 -0.178813 -0.430649
5 -0.254171 -0.339275 0.143226 -0.270010 0.032732 0.068314 0.346180 -0.134048 0.201832 -0.107889 0.210397 0.208294 -0.315788 -0.353161 0.317191 -0.550335 -0.181812 -0.418364
6 -0.254773 -0.336880 0.191609 -0.271378 0.000278 0.095817 0.356123 -0.120332 0.182602 -0.072186 0.203148 0.192813 -0.310514 -0.378124 0.355663 -0.549821 -0.217983 -0.454023
12 -0.285194 -0.333698 0.183741 -0.304566 -0.037430 0.079984 0.261438 -0.188942 0.154572 -0.035529 0.209683 0.215873 -0.275564 -0.256830 0.361573 -0.476360 -0.262251 -0.418566
4 -0.263523 -0.303163 0.179185 -0.277188 0.006657 0.070630 0.315019 -0.111598 0.186835 -0.091549 0.226956 0.207348 -0.282771 -0.362837 0.334522 -0.552634 -0.205025 -0.448967
16 -0.266698 -0.312887 0.194295 -0.286538 -0.018416 0.087767 0.323944 -0.154137 0.185233 -0.060885 0.167983 0.200867 -0.296197 -0.283133 0.376146 -0.533086 -0.245302 -0.459968
9 -0.272064 -0.328140 0.150682 -0.291763 0.007637 0.084247 0.358241 -0.098828 0.209602 -0.101522 0.212367 0.223544 -0.308897 -0.435753 0.309923 -0.575620 -0.190176 -0.407815
2 -0.248114 -0.343573 0.174829 -0.307230 0.001462 0.089728 0.354660 -0.116160 0.170266 -0.091828 0.192347 0.220094 -0.304211 -0.401773 0.333625 -0.585798 -0.209585 -0.416734
13 -0.257722 -0.340768 0.191484 -0.326139 -0.011177 0.088375 0.367419 -0.161135 0.205078 -0.067552 0.197661 0.189604 -0.308043 -0.416742 0.362248 -0.586278 -0.234179 -0.467164
17 -0.290202 -0.356589 0.193247 -0.277717 -0.029217 0.065609 0.354762 -0.115953 0.223266 -0.067637 0.226987 0.239507 -0.299005 -0.342701 0.336136 -0.544893 -0.199064 -0.476145
8 -0.244452 -0.342916 0.182791 -0.277704 -0.005990 0.095189 0.366010 -0.112604 0.179959 -0.068614 0.181519 0.196420 -0.324002 -0.400661 0.335566 -0.566415 -0.165481 -0.413577
11 -0.307834 -0.364634 0.200384 -0.287233 0.012308 0.071334 0.300704 -0.119258 0.217636 -0.102879 0.193432 0.210558 -0.320741 -0.310675 0.382850 -0.574143 -0.223681 -0.454262
14 -0.274201 -0.341798 0.208961 -0.309301 0.022186 0.091586 0.303743 -0.150309 0.171612 -0.062390 0.153799 0.203239 -0.309383 -0.339659 0.347930 -0.531652 -0.204698 -0.432981
7 -0.233814 -0.326849 0.151960 -0.290827 -0.005620 0.102349 0.373074 -0.103493 0.215480 -0.102599 0.190547 0.205932 -0.308530 -0.447843 0.338760 -0.570614 -0.173578 -0.437257
10 -0.260471 -0.336480 0.170868 -0.290836 0.016749 0.114706 0.347138 -0.144877 0.208358 -0.096818 0.210124 0.215131 -0.327554 -0.340334 0.333446 -0.530189 -0.195720 -0.420047
