18 18
0 -0.316806 -0.330107 0.113703 -0.316374 0.147211 0.019422 -0.128808 0.277722 0.398328 -0.338426 0.389849 0.444909 -0.050008 -0.120143 0.349922 -0.447178 0.134311 -0.425435
1 -0.306173 -0.322502 0.113493 -0.280783 0.152315 -0.025615 -0.096181 0.282707 0.407877 -0.306773 0.318638 0.399298 -0.032279 -0.126201 0.279598 -0.412265 0.120278 -0.394760
5 -0.293827 -0.349847 0.079339 -0.288521 0.180475 0.001421 -0.072838 0.211407 0.411736 -0.328717 0.367122 0.438902 -0.076964 -0.104727 0.314171 -0.417455 0.081863 -0.410111
3 -0.329513 -0.315023 0.133919 -0.271001 0.163963 -0.000452 -0.089675 0.258722 0.362367 -0.326979 0.370454 0.409343 -0.091409 -0.129008 0.301789 -0.425835 0.120231 -0.420592
10 -0.337557 -0.345974 0.111249 -0.295343 0.172564 0.020339 -0.112246 0.294996 0.435088 -0.366934 0.407486 0.497086 -0.084077 -0.087784 0.342885 -0.431788 0.100445 -0.423855
4 -0.295944 -0.273495 0.100805 -0.251959 0.168582 -0.025782 -0.123761 0.292984 0.385425 -0.329309 0.380209 0.424571 -0.033875 -0.117984 0.295275 -0.415291 0.102425 -0.414056
14 -0.344060 -0.370877 0.154228 -0.345277 0.195660 0.023863 -0.131745 0.278717 0.418030 -0.343698 0.351769 0.479675 -0.073714 -0.131571 0.347835 -0.451229 0.135721 -0.443302
2 -0.309343 -0.345785 0.111940 -0.317877 0.164580 0.005409 -0.102219 0.291944 0.391745 -0.347736 0.365448 0.473354 -0.047592 -0.138712 0.329420 -0.466485 0.095014 -0.415553
11 -0.372685 -0.368247 0.156446 -0.286503 0.173662 -0.019629 -0.168109 0.273391 0.374324 -0.331633 0.333292 0.438033 -0.091100 -0.052341 0.360106 -0.425806 0.060611 -0.386193
16 -0.330103 -0.309229 0.116090 -0.291411 0.152049 -0.004434 -0.096656 0.305163 0.419142 -0.352837 0.393043 0.479758 -0.066028 -0.104072 0.369377 -0.485338 0.089718 -0.481028
15 -0.328198 -0.333312 0.140862 -0.309316 0.164745 0.038707 -0.094106 0.201599 0.353185 -0.313348 0.343063 0.409046 -0.064328 -0.088402 0.310459 -0.400513 0.069902 -0.391687
8 -0.309735 -0.356216 0.136325 -0.285473 0.143958 0.023052 -0.097074 0.252598 0.378299 -0.302663 0.352339 0.440582 -0.088429 -0.099176 0.348640 -0.427057 0.098535 -0.401503
13 -0.297122 -0.330580 0.130067 -0.311729 0.148004 0.002128 -0.105140 0.237986 0.400408 -0.298526 0.347261 0.430569 -0.050148 -0.122589 0.329589 -0.407851 0.065482 -0.413886
9 -0.322362 -0.317970 0.095554 -0.288166 0.157935 -0.001863 -0.119858 0.282845 0.411624 -0.323282 0.358711 0.452577 -0.054628 -0.126913 0.312756 -0.424861 0.087912 -0.387814
12 -0.385098 -0.375775 0.139232 -0.312117 0.142231 -0.023698 -0.161180 0.245196 0.356875 -0.308442 0.395631 0.499030 -0.086281 -0.054518 0.347217 -0.402730 0.036288 -0.395410
7 -0.265299 -0.297423 0.070447 -0.271870 0.128380 0.019709 -0.090357 0.250068 0.396172 -0.314634 0.331640 0.413629 -0.054816 -0.136149 0.314438 -0.390840 0.102294 -0.388959
6 -0.285012 -0.314992 0.118560 -0.249553 0.159990 0.019664 -0.088659 0.265300 0.372709 -0.307637 0.344786 0.401274 -0.067539 -0.122195 0.317981 -0.398614 0.097060 -0.410054
17 -0.300294 -0.321693 0.113097 -0.255772 0.129118 -0.013368 -0.083744 0.267291 0.409110 -0.293187 0.364163 0.451644 -0.050837 -0.092988 0.298000 -0.385595 0.095158 -0.427471
