18 18
3 -0.455312 -0.251887 0.479890 -0.216331 0.123694 0.029414 0.244711 0.022985 -0.059801 -0.109507 0.243774 0.096507 -0.378879 -0.464694 0.134224 -0.450936 0.163926 -0.581636
16 -0.444542 -0.251207 0.486836 -0.223499 0.105073 0.041626 0.259155 0.002603 -0.039989 -0.080743 0.213297 0.127662 -0.367305 -0.422291 0.177988 -0.437361 0.098255 -0.613000
9 -0.446660 -0.257036 0.431515 -0.237714 0.113473 0.051223 0.193479 0.003110 -0.021116 -0.074344 0.239124 0.152242 -0.368096 -0.448853 0.151279 -0.394527 0.103808 -0.529417
0 -0.435829 -0.274453 0.450596 -0.251989 0.086185 0.057985 0.198105 -0.004435 -0.045144 -0.074174 0.246241 0.130616 -0.347479 -0.413921 0.176076 -0.411974 0.144493 -0.549974
12 -0.458646 -0.279821 0.455387 -0.259297 0.088803 0.033165 0.157840 -0.042411 -0.078575 -0.034337 0.255329 0.165877 -0.363847 -0.394655 0.151182 -0.354626 0.099990 -0.521680
8 -0.430684 -0.285447 0.469053 -0.224164 0.090286 0.042714 0.213961 0.010006 -0.045111 -0.052928 0.220541 0.133421 -0.372425 -0.417305 0.173950 -0.420685 0.138704 -0.545897
10 -0.435485 -0.267663 0.445226 -0.218016 0.150960 0.085323 0.248173 0.011400 -0.003486 -0.126193 0.249726 0.152243 -0.401111 -0.432187 0.153689 -0.405064 0.139558 -0.563951
2 -0.370724 -0.242590 0.411707 -0.208542 0.100166 0.035960 0.214886 0.031867 -0.055535 -0.088181 0.190790 0.120667 -0.298233 -0.399330 0.136099 -0.404352 0.105995 -0.491890
14 -0.438562 -0.264898 0.478009 -0.263055 0.117574 0.049900 0.147399 -0.036044 -0.084563 -0.021905 0.189893 0.157270 -0.360934 -0.402855 0.144878 -0.339683 0.126222 -0.522837
13 -0.410564 -0.251016 0.472246 -0.265072 0.085178 0.034432 0.182283 -0.049711 -0.066908 -0.012212 0.209282 0.114361 -0.335337 -0.434575 0.149703 -0.355516 0.093138 -0.537018
15 -0.458569 -0.277907 0.490414 -0.249623 0.094045 0.063257 0.235290 -0.024441 -0.057215 -0.073276 0.221898 0.099352 -0.332125 -0.394853 0.163894 -0.420258 0.095331 -0.559851
17 -0.430991 -0.265180 0.465119 -0.215731 0.070376 0.021613 0.218010 0.004851 -0.030699 -0.035622 0.233125 0.152601 -0.327659 -0.387984 0.139122 -0.370483 0.111730 -0.565205
1 -0.415357 -0.263062 0.442537 -0.218719 0.112686 0.004555 0.209297 0.038619 -0.013809 -0.085211 0.181582 0.089450 -0.290671 -0.398178 0.119405 -0.405567 0.138880 -0.516087
6 -0.413208 -0.263023 0.450311 -0.192074 0.114903 0.057403 0.240090 0.024353 -0.033623 -0.084529 0.226578 0.109082 -0.355553 -0.434358 0.170006 -0.404737 0.110385 -0.564259
4 -0.429348 -0.226919 0.455166 -0.221266 0.129619 0.025649 0.170655 0.016078 -0.045706 -0.079659 0.258897 0.145857 -0.345342 -0.422636 0.145268 -0.391936 0.128390 -0.568645
7 -0.406512 -0.258970 0.425621 -0.228173 0.101018 0.065276 0.223563 0.017491 -0.004519 -0.097691 0.216142 0.129528 -0.353713 -0.462837 0.170104 -0.402725 0.134975 -0.555601
11 -0.442527 -0.266908 0.441654 -0.195707 0.125811 0.047211 0.202024 0.038981 -0.005186 -0.123619 0.226286 0.123424 -0.370409 -0.394777 0.183631 -0.428138 0.114273 -0.546670
5 -0.411005 -0.276710 0.407676 -0.217474 0.138907 0.033043 0.232033 -0.007728 -0.005057 -0.110829 0.240587 0.142350 -0.356578 -0.406265 0.166166 -0.428165 0.112579 -0.559134
