18 18
10 -0.380144 -0.356940 -0.060785 -0.090302 0.041188 0.051525 0.069607 0.230563 0.691315 -0.216125 0.418055 0.770971 -0.201227 0.139776 0.124114 -0.081410 -0.218641 -0.150791
16 -0.301985 -0.340819 -0.012452 -0.102734 -0.005665 0.033813 0.169851 0.237782 0.625263 -0.151816 0.335066 0.731235 -0.149226 0.020045 0.190495 -0.188066 -0.270625 -0.309281
9 -0.349968 -0.352982 -0.029969 -0.144517 0.003451 0.014208 0.069050 0.211634 0.661136 -0.136817 0.359824 0.719626 -0.124046 0.040228 0.124998 -0.123672 -0.208642 -0.192097
6 -0.196488 -0.352627 0.015533 -0.082070 -0.016640 0.049294 0.242706 0.285753 0.562267 -0.129687 0.319519 0.637584 -0.082227 -0.131509 0.198041 -0.240244 -0.220033 -0.371192
8 -0.311152 -0.393540 0.031687 -0.157624 -0.035479 0.027927 0.122792 0.205068 0.635749 -0.087255 0.318584 0.702869 -0.120454 0.017293 0.179238 -0.166821 -0.192138 -0.263262
3 -0.251359 -0.347527 0.035008 -0.114326 -0.014579 0.033525 0.229905 0.240515 0.578954 -0.132248 0.342484 0.636506 -0.104218 -0.114390 0.165054 -0.234405 -0.179741 -0.373161
17 -0.263299 -0.393365 0.054058 -0.175354 -0.077021 -0.006629 0.195029 0.229162 0.668745 -0.040014 0.320798 0.726299 -0.021844 -0.061238 0.157696 -0.182161 -0.203173 -0.386090
4 -0.224450 -0.323590 0.017694 -0.123609 -0.000995 0.006985 0.170342 0.247008 0.583969 -0.118056 0.330055 0.643021 -0.045343 -0.092587 0.164928 -0.215149 -0.197852 -0.354544
13 -0.247007 -0.367462 0.037962 -0.187427 -0.041521 0.012825 0.175441 0.181941 0.630087 -0.062639 0.306957 0.667018 -0.055007 -0.066030 0.172918 -0.187683 -0.225485 -0.337288
0 -0.276032 -0.397296 0.057581 -0.215589 -0.066466 0.029073 0.154603 0.203132 0.631967 -0.062975 0.328260 0.683586 -0.041305 -0.063145 0.192172 -0.201493 -0.175910 -0.348695
2 -0.181032 -0.377545 0.050037 -0.183957 -0.068837 0.028111 0.235631 0.257276 0.564848 -0.063603 0.264827 0.665441 -0.003279 -0.151921 0.186025 -0.260920 -0.211867 -0.378206
11 -0.383660 -0.370228 -0.013145 -0.104270 0.029587 0.011189 0.056536 0.241161 0.661743 -0.184709 0.372537 0.735193 -0.172507 0.093008 0.162393 -0.139678 -0.236639 -0.210110
12 -0.388264 -0.362789 -0.039546 -0.120321 0.006280 0.008216 0.035782 0.180006 0.619931 -0.153578 0.409301 0.743825 -0.174865 0.122593 0.125634 -0.077523 -0.238701 -0.156075
15 -0.273809 -0.351013 0.053346 -0.173840 -0.017599 0.043908 0.171544 0.160762 0.568786 -0.084545 0.287316 0.635130 -0.063423 -0.028503 0.164578 -0.175886 -0.232988 -0.324683
14 -0.292869 -0.390610 0.075517 -0.207817 -0.015785 0.021951 0.142165 0.191202 0.605142 -0.054982 0.264357 0.714852 -0.074891 -0.044988 0.176369 -0.178833 -0.224817 -0.340496
7 -0.189122 -0.346919 -0.009504 -0.123400 -0.046846 0.057430 0.233016 0.261000 0.615235 -0.123675 0.297310 0.670961 -0.069763 -0.130987 0.207668 -0.220709 -0.220640 -0.369790
1 -0.263449 -0.402398 0.077260 -0.195537 -0.042705 -0.000782 0.193727 0.248307 0.625892 -0.069130 0.272703 0.670039 -0.025347 -0.109398 0.176277 -0.235128 -0.200409 -0.382227
5 -0.210430 -0.360960 -0.017308 -0.126712 0.000045 0.021337 0.224088 0.190622 0.598666 -0.126320 0.339317 0.648954 -0.090146 -0.075181 0.180095 -0.225031 -0.209196 -0.357024
