18 18
6 -0.148409 -0.460156 0.143783 -0.085710 -0.419236 0.132082 0.330089 0.056077 0.171943 0.249725 0.349927 0.582039 -0.180129 -0.187253 0.313366 0.027533 -0.437471 -0.354171
7 -0.116763 -0.446887 0.075657 -0.091587 -0.401847 0.113103 0.307934 0.104058 0.205911 0.173249 0.338170 0.568887 -0.178392 -0.255893 0.300132 -0.046248 -0.343238 -0.308628
11 -0.175894 -0.474680 0.137809 -0.084044 -0.376750 0.091283 0.316934 0.105262 0.195968 0.175380 0.340250 0.588277 -0.202080 -0.202764 0.326744 -0.084060 -0.405114 -0.358094
14 -0.194949 -0.441708 0.280559 -0.221679 -0.371402 0.167944 0.324841 -0.067877 0.128630 0.306532 0.176999 0.524065 -0.119989 -0.117034 0.313838 0.003452 -0.464001 -0.413806
2 -0.126803 -0.438637 0.137820 -0.116960 -0.376129 0.095356 0.340217 0.089460 0.130362 0.183722 0.303822 0.550615 -0.151222 -0.244057 0.277067 -0.110879 -0.382019 -0.332057
17 -0.151838 -0.422359 0.179018 -0.133264 -0.401819 0.104386 0.326988 0.028912 0.188411 0.259945 0.253449 0.540145 -0.113505 -0.150701 0.269697 -0.007656 -0.400800 -0.371500
0 -0.170931 -0.482902 0.158441 -0.153123 -0.418638 0.131844 0.328870 0.062084 0.179091 0.213098 0.339454 0.586778 -0.166084 -0.217294 0.333075 -0.078836 -0.389685 -0.368098
3 -0.163052 -0.432024 0.155250 -0.088396 -0.357232 0.086189 0.361667 0.098335 0.147717 0.162338 0.326751 0.527123 -0.198985 -0.275800 0.270603 -0.134717 -0.330475 -0.379198
8 -0.138529 -0.463401 0.146596 -0.089843 -0.377385 0.092362 0.349833 0.113881 0.173792 0.183533 0.301319 0.537160 -0.187827 -0.259848 0.307111 -0.146392 -0.327007 -0.355890
13 -0.150782 -0.427074 0.239014 -0.195673 -0.394890 0.136777 0.352513 -0.028652 0.168386 0.285878 0.203556 0.492086 -0.106740 -0.185457 0.318798 -0.044280 -0.465465 -0.415075
5 -0.141892 -0.457368 0.111613 -0.098631 -0.341305 0.093143 0.363048 0.059940 0.192044 0.157190 0.330291 0.561280 -0.193824 -0.220270 0.299299 -0.117801 -0.374160 -0.377766
9 -0.149623 -0.431382 0.114404 -0.114005 -0.365273 0.097663 0.327667 0.097445 0.201823 0.179720 0.299286 0.556340 -0.162125 -0.257376 0.280383 -0.104596 -0.369885 -0.330041
10 -0.148769 -0.481080 0.102416 -0.093206 -0.414888 0.145267 0.350706 0.072999 0.212324 0.199889 0.380726 0.634612 -0.216687 -0.194631 0.301369 -0.000153 -0.410297 -0.316896
15 -0.216290 -0.408969 0.314284 -0.246969 -0.364615 0.191093 0.324122 -0.134768 0.124486 0.320577 0.157817 0.469600 -0.072480 -0.046545 0.313268 0.030207 -0.521098 -0.430099
16 -0.190752 -0.368879 0.323275 -0.228816 -0.378219 0.163119 0.363828 -0.133444 0.118727 0.346164 0.105252 0.469560 -0.079672 -0.029795 0.323795 0.004281 -0.550322 -0.480192
1 -0.184855 -0.488580 0.201447 -0.160796 -0.369834 0.082165 0.343976 0.089068 0.190071 0.209316 0.275542 0.547588 -0.140008 -0.255006 0.288327 -0.127696 -0.362992 -0.393095
12 -0.193302 -0.451286 0.177542 -0.158578 -0.408473 0.105830 0.277290 -0.037878 0.109303 0.281838 0.335101 0.575206 -0.150122 -0.126304 0.280538 0.049613 -0.460616 -0.330843
4 -0.152241 -0.427578 0.145721 -0.089849 -0.365620 0.083736 0.314879 0.110770 0.169939 0.178947 0.358248 0.568510 -0.159530 -0.248809 0.285964 -0.091158 -0.370611 -0.374527
