18 18
10 -0.329691 -0.604804 0.206303 -0.513475 0.205762 0.179412 -0.050444 -0.141884 0.282625 -0.010499 -0.021520 0.616047 -0.284875 -0.064306 0.296628 -0.138405 -0.117594 -0.159861
2 -0.218583 -0.553909 0.127788 -0.469787 0.172296 0.096571 -0.018640 -0.026120 0.164342 -0.062591 0.042216 0.618608 -0.215288 -0.227507 0.300931 -0.297680 -0.109608 -0.201054
4 -0.249813 -0.534637 0.150756 -0.458848 0.197112 0.079781 -0.053137 -0.027472 0.202261 -0.059355 0.056764 0.612549 -0.217229 -0.207679 0.302399 -0.276839 -0.094860 -0.235965
0 -0.273594 -0.566006 0.164441 -0.496988 0.154982 0.134168 -0.053297 -0.087190 0.209156 -0.023465 0.032999 0.575993 -0.223291 -0.152376 0.312599 -0.224484 -0.089755 -0.189032
9 -0.280747 -0.551231 0.151264 -0.474030 0.169218 0.120712 -0.048511 -0.079601 0.241196 -0.013750 -0.002930 0.577430 -0.229255 -0.160872 0.283604 -0.206420 -0.112626 -0.163487
17 -0.249463 -0.547262 0.156477 -0.429123 0.148384 0.080480 -0.012952 -0.045632 0.209747 -0.020299 0.045787 0.601556 -0.214075 -0.160210 0.277986 -0.226933 -0.095833 -0.237191
11 -0.282166 -0.544101 0.180351 -0.435280 0.170748 0.114306 -0.061710 -0.067827 0.235378 -0.026888 -0.029351 0.538449 -0.236631 -0.096618 0.314431 -0.208995 -0.121074 -0.173795
1 -0.280043 -0.570046 0.183038 -0.478710 0.184391 0.082514 -0.042174 -0.042636 0.223109 -0.032125 -0.000352 0.568042 -0.208471 -0.185284 0.287959 -0.256460 -0.087691 -0.213699
6 -0.241088 -0.551180 0.158948 -0.442298 0.183038 0.116977 -0.017392 -0.045044 0.188135 -0.039950 0.035831 0.567939 -0.231273 -0.204119 0.307211 -0.248153 -0.105732 -0.220252
8 -0.254874 -0.607729 0.172423 -0.468750 0.169492 0.107965 -0.006768 -0.053380 0.204497 -0.021815 0.016290 0.614815 -0.263007 -0.200580 0.340778 -0.298197 -0.089311 -0.232016
5 -0.234949 -0.551868 0.112167 -0.446566 0.191757 0.083368 -0.008101 -0.071296 0.208922 -0.065820 0.056826 0.585976 -0.236791 -0.189475 0.308120 -0.285211 -0.104880 -0.230514
12 -0.333068 -0.629011 0.197076 -0.523608 0.184969 0.116351 -0.066905 -0.132401 0.211323 -0.001673 0.033395 0.650966 -0.275103 -0.123226 0.317795 -0.198258 -0.138443 -0.204060
3 -0.238787 -0.507307 0.157186 -0.419282 0.175608 0.087650 -0.004765 -0.039679 0.143836 -0.058328 0.054546 0.530764 -0.239614 -0.226763 0.266626 -0.272605 -0.052120 -0.226299
14 -0.297306 -0.575004 0.218164 -0.495410 0.199128 0.141164 -0.063216 -0.125571 0.204350 0.009923 -0.050220 0.569156 -0.257550 -0.112636 0.294925 -0.174499 -0.092711 -0.183436
13 -0.274840 -0.595025 0.203803 -0.523365 0.179993 0.130450 -0.039753 -0.119352 0.245951 0.008746 -0.031867 0.584650 -0.241500 -0.164960 0.324346 -0.212800 -0.132921 -0.208213
7 -0.216486 -0.543998 0.125279 -0.467702 0.146233 0.128825 -0.023202 -0.050218 0.230394 -0.040646 0.001500 0.574576 -0.218820 -0.215604 0.326412 -0.244538 -0.093901 -0.204457
15 -0.274345 -0.526062 0.176304 -0.455734 0.167643 0.137978 -0.026084 -0.102920 0.206104 -0.029268 0.003455 0.527445 -0.216405 -0.122493 0.292701 -0.210639 -0.124081 -0.189513
16 -0.306503 -0.591807 0.203028 -0.509879 0.187811 0.130139 -0.032094 -0.107868 0.247021 -0.012182 -0.024265 0.627149 -0.270222 -0.120239 0.344840 -0.236390 -0.143856 -0.237009
