18 18
10 -0.236728 -0.555491 0.125252 -0.444965 0.031300 0.230610 0.336754 -0.227328 0.261082 -0.125983 0.184455 0.457741 -0.281423 -0.048134 0.379101 -0.415263 -0.194059 -0.342143
1 -0.261580 -0.558779 0.170588 -0.455916 0.025095 0.182410 0.301389 -0.199971 0.239571 -0.100719 0.142217 0.404383 -0.235211 -0.080712 0.367053 -0.436709 -0.175402 -0.363173
2 -0.210845 -0.535325 0.137574 -0.454760 0.011157 0.203190 0.319215 -0.215689 0.194873 -0.101476 0.146541 0.434385 -0.236633 -0.083028 0.380084 -0.448436 -0.223404 -0.342637
5 -0.230519 -0.531895 0.134008 -0.438869 0.037106 0.164563 0.299392 -0.278477 0.204949 -0.079704 0.157409 0.412013 -0.249629 -0.043941 0.382719 -0.411830 -0.246123 -0.380013
13 -0.215258 -0.519203 0.169834 -0.471978 0.009699 0.187911 0.293952 -0.277005 0.191364 -0.051221 0.135364 0.383915 -0.227587 -0.087169 0.390578 -0.405767 -0.247694 -0.370966
15 -0.250379 -0.519780 0.164644 -0.449235 0.027790 0.220101 0.294678 -0.259986 0.199030 -0.097299 0.165965 0.397719 -0.245298 -0.054564 0.388527 -0.409685 -0.227477 -0.366280
12 -0.242029 -0.498853 0.147036 -0.422911 0.004838 0.161802 0.243164 -0.243599 0.162052 -0.055881 0.162087 0.397201 -0.227068 -0.049367 0.345910 -0.357656 -0.221667 -0.320166
3 -0.244450 -0.492102 0.165888 -0.409922 0.027339 0.177594 0.294159 -0.215937 0.167743 -0.097747 0.164527 0.378306 -0.257574 -0.087698 0.347572 -0.419742 -0.176092 -0.364898
0 -0.215699 -0.490939 0.139835 -0.435663 -0.001973 0.198019 0.260138 -0.234665 0.176501 -0.078107 0.160135 0.372403 -0.221473 -0.062147 0.372213 -0.387774 -0.176323 -0.331238
4 -0.221957 -0.481483 0.139050 -0.409249 0.029004 0.173239 0.267451 -0.186347 0.212434 -0.106518 0.188221 0.417683 -0.221742 -0.076613 0.359610 -0.411070 -0.188208 -0.367595
17 -0.224981 -0.494445 0.134032 -0.372463 -0.010090 0.166952 0.288651 -0.180051 0.239018 -0.067408 0.153326 0.417350 -0.223534 -0.031360 0.325678 -0.350183 -0.171730 -0.337706
14 -0.263160 -0.560939 0.195948 -0.479055 0.033294 0.198526 0.273321 -0.277283 0.177072 -0.047022 0.112654 0.426142 -0.259478 -0.051720 0.376986 -0.379451 -0.215491 -0.360011
9 -0.253475 -0.542960 0.128980 -0.457318 0.019704 0.209082 0.293563 -0.221147 0.245334 -0.095785 0.148042 0.430570 -0.253081 -0.087983 0.374829 -0.415158 -0.210973 -0.326221
7 -0.198042 -0.503805 0.111223 -0.426367 -0.005490 0.212127 0.292996 -0.213888 0.232989 -0.090127 0.124291 0.396200 -0.233207 -0.084351 0.368707 -0.372509 -0.180474 -0.326104
11 -0.260584 -0.550651 0.157645 -0.425470 0.031088 0.187516 0.285842 -0.189173 0.235537 -0.122676 0.149124 0.419100 -0.269209 -0.052655 0.403262 -0.451763 -0.201598 -0.353466
8 -0.232084 -0.546964 0.155200 -0.424931 0.000230 0.208686 0.306408 -0.216472 0.205610 -0.073070 0.132272 0.394776 -0.264273 -0.058591 0.385696 -0.413221 -0.174033 -0.330482
16 -0.251192 -0.531287 0.162554 -0.454460 0.015528 0.198311 0.316474 -0.258810 0.207667 -0.084204 0.144871 0.429270 -0.266796 -0.037809 0.406155 -0.429323 -0.244276 -0.388033
6 -0.220061 -0.501350 0.158363 -0.390905 0.020488 0.192882 0.289548 -0.196944 0.182931 -0.083887 0.162016 0.381538 -0.244511 -0.080740 0.377781 -0.402338 -0.201151 -0.367701
