18 18
11 -0.302793 -0.489790 0.230426 -0.194710 0.068985 0.135323 0.162632 0.163727 0.381868 -0.193976 0.146159 0.386766 -0.229860 -0.054554 0.412421 -0.414474 -0.088110 -0.398488
0 -0.283671 -0.436483 0.191942 -0.210138 0.044859 0.182779 0.190682 0.105812 0.351519 -0.181104 0.215479 0.343988 -0.201726 -0.066104 0.372219 -0.373769 -0.051085 -0.386782
2 -0.285604 -0.503516 0.232584 -0.214658 0.064786 0.153705 0.212201 0.169057 0.354284 -0.196210 0.177142 0.410205 -0.209919 -0.096303 0.389525 -0.443520 -0.089318 -0.411655
15 -0.322354 -0.479517 0.233591 -0.225708 0.067112 0.200657 0.219601 0.105318 0.380338 -0.197687 0.195371 0.367535 -0.209071 -0.059665 0.386130 -0.404113 -0.105536 -0.413140
9 -0.319321 -0.479065 0.199339 -0.208365 0.068348 0.181268 0.209691 0.153745 0.420586 -0.202364 0.197522 0.398939 -0.217936 -0.094837 0.381746 -0.417829 -0.097771 -0.395526
10 -0.278425 -0.461249 0.200973 -0.190745 0.070318 0.185862 0.207592 0.125908 0.382292 -0.194223 0.188827 0.380289 -0.224973 -0.044311 0.361792 -0.362037 -0.075601 -0.373002
14 -0.313766 -0.502798 0.258843 -0.220192 0.089350 0.159527 0.176259 0.148693 0.359714 -0.177904 0.159536 0.407113 -0.230570 -0.078427 0.387103 -0.401590 -0.063884 -0.420669
5 -0.276494 -0.451723 0.172376 -0.183085 0.083122 0.152238 0.223698 0.089445 0.375434 -0.191846 0.223333 0.368572 -0.223300 -0.048565 0.361305 -0.384633 -0.079416 -0.413312
7 -0.254627 -0.484519 0.202248 -0.235432 0.014799 0.176715 0.183229 0.149916 0.386900 -0.172660 0.132402 0.394024 -0.203512 -0.122428 0.426047 -0.400723 -0.077015 -0.394377
4 -0.327144 -0.467515 0.236836 -0.189066 0.101799 0.138434 0.184570 0.182630 0.397780 -0.216362 0.244554 0.407803 -0.207740 -0.081827 0.376843 -0.430260 -0.072181 -0.461251
1 -0.319638 -0.479016 0.234944 -0.207412 0.082346 0.135320 0.192767 0.155577 0.391236 -0.188511 0.175476 0.359275 -0.196900 -0.082203 0.347839 -0.401376 -0.057644 -0.407121
3 -0.337611 -0.487208 0.255739 -0.197323 0.090473 0.165135 0.217389 0.154376 0.365682 -0.212148 0.202495 0.374932 -0.254284 -0.103214 0.380492 -0.440319 -0.058338 -0.442060
16 -0.302170 -0.466715 0.219547 -0.211256 0.054616 0.182819 0.226045 0.116329 0.387317 -0.188974 0.180088 0.393754 -0.236622 -0.044971 0.418839 -0.421034 -0.109552 -0.436638
6 -0.310391 -0.483801 0.231648 -0.174686 0.078330 0.181343 0.221529 0.162855 0.388470 -0.197393 0.215932 0.377177 -0.229969 -0.086302 0.396436 -0.409305 -0.085533 -0.439152
12 -0.318109 -0.495680 0.213555 -0.243585 0.033289 0.165230 0.180719 0.092549 0.363084 -0.161291 0.204591 0.416766 -0.219950 -0.058623 0.395052 -0.379915 -0.118515 -0.393582
17 -0.305136 -0.480166 0.222733 -0.190289 0.035087 0.152795 0.222692 0.142708 0.407393 -0.164058 0.206942 0.410746 -0.202322 -0.048752 0.362825 -0.367387 -0.079816 -0.435794
13 -0.274373 -0.473880 0.228621 -0.226566 0.047579 0.153054 0.196995 0.118939 0.375661 -0.158782 0.158901 0.368964 -0.202507 -0.095366 0.397358 -0.404021 -0.109611 -0.412418
8 -0.258769 -0.481177 0.223022 -0.194672 0.011165 0.148520 0.183997 0.136101 0.338882 -0.127548 0.124382 0.357080 -0.210566 -0.072898 0.394919 -0.390135 -0.067386 -0.363975
