18 18
1 -0.302979 -0.432934 0.320930 -0.161211 0.048573 -0.082958 0.143392 0.471632 0.263631 -0.071015 0.159270 0.559223 -0.030256 -0.210674 0.139545 -0.433284 -0.098585 -0.373206
0 -0.286282 -0.443085 0.300013 -0.172428 0.010860 -0.031179 0.141852 0.441436 0.252446 -0.061580 0.202593 0.581885 -0.042348 -0.193497 0.198248 -0.428576 -0.107230 -0.363433
2 -0.249467 -0.391406 0.298006 -0.106604 0.065438 -0.071130 0.197400 0.526403 0.205169 -0.120424 0.193563 0.584645 -0.041288 -0.242324 0.136198 -0.498778 -0.107626 -0.401142
9 -0.295533 -0.415878 0.293767 -0.149034 0.036064 -0.044117 0.155985 0.489652 0.284149 -0.077774 0.175551 0.593523 -0.041457 -0.245072 0.173829 -0.449912 -0.133102 -0.374989
16 -0.285560 -0.390355 0.306782 -0.130388 0.036313 -0.069527 0.172225 0.468101 0.256851 -0.073956 0.158429 0.575514 -0.051186 -0.173988 0.165769 -0.440162 -0.129482 -0.403211
8 -0.273673 -0.420582 0.316159 -0.111582 0.037038 -0.047268 0.177069 0.495559 0.259119 -0.070661 0.167490 0.579120 -0.073499 -0.206853 0.183119 -0.460590 -0.092411 -0.391688
12 -0.309533 -0.450034 0.303679 -0.171194 0.011693 -0.074038 0.128716 0.427505 0.249181 -0.040603 0.210049 0.601927 -0.052834 -0.173867 0.155311 -0.370550 -0.144485 -0.337001
15 -0.315540 -0.449630 0.342018 -0.170014 0.044847 -0.002101 0.179403 0.451554 0.259775 -0.084861 0.174740 0.567601 -0.044501 -0.224038 0.213180 -0.476785 -0.144575 -0.418085
6 -0.295505 -0.455096 0.352217 -0.113616 0.067241 -0.008128 0.204009 0.555653 0.259729 -0.105086 0.191539 0.594269 -0.069266 -0.302034 0.229912 -0.522230 -0.114717 -0.466907
10 -0.297209 -0.431104 0.313392 -0.121643 0.082130 -0.053342 0.198902 0.535320 0.299789 -0.134629 0.231986 0.653012 -0.080406 -0.195738 0.145803 -0.465633 -0.115791 -0.409053
5 -0.282583 -0.436223 0.277293 -0.129464 0.071317 -0.069849 0.188218 0.442790 0.273655 -0.099827 0.208644 0.591477 -0.075482 -0.184559 0.172905 -0.462071 -0.125003 -0.405622
13 -0.254904 -0.418999 0.301664 -0.164698 0.014111 -0.051506 0.159388 0.427279 0.276578 -0.048343 0.166745 0.553636 -0.034584 -0.206291 0.179434 -0.399209 -0.159225 -0.363643
17 -0.281180 -0.419553 0.304502 -0.115041 0.017309 -0.074471 0.177376 0.477578 0.281984 -0.053966 0.186729 0.598564 -0.037571 -0.175803 0.148369 -0.407856 -0.116280 -0.403693
11 -0.282576 -0.398764 0.281501 -0.122505 0.057522 -0.061410 0.114443 0.412538 0.243800 -0.092280 0.171871 0.516885 -0.067796 -0.141723 0.168061 -0.389028 -0.124919 -0.329647
14 -0.300738 -0.437712 0.333676 -0.160971 0.061363 -0.038811 0.145215 0.458980 0.233306 -0.063668 0.151834 0.590515 -0.064087 -0.207759 0.170940 -0.431935 -0.095835 -0.379286
7 -0.263349 -0.425752 0.302134 -0.150492 0.022483 -0.002782 0.168360 0.506106 0.278457 -0.098098 0.151340 0.559817 -0.038714 -0.285350 0.220502 -0.461987 -0.100126 -0.404587
3 -0.316456 -0.397011 0.357092 -0.111856 0.094714 -0.065009 0.203470 0.546936 0.213654 -0.138273 0.215052 0.588549 -0.086007 -0.282432 0.144352 -0.537116 -0.069519 -0.464178
4 -0.282799 -0.366203 0.312971 -0.108573 0.086005 -0.078915 0.148023 0.520564 0.243817 -0.120007 0.206484 0.573467 -0.035426 -0.225678 0.141833 -0.469313 -0.094871 -0.419372
