18 18
0 -0.427139 -0.440582 0.145014 -0.309062 -0.043242 0.082160 0.056347 0.088124 0.415358 -0.130248 0.175951 0.515403 -0.125481 0.028845 0.477141 -0.390256 -0.255818 -0.461274
6 -0.418944 -0.435416 0.139656 -0.268480 -0.001146 0.085551 0.044229 0.090818 0.400368 -0.118366 0.172310 0.516924 -0.144750 0.011298 0.436622 -0.328797 -0.278313 -0.416187
9 -0.445913 -0.436902 0.117495 -0.314276 0.004181 0.077842 0.015169 0.072350 0.420494 -0.121583 0.164628 0.549339 -0.137074 0.004645 0.410143 -0.331566 -0.292041 -0.362719
14 -0.444627 -0.448159 0.175149 -0.350715 0.053967 0.085887 -0.038983 0.006538 0.315805 -0.095584 0.117827 0.507073 -0.147360 0.028233 0.374431 -0.278059 -0.263722 -0.317400
12 -0.466923 -0.464179 0.144657 -0.334676 -0.012838 0.067831 -0.002808 0.021238 0.357029 -0.094646 0.184205 0.556662 -0.156695 0.041688 0.422451 -0.304827 -0.309399 -0.369025
11 -0.425561 -0.427359 0.149838 -0.288605 0.032677 0.057024 0.004425 0.068550 0.373836 -0.145824 0.139450 0.485885 -0.141572 0.046189 0.418822 -0.348716 -0.281448 -0.374936
1 -0.423984 -0.428452 0.158613 -0.299505 0.025804 0.020676 0.055487 0.102375 0.407219 -0.155323 0.148577 0.462979 -0.096930 0.013780 0.395298 -0.405375 -0.248438 -0.435078
5 -0.366095 -0.406193 0.090262 -0.270777 0.028112 0.048490 0.067254 0.040079 0.388870 -0.142429 0.164489 0.474870 -0.132102 0.028606 0.383846 -0.346906 -0.258914 -0.382099
2 -0.365708 -0.389898 0.133355 -0.290483 0.024518 0.047379 0.052292 0.093906 0.328769 -0.161848 0.144034 0.450047 -0.084523 0.000316 0.373937 -0.398239 -0.262841 -0.368276
7 -0.335448 -0.385487 0.076670 -0.239874 -0.101631 0.102610 0.094731 0.120076 0.469457 -0.090828 0.119839 0.516070 -0.112878 -0.007442 0.449376 -0.299605 -0.236109 -0.429522
15 -0.447710 -0.439856 0.165770 -0.332608 0.025774 0.092567 0.019089 0.019836 0.353462 -0.129568 0.160988 0.489536 -0.131782 0.038818 0.414222 -0.338411 -0.295111 -0.379185
4 -0.412259 -0.397744 0.139932 -0.274951 0.005428 0.045358 0.035150 0.116268 0.408952 -0.150860 0.182616 0.505518 -0.106045 0.017282 0.423889 -0.380314 -0.257749 -0.444482
13 -0.416375 -0.425980 0.157677 -0.342808 0.019575 0.076552 0.001294 -0.007750 0.349124 -0.088479 0.128810 0.484100 -0.144236 0.010060 0.406561 -0.295746 -0.310382 -0.353693
16 -0.366473 -0.365831 0.123886 -0.225263 -0.053466 0.061623 0.105138 0.104024 0.401564 -0.108494 0.127901 0.479464 -0.128514 0.044685 0.441221 -0.356627 -0.263842 -0.462692
3 -0.423906 -0.405339 0.155524 -0.276417 0.010456 0.060681 0.068568 0.073034 0.367232 -0.148308 0.165391 0.459954 -0.153590 -0.003677 0.406696 -0.381307 -0.241577 -0.427495
17 -0.376522 -0.402226 0.108403 -0.226420 -0.094788 0.064932 0.103562 0.126797 0.476027 -0.079963 0.156025 0.539832 -0.107970 0.030151 0.425265 -0.308247 -0.245799 -0.463401
10 -0.369761 -0.397168 0.107727 -0.262843 -0.014151 0.102571 0.065681 0.069753 0.408402 -0.124240 0.151337 0.492414 -0.137743 0.041662 0.390972 -0.289777 -0.233775 -0.367457
8 -0.357162 -0.423512 0.115557 -0.225857 -0.108359 0.090249 0.108772 0.132844 0.461531 -0.065405 0.120283 0.519279 -0.132815 0.013871 0.461742 -0.331530 -0.223028 -0.441317
