18 18
8 -0.245187 -0.412665 0.193052 -0.142765 0.007659 -0.032559 -0.042526 0.331288 0.315862 0.022095 0.296168 0.461645 -0.146892 -0.359625 0.375517 -0.417995 0.044051 -0.368717
4 -0.326626 -0.422466 0.218520 -0.177059 0.075623 -0.089815 -0.076913 0.338942 0.338593 -0.021594 0.369848 0.483333 -0.118218 -0.396334 0.333833 -0.422928 0.021364 -0.436261
0 -0.226075 -0.387443 0.221758 -0.204898 -0.035284 -0.003688 -0.068411 0.278638 0.313314 0.081923 0.273569 0.500409 -0.107171 -0.312977 0.357469 -0.325137 0.066886 -0.404637
12 -0.418216 -0.475507 0.260292 -0.209568 0.095094 -0.113356 -0.058351 0.243867 0.251187 -0.005348 0.361731 0.416161 -0.151750 -0.382433 0.256261 -0.369226 0.005615 -0.397113
9 -0.288941 -0.428712 0.189199 -0.186354 0.027018 -0.041037 -0.061408 0.332190 0.357419 0.022959 0.329997 0.526359 -0.132472 -0.394520 0.343182 -0.388667 0.027652 -0.387395
16 -0.261515 -0.398361 0.240149 -0.189970 -0.001380 -0.038939 -0.039817 0.299188 0.353352 0.071353 0.274369 0.538245 -0.134847 -0.334725 0.369840 -0.355681 0.019457 -0.464626
10 -0.239627 -0.400203 0.211215 -0.173220 0.013755 -0.009399 -0.043691 0.316363 0.363696 0.040785 0.300866 0.529960 -0.133749 -0.326569 0.341927 -0.331472 0.052988 -0.403558
13 -0.150370 -0.341316 0.229204 -0.194722 -0.052512 -0.013258 -0.049987 0.264760 0.339725 0.141159 0.200422 0.501049 -0.085435 -0.324370 0.342330 -0.267219 0.035043 -0.415532
7 -0.342193 -0.459440 0.233544 -0.198756 0.059438 -0.074657 -0.042118 0.324159 0.354776 -0.011125 0.345967 0.469100 -0.141550 -0.450129 0.341727 -0.413333 0.032805 -0.456214
14 -0.213388 -0.403049 0.285740 -0.228784 -0.021356 -0.011970 -0.083423 0.272107 0.361772 0.160072 0.209825 0.594171 -0.102246 -0.297187 0.334672 -0.226159 0.075146 -0.458893
1 -0.430976 -0.490667 0.301260 -0.219127 0.124989 -0.140663 -0.056500 0.298696 0.296709 -0.011615 0.324107 0.395024 -0.127036 -0.420036 0.248832 -0.414063 0.042861 -0.432261
5 -0.329617 -0.468763 0.197140 -0.188404 0.084839 -0.076467 -0.029357 0.269575 0.332226 -0.023338 0.355527 0.471263 -0.161380 -0.372791 0.330203 -0.420453 0.015956 -0.418173
6 -0.373039 -0.461941 0.260166 -0.151511 0.099588 -0.094527 -0.030214 0.314579 0.268339 -0.019361 0.354738 0.395400 -0.159739 -0.425515 0.299897 -0.414270 0.021507 -0.424819
2 -0.229063 -0.400934 0.204613 -0.180674 0.002172 -0.030879 -0.042490 0.304708 0.283819 0.043254 0.263992 0.490749 -0.106962 -0.335420 0.326091 -0.366644 0.025726 -0.364225
17 -0.218988 -0.387876 0.249152 -0.173949 -0.043912 -0.044648 -0.044190 0.288836 0.357724 0.132593 0.249600 0.545976 -0.089337 -0.292579 0.309257 -0.251245 0.054012 -0.449143
3 -0.395576 -0.429070 0.295905 -0.184810 0.106435 -0.101057 -0.025979 0.258419 0.223092 -0.005635 0.308621 0.356711 -0.164508 -0.413872 0.227572 -0.381192 0.063779 -0.417672
11 -0.334816 -0.443878 0.235127 -0.177147 0.066453 -0.069113 -0.070038 0.317064 0.329025 -0.013545 0.307224 0.466190 -0.153174 -0.356488 0.346951 -0.412478 0.022548 -0.409702
15 -0.356191 -0.439020 0.272931 -0.210126 0.071989 -0.046713 -0.032575 0.247802 0.285231 0.011204 0.306020 0.423599 -0.134028 -0.354190 0.290918 -0.365608 0.021589 -0.421065
