18 18
12 -0.213125 -0.351638 0.159147 -0.286228 -0.166223 -0.053268 0.230479 -0.079427 0.106994 0.022187 0.114264 0.467574 -0.160717 -0.010732 0.411204 -0.364744 -0.569960 -0.424021
5 -0.104000 -0.292913 0.016542 -0.073742 0.122817 0.034192 0.394825 -0.070344 0.251679 -0.246798 0.299388 0.358483 -0.240411 0.006658 0.432467 -0.477873 -0.548404 -0.543090
17 -0.198771 -0.306945 0.169551 -0.237224 -0.172339 -0.079566 0.226209 -0.038322 0.139556 0.036021 0.094680 0.447689 -0.130537 -0.003703 0.372884 -0.333256 -0.518784 -0.453982
4 -0.163900 -0.277315 0.112589 -0.172789 -0.009700 -0.032444 0.274691 -0.042537 0.167898 -0.116959 0.212168 0.406632 -0.169479 -0.007755 0.415296 -0.423150 -0.554396 -0.503664
16 -0.223139 -0.358389 0.217890 -0.350668 -0.258066 -0.081789 0.252542 -0.034138 0.124446 0.072664 -0.026769 0.505958 -0.154444 -0.022770 0.475388 -0.447515 -0.586351 -0.462638
11 -0.197455 -0.334677 0.158472 -0.242766 -0.086931 -0.050417 0.233487 -0.009233 0.156408 -0.062526 0.083806 0.422615 -0.167714 -0.025123 0.433385 -0.444460 -0.531348 -0.438470
10 -0.153931 -0.281877 0.084124 -0.176351 0.003496 0.042176 0.307478 -0.096309 0.169550 -0.136531 0.221489 0.402883 -0.203132 0.035768 0.394777 -0.376238 -0.562434 -0.446675
0 -0.219054 -0.402030 0.196176 -0.350424 -0.208880 -0.038207 0.261577 -0.029501 0.146659 0.006864 0.090566 0.492420 -0.148230 -0.058027 0.490155 -0.476337 -0.550759 -0.483804
2 -0.146653 -0.347951 0.145044 -0.267116 -0.155663 -0.028236 0.293819 0.014698 0.132491 -0.037661 0.066991 0.430336 -0.132497 -0.076399 0.394970 -0.453646 -0.491820 -0.401497
1 -0.207014 -0.414206 0.203101 -0.303372 -0.176273 -0.087563 0.284139 0.064377 0.213330 -0.011356 0.026810 0.453176 -0.124502 -0.099795 0.418384 -0.484805 -0.451794 -0.467107
14 -0.230723 -0.363142 0.224291 -0.334825 -0.181227 -0.060034 0.208117 -0.054819 0.095703 0.059268 0.031811 0.486809 -0.151701 -0.037384 0.425372 -0.385568 -0.543752 -0.450337
15 -0.168256 -0.300697 0.105836 -0.178219 0.018738 0.041648 0.325119 -0.090683 0.174660 -0.151949 0.222641 0.374197 -0.189960 0.011961 0.420206 -0.430271 -0.561258 -0.492148
3 -0.188155 -0.304894 0.155369 -0.210778 -0.092539 -0.038900 0.282978 -0.012430 0.136897 -0.068886 0.125349 0.385324 -0.180890 -0.064119 0.383129 -0.434446 -0.466067 -0.455405
7 -0.204852 -0.505825 0.233537 -0.419371 -0.345574 -0.082624 0.326385 0.104190 0.253614 0.050356 -0.065735 0.575152 -0.131440 -0.174505 0.554616 -0.578688 -0.525561 -0.522165
9 -0.186718 -0.343472 0.116271 -0.241348 -0.080092 -0.013100 0.308139 -0.024042 0.205556 -0.083479 0.157947 0.464879 -0.177660 -0.053732 0.439058 -0.462201 -0.568243 -0.477664
13 -0.146357 -0.276150 0.143972 -0.259444 -0.105467 -0.016761 0.251729 -0.102311 0.107827 -0.010522 0.085326 0.370951 -0.144012 -0.023156 0.396223 -0.374445 -0.558510 -0.410141
6 -0.138710 -0.301311 0.099437 -0.123396 0.016052 0.022139 0.342653 -0.038729 0.183938 -0.145651 0.229793 0.378701 -0.208500 -0.011544 0.436659 -0.429845 -0.555375 -0.522128
8 -0.216743 -0.515630 0.271108 -0.399243 -0.371407 -0.097023 0.312668 0.105192 0.221394 0.117972 -0.094943 0.554276 -0.134188 -0.136727 0.514959 -0.541402 -0.462916 -0.483400
