18 18
8 -0.323462 -0.456511 0.096741 -0.240044 -0.122071 0.086369 0.280953 0.162118 0.539349 -0.099374 0.253536 0.620033 -0.183425 -0.165199 0.193129 -0.228383 -0.161114 -0.329887
10 -0.316103 -0.396608 0.038313 -0.212176 -0.071918 0.093309 0.267515 0.146489 0.532241 -0.156353 0.311366 0.624862 -0.197724 -0.131332 0.117278 -0.151267 -0.151263 -0.279866
3 -0.371593 -0.395315 0.098116 -0.231045 -0.088958 0.065015 0.266048 0.156835 0.480889 -0.145312 0.323355 0.617254 -0.212847 -0.191995 0.121403 -0.220172 -0.129726 -0.328271
0 -0.334495 -0.443296 0.087136 -0.288519 -0.133230 0.105537 0.253504 0.130785 0.504103 -0.117824 0.303911 0.615944 -0.165313 -0.171215 0.197405 -0.223621 -0.149428 -0.321252
1 -0.315265 -0.469067 0.120251 -0.296169 -0.089444 0.070158 0.269349 0.159055 0.541111 -0.118237 0.206142 0.538238 -0.113818 -0.186881 0.189941 -0.242881 -0.155406 -0.357502
15 -0.322112 -0.438319 0.093689 -0.273190 -0.098994 0.115136 0.278701 0.109557 0.518444 -0.121334 0.261604 0.584199 -0.160169 -0.155430 0.195299 -0.212617 -0.190713 -0.327681
13 -0.286975 -0.477158 0.094212 -0.298058 -0.121890 0.104099 0.316962 0.134434 0.597181 -0.101193 0.231420 0.620249 -0.160304 -0.207833 0.232415 -0.235860 -0.210710 -0.364805
9 -0.318224 -0.415831 0.042320 -0.250928 -0.099410 0.081671 0.264107 0.163602 0.561800 -0.124149 0.266074 0.640576 -0.162593 -0.187362 0.150165 -0.196092 -0.184509 -0.283033
5 -0.308414 -0.431590 0.045440 -0.229760 -0.076662 0.068714 0.279784 0.124775 0.533881 -0.143443 0.294953 0.608929 -0.188976 -0.146821 0.173254 -0.218905 -0.173911 -0.334074
2 -0.311681 -0.427179 0.075896 -0.262501 -0.103891 0.079225 0.273982 0.171267 0.503178 -0.135953 0.273817 0.628636 -0.155938 -0.190694 0.157492 -0.232127 -0.183266 -0.313695
7 -0.261789 -0.425827 0.049713 -0.262042 -0.129937 0.110966 0.276613 0.144345 0.554673 -0.113338 0.218582 0.588149 -0.146265 -0.188750 0.211285 -0.200548 -0.172863 -0.317734
12 -0.336658 -0.420141 0.069661 -0.253665 -0.114254 0.059515 0.237173 0.114145 0.494816 -0.096182 0.293894 0.624418 -0.171803 -0.151249 0.149806 -0.167956 -0.190618 -0.295039
6 -0.297568 -0.460576 0.084235 -0.237572 -0.104115 0.098635 0.289195 0.171167 0.550948 -0.119979 0.263529 0.602675 -0.162617 -0.182662 0.207859 -0.212910 -0.185019 -0.358592
17 -0.352542 -0.441909 0.081469 -0.233463 -0.136528 0.052770 0.280748 0.168919 0.565651 -0.102777 0.313005 0.671372 -0.161469 -0.151434 0.145081 -0.189825 -0.172540 -0.348896
16 -0.311649 -0.437836 0.093730 -0.262380 -0.108637 0.083199 0.297755 0.145936 0.547191 -0.111741 0.227985 0.600355 -0.161265 -0.154277 0.204534 -0.228275 -0.197519 -0.366558
4 -0.326963 -0.354724 0.068398 -0.209913 -0.066694 0.041490 0.210840 0.170174 0.480947 -0.143678 0.316396 0.588661 -0.151772 -0.164180 0.114402 -0.182871 -0.143268 -0.310911
11 -0.362567 -0.425856 0.070066 -0.215186 -0.073448 0.058900 0.236132 0.173655 0.539543 -0.164818 0.309819 0.625204 -0.200737 -0.131051 0.155777 -0.205066 -0.173143 -0.309931
14 -0.317015 -0.460508 0.103688 -0.279241 -0.094782 0.099141 0.268600 0.142249 0.531980 -0.100497 0.221900 0.628725 -0.174874 -0.174985 0.191205 -0.208064 -0.164798 -0.328598
