18 18
0 -0.396310 -0.515362 0.164860 -0.534062 -0.200280 0.044335 -0.092129 0.031060 0.153634 0.024018 0.359637 0.442413 0.011002 -0.287975 0.307187 -0.312920 -0.070571 -0.226717
1 -0.414478 -0.572379 0.167819 -0.549855 -0.174829 0.019931 -0.062950 0.065144 0.215994 0.022825 0.345408 0.481210 0.026930 -0.327196 0.273000 -0.332241 -0.076932 -0.216550
7 -0.376080 -0.493489 0.150512 -0.504383 -0.209731 0.037068 -0.104808 0.032701 0.179437 0.027264 0.312209 0.436899 0.005007 -0.282082 0.318324 -0.271239 -0.095273 -0.227233
3 -0.427679 -0.508885 0.198981 -0.524175 -0.178754 0.015938 -0.070499 0.031119 0.135741 0.023332 0.361644 0.434943 -0.007565 -0.319496 0.269964 -0.327686 -0.069084 -0.256927
15 -0.404946 -0.463570 0.189974 -0.501566 -0.165944 0.027992 -0.087868 -0.000042 0.153605 0.028782 0.324287 0.408776 0.022481 -0.240818 0.278331 -0.279925 -0.112475 -0.255191
4 -0.398486 -0.474572 0.176123 -0.506045 -0.167355 -0.003527 -0.117898 0.065452 0.170003 0.017827 0.362088 0.454945 0.030840 -0.299894 0.284205 -0.315638 -0.089695 -0.263735
2 -0.355146 -0.537233 0.145646 -0.526351 -0.192623 0.057032 -0.046425 0.061427 0.134604 0.023042 0.331555 0.476653 0.013600 -0.323499 0.275723 -0.328539 -0.091415 -0.174612
14 -0.412201 -0.520276 0.205864 -0.521456 -0.175611 0.023520 -0.115530 0.027009 0.147833 0.058677 0.312401 0.461607 -0.005274 -0.271366 0.294881 -0.276880 -0.073843 -0.242125
8 -0.363645 -0.585869 0.140304 -0.515785 -0.203351 0.072372 -0.024015 0.059456 0.194405 0.032182 0.336608 0.479608 -0.023420 -0.309671 0.301384 -0.334578 -0.068372 -0.166689
9 -0.397431 -0.573702 0.105426 -0.539909 -0.182965 0.063277 -0.056738 0.054081 0.233041 0.001952 0.362886 0.517570 -0.012937 -0.322204 0.295583 -0.327928 -0.122109 -0.152452
17 -0.401328 -0.521192 0.175135 -0.494129 -0.205461 0.003411 -0.065409 0.047191 0.202372 0.054538 0.359235 0.480132 0.020373 -0.276141 0.274201 -0.282761 -0.083653 -0.266077
13 -0.397808 -0.506037 0.197673 -0.535412 -0.198564 -0.001918 -0.107472 0.013766 0.174612 0.054918 0.317953 0.420005 0.020492 -0.287365 0.311420 -0.299432 -0.126021 -0.256648
5 -0.392630 -0.567671 0.124146 -0.530556 -0.161210 0.030350 -0.042644 0.009207 0.214908 0.003777 0.372677 0.486659 -0.015041 -0.292870 0.305288 -0.335069 -0.114914 -0.230567
16 -0.378443 -0.454913 0.180914 -0.486387 -0.179688 0.009032 -0.073101 0.033037 0.149879 0.044208 0.298869 0.439257 0.010084 -0.254789 0.287736 -0.301747 -0.110809 -0.270375
6 -0.358670 -0.517096 0.157191 -0.468887 -0.173727 0.051247 -0.044179 0.056751 0.161735 0.033169 0.340395 0.441380 -0.005965 -0.301917 0.289616 -0.292926 -0.087140 -0.223256
11 -0.446668 -0.523107 0.206196 -0.489773 -0.196256 -0.015922 -0.183686 0.030844 0.177575 0.028686 0.314579 0.428515 -0.026482 -0.189947 0.376701 -0.280109 -0.142340 -0.248676
10 -0.367724 -0.558708 0.123339 -0.513442 -0.168227 0.084117 -0.025993 0.049434 0.220549 -0.003446 0.358421 0.493493 -0.022803 -0.277530 0.268157 -0.291073 -0.074758 -0.162302
12 -0.431597 -0.532325 0.174535 -0.520227 -0.213354 0.002549 -0.147077 -0.007463 0.153346 0.060570 0.355294 0.467171 -0.007977 -0.220141 0.322360 -0.247049 -0.142889 -0.217039
