18 18
9 -0.382000 -0.554989 0.186261 -0.398877 -0.031641 0.013659 0.054545 0.117797 0.156180 -0.034981 0.190455 0.526348 -0.154848 -0.314446 0.269609 -0.464723 -0.085118 -0.247513
3 -0.379357 -0.505595 0.233749 -0.352746 -0.022615 0.021962 0.057692 0.095200 0.076856 -0.047017 0.185029 0.425243 -0.171298 -0.273865 0.245624 -0.444719 -0.026744 -0.253697
2 -0.356875 -0.587189 0.212752 -0.410286 -0.051446 0.025949 0.081801 0.134614 0.120539 -0.036530 0.168631 0.510707 -0.132812 -0.310918 0.280805 -0.489627 -0.073651 -0.250520
11 -0.386221 -0.580015 0.216622 -0.375080 -0.025265 0.016694 0.038023 0.147367 0.152719 -0.061313 0.172327 0.503502 -0.154327 -0.256970 0.301193 -0.483204 -0.075007 -0.247991
17 -0.382765 -0.555475 0.214765 -0.366232 -0.054854 -0.005935 0.061915 0.113805 0.149804 -0.013312 0.202712 0.517074 -0.138148 -0.252077 0.254848 -0.431245 -0.067978 -0.282332
8 -0.387590 -0.575423 0.246034 -0.385618 -0.057241 0.013952 0.060732 0.105174 0.108723 -0.003001 0.165209 0.465582 -0.156643 -0.266991 0.280852 -0.469648 -0.043474 -0.256218
15 -0.403881 -0.576612 0.249597 -0.406277 -0.032826 0.049949 0.075831 0.090872 0.127420 -0.044799 0.180876 0.455537 -0.138845 -0.263153 0.274523 -0.466714 -0.061602 -0.260368
0 -0.376652 -0.575278 0.234844 -0.410113 -0.072369 0.046326 0.056605 0.114759 0.114327 -0.030943 0.179956 0.452178 -0.123372 -0.266574 0.292238 -0.473749 -0.023217 -0.249084
14 -0.365138 -0.545634 0.215269 -0.389921 -0.012582 0.028456 0.034022 0.093812 0.110792 -0.027221 0.159939 0.511623 -0.168688 -0.271307 0.279165 -0.432695 -0.061870 -0.250374
12 -0.378357 -0.533405 0.171337 -0.386435 -0.032148 -0.013293 0.019195 0.042241 0.107927 -0.010464 0.235615 0.532888 -0.170744 -0.252705 0.252011 -0.396249 -0.125791 -0.225650
4 -0.361283 -0.488473 0.179363 -0.358855 -0.010878 -0.012014 0.016346 0.110748 0.114294 -0.049021 0.233892 0.520825 -0.146771 -0.275746 0.263418 -0.443480 -0.083742 -0.278138
1 -0.410585 -0.584866 0.247929 -0.401281 -0.031718 -0.023434 0.052747 0.119571 0.149902 -0.020016 0.159939 0.441805 -0.113058 -0.272134 0.237243 -0.456654 -0.040860 -0.265244
10 -0.377875 -0.559347 0.204252 -0.380502 -0.018957 0.041144 0.073350 0.104246 0.154912 -0.055447 0.207016 0.509445 -0.170114 -0.252613 0.255245 -0.434130 -0.049699 -0.232721
6 -0.339095 -0.566287 0.207090 -0.342440 -0.034228 0.044406 0.094757 0.155527 0.152053 -0.042132 0.173103 0.468787 -0.147509 -0.302177 0.288375 -0.442764 -0.060978 -0.270479
16 -0.389968 -0.557833 0.239409 -0.384851 -0.050701 0.016432 0.077749 0.113979 0.125062 -0.026398 0.147828 0.469724 -0.147653 -0.247735 0.288160 -0.477477 -0.070354 -0.282127
5 -0.360347 -0.533600 0.159711 -0.368523 0.000947 -0.011815 0.059630 0.046643 0.137219 -0.042056 0.223261 0.523459 -0.188207 -0.256815 0.275976 -0.449333 -0.103785 -0.279708
7 -0.316329 -0.557078 0.179053 -0.377813 -0.066455 0.052190 0.088824 0.138486 0.173748 -0.047059 0.148903 0.474793 -0.132129 -0.313909 0.301150 -0.447950 -0.053593 -0.258096
13 -0.376626 -0.569919 0.229882 -0.423474 -0.039797 -0.003185 0.064231 0.060911 0.135271 -0.002769 0.193068 0.496952 -0.161307 -0.308862 0.284590 -0.462933 -0.107546 -0.278273
