18 18
8 -0.179147 -0.508143 0.123094 -0.193169 -0.038669 0.127598 0.213668 0.257939 0.489029 -0.094206 0.299468 0.586354 -0.169783 -0.137818 0.296135 -0.326687 0.091605 -0.367191
1 -0.197716 -0.500472 0.125278 -0.206169 -0.009321 0.073787 0.187643 0.277259 0.469740 -0.118163 0.288260 0.533498 -0.135242 -0.160675 0.245445 -0.324425 0.104307 -0.359027
4 -0.173632 -0.445364 0.063816 -0.184395 -0.002056 0.098085 0.179607 0.311046 0.498427 -0.171760 0.366027 0.582666 -0.139068 -0.192952 0.244338 -0.328268 0.100442 -0.348123
14 -0.199598 -0.525482 0.147408 -0.224730 0.003488 0.119928 0.199348 0.241344 0.454599 -0.098898 0.294279 0.612934 -0.179196 -0.144156 0.296649 -0.335280 0.096978 -0.409641
6 -0.175938 -0.494060 0.120300 -0.174825 -0.013731 0.114326 0.213865 0.270356 0.436302 -0.109259 0.323508 0.559779 -0.162141 -0.162000 0.280224 -0.323735 0.083443 -0.391899
2 -0.167336 -0.504086 0.099753 -0.212773 -0.016958 0.114465 0.218614 0.286737 0.447423 -0.141254 0.321226 0.594253 -0.149020 -0.182338 0.266744 -0.360473 0.083876 -0.359159
9 -0.175425 -0.461129 0.042976 -0.195992 -0.026299 0.116737 0.201561 0.285726 0.528944 -0.145446 0.337773 0.599583 -0.146817 -0.191478 0.244572 -0.313249 0.071786 -0.308648
12 -0.201938 -0.499750 0.088148 -0.220250 -0.032721 0.111946 0.189550 0.246274 0.481513 -0.121801 0.355029 0.617365 -0.164950 -0.159296 0.264967 -0.304813 0.064083 -0.338363
11 -0.202820 -0.528065 0.107706 -0.202248 -0.014661 0.120198 0.196021 0.282166 0.544101 -0.150122 0.321077 0.613940 -0.185150 -0.144998 0.328988 -0.350627 0.072848 -0.384126
7 -0.153029 -0.473415 0.066251 -0.203778 -0.041690 0.131681 0.202809 0.258837 0.494248 -0.133349 0.303036 0.555072 -0.146848 -0.190329 0.278501 -0.303975 0.094779 -0.343156
0 -0.185921 -0.489870 0.103725 -0.228053 -0.038997 0.131872 0.183188 0.236508 0.434152 -0.124703 0.326981 0.538837 -0.150939 -0.158408 0.291408 -0.331481 0.113455 -0.362241
16 -0.188559 -0.497345 0.112936 -0.206981 -0.024054 0.118394 0.223992 0.239705 0.479299 -0.114695 0.293610 0.590341 -0.177136 -0.128402 0.309060 -0.343501 0.059804 -0.405313
17 -0.193115 -0.518063 0.136592 -0.180843 -0.045683 0.083060 0.219863 0.267584 0.488585 -0.085493 0.325715 0.592457 -0.150826 -0.123240 0.273429 -0.304063 0.090350 -0.423898
10 -0.157554 -0.445415 0.061031 -0.181440 -0.005777 0.144117 0.206654 0.257664 0.508750 -0.156093 0.328717 0.582265 -0.169727 -0.142772 0.245778 -0.278121 0.090412 -0.308500
13 -0.173770 -0.515785 0.114107 -0.237456 -0.036321 0.127570 0.225165 0.256470 0.536038 -0.116257 0.323414 0.600419 -0.157841 -0.194058 0.309802 -0.341605 0.071171 -0.396548
15 -0.201799 -0.482873 0.132589 -0.220818 -0.008863 0.141301 0.199574 0.189459 0.430225 -0.109764 0.285075 0.531492 -0.150953 -0.118294 0.287543 -0.313016 0.056373 -0.372525
5 -0.163416 -0.477705 0.067045 -0.188127 0.009927 0.086952 0.207214 0.201090 0.437004 -0.136461 0.305738 0.528474 -0.167876 -0.130176 0.265586 -0.328446 0.066130 -0.355146
3 -0.217779 -0.510492 0.130829 -0.216827 -0.005487 0.119152 0.227258 0.267052 0.446491 -0.149512 0.346995 0.569036 -0.193458 -0.204530 0.271652 -0.372905 0.126556 -0.408320
