18 18
9 -0.288429 -0.423856 0.015427 -0.300797 -0.181918 0.271548 0.162392 0.143333 0.478060 -0.057819 0.261222 0.591648 -0.221271 -0.223984 0.365726 -0.218793 -0.207317 -0.182844
2 -0.260796 -0.434055 0.057827 -0.280153 -0.173517 0.266080 0.170929 0.157596 0.381577 -0.064200 0.241315 0.555133 -0.206845 -0.210604 0.357484 -0.234244 -0.170332 -0.200868
3 -0.300144 -0.419885 0.071077 -0.273575 -0.156071 0.268927 0.187189 0.133905 0.393926 -0.073934 0.263679 0.530924 -0.257177 -0.243395 0.351483 -0.230717 -0.156870 -0.223147
14 -0.261552 -0.405325 0.075071 -0.281152 -0.145540 0.254018 0.140488 0.119009 0.373215 -0.038837 0.204974 0.527101 -0.210948 -0.186197 0.333903 -0.188606 -0.145717 -0.204764
10 -0.271464 -0.419358 0.023386 -0.262983 -0.154735 0.292670 0.176052 0.143402 0.450175 -0.086442 0.275851 0.581642 -0.242476 -0.179367 0.352116 -0.186638 -0.174881 -0.179672
11 -0.317892 -0.453119 0.063504 -0.272338 -0.148706 0.279910 0.150643 0.157399 0.438871 -0.099048 0.263073 0.565784 -0.252169 -0.191573 0.395616 -0.228252 -0.205193 -0.205876
1 -0.319803 -0.490918 0.094283 -0.321355 -0.177227 0.244529 0.170523 0.166510 0.480042 -0.050593 0.237360 0.579103 -0.214755 -0.213314 0.379864 -0.256777 -0.145640 -0.251305
0 -0.296686 -0.451869 0.053687 -0.304944 -0.195506 0.282432 0.155199 0.134081 0.424440 -0.062852 0.283601 0.570983 -0.224606 -0.184224 0.394855 -0.230039 -0.151531 -0.219151
6 -0.288889 -0.465728 0.064939 -0.275382 -0.169186 0.303384 0.190185 0.167309 0.429799 -0.073211 0.284304 0.584411 -0.251554 -0.233631 0.404177 -0.231036 -0.191354 -0.243064
7 -0.268913 -0.440011 0.029077 -0.299640 -0.191950 0.310016 0.177117 0.135120 0.461445 -0.079780 0.248918 0.572336 -0.234417 -0.228680 0.404496 -0.209789 -0.193295 -0.211970
17 -0.273460 -0.429226 0.038481 -0.260595 -0.210380 0.253539 0.183684 0.159797 0.486452 -0.035856 0.271631 0.613713 -0.204935 -0.167668 0.357856 -0.185513 -0.181951 -0.237535
15 -0.318858 -0.464467 0.090341 -0.313367 -0.163543 0.312543 0.184987 0.102834 0.403828 -0.077269 0.262773 0.544570 -0.232427 -0.185055 0.380110 -0.220246 -0.191928 -0.229911
8 -0.289472 -0.477054 0.092260 -0.279750 -0.191997 0.271014 0.184760 0.154237 0.425885 -0.033641 0.236092 0.560431 -0.240551 -0.191316 0.386625 -0.246366 -0.135421 -0.231887
5 -0.253101 -0.431312 0.027215 -0.267248 -0.136006 0.256211 0.192548 0.111090 0.421947 -0.084388 0.258208 0.548043 -0.242769 -0.195497 0.370618 -0.241566 -0.175879 -0.228095
16 -0.266059 -0.400995 0.052671 -0.265749 -0.170355 0.261054 0.178818 0.123671 0.406176 -0.059660 0.232136 0.550849 -0.232148 -0.162740 0.378678 -0.220546 -0.194837 -0.233427
4 -0.283943 -0.400066 0.050689 -0.265513 -0.150729 0.254958 0.141991 0.167515 0.415305 -0.083191 0.282272 0.562547 -0.207848 -0.213215 0.358490 -0.221485 -0.173975 -0.227697
13 -0.259467 -0.421348 0.054525 -0.296062 -0.176459 0.263636 0.165811 0.116996 0.427721 -0.043678 0.235857 0.534110 -0.207996 -0.214631 0.373666 -0.210140 -0.201174 -0.207962
12 -0.345641 -0.500125 0.067680 -0.332002 -0.193793 0.297652 0.164510 0.113533 0.439058 -0.059021 0.304871 0.630245 -0.260986 -0.204491 0.404413 -0.207826 -0.229138 -0.218993
