18 18
4 -0.460637 -0.474402 0.209443 -0.156772 0.067981 0.005739 0.165017 0.009283 0.348196 -0.134892 0.227067 0.385435 -0.299306 0.077397 0.346891 -0.376579 -0.111385 -0.465401
1 -0.506935 -0.531039 0.257945 -0.207877 0.052926 0.000416 0.169190 -0.014882 0.327543 -0.093149 0.192466 0.361039 -0.287370 0.070340 0.300154 -0.341688 -0.084005 -0.424385
5 -0.406601 -0.508629 0.148560 -0.144323 0.059992 0.016917 0.212680 -0.037735 0.385465 -0.128805 0.191748 0.422961 -0.352870 0.123695 0.399673 -0.400869 -0.154203 -0.457478
12 -0.469007 -0.503613 0.213193 -0.185130 0.016895 0.014061 0.161722 -0.058315 0.286511 -0.061632 0.214962 0.394597 -0.307430 0.095753 0.319448 -0.302871 -0.133313 -0.399415
0 -0.467244 -0.507251 0.227426 -0.194124 0.030973 0.096934 0.188190 -0.004219 0.318290 -0.154809 0.271054 0.344088 -0.338466 0.044622 0.394565 -0.391709 -0.034081 -0.461325
17 -0.472272 -0.516570 0.228884 -0.159765 0.013910 0.020051 0.207813 -0.010974 0.353147 -0.082982 0.219709 0.410388 -0.317626 0.094218 0.337584 -0.334288 -0.105848 -0.466086
3 -0.483603 -0.488578 0.253478 -0.170170 0.042665 0.054399 0.195503 -0.022003 0.268952 -0.116835 0.229231 0.324384 -0.344452 0.036075 0.323973 -0.354518 -0.047521 -0.432770
7 -0.411436 -0.501995 0.172965 -0.155101 0.036282 0.082968 0.220148 0.018525 0.408771 -0.166295 0.208741 0.398165 -0.358673 0.058375 0.437386 -0.411873 -0.092648 -0.491311
15 -0.465489 -0.482435 0.234055 -0.183647 0.048115 0.048158 0.176133 -0.047727 0.289879 -0.098837 0.194353 0.340507 -0.284254 0.088141 0.309706 -0.319953 -0.115276 -0.400170
16 -0.447414 -0.513692 0.200945 -0.152712 0.050364 0.039762 0.231010 -0.001168 0.409415 -0.141532 0.178328 0.439769 -0.381485 0.136914 0.452675 -0.442318 -0.159408 -0.515942
10 -0.419108 -0.472704 0.187246 -0.135618 0.060239 0.092802 0.216578 0.013084 0.360865 -0.165328 0.235523 0.363117 -0.342628 0.078770 0.350350 -0.343706 -0.061783 -0.427013
9 -0.485577 -0.536412 0.193031 -0.171129 0.052120 0.016901 0.202453 0.002940 0.420563 -0.125588 0.199222 0.468679 -0.365587 0.101434 0.407523 -0.421932 -0.162794 -0.469453
14 -0.466495 -0.508592 0.247631 -0.190940 0.045360 0.034884 0.165199 -0.032009 0.302030 -0.074527 0.162968 0.394271 -0.331285 0.090096 0.340898 -0.332591 -0.091201 -0.417909
11 -0.448605 -0.518864 0.192501 -0.140768 0.068038 -0.003918 0.170395 0.013979 0.409618 -0.141730 0.159047 0.436387 -0.356112 0.157709 0.431471 -0.425650 -0.172471 -0.463853
8 -0.450418 -0.545954 0.222053 -0.153405 0.026506 0.030011 0.213887 -0.008659 0.378120 -0.091943 0.169514 0.435671 -0.377804 0.127229 0.432697 -0.424528 -0.131712 -0.471123
6 -0.411668 -0.471691 0.206982 -0.124288 0.051872 0.077435 0.200383 0.021818 0.315000 -0.139713 0.230274 0.323154 -0.323404 0.043906 0.364564 -0.352348 -0.069054 -0.444248
13 0.019096 0.002747 0.009678 -0.019404 -0.008210 -0.004883 0.008138 -0.018294 0.006568 0.019257 -0.015253 -0.018294 0.012156 -0.023377 0.007956 -0.002520 -0.021393 -0.009389
2 0.021368 -0.003688 -0.004957 -0.007525 -0.007603 0.001755 0.011077 0.016235 -0.024745 -0.003279 -0.008624 0.014563 0.014594 -0.017313 -0.004715 -0.020484 -0.014205 0.014938
