18 18
8 -0.280361 -0.378702 0.119109 -0.015410 -0.081142 0.197159 0.298148 0.316925 0.496195 -0.189475 0.206618 0.408903 -0.214729 -0.095146 0.327675 -0.385296 -0.100277 -0.318160
1 -0.302163 -0.393420 0.148928 -0.049296 -0.063628 0.161097 0.279494 0.356421 0.520731 -0.216255 0.167964 0.387637 -0.166547 -0.123434 0.323404 -0.417497 -0.105702 -0.347609
15 -0.336507 -0.400846 0.139058 -0.107411 -0.080109 0.202003 0.284581 0.238580 0.481069 -0.177546 0.263343 0.453582 -0.184917 -0.102719 0.313560 -0.359376 -0.176037 -0.335816
0 -0.326600 -0.407871 0.149258 -0.160717 -0.132488 0.186178 0.227118 0.200542 0.442465 -0.100631 0.263855 0.474383 -0.188166 -0.122047 0.327002 -0.305179 -0.170824 -0.309471
3 -0.305135 -0.318866 0.112371 0.020737 -0.028563 0.166334 0.306901 0.338539 0.458997 -0.265883 0.233188 0.366931 -0.214443 -0.110432 0.275774 -0.418623 -0.074493 -0.346631
16 -0.299110 -0.364817 0.133385 -0.038398 -0.087657 0.187015 0.305079 0.295257 0.496838 -0.179457 0.194158 0.439192 -0.221540 -0.077210 0.344665 -0.376087 -0.164020 -0.354385
12 -0.425570 -0.551858 0.236661 -0.333274 -0.210227 0.168803 0.195386 0.126307 0.444246 0.019752 0.294225 0.629659 -0.198207 -0.209846 0.371487 -0.276559 -0.294982 -0.335644
6 -0.265353 -0.355380 0.128215 -0.025901 -0.071477 0.184503 0.267018 0.308794 0.454077 -0.176110 0.201016 0.391737 -0.188660 -0.125151 0.318300 -0.346694 -0.135195 -0.324931
2 -0.290081 -0.396107 0.136377 -0.115028 -0.102156 0.177300 0.260913 0.294825 0.448525 -0.172132 0.211080 0.462141 -0.163520 -0.150362 0.321700 -0.386833 -0.169262 -0.309570
11 -0.303600 -0.370444 0.132745 -0.068055 -0.076224 0.171656 0.232543 0.275499 0.469058 -0.176232 0.212468 0.427569 -0.202570 -0.094646 0.333809 -0.345572 -0.166059 -0.310276
5 -0.293596 -0.364397 0.079744 -0.037641 -0.039675 0.153402 0.291882 0.266912 0.493085 -0.221048 0.260360 0.430091 -0.203197 -0.090953 0.298466 -0.386838 -0.140060 -0.341227
10 -0.297824 -0.365807 0.102241 -0.074490 -0.066023 0.208226 0.264251 0.251918 0.495605 -0.177221 0.250908 0.455304 -0.212503 -0.085426 0.284836 -0.293613 -0.149719 -0.271219
9 -0.302173 -0.340302 0.085456 -0.062432 -0.063734 0.175080 0.247236 0.278083 0.490224 -0.180208 0.237015 0.435368 -0.189861 -0.121772 0.276677 -0.326728 -0.157552 -0.272317
7 -0.272992 -0.389247 0.123789 -0.112558 -0.123153 0.200540 0.262175 0.281352 0.486571 -0.164257 0.192642 0.441166 -0.173546 -0.164777 0.353018 -0.361041 -0.149378 -0.330813
17 -0.313519 -0.388205 0.134814 -0.076830 -0.121714 0.150570 0.276733 0.259013 0.486447 -0.123639 0.258641 0.477469 -0.171063 -0.098340 0.281338 -0.311952 -0.147142 -0.348370
4 -0.306518 -0.341999 0.120650 -0.060742 -0.055905 0.153395 0.238526 0.313137 0.475167 -0.205273 0.260698 0.444911 -0.164928 -0.126884 0.292001 -0.370614 -0.136056 -0.335565
13 -0.383470 -0.525683 0.238082 -0.309921 -0.204282 0.178535 0.242175 0.144507 0.486055 0.009189 0.269039 0.584376 -0.183350 -0.226783 0.376201 -0.304433 -0.286011 -0.368803
14 -0.389887 -0.531582 0.261138 -0.367650 -0.186462 0.176743 0.156045 0.098994 0.397285 0.056950 0.220219 0.593433 -0.177090 -0.229746 0.350476 -0.241368 -0.260385 -0.306106
