18 18
4 -0.415605 -0.340044 0.201463 -0.093195 -0.017536 -0.100055 0.050787 0.274627 0.493524 -0.101982 0.454800 0.473698 0.038321 0.017935 0.204960 -0.273579 -0.140481 -0.503757
12 -0.405242 -0.412678 0.200332 -0.106706 -0.044577 -0.089761 0.105710 0.194302 0.470533 -0.067608 0.424496 0.451877 -0.029025 0.020808 0.189199 -0.223864 -0.117302 -0.471225
10 -0.387142 -0.398196 0.188953 -0.081017 -0.019676 -0.049021 0.141762 0.238748 0.523364 -0.112099 0.423950 0.458879 -0.035039 0.026369 0.177743 -0.230607 -0.088901 -0.465424
9 -0.407506 -0.347598 0.171985 -0.099414 -0.031416 -0.069543 0.075808 0.255696 0.497700 -0.090497 0.413089 0.464180 0.016164 -0.004686 0.193269 -0.262374 -0.146287 -0.444429
15 -0.421928 -0.362314 0.210098 -0.121558 -0.027057 -0.044238 0.087587 0.215614 0.455231 -0.094201 0.419732 0.444623 0.020963 0.029137 0.207692 -0.270408 -0.160951 -0.465067
3 -0.372300 -0.398382 0.203162 -0.085105 -0.014942 -0.089046 0.175758 0.210051 0.479092 -0.115638 0.389909 0.381288 -0.053577 -0.054342 0.180235 -0.286830 -0.039825 -0.530273
17 -0.390007 -0.401654 0.207166 -0.078753 -0.059458 -0.091185 0.142637 0.237813 0.513848 -0.069543 0.407926 0.450904 -0.003073 0.019292 0.178709 -0.236320 -0.086282 -0.513832
1 -0.382361 -0.406723 0.199076 -0.114031 -0.004281 -0.104371 0.133016 0.221771 0.505328 -0.103902 0.370370 0.405616 -0.004191 -0.013258 0.177041 -0.277196 -0.072618 -0.497762
2 -0.374046 -0.400058 0.181908 -0.111342 -0.035808 -0.084604 0.129414 0.254935 0.493783 -0.104645 0.414500 0.475949 0.013480 -0.017547 0.191538 -0.289681 -0.125772 -0.482362
11 -0.412923 -0.393224 0.212019 -0.068338 -0.013836 -0.082164 0.081348 0.257478 0.498571 -0.105587 0.398877 0.438156 -0.031639 0.042816 0.211386 -0.251847 -0.116269 -0.463958
0 -0.404865 -0.379399 0.195183 -0.125610 -0.048315 -0.056390 0.075284 0.221059 0.466649 -0.091592 0.438593 0.442719 0.004318 0.014665 0.231698 -0.272610 -0.112131 -0.477595
7 -0.319629 -0.410698 0.137151 -0.098693 -0.035483 -0.064301 0.180570 0.204272 0.535919 -0.122789 0.371944 0.415345 -0.036850 -0.054995 0.213085 -0.268428 -0.062825 -0.510128
6 -0.383263 -0.389991 0.199938 -0.067506 -0.026273 -0.063289 0.130539 0.249951 0.483459 -0.091280 0.415306 0.437365 -0.017181 -0.002266 0.209851 -0.260987 -0.119772 -0.497209
13 -0.379326 -0.397163 0.219057 -0.111856 -0.041191 -0.081676 0.133375 0.208849 0.505448 -0.071440 0.400389 0.420493 -0.004061 -0.007191 0.202707 -0.254272 -0.118245 -0.508383
5 -0.342862 -0.411151 0.134762 -0.092232 0.006314 -0.089800 0.177432 0.178770 0.524959 -0.134230 0.404598 0.428487 -0.053887 -0.012765 0.210227 -0.292455 -0.089447 -0.520780
8 -0.382583 -0.383266 0.200354 -0.084982 -0.047785 -0.059133 0.103340 0.231004 0.466098 -0.067888 0.389697 0.435889 -0.023488 0.020151 0.219362 -0.262426 -0.110456 -0.453798
16 -0.389685 -0.336999 0.190746 -0.096706 -0.035912 -0.070541 0.099148 0.216118 0.459418 -0.084628 0.376313 0.433041 -0.009212 0.033700 0.224044 -0.270769 -0.152336 -0.483735
14 -0.011733 -0.016220 0.026785 -0.021827 0.014521 0.009558 -0.015588 -0.009492 -0.015071 0.014490 -0.026914 0.011819 -0.010079 -0.001944 0.000728 0.009641 0.015475 -0.000266
