18 18
5 -0.046169 -0.485109 -0.102409 -0.194916 0.072854 0.060471 0.268429 -0.162693 0.305083 -0.062579 0.300281 0.510548 -0.226507 -0.036232 0.369456 -0.264428 -0.326218 -0.341460
13 -0.032618 -0.528653 -0.060210 -0.246765 0.061972 0.090765 0.301568 -0.189582 0.314216 -0.030258 0.287044 0.528946 -0.232363 -0.074486 0.409644 -0.280337 -0.383214 -0.366072
8 -0.045592 -0.519132 -0.065543 -0.203263 0.045201 0.097614 0.284531 -0.153707 0.296684 -0.033612 0.285480 0.513300 -0.246331 -0.047460 0.390093 -0.272272 -0.316779 -0.323592
10 -0.039973 -0.527959 -0.098088 -0.223186 0.079164 0.121117 0.297477 -0.170702 0.335672 -0.076928 0.332585 0.561558 -0.253554 -0.039991 0.387437 -0.250871 -0.351003 -0.325624
0 -0.041330 -0.512241 -0.089509 -0.256520 0.024204 0.101987 0.269579 -0.159862 0.312369 -0.054512 0.300533 0.546022 -0.204091 -0.041808 0.415123 -0.282813 -0.333613 -0.356641
16 -0.032329 -0.471256 -0.080658 -0.216949 0.036663 0.085882 0.299383 -0.156016 0.308329 -0.045663 0.247264 0.537495 -0.225036 -0.012687 0.404134 -0.282166 -0.359052 -0.373003
14 -0.069200 -0.523943 -0.051038 -0.238716 0.075500 0.087546 0.265324 -0.171398 0.295183 -0.032364 0.269305 0.552520 -0.242320 -0.033927 0.397227 -0.266572 -0.331286 -0.365278
2 -0.009053 -0.499682 -0.098653 -0.226378 0.037499 0.089227 0.289720 -0.132396 0.286272 -0.061710 0.279151 0.549855 -0.199470 -0.066242 0.390573 -0.293471 -0.363876 -0.335934
15 -0.076420 -0.504538 -0.052744 -0.224207 0.067654 0.100238 0.271227 -0.172110 0.297079 -0.057653 0.310531 0.516063 -0.216408 -0.041093 0.389733 -0.268569 -0.361414 -0.361376
3 -0.079536 -0.506544 -0.049071 -0.220544 0.077971 0.088169 0.287866 -0.164464 0.282762 -0.063177 0.322631 0.516655 -0.259507 -0.077181 0.378213 -0.285661 -0.319604 -0.367448
1 -0.080694 -0.517869 -0.034250 -0.238120 0.067174 0.061501 0.266842 -0.137415 0.320141 -0.040858 0.257238 0.516854 -0.207189 -0.042242 0.371753 -0.279497 -0.327273 -0.360238
6 -0.056454 -0.494594 -0.072502 -0.168991 0.071846 0.077372 0.255509 -0.126062 0.288439 -0.052257 0.339026 0.512245 -0.231124 -0.072952 0.397522 -0.254370 -0.353062 -0.364520
12 -0.085419 -0.518067 -0.070725 -0.221875 0.049629 0.068033 0.235065 -0.176364 0.276571 -0.033102 0.342342 0.549200 -0.233618 -0.037639 0.385270 -0.236689 -0.367838 -0.332911
4 -0.057757 -0.490906 -0.086567 -0.200564 0.081460 0.059486 0.240923 -0.122835 0.322261 -0.071371 0.357251 0.562787 -0.209926 -0.060813 0.397484 -0.276648 -0.355740 -0.381555
17 -0.048363 -0.494769 -0.073271 -0.194013 0.027556 0.065250 0.283083 -0.133162 0.326524 -0.030223 0.299444 0.551526 -0.206568 -0.028462 0.368739 -0.242734 -0.340582 -0.367516
7 -0.010656 -0.496591 -0.118102 -0.229134 0.032140 0.106987 0.285184 -0.148618 0.337312 -0.066814 0.284250 0.540408 -0.218492 -0.081685 0.409911 -0.269053 -0.335946 -0.345456
9 -0.058927 -0.504399 -0.107665 -0.222205 0.069454 0.087552 0.271046 -0.143409 0.338663 -0.064579 0.313504 0.556100 -0.230861 -0.080385 0.383155 -0.275820 -0.367514 -0.324432
11 -0.077872 -0.536617 -0.069267 -0.214866 0.079299 0.080990 0.260120 -0.144000 0.331126 -0.076450 0.304997 0.549663 -0.257288 -0.030184 0.422111 -0.294219 -0.355593 -0.354508
