18 18
6 -0.113940 -0.497988 0.306272 -0.047855 -0.044169 0.207314 0.442951 0.098804 0.208031 0.061092 -0.018802 0.373343 -0.425133 -0.044495 0.451598 -0.389538 -0.170591 -0.398507
0 -0.148951 -0.528918 0.324252 -0.116969 -0.067008 0.229361 0.424884 0.087199 0.213581 0.055576 -0.003361 0.410940 -0.424391 -0.028240 0.476265 -0.417627 -0.153556 -0.390621
11 -0.107705 -0.440974 0.226106 0.002974 -0.034394 0.130336 0.389016 0.118121 0.216141 0.002031 -0.013848 0.350726 -0.465224 -0.055510 0.453773 -0.430940 -0.178485 -0.340094
2 -0.088576 -0.477217 0.264827 -0.050635 -0.056754 0.158642 0.443246 0.109579 0.179682 0.043596 -0.021785 0.388498 -0.430014 -0.083673 0.433736 -0.437626 -0.184631 -0.369984
8 -0.092618 -0.487223 0.267042 -0.015901 -0.071083 0.178962 0.450791 0.101691 0.206172 0.060053 -0.027151 0.370496 -0.482570 -0.064472 0.473120 -0.437190 -0.158204 -0.366077
16 -0.121010 -0.458958 0.293390 -0.070480 -0.048373 0.184592 0.428318 0.082277 0.201491 0.051650 -0.042351 0.380728 -0.422329 -0.021065 0.446916 -0.403525 -0.190534 -0.388735
13 -0.093312 -0.443658 0.274629 -0.059446 -0.048795 0.142797 0.420423 0.067912 0.190777 0.057020 -0.022442 0.317732 -0.406553 -0.090255 0.414384 -0.402904 -0.169752 -0.379450
3 -0.141989 -0.429063 0.282514 -0.025709 -0.024760 0.146318 0.434570 0.077017 0.152696 0.014332 0.010165 0.317657 -0.472967 -0.095691 0.398246 -0.427019 -0.125920 -0.388687
12 -0.148731 -0.514343 0.287715 -0.056532 -0.058256 0.167823 0.443308 0.072000 0.195027 0.052985 0.013966 0.415209 -0.492621 -0.061052 0.470415 -0.430416 -0.198845 -0.394308
1 -0.163049 -0.501317 0.318701 -0.082900 -0.028376 0.142121 0.415277 0.101707 0.215566 0.042628 -0.026879 0.359312 -0.415493 -0.062477 0.414369 -0.424816 -0.146848 -0.394375
14 -0.181548 -0.563671 0.400610 -0.145164 -0.024764 0.275600 0.442873 0.069938 0.208067 0.079671 -0.060894 0.443314 -0.458194 -0.025318 0.482563 -0.397851 -0.159313 -0.422877
7 -0.077560 -0.438040 0.224045 -0.028455 -0.074693 0.199510 0.428030 0.109419 0.230370 0.025934 -0.024069 0.371510 -0.454500 -0.091215 0.465483 -0.399254 -0.150031 -0.347800
9 -0.133653 -0.508898 0.283208 -0.057669 -0.053582 0.213566 0.466540 0.119925 0.255956 0.047594 -0.014967 0.438796 -0.476054 -0.074757 0.473174 -0.434576 -0.187637 -0.380487
15 -0.188882 -0.541371 0.369810 -0.129636 -0.034407 0.266173 0.453118 0.060075 0.217060 0.048866 -0.018847 0.408631 -0.437684 -0.021229 0.477595 -0.415790 -0.187537 -0.415589
10 -0.099359 -0.467023 0.257864 -0.039479 -0.041205 0.225456 0.449509 0.104113 0.240636 0.023317 -0.004402 0.409035 -0.457880 -0.024650 0.439949 -0.375550 -0.155217 -0.345411
5 -0.117552 -0.476982 0.245107 -0.045229 -0.013364 0.132842 0.442382 0.050949 0.201981 0.018867 0.011246 0.365320 -0.452206 -0.057121 0.425707 -0.434557 -0.178664 -0.404145
17 -0.109189 -0.497563 0.289744 -0.034047 -0.084475 0.167408 0.463541 0.116928 0.242468 0.073928 -0.011259 0.420160 -0.430611 -0.039810 0.441478 -0.397917 -0.172750 -0.411313
4 -0.112756 -0.402222 0.255674 -0.015515 -0.011731 0.115054 0.385996 0.104701 0.171982 0.011094 0.024416 0.331272 -0.413822 -0.081033 0.393865 -0.412391 -0.141033 -0.389170
