18 18
16 -0.360813 -0.417811 0.351994 -0.244967 -0.150170 -0.164270 0.123631 0.012411 0.201006 0.157876 0.014073 0.310002 -0.131283 -0.002586 0.446595 -0.432589 -0.407498 -0.504841
15 -0.408659 -0.451109 0.375542 -0.276619 -0.134209 -0.147658 0.110989 0.006658 0.213598 0.140411 0.051362 0.312264 -0.121119 -0.027932 0.437790 -0.436917 -0.401074 -0.505748
3 -0.463859 -0.469318 0.413685 -0.257575 -0.108582 -0.227533 0.092513 0.090411 0.189480 0.119438 0.059515 0.304412 -0.175237 -0.151555 0.399578 -0.491426 -0.299311 -0.541776
12 -0.433554 -0.471174 0.366053 -0.263578 -0.146685 -0.201996 0.072086 0.031913 0.195029 0.162787 0.074402 0.343427 -0.146704 -0.066731 0.414422 -0.414212 -0.364080 -0.494268
11 -0.413316 -0.452632 0.367444 -0.246059 -0.119939 -0.186064 0.079617 0.051735 0.238963 0.126778 0.031862 0.326991 -0.140683 -0.018485 0.452403 -0.449381 -0.396643 -0.502932
17 -0.382835 -0.429913 0.357437 -0.221854 -0.163079 -0.188133 0.113781 0.047444 0.227964 0.166257 0.050616 0.327950 -0.115875 -0.023623 0.398727 -0.396337 -0.354465 -0.511262
8 -0.371408 -0.465462 0.366015 -0.242690 -0.159789 -0.154015 0.118764 0.029750 0.212492 0.170644 0.027445 0.315646 -0.147009 -0.024183 0.469713 -0.452660 -0.376607 -0.496595
5 -0.360122 -0.446741 0.313184 -0.241804 -0.112449 -0.175632 0.116773 0.014851 0.218573 0.123023 0.055855 0.316260 -0.144314 -0.045263 0.423235 -0.439461 -0.365433 -0.487683
6 -0.376565 -0.436284 0.351457 -0.217451 -0.117417 -0.161228 0.098729 0.072834 0.210174 0.135338 0.049141 0.303593 -0.134729 -0.084135 0.420603 -0.418941 -0.348549 -0.496541
14 -0.404838 -0.455167 0.379166 -0.263771 -0.107990 -0.168359 0.076342 0.048501 0.196982 0.146902 0.012785 0.325782 -0.147423 -0.068441 0.418039 -0.429907 -0.325362 -0.491759
7 -0.387757 -0.458750 0.348611 -0.259044 -0.151568 -0.177997 0.099674 0.066859 0.239726 0.134782 0.033828 0.326248 -0.142016 -0.110413 0.451963 -0.453956 -0.346242 -0.521051
1 -0.412385 -0.454759 0.371770 -0.257831 -0.110463 -0.210948 0.078721 0.080533 0.221990 0.132365 0.023804 0.296736 -0.117377 -0.093317 0.380399 -0.440065 -0.306167 -0.485442
2 -0.379322 -0.467508 0.369689 -0.264526 -0.142150 -0.191806 0.109684 0.069660 0.190090 0.144372 0.025959 0.332714 -0.124103 -0.084684 0.427639 -0.473063 -0.372671 -0.496850
9 -0.408041 -0.431945 0.335792 -0.250610 -0.131848 -0.175007 0.087968 0.067447 0.242171 0.137440 0.050615 0.342327 -0.132312 -0.089813 0.410303 -0.434720 -0.366376 -0.478229
13 -0.366171 -0.439347 0.366830 -0.272936 -0.155689 -0.176354 0.110525 0.008591 0.221470 0.173888 0.025810 0.300362 -0.114755 -0.053693 0.442805 -0.430078 -0.408130 -0.504895
4 -0.428049 -0.439484 0.379739 -0.246648 -0.106737 -0.220480 0.060830 0.103745 0.221220 0.120019 0.069334 0.335663 -0.127440 -0.107248 0.414403 -0.466736 -0.332695 -0.534052
0 -0.397060 -0.454882 0.369105 -0.276028 -0.166442 -0.160742 0.091915 0.028223 0.206471 0.154681 0.055641 0.317997 -0.128221 -0.035424 0.459656 -0.446408 -0.363140 -0.507869
10 0.005737 -0.002757 -0.014246 0.006132 0.011972 0.026533 0.015869 -0.001352 0.023172 -0.019827 0.015226 0.016952 -0.017475 0.021206 -0.010712 0.022008 0.009309 0.018390
