18 18
1 -0.413851 -0.360030 0.400243 -0.208951 0.226174 -0.142549 0.334747 0.117956 0.309655 -0.226051 0.208785 0.306630 -0.294934 -0.211326 0.240797 -0.642580 0.002222 -0.775388
10 -0.296981 -0.311691 0.301114 -0.164025 0.111988 -0.081954 0.291126 0.077972 0.323114 -0.144179 0.157897 0.301219 -0.253040 -0.090119 0.263388 -0.474014 -0.095511 -0.629787
16 -0.281074 -0.330456 0.346069 -0.173519 0.014804 -0.107489 0.314444 0.089129 0.374767 -0.058847 0.079338 0.305706 -0.230533 -0.037250 0.356176 -0.502957 -0.181152 -0.713902
3 -0.379955 -0.140003 0.255485 -0.128950 0.407337 -0.094943 0.256313 0.031028 0.005750 -0.383556 0.361372 0.214753 -0.343641 -0.331665 0.035855 -0.595015 0.186281 -0.598090
14 -0.333944 -0.298035 0.331658 -0.189713 0.171025 -0.092068 0.247101 0.046091 0.224955 -0.150677 0.170955 0.297659 -0.264742 -0.147533 0.232373 -0.494242 -0.050103 -0.644174
2 -0.347067 -0.277750 0.322160 -0.192003 0.244005 -0.106655 0.314703 0.082207 0.178959 -0.259752 0.247864 0.324882 -0.295846 -0.238445 0.207744 -0.637002 -0.010021 -0.702211
6 -0.296316 -0.354921 0.362331 -0.143472 0.074131 -0.081649 0.347631 0.138677 0.368604 -0.108735 0.131349 0.295059 -0.269038 -0.133047 0.325487 -0.538878 -0.084905 -0.744915
11 -0.332232 -0.334982 0.323942 -0.182817 0.094780 -0.133695 0.215198 0.063134 0.304515 -0.109726 0.134626 0.306229 -0.224857 -0.053306 0.306083 -0.474846 -0.176611 -0.624715
0 -0.301250 -0.295469 0.309493 -0.183786 0.108885 -0.082548 0.264815 0.073076 0.254578 -0.145474 0.185124 0.279221 -0.240846 -0.131217 0.266857 -0.516410 -0.040073 -0.649716
7 -0.257321 -0.305669 0.301959 -0.167525 0.054869 -0.075915 0.307949 0.099854 0.348555 -0.118051 0.109735 0.274032 -0.234763 -0.131668 0.311680 -0.504358 -0.083852 -0.676319
13 -0.267933 -0.336436 0.333040 -0.194604 0.027835 -0.120023 0.259531 0.043517 0.346759 -0.037234 0.091631 0.279696 -0.193901 -0.057036 0.326249 -0.442698 -0.214682 -0.643673
12 -0.349244 -0.342874 0.323917 -0.208719 0.077637 -0.140533 0.233203 0.020663 0.288316 -0.083505 0.187441 0.343646 -0.233403 -0.074685 0.287983 -0.449157 -0.191780 -0.646960
8 -0.304158 -0.270143 0.300077 -0.147215 0.174129 -0.079142 0.275851 0.072309 0.200355 -0.182511 0.181767 0.248365 -0.274196 -0.171944 0.217699 -0.529794 0.012859 -0.604576
4 -0.346572 -0.148973 0.240244 -0.138127 0.361957 -0.127371 0.208628 0.058286 0.079174 -0.337736 0.339624 0.258239 -0.266852 -0.271990 0.073762 -0.553376 0.096705 -0.590170
5 -0.351334 -0.199109 0.219633 -0.146473 0.385468 -0.110357 0.253064 0.006157 0.081326 -0.352468 0.342343 0.256889 -0.313595 -0.271294 0.082333 -0.577264 0.103306 -0.592012
9 -0.371876 -0.286185 0.304004 -0.187036 0.232043 -0.108850 0.296943 0.082706 0.253837 -0.242027 0.250982 0.323593 -0.300073 -0.236601 0.208829 -0.600804 -0.011035 -0.690998
17 -0.295328 -0.304681 0.312697 -0.140097 0.094640 -0.117500 0.310646 0.103478 0.327624 -0.123839 0.173248 0.309847 -0.237354 -0.116847 0.242064 -0.491818 -0.061359 -0.685402
15 -0.332187 -0.276337 0.305202 -0.184201 0.168268 -0.079903 0.240767 0.016750 0.205050 -0.168768 0.188986 0.244778 -0.223207 -0.116748 0.216198 -0.472714 -0.079149 -0.587671
