18 18
4 -0.023363 -0.525980 0.229351 -0.346544 0.063536 0.281708 0.333457 -0.025985 0.417381 -0.134316 0.306869 0.385132 -0.263198 -0.246612 0.410362 -0.351393 0.013743 -0.434743
13 0.018683 -0.514353 0.206512 -0.359421 0.024848 0.305138 0.359305 -0.096245 0.389550 -0.085883 0.282954 0.345416 -0.265057 -0.258382 0.408623 -0.311523 -0.012283 -0.399719
9 -0.030360 -0.493568 0.169153 -0.330227 0.036753 0.269510 0.329999 -0.041354 0.429278 -0.113507 0.279376 0.377573 -0.248673 -0.243957 0.371049 -0.312178 -0.003972 -0.384736
2 0.005230 -0.508296 0.193001 -0.329631 0.032491 0.281007 0.347388 -0.042598 0.355215 -0.110268 0.261778 0.358973 -0.246442 -0.236167 0.374578 -0.323393 -0.004129 -0.371965
5 0.015505 -0.494266 0.113443 -0.305031 0.033168 0.245667 0.358498 -0.086970 0.453217 -0.121051 0.288761 0.384747 -0.242787 -0.213739 0.393129 -0.298014 -0.032407 -0.435627
16 -0.034647 -0.485266 0.196503 -0.306901 0.023453 0.254736 0.337897 -0.054242 0.390057 -0.097742 0.236709 0.356393 -0.256306 -0.175555 0.392799 -0.316543 -0.025646 -0.419202
3 -0.057012 -0.492907 0.232040 -0.311292 0.040629 0.264758 0.340243 -0.057635 0.354611 -0.111715 0.284782 0.332981 -0.289591 -0.234017 0.382298 -0.337911 0.032511 -0.428225
15 -0.043161 -0.534657 0.238512 -0.353861 0.048233 0.332417 0.361716 -0.086011 0.368526 -0.119964 0.304460 0.346314 -0.276242 -0.221463 0.406351 -0.332533 -0.006528 -0.399702
12 -0.033652 -0.500949 0.179195 -0.325057 0.016750 0.246666 0.309791 -0.080148 0.368190 -0.086472 0.292833 0.372360 -0.245111 -0.199387 0.374209 -0.277275 -0.033585 -0.387799
1 -0.055928 -0.525742 0.226421 -0.335052 0.053994 0.240886 0.320061 -0.021200 0.413362 -0.111156 0.238789 0.333503 -0.236932 -0.227796 0.360445 -0.329285 0.034345 -0.398729
8 -0.012983 -0.538292 0.217027 -0.326073 0.018195 0.308776 0.366519 -0.066921 0.383933 -0.083901 0.271186 0.350401 -0.293765 -0.217670 0.408459 -0.326979 0.029271 -0.391297
10 0.015872 -0.457000 0.144277 -0.295670 0.032174 0.298324 0.335932 -0.081480 0.380277 -0.107412 0.282721 0.346687 -0.262066 -0.188001 0.346352 -0.241672 0.012216 -0.343732
0 -0.027144 -0.518240 0.200344 -0.347949 0.015783 0.297495 0.322328 -0.065688 0.378799 -0.103956 0.292083 0.350535 -0.258083 -0.218351 0.407510 -0.317910 0.029939 -0.393022
6 -0.005618 -0.508084 0.196211 -0.297993 0.037230 0.295749 0.355670 -0.044109 0.387603 -0.107609 0.289352 0.348105 -0.268977 -0.236605 0.398812 -0.302492 -0.000688 -0.411297
11 -0.042126 -0.508376 0.197496 -0.300410 0.044959 0.256139 0.303527 -0.028688 0.396734 -0.125449 0.251798 0.353564 -0.262371 -0.191739 0.407040 -0.328868 -0.014540 -0.389609
7 0.020350 -0.471011 0.125617 -0.305059 0.001282 0.265133 0.331659 -0.042027 0.453451 -0.116181 0.245869 0.364493 -0.216567 -0.235720 0.394002 -0.279149 -0.011414 -0.414323
17 -0.005700 -0.463424 0.151351 -0.276139 -0.005651 0.226214 0.334309 -0.039731 0.434456 -0.081680 0.268672 0.375802 -0.205529 -0.191716 0.346285 -0.253484 -0.008590 -0.421779
14 -0.032049 -0.495166 0.209051 -0.331552 0.042710 0.267784 0.305761 -0.069495 0.364407 -0.079437 0.236866 0.353638 -0.255865 -0.209509 0.361865 -0.278035 0.021498 -0.381184
