18 18
17 -0.151498 -0.490580 0.116303 -0.011735 -0.119488 0.110577 0.256812 0.251499 0.402949 -0.098419 0.186593 0.491793 -0.180882 0.066365 0.434602 -0.381215 -0.064993 -0.437451
2 -0.192203 -0.527927 0.125761 -0.175772 -0.056571 0.184273 0.224490 0.095187 0.222019 -0.152554 0.201485 0.491338 -0.210742 0.082148 0.479444 -0.439030 -0.148576 -0.344211
10 -0.149535 -0.503731 0.093419 -0.054687 -0.067775 0.179831 0.260416 0.220604 0.391415 -0.159695 0.214948 0.522440 -0.206931 0.103071 0.465464 -0.385790 -0.089547 -0.401409
0 -0.182777 -0.510709 0.124870 -0.121827 -0.097921 0.170636 0.217857 0.152019 0.298508 -0.132512 0.211144 0.465314 -0.207041 0.075947 0.490991 -0.423185 -0.072514 -0.389574
8 -0.188338 -0.547107 0.160730 -0.080064 -0.116549 0.166428 0.255931 0.165917 0.310071 -0.105882 0.145152 0.438293 -0.262322 0.049970 0.507609 -0.462178 -0.068717 -0.381282
4 -0.148587 -0.460010 0.110168 -0.011729 -0.073849 0.104788 0.218056 0.288036 0.399492 -0.137806 0.219995 0.495060 -0.149924 0.062477 0.423926 -0.380270 -0.056979 -0.441535
15 -0.225830 -0.529693 0.153446 -0.153116 -0.057226 0.196493 0.233886 0.086385 0.269619 -0.150669 0.190798 0.442902 -0.227883 0.088248 0.491673 -0.434504 -0.137724 -0.367974
12 -0.284049 -0.607453 0.154468 -0.244165 -0.064172 0.207684 0.206840 0.001475 0.210160 -0.144850 0.258433 0.534937 -0.265036 0.137751 0.538342 -0.435954 -0.202639 -0.355160
6 -0.142041 -0.463483 0.115098 -0.021497 -0.080574 0.145315 0.236472 0.213977 0.327900 -0.115936 0.171743 0.431531 -0.202360 0.044793 0.451972 -0.382805 -0.082500 -0.391481
16 -0.163284 -0.445758 0.109283 -0.074661 -0.078909 0.135591 0.230366 0.168401 0.320763 -0.120313 0.163431 0.466481 -0.198587 0.099975 0.457644 -0.388912 -0.116896 -0.408141
5 -0.198087 -0.537657 0.101739 -0.144382 -0.044829 0.165732 0.234943 0.069433 0.282743 -0.153798 0.218371 0.471149 -0.242000 0.100260 0.489210 -0.432093 -0.135037 -0.366632
7 -0.163380 -0.511572 0.111673 -0.092528 -0.103060 0.176151 0.244363 0.172140 0.336795 -0.141342 0.156331 0.457556 -0.230006 0.038303 0.505972 -0.433503 -0.091870 -0.389442
3 -0.242769 -0.525538 0.184468 -0.101218 -0.064634 0.153502 0.244524 0.126930 0.228410 -0.153541 0.162269 0.397736 -0.301042 0.026770 0.484398 -0.487153 -0.074010 -0.386655
1 -0.214638 -0.558652 0.151021 -0.107972 -0.070858 0.132237 0.238716 0.203837 0.369631 -0.135858 0.188887 0.505837 -0.201139 0.075992 0.473077 -0.437341 -0.092264 -0.426031
9 -0.163949 -0.466526 0.091101 -0.056634 -0.082206 0.137060 0.223511 0.206123 0.355817 -0.124216 0.167718 0.457000 -0.195459 0.032027 0.429302 -0.395032 -0.090222 -0.356033
14 -0.232280 -0.566896 0.157484 -0.191650 -0.054465 0.199052 0.208305 0.078768 0.264614 -0.128696 0.203040 0.523435 -0.238468 0.112243 0.509207 -0.409839 -0.128059 -0.383186
11 -0.215783 -0.498052 0.153917 -0.096620 -0.056130 0.137623 0.184487 0.127641 0.242533 -0.149657 0.125246 0.379983 -0.262478 0.061260 0.485464 -0.452641 -0.103969 -0.328856
13 0.019096 0.002747 0.009678 -0.019404 -0.008210 -0.004883 0.008138 -0.018294 0.006568 0.019257 -0.015253 -0.018294 0.012156 -0.023377 0.007956 -0.002520 -0.021393 -0.009389
