18 18
4 -0.050310 -0.440949 -0.146239 -0.178226 0.059532 -0.117486 0.261747 -0.092966 0.531977 -0.083355 0.199397 0.464775 -0.154401 -0.167211 0.269804 -0.296945 -0.100764 -0.478337
3 -0.115904 -0.474526 -0.086800 -0.208610 0.051402 -0.092594 0.299188 -0.143358 0.497390 -0.067525 0.199174 0.456430 -0.221563 -0.183176 0.268645 -0.306367 -0.083804 -0.500310
17 -0.061658 -0.461220 -0.121367 -0.188311 0.020260 -0.105338 0.301889 -0.139972 0.527878 -0.029615 0.165754 0.462299 -0.169863 -0.154004 0.273615 -0.275216 -0.110414 -0.502602
12 -0.114041 -0.521326 -0.112164 -0.254636 0.020014 -0.100678 0.291063 -0.197617 0.514369 -0.029196 0.203333 0.512236 -0.200859 -0.143741 0.313508 -0.295640 -0.161442 -0.515327
1 -0.086061 -0.478929 -0.098198 -0.218942 0.052918 -0.108405 0.284006 -0.120729 0.528082 -0.056362 0.138668 0.440503 -0.164855 -0.167956 0.271934 -0.309033 -0.098535 -0.481798
0 -0.076107 -0.473425 -0.112477 -0.228808 0.015423 -0.061846 0.276075 -0.146873 0.493753 -0.054927 0.182493 0.455823 -0.179814 -0.147505 0.310050 -0.303120 -0.098620 -0.477714
13 -0.063131 -0.478288 -0.101929 -0.233641 0.036929 -0.091681 0.296966 -0.182820 0.509171 -0.027454 0.159984 0.439586 -0.188969 -0.195176 0.300296 -0.295397 -0.134534 -0.505004
15 -0.107079 -0.491891 -0.088678 -0.247632 0.043370 -0.049799 0.311576 -0.215851 0.495757 -0.045757 0.174800 0.454451 -0.196499 -0.146511 0.330327 -0.317983 -0.158510 -0.534980
2 -0.026454 -0.475978 -0.161390 -0.190725 0.038651 -0.108291 0.310218 -0.078831 0.546405 -0.087072 0.163574 0.486928 -0.157014 -0.167383 0.258181 -0.311416 -0.109799 -0.438269
14 -0.086413 -0.477089 -0.085239 -0.225244 0.056272 -0.079546 0.262119 -0.154219 0.477842 -0.037190 0.143917 0.454177 -0.193906 -0.165464 0.285065 -0.285272 -0.093713 -0.482740
6 -0.067447 -0.484821 -0.102669 -0.193197 0.043005 -0.074731 0.301202 -0.151087 0.497367 -0.035817 0.174269 0.447681 -0.197787 -0.184845 0.318326 -0.302564 -0.130205 -0.525161
10 -0.055291 -0.491186 -0.165396 -0.181243 0.059612 -0.070520 0.319278 -0.087566 0.602415 -0.113633 0.196232 0.530018 -0.209845 -0.112040 0.252371 -0.265100 -0.088242 -0.427410
7 -0.015599 -0.442464 -0.174798 -0.190377 0.030068 -0.072068 0.285606 -0.113671 0.544701 -0.081209 0.144426 0.444889 -0.164575 -0.190297 0.295638 -0.289684 -0.092146 -0.455001
5 -0.028467 -0.450467 -0.185502 -0.176725 0.071007 -0.105594 0.294909 -0.133180 0.533718 -0.098307 0.181035 0.441785 -0.180301 -0.167484 0.281018 -0.320889 -0.099787 -0.463523
16 -0.076599 -0.449211 -0.096667 -0.219409 0.019509 -0.066578 0.315251 -0.192988 0.483748 -0.022365 0.126268 0.461822 -0.205604 -0.129157 0.335180 -0.310669 -0.173925 -0.535902
11 -0.085948 -0.487233 -0.137256 -0.174566 0.062011 -0.103775 0.276048 -0.076963 0.573616 -0.116556 0.176387 0.494171 -0.206606 -0.113539 0.282981 -0.306828 -0.109426 -0.440269
9 -0.071719 -0.453359 -0.145623 -0.207853 0.037395 -0.084827 0.275911 -0.109709 0.537476 -0.064139 0.166684 0.481700 -0.176130 -0.177646 0.268353 -0.289699 -0.123589 -0.435234
8 -0.060981 -0.518449 -0.118505 -0.207918 0.028809 -0.083263 0.318644 -0.144806 0.544619 -0.040589 0.166937 0.477681 -0.210015 -0.177150 0.328912 -0.335580 -0.103651 -0.513987
