18 18
9 -0.340547 -0.302043 -0.022453 -0.281440 0.016268 0.067830 -0.004546 0.102507 0.247776 -0.186271 0.377953 0.554359 -0.116757 -0.136361 0.354052 -0.431218 -0.250026 -0.288931
0 -0.342566 -0.300910 0.021558 -0.295706 -0.028320 0.079084 -0.005469 0.115077 0.207983 -0.179625 0.401095 0.548895 -0.107448 -0.140666 0.411624 -0.472666 -0.214423 -0.350127
4 -0.310312 -0.252133 0.016485 -0.242780 0.034003 0.029270 -0.014658 0.144932 0.205758 -0.198642 0.373776 0.517654 -0.081150 -0.137095 0.351905 -0.462168 -0.235690 -0.350838
7 -0.311452 -0.281255 -0.004170 -0.278422 -0.011325 0.075099 0.008219 0.134208 0.240508 -0.193684 0.361308 0.547510 -0.104726 -0.170677 0.397260 -0.464882 -0.236798 -0.356763
15 -0.331990 -0.292860 0.041008 -0.269529 0.012544 0.079917 0.023304 0.100619 0.209214 -0.184650 0.357661 0.508057 -0.102020 -0.123760 0.377002 -0.458270 -0.242694 -0.353401
14 -0.353242 -0.319391 0.051680 -0.295887 0.002937 0.084929 -0.003428 0.107751 0.214184 -0.154955 0.325729 0.557996 -0.128772 -0.124775 0.402181 -0.457693 -0.215151 -0.363019
6 -0.343300 -0.326774 0.010966 -0.262294 0.018631 0.071889 0.014479 0.126946 0.234087 -0.191245 0.405165 0.563609 -0.126506 -0.133162 0.402816 -0.467265 -0.261810 -0.357590
8 -0.329136 -0.319201 0.038028 -0.262358 -0.021232 0.072001 0.018441 0.149206 0.221132 -0.167610 0.362189 0.548999 -0.125296 -0.153149 0.416113 -0.496421 -0.217079 -0.356957
16 -0.339198 -0.283520 0.022975 -0.270773 -0.000681 0.066453 0.019498 0.116257 0.222848 -0.180691 0.351868 0.553942 -0.127892 -0.113325 0.409099 -0.482888 -0.264140 -0.372170
11 -0.373807 -0.333269 0.025661 -0.273070 0.028690 0.055174 -0.012042 0.137029 0.245459 -0.216197 0.388458 0.567200 -0.137018 -0.111303 0.411775 -0.491955 -0.258207 -0.356074
1 -0.359266 -0.314641 0.046574 -0.287641 0.029152 0.020682 0.005030 0.134963 0.226131 -0.191900 0.357173 0.525198 -0.093303 -0.149042 0.353445 -0.483453 -0.223243 -0.364445
13 -0.307411 -0.291169 0.015814 -0.294811 -0.000040 0.055431 0.016905 0.092099 0.227469 -0.171418 0.376016 0.528005 -0.103933 -0.169388 0.387518 -0.466290 -0.267623 -0.351055
5 -0.314626 -0.317327 -0.019658 -0.268505 0.028975 0.055995 0.040318 0.080639 0.242606 -0.201979 0.386669 0.546260 -0.136478 -0.128738 0.381771 -0.469056 -0.252546 -0.353640
2 -0.322527 -0.299592 0.023323 -0.284151 -0.001378 0.055868 0.019590 0.140854 0.183816 -0.191540 0.365608 0.546749 -0.092738 -0.168438 0.376581 -0.500828 -0.256630 -0.352055
3 -0.381180 -0.294132 0.046569 -0.280719 0.015110 0.048403 0.024273 0.129701 0.187889 -0.208652 0.408572 0.540102 -0.141592 -0.186514 0.372700 -0.508403 -0.222792 -0.396561
12 -0.383953 -0.353665 0.006158 -0.322829 -0.017791 0.066856 -0.015548 0.078185 0.225518 -0.170308 0.439001 0.616549 -0.125246 -0.109885 0.403854 -0.449181 -0.285638 -0.326630
10 -0.372346 -0.348700 -0.008954 -0.304001 0.022574 0.104939 0.024710 0.112675 0.281003 -0.225922 0.445566 0.635504 -0.146446 -0.108352 0.405187 -0.466175 -0.261423 -0.340446
17 -0.355597 -0.316081 0.026415 -0.265004 -0.029509 0.042487 0.027741 0.130369 0.256296 -0.160123 0.391249 0.581179 -0.103211 -0.116016 0.369584 -0.443849 -0.237854 -0.384094
