18 18
10 -0.106083 -0.531731 0.254329 -0.374960 -0.075885 0.165919 0.211107 -0.058108 0.245113 0.031495 -0.112362 0.268772 -0.221969 -0.198335 0.594251 -0.459723 -0.147590 -0.449295
2 -0.094313 -0.464370 0.291715 -0.357516 -0.063462 0.122076 0.193322 -0.033088 0.135833 0.040443 -0.134631 0.203799 -0.166543 -0.251179 0.540327 -0.476400 -0.151266 -0.454272
7 -0.058829 -0.496569 0.198615 -0.352422 -0.114009 0.155942 0.181987 -0.027327 0.251316 0.040108 -0.126655 0.242364 -0.169947 -0.227844 0.589035 -0.439095 -0.127909 -0.414485
0 -0.092679 -0.523217 0.246770 -0.375641 -0.129682 0.135017 0.180943 -0.045528 0.223107 0.061908 -0.097085 0.224490 -0.152467 -0.191560 0.594544 -0.460063 -0.138934 -0.445792
1 -0.125551 -0.506811 0.293047 -0.357540 -0.069196 0.092041 0.189041 -0.021020 0.212839 0.054754 -0.135700 0.195887 -0.154501 -0.222824 0.534181 -0.463133 -0.123055 -0.465482
15 -0.117476 -0.483922 0.279397 -0.357088 -0.088626 0.142554 0.207113 -0.072571 0.184895 0.049817 -0.101355 0.199110 -0.158237 -0.191044 0.552798 -0.446479 -0.166282 -0.465726
11 -0.133429 -0.541828 0.272157 -0.371263 -0.074485 0.122382 0.159477 -0.027319 0.252233 0.030212 -0.128796 0.271426 -0.210500 -0.195545 0.625110 -0.489702 -0.171987 -0.464308
13 -0.114411 -0.491531 0.324361 -0.390761 -0.073428 0.109401 0.198011 -0.079811 0.191087 0.071508 -0.141226 0.215442 -0.186301 -0.244197 0.590991 -0.478340 -0.194153 -0.521823
6 -0.097204 -0.479254 0.283928 -0.313547 -0.076501 0.120058 0.201075 -0.025343 0.175945 0.057000 -0.111880 0.186025 -0.173027 -0.219213 0.556218 -0.447776 -0.142968 -0.476243
8 -0.093468 -0.522045 0.252415 -0.343118 -0.104600 0.139467 0.195751 -0.035440 0.221935 0.063833 -0.126259 0.240413 -0.204665 -0.200679 0.594402 -0.472373 -0.131159 -0.428269
9 -0.095011 -0.524321 0.201666 -0.365804 -0.093576 0.148921 0.189520 -0.016441 0.276284 0.037146 -0.114227 0.269114 -0.186527 -0.238408 0.582474 -0.473081 -0.146347 -0.399026
16 -0.110826 -0.460589 0.286270 -0.342767 -0.087875 0.111351 0.209535 -0.062051 0.180452 0.059493 -0.136955 0.221350 -0.185667 -0.172372 0.564196 -0.459756 -0.179695 -0.494871
14 -0.127983 -0.502385 0.307965 -0.387470 -0.053809 0.139972 0.173386 -0.068943 0.175015 0.060884 -0.156178 0.235492 -0.203828 -0.225091 0.570690 -0.454321 -0.133391 -0.469898
3 -0.152351 -0.468484 0.343582 -0.361730 -0.042096 0.119521 0.213839 -0.058020 0.127856 0.033735 -0.127894 0.174628 -0.229236 -0.280060 0.547334 -0.507916 -0.111761 -0.517949
5 -0.102489 -0.512492 0.249360 -0.350357 -0.061438 0.118762 0.220590 -0.070840 0.215253 0.033999 -0.103925 0.237084 -0.209685 -0.210799 0.578974 -0.486187 -0.152020 -0.484580
12 -0.144603 -0.535608 0.280256 -0.394602 -0.103124 0.120948 0.169361 -0.099036 0.194959 0.075903 -0.087898 0.290608 -0.211173 -0.178479 0.600386 -0.439920 -0.209822 -0.469248
17 -0.113519 -0.509782 0.297455 -0.344193 -0.124835 0.096692 0.218390 -0.042653 0.218911 0.086554 -0.105415 0.256777 -0.167642 -0.191638 0.565281 -0.446520 -0.165770 -0.524193
4 -0.134090 -0.440189 0.319193 -0.349513 -0.031232 0.098082 0.166528 -0.025736 0.157556 0.025521 -0.103160 0.199459 -0.175380 -0.256428 0.545069 -0.490152 -0.130555 -0.514288
