18 18
2 -0.314790 -0.432873 0.497231 -0.267783 -0.252071 0.123457 0.278965 0.183099 0.094317 0.088324 -0.019264 0.268263 -0.153792 -0.386079 0.330007 -0.452271 0.003994 -0.496133
3 -0.345850 -0.381419 0.494763 -0.282108 -0.211838 0.124745 0.211537 0.091086 0.084154 0.074065 0.064593 0.175288 -0.183899 -0.422942 0.302585 -0.386911 0.060329 -0.523183
13 -0.292901 -0.378710 0.460551 -0.308050 -0.224449 0.104789 0.199138 0.079162 0.130589 0.110072 0.032678 0.179578 -0.126721 -0.420413 0.310888 -0.364456 0.011428 -0.505543
14 -0.323274 -0.381363 0.474169 -0.293728 -0.193234 0.125271 0.177459 0.092604 0.095262 0.091468 0.027121 0.207492 -0.147288 -0.372279 0.290850 -0.347464 0.049558 -0.477741
4 -0.321334 -0.339921 0.446350 -0.261881 -0.169036 0.097708 0.168581 0.146607 0.125483 0.053340 0.066872 0.224461 -0.122691 -0.393793 0.296166 -0.389508 0.022525 -0.495313
11 -0.342083 -0.411576 0.474375 -0.247962 -0.198463 0.105195 0.193360 0.152309 0.141607 0.058119 0.008873 0.232203 -0.170003 -0.334428 0.344227 -0.403200 -0.002710 -0.477384
1 -0.321644 -0.399011 0.467023 -0.274354 -0.208765 0.086211 0.217248 0.140998 0.130124 0.087966 0.006980 0.207153 -0.125058 -0.372045 0.271248 -0.379166 0.048065 -0.477961
6 -0.315664 -0.410265 0.491532 -0.256671 -0.231322 0.127130 0.241416 0.151571 0.117751 0.093341 0.042000 0.218312 -0.150127 -0.405850 0.332265 -0.396465 0.021045 -0.528931
15 -0.339020 -0.423785 0.492489 -0.291963 -0.234226 0.144228 0.254844 0.115816 0.122598 0.085993 0.023668 0.231434 -0.141688 -0.361927 0.326881 -0.404198 0.002149 -0.506838
12 -0.313224 -0.377808 0.419460 -0.283516 -0.210960 0.102217 0.161951 0.070929 0.091509 0.098441 0.058736 0.224027 -0.140359 -0.340929 0.288027 -0.322946 0.006161 -0.441530
17 -0.299264 -0.398059 0.462520 -0.240692 -0.266804 0.091970 0.250436 0.146183 0.143204 0.115279 0.017779 0.242634 -0.130627 -0.339990 0.293350 -0.359713 0.020016 -0.502908
8 -0.325152 -0.436890 0.499970 -0.258183 -0.249196 0.134849 0.257310 0.143832 0.116466 0.112055 -0.005816 0.234861 -0.187869 -0.372518 0.347907 -0.420161 0.041224 -0.498379
0 -0.312999 -0.404970 0.464163 -0.294180 -0.248277 0.134383 0.207039 0.114670 0.116017 0.086176 0.052275 0.213923 -0.149691 -0.374539 0.340625 -0.392124 0.043411 -0.491471
9 -0.308535 -0.360285 0.408668 -0.263907 -0.194681 0.108897 0.195649 0.134091 0.135257 0.074120 0.029442 0.234004 -0.137535 -0.385583 0.279418 -0.370800 0.012498 -0.434176
7 -0.285590 -0.392496 0.444507 -0.268576 -0.248592 0.136973 0.237382 0.142702 0.140484 0.082436 0.000252 0.227505 -0.145064 -0.390098 0.329697 -0.382887 0.030981 -0.484111
10 -0.305808 -0.373810 0.430021 -0.258440 -0.185198 0.141872 0.207992 0.111229 0.140567 0.056028 0.044530 0.228382 -0.164898 -0.344173 0.294064 -0.346744 0.031489 -0.451716
16 -0.315745 -0.395178 0.473788 -0.251742 -0.245455 0.112294 0.251661 0.132617 0.117842 0.098817 -0.015119 0.243177 -0.172194 -0.321762 0.342697 -0.402396 -0.008803 -0.500036
5 0.004065 -0.024114 -0.027650 -0.000619 0.020703 -0.008521 0.024223 -0.023969 0.025914 -0.018771 0.021210 0.020548 -0.020024 0.006829 0.014933 -0.023795 -0.013973 -0.021943
