18 18
17 -0.258839 -0.387322 0.197779 0.053789 -0.093198 -0.060943 0.272270 0.152769 0.525177 -0.027076 0.262149 0.509005 -0.103035 0.267266 0.240754 -0.147647 -0.165506 -0.585276
11 -0.310968 -0.411148 0.225964 0.015586 -0.048379 -0.068643 0.207432 0.152835 0.502249 -0.059384 0.242745 0.479261 -0.119415 0.259846 0.284273 -0.200327 -0.189048 -0.564036
16 -0.283543 -0.381308 0.221783 0.002620 -0.063947 -0.050647 0.264939 0.109866 0.498414 -0.049734 0.228168 0.469846 -0.124019 0.267649 0.290837 -0.205581 -0.199242 -0.604524
4 -0.276288 -0.376925 0.216634 0.010399 -0.053407 -0.072188 0.205119 0.153359 0.487412 -0.033840 0.263709 0.477375 -0.077284 0.222090 0.242896 -0.169123 -0.169897 -0.565222
9 -0.296358 -0.418643 0.206577 -0.005640 -0.075545 -0.053685 0.233161 0.156064 0.528987 -0.019042 0.256567 0.523604 -0.095258 0.207721 0.247302 -0.170536 -0.187297 -0.551846
6 -0.270822 -0.437683 0.251239 -0.009063 -0.074917 -0.038905 0.228874 0.136456 0.466092 0.014641 0.236946 0.470062 -0.079742 0.199981 0.277879 -0.153991 -0.205909 -0.571574
14 -0.290609 -0.424556 0.255176 -0.053678 -0.053540 -0.041643 0.182663 0.099301 0.435459 0.015414 0.189665 0.461537 -0.087052 0.214772 0.251862 -0.143509 -0.176935 -0.519688
0 -0.311133 -0.466262 0.259676 -0.072858 -0.091719 -0.043517 0.206881 0.110544 0.490652 -0.001831 0.259373 0.483195 -0.074278 0.225688 0.304002 -0.191264 -0.188342 -0.582856
2 -0.262558 -0.404805 0.218936 -0.004987 -0.076215 -0.051620 0.242995 0.151696 0.463392 -0.027926 0.240447 0.493559 -0.082402 0.212150 0.249475 -0.190318 -0.192685 -0.548334
3 -0.302112 -0.369927 0.219901 0.045598 -0.050215 -0.058360 0.271909 0.146415 0.479569 -0.079329 0.276137 0.462398 -0.150141 0.228769 0.242626 -0.212072 -0.136751 -0.593719
13 -0.276651 -0.438429 0.259451 -0.059455 -0.084131 -0.064828 0.226042 0.102849 0.498895 0.020657 0.221241 0.461673 -0.066191 0.196718 0.281341 -0.176395 -0.217900 -0.581719
5 -0.280416 -0.421855 0.185819 0.012535 -0.042726 -0.064596 0.262332 0.110057 0.523541 -0.064637 0.270968 0.497989 -0.129846 0.257353 0.277992 -0.207179 -0.190756 -0.584307
7 -0.236364 -0.368621 0.171174 0.038884 -0.095468 -0.028742 0.267549 0.159421 0.518706 -0.056324 0.246863 0.490173 -0.114351 0.216698 0.260532 -0.164186 -0.143831 -0.564874
10 -0.276569 -0.396038 0.196599 0.041436 -0.052492 -0.025797 0.275433 0.152582 0.535510 -0.071217 0.278162 0.518782 -0.136451 0.271027 0.242166 -0.159181 -0.160408 -0.562844
15 -0.314584 -0.411756 0.236379 -0.010596 -0.054574 -0.026622 0.257024 0.110127 0.501680 -0.060643 0.261522 0.472906 -0.110025 0.250860 0.275709 -0.195669 -0.194530 -0.591534
8 -0.255741 -0.396750 0.211224 0.036918 -0.088027 -0.038009 0.249476 0.146875 0.471011 -0.012448 0.232113 0.474626 -0.123046 0.235029 0.259605 -0.173073 -0.147865 -0.537282
1 -0.320081 -0.452370 0.263380 -0.042878 -0.063472 -0.077724 0.218100 0.140796 0.512667 -0.011688 0.220743 0.476258 -0.077572 0.224500 0.259286 -0.187209 -0.175378 -0.579742
12 -0.302978 -0.418884 0.208670 0.002945 -0.090708 -0.060307 0.219768 0.117520 0.474606 -0.011126 0.279361 0.517461 -0.113972 0.255397 0.253159 -0.143810 -0.196941 -0.544443
