18 18
1 -0.247330 -0.574663 0.096593 -0.131642 -0.036759 0.025046 0.174952 0.131394 0.486081 -0.052770 0.092868 0.437560 -0.217847 -0.050940 0.363810 -0.261770 -0.121313 -0.329317
0 -0.263898 -0.595288 0.101124 -0.162846 -0.066850 0.038858 0.142653 0.093852 0.463602 -0.054031 0.134004 0.479100 -0.237357 -0.011799 0.431926 -0.266376 -0.149793 -0.359589
11 -0.308712 -0.601522 0.147121 -0.153782 -0.016148 -0.010737 0.073314 0.098487 0.456574 -0.075050 0.108506 0.485988 -0.241492 0.043548 0.442662 -0.256339 -0.200762 -0.372540
8 -0.187680 -0.608546 0.058667 -0.095158 -0.090094 0.110349 0.261494 0.161365 0.536919 -0.027639 0.094327 0.472616 -0.271048 -0.097219 0.422280 -0.291916 -0.086549 -0.327950
7 -0.179833 -0.555547 0.039740 -0.118709 -0.074813 0.082510 0.205854 0.154610 0.508310 -0.070850 0.087812 0.449312 -0.222999 -0.101514 0.397825 -0.265979 -0.100262 -0.326940
16 -0.261197 -0.589606 0.105136 -0.149530 -0.054647 0.027954 0.185751 0.091087 0.484333 -0.062945 0.096673 0.505577 -0.270719 0.007992 0.463041 -0.301641 -0.202606 -0.403634
17 -0.259241 -0.585904 0.103308 -0.123322 -0.072465 0.014735 0.169268 0.104264 0.494201 -0.033440 0.126752 0.513879 -0.238299 0.010626 0.412874 -0.239562 -0.173664 -0.386124
2 -0.233101 -0.641312 0.095340 -0.154509 -0.051615 0.049915 0.195532 0.146092 0.496095 -0.069127 0.100992 0.533862 -0.244535 -0.056631 0.435691 -0.304839 -0.171194 -0.361053
5 -0.233160 -0.595970 0.058915 -0.135470 -0.028695 0.026402 0.196201 0.085018 0.500914 -0.081904 0.127815 0.498602 -0.266173 -0.017604 0.427232 -0.294983 -0.172461 -0.372115
3 -0.280118 -0.594730 0.121141 -0.141727 -0.047289 0.029075 0.196732 0.107866 0.471389 -0.077427 0.133529 0.493496 -0.289517 -0.045023 0.441283 -0.316437 -0.153501 -0.417551
9 -0.218045 -0.569418 0.036850 -0.114753 -0.065752 0.073721 0.217812 0.153259 0.536882 -0.055736 0.115857 0.481506 -0.245164 -0.097338 0.386968 -0.277268 -0.125281 -0.313404
14 -0.274489 -0.591140 0.147214 -0.164669 -0.012984 0.026134 0.111837 0.088017 0.438588 -0.044310 0.084199 0.497005 -0.247147 -0.001163 0.412027 -0.239797 -0.156366 -0.365150
4 -0.282189 -0.613360 0.122924 -0.146531 -0.020160 0.012002 0.140881 0.156135 0.524896 -0.091768 0.142785 0.543598 -0.249662 -0.033632 0.456864 -0.312038 -0.168176 -0.428352
12 -0.307219 -0.645837 0.113187 -0.171911 -0.071915 0.001441 0.099312 0.041881 0.454106 -0.009367 0.148231 0.532339 -0.250697 0.044365 0.422215 -0.190264 -0.229114 -0.329690
10 -0.176465 -0.517536 0.036390 -0.088193 -0.046271 0.104756 0.220433 0.148529 0.503474 -0.069679 0.115383 0.441412 -0.240046 -0.069164 0.344578 -0.226044 -0.075753 -0.284692
15 -0.281610 -0.588482 0.126571 -0.166625 -0.034442 0.049486 0.142672 0.068615 0.447024 -0.063211 0.121388 0.465265 -0.229244 0.002283 0.414481 -0.252910 -0.184711 -0.360074
13 -0.250263 -0.599687 0.122587 -0.171800 -0.062501 0.016912 0.149015 0.067450 0.484690 -0.011610 0.102505 0.483501 -0.235518 -0.023785 0.427868 -0.241294 -0.203849 -0.362621
6 -0.251755 -0.598602 0.101095 -0.113558 -0.048419 0.042181 0.173094 0.118874 0.484492 -0.049390 0.129093 0.486861 -0.252972 -0.028091 0.435264 -0.251963 -0.181165 -0.379559
