18 18
11 -0.064755 -0.383092 -0.040322 -0.217939 -0.062281 0.010183 0.208112 0.244313 0.479699 -0.181058 -0.095579 0.318642 -0.083931 -0.431514 0.345006 -0.496817 -0.200944 -0.227248
2 -0.043297 -0.382430 -0.055360 -0.244386 -0.083562 0.028986 0.252212 0.257833 0.478531 -0.188503 -0.088674 0.352832 -0.056143 -0.483403 0.316333 -0.511315 -0.207001 -0.230499
5 -0.064781 -0.392244 -0.072832 -0.232493 -0.045591 0.026624 0.270257 0.193353 0.514651 -0.203919 -0.038728 0.343371 -0.096524 -0.436498 0.327173 -0.501467 -0.199474 -0.268342
14 -0.085253 -0.397853 -0.013990 -0.252028 -0.051698 0.045252 0.236601 0.213934 0.485659 -0.171911 -0.088411 0.341629 -0.088946 -0.451561 0.315164 -0.472560 -0.169919 -0.253698
8 -0.047621 -0.396108 -0.043255 -0.222408 -0.092660 0.043066 0.251506 0.236750 0.488375 -0.160021 -0.087421 0.331046 -0.094826 -0.460002 0.346980 -0.501701 -0.172889 -0.233056
1 -0.096155 -0.393407 -0.024116 -0.249184 -0.046483 -0.008638 0.230467 0.229488 0.490892 -0.182318 -0.081248 0.308694 -0.056521 -0.442527 0.285168 -0.489471 -0.173457 -0.244525
13 -0.027948 -0.402420 -0.042985 -0.274697 -0.097957 0.015501 0.239653 0.222183 0.500931 -0.149247 -0.114198 0.320270 -0.063461 -0.517908 0.366766 -0.521290 -0.228292 -0.246440
16 -0.081161 -0.337988 -0.047936 -0.227469 -0.069060 0.035397 0.274097 0.205531 0.505957 -0.193788 -0.063861 0.333311 -0.078368 -0.405398 0.305911 -0.477046 -0.194004 -0.287758
15 -0.172160 -0.365328 -0.003028 -0.239359 -0.019320 0.123597 0.338522 0.157656 0.564946 -0.261147 0.044405 0.340403 -0.091693 -0.372923 0.264576 -0.446302 -0.177850 -0.339599
4 -0.125851 -0.335911 -0.026760 -0.216030 -0.019194 0.071373 0.280136 0.213963 0.540048 -0.252380 0.034128 0.345103 -0.078281 -0.411577 0.268106 -0.456746 -0.159391 -0.315700
9 -0.035733 -0.364411 -0.093302 -0.236560 -0.089407 0.028374 0.219236 0.248453 0.500635 -0.167798 -0.090962 0.349638 -0.069051 -0.496539 0.326833 -0.486828 -0.207726 -0.190442
12 -0.080505 -0.393289 -0.029879 -0.254030 -0.087297 0.012058 0.199090 0.184516 0.432925 -0.136693 -0.059987 0.333769 -0.079225 -0.428718 0.322382 -0.449830 -0.216199 -0.213954
17 -0.110293 -0.358360 -0.051501 -0.202459 -0.072597 0.055597 0.322587 0.229182 0.591170 -0.219045 -0.000119 0.375553 -0.066727 -0.397574 0.258420 -0.441769 -0.167618 -0.326094
3 -0.132738 -0.374500 -0.020449 -0.229609 -0.039642 0.057593 0.312145 0.210196 0.519744 -0.240462 -0.009127 0.324445 -0.116867 -0.452989 0.281871 -0.506384 -0.150863 -0.310769
7 -0.011256 -0.353582 -0.096224 -0.224979 -0.108102 0.049545 0.224086 0.251674 0.498518 -0.175707 -0.101747 0.331165 -0.058510 -0.487813 0.337520 -0.461464 -0.181278 -0.206322
10 -0.141660 -0.374716 -0.039184 -0.226799 -0.016758 0.133997 0.349044 0.193725 0.609216 -0.282433 0.042689 0.377407 -0.115625 -0.383136 0.260742 -0.437146 -0.150801 -0.309530
0 -0.085058 -0.395194 -0.045440 -0.265895 -0.088464 0.056828 0.254996 0.216669 0.511334 -0.198163 -0.032034 0.343183 -0.077529 -0.457179 0.335008 -0.510814 -0.166372 -0.278242
6 -0.071116 -0.393906 -0.031428 -0.211756 -0.065895 0.046547 0.267376 0.245148 0.491375 -0.183684 -0.051985 0.337918 -0.091014 -0.468270 0.334237 -0.491005 -0.202000 -0.271644
