18 18
7 -0.101758 -0.375896 0.025847 -0.243080 -0.023861 0.019545 0.157568 0.068081 0.379268 -0.041988 0.216877 0.466326 0.005197 -0.207592 0.338354 -0.336672 -0.238364 -0.426973
0 -0.148603 -0.430445 0.061027 -0.265926 -0.007334 0.007781 0.165329 0.055751 0.353294 -0.043073 0.265969 0.484875 0.001375 -0.178558 0.346727 -0.385076 -0.237412 -0.463623
1 -0.207675 -0.485178 0.108873 -0.238745 0.055778 -0.066897 0.217244 0.043989 0.340832 -0.038932 0.255551 0.461784 -0.000877 -0.178066 0.301506 -0.412665 -0.250704 -0.521240
15 -0.165827 -0.395178 0.071866 -0.237071 0.018285 0.013311 0.174132 0.023106 0.340958 -0.048942 0.250606 0.446772 -0.013179 -0.146667 0.317205 -0.347103 -0.269815 -0.438516
2 -0.126903 -0.428349 0.048488 -0.255392 -0.000310 -0.010288 0.202388 0.085419 0.358622 -0.048164 0.255477 0.537771 0.021872 -0.211538 0.330007 -0.408252 -0.292974 -0.473738
4 -0.134323 -0.371745 0.047557 -0.208370 0.025570 -0.025495 0.176052 0.089250 0.356425 -0.060740 0.276050 0.484076 0.015519 -0.196277 0.304823 -0.372580 -0.249829 -0.471037
13 -0.140410 -0.421181 0.071772 -0.279723 0.002906 -0.008829 0.158751 0.047093 0.415676 -0.031489 0.238411 0.484987 -0.002466 -0.198290 0.371473 -0.375198 -0.293845 -0.480973
5 -0.153985 -0.439827 0.036416 -0.178618 0.076602 -0.041135 0.221144 0.006871 0.346106 -0.073906 0.263661 0.428123 -0.065352 -0.127489 0.312866 -0.372072 -0.241165 -0.464457
9 -0.128897 -0.372912 0.023442 -0.224743 0.012105 -0.004959 0.168281 0.088367 0.382604 -0.050800 0.237297 0.489370 0.002064 -0.212239 0.300926 -0.368655 -0.254430 -0.420941
8 -0.148746 -0.468169 0.071894 -0.248848 -0.000922 -0.005776 0.208160 0.085948 0.404231 -0.038348 0.252935 0.528234 -0.026317 -0.202754 0.377934 -0.433477 -0.271181 -0.502670
14 -0.164997 -0.433854 0.086956 -0.265601 0.021159 -0.000517 0.153681 0.049304 0.354036 -0.027802 0.227057 0.510785 -0.014503 -0.163012 0.324537 -0.356832 -0.240993 -0.462040
12 -0.215467 -0.507062 0.071862 -0.293112 0.011138 -0.030211 0.168029 0.020254 0.417048 -0.036415 0.311607 0.569106 -0.035578 -0.150285 0.381085 -0.372891 -0.316285 -0.502089
16 -0.141792 -0.368957 0.065011 -0.218353 0.005377 -0.008201 0.181238 0.044524 0.338830 -0.035602 0.212274 0.447247 -0.022881 -0.142243 0.323723 -0.355141 -0.264489 -0.456683
10 -0.166630 -0.484847 0.043494 -0.259591 0.046359 0.027742 0.214487 0.064240 0.498750 -0.101486 0.303539 0.560782 -0.062008 -0.150069 0.383601 -0.385623 -0.267325 -0.493542
6 -0.169483 -0.453793 0.083581 -0.188098 0.046249 -0.022668 0.206493 0.047931 0.331614 -0.044253 0.273124 0.443236 -0.042765 -0.160034 0.339638 -0.372612 -0.256758 -0.496047
17 -0.150393 -0.438556 0.056011 -0.218623 -0.006080 -0.022329 0.206561 0.080489 0.422881 -0.039608 0.273885 0.527996 -0.005896 -0.163224 0.325850 -0.358148 -0.254552 -0.495276
11 -0.188960 -0.509090 0.046337 -0.273752 0.053362 0.007063 0.149693 0.131292 0.596979 -0.144617 0.302000 0.589106 -0.076555 -0.162748 0.483607 -0.453225 -0.290430 -0.529303
3 -0.171861 -0.422964 0.083609 -0.226006 0.021688 -0.013456 0.215538 0.064468 0.330498 -0.057418 0.274084 0.471182 -0.033268 -0.217178 0.312812 -0.406089 -0.233214 -0.496649
