18 18
1 -0.257421 -0.421308 0.238380 -0.262053 -0.177583 0.063996 0.310864 0.101855 0.234856 0.072371 0.224391 0.432713 -0.222793 -0.303085 0.399610 -0.514601 -0.219276 -0.470295
3 -0.213882 -0.352584 0.224917 -0.234387 -0.132353 0.114501 0.328095 0.068944 0.144796 0.034375 0.241028 0.351289 -0.253137 -0.361034 0.346888 -0.494464 -0.155326 -0.425328
6 -0.161407 -0.355985 0.199852 -0.215117 -0.101291 0.171724 0.356178 0.084345 0.168475 0.021854 0.249276 0.362954 -0.266360 -0.404775 0.385816 -0.495455 -0.178161 -0.427199
13 -0.178724 -0.356613 0.199690 -0.256173 -0.173757 0.115070 0.308275 0.026500 0.205958 0.089205 0.214952 0.390556 -0.222277 -0.301855 0.404607 -0.441852 -0.248311 -0.428775
16 -0.275906 -0.357372 0.192589 -0.201135 -0.326031 0.005387 0.242364 -0.010160 0.245904 0.181883 0.196304 0.484262 -0.201640 0.029796 0.458185 -0.340326 -0.337106 -0.473079
5 -0.171260 -0.357145 0.137071 -0.218846 -0.105217 0.136913 0.345950 0.033761 0.220249 0.010916 0.257140 0.398854 -0.258728 -0.306848 0.370210 -0.467730 -0.196911 -0.405992
11 -0.277545 -0.403109 0.210950 -0.217173 -0.241819 0.053719 0.266640 0.052827 0.258579 0.102521 0.231360 0.469321 -0.239114 -0.124205 0.466361 -0.438824 -0.290308 -0.470795
12 -0.263286 -0.396197 0.187784 -0.249803 -0.266912 0.055218 0.249725 -0.007290 0.205464 0.147140 0.245368 0.472258 -0.213322 -0.130036 0.419412 -0.367710 -0.303778 -0.414790
0 -0.251645 -0.385131 0.201950 -0.247228 -0.264123 0.067925 0.255578 0.024615 0.210552 0.125791 0.236731 0.431367 -0.205874 -0.143977 0.428767 -0.407993 -0.239477 -0.438143
8 -0.174788 -0.383277 0.186828 -0.229550 -0.157010 0.147782 0.350220 0.072239 0.200209 0.053567 0.234111 0.400513 -0.261370 -0.342816 0.394472 -0.493719 -0.184011 -0.398553
9 -0.184212 -0.339637 0.141275 -0.240118 -0.121338 0.148490 0.328144 0.085347 0.227439 0.018105 0.256803 0.412648 -0.237039 -0.379933 0.343478 -0.478992 -0.187272 -0.370089
14 -0.216288 -0.362853 0.226529 -0.256334 -0.161651 0.105227 0.252679 0.023942 0.164874 0.101657 0.172748 0.395168 -0.221232 -0.243030 0.382414 -0.396733 -0.212614 -0.407485
4 -0.179403 -0.319886 0.192352 -0.219075 -0.107863 0.114013 0.296668 0.092432 0.187376 0.024130 0.256892 0.390915 -0.227537 -0.344833 0.365036 -0.479738 -0.180604 -0.435327
2 -0.206640 -0.375228 0.199424 -0.253497 -0.204800 0.083936 0.310450 0.076426 0.172855 0.078997 0.224721 0.430065 -0.200576 -0.279410 0.381103 -0.482706 -0.241170 -0.418594
17 -0.304697 -0.405997 0.213139 -0.194115 -0.360663 -0.022176 0.250872 0.023359 0.279209 0.206686 0.238943 0.528083 -0.191483 0.022303 0.450874 -0.343384 -0.324376 -0.506868
7 -0.159400 -0.369065 0.184813 -0.266649 -0.175896 0.162719 0.331340 0.066912 0.205725 0.052196 0.208234 0.395314 -0.232342 -0.383593 0.420039 -0.474164 -0.205525 -0.429036
15 -0.220717 -0.383170 0.213516 -0.272926 -0.146043 0.157193 0.329565 0.033503 0.195465 0.043709 0.245726 0.392282 -0.229062 -0.320058 0.397741 -0.478505 -0.229814 -0.430961
10 -0.168954 -0.345843 0.156319 -0.213056 -0.126172 0.163755 0.337899 0.059815 0.221008 0.018469 0.257106 0.404311 -0.256200 -0.295576 0.364886 -0.436609 -0.183084 -0.382756
