18 18
10 -0.207514 -0.464023 0.249600 -0.087487 -0.079055 0.183834 0.242875 0.361322 0.417968 -0.102439 0.132719 0.446820 -0.110418 -0.159399 0.330620 -0.278560 -0.232432 -0.322516
15 -0.237498 -0.485400 0.296790 -0.128567 -0.098906 0.193806 0.243756 0.299817 0.379639 -0.069531 0.123693 0.429507 -0.100195 -0.168569 0.378446 -0.300548 -0.299924 -0.365716
17 -0.215455 -0.501458 0.296286 -0.067854 -0.152426 0.148673 0.273950 0.363635 0.421242 -0.040761 0.131132 0.483277 -0.098958 -0.139794 0.378171 -0.301125 -0.309559 -0.407544
14 -0.222798 -0.490809 0.296776 -0.125720 -0.092851 0.175779 0.216873 0.339565 0.387816 -0.052667 0.087431 0.453440 -0.106771 -0.180005 0.360704 -0.286550 -0.247973 -0.349166
7 -0.188660 -0.477869 0.250564 -0.112277 -0.139728 0.177591 0.243176 0.356246 0.419556 -0.067491 0.095072 0.452626 -0.090502 -0.196507 0.383161 -0.302468 -0.266382 -0.356199
11 -0.228963 -0.484147 0.275129 -0.085005 -0.100888 0.137026 0.219215 0.374236 0.404723 -0.091962 0.105273 0.441349 -0.107611 -0.139327 0.368727 -0.325256 -0.275057 -0.347603
1 -0.251288 -0.500194 0.295385 -0.130802 -0.093692 0.136284 0.228659 0.368370 0.427874 -0.065813 0.095528 0.436881 -0.079560 -0.195199 0.336184 -0.313023 -0.234008 -0.359066
6 -0.201432 -0.455442 0.270788 -0.050856 -0.100512 0.157274 0.241135 0.337576 0.368841 -0.057046 0.128052 0.401400 -0.113221 -0.167872 0.372304 -0.285848 -0.284296 -0.373352
16 -0.211300 -0.437212 0.264279 -0.092092 -0.107661 0.153790 0.243650 0.319680 0.370281 -0.060693 0.094821 0.420750 -0.113053 -0.150675 0.359492 -0.303403 -0.275307 -0.362276
12 -0.253570 -0.501260 0.291361 -0.122965 -0.123269 0.142060 0.217449 0.306166 0.373136 -0.035592 0.143052 0.463830 -0.106181 -0.165160 0.373689 -0.284358 -0.311938 -0.367196
9 -0.229531 -0.472606 0.249689 -0.112652 -0.108736 0.163938 0.230384 0.364332 0.425107 -0.071774 0.125038 0.473019 -0.096086 -0.195902 0.353787 -0.310445 -0.277870 -0.333402
4 -0.212186 -0.445834 0.264858 -0.079742 -0.079747 0.144544 0.200410 0.392273 0.408901 -0.093493 0.150835 0.458159 -0.078616 -0.169340 0.347326 -0.300233 -0.244882 -0.361445
3 -0.250512 -0.494054 0.313720 -0.092540 -0.103200 0.171360 0.271448 0.367890 0.398991 -0.084960 0.133044 0.420974 -0.135357 -0.220443 0.365450 -0.334618 -0.244580 -0.396243
13 -0.209621 -0.480811 0.294050 -0.114911 -0.118489 0.163018 0.256813 0.325485 0.415624 -0.049800 0.112333 0.421110 -0.098187 -0.200325 0.390308 -0.313665 -0.315573 -0.388801
2 -0.182369 -0.470698 0.262306 -0.103018 -0.116637 0.154840 0.246448 0.369132 0.355704 -0.072656 0.093191 0.448539 -0.078223 -0.182895 0.339947 -0.323958 -0.270465 -0.323814
8 -0.198464 -0.502650 0.295577 -0.076183 -0.138872 0.172641 0.266334 0.345511 0.383680 -0.043492 0.103550 0.441754 -0.123163 -0.150055 0.399258 -0.326217 -0.289348 -0.367829
0 -0.212065 -0.466316 0.254471 -0.133048 -0.125518 0.166485 0.210911 0.339840 0.385691 -0.066636 0.128814 0.440983 -0.080982 -0.167250 0.355503 -0.304576 -0.222704 -0.332230
5 0.004065 -0.024114 -0.027650 -0.000619 0.020703 -0.008521 0.024223 -0.023969 0.025914 -0.018771 0.021210 0.020548 -0.020024 0.006829 0.014933 -0.023795 -0.013973 -0.021943
