18 18
9 -0.201766 -0.628055 0.267744 -0.296128 -0.179628 0.210328 0.332147 0.012951 0.174739 0.131860 -0.034799 0.398286 -0.240662 -0.034824 0.470199 -0.481193 -0.241795 -0.200169
8 -0.168021 -0.646807 0.289568 -0.284707 -0.210319 0.223918 0.370045 -0.003662 0.147913 0.155479 -0.049410 0.376717 -0.257721 -0.012328 0.505838 -0.502564 -0.205761 -0.229934
16 -0.157958 -0.552324 0.258739 -0.251521 -0.183932 0.188900 0.350796 -0.015888 0.118421 0.130990 -0.048691 0.358133 -0.242143 0.015897 0.472226 -0.475005 -0.226915 -0.253533
14 -0.175405 -0.609000 0.297432 -0.279575 -0.161869 0.215445 0.327214 -0.014661 0.126453 0.154504 -0.070290 0.376407 -0.253597 -0.018606 0.473245 -0.450554 -0.208523 -0.241464
15 -0.206410 -0.620339 0.297436 -0.303102 -0.166100 0.227902 0.342521 -0.030156 0.140567 0.119609 -0.023699 0.353716 -0.235576 -0.007128 0.472166 -0.473076 -0.233136 -0.229426
2 -0.155673 -0.618405 0.268876 -0.287866 -0.192862 0.205422 0.354744 0.014971 0.120831 0.126634 -0.038012 0.378900 -0.223597 -0.025420 0.466020 -0.500268 -0.222512 -0.204458
6 -0.168363 -0.606336 0.276100 -0.238684 -0.171889 0.206544 0.352476 0.022554 0.129200 0.127093 -0.022028 0.355083 -0.252102 -0.037933 0.476607 -0.475205 -0.212135 -0.251797
12 -0.213802 -0.626172 0.290947 -0.291105 -0.195811 0.186736 0.313188 -0.021815 0.118716 0.154068 -0.017565 0.385237 -0.246347 0.000350 0.459268 -0.447441 -0.235929 -0.208119
3 -0.177285 -0.528942 0.273797 -0.236251 -0.152266 0.173806 0.323882 0.010678 0.087542 0.101675 -0.017837 0.294401 -0.245611 -0.055687 0.400043 -0.457689 -0.142581 -0.222362
5 -0.159849 -0.589788 0.228388 -0.251805 -0.151443 0.176165 0.349719 -0.018515 0.147841 0.098833 0.001345 0.361587 -0.248459 -0.011711 0.451471 -0.478597 -0.201877 -0.245533
0 -0.164057 -0.576629 0.254515 -0.282493 -0.202879 0.196295 0.316096 0.001218 0.126413 0.119871 0.002070 0.339787 -0.212624 -0.012957 0.463812 -0.471706 -0.161720 -0.223174
10 -0.174014 -0.605038 0.271768 -0.270445 -0.159532 0.233498 0.350374 -0.007687 0.167308 0.116079 -0.029730 0.365602 -0.254758 0.008820 0.443562 -0.428850 -0.201702 -0.192136
11 -0.197488 -0.613612 0.280431 -0.257239 -0.171359 0.171740 0.306515 0.038591 0.159777 0.105605 -0.032757 0.362182 -0.238790 0.002929 0.476952 -0.490966 -0.210575 -0.223984
17 -0.182059 -0.613449 0.281227 -0.254052 -0.217185 0.170532 0.356571 0.024070 0.163679 0.147904 -0.015815 0.389916 -0.222007 0.002545 0.457662 -0.469960 -0.210359 -0.262033
7 -0.128304 -0.557293 0.223967 -0.257630 -0.184472 0.215812 0.332793 -0.003142 0.148253 0.115173 -0.042427 0.349533 -0.222593 -0.046220 0.466822 -0.443078 -0.201736 -0.236307
1 -0.202245 -0.642024 0.306733 -0.300499 -0.182388 0.174781 0.345342 0.027779 0.168292 0.133450 -0.046288 0.360558 -0.220821 -0.027656 0.461350 -0.505656 -0.188473 -0.241228
13 -0.148436 -0.575385 0.279009 -0.285225 -0.182164 0.188064 0.324859 -0.015528 0.141489 0.149645 -0.054729 0.322983 -0.210881 -0.038342 0.449217 -0.443807 -0.216054 -0.215302
4 -0.169010 -0.556876 0.267336 -0.248521 -0.161827 0.165742 0.306068 0.035620 0.124745 0.105481 0.003261 0.349843 -0.210623 -0.034930 0.441737 -0.480186 -0.182253 -0.247007
