18 18
7 -0.172436 -0.544753 0.142677 -0.270064 -0.326170 0.091049 0.095947 0.238313 0.412107 0.023330 0.282071 0.563982 -0.069044 -0.236030 0.452010 -0.270577 0.046297 -0.462828
0 -0.198088 -0.500673 0.157820 -0.299396 -0.318288 0.105887 0.072905 0.130321 0.348761 0.055495 0.250155 0.496822 -0.042385 -0.112569 0.431414 -0.227188 0.009824 -0.411581
11 -0.206207 -0.530458 0.169629 -0.260654 -0.273890 0.051727 0.035334 0.228992 0.363268 0.016346 0.266676 0.535337 -0.086792 -0.208048 0.453229 -0.286213 0.026169 -0.441351
3 -0.207490 -0.534483 0.193810 -0.236042 -0.244684 0.040386 0.086535 0.256680 0.304049 -0.008950 0.313625 0.501401 -0.133764 -0.305884 0.410329 -0.343188 0.103740 -0.482349
1 -0.231892 -0.550547 0.196530 -0.276019 -0.272509 0.044192 0.099011 0.220618 0.390843 0.039269 0.243517 0.524165 -0.054380 -0.172463 0.395795 -0.287598 0.031115 -0.444465
8 -0.178393 -0.537671 0.162050 -0.237130 -0.304317 0.087269 0.109416 0.236641 0.370288 0.056452 0.226193 0.525964 -0.085708 -0.188026 0.415056 -0.284548 0.042012 -0.380498
2 -0.179384 -0.520328 0.168418 -0.253889 -0.280464 0.056550 0.084937 0.257359 0.324921 0.017219 0.267273 0.548276 -0.073945 -0.237467 0.421164 -0.319827 0.030713 -0.437350
14 -0.198272 -0.541041 0.192429 -0.283194 -0.265728 0.066879 0.048920 0.211680 0.328133 0.041222 0.253109 0.535681 -0.091516 -0.237080 0.432816 -0.279043 0.057895 -0.448328
6 -0.206596 -0.562911 0.195486 -0.237855 -0.279288 0.067532 0.097328 0.250934 0.352476 0.021474 0.305590 0.540790 -0.102397 -0.238667 0.462030 -0.311197 0.032900 -0.504434
4 -0.170220 -0.453975 0.152970 -0.216564 -0.238238 0.028626 0.032163 0.253274 0.325991 -0.000470 0.304155 0.494883 -0.061860 -0.247103 0.395652 -0.277400 0.060715 -0.451156
12 -0.193719 -0.486578 0.149217 -0.272816 -0.275899 0.048208 0.026562 0.153399 0.294683 0.055176 0.266800 0.502193 -0.068565 -0.194142 0.394242 -0.220207 0.007066 -0.388964
15 -0.295387 -0.566218 0.239463 -0.319232 -0.314361 0.130511 0.174097 0.100353 0.395946 0.048445 0.247514 0.541753 -0.048007 -0.002189 0.418666 -0.248571 -0.076510 -0.474403
17 -0.208087 -0.529151 0.174035 -0.245262 -0.317392 0.058524 0.114962 0.203129 0.381360 0.061202 0.255026 0.546127 -0.054897 -0.123923 0.376591 -0.230892 0.014939 -0.429012
10 -0.209338 -0.535793 0.158800 -0.262621 -0.289573 0.108317 0.132925 0.203942 0.409411 0.021765 0.262387 0.565226 -0.079861 -0.107321 0.387580 -0.242522 0.012178 -0.392450
16 -0.280838 -0.559680 0.235901 -0.305920 -0.340654 0.102687 0.180315 0.123096 0.398132 0.070331 0.215072 0.566511 -0.069110 0.012232 0.437393 -0.264135 -0.083658 -0.491992
9 -0.202918 -0.528543 0.130193 -0.264643 -0.293047 0.087939 0.103157 0.249367 0.422458 0.031335 0.256302 0.578996 -0.069117 -0.206278 0.397779 -0.283402 0.013707 -0.372010
13 -0.182563 -0.531965 0.181049 -0.290850 -0.299699 0.071351 0.094800 0.182257 0.370250 0.054995 0.254306 0.514096 -0.060208 -0.208105 0.429239 -0.270619 0.002613 -0.446558
5 -0.195452 -0.548685 0.154401 -0.247828 -0.244036 0.051850 0.119296 0.195865 0.360230 -0.005277 0.301682 0.529437 -0.109718 -0.198401 0.424114 -0.321649 0.027736 -0.477067
