18 18
7 0.140584 -0.274234 -0.124134 -0.141095 -0.403501 0.122778 0.090508 0.229524 0.600044 0.031229 -0.013420 0.395306 -0.019727 -0.161017 0.669581 -0.282941 -0.084648 -0.402063
17 0.106020 -0.298606 -0.097478 -0.118386 -0.395737 0.087858 0.103716 0.227884 0.600667 0.053056 0.016921 0.423754 -0.025282 -0.116080 0.637266 -0.268465 -0.097599 -0.421015
0 -0.124596 -0.377140 0.176307 -0.191116 -0.264698 0.233728 0.126242 0.128199 0.349865 0.038856 0.028355 0.334044 -0.169900 -0.097006 0.684658 -0.388937 -0.062463 -0.504669
11 0.005812 -0.324939 0.009218 -0.144386 -0.309941 0.130586 0.081609 0.201118 0.502036 0.016613 -0.007073 0.370505 -0.091667 -0.103696 0.665232 -0.333964 -0.103050 -0.429669
8 -0.068627 -0.358817 0.124279 -0.148552 -0.272593 0.190616 0.125957 0.155299 0.386055 0.050629 -0.003602 0.332895 -0.156000 -0.098788 0.654337 -0.364132 -0.069093 -0.451528
6 -0.285039 -0.432187 0.388070 -0.181382 -0.147813 0.329307 0.185479 0.097839 0.216030 0.044299 0.008399 0.289244 -0.276600 -0.107548 0.722703 -0.448039 -0.119111 -0.614091
4 -0.030555 -0.320287 0.069483 -0.155789 -0.295328 0.164932 0.094052 0.203689 0.469976 0.021362 0.027513 0.378832 -0.099633 -0.124083 0.681663 -0.362992 -0.084526 -0.495236
14 -0.481643 -0.493951 0.619413 -0.254216 -0.029111 0.428622 0.190839 0.010985 0.043148 0.054943 -0.017334 0.270618 -0.388711 -0.071348 0.722014 -0.497487 -0.080592 -0.682553
3 -0.436157 -0.438411 0.546481 -0.205353 -0.043022 0.374424 0.210891 0.024045 0.056315 0.029269 0.017116 0.228431 -0.369413 -0.093055 0.651064 -0.477803 -0.064309 -0.641068
9 0.044233 -0.281360 -0.056220 -0.143856 -0.325754 0.129530 0.086465 0.202043 0.524196 0.026768 0.008303 0.380981 -0.058057 -0.146221 0.611812 -0.294835 -0.097180 -0.381036
1 0.017033 -0.327161 -0.001926 -0.155696 -0.319867 0.100067 0.092735 0.207535 0.523116 0.036472 -0.005791 0.370031 -0.056235 -0.120638 0.618876 -0.316198 -0.076375 -0.425850
16 -0.112871 -0.341064 0.158893 -0.161292 -0.248243 0.203515 0.145569 0.122298 0.349702 0.043979 -0.001746 0.345356 -0.176715 -0.066012 0.652963 -0.370174 -0.110116 -0.496572
15 -0.462003 -0.459290 0.572888 -0.237563 -0.034299 0.408829 0.202357 -0.007509 0.046715 0.035694 0.007025 0.230149 -0.346710 -0.059665 0.672239 -0.474528 -0.115135 -0.636777
10 0.064181 -0.303832 -0.052369 -0.132708 -0.329574 0.152331 0.109925 0.201353 0.544847 0.012757 0.025900 0.396239 -0.078194 -0.100723 0.634564 -0.284205 -0.077394 -0.401396
2 0.074684 -0.327971 -0.044018 -0.162502 -0.365447 0.131619 0.107551 0.227626 0.535023 0.030993 -0.002041 0.419156 -0.050214 -0.149187 0.673911 -0.342218 -0.110202 -0.424140
5 0.131326 -0.309892 -0.151060 -0.139068 -0.372128 0.087908 0.107173 0.200029 0.626709 0.015290 0.028098 0.426683 -0.041074 -0.129350 0.667809 -0.304044 -0.110661 -0.414399
12 -0.144087 -0.368135 0.170094 -0.188149 -0.248258 0.203039 0.102840 0.109605 0.331223 0.052566 0.026010 0.349469 -0.167816 -0.091329 0.637432 -0.335828 -0.108030 -0.467540
13 0.077713 -0.298516 -0.031676 -0.164832 -0.359315 0.123636 0.100998 0.183093 0.536883 0.054111 -0.011600 0.365181 -0.049221 -0.146601 0.660248 -0.307838 -0.108119 -0.428766
