18 18
3 -0.239545 -0.517140 0.159636 -0.356818 -0.137614 0.167945 0.388527 -0.043530 0.318367 -0.096430 0.258432 0.453278 -0.116234 -0.155395 0.245725 -0.312304 -0.278370 -0.349604
17 -0.225375 -0.502411 0.148442 -0.321114 -0.156523 0.123283 0.344107 -0.021540 0.334331 -0.053310 0.234519 0.464539 -0.064252 -0.094800 0.229851 -0.259854 -0.288006 -0.340564
13 -0.234991 -0.539286 0.198300 -0.413800 -0.162500 0.158045 0.357645 -0.090679 0.318013 -0.027900 0.219998 0.467118 -0.074765 -0.143164 0.283916 -0.293049 -0.353610 -0.372751
2 -0.192684 -0.531440 0.108903 -0.361359 -0.158153 0.156784 0.388248 0.000037 0.339945 -0.108446 0.246542 0.501633 -0.065131 -0.135844 0.240331 -0.322642 -0.312298 -0.298117
12 -0.237338 -0.524507 0.143851 -0.364293 -0.146437 0.142768 0.321745 -0.070526 0.268835 -0.055428 0.248727 0.472929 -0.088485 -0.102079 0.243663 -0.266456 -0.317713 -0.298208
0 -0.214748 -0.533015 0.121666 -0.376165 -0.159275 0.178850 0.349647 -0.045727 0.321235 -0.090005 0.258364 0.473249 -0.084309 -0.110136 0.269167 -0.297294 -0.274679 -0.305536
8 -0.225639 -0.549087 0.166997 -0.346311 -0.154681 0.158852 0.364403 -0.038892 0.305362 -0.050351 0.222910 0.458813 -0.100153 -0.106971 0.267659 -0.302861 -0.290616 -0.320120
14 -0.249650 -0.560557 0.187198 -0.394485 -0.128744 0.183527 0.353849 -0.072593 0.300729 -0.058648 0.219625 0.491201 -0.108860 -0.121568 0.272496 -0.285705 -0.302618 -0.346888
1 -0.224526 -0.543765 0.120638 -0.362853 -0.129138 0.126311 0.363525 0.017199 0.383050 -0.117948 0.220428 0.468880 -0.064973 -0.136962 0.228604 -0.323610 -0.272740 -0.301418
4 -0.236964 -0.503896 0.162382 -0.364247 -0.126022 0.148356 0.332764 -0.038474 0.319707 -0.080662 0.265965 0.481535 -0.075069 -0.135853 0.258629 -0.297584 -0.305937 -0.360560
15 -0.256946 -0.527741 0.188865 -0.379669 -0.128567 0.188252 0.350888 -0.095263 0.279586 -0.062466 0.242082 0.450027 -0.086179 -0.102150 0.271367 -0.286708 -0.331241 -0.346745
6 -0.210723 -0.525154 0.137575 -0.329288 -0.137173 0.166305 0.364249 -0.019613 0.325389 -0.083612 0.243685 0.455837 -0.089775 -0.129838 0.267993 -0.288209 -0.309429 -0.330137
7 -0.189585 -0.526816 0.092352 -0.359459 -0.156684 0.184116 0.368984 -0.032930 0.363277 -0.101951 0.235474 0.475629 -0.086741 -0.141880 0.270033 -0.283550 -0.282447 -0.306726
10 -0.202304 -0.526617 0.089484 -0.356129 -0.133324 0.197456 0.382677 -0.034453 0.378764 -0.125128 0.266655 0.499575 -0.106109 -0.102207 0.242550 -0.269916 -0.284886 -0.289160
11 -0.227656 -0.517616 0.133836 -0.336388 -0.129038 0.146370 0.324315 -0.013889 0.332323 -0.104224 0.226103 0.451877 -0.096056 -0.101046 0.268179 -0.299840 -0.293614 -0.302134
16 -0.227756 -0.509867 0.157110 -0.371272 -0.147362 0.162137 0.366328 -0.066018 0.307785 -0.068118 0.213932 0.477311 -0.104082 -0.091651 0.277836 -0.299685 -0.328305 -0.347645
5 -0.199111 -0.516741 0.091588 -0.334533 -0.109317 0.143015 0.359371 -0.067122 0.327258 -0.097601 0.243997 0.461718 -0.103001 -0.096282 0.250353 -0.291494 -0.300129 -0.309757
9 -0.207636 -0.483934 0.095642 -0.343914 -0.135180 0.151640 0.329996 -0.012383 0.351225 -0.089182 0.225739 0.466302 -0.071146 -0.143140 0.230798 -0.281407 -0.291458 -0.276604
