18 18
5 -0.216872 -0.333191 0.196020 -0.207530 -0.077980 0.092442 0.342402 -0.085799 -0.045923 0.000832 0.031327 0.471395 -0.399028 0.049704 0.393566 -0.526580 -0.122437 -0.437463
16 -0.226386 -0.294416 0.221444 -0.197631 -0.108282 0.112622 0.341127 -0.069054 -0.055389 0.009209 -0.001050 0.473317 -0.408679 0.081067 0.419729 -0.517544 -0.153266 -0.447386
3 -0.251308 -0.302961 0.257972 -0.212875 -0.080887 0.098533 0.321206 -0.057379 -0.092469 0.006829 0.008743 0.433050 -0.396513 0.013801 0.369681 -0.523853 -0.088921 -0.440713
17 -0.253833 -0.343376 0.253801 -0.208209 -0.134683 0.093166 0.345154 -0.056140 -0.040359 0.051474 0.028722 0.524026 -0.387125 0.074329 0.395696 -0.503195 -0.125145 -0.477806
0 -0.256901 -0.347945 0.250392 -0.256546 -0.117146 0.131212 0.320058 -0.083099 -0.085780 0.011625 0.032700 0.482162 -0.410724 0.051245 0.444635 -0.555130 -0.106784 -0.456472
4 -0.233923 -0.280738 0.224826 -0.198090 -0.083213 0.091782 0.298607 -0.044053 -0.056147 -0.004436 0.044700 0.478868 -0.370337 0.053324 0.390086 -0.509890 -0.131491 -0.452623
10 -0.234349 -0.334382 0.226600 -0.207627 -0.096086 0.153163 0.363580 -0.069391 -0.037801 -0.007281 0.027206 0.516688 -0.439383 0.089975 0.410461 -0.505256 -0.123924 -0.431006
14 -0.247690 -0.339455 0.269243 -0.251138 -0.081736 0.106768 0.292236 -0.073774 -0.091806 0.041965 -0.027624 0.475546 -0.378809 0.031413 0.387198 -0.502119 -0.104073 -0.428859
7 -0.216477 -0.325276 0.214859 -0.229149 -0.117225 0.135926 0.325071 -0.054055 -0.036067 -0.000803 -0.011218 0.473235 -0.395610 0.020702 0.426008 -0.512491 -0.115313 -0.429316
12 -0.281933 -0.373305 0.253354 -0.251375 -0.125662 0.110548 0.327370 -0.089607 -0.079718 0.031143 0.033410 0.532545 -0.431136 0.065972 0.437026 -0.535090 -0.155969 -0.450698
2 -0.223925 -0.340929 0.246449 -0.244420 -0.107637 0.108931 0.347765 -0.046236 -0.099828 0.015836 -0.003207 0.507613 -0.383292 0.016869 0.403269 -0.569286 -0.134545 -0.443505
9 -0.241674 -0.320080 0.217640 -0.228553 -0.095698 0.106244 0.319033 -0.045623 -0.044022 0.012886 0.012134 0.493795 -0.381687 0.017440 0.385138 -0.526869 -0.126554 -0.417113
8 -0.225167 -0.329035 0.249143 -0.205535 -0.110382 0.114800 0.322460 -0.047720 -0.069963 0.033603 -0.014424 0.453886 -0.394554 0.040494 0.403593 -0.518637 -0.101246 -0.416884
15 -0.256753 -0.323976 0.245242 -0.227396 -0.092129 0.126086 0.317434 -0.086892 -0.055439 0.008858 0.024371 0.457037 -0.372269 0.063866 0.397771 -0.498135 -0.145814 -0.436103
11 -0.285926 -0.371962 0.270524 -0.226013 -0.100467 0.119242 0.339105 -0.042290 -0.044073 -0.012364 0.001559 0.526709 -0.457936 0.077596 0.475647 -0.588856 -0.149684 -0.480442
1 -0.280364 -0.371865 0.285101 -0.266291 -0.084548 0.080011 0.313806 -0.043696 -0.057162 0.021113 -0.021113 0.475146 -0.377755 0.018251 0.398899 -0.562415 -0.098922 -0.461519
13 0.019096 0.002747 0.009678 -0.019404 -0.008210 -0.004883 0.008138 -0.018294 0.006568 0.019257 -0.015253 -0.018294 0.012156 -0.023377 0.007956 -0.002520 -0.021393 -0.009389
6 0.007299 -0.006988 0.006429 0.025394 0.003018 0.008962 0.013628 0.017139 -0.003415 0.002961 0.009307 -0.005691 -0.008572 -0.012634 0.015137 0.000585 -0.007433 -0.019036
