18 18
3 -0.264385 -0.147523 0.397418 0.031844 -0.012027 -0.117437 0.334300 0.335914 0.012812 -0.044073 0.111699 0.102911 -0.198626 -0.416367 0.126321 -0.540855 0.213309 -0.655364
9 -0.379109 -0.279730 0.407787 -0.085499 -0.018860 -0.087701 0.253693 0.307323 0.175177 0.016631 0.093905 0.351147 -0.242310 -0.303324 0.194565 -0.514337 0.058663 -0.597379
4 -0.278215 -0.150073 0.377762 0.017848 0.005902 -0.119708 0.254112 0.333502 0.075065 -0.041513 0.128497 0.194255 -0.188328 -0.327473 0.144281 -0.497932 0.149971 -0.630974
15 -0.372687 -0.276675 0.476478 -0.088407 -0.031535 -0.065549 0.321536 0.295512 0.122016 0.010856 0.102674 0.266384 -0.207852 -0.354594 0.197871 -0.547840 0.097998 -0.674238
0 -0.334759 -0.269102 0.439537 -0.108030 -0.059647 -0.057193 0.262087 0.272177 0.106358 0.035083 0.103324 0.265104 -0.204126 -0.315570 0.212465 -0.502549 0.113420 -0.608481
2 -0.227191 -0.168369 0.365353 0.012692 -0.016034 -0.105432 0.314014 0.345360 0.028638 -0.039097 0.090898 0.162364 -0.166141 -0.395637 0.137352 -0.533971 0.154891 -0.613677
5 -0.210464 -0.175177 0.294514 0.000212 -0.000129 -0.101334 0.306329 0.258176 0.082218 -0.035112 0.101429 0.167459 -0.170453 -0.331020 0.148826 -0.495143 0.121599 -0.593446
17 -0.355055 -0.260846 0.428685 -0.057585 -0.050057 -0.104896 0.277405 0.293156 0.158020 0.045443 0.099484 0.315695 -0.208468 -0.273369 0.166052 -0.473208 0.089504 -0.632665
16 -0.274416 -0.175788 0.417095 -0.023026 -0.038425 -0.092507 0.324544 0.303746 0.068081 0.010047 0.060978 0.177789 -0.181965 -0.347634 0.170626 -0.520656 0.130767 -0.652960
13 -0.341631 -0.285155 0.443924 -0.118398 -0.038847 -0.077959 0.268720 0.243825 0.140304 0.053147 0.071118 0.290034 -0.226161 -0.307260 0.210584 -0.486151 0.045395 -0.597894
8 -0.424556 -0.364806 0.439371 -0.110627 -0.031050 -0.061537 0.199233 0.252126 0.196734 0.052550 0.088863 0.400961 -0.299289 -0.171318 0.237513 -0.450238 0.031936 -0.522157
1 -0.295814 -0.212430 0.420668 -0.045664 -0.015042 -0.114256 0.301916 0.314592 0.091006 0.000063 0.074836 0.165408 -0.152592 -0.375453 0.134615 -0.511223 0.153389 -0.619832
11 -0.604872 -0.503675 0.480448 -0.161700 0.017023 -0.075608 0.096487 0.276594 0.327529 0.006478 0.141324 0.629846 -0.426812 -0.043569 0.325999 -0.464716 -0.074666 -0.533844
10 -0.486490 -0.405174 0.411745 -0.132500 0.016487 -0.035355 0.150355 0.239608 0.272593 -0.002397 0.140586 0.532491 -0.371262 -0.083177 0.245834 -0.402005 -0.027073 -0.480565
7 -0.185215 -0.138841 0.326878 0.021625 -0.041540 -0.084805 0.316519 0.327876 0.055646 -0.039553 0.083129 0.112244 -0.151376 -0.416993 0.154972 -0.502977 0.185461 -0.618628
12 -0.616417 -0.504330 0.501394 -0.176670 -0.010588 -0.081696 0.138781 0.249898 0.280094 0.034202 0.181304 0.623245 -0.424061 -0.083486 0.305408 -0.461771 -0.066144 -0.568099
6 -0.207509 -0.147057 0.373429 0.057295 -0.012985 -0.098885 0.338776 0.348718 0.025046 -0.030151 0.101755 0.093891 -0.164239 -0.415843 0.146573 -0.519484 0.185229 -0.655306
14 -0.364071 -0.287915 0.470679 -0.117898 -0.020346 -0.068986 0.255394 0.264466 0.114901 0.053543 0.051909 0.303642 -0.225469 -0.303737 0.195507 -0.483757 0.094004 -0.612068
