18 18
3 -0.115628 -0.392733 0.389043 -0.384670 -0.115645 0.157270 0.277993 -0.067335 -0.013972 0.081156 0.093629 0.187844 -0.147997 -0.427380 0.380720 -0.415993 -0.199240 -0.451826
13 -0.083888 -0.386818 0.369594 -0.396315 -0.128860 0.157434 0.264530 -0.100267 0.021420 0.113116 0.076943 0.195540 -0.111042 -0.398306 0.419032 -0.389332 -0.284773 -0.454943
2 -0.094507 -0.428579 0.372021 -0.400985 -0.139031 0.149601 0.260817 -0.038562 -0.003606 0.086797 0.087958 0.242179 -0.095745 -0.382431 0.380567 -0.406995 -0.216125 -0.423740
0 -0.183632 -0.500723 0.400110 -0.465909 -0.186883 0.138830 0.218485 -0.074581 0.035585 0.094955 0.148985 0.271741 -0.084566 -0.300531 0.410938 -0.396414 -0.169284 -0.464085
4 -0.102467 -0.371960 0.363624 -0.370291 -0.097455 0.139205 0.222556 -0.032055 0.019848 0.072798 0.121219 0.235574 -0.103695 -0.395097 0.396206 -0.398577 -0.232659 -0.456977
12 -0.147545 -0.426326 0.362249 -0.404242 -0.136395 0.143047 0.217718 -0.093689 0.009715 0.106077 0.126293 0.261800 -0.115471 -0.341733 0.409336 -0.366515 -0.277464 -0.433513
7 -0.070932 -0.399723 0.347857 -0.399455 -0.149573 0.188318 0.262615 -0.054967 0.043929 0.087560 0.079149 0.223043 -0.107192 -0.427093 0.424191 -0.388492 -0.227583 -0.444177
16 -0.119788 -0.376100 0.350061 -0.369216 -0.129081 0.152852 0.256574 -0.081867 0.032354 0.097153 0.079465 0.243773 -0.122522 -0.327908 0.442780 -0.399860 -0.315808 -0.472689
6 -0.087368 -0.389635 0.363379 -0.339069 -0.097666 0.166130 0.270971 -0.054260 0.011430 0.090073 0.108480 0.217194 -0.136300 -0.395937 0.418710 -0.385997 -0.270617 -0.468834
15 -0.133757 -0.375066 0.362796 -0.381614 -0.110148 0.178952 0.254132 -0.109702 0.027815 0.088584 0.103439 0.215710 -0.101790 -0.342128 0.435595 -0.389473 -0.342148 -0.467885
11 -0.169438 -0.456842 0.392807 -0.400972 -0.130809 0.125167 0.209986 -0.040689 0.048030 0.073191 0.107470 0.252997 -0.112065 -0.318298 0.420476 -0.406432 -0.224693 -0.457085
1 -0.165717 -0.473133 0.412282 -0.431801 -0.133248 0.119731 0.243473 -0.044271 0.054166 0.093544 0.094709 0.239216 -0.088179 -0.355852 0.374660 -0.402478 -0.189422 -0.459653
10 -0.101465 -0.414467 0.354381 -0.386825 -0.115554 0.191886 0.275947 -0.070520 0.042090 0.072350 0.103765 0.240531 -0.139196 -0.365605 0.390586 -0.371245 -0.223461 -0.419523
9 -0.097347 -0.348960 0.318238 -0.367542 -0.118101 0.175170 0.248811 -0.066582 0.042879 0.091841 0.083537 0.224816 -0.111172 -0.409844 0.409994 -0.386903 -0.309202 -0.414972
14 -0.113832 -0.408552 0.381530 -0.410139 -0.110340 0.178312 0.235028 -0.091499 0.008607 0.108999 0.063947 0.235469 -0.129826 -0.384672 0.421578 -0.379840 -0.253255 -0.443546
17 -0.166762 -0.484353 0.407411 -0.415407 -0.180077 0.120782 0.263021 -0.056302 0.063450 0.117844 0.127383 0.286659 -0.091033 -0.311686 0.376778 -0.369877 -0.200779 -0.483566
5 -0.098568 -0.416357 0.317449 -0.369274 -0.091863 0.135070 0.260354 -0.078740 0.049726 0.062928 0.117752 0.243812 -0.129682 -0.354501 0.392166 -0.398445 -0.231247 -0.440951
8 -0.090590 -0.404969 0.365538 -0.374443 -0.139582 0.176360 0.262788 -0.064787 0.018365 0.111086 0.071284 0.211555 -0.128144 -0.387649 0.422633 -0.401421 -0.237618 -0.426359
