18 18
0 -0.401110 -0.436667 0.351245 -0.375327 -0.046258 -0.037996 0.103703 -0.075167 0.239883 0.038072 0.288642 0.283561 -0.109366 -0.250164 0.275398 -0.366727 0.034662 -0.608491
2 -0.340391 -0.449854 0.356287 -0.388440 -0.038777 -0.050506 0.177578 -0.044473 0.235283 0.031310 0.249452 0.291027 -0.114312 -0.337120 0.298336 -0.440441 -0.004370 -0.658168
4 -0.438033 -0.382273 0.394941 -0.353663 0.032226 -0.127835 0.072335 -0.055967 0.178402 0.040391 0.293055 0.277700 -0.084961 -0.261945 0.201288 -0.368450 -0.026712 -0.606175
7 -0.353707 -0.462692 0.337978 -0.389292 -0.068380 -0.001698 0.149561 -0.038065 0.322853 0.014145 0.245728 0.283992 -0.119021 -0.327750 0.328014 -0.387568 0.058249 -0.657769
9 -0.433242 -0.419370 0.385009 -0.385980 0.016146 -0.104684 0.131064 -0.076752 0.215241 0.054582 0.278032 0.291688 -0.111641 -0.320724 0.223233 -0.397579 -0.057851 -0.611301
14 -0.462488 -0.427657 0.434659 -0.386330 0.065425 -0.116806 0.097114 -0.110659 0.129106 0.071284 0.246232 0.278064 -0.124117 -0.247170 0.175149 -0.343909 -0.042305 -0.565126
1 -0.413572 -0.436935 0.400783 -0.385374 0.017429 -0.108254 0.130670 -0.063390 0.213127 0.047473 0.239756 0.255216 -0.097082 -0.294671 0.224062 -0.392747 -0.016589 -0.618001
13 -0.378472 -0.404743 0.413819 -0.391721 0.016440 -0.100682 0.157296 -0.113321 0.176629 0.069902 0.250605 0.224388 -0.100108 -0.320029 0.233746 -0.383713 -0.076063 -0.626339
17 -0.379413 -0.414400 0.358483 -0.328433 -0.035077 -0.094674 0.140252 -0.044310 0.249081 0.063278 0.264713 0.299678 -0.100101 -0.261215 0.237842 -0.359695 -0.003685 -0.640395
15 -0.470156 -0.441342 0.424414 -0.392171 0.032671 -0.085752 0.130864 -0.115347 0.174137 0.049696 0.282109 0.279736 -0.111873 -0.255035 0.220379 -0.387328 -0.061795 -0.632867
5 -0.379735 -0.428656 0.354092 -0.360397 0.043505 -0.098668 0.168070 -0.113444 0.214806 0.026104 0.267544 0.263052 -0.135378 -0.276331 0.244630 -0.396756 -0.063408 -0.617769
8 -0.349224 -0.455710 0.360316 -0.348854 -0.051049 -0.042675 0.155103 -0.037872 0.272836 0.050695 0.238173 0.277179 -0.133985 -0.299743 0.312158 -0.413463 0.037397 -0.645918
10 -0.367360 -0.429964 0.342760 -0.352868 -0.016611 -0.023608 0.149536 -0.061026 0.266565 0.016160 0.268699 0.284690 -0.131750 -0.258017 0.258653 -0.356686 0.024622 -0.606215
6 -0.428209 -0.428604 0.424914 -0.358767 0.042872 -0.107224 0.157412 -0.085936 0.162212 0.057960 0.283265 0.258008 -0.124487 -0.305707 0.231155 -0.394445 -0.076507 -0.647853
3 -0.441006 -0.386999 0.406071 -0.345984 0.026096 -0.107913 0.120146 -0.083860 0.138821 0.044305 0.275040 0.238095 -0.128323 -0.278320 0.187360 -0.372339 -0.014901 -0.596699
12 -0.464333 -0.422347 0.400164 -0.382279 0.015821 -0.126738 0.090371 -0.121660 0.140131 0.075832 0.300714 0.293243 -0.117836 -0.251974 0.192034 -0.338692 -0.077850 -0.574159
11 -0.398360 -0.435191 0.359045 -0.336697 -0.011336 -0.069679 0.103776 -0.027812 0.256470 0.011524 0.248218 0.276187 -0.124712 -0.253614 0.285938 -0.395633 0.003642 -0.620145
16 -0.361327 -0.371934 0.369424 -0.342320 0.001974 -0.086172 0.158489 -0.083108 0.190398 0.053233 0.219931 0.247386 -0.113227 -0.258290 0.253645 -0.381439 -0.069542 -0.619242
