18 18
4 -0.263288 -0.299426 0.101428 -0.277741 -0.079156 -0.323169 0.087470 0.174986 0.468228 0.050471 0.291920 0.450120 0.029380 -0.488382 0.045577 -0.310368 -0.245834 -0.394790
12 -0.380920 -0.414302 0.154246 -0.347449 -0.109687 -0.278942 0.074692 0.166616 0.472667 0.073503 0.261497 0.515103 0.011017 -0.417128 0.047726 -0.280185 -0.254868 -0.320677
2 -0.392877 -0.411404 0.187428 -0.338795 -0.088357 -0.246056 0.061643 0.260699 0.471753 0.040953 0.161805 0.484488 0.056911 -0.378706 0.010147 -0.294774 -0.183581 -0.255719
9 -0.539884 -0.440226 0.239979 -0.369856 -0.063662 -0.215753 -0.014203 0.304000 0.513551 0.030005 0.106337 0.488277 0.069937 -0.289224 -0.032775 -0.241689 -0.120454 -0.176775
16 -0.447086 -0.423484 0.208217 -0.355358 -0.090833 -0.251037 0.067260 0.236833 0.519275 0.049987 0.159584 0.507506 0.029659 -0.348181 0.044909 -0.307074 -0.203640 -0.316558
10 -0.376588 -0.398786 0.155028 -0.318914 -0.073380 -0.227333 0.076580 0.225220 0.510180 0.027594 0.199074 0.489036 0.017729 -0.361665 0.012228 -0.251239 -0.174648 -0.267672
0 -0.372578 -0.392171 0.160286 -0.328674 -0.098361 -0.215246 0.054010 0.187482 0.448312 0.040207 0.205360 0.436286 0.024934 -0.350659 0.061397 -0.277446 -0.154822 -0.281744
13 -0.221808 -0.333058 0.080017 -0.292122 -0.112163 -0.289943 0.140140 0.131200 0.487454 0.080917 0.262536 0.445839 0.013700 -0.510968 0.076653 -0.296208 -0.282201 -0.382463
11 -0.422432 -0.428669 0.186878 -0.324591 -0.069514 -0.281821 0.050916 0.263677 0.546335 0.024381 0.199618 0.503147 0.019043 -0.389235 0.049436 -0.310938 -0.193812 -0.322371
14 -0.521047 -0.452959 0.280471 -0.392777 -0.046662 -0.214312 -0.019262 0.258485 0.463510 0.049533 0.101723 0.498512 0.049834 -0.310557 0.001721 -0.259739 -0.126832 -0.230595
5 -0.080753 -0.343803 -0.072014 -0.227885 -0.120999 -0.299811 0.258950 0.081302 0.578430 0.054897 0.364548 0.525407 -0.041913 -0.578140 0.147298 -0.334146 -0.343048 -0.492874
8 -0.256154 -0.384466 0.099304 -0.285043 -0.129123 -0.283809 0.155479 0.169144 0.519117 0.085656 0.271849 0.492123 -0.014236 -0.503314 0.094261 -0.327023 -0.250864 -0.396929
3 -0.284110 -0.354261 0.111837 -0.281882 -0.097677 -0.288007 0.150460 0.167967 0.476217 0.050563 0.280769 0.456693 -0.018299 -0.507052 0.049772 -0.320577 -0.226575 -0.388039
1 -0.493447 -0.428583 0.253239 -0.360941 -0.053699 -0.267511 0.004272 0.275152 0.490982 0.042845 0.121760 0.446304 0.073530 -0.322441 -0.033147 -0.266073 -0.122431 -0.243362
17 -0.442897 -0.430685 0.201871 -0.325315 -0.108910 -0.258209 0.064540 0.276279 0.550859 0.065511 0.168595 0.516092 0.064479 -0.339349 -0.009176 -0.242518 -0.162458 -0.287999
15 -0.552855 -0.461629 0.289314 -0.395544 -0.056604 -0.184930 0.004926 0.247827 0.478346 0.030361 0.120980 0.475407 0.060091 -0.272543 0.008631 -0.267209 -0.146833 -0.228560
7 -0.196880 -0.356997 0.017071 -0.274725 -0.139961 -0.256638 0.170840 0.180881 0.581079 0.054707 0.263816 0.512206 0.013724 -0.524815 0.098341 -0.284908 -0.260905 -0.398081
6 -0.273110 -0.386394 0.088666 -0.269958 -0.110944 -0.272983 0.154275 0.220451 0.563706 0.060787 0.274494 0.516737 0.008553 -0.506885 0.085315 -0.300861 -0.261407 -0.407162
