18 18
12 -0.348431 -0.562233 0.318527 -0.407352 -0.246255 0.070950 0.117827 -0.127227 0.142325 0.219629 0.239079 0.408828 -0.048506 -0.102498 0.261546 -0.078526 -0.192488 -0.345185
3 -0.349803 -0.530881 0.368393 -0.321982 -0.171571 0.061584 0.196451 -0.013107 0.144474 0.158073 0.231632 0.346493 -0.105448 -0.259030 0.220366 -0.192659 -0.066812 -0.448522
8 -0.334550 -0.628026 0.377805 -0.369013 -0.243703 0.090114 0.180798 0.002674 0.205562 0.214905 0.205415 0.405908 -0.087898 -0.226917 0.287864 -0.176786 -0.089675 -0.396543
0 -0.311089 -0.556171 0.330775 -0.390002 -0.258253 0.089978 0.134700 -0.046150 0.152012 0.204562 0.228372 0.380752 -0.039187 -0.183163 0.273856 -0.136102 -0.094749 -0.378491
14 -0.340948 -0.596662 0.372722 -0.417691 -0.224112 0.092058 0.142489 -0.071590 0.158356 0.218969 0.186792 0.406287 -0.061631 -0.174775 0.269483 -0.126671 -0.125912 -0.388987
17 -0.329065 -0.563029 0.346296 -0.341151 -0.247681 0.059415 0.175333 -0.023710 0.199850 0.208891 0.224557 0.405728 -0.052551 -0.169856 0.242412 -0.114720 -0.118271 -0.421384
10 -0.338825 -0.589160 0.343467 -0.371682 -0.222806 0.109646 0.189005 -0.036502 0.222759 0.178685 0.243344 0.424767 -0.086048 -0.176020 0.267292 -0.124790 -0.123443 -0.398295
2 -0.293609 -0.568568 0.336874 -0.383734 -0.250327 0.084706 0.168122 -0.010711 0.156290 0.199570 0.207053 0.410827 -0.036443 -0.215839 0.269367 -0.165983 -0.115925 -0.382242
7 -0.305576 -0.560783 0.306124 -0.391421 -0.262100 0.110603 0.143610 -0.060618 0.208241 0.189940 0.199419 0.395848 -0.048304 -0.166625 0.294987 -0.102437 -0.145231 -0.356150
13 -0.308857 -0.552182 0.337988 -0.406856 -0.240650 0.073468 0.154431 -0.095436 0.172352 0.214967 0.197149 0.371505 -0.035115 -0.166856 0.269707 -0.122819 -0.170802 -0.381955
6 -0.327250 -0.593531 0.376225 -0.338609 -0.215207 0.071418 0.195146 0.020632 0.182803 0.201122 0.230553 0.383887 -0.071144 -0.264860 0.270244 -0.186684 -0.098060 -0.460341
9 -0.323798 -0.561837 0.336140 -0.339265 -0.205611 0.061940 0.164263 0.054069 0.219618 0.178779 0.216849 0.391129 -0.059098 -0.294011 0.233418 -0.185599 -0.079390 -0.394535
1 -0.325995 -0.561921 0.346221 -0.378486 -0.229347 0.046383 0.136502 -0.017446 0.183480 0.200023 0.181657 0.363286 -0.022936 -0.179505 0.239904 -0.137224 -0.099994 -0.372806
15 -0.330055 -0.521701 0.316343 -0.380652 -0.208085 0.103595 0.148516 -0.118793 0.153259 0.171164 0.218190 0.359055 -0.043961 -0.099476 0.259061 -0.112721 -0.179112 -0.358044
16 -0.344094 -0.557043 0.335094 -0.389039 -0.244429 0.092308 0.175736 -0.099079 0.184255 0.199339 0.213398 0.416578 -0.077690 -0.112335 0.304434 -0.134687 -0.193285 -0.411442
11 -0.390097 -0.644353 0.392513 -0.369344 -0.220199 0.077552 0.159363 0.010543 0.226950 0.169474 0.232819 0.419933 -0.102722 -0.207808 0.312435 -0.188825 -0.125976 -0.439001
5 -0.323629 -0.568710 0.325594 -0.337225 -0.162391 0.049463 0.194165 -0.031986 0.191030 0.152213 0.232749 0.381419 -0.092334 -0.217053 0.247384 -0.201423 -0.101899 -0.448197
4 -0.346204 -0.538249 0.356907 -0.349782 -0.194725 0.059904 0.143386 -0.017657 0.177186 0.172145 0.248039 0.390939 -0.059311 -0.199215 0.255666 -0.158466 -0.118879 -0.436283
