18 18
2 -0.237351 -0.460090 0.161540 -0.209506 -0.075760 0.020781 0.145551 -0.011195 0.233795 -0.077809 0.338801 0.343185 -0.157018 -0.073954 0.380122 -0.313588 -0.215830 -0.431446
11 -0.376162 -0.563444 0.230251 -0.242839 -0.068802 0.037889 0.132034 -0.059004 0.317675 -0.111016 0.455448 0.401531 -0.253974 -0.009701 0.528471 -0.343270 -0.264071 -0.571394
4 -0.313676 -0.474917 0.201421 -0.215708 -0.060390 0.016531 0.116461 -0.024472 0.276104 -0.095100 0.433324 0.367000 -0.187932 -0.046290 0.436514 -0.319474 -0.223506 -0.534392
0 -0.284786 -0.462511 0.176713 -0.240300 -0.095111 0.069035 0.109784 -0.049326 0.225924 -0.082081 0.370842 0.310671 -0.166970 -0.024207 0.417816 -0.295509 -0.183733 -0.424777
6 -0.248430 -0.422833 0.171005 -0.153069 -0.057481 0.010848 0.139171 -0.031263 0.233427 -0.057350 0.362279 0.302097 -0.189002 -0.076263 0.379381 -0.243796 -0.194648 -0.469742
3 -0.302077 -0.436293 0.201298 -0.190932 -0.070286 0.017610 0.149470 -0.054616 0.212494 -0.072597 0.380065 0.303679 -0.217781 -0.071904 0.379678 -0.283659 -0.179111 -0.482348
12 -0.339821 -0.537255 0.201863 -0.242764 -0.077011 -0.005462 0.139377 -0.106520 0.289475 -0.050087 0.452453 0.417827 -0.230943 -0.032976 0.454464 -0.278671 -0.282212 -0.553665
10 -0.275453 -0.468601 0.162197 -0.204416 -0.062889 0.055417 0.163998 -0.061494 0.274521 -0.089062 0.382508 0.349083 -0.212758 -0.027090 0.394232 -0.262415 -0.207677 -0.450650
5 -0.257759 -0.452855 0.140635 -0.181017 -0.040260 -0.007830 0.158155 -0.069063 0.279273 -0.077889 0.374065 0.344269 -0.202758 -0.045304 0.387663 -0.285114 -0.218257 -0.485619
13 -0.275581 -0.484675 0.192335 -0.228826 -0.074308 0.008117 0.157901 -0.080473 0.290765 -0.053545 0.385430 0.349296 -0.199329 -0.068776 0.444391 -0.302060 -0.264404 -0.531687
1 -0.300140 -0.469486 0.202575 -0.218088 -0.058348 0.005340 0.125337 -0.021337 0.262738 -0.073044 0.342708 0.314171 -0.167991 -0.055491 0.377467 -0.292952 -0.180873 -0.462047
15 -0.350367 -0.521289 0.219387 -0.253416 -0.067436 0.068409 0.154507 -0.100027 0.271537 -0.094552 0.428077 0.357712 -0.219253 -0.005228 0.470486 -0.313364 -0.262656 -0.529051
17 -0.357955 -0.545309 0.229541 -0.222730 -0.108819 0.013837 0.170718 -0.066015 0.317947 -0.050287 0.449880 0.413228 -0.227341 -0.011517 0.463031 -0.295134 -0.251341 -0.590978
16 -0.326530 -0.493555 0.211832 -0.237716 -0.089349 0.050139 0.147070 -0.055233 0.265008 -0.083501 0.388555 0.363807 -0.215130 -0.012824 0.474024 -0.326657 -0.244947 -0.522057
7 -0.263207 -0.474330 0.158362 -0.221499 -0.092952 0.040657 0.154930 -0.062370 0.298683 -0.080446 0.388045 0.353243 -0.199477 -0.085893 0.451512 -0.277514 -0.225336 -0.510143
9 -0.329955 -0.500581 0.181502 -0.233633 -0.079532 0.040333 0.143629 -0.035648 0.299787 -0.088701 0.407925 0.379606 -0.208472 -0.063942 0.439635 -0.321531 -0.237979 -0.495189
8 -0.268471 -0.477000 0.190209 -0.194774 -0.090415 0.028741 0.147801 -0.038125 0.246863 -0.042845 0.343151 0.325398 -0.201079 -0.051407 0.414101 -0.296702 -0.190555 -0.463347
14 -0.332205 -0.519234 0.229361 -0.246178 -0.056653 0.032538 0.127884 -0.077575 0.271517 -0.063556 0.396481 0.384246 -0.230999 -0.045062 0.458912 -0.291615 -0.225622 -0.542314
