18 18
13 -0.258868 -0.343670 0.318120 -0.207566 0.020120 -0.209710 -0.045751 0.365472 0.198007 -0.050964 0.109649 0.258974 -0.026376 -0.406346 0.314685 -0.594466 -0.098718 -0.390830
11 -0.246963 -0.337735 0.266042 -0.131399 -0.000972 -0.205587 -0.052438 0.434759 0.221100 -0.078646 0.114132 0.278576 -0.050251 -0.362736 0.326717 -0.588410 -0.065975 -0.361629
1 -0.282660 -0.381024 0.311275 -0.170523 -0.004421 -0.250206 -0.042757 0.450395 0.236368 -0.045715 0.117362 0.282302 -0.005647 -0.385979 0.280687 -0.598149 -0.029746 -0.392324
4 -0.254360 -0.292016 0.283954 -0.161766 0.031525 -0.231997 -0.079916 0.404755 0.191433 -0.075760 0.147621 0.272253 -0.002358 -0.373527 0.279094 -0.572797 -0.059348 -0.385210
8 -0.234450 -0.346257 0.270184 -0.121447 -0.030234 -0.192527 -0.019547 0.448171 0.217069 -0.049060 0.118255 0.296179 -0.067073 -0.393982 0.329892 -0.608389 -0.035168 -0.363929
6 -0.223657 -0.339593 0.257983 -0.108184 -0.018167 -0.212396 -0.016762 0.482692 0.234107 -0.064347 0.138420 0.302273 -0.054410 -0.435229 0.348405 -0.622401 -0.071425 -0.408366
0 -0.241567 -0.350954 0.273323 -0.159331 -0.074748 -0.195493 -0.045474 0.402094 0.188599 -0.013483 0.147089 0.278012 0.003706 -0.314192 0.273722 -0.520173 0.006709 -0.347029
3 -0.294591 -0.353289 0.321297 -0.164608 0.009771 -0.224403 -0.032588 0.432232 0.196485 -0.074685 0.149015 0.278578 -0.058531 -0.423316 0.305630 -0.633275 -0.035731 -0.417232
2 -0.210081 -0.327596 0.250323 -0.157355 -0.013884 -0.209683 -0.026343 0.436056 0.196665 -0.068221 0.118352 0.303170 -0.018537 -0.416227 0.303582 -0.609974 -0.082623 -0.354787
14 -0.301598 -0.373615 0.357126 -0.214255 0.029525 -0.197644 -0.070082 0.376958 0.166857 -0.045098 0.105154 0.293332 -0.048468 -0.375307 0.316878 -0.592645 -0.050161 -0.403637
7 -0.191666 -0.317953 0.209105 -0.133968 -0.057385 -0.182768 -0.024505 0.462709 0.271471 -0.068476 0.123633 0.317035 -0.026062 -0.424486 0.335387 -0.578662 -0.052126 -0.366603
16 -0.263377 -0.341556 0.291598 -0.150631 -0.029779 -0.217628 -0.027639 0.441580 0.228825 -0.053184 0.122049 0.316660 -0.049080 -0.366974 0.346186 -0.619476 -0.075327 -0.421518
12 -0.307863 -0.382274 0.318656 -0.192703 -0.015691 -0.208467 -0.065682 0.379568 0.184719 -0.038183 0.150461 0.315430 -0.054095 -0.358082 0.326845 -0.578988 -0.086355 -0.386561
9 -0.245295 -0.337828 0.235291 -0.148600 -0.022111 -0.217727 -0.041403 0.490308 0.276632 -0.075102 0.144209 0.345224 -0.029762 -0.444758 0.317563 -0.626368 -0.067838 -0.364050
15 -0.309213 -0.361717 0.340469 -0.216455 0.044041 -0.174160 -0.041007 0.342143 0.184834 -0.077993 0.131578 0.261139 -0.039514 -0.371436 0.322812 -0.603403 -0.099693 -0.409259
17 -0.281855 -0.394827 0.320688 -0.143163 -0.073269 -0.247344 -0.023279 0.459393 0.243144 -0.001223 0.153349 0.332541 0.006163 -0.331165 0.271180 -0.557340 -0.017941 -0.412655
5 -0.258722 -0.374091 0.265652 -0.177708 0.036742 -0.236604 -0.022012 0.408447 0.243667 -0.091392 0.150712 0.314375 -0.052476 -0.420269 0.335713 -0.656536 -0.091439 -0.418748
10 -0.263758 -0.376503 0.278797 -0.164363 -0.011285 -0.189816 -0.025957 0.467522 0.271336 -0.085479 0.163045 0.349322 -0.041726 -0.391606 0.315303 -0.608522 -0.047306 -0.377419
