18 18
7 -0.099575 -0.526001 0.011618 -0.036830 -0.161216 0.112467 0.234769 0.289980 0.494763 -0.013569 0.058578 0.518395 -0.084834 -0.200116 0.427738 -0.195626 -0.331337 -0.335348
10 -0.132423 -0.531453 0.042822 -0.008773 -0.117836 0.120276 0.249779 0.288623 0.464637 -0.032442 0.089912 0.522425 -0.121817 -0.126398 0.396899 -0.196483 -0.332609 -0.320241
6 -0.103554 -0.501624 0.060681 0.045192 -0.155969 0.082386 0.277509 0.327819 0.442261 0.017984 0.073090 0.483687 -0.095897 -0.181055 0.402598 -0.212209 -0.318724 -0.385169
14 -0.176274 -0.572649 0.086870 -0.044353 -0.128836 0.092849 0.219047 0.274191 0.440372 0.012012 0.059913 0.545266 -0.120242 -0.145589 0.417694 -0.209174 -0.344690 -0.347566
11 -0.181307 -0.547314 0.079336 0.025895 -0.149006 0.042060 0.228577 0.327895 0.468583 -0.009582 0.074498 0.509307 -0.129711 -0.118736 0.428513 -0.240856 -0.337554 -0.385169
12 -0.180089 -0.544806 0.061629 0.018600 -0.172168 0.037193 0.231678 0.282966 0.414353 0.017306 0.115174 0.514836 -0.134156 -0.110183 0.398702 -0.210266 -0.341615 -0.358349
1 -0.140499 -0.560821 0.054955 -0.045703 -0.134939 0.066391 0.241304 0.343012 0.545180 -0.008729 0.051371 0.526893 -0.056160 -0.217530 0.409835 -0.230733 -0.329522 -0.370144
17 -0.167369 -0.525073 0.093866 0.085137 -0.217845 -0.005925 0.284746 0.336005 0.437895 0.060101 0.090886 0.525726 -0.110651 -0.088060 0.360058 -0.209913 -0.294229 -0.432741
5 -0.145459 -0.545748 0.044381 0.023566 -0.137826 0.041571 0.276053 0.281487 0.463776 -0.005242 0.096168 0.521015 -0.127953 -0.125028 0.400724 -0.244316 -0.329586 -0.396818
15 -0.176244 -0.568365 0.073784 -0.039907 -0.122319 0.126664 0.254273 0.266480 0.463275 -0.025857 0.097229 0.526155 -0.110512 -0.144025 0.433388 -0.227213 -0.381734 -0.364571
8 -0.130812 -0.507677 0.089646 0.071781 -0.204505 0.028563 0.278329 0.321810 0.398803 0.056744 0.060022 0.478039 -0.127389 -0.109229 0.377375 -0.238049 -0.262515 -0.378602
2 -0.136169 -0.574911 0.059218 -0.016828 -0.146380 0.087846 0.254873 0.309188 0.427646 -0.009888 0.072856 0.542595 -0.107072 -0.158969 0.422180 -0.250740 -0.368331 -0.338316
16 -0.151731 -0.505235 0.091396 0.069570 -0.201520 0.036771 0.303982 0.326295 0.429182 0.042316 0.066181 0.525106 -0.133544 -0.096823 0.410185 -0.241623 -0.335929 -0.440616
4 -0.102778 -0.494127 0.021401 -0.031962 -0.120310 0.080595 0.202522 0.331772 0.508985 -0.026306 0.083330 0.521549 -0.041066 -0.213852 0.400349 -0.206534 -0.331858 -0.341464
13 -0.114997 -0.527603 0.059729 -0.024924 -0.164161 0.073039 0.259816 0.290461 0.488777 0.020951 0.055309 0.502763 -0.082731 -0.184698 0.418977 -0.215937 -0.358397 -0.375180
9 -0.127252 -0.493491 0.016208 -0.015146 -0.155501 0.071931 0.229955 0.317881 0.493914 -0.000695 0.070686 0.507980 -0.076698 -0.197858 0.385471 -0.207125 -0.333694 -0.325809
3 -0.201456 -0.536685 0.124310 0.083795 -0.195430 0.010399 0.299629 0.340129 0.399878 0.030472 0.101609 0.509152 -0.167489 -0.123754 0.388350 -0.262293 -0.290952 -0.452715
0 -0.005399 -0.014495 0.001279 -0.026652 -0.021820 0.016369 -0.010898 -0.008016 -0.006711 0.000758 0.022893 0.001004 0.004839 -0.000095 0.023655 -0.011355 0.019530 -0.003746
