18 18
4 -0.267984 -0.408104 0.110217 -0.250377 -0.184896 0.153243 0.140933 0.004491 0.203037 -0.100816 0.531426 0.473749 -0.065285 0.082956 0.462891 -0.344973 -0.222893 -0.470068
0 -0.285070 -0.432724 0.091112 -0.293918 -0.231738 0.232487 0.142959 -0.031695 0.189355 -0.106418 0.531234 0.439678 -0.117009 0.090833 0.488590 -0.315844 -0.135127 -0.403621
5 -0.206737 -0.410568 0.078651 -0.228786 -0.157480 0.125839 0.202290 -0.077427 0.206897 -0.056120 0.458088 0.401430 -0.113533 0.053692 0.447276 -0.353259 -0.213236 -0.456750
11 -0.277378 -0.437037 0.116180 -0.255177 -0.196596 0.157706 0.148793 -0.014514 0.214585 -0.090381 0.489365 0.447638 -0.117395 0.086826 0.508200 -0.368589 -0.210912 -0.453786
15 -0.264831 -0.411888 0.135050 -0.270353 -0.178051 0.169069 0.168803 -0.064510 0.172297 -0.067911 0.469190 0.411851 -0.065421 0.078465 0.431445 -0.321868 -0.245991 -0.423688
1 -0.296500 -0.450366 0.130109 -0.286607 -0.195201 0.150870 0.163604 -0.019778 0.213007 -0.078400 0.485815 0.438782 -0.080803 0.072464 0.434263 -0.332358 -0.177787 -0.432202
16 -0.277685 -0.417893 0.092339 -0.275278 -0.222094 0.191895 0.177777 -0.038327 0.212787 -0.092606 0.506902 0.477848 -0.132047 0.104043 0.515742 -0.351173 -0.210512 -0.456277
10 -0.264373 -0.429101 0.089716 -0.256105 -0.185224 0.212801 0.185122 -0.029972 0.229228 -0.110826 0.519164 0.467766 -0.122468 0.102313 0.459898 -0.307069 -0.193619 -0.408717
3 -0.298206 -0.426358 0.127481 -0.268648 -0.194008 0.186316 0.195637 -0.046409 0.185120 -0.101422 0.525234 0.428126 -0.139738 0.048790 0.465001 -0.356995 -0.176357 -0.465254
12 -0.247512 -0.404471 0.102745 -0.257935 -0.203134 0.134967 0.136996 -0.068379 0.156903 -0.033358 0.467845 0.421448 -0.087467 0.076284 0.430177 -0.292530 -0.226670 -0.398669
13 -0.205309 -0.435995 0.130738 -0.286705 -0.218638 0.136389 0.203282 -0.094658 0.211540 0.001442 0.471091 0.417611 -0.089062 0.025031 0.511656 -0.382570 -0.270610 -0.498628
9 -0.293536 -0.429896 0.069493 -0.286696 -0.207213 0.200173 0.170237 -0.018512 0.249896 -0.112549 0.536428 0.484505 -0.130516 0.052169 0.502663 -0.366633 -0.191056 -0.435558
17 -0.258259 -0.406397 0.110795 -0.236965 -0.213871 0.146951 0.177029 -0.023326 0.208413 -0.056885 0.487913 0.448692 -0.079134 0.088440 0.423588 -0.299045 -0.196508 -0.442514
8 -0.199082 -0.439385 0.132356 -0.249474 -0.231270 0.139914 0.203665 -0.076834 0.184554 0.021745 0.441757 0.407252 -0.114612 0.041177 0.513605 -0.384606 -0.231697 -0.479286
6 -0.263120 -0.433706 0.100041 -0.242001 -0.209407 0.220444 0.178249 -0.004144 0.205156 -0.101009 0.528385 0.457228 -0.123438 0.075516 0.508527 -0.330127 -0.202892 -0.447171
7 -0.252816 -0.425923 0.073191 -0.275286 -0.232130 0.214528 0.180938 -0.029262 0.231792 -0.103266 0.507852 0.459995 -0.115606 0.055858 0.499715 -0.328703 -0.182316 -0.442836
2 -0.226746 -0.441722 0.111413 -0.275014 -0.208388 0.166161 0.202566 -0.036926 0.181116 -0.061898 0.496406 0.463096 -0.081200 0.045388 0.475892 -0.380389 -0.248707 -0.454679
14 -0.011733 -0.016220 0.026785 -0.021827 0.014521 0.009558 -0.015588 -0.009492 -0.015071 0.014490 -0.026914 0.011819 -0.010079 -0.001944 0.000728 0.009641 0.015475 -0.000266
