18 18
8 -0.259639 -0.431604 0.147670 -0.337406 0.006110 0.094851 0.113526 -0.000534 0.336398 -0.131647 0.156600 0.290434 -0.103308 -0.233342 0.455730 -0.470966 -0.238211 -0.405908
15 -0.306846 -0.450322 0.160703 -0.383634 0.030165 0.106714 0.118747 -0.026631 0.361952 -0.165846 0.191687 0.304203 -0.085076 -0.232512 0.468116 -0.490409 -0.289453 -0.439979
5 -0.278928 -0.444848 0.114049 -0.347416 0.053388 0.046785 0.102537 0.004744 0.388129 -0.173418 0.187059 0.319955 -0.087739 -0.231609 0.434165 -0.481057 -0.262118 -0.425086
11 -0.307723 -0.440095 0.147305 -0.340802 0.053266 0.040525 0.056894 0.068891 0.407706 -0.190607 0.164933 0.312512 -0.072407 -0.225461 0.467571 -0.500823 -0.262533 -0.425296
14 -0.288908 -0.450255 0.183369 -0.389851 0.043388 0.096837 0.090460 -0.002243 0.357516 -0.142137 0.144261 0.312990 -0.087132 -0.253086 0.448322 -0.462913 -0.236388 -0.436803
13 -0.222966 -0.414283 0.137006 -0.367487 0.002129 0.097417 0.120173 -0.023509 0.352407 -0.130649 0.164305 0.286193 -0.076701 -0.276722 0.465781 -0.469379 -0.273584 -0.431807
7 -0.224223 -0.408213 0.109692 -0.353017 -0.003222 0.101264 0.107902 0.017998 0.378824 -0.166658 0.165475 0.302295 -0.076100 -0.292980 0.484913 -0.484942 -0.256347 -0.444159
3 -0.306926 -0.430102 0.168228 -0.365680 0.036344 0.076931 0.115785 0.006378 0.340527 -0.172682 0.189633 0.291351 -0.106925 -0.280600 0.443699 -0.503608 -0.251323 -0.452392
1 -0.326328 -0.438932 0.188259 -0.358576 0.069171 0.007210 0.063318 0.076210 0.387418 -0.157843 0.127024 0.272339 -0.032806 -0.233447 0.373834 -0.458898 -0.213797 -0.412992
10 -0.257176 -0.426882 0.128747 -0.352426 0.036634 0.110321 0.115249 0.009625 0.384144 -0.175383 0.187166 0.313674 -0.091344 -0.230620 0.428702 -0.439684 -0.239532 -0.400940
0 -0.258202 -0.439673 0.139331 -0.381296 -0.005796 0.110391 0.093013 0.011861 0.365818 -0.157936 0.200567 0.315637 -0.077305 -0.270091 0.484921 -0.489511 -0.225709 -0.436074
12 -0.329212 -0.463817 0.153141 -0.380776 0.022585 0.042505 0.068269 0.003243 0.350468 -0.146298 0.198386 0.334134 -0.077794 -0.230167 0.444125 -0.469456 -0.294540 -0.413236
6 -0.276839 -0.442991 0.163549 -0.343907 0.040799 0.072408 0.105965 0.056871 0.386596 -0.165716 0.178822 0.305556 -0.076043 -0.289509 0.472410 -0.501213 -0.265590 -0.475662
9 -0.296742 -0.413772 0.126941 -0.353685 0.043891 0.046661 0.073550 0.055225 0.395345 -0.164822 0.163599 0.316942 -0.053562 -0.257253 0.404860 -0.464018 -0.255506 -0.386725
16 -0.292571 -0.414124 0.148668 -0.349957 0.025591 0.056580 0.103393 0.018435 0.356925 -0.154789 0.152379 0.310143 -0.085982 -0.213830 0.454832 -0.484784 -0.279683 -0.439068
2 -0.244646 -0.435185 0.137635 -0.369439 0.008209 0.093418 0.119288 0.012923 0.328169 -0.159953 0.172313 0.320329 -0.077581 -0.274873 0.466176 -0.511168 -0.280012 -0.416690
17 -0.278261 -0.435230 0.147286 -0.335975 0.000471 0.059011 0.113494 0.034282 0.395147 -0.133082 0.181840 0.334556 -0.061024 -0.221299 0.413025 -0.435648 -0.236462 -0.426814
4 -0.289525 -0.408648 0.155787 -0.353669 0.065845 0.038240 0.051891 0.082569 0.409779 -0.190592 0.186878 0.308383 -0.036537 -0.270154 0.437605 -0.489018 -0.240442 -0.460351
