18 18
9 -0.280886 -0.315764 0.181868 0.022644 -0.282638 0.124163 0.347290 0.103758 0.479910 0.148464 0.365482 0.584316 -0.244135 0.055860 0.341077 -0.047198 -0.305220 -0.553409
13 -0.238234 -0.351251 0.235451 -0.096980 -0.250160 0.129159 0.318590 -0.071546 0.336321 0.185680 0.301094 0.460674 -0.246336 0.077178 0.394987 -0.090662 -0.312319 -0.535943
3 -0.264370 -0.297288 0.225823 0.005264 -0.246922 0.119240 0.333555 0.046281 0.356753 0.137799 0.323551 0.471803 -0.258113 0.059766 0.328620 -0.075199 -0.242652 -0.544605
0 -0.256822 -0.362705 0.224483 -0.083574 -0.278119 0.158126 0.310255 -0.033810 0.347296 0.165944 0.356146 0.489814 -0.245391 0.099579 0.411499 -0.086153 -0.269387 -0.557508
16 -0.250971 -0.298269 0.194228 -0.010962 -0.254521 0.116402 0.328225 0.021937 0.381402 0.148252 0.308941 0.510975 -0.247906 0.108816 0.361773 -0.070252 -0.311737 -0.545720
12 -0.272263 -0.367546 0.226545 -0.107800 -0.251374 0.113452 0.281371 -0.096565 0.292316 0.192449 0.332453 0.490206 -0.260296 0.112075 0.385955 -0.069885 -0.321172 -0.517073
14 -0.264463 -0.367060 0.249014 -0.125219 -0.215703 0.145094 0.276802 -0.089656 0.285368 0.179838 0.283062 0.476772 -0.271272 0.103285 0.395480 -0.087000 -0.270528 -0.526372
10 -0.252525 -0.327444 0.188597 -0.026999 -0.238443 0.151368 0.333461 0.004859 0.400592 0.128453 0.344375 0.517406 -0.257145 0.110565 0.345355 -0.043935 -0.282421 -0.513152
4 -0.263440 -0.293703 0.200691 0.021801 -0.252425 0.108989 0.315369 0.088518 0.432598 0.127370 0.373616 0.541803 -0.223388 0.081425 0.343755 -0.057068 -0.282911 -0.575370
15 -0.253947 -0.317544 0.208793 -0.069341 -0.211556 0.137876 0.291830 -0.044871 0.316530 0.133136 0.300822 0.442408 -0.225161 0.098918 0.342513 -0.074889 -0.284708 -0.490182
8 -0.258870 -0.380717 0.239296 -0.063726 -0.259065 0.143132 0.328377 -0.039647 0.342479 0.185894 0.311358 0.496579 -0.278260 0.107204 0.409330 -0.098501 -0.286503 -0.542646
17 -0.234726 -0.288545 0.185622 0.048223 -0.276884 0.086469 0.328887 0.090972 0.427470 0.157297 0.323769 0.514470 -0.200309 0.091758 0.293163 -0.017069 -0.260877 -0.527641
6 -0.239534 -0.309619 0.205670 0.024273 -0.245905 0.127061 0.338583 0.060152 0.394045 0.151470 0.331754 0.503555 -0.246325 0.068724 0.353196 -0.051273 -0.294460 -0.550529
7 -0.242989 -0.318726 0.178459 0.005967 -0.292532 0.139891 0.344821 0.069615 0.453308 0.142820 0.338384 0.544782 -0.235497 0.060388 0.364750 -0.043370 -0.286498 -0.556340
11 -0.272695 -0.331503 0.203962 -0.001035 -0.238230 0.103176 0.298314 0.052351 0.410074 0.126267 0.322430 0.513733 -0.250649 0.105843 0.367198 -0.075805 -0.300113 -0.528301
5 -0.273793 -0.402567 0.212395 -0.113530 -0.225402 0.130301 0.330386 -0.109172 0.350520 0.162951 0.353732 0.525946 -0.297121 0.114543 0.429415 -0.119018 -0.325001 -0.579210
1 -0.027660 -0.027217 0.026180 -0.019122 0.012075 -0.026796 -0.004699 0.019366 0.022084 0.001540 -0.016522 -0.005216 0.015504 -0.011155 -0.013895 -0.016653 0.015775 -0.011908
2 0.021368 -0.003688 -0.004957 -0.007525 -0.007603 0.001755 0.011077 0.016235 -0.024745 -0.003279 -0.008624 0.014563 0.014594 -0.017313 -0.004715 -0.020484 -0.014205 0.014938
