18 18
11 -0.324981 -0.593431 0.247301 -0.204349 -0.073825 0.174692 0.178247 0.080897 0.233372 -0.008058 0.267624 0.423152 -0.259259 -0.177260 0.365252 -0.268912 -0.198660 -0.274834
2 -0.289182 -0.607950 0.241618 -0.237168 -0.096530 0.188741 0.211680 0.064422 0.192027 0.016111 0.262119 0.440859 -0.234042 -0.237695 0.351457 -0.282633 -0.221348 -0.259128
0 -0.290158 -0.553909 0.221075 -0.221986 -0.100124 0.198489 0.176264 0.040551 0.186161 0.009153 0.285120 0.394195 -0.234946 -0.191261 0.347294 -0.240883 -0.162813 -0.251855
3 -0.327201 -0.578211 0.268356 -0.213832 -0.075306 0.184135 0.218890 0.043783 0.176326 0.007038 0.291239 0.392190 -0.269490 -0.234021 0.321440 -0.263313 -0.166316 -0.291130
9 -0.306111 -0.586078 0.211457 -0.223354 -0.097934 0.184118 0.194252 0.063691 0.243574 0.021154 0.275505 0.447576 -0.235813 -0.230383 0.340664 -0.252939 -0.214480 -0.247770
8 -0.318357 -0.638752 0.271083 -0.223754 -0.102025 0.193260 0.211720 0.057591 0.215420 0.043123 0.254074 0.438938 -0.259508 -0.208672 0.367991 -0.274955 -0.188454 -0.275882
12 -0.316706 -0.603983 0.228331 -0.244285 -0.104997 0.171569 0.176125 0.019117 0.199436 0.037942 0.283374 0.442396 -0.229158 -0.195490 0.339138 -0.222494 -0.231725 -0.249793
14 -0.337668 -0.620959 0.273107 -0.259518 -0.070974 0.187197 0.183923 0.028153 0.195488 0.033549 0.253409 0.440849 -0.245150 -0.207441 0.333093 -0.235166 -0.200311 -0.278315
5 -0.308021 -0.605916 0.214953 -0.234869 -0.039295 0.158630 0.224278 0.000109 0.233846 -0.009942 0.281799 0.419037 -0.238838 -0.191055 0.334692 -0.285264 -0.222870 -0.306556
1 -0.342210 -0.638281 0.274851 -0.245366 -0.075388 0.154047 0.198308 0.066711 0.238465 0.023058 0.256714 0.422037 -0.222640 -0.214851 0.333378 -0.271795 -0.192585 -0.291168
4 -0.320514 -0.590081 0.256036 -0.223722 -0.058179 0.167518 0.196083 0.068980 0.225543 -0.006141 0.305347 0.432731 -0.221140 -0.221066 0.336188 -0.279668 -0.201952 -0.314871
15 -0.323685 -0.583842 0.249788 -0.247316 -0.061207 0.187477 0.205771 0.001403 0.204770 0.006181 0.254598 0.386062 -0.211187 -0.183240 0.321475 -0.255807 -0.221251 -0.279903
7 -0.304737 -0.637025 0.234732 -0.250992 -0.112585 0.215717 0.223620 0.049715 0.256160 0.014697 0.268682 0.457712 -0.250617 -0.245499 0.385478 -0.265794 -0.214770 -0.294934
6 -0.308169 -0.616817 0.256279 -0.201584 -0.086797 0.193121 0.218262 0.065747 0.208022 0.025713 0.286777 0.419646 -0.251025 -0.224052 0.357061 -0.249916 -0.209785 -0.291680
10 -0.304974 -0.596018 0.227710 -0.216428 -0.083880 0.222234 0.226627 0.052361 0.241069 -0.003531 0.302919 0.459011 -0.270479 -0.188201 0.346315 -0.232909 -0.198269 -0.265250
17 -0.296054 -0.587447 0.237548 -0.201100 -0.130931 0.165938 0.211276 0.069864 0.236759 0.049770 0.269587 0.454700 -0.218873 -0.185535 0.330862 -0.221218 -0.203863 -0.284587
16 -0.318551 -0.596304 0.245990 -0.228581 -0.107389 0.187922 0.212775 0.041366 0.221429 0.030380 0.253256 0.446258 -0.265800 -0.186705 0.384518 -0.267380 -0.232617 -0.299434
13 -0.289674 -0.604298 0.251742 -0.247269 -0.101565 0.180210 0.205553 0.033510 0.221916 0.040445 0.258531 0.408597 -0.225013 -0.236414 0.355931 -0.255843 -0.224534 -0.274606
