18 18
7 -0.135149 -0.610865 0.209539 -0.553838 -0.188645 0.113059 0.060390 0.155245 0.314433 0.100504 -0.308599 0.412222 -0.045732 -0.466620 0.316000 -0.311208 -0.062026 -0.071857
0 -0.222346 -0.558207 0.271968 -0.512559 -0.103759 0.040201 0.076494 0.196573 0.146343 -0.005018 -0.171998 0.437286 -0.056129 -0.380703 0.267280 -0.442922 -0.003639 -0.200609
1 -0.240737 -0.567200 0.298581 -0.500792 -0.083790 -0.004045 0.074628 0.213321 0.172270 0.018768 -0.213992 0.407055 -0.034993 -0.375046 0.218621 -0.402312 -0.019089 -0.189199
10 -0.194155 -0.602802 0.248873 -0.520725 -0.106726 0.066636 0.099471 0.195839 0.230420 0.012931 -0.221496 0.451673 -0.081491 -0.396462 0.263909 -0.394624 -0.042650 -0.137270
6 -0.202813 -0.607230 0.278309 -0.494946 -0.116820 0.051617 0.101991 0.210145 0.198355 0.037170 -0.223348 0.433192 -0.073637 -0.419232 0.282726 -0.398421 -0.048788 -0.182181
13 -0.154863 -0.572217 0.256958 -0.524543 -0.147417 0.049724 0.084166 0.140640 0.234943 0.093486 -0.268812 0.365363 -0.039091 -0.421533 0.266107 -0.339072 -0.077534 -0.123116
3 -0.245916 -0.526052 0.291739 -0.472591 -0.035822 0.007305 0.130177 0.211575 0.091061 -0.066299 -0.154266 0.414612 -0.109247 -0.423299 0.208223 -0.499880 0.009058 -0.230634
9 -0.186396 -0.585002 0.222068 -0.522400 -0.136880 0.061305 0.062298 0.180184 0.257202 0.065041 -0.247532 0.422044 -0.050562 -0.421757 0.258779 -0.348315 -0.075694 -0.087489
14 -0.230903 -0.581783 0.310944 -0.528770 -0.090174 0.046872 0.047660 0.173849 0.153904 0.053663 -0.246628 0.427055 -0.057286 -0.369061 0.236284 -0.354159 -0.022292 -0.151893
16 -0.233256 -0.519932 0.296574 -0.473248 -0.059838 -0.003248 0.134496 0.219665 0.089741 -0.047094 -0.175181 0.442499 -0.081609 -0.351575 0.240244 -0.501105 -0.038418 -0.266561
4 -0.226964 -0.512522 0.284222 -0.466050 -0.048169 -0.010377 0.079173 0.238423 0.116891 -0.040675 -0.151116 0.433673 -0.050199 -0.393803 0.227878 -0.471689 -0.025784 -0.233025
2 -0.178064 -0.534161 0.254656 -0.471033 -0.072759 0.016180 0.132109 0.224373 0.100305 -0.040179 -0.185583 0.427376 -0.061609 -0.406810 0.227687 -0.476606 -0.043435 -0.190926
11 -0.208293 -0.609490 0.267799 -0.507947 -0.125235 0.040933 0.044289 0.195841 0.237632 0.053193 -0.256658 0.411803 -0.065883 -0.387280 0.293110 -0.369799 -0.072172 -0.123058
17 -0.234839 -0.607897 0.300464 -0.513583 -0.125588 0.014782 0.103792 0.229453 0.197332 0.030602 -0.205114 0.485977 -0.047924 -0.390646 0.252759 -0.420769 -0.035094 -0.223066
5 -0.202266 -0.530510 0.229946 -0.447219 -0.026347 -0.005733 0.129278 0.185438 0.130285 -0.063926 -0.142475 0.424285 -0.094945 -0.356155 0.225566 -0.469985 -0.037952 -0.219536
12 -0.199767 -0.601404 0.253387 -0.533727 -0.153190 0.039969 0.056934 0.142648 0.197080 0.086459 -0.225490 0.426443 -0.063349 -0.394548 0.267321 -0.335838 -0.081767 -0.113931
8 -0.170228 -0.608857 0.259144 -0.505124 -0.164959 0.054002 0.083820 0.172674 0.218383 0.095974 -0.254789 0.402454 -0.070125 -0.401237 0.293230 -0.374689 -0.054837 -0.120170
15 -0.246867 -0.559012 0.297673 -0.510792 -0.076489 0.051567 0.090879 0.164310 0.154396 0.001013 -0.186228 0.411985 -0.049792 -0.357819 0.241631 -0.406209 -0.049914 -0.193533
