18 18
2 -0.055304 -0.400369 -0.022847 -0.092535 -0.086435 -0.004565 0.369013 0.026966 0.370362 -0.033142 0.307582 0.469164 -0.094453 -0.068924 0.411942 -0.399539 -0.280078 -0.608879
11 -0.150569 -0.438905 0.042262 -0.153024 -0.101706 0.042352 0.316963 0.013283 0.442565 -0.035994 0.223308 0.476947 -0.140793 0.010506 0.437144 -0.342901 -0.261552 -0.538001
0 -0.115542 -0.433870 0.008874 -0.151281 -0.103899 0.052486 0.336035 -0.010146 0.413091 -0.029889 0.302511 0.479543 -0.123885 -0.016994 0.440802 -0.353630 -0.245587 -0.577692
12 -0.118449 -0.416678 0.015831 -0.130514 -0.114474 0.004541 0.325363 -0.020936 0.369219 0.008534 0.285728 0.472437 -0.115621 -0.014800 0.405075 -0.327363 -0.280458 -0.567930
7 0.004282 -0.296584 -0.089069 0.009052 0.016604 -0.015672 0.314993 0.043327 0.332748 -0.114887 0.363736 0.362544 -0.112381 -0.122578 0.400808 -0.388230 -0.219224 -0.603897
3 0.027919 -0.193218 -0.118296 0.190035 0.235260 -0.077370 0.331034 0.087904 0.201082 -0.268114 0.570037 0.237005 -0.168603 -0.219644 0.341851 -0.484308 -0.160378 -0.679060
10 -0.165176 -0.476264 0.057502 -0.208495 -0.148582 0.101773 0.355593 -0.024367 0.486476 0.007180 0.202753 0.532625 -0.144323 0.053857 0.414154 -0.272165 -0.259089 -0.505674
16 -0.112852 -0.386604 0.018507 -0.119688 -0.088091 0.032654 0.366613 -0.015670 0.405221 -0.023260 0.249867 0.460095 -0.130804 0.002640 0.413371 -0.350892 -0.280030 -0.587207
9 -0.119629 -0.416384 -0.016851 -0.131417 -0.077259 0.030782 0.343351 0.015858 0.447520 -0.041178 0.292267 0.495540 -0.126534 -0.057219 0.413082 -0.361301 -0.267185 -0.566952
17 -0.071657 -0.367958 -0.011365 -0.048692 -0.074852 -0.015522 0.353946 0.024321 0.379035 -0.024006 0.321405 0.439564 -0.098636 -0.039063 0.372056 -0.341547 -0.242008 -0.610720
1 -0.086850 -0.389546 -0.008008 -0.070395 -0.025874 -0.035582 0.339562 0.040601 0.386026 -0.062690 0.328453 0.423597 -0.102547 -0.080208 0.398941 -0.409972 -0.239700 -0.637292
5 0.160042 -0.110611 -0.277671 0.378819 0.441833 -0.150071 0.302225 0.110022 0.139815 -0.410278 0.755669 0.162958 -0.178990 -0.256303 0.346854 -0.550324 -0.168227 -0.729203
4 0.080872 -0.148976 -0.180737 0.245962 0.294765 -0.109182 0.287440 0.125154 0.209879 -0.314315 0.645472 0.249064 -0.131293 -0.221283 0.359604 -0.503429 -0.182869 -0.711478
14 -0.123862 -0.408780 0.030487 -0.138337 -0.033856 0.047376 0.302660 -0.004150 0.390581 -0.040195 0.260255 0.466362 -0.139978 -0.035111 0.412298 -0.330883 -0.231227 -0.550538
15 -0.137600 -0.424041 0.032245 -0.150781 -0.077206 0.066676 0.341523 -0.025602 0.407078 -0.038069 0.272917 0.450027 -0.117741 -0.010175 0.415248 -0.341904 -0.266752 -0.564140
6 0.163383 -0.060944 -0.235459 0.419508 0.442234 -0.133998 0.274776 0.158069 0.084019 -0.398510 0.731283 0.099700 -0.163980 -0.284231 0.328409 -0.520987 -0.145170 -0.709938
13 -0.075305 -0.404882 0.008222 -0.123955 -0.082578 0.014486 0.349446 -0.007227 0.412781 -0.017767 0.279994 0.445592 -0.112593 -0.060849 0.431600 -0.361428 -0.277682 -0.598763
8 -0.003363 -0.321295 -0.059364 0.048298 0.034705 -0.035965 0.338359 0.048375 0.294246 -0.098648 0.394565 0.349448 -0.137135 -0.108722 0.403554 -0.425525 -0.213012 -0.627920
