18 18
2 -0.262590 -0.499617 0.355789 -0.320017 -0.051094 0.070439 0.207252 0.142791 0.039819 -0.082425 0.260480 0.373772 -0.171442 -0.427255 0.420210 -0.542303 -0.215304 -0.537592
15 -0.361645 -0.410152 0.401122 -0.342826 -0.053562 0.102454 0.099817 0.018094 0.142399 -0.011039 0.185778 0.286773 -0.098522 -0.132898 0.368196 -0.316626 -0.248090 -0.442111
1 -0.300377 -0.452234 0.356383 -0.306676 -0.035043 0.039786 0.143682 0.114056 0.117154 -0.051024 0.201330 0.301712 -0.137259 -0.321668 0.370879 -0.442182 -0.176462 -0.497152
0 -0.352556 -0.409248 0.393859 -0.348066 -0.079802 0.087933 0.077533 0.044816 0.132736 -0.004084 0.216749 0.299323 -0.107885 -0.159746 0.396200 -0.337743 -0.196136 -0.472551
10 -0.344725 -0.435777 0.386044 -0.321636 -0.034678 0.099176 0.122115 0.070801 0.169718 -0.048941 0.224819 0.331471 -0.148626 -0.186055 0.392897 -0.359924 -0.221317 -0.481122
13 -0.290978 -0.395855 0.369858 -0.331055 -0.068151 0.076936 0.115397 0.033306 0.143175 0.003823 0.161290 0.273779 -0.097501 -0.201454 0.378635 -0.338177 -0.247557 -0.455682
6 -0.307122 -0.430053 0.373177 -0.280170 -0.039574 0.082344 0.138646 0.093033 0.113001 -0.038568 0.232484 0.308500 -0.150377 -0.262580 0.403399 -0.390231 -0.221050 -0.508593
12 -0.344819 -0.434195 0.370703 -0.333861 -0.070915 0.066284 0.088875 0.036606 0.114649 -0.007412 0.222560 0.315640 -0.120672 -0.192487 0.361417 -0.321403 -0.242455 -0.427325
9 -0.352390 -0.449221 0.372097 -0.340508 -0.054040 0.075478 0.124189 0.095489 0.170535 -0.039411 0.230701 0.353208 -0.138888 -0.266942 0.394767 -0.401272 -0.235055 -0.484599
17 -0.317228 -0.397285 0.374284 -0.298794 -0.089249 0.059653 0.113043 0.058986 0.162939 0.016939 0.190450 0.314435 -0.094693 -0.156063 0.352733 -0.300717 -0.215316 -0.474590
3 -0.334377 -0.461570 0.398743 -0.303386 -0.027821 0.074724 0.178535 0.110632 0.078717 -0.080379 0.272496 0.314669 -0.199759 -0.362684 0.408137 -0.484744 -0.176524 -0.566610
14 -0.338472 -0.424130 0.407384 -0.341879 -0.041000 0.075200 0.089854 0.057585 0.118614 -0.003308 0.169936 0.321549 -0.126914 -0.205491 0.386699 -0.357348 -0.212187 -0.485726
11 -0.387641 -0.448213 0.423184 -0.336413 -0.045761 0.061074 0.073366 0.080953 0.169936 -0.031211 0.194740 0.317808 -0.122842 -0.158962 0.406535 -0.367347 -0.246945 -0.479063
4 -0.374144 -0.446197 0.419057 -0.335960 -0.025246 0.046083 0.089742 0.116956 0.137886 -0.060515 0.273164 0.346355 -0.123243 -0.271669 0.414358 -0.439647 -0.231521 -0.559617
5 -0.246814 -0.492824 0.307259 -0.285005 -0.021187 0.056553 0.225223 0.106970 0.093406 -0.097789 0.277240 0.355851 -0.210162 -0.412322 0.437738 -0.544941 -0.192510 -0.582054
8 -0.250176 -0.505096 0.364402 -0.295735 -0.071795 0.085034 0.223836 0.133503 0.076507 -0.047866 0.234051 0.343705 -0.210892 -0.423143 0.466601 -0.547418 -0.172293 -0.578556
7 -0.235410 -0.424659 0.307171 -0.285501 -0.062362 0.090964 0.173811 0.107117 0.121354 -0.065747 0.207167 0.314573 -0.159426 -0.343146 0.416122 -0.437622 -0.190614 -0.509057
16 -0.346936 -0.417979 0.397357 -0.325236 -0.057247 0.068137 0.127339 0.067047 0.147710 -0.018609 0.185495 0.330764 -0.135740 -0.180986 0.407982 -0.386886 -0.252053 -0.511159
