18 18
3 -0.175425 -0.417808 0.051581 -0.204006 -0.179404 -0.061820 0.403909 0.067543 0.451891 0.029250 0.085208 0.479591 -0.198914 -0.319092 0.328197 -0.399273 -0.302084 -0.525479
7 -0.173032 -0.434343 0.001955 -0.223119 -0.214822 -0.008938 0.313612 0.057639 0.480658 0.037269 0.069535 0.508908 -0.177742 -0.241019 0.351011 -0.300130 -0.267812 -0.424320
17 -0.233590 -0.465764 0.046753 -0.205705 -0.232482 -0.042500 0.293288 0.077086 0.477099 0.072082 0.080027 0.532945 -0.168596 -0.180486 0.316674 -0.270878 -0.262056 -0.413573
1 -0.203664 -0.438849 0.043731 -0.221323 -0.169723 -0.067096 0.302235 0.077245 0.472508 0.038120 0.057877 0.469386 -0.148701 -0.233916 0.295057 -0.318809 -0.253677 -0.431650
12 -0.251874 -0.488160 0.037110 -0.249691 -0.218140 -0.037416 0.280118 0.036187 0.452428 0.067023 0.107889 0.554462 -0.190476 -0.201495 0.341518 -0.286310 -0.295333 -0.417064
9 -0.271426 -0.481209 0.012958 -0.240261 -0.201757 -0.021843 0.259374 0.087440 0.509313 0.039636 0.087666 0.553924 -0.184914 -0.217483 0.327180 -0.285699 -0.270962 -0.372668
6 -0.229585 -0.467244 0.038090 -0.202590 -0.190315 -0.015561 0.275722 0.075640 0.449403 0.048055 0.090771 0.500422 -0.185757 -0.203467 0.338039 -0.279100 -0.264589 -0.403253
5 -0.145386 -0.413046 -0.003835 -0.189799 -0.148286 -0.060773 0.345951 0.030768 0.454198 0.019887 0.100642 0.468605 -0.173438 -0.231056 0.318791 -0.344914 -0.295970 -0.457795
2 -0.096229 -0.363889 0.014921 -0.183853 -0.175054 -0.066731 0.355644 0.071263 0.388831 0.035989 0.061293 0.452572 -0.130459 -0.277789 0.294094 -0.360150 -0.322285 -0.437566
13 -0.122052 -0.392186 0.037901 -0.211865 -0.192807 -0.059005 0.363133 0.034178 0.429578 0.066989 0.058134 0.437818 -0.145361 -0.288133 0.310919 -0.335896 -0.326019 -0.458354
11 -0.267193 -0.482230 0.044425 -0.216240 -0.176399 -0.050020 0.245692 0.104618 0.493756 0.012593 0.070114 0.504601 -0.190679 -0.184265 0.336013 -0.308349 -0.261901 -0.392373
16 -0.164549 -0.411540 0.034522 -0.207603 -0.192324 -0.053057 0.371067 0.049986 0.461603 0.048926 0.054904 0.502262 -0.187017 -0.248020 0.354285 -0.367773 -0.326645 -0.498651
0 -0.248288 -0.469429 0.037283 -0.247971 -0.214763 -0.011407 0.243085 0.060017 0.447293 0.043220 0.100281 0.503165 -0.171389 -0.182889 0.340450 -0.284482 -0.227886 -0.381086
14 -0.234915 -0.460224 0.067336 -0.251015 -0.172369 -0.017033 0.264482 0.046537 0.434305 0.063546 0.045107 0.515913 -0.189157 -0.218865 0.324535 -0.289559 -0.234220 -0.399110
8 -0.192447 -0.449293 0.048950 -0.208334 -0.200930 -0.022057 0.304561 0.062995 0.434202 0.063108 0.050587 0.480785 -0.188111 -0.217280 0.337808 -0.319800 -0.253131 -0.397812
15 -0.241830 -0.467871 0.055310 -0.250668 -0.194174 0.003422 0.304005 0.022872 0.450245 0.042790 0.085247 0.507333 -0.179831 -0.193272 0.347194 -0.306066 -0.292688 -0.421231
10 -0.199225 -0.436750 0.012724 -0.208566 -0.175102 0.001194 0.306570 0.056215 0.476439 0.019050 0.087329 0.503802 -0.193067 -0.187268 0.311249 -0.273791 -0.249695 -0.383300
4 -0.177688 -0.413674 0.031778 -0.198437 -0.167260 -0.078317 0.337691 0.095153 0.484407 0.023796 0.113608 0.518742 -0.160022 -0.274140 0.334523 -0.372021 -0.305851 -0.511349
