18 18
3 -0.328366 -0.527894 0.259325 -0.238968 -0.093427 -0.057401 0.205394 0.007486 0.317746 0.040098 0.106233 0.478304 -0.163188 0.033557 0.302934 -0.292847 -0.289640 -0.417757
5 -0.285790 -0.538022 0.182462 -0.228414 -0.077005 -0.041944 0.217266 -0.032715 0.338886 0.023240 0.122589 0.492647 -0.166035 0.074978 0.317908 -0.284467 -0.318909 -0.381842
7 -0.284206 -0.540890 0.224132 -0.251650 -0.121123 -0.037897 0.206089 0.014826 0.367137 0.043372 0.075690 0.505217 -0.146781 0.028711 0.348097 -0.281938 -0.315707 -0.427644
15 -0.353882 -0.571764 0.254695 -0.266304 -0.088967 -0.001882 0.216016 -0.027442 0.331191 0.028267 0.135276 0.503967 -0.154314 0.088447 0.328627 -0.292526 -0.339744 -0.387778
0 -0.319975 -0.552248 0.230317 -0.261376 -0.121580 -0.022177 0.186763 -0.004307 0.316139 0.047719 0.143647 0.504169 -0.144953 0.066510 0.336872 -0.291154 -0.295109 -0.378834
16 -0.293043 -0.513251 0.211294 -0.231062 -0.101423 -0.038436 0.218082 -0.020673 0.325770 0.039337 0.099927 0.495163 -0.170430 0.086849 0.336406 -0.290020 -0.346595 -0.399939
13 -0.271131 -0.543866 0.221197 -0.267875 -0.117105 -0.048494 0.218068 -0.038133 0.352072 0.068110 0.087488 0.489159 -0.157989 0.035566 0.348141 -0.289494 -0.360585 -0.401252
10 -0.287766 -0.552897 0.194619 -0.243066 -0.102382 -0.005283 0.229707 -0.032882 0.352163 0.030490 0.132149 0.520774 -0.194892 0.087812 0.331527 -0.262091 -0.333703 -0.362093
1 -0.330886 -0.564522 0.269350 -0.264245 -0.085631 -0.076273 0.191625 0.032427 0.368157 0.048659 0.074740 0.490844 -0.129099 0.033492 0.308105 -0.295815 -0.302594 -0.414989
4 -0.304991 -0.523527 0.222754 -0.238462 -0.085004 -0.058401 0.182458 0.009025 0.345742 0.030250 0.130061 0.516685 -0.140412 0.063871 0.318587 -0.280959 -0.328548 -0.411182
2 -0.315654 -0.580829 0.247849 -0.257845 -0.109740 -0.044359 0.216809 0.023534 0.323283 0.047917 0.108315 0.548661 -0.143321 0.055946 0.323561 -0.307548 -0.339166 -0.386336
14 -0.312680 -0.545451 0.261725 -0.256026 -0.087043 -0.041402 0.178597 -0.000630 0.316593 0.067607 0.066022 0.502406 -0.147811 0.055249 0.308952 -0.258186 -0.295143 -0.394228
6 -0.282654 -0.547611 0.211851 -0.212232 -0.101663 -0.012072 0.228541 -0.000555 0.332268 0.046911 0.138297 0.512362 -0.183310 0.053476 0.355912 -0.289490 -0.346081 -0.399508
11 -0.332672 -0.551856 0.244372 -0.227522 -0.073169 -0.058140 0.174127 0.030203 0.352738 0.016240 0.095329 0.498811 -0.154649 0.083788 0.329880 -0.291746 -0.320546 -0.392155
12 -0.339618 -0.581527 0.220357 -0.265732 -0.118829 -0.048845 0.190389 -0.044985 0.320168 0.062776 0.148695 0.545511 -0.176844 0.093995 0.333144 -0.264178 -0.361892 -0.370388
8 -0.289416 -0.569336 0.215183 -0.236315 -0.128823 -0.013086 0.233801 -0.034936 0.325519 0.067140 0.116918 0.517032 -0.208805 0.081271 0.369328 -0.308362 -0.330949 -0.376335
17 -0.286964 -0.500810 0.223578 -0.199522 -0.115986 -0.060243 0.201853 0.026849 0.341531 0.061571 0.102352 0.492970 -0.119430 0.075721 0.278862 -0.236366 -0.292373 -0.389210
9 -0.313433 -0.550741 0.197350 -0.255372 -0.103774 -0.040387 0.208873 0.008745 0.381155 0.040637 0.128165 0.544321 -0.154488 0.036784 0.324663 -0.295728 -0.345493 -0.372601
