18 18
2 -0.263637 -0.410976 0.176946 -0.022931 0.099524 -0.140488 0.057147 0.425869 0.237019 -0.213204 0.216619 0.485396 -0.168552 -0.171900 0.262251 -0.501806 -0.121159 -0.343991
11 -0.322568 -0.409249 0.190917 0.000150 0.120256 -0.180292 -0.002672 0.395243 0.306701 -0.191542 0.202095 0.467436 -0.200236 -0.096955 0.282914 -0.449136 -0.129371 -0.363139
6 -0.284277 -0.405621 0.190137 0.008706 0.113351 -0.132976 0.045469 0.413195 0.277345 -0.195036 0.224355 0.462635 -0.188655 -0.149442 0.278474 -0.454003 -0.119434 -0.373446
12 -0.335073 -0.431209 0.195429 -0.036726 0.099889 -0.176477 -0.003694 0.372732 0.272562 -0.170300 0.236636 0.502346 -0.195071 -0.120673 0.269162 -0.434404 -0.137603 -0.356709
13 -0.311702 -0.450761 0.234994 -0.056494 0.099699 -0.145569 0.033683 0.376352 0.302703 -0.172322 0.204979 0.490549 -0.200073 -0.152689 0.316871 -0.478738 -0.148277 -0.404459
17 -0.323614 -0.446382 0.216580 -0.015528 0.080222 -0.165078 0.042914 0.407888 0.332304 -0.165171 0.228669 0.531030 -0.189347 -0.120022 0.280157 -0.447080 -0.123887 -0.414349
9 -0.296239 -0.392806 0.153001 -0.026212 0.114188 -0.159064 0.025170 0.397987 0.317441 -0.197041 0.228670 0.488642 -0.172538 -0.166346 0.248674 -0.456502 -0.123124 -0.344172
0 -0.320250 -0.444598 0.198169 -0.046873 0.082533 -0.147978 0.013876 0.406117 0.278489 -0.200933 0.256475 0.492389 -0.188834 -0.142150 0.313057 -0.497517 -0.102374 -0.384529
4 -0.249955 -0.310117 0.132345 0.008051 0.128158 -0.189811 -0.012670 0.392817 0.277561 -0.193623 0.239249 0.425990 -0.120151 -0.146519 0.202886 -0.410675 -0.091188 -0.334521
3 -0.330678 -0.425404 0.217307 -0.016018 0.126743 -0.161485 0.048161 0.428195 0.284033 -0.223782 0.247203 0.487502 -0.214759 -0.183740 0.274357 -0.514074 -0.095258 -0.408678
1 -0.324668 -0.439458 0.209353 -0.039577 0.128245 -0.186540 0.029262 0.430019 0.298573 -0.206029 0.213856 0.475244 -0.164719 -0.162039 0.254614 -0.498229 -0.102767 -0.380832
7 -0.271366 -0.432870 0.196358 -0.047714 0.076307 -0.084115 0.063740 0.393402 0.294397 -0.203067 0.180513 0.477677 -0.190180 -0.169882 0.312889 -0.469098 -0.110578 -0.370361
15 -0.313708 -0.427676 0.236644 -0.068945 0.096676 -0.071214 0.057757 0.330571 0.252586 -0.188818 0.195074 0.440877 -0.180368 -0.116195 0.292861 -0.449156 -0.127635 -0.369806
14 -0.307463 -0.429722 0.236235 -0.082714 0.118672 -0.100889 0.009201 0.329934 0.242831 -0.163234 0.161402 0.465624 -0.197287 -0.131160 0.277968 -0.426998 -0.089620 -0.350078
10 -0.300717 -0.437381 0.193785 -0.019187 0.129952 -0.107599 0.063629 0.420985 0.312125 -0.240563 0.245851 0.509419 -0.213875 -0.137989 0.283479 -0.482631 -0.106895 -0.368978
16 -0.302970 -0.393069 0.194622 -0.017697 0.098807 -0.161588 0.036756 0.377609 0.279559 -0.172445 0.195903 0.480202 -0.194843 -0.111779 0.279767 -0.455585 -0.138947 -0.383517
5 -0.258442 -0.395340 0.129840 -0.018762 0.137103 -0.160372 0.052719 0.355693 0.289736 -0.218123 0.243614 0.461686 -0.185926 -0.149532 0.260074 -0.474949 -0.112585 -0.363109
8 -0.297772 -0.458461 0.221042 -0.025370 0.086622 -0.113249 0.065634 0.414165 0.276621 -0.189438 0.209170 0.485232 -0.208680 -0.154077 0.309366 -0.504750 -0.100293 -0.373902
