18 18
12 -0.468332 -0.539861 0.265747 -0.401875 0.037120 -0.073215 -0.161905 0.108900 0.266846 -0.104321 0.353210 0.479917 0.015057 -0.082665 0.274521 -0.277210 -0.153874 -0.332458
2 -0.419695 -0.546920 0.258998 -0.409155 -0.006583 -0.109956 -0.137282 0.216085 0.254162 -0.120299 0.328097 0.510741 0.055179 -0.219078 0.281710 -0.412445 -0.138631 -0.345126
1 -0.453629 -0.539467 0.274270 -0.399141 0.040346 -0.109483 -0.154045 0.171014 0.290365 -0.114661 0.302388 0.441425 0.045767 -0.140034 0.256034 -0.333242 -0.108218 -0.336366
10 -0.478194 -0.557596 0.283513 -0.350284 0.098003 -0.006876 -0.114610 0.129501 0.321762 -0.162971 0.371453 0.485365 -0.025259 -0.007211 0.276482 -0.247469 -0.117340 -0.356682
0 -0.474707 -0.565168 0.281618 -0.415783 0.034627 -0.051196 -0.162960 0.138666 0.281441 -0.130086 0.370444 0.480595 0.018539 -0.092383 0.308161 -0.322665 -0.109232 -0.360207
6 -0.464393 -0.558781 0.278734 -0.349692 0.065357 -0.043860 -0.125387 0.169396 0.310378 -0.137321 0.368024 0.483993 -0.002584 -0.087792 0.302637 -0.295821 -0.137743 -0.382789
5 -0.416957 -0.527482 0.218590 -0.342605 0.059422 -0.075046 -0.100157 0.130783 0.303656 -0.148666 0.350920 0.470509 -0.012342 -0.085707 0.280654 -0.325239 -0.128100 -0.356687
15 -0.491519 -0.538287 0.309253 -0.381183 0.102318 0.000931 -0.122428 0.083373 0.288997 -0.145699 0.350702 0.435763 0.007049 -0.011121 0.278386 -0.244013 -0.159603 -0.364558
4 -0.419114 -0.485671 0.250247 -0.363428 0.036984 -0.100553 -0.162574 0.189320 0.266706 -0.129681 0.342160 0.466982 0.046949 -0.155596 0.262518 -0.341429 -0.113826 -0.348393
9 -0.412848 -0.505315 0.200766 -0.385938 -0.006027 -0.108850 -0.135419 0.191244 0.294800 -0.115354 0.321063 0.485399 0.036640 -0.218403 0.251191 -0.364898 -0.129356 -0.292575
11 -0.454940 -0.531472 0.265446 -0.338458 0.059703 -0.068465 -0.151831 0.169924 0.295276 -0.150839 0.333389 0.457401 -0.006500 -0.062407 0.298534 -0.313124 -0.125098 -0.345774
7 -0.404377 -0.530726 0.223553 -0.408693 -0.022468 -0.096277 -0.144113 0.200363 0.304719 -0.123918 0.320028 0.492830 0.049817 -0.229202 0.301660 -0.380443 -0.117534 -0.344679
14 -0.490384 -0.559989 0.327975 -0.388113 0.104051 -0.024662 -0.158202 0.109570 0.269231 -0.121760 0.317036 0.463789 -0.008118 -0.022811 0.279829 -0.249113 -0.110955 -0.363479
13 -0.442250 -0.537537 0.289234 -0.405006 0.053272 -0.067733 -0.141167 0.129336 0.291165 -0.113329 0.325276 0.449106 0.034124 -0.119988 0.285690 -0.307470 -0.157335 -0.358901
17 -0.447572 -0.526977 0.265784 -0.325026 0.022185 -0.067073 -0.111022 0.161053 0.316760 -0.108082 0.349961 0.485826 0.011116 -0.047967 0.261718 -0.252845 -0.114765 -0.371809
3 -0.459477 -0.526006 0.298731 -0.377075 0.024989 -0.093780 -0.121536 0.186477 0.246767 -0.128860 0.332707 0.454528 0.005906 -0.191794 0.268600 -0.380874 -0.096299 -0.373983
8 -0.399605 -0.517682 0.255756 -0.343629 0.003000 -0.074653 -0.113878 0.166557 0.254837 -0.093071 0.297113 0.445181 0.000556 -0.135769 0.282807 -0.346097 -0.094842 -0.326689
16 -0.426272 -0.495720 0.250579 -0.356307 0.029857 -0.066589 -0.114467 0.140084 0.285986 -0.115864 0.307250 0.463444 0.005496 -0.074935 0.292982 -0.310281 -0.154350 -0.365926
