18 18
0 -0.238119 -0.590406 0.109207 -0.295673 -0.170515 0.115442 -0.069793 0.102697 0.258380 0.117442 0.217175 0.520534 -0.234580 -0.186569 0.428758 -0.312908 0.101777 -0.101661
7 -0.184037 -0.539039 0.026090 -0.245371 -0.167319 0.121102 -0.045198 0.113252 0.339445 0.085803 0.188432 0.527319 -0.260252 -0.192636 0.420509 -0.281151 0.071509 -0.065147
5 -0.220095 -0.607960 0.051966 -0.260865 -0.124460 0.092601 -0.024621 0.111038 0.326244 0.079148 0.218219 0.560124 -0.282888 -0.199201 0.430056 -0.345962 0.062526 -0.095596
12 -0.261727 -0.589737 0.075674 -0.269195 -0.154237 0.081394 -0.074896 0.096455 0.280055 0.112017 0.237018 0.557381 -0.267420 -0.170205 0.402297 -0.291679 0.042625 -0.067589
3 -0.257059 -0.585077 0.112833 -0.261381 -0.135823 0.098952 -0.036229 0.141528 0.268062 0.082476 0.213458 0.513842 -0.291003 -0.238555 0.410518 -0.361903 0.105071 -0.104258
8 -0.202532 -0.577023 0.053863 -0.231496 -0.154570 0.121808 -0.041170 0.128254 0.313467 0.107098 0.191616 0.538424 -0.285809 -0.182297 0.413993 -0.304735 0.091326 -0.035772
4 -0.231119 -0.573569 0.080222 -0.262452 -0.138085 0.092018 -0.075415 0.154864 0.313683 0.088295 0.233151 0.560739 -0.250426 -0.220775 0.423353 -0.334335 0.088788 -0.099702
17 -0.246406 -0.622518 0.132405 -0.269598 -0.190460 0.078766 -0.022137 0.146937 0.291044 0.145329 0.212292 0.561849 -0.232064 -0.203964 0.414093 -0.333001 0.081379 -0.145018
2 -0.227561 -0.654389 0.157665 -0.315008 -0.175747 0.109791 -0.012327 0.157063 0.223283 0.143550 0.171935 0.544178 -0.226878 -0.268093 0.432588 -0.390386 0.072116 -0.113038
9 -0.205023 -0.531650 0.013469 -0.238984 -0.121852 0.103750 -0.058081 0.143319 0.345416 0.069261 0.192140 0.544720 -0.257814 -0.206364 0.387866 -0.303623 0.063587 -0.027398
1 -0.252761 -0.644645 0.155722 -0.298940 -0.139616 0.076348 -0.029047 0.169546 0.277579 0.129002 0.159075 0.511247 -0.217749 -0.250257 0.402897 -0.373431 0.091829 -0.114779
14 -0.284139 -0.663333 0.190358 -0.341245 -0.153397 0.136635 -0.055227 0.086768 0.240147 0.159117 0.175054 0.557674 -0.263136 -0.205430 0.442424 -0.320287 0.108172 -0.133965
6 -0.243736 -0.651272 0.159309 -0.278607 -0.168190 0.111726 -0.022835 0.152906 0.237870 0.148896 0.200196 0.538920 -0.248577 -0.254416 0.450412 -0.360771 0.071412 -0.139199
10 -0.212206 -0.581860 0.037412 -0.249515 -0.130209 0.146888 -0.037412 0.121757 0.346402 0.073840 0.215464 0.569493 -0.293663 -0.167468 0.405529 -0.281543 0.084731 -0.030481
13 -0.194984 -0.547092 0.082868 -0.265889 -0.150984 0.096944 -0.041478 0.096845 0.296330 0.115989 0.178679 0.497049 -0.245829 -0.206876 0.408923 -0.302743 0.055375 -0.081472
11 -0.246764 -0.577702 0.060349 -0.233761 -0.116294 0.087676 -0.080762 0.143893 0.329684 0.057029 0.208170 0.547857 -0.275393 -0.150308 0.423134 -0.320038 0.061820 -0.069411
16 -0.252061 -0.604735 0.131783 -0.285234 -0.165813 0.109104 -0.016771 0.125174 0.279485 0.117576 0.185064 0.550771 -0.274367 -0.194605 0.458116 -0.369686 0.062907 -0.144785
15 -0.298062 -0.676236 0.182825 -0.345345 -0.172047 0.151887 -0.018982 0.087766 0.258530 0.136329 0.222839 0.556915 -0.253367 -0.209708 0.462667 -0.362666 0.070489 -0.153683
