18 18
9 0.095580 -0.275031 0.017953 -0.337051 -0.012305 0.004618 0.174128 0.412803 0.156110 -0.086589 0.021526 0.506807 0.149612 -0.653586 0.091076 -0.519837 -0.423231 0.045043
8 0.122494 -0.312448 0.061441 -0.315579 -0.021568 0.009620 0.203192 0.373088 0.120432 -0.072166 0.008580 0.417894 0.128465 -0.622236 0.132473 -0.540438 -0.356462 -0.013362
1 0.150628 -0.345095 0.051859 -0.345785 0.010323 -0.036051 0.206292 0.376510 0.136537 -0.105768 -0.013900 0.357404 0.176251 -0.663475 0.120240 -0.576098 -0.332754 -0.039079
10 0.130278 -0.265566 0.034863 -0.299190 0.011084 0.024845 0.194752 0.366518 0.117218 -0.113982 0.037297 0.430614 0.120837 -0.587761 0.095899 -0.483705 -0.364275 0.009081
13 0.144318 -0.269910 0.053782 -0.336853 -0.020372 -0.002247 0.189877 0.342196 0.108980 -0.063063 -0.004919 0.403305 0.153895 -0.635285 0.126031 -0.516518 -0.411293 -0.009865
0 0.146985 -0.349057 0.045463 -0.370692 -0.026075 0.007085 0.206467 0.361580 0.118186 -0.093615 0.022917 0.409036 0.159938 -0.661996 0.158102 -0.576042 -0.355772 -0.037022
2 0.183237 -0.308102 0.037659 -0.332862 -0.003929 -0.001427 0.216374 0.384713 0.075492 -0.115141 0.001959 0.397658 0.168615 -0.665076 0.124032 -0.581659 -0.380635 -0.009691
7 0.188209 -0.305247 0.017997 -0.322090 -0.018076 0.013623 0.215298 0.375730 0.133689 -0.117301 0.001333 0.381129 0.160108 -0.676550 0.145171 -0.554490 -0.345317 -0.037483
15 0.089529 -0.288699 0.060603 -0.325911 -0.003235 0.020928 0.196928 0.333974 0.122324 -0.098110 0.033040 0.405998 0.146576 -0.592885 0.123680 -0.516643 -0.389878 -0.035508
3 0.117296 -0.268955 0.071007 -0.301232 0.009610 -0.003191 0.210071 0.359948 0.071810 -0.110686 0.031755 0.371172 0.114750 -0.640946 0.106437 -0.544513 -0.344973 -0.043531
14 0.112234 -0.326411 0.077962 -0.376381 0.007243 0.016259 0.168981 0.383104 0.103121 -0.075347 -0.012891 0.489674 0.143885 -0.658145 0.124083 -0.536411 -0.407119 0.008395
6 0.188513 -0.330885 0.029218 -0.289582 0.001119 -0.004114 0.244350 0.373191 0.117542 -0.112097 0.023285 0.352486 0.146752 -0.678493 0.163553 -0.584696 -0.363040 -0.075091
4 0.136941 -0.264066 0.054644 -0.330918 0.010604 -0.016859 0.174880 0.424306 0.114446 -0.117384 0.044478 0.457984 0.176934 -0.682055 0.122756 -0.579322 -0.417912 -0.030439
17 0.126667 -0.329575 0.068661 -0.324424 -0.033785 -0.020677 0.247949 0.434629 0.158364 -0.076522 0.038785 0.512690 0.166632 -0.679970 0.119020 -0.571821 -0.418977 -0.075986
16 0.110608 -0.292758 0.068250 -0.327873 -0.015019 -0.005534 0.228180 0.391937 0.127135 -0.087442 0.016032 0.481779 0.137739 -0.640772 0.148245 -0.576727 -0.436421 -0.069952
11 0.072380 -0.279975 0.052911 -0.316440 0.002240 -0.008645 0.142307 0.388287 0.136329 -0.100052 0.016928 0.458676 0.123580 -0.588774 0.135775 -0.521136 -0.417833 0.008969
12 0.085588 -0.287528 0.043804 -0.329164 -0.020249 -0.011551 0.151035 0.328798 0.089803 -0.066858 0.042558 0.445880 0.135066 -0.586601 0.113438 -0.483040 -0.409933 0.008704
5 0.166067 -0.337412 0.003900 -0.311860 0.014469 -0.012745 0.232421 0.312471 0.140044 -0.113712 0.021906 0.369909 0.124962 -0.610315 0.146708 -0.553187 -0.342932 -0.058493
