18 18
9 -0.391678 -0.521399 0.421339 -0.351099 -0.089036 0.145862 0.159239 -0.006146 0.070432 0.060657 0.077465 0.291920 -0.288792 -0.263941 0.314306 -0.347831 0.116600 -0.395263
5 -0.337709 -0.506601 0.387237 -0.314424 -0.079440 0.127165 0.196097 -0.049043 0.066174 0.050792 0.087902 0.281663 -0.306560 -0.201270 0.330906 -0.348116 0.090859 -0.426101
11 -0.383676 -0.457792 0.430099 -0.238458 -0.113801 0.105648 0.191221 -0.004736 0.056334 0.044395 0.115458 0.257099 -0.310377 -0.151310 0.314136 -0.352638 0.072171 -0.472948
8 -0.332538 -0.492644 0.449784 -0.276931 -0.136368 0.145674 0.232999 -0.029504 0.041057 0.094786 0.063772 0.247174 -0.317340 -0.189989 0.330115 -0.349371 0.100354 -0.440372
14 -0.410888 -0.506496 0.486786 -0.330151 -0.092777 0.132642 0.143135 -0.023888 -0.011234 0.085970 0.069987 0.285733 -0.308302 -0.199396 0.314494 -0.320578 0.140781 -0.447875
0 -0.364588 -0.460788 0.405110 -0.316575 -0.114699 0.134780 0.122206 -0.018811 0.010573 0.057492 0.106515 0.243643 -0.259565 -0.191183 0.312979 -0.322745 0.132978 -0.397994
17 -0.438674 -0.466799 0.494926 -0.222990 -0.192777 0.100596 0.233080 -0.019055 0.012697 0.104874 0.183207 0.299187 -0.304883 -0.125748 0.283731 -0.307301 0.094535 -0.571739
2 -0.318359 -0.484110 0.432224 -0.316601 -0.122555 0.145004 0.212660 -0.017070 0.014980 0.078356 0.056061 0.267226 -0.274220 -0.222380 0.299729 -0.334496 0.082500 -0.400141
1 -0.397733 -0.530984 0.457494 -0.346598 -0.076637 0.114992 0.161410 -0.006574 0.071056 0.062405 0.052480 0.253070 -0.280633 -0.234282 0.309820 -0.357406 0.128685 -0.429130
16 -0.346328 -0.421165 0.428368 -0.241050 -0.152413 0.125547 0.243345 -0.037523 0.033313 0.078191 0.100451 0.255055 -0.304348 -0.144213 0.314695 -0.339925 0.053590 -0.511803
7 -0.343826 -0.492268 0.430759 -0.313903 -0.141607 0.161190 0.205992 -0.024114 0.052351 0.073963 0.086742 0.277995 -0.296946 -0.232593 0.337340 -0.325202 0.104036 -0.453031
6 -0.376155 -0.492686 0.434095 -0.276870 -0.090024 0.133796 0.173858 -0.003249 0.024983 0.063109 0.112516 0.268753 -0.298654 -0.208316 0.318493 -0.320062 0.094988 -0.443590
13 -0.307476 -0.503427 0.470235 -0.324141 -0.142461 0.161230 0.286972 -0.062408 0.094320 0.100016 0.050824 0.227654 -0.309188 -0.247297 0.351465 -0.376763 0.047109 -0.492382
12 -0.400701 -0.479976 0.445211 -0.297187 -0.137446 0.119814 0.171983 -0.056388 -0.003797 0.091144 0.133370 0.284963 -0.304262 -0.158082 0.299742 -0.304586 0.070387 -0.447561
3 -0.459226 -0.460308 0.499011 -0.233793 -0.144531 0.114742 0.233455 -0.030576 -0.026161 0.060362 0.181459 0.250972 -0.348597 -0.176724 0.291776 -0.357827 0.115384 -0.564967
4 -0.403960 -0.491323 0.465361 -0.312698 -0.091333 0.116648 0.156434 0.004695 0.028351 0.060605 0.124688 0.300186 -0.293977 -0.221301 0.315268 -0.348681 0.123772 -0.475757
15 -0.413035 -0.411936 0.458255 -0.208827 -0.141157 0.133416 0.232126 -0.056006 -0.014225 0.058191 0.177306 0.229830 -0.292925 -0.109692 0.268692 -0.304533 0.044646 -0.524169
10 -0.329286 -0.514183 0.450112 -0.310399 -0.118771 0.188922 0.281299 -0.048607 0.113814 0.066729 0.079806 0.273221 -0.335162 -0.194706 0.324650 -0.339199 0.081531 -0.453841
