18 18
2 -0.410024 -0.436488 0.292478 -0.124444 0.162532 -0.116911 0.041825 0.285718 0.289100 -0.184781 -0.035009 0.296847 -0.298363 -0.108931 0.377889 -0.561205 -0.138893 -0.378927
1 -0.446826 -0.445441 0.321039 -0.137825 0.156192 -0.131043 0.019436 0.271936 0.316377 -0.151310 -0.062370 0.262852 -0.282469 -0.096820 0.345998 -0.505674 -0.105743 -0.358125
13 -0.413382 -0.477801 0.308885 -0.162629 0.089304 -0.098710 0.026762 0.226379 0.359242 -0.095362 -0.113478 0.313491 -0.307076 -0.053882 0.420986 -0.454664 -0.226773 -0.318787
12 -0.457315 -0.468588 0.301990 -0.147061 0.112167 -0.123922 0.002507 0.226576 0.305972 -0.111158 -0.056567 0.340569 -0.318859 -0.051988 0.382173 -0.434658 -0.203291 -0.321429
10 -0.437913 -0.491226 0.275719 -0.128694 0.107597 -0.065044 0.036324 0.226997 0.381553 -0.137455 -0.065641 0.363711 -0.349602 0.016946 0.411563 -0.416135 -0.222281 -0.293321
0 -0.413435 -0.448864 0.280512 -0.151870 0.096907 -0.083752 0.011688 0.236436 0.310698 -0.131862 -0.042284 0.304839 -0.292378 -0.057808 0.396705 -0.471317 -0.151168 -0.325905
14 -0.429622 -0.453175 0.319056 -0.143372 0.142290 -0.100880 0.012176 0.238181 0.300583 -0.119998 -0.097165 0.308379 -0.318960 -0.069447 0.379022 -0.457048 -0.149766 -0.338285
11 -0.458821 -0.479108 0.304648 -0.117672 0.125353 -0.113550 -0.004686 0.255920 0.353549 -0.141704 -0.077834 0.310399 -0.324950 -0.011263 0.415654 -0.458213 -0.191555 -0.321434
15 -0.450588 -0.461879 0.298894 -0.142938 0.128256 -0.068265 0.033748 0.215194 0.329772 -0.155682 -0.040316 0.300304 -0.309563 -0.031737 0.399790 -0.475540 -0.189919 -0.340270
16 -0.445339 -0.462647 0.304355 -0.134440 0.110966 -0.099691 0.036443 0.245292 0.351164 -0.131328 -0.099311 0.334308 -0.334488 -0.016196 0.423768 -0.480018 -0.216078 -0.340091
7 -0.393620 -0.437401 0.266570 -0.126723 0.114568 -0.091190 0.037610 0.259653 0.356213 -0.153217 -0.073833 0.311864 -0.313194 -0.094111 0.405324 -0.475145 -0.163535 -0.348648
4 -0.390965 -0.245366 0.272437 -0.004618 0.314562 -0.179382 0.042738 0.306976 0.228747 -0.315560 0.150537 0.170252 -0.288756 -0.190841 0.286299 -0.613593 0.026608 -0.532663
9 -0.442504 -0.460714 0.274127 -0.132228 0.137710 -0.106269 0.026433 0.284227 0.378075 -0.166491 -0.057269 0.349320 -0.328570 -0.087516 0.403006 -0.512510 -0.193392 -0.342940
3 -0.443259 -0.355551 0.323272 -0.068800 0.242763 -0.142501 0.064757 0.294500 0.254365 -0.254409 0.039043 0.210052 -0.345912 -0.179323 0.331547 -0.604357 -0.025334 -0.468548
8 -0.379790 -0.427639 0.278681 -0.107460 0.112804 -0.086117 0.037655 0.246312 0.300144 -0.130245 -0.051331 0.274222 -0.307889 -0.072561 0.390264 -0.505930 -0.117707 -0.347126
17 -0.429640 -0.465410 0.290090 -0.104036 0.092237 -0.121314 0.042089 0.258556 0.366725 -0.114950 -0.051711 0.354458 -0.309777 -0.023632 0.385669 -0.437403 -0.193305 -0.365009
6 -0.405999 -0.425813 0.290409 -0.080830 0.165690 -0.108706 0.050621 0.279856 0.305831 -0.175193 -0.014681 0.276358 -0.316438 -0.104782 0.387401 -0.518801 -0.136150 -0.402380
5 -0.378976 -0.323731 0.234681 -0.040216 0.273263 -0.149760 0.076999 0.244623 0.262097 -0.280301 0.104013 0.212150 -0.319835 -0.146256 0.316365 -0.592469 -0.029504 -0.482801
