18 18
9 -0.320753 -0.307312 0.152264 -0.123859 0.124959 -0.119127 0.364044 -0.228620 0.571608 0.053965 0.059151 0.385722 -0.324275 -0.106808 0.354703 -0.307674 -0.301354 -0.831028
7 -0.296261 -0.275418 0.156552 -0.083226 0.126641 -0.117176 0.339529 -0.218638 0.560485 0.047957 0.023833 0.326669 -0.303522 -0.068407 0.330770 -0.241261 -0.265312 -0.827030
5 -0.346549 -0.355778 0.162436 -0.117779 0.164755 -0.142099 0.407621 -0.290206 0.609750 0.041975 0.070789 0.395446 -0.371501 -0.054419 0.380015 -0.318331 -0.320143 -0.916820
16 -0.381564 -0.334166 0.211975 -0.107660 0.164698 -0.159651 0.416478 -0.283102 0.628485 0.062055 0.026656 0.393470 -0.378655 -0.021510 0.394327 -0.303973 -0.344699 -0.981088
6 -0.361142 -0.362459 0.213298 -0.102778 0.170561 -0.136532 0.435500 -0.266526 0.637443 0.060039 0.071386 0.404280 -0.385803 -0.099234 0.433822 -0.351739 -0.354005 -1.030931
17 -0.314091 -0.292308 0.175662 -0.073742 0.115140 -0.145931 0.350299 -0.218120 0.546580 0.074414 0.056838 0.356071 -0.299052 -0.032697 0.305212 -0.236228 -0.269424 -0.826617
0 0.563916 -0.859336 -0.249616 -1.395761 -1.035866 0.493496 0.479251 0.231785 -0.623052 -0.045646 0.261085 1.177831 0.358733 -0.802486 1.204886 -1.730850 -0.370319 -0.181010
2 0.546380 -0.854725 -0.233521 -1.349381 -0.979584 0.452241 0.523947 0.225718 -0.567586 -0.040904 0.223648 1.185725 0.331439 -0.801834 1.169717 -1.713086 -0.426891 -0.230009
15 -0.296188 -0.317445 0.172432 -0.159896 0.101215 -0.075880 0.348355 -0.235658 0.472991 0.037977 0.062664 0.346362 -0.274334 -0.069028 0.356300 -0.318022 -0.295420 -0.786668
4 -0.363249 -0.319939 0.205846 -0.113241 0.179876 -0.163129 0.386475 -0.243555 0.617125 0.037517 0.079764 0.399581 -0.344013 -0.083788 0.389826 -0.345247 -0.324272 -0.989411
13 -0.304460 -0.319763 0.183598 -0.141845 0.121083 -0.130592 0.381536 -0.268607 0.575438 0.080287 0.035571 0.363948 -0.329718 -0.109804 0.383421 -0.310060 -0.326833 -0.883850
12 -0.374140 -0.355100 0.194299 -0.130947 0.137393 -0.139910 0.376688 -0.299314 0.585972 0.082008 0.075898 0.412376 -0.376436 -0.063436 0.398693 -0.284698 -0.353868 -0.928388
1 -0.321109 -0.311773 0.198386 -0.137996 0.128866 -0.141539 0.319663 -0.184963 0.502971 0.044070 0.026688 0.327456 -0.263267 -0.080322 0.316081 -0.304465 -0.246169 -0.809536
14 -0.282859 -0.308000 0.176643 -0.154047 0.105948 -0.089795 0.318197 -0.215497 0.457792 0.061445 0.017939 0.356842 -0.288484 -0.083021 0.342323 -0.285768 -0.249943 -0.757731
8 -0.329897 -0.352590 0.196479 -0.118670 0.117374 -0.112895 0.394055 -0.257074 0.572849 0.082172 0.036349 0.379471 -0.362168 -0.072488 0.400386 -0.323830 -0.302392 -0.887720
3 -0.346505 -0.299748 0.204571 -0.102356 0.144186 -0.130650 0.374991 -0.237595 0.525796 0.043954 0.060585 0.335290 -0.348145 -0.093728 0.335619 -0.301907 -0.258897 -0.873146
11 -0.022755 -0.017997 0.010402 0.008892 0.014438 -0.011029 -0.020096 0.023319 0.018649 -0.022508 -0.004615 0.005927 -0.014992 0.016644 0.025927 -0.023252 -0.010098 -0.005158
10 0.005737 -0.002757 -0.014246 0.006132 0.011972 0.026533 0.015869 -0.001352 0.023172 -0.019827 0.015226 0.016952 -0.017475 0.021206 -0.010712 0.022008 0.009309 0.018390
