18 18
1 -0.507989 -0.434145 0.479235 -0.342333 0.120533 -0.205973 -0.023245 0.076387 -0.028662 0.059673 0.044159 0.212181 -0.138737 -0.368402 0.037567 -0.360611 0.063443 -0.381161
0 -0.565681 -0.475294 0.505595 -0.489863 0.044061 -0.115532 -0.037027 0.007509 -0.076949 0.080870 0.100542 0.262055 -0.143014 -0.416535 0.084306 -0.375151 0.040781 -0.346490
15 -0.557340 -0.450654 0.498954 -0.486571 0.060856 -0.067478 -0.025623 -0.029132 -0.080590 0.074213 0.080614 0.251460 -0.132913 -0.375679 0.075411 -0.333676 -0.016079 -0.307438
9 -0.565551 -0.446824 0.474132 -0.507139 0.055197 -0.110139 -0.055259 0.018400 -0.054518 0.084016 0.085092 0.285061 -0.116128 -0.427795 0.048803 -0.340684 -0.018957 -0.266489
7 -0.502283 -0.440162 0.459866 -0.451575 0.031869 -0.093292 -0.004812 0.016038 -0.038089 0.080596 0.046111 0.266315 -0.146823 -0.418055 0.080379 -0.334697 0.034120 -0.336776
14 -0.532295 -0.436191 0.496865 -0.477342 0.071344 -0.083380 -0.056514 -0.011760 -0.099761 0.098987 0.036409 0.257669 -0.136491 -0.381989 0.054743 -0.309952 0.018816 -0.282189
2 -0.490596 -0.429700 0.459123 -0.443531 0.052798 -0.107489 -0.018054 0.024516 -0.096733 0.075447 0.060225 0.260263 -0.116517 -0.403419 0.055358 -0.353901 -0.003701 -0.295414
10 -0.533129 -0.447175 0.470375 -0.471647 0.051388 -0.067958 -0.008763 -0.004636 -0.050530 0.071089 0.085952 0.281314 -0.149126 -0.375042 0.060456 -0.322011 0.008669 -0.293257
17 -0.541065 -0.452227 0.488737 -0.421981 0.030818 -0.145533 -0.003729 0.023335 -0.032161 0.101523 0.078314 0.278740 -0.136106 -0.368889 0.052298 -0.319048 0.023272 -0.362108
8 -0.502535 -0.467562 0.483507 -0.326931 0.101147 -0.181777 0.003946 0.071882 -0.033714 0.071095 0.063913 0.235088 -0.183923 -0.376514 0.081574 -0.390432 0.069184 -0.395974
16 -0.514227 -0.407159 0.465052 -0.407675 0.040633 -0.121111 0.005104 0.005516 -0.049636 0.085057 0.044762 0.246283 -0.151194 -0.330359 0.079943 -0.333645 0.004496 -0.353118
12 -0.565829 -0.463105 0.489945 -0.469603 0.057190 -0.128114 -0.055992 -0.010315 -0.092372 0.096487 0.098887 0.278603 -0.146561 -0.383926 0.065711 -0.325734 -0.014409 -0.305809
5 -0.491783 -0.442742 0.429005 -0.341177 0.122141 -0.173421 0.003596 0.022163 -0.018860 0.038600 0.090883 0.241947 -0.170667 -0.346898 0.068010 -0.358589 0.032372 -0.376429
6 -0.503977 -0.433109 0.477435 -0.352961 0.084541 -0.144281 0.000622 0.058074 -0.048543 0.069710 0.069374 0.229470 -0.160030 -0.380638 0.074549 -0.347485 0.038628 -0.384824
4 -0.508262 -0.400238 0.466829 -0.395589 0.100494 -0.149791 -0.055813 0.054430 -0.061096 0.055039 0.089474 0.245703 -0.120740 -0.392787 0.045075 -0.344799 0.035425 -0.337851
11 -0.580889 -0.461580 0.503165 -0.472455 0.074084 -0.124380 -0.067056 0.031926 -0.051479 0.057568 0.076916 0.268836 -0.141438 -0.380498 0.085450 -0.360474 -0.017420 -0.300768
3 -0.534367 -0.419125 0.491642 -0.388442 0.091801 -0.145212 -0.007761 0.029220 -0.081380 0.058994 0.076873 0.219112 -0.172338 -0.398838 0.040494 -0.356379 0.057900 -0.358189
13 -0.553299 -0.462816 0.522298 -0.506059 0.048428 -0.119337 -0.026783 -0.009201 -0.069484 0.104378 0.063853 0.249818 -0.131143 -0.434508 0.076823 -0.358606 -0.010277 -0.335731
