18 18
4 -0.247331 -0.524865 0.132253 -0.049349 -0.117019 0.044629 0.296635 0.369194 0.406677 -0.089819 0.267230 0.535993 -0.159601 -0.282027 0.178570 -0.353687 0.073508 -0.369370
0 -0.306776 -0.566309 0.186131 -0.047356 -0.199894 0.063673 0.303653 0.382141 0.380046 -0.063224 0.287649 0.507133 -0.217192 -0.305987 0.229671 -0.378079 0.137090 -0.415386
1 -0.253230 -0.547435 0.137676 -0.097573 -0.105878 0.038626 0.301206 0.327023 0.420415 -0.070114 0.207058 0.513237 -0.140789 -0.276930 0.161470 -0.341178 0.058577 -0.338754
5 -0.215521 -0.574163 0.085456 -0.069989 -0.095290 0.073302 0.359036 0.291182 0.428267 -0.110537 0.283512 0.567007 -0.198686 -0.247761 0.205279 -0.373154 0.024262 -0.363625
15 -0.248082 -0.560996 0.133780 -0.106534 -0.106003 0.112927 0.332782 0.272954 0.401010 -0.089504 0.251442 0.542418 -0.173918 -0.244373 0.198807 -0.340669 0.024220 -0.342204
6 -0.264062 -0.540298 0.160692 -0.020955 -0.146051 0.065128 0.325521 0.369065 0.386785 -0.067951 0.261310 0.498214 -0.192344 -0.293150 0.201002 -0.343921 0.072524 -0.391826
7 -0.201430 -0.550841 0.099561 -0.105992 -0.146017 0.106329 0.304883 0.318111 0.432217 -0.070775 0.194142 0.542047 -0.163366 -0.305951 0.221244 -0.326224 0.064981 -0.328204
12 -0.263810 -0.573885 0.125863 -0.082554 -0.140560 0.060795 0.306075 0.296048 0.386987 -0.065186 0.280863 0.559549 -0.193261 -0.245456 0.198151 -0.334623 0.026231 -0.340164
11 -0.266834 -0.517448 0.140822 -0.028155 -0.116142 0.046867 0.278631 0.339871 0.384598 -0.101577 0.243547 0.484702 -0.200730 -0.231902 0.203642 -0.349471 0.053739 -0.344479
2 -0.198036 -0.519958 0.106260 -0.067612 -0.119559 0.079233 0.325716 0.312141 0.358591 -0.086565 0.233933 0.512837 -0.157232 -0.258140 0.177494 -0.349314 0.028178 -0.309181
8 -0.251518 -0.564074 0.156873 -0.031433 -0.163631 0.074394 0.328075 0.337681 0.375482 -0.056357 0.250335 0.499104 -0.220909 -0.258319 0.223193 -0.369191 0.092520 -0.363027
9 -0.254568 -0.515001 0.108228 -0.057336 -0.125994 0.056217 0.303367 0.330665 0.407657 -0.079868 0.250270 0.516952 -0.170709 -0.280975 0.170359 -0.340026 0.040848 -0.329479
13 -0.174754 -0.533347 0.101532 -0.108903 -0.103175 0.098236 0.332187 0.253216 0.410142 -0.080528 0.230270 0.519874 -0.158476 -0.248840 0.202199 -0.332250 -0.001749 -0.318465
17 -0.276282 -0.531817 0.165699 -0.008649 -0.175537 0.034072 0.327728 0.362548 0.390244 -0.052170 0.272845 0.513952 -0.190257 -0.253477 0.172351 -0.326838 0.081527 -0.398812
3 -0.326995 -0.502926 0.202111 0.019495 -0.157105 0.023616 0.314358 0.367792 0.324373 -0.077392 0.286129 0.436227 -0.244450 -0.284567 0.160927 -0.355986 0.125142 -0.406097
14 -0.238067 -0.534425 0.155429 -0.096260 -0.103243 0.081722 0.273494 0.299933 0.363715 -0.047400 0.180334 0.518946 -0.177946 -0.260644 0.181999 -0.301619 0.079089 -0.319788
10 -0.212922 -0.569044 0.091823 -0.060386 -0.108781 0.116929 0.359254 0.313012 0.444753 -0.117426 0.283288 0.568502 -0.203553 -0.224922 0.193966 -0.333946 0.046733 -0.324622
16 -0.003066 0.009981 0.006043 0.000869 -0.007381 -0.001770 0.017455 -0.006904 0.000948 0.004908 -0.016488 0.011175 -0.012361 0.022003 0.021550 -0.015661 -0.025305 -0.027720
