18 18
8 -0.224829 -0.489987 0.217799 -0.179817 -0.085425 0.232315 0.407935 -0.000888 0.168331 -0.101870 0.116654 0.349073 -0.364658 -0.100772 0.460685 -0.463264 -0.179345 -0.428404
9 -0.316271 -0.533782 0.174044 -0.259126 -0.029773 0.185268 0.350136 -0.003462 0.233756 -0.119527 0.094898 0.413176 -0.274472 -0.114189 0.385463 -0.457525 -0.294887 -0.332950
6 -0.255053 -0.498597 0.212429 -0.154274 -0.035397 0.185474 0.320599 0.019099 0.129875 -0.110498 0.221006 0.313947 -0.276234 -0.089419 0.436156 -0.411013 -0.222970 -0.430696
14 -0.309657 -0.561475 0.227773 -0.246833 -0.015031 0.194363 0.330239 -0.026439 0.154123 -0.106343 0.150508 0.386908 -0.297553 -0.086330 0.425360 -0.435828 -0.239180 -0.395520
11 -0.318568 -0.553342 0.231587 -0.223998 -0.034329 0.206211 0.372318 0.020883 0.222031 -0.155698 0.122664 0.391838 -0.334536 -0.088640 0.468234 -0.501292 -0.273393 -0.431209
5 -0.269011 -0.530477 0.180816 -0.207749 -0.018295 0.192139 0.384831 -0.026759 0.204931 -0.146772 0.167508 0.365493 -0.315996 -0.082278 0.435131 -0.468209 -0.238634 -0.426623
12 -0.307405 -0.541080 0.199239 -0.233552 -0.055013 0.180163 0.327096 -0.030583 0.154444 -0.097884 0.178982 0.399173 -0.297086 -0.076622 0.412361 -0.415187 -0.268648 -0.375397
10 -0.243382 -0.475487 0.198128 -0.189321 -0.040826 0.249199 0.410040 0.007110 0.219112 -0.163438 0.132901 0.362706 -0.359753 -0.091151 0.429217 -0.448427 -0.191324 -0.425018
15 -0.315683 -0.515310 0.230741 -0.239708 -0.019938 0.212963 0.343830 -0.022521 0.177039 -0.137023 0.138115 0.336754 -0.272181 -0.077070 0.414648 -0.445757 -0.258974 -0.395655
13 -0.221689 -0.461801 0.198108 -0.209571 -0.056384 0.196445 0.374562 -0.015495 0.190443 -0.105141 0.094722 0.323885 -0.294864 -0.123587 0.409318 -0.429893 -0.227925 -0.395712
0 -0.275548 -0.530554 0.223993 -0.218850 -0.073760 0.207386 0.312130 -0.009274 0.124135 -0.105908 0.253888 0.346009 -0.281429 -0.084653 0.480841 -0.442925 -0.201235 -0.442944
2 -0.257049 -0.517266 0.197068 -0.220526 -0.046644 0.193769 0.353629 0.011821 0.149392 -0.122668 0.140397 0.372159 -0.275585 -0.106335 0.414903 -0.456287 -0.244595 -0.376261
17 -0.273972 -0.502119 0.186905 -0.202441 -0.066350 0.160281 0.339294 0.001735 0.199788 -0.084094 0.131985 0.383890 -0.247756 -0.067369 0.369555 -0.388972 -0.248501 -0.370443
3 -0.275127 -0.473342 0.223383 -0.192950 -0.037446 0.200707 0.382064 0.002575 0.159903 -0.140553 0.140832 0.334160 -0.338123 -0.120102 0.403838 -0.463349 -0.190445 -0.428413
4 -0.298469 -0.515584 0.235571 -0.201431 -0.024686 0.177271 0.311011 0.035984 0.157894 -0.141431 0.240523 0.372268 -0.276768 -0.098583 0.455087 -0.470578 -0.227040 -0.463724
7 -0.210078 -0.464219 0.170149 -0.197485 -0.078144 0.234166 0.396401 0.009537 0.220509 -0.136544 0.090022 0.351955 -0.321492 -0.134123 0.438271 -0.442152 -0.203523 -0.411750
16 -0.215569 -0.427561 0.196496 -0.163349 -0.074737 0.216253 0.403600 -0.001375 0.172294 -0.123163 0.115953 0.339088 -0.347244 -0.081117 0.443433 -0.450483 -0.219459 -0.452941
1 -0.305453 -0.511564 0.241409 -0.216965 -0.019990 0.152603 0.307813 0.027643 0.175006 -0.113521 0.119695 0.318899 -0.254415 -0.090172 0.386536 -0.435338 -0.201009 -0.390995
