18 18
7 -0.210421 -0.531092 0.076469 -0.405194 0.015462 -0.052526 0.256647 -0.051420 0.427593 -0.112093 0.178663 0.296947 -0.091845 -0.236054 0.372415 -0.545266 -0.029668 -0.540613
14 -0.256922 -0.482007 0.197623 -0.400788 0.125527 -0.073542 0.181012 -0.071539 0.210127 -0.116476 0.125387 0.192141 -0.084448 -0.233420 0.281664 -0.535672 0.043703 -0.535822
2 -0.237619 -0.452634 0.192859 -0.392565 0.136219 -0.097426 0.202022 -0.059629 0.135965 -0.162080 0.168157 0.153122 -0.050331 -0.261290 0.258009 -0.592814 0.041913 -0.544133
11 -0.262920 -0.550231 0.124297 -0.394988 0.065428 -0.076127 0.234208 -0.042187 0.393242 -0.140282 0.194514 0.289994 -0.116172 -0.197988 0.375092 -0.582395 -0.040966 -0.550222
5 -0.268032 -0.426865 0.230017 -0.374238 0.223218 -0.148629 0.180433 -0.105628 0.064720 -0.203774 0.235210 0.074545 -0.069332 -0.280879 0.240041 -0.618956 0.086738 -0.646873
6 -0.250388 -0.502750 0.163486 -0.374306 0.094595 -0.073921 0.230901 -0.046028 0.291130 -0.138654 0.228420 0.211171 -0.099224 -0.255739 0.347622 -0.572085 0.013857 -0.607481
3 -0.261891 -0.401834 0.205992 -0.337045 0.120642 -0.085336 0.188916 -0.066458 0.141527 -0.141822 0.204388 0.118379 -0.104127 -0.250684 0.249213 -0.537874 0.067539 -0.552907
0 -0.243309 -0.422732 0.189395 -0.385943 0.132731 -0.082467 0.156697 -0.075681 0.127813 -0.172779 0.215315 0.109013 -0.049770 -0.228122 0.270029 -0.550712 0.101234 -0.553820
4 -0.265507 -0.434655 0.200185 -0.379936 0.158444 -0.117285 0.171216 -0.049228 0.180265 -0.177634 0.239161 0.161306 -0.057550 -0.275743 0.289770 -0.603907 0.060602 -0.625070
1 -0.279434 -0.492655 0.198921 -0.409032 0.151897 -0.129162 0.194943 -0.054134 0.231949 -0.163601 0.165965 0.160188 -0.049590 -0.238081 0.256510 -0.584967 0.055799 -0.578569
8 -0.210761 -0.570620 0.060340 -0.391244 -0.031607 -0.037346 0.289261 -0.043871 0.499739 -0.064024 0.177996 0.360198 -0.125887 -0.182012 0.405994 -0.543621 -0.062276 -0.497036
13 -0.253027 -0.466906 0.222252 -0.412618 0.128037 -0.123411 0.206358 -0.095907 0.186222 -0.132134 0.207587 0.139642 -0.066711 -0.300559 0.305492 -0.618064 0.022603 -0.648785
12 -0.250635 -0.534246 0.089138 -0.394898 0.003275 -0.063640 0.230090 -0.075862 0.395884 -0.079811 0.230471 0.324613 -0.110702 -0.184566 0.358289 -0.498824 -0.076306 -0.502210
10 -0.207828 -0.524934 0.051666 -0.377566 0.010560 -0.022330 0.279154 -0.060009 0.457372 -0.112116 0.215545 0.337452 -0.117045 -0.164884 0.354558 -0.499967 -0.062298 -0.485729
15 -0.255170 -0.461601 0.167476 -0.381957 0.104096 -0.049359 0.206374 -0.080577 0.233809 -0.138210 0.171356 0.185302 -0.069312 -0.207215 0.290698 -0.529696 0.006493 -0.522818
17 -0.228574 -0.478206 0.126039 -0.349922 0.028124 -0.097687 0.236990 -0.042890 0.335055 -0.091211 0.199080 0.265128 -0.071373 -0.194652 0.299986 -0.520619 -0.008132 -0.552280
9 -0.242271 -0.561489 0.048608 -0.421426 0.005187 -0.056127 0.274217 -0.041374 0.498462 -0.103302 0.208036 0.364367 -0.099912 -0.225689 0.377720 -0.564560 -0.070815 -0.517076
16 -0.194488 -0.458949 0.061560 -0.340866 -0.007076 -0.049237 0.249912 -0.056528 0.398071 -0.077126 0.154800 0.301759 -0.106146 -0.139923 0.346093 -0.480207 -0.083492 -0.468010
