18 18
13 -0.214720 -0.688119 0.418530 -0.314747 -0.337386 0.109777 0.101756 -0.082230 0.252708 0.456612 -0.115396 0.496865 -0.172662 0.120751 0.268895 0.124531 0.033236 -0.195770
14 -0.235534 -0.663209 0.413876 -0.281311 -0.296037 0.108481 0.077819 -0.060180 0.222523 0.429205 -0.118416 0.501292 -0.184119 0.147126 0.240161 0.131752 0.063883 -0.184875
10 -0.212211 -0.647257 0.370541 -0.251773 -0.287981 0.135459 0.118021 -0.052707 0.258843 0.389130 -0.073123 0.506663 -0.195433 0.167857 0.219015 0.153459 0.057587 -0.158984
8 -0.212467 -0.656772 0.390767 -0.260241 -0.318213 0.110355 0.098413 -0.051607 0.226092 0.424571 -0.105183 0.478068 -0.190789 0.141511 0.257138 0.102994 0.063110 -0.169112
11 -0.261955 -0.675583 0.411214 -0.266831 -0.289593 0.085159 0.065846 -0.033605 0.250072 0.390918 -0.111573 0.497681 -0.200435 0.174956 0.274363 0.085521 0.036002 -0.190475
2 -0.200556 -0.689517 0.395512 -0.303303 -0.341616 0.115670 0.110842 -0.040832 0.231084 0.429357 -0.103460 0.519123 -0.160343 0.115966 0.257961 0.097562 0.038506 -0.170620
12 -0.251056 -0.668210 0.390944 -0.291911 -0.321388 0.095082 0.072371 -0.087264 0.213940 0.435404 -0.070304 0.517554 -0.187931 0.164735 0.240581 0.143069 0.030309 -0.167744
15 -0.238241 -0.674637 0.399980 -0.302976 -0.322237 0.135819 0.109468 -0.083441 0.242453 0.412210 -0.078918 0.487925 -0.168274 0.139840 0.265220 0.108244 0.026240 -0.192612
7 -0.191596 -0.691019 0.372610 -0.301865 -0.360515 0.139836 0.112448 -0.047597 0.285548 0.428217 -0.105170 0.512581 -0.167578 0.096570 0.281431 0.127407 0.057043 -0.184695
16 -0.242712 -0.628889 0.397631 -0.256648 -0.295678 0.099395 0.101183 -0.066603 0.222538 0.408744 -0.115745 0.501531 -0.206629 0.191785 0.261916 0.103512 0.017008 -0.206604
17 -0.207703 -0.670992 0.389977 -0.258838 -0.357672 0.094855 0.122063 -0.034236 0.284945 0.449651 -0.083464 0.524130 -0.152471 0.140487 0.235724 0.147838 0.057689 -0.211843
1 -0.261849 -0.682470 0.421934 -0.300526 -0.298630 0.077353 0.083903 -0.047116 0.256495 0.421198 -0.115718 0.487321 -0.167127 0.141249 0.236868 0.100126 0.061250 -0.197418
0 -0.209506 -0.636690 0.368458 -0.290259 -0.321466 0.123129 0.082331 -0.063318 0.224849 0.399523 -0.070620 0.469863 -0.162712 0.130434 0.257166 0.108391 0.068897 -0.174278
6 -0.205284 -0.688642 0.400180 -0.260395 -0.332670 0.125184 0.124135 -0.036728 0.254138 0.436102 -0.079561 0.502389 -0.177954 0.116081 0.267934 0.129385 0.038484 -0.203539
3 -0.024675 0.005665 0.025365 0.004601 0.007865 -0.001883 0.014761 -0.000233 -0.026227 -0.010111 0.011993 -0.020661 -0.026950 -0.026588 -0.012274 -0.019090 0.026092 -0.020014
5 0.004065 -0.024114 -0.027650 -0.000619 0.020703 -0.008521 0.024223 -0.023969 0.025914 -0.018771 0.021210 0.020548 -0.020024 0.006829 0.014933 -0.023795 -0.013973 -0.021943
4 -0.000863 0.026536 0.000487 0.011658 0.016931 -0.018308 -0.024615 0.027506 0.003913 -0.015616 0.024595 0.006644 0.019102 -0.007194 -0.007301 -0.006238 0.005807 -0.017039
9 -0.008402 0.003844 -0.023332 -0.006576 0.000593 0.000225 -0.003692 0.013429 0.026437 -0.004111 0.005667 0.021814 0.003016 -0.025362 -0.007905 -0.006482 -0.012628 0.018993
