18 18
7 -0.148545 -0.336412 0.023799 -0.083783 -0.212863 0.043982 0.280767 0.188460 0.564330 -0.068175 0.277665 0.466001 -0.037768 -0.173805 0.442237 -0.243754 -0.167282 -0.726848
6 -0.137752 -0.309491 0.051371 -0.039475 -0.177246 0.022081 0.273104 0.216112 0.497066 -0.062658 0.275053 0.420205 -0.053006 -0.168368 0.416234 -0.250122 -0.163335 -0.696675
0 -0.131181 -0.299362 0.027593 -0.091028 -0.180570 0.035911 0.219112 0.179550 0.475003 -0.085469 0.269987 0.410398 -0.042241 -0.119172 0.419800 -0.257667 -0.133201 -0.625695
16 -0.159191 -0.305557 0.051611 -0.080234 -0.187533 0.015109 0.262670 0.174803 0.483970 -0.060516 0.257265 0.442886 -0.062774 -0.119422 0.426214 -0.264349 -0.177479 -0.691718
2 -0.108456 -0.328367 0.024206 -0.088238 -0.150271 0.028469 0.270526 0.216271 0.494533 -0.124356 0.249932 0.468186 -0.064170 -0.130348 0.434534 -0.316965 -0.182156 -0.648628
5 -0.127742 -0.331898 0.005626 -0.082992 -0.131048 0.016087 0.273476 0.146423 0.497255 -0.103867 0.272145 0.436890 -0.087217 -0.127132 0.415621 -0.286293 -0.169238 -0.651410
1 -0.174245 -0.373004 0.067875 -0.114680 -0.170247 -0.003930 0.273788 0.211735 0.558337 -0.084911 0.266808 0.455610 -0.053727 -0.175079 0.445428 -0.314063 -0.147569 -0.739576
13 -0.118411 -0.324400 0.049966 -0.114457 -0.167491 0.017685 0.256791 0.166543 0.510031 -0.072123 0.244263 0.428674 -0.060764 -0.166723 0.444437 -0.282684 -0.176895 -0.682788
12 -0.206407 -0.383584 0.055715 -0.152273 -0.209794 0.026574 0.201719 0.111742 0.454285 -0.020643 0.309389 0.492312 -0.061222 -0.118540 0.426752 -0.206366 -0.179188 -0.647340
17 -0.151695 -0.314137 0.045410 -0.059189 -0.199982 0.013308 0.251763 0.181812 0.516481 -0.041225 0.261970 0.452967 -0.025570 -0.100157 0.378311 -0.201679 -0.156182 -0.666979
11 -0.110892 -0.300273 0.027659 -0.055884 -0.093803 0.011650 0.221878 0.244181 0.521241 -0.181609 0.220090 0.428470 -0.101840 -0.086263 0.461178 -0.343726 -0.163976 -0.627154
4 -0.145962 -0.286551 0.037392 -0.075716 -0.139472 0.007384 0.209936 0.192188 0.477600 -0.086210 0.280827 0.436383 -0.034276 -0.128054 0.383256 -0.242979 -0.147152 -0.644291
10 -0.094945 -0.310374 0.013090 -0.070512 -0.097577 0.052534 0.268516 0.225778 0.541910 -0.183285 0.248752 0.462973 -0.112328 -0.083046 0.445738 -0.313390 -0.155886 -0.629628
3 -0.169355 -0.310761 0.066360 -0.084129 -0.154399 0.013756 0.262056 0.179162 0.459486 -0.091216 0.274462 0.406140 -0.088439 -0.168299 0.400970 -0.289761 -0.126836 -0.677064
15 -0.212609 -0.361304 0.077292 -0.119611 -0.198725 0.059149 0.262684 0.120370 0.501771 -0.039436 0.288832 0.448587 -0.024658 -0.115065 0.411775 -0.218906 -0.190542 -0.699619
14 -0.188253 -0.387714 0.086654 -0.159314 -0.180588 0.050096 0.210698 0.140030 0.474257 -0.026408 0.250696 0.487245 -0.064324 -0.144953 0.439549 -0.223862 -0.135696 -0.678425
9 -0.184246 -0.351714 0.023921 -0.104277 -0.197066 0.028507 0.265567 0.187940 0.566881 -0.068150 0.297363 0.491032 -0.044706 -0.172644 0.430967 -0.264463 -0.185437 -0.702252
8 0.003889 -0.024784 0.014791 0.006068 -0.018192 0.009774 0.013932 0.005426 -0.001505 0.020585 -0.012265 0.000073 -0.017512 0.000480 0.021614 -0.017675 0.015234 0.001164
