18 18
3 -0.392229 -0.360601 0.362355 -0.300228 -0.062598 -0.093427 0.128222 0.258465 0.168960 -0.035772 0.001491 0.248419 -0.157655 -0.460535 0.186605 -0.560108 0.096306 -0.394817
1 -0.429221 -0.422994 0.376219 -0.338735 -0.061892 -0.131180 0.090671 0.281164 0.204109 -0.022621 -0.026851 0.267675 -0.119857 -0.412736 0.169488 -0.560462 0.085431 -0.351228
9 -0.376026 -0.358858 0.305830 -0.315968 -0.065550 -0.096553 0.106479 0.258384 0.223853 -0.025068 -0.002067 0.290977 -0.127062 -0.456006 0.179099 -0.537811 0.051516 -0.350872
4 -0.378845 -0.339565 0.349265 -0.308321 -0.043607 -0.116092 0.074977 0.290773 0.173920 -0.044228 0.012100 0.249113 -0.107448 -0.467965 0.182673 -0.569121 0.083261 -0.372894
8 -0.351821 -0.373710 0.343271 -0.293585 -0.092046 -0.067021 0.132206 0.250867 0.180924 -0.003052 -0.014714 0.259295 -0.146865 -0.426333 0.221197 -0.548806 0.080946 -0.372713
0 -0.350808 -0.352970 0.320064 -0.296791 -0.104137 -0.066469 0.120098 0.234738 0.177282 -0.016614 0.020716 0.263605 -0.121382 -0.392706 0.211967 -0.535433 0.083973 -0.383264
13 -0.370606 -0.393575 0.350366 -0.358826 -0.060175 -0.105331 0.094644 0.248699 0.198512 -0.020159 -0.032583 0.255985 -0.126911 -0.478909 0.206457 -0.567110 0.046504 -0.349777
15 -0.384713 -0.371938 0.361422 -0.306316 -0.088497 -0.067560 0.155083 0.231113 0.197438 -0.018635 0.010412 0.271572 -0.122366 -0.400900 0.211300 -0.562151 0.046359 -0.428117
11 -0.381837 -0.398017 0.325031 -0.301507 -0.054218 -0.103600 0.072027 0.261714 0.211883 -0.043184 -0.022005 0.287777 -0.137705 -0.355378 0.206088 -0.511064 0.033322 -0.317405
16 -0.390483 -0.366674 0.361732 -0.292404 -0.119857 -0.100684 0.173570 0.247736 0.232986 0.007594 -0.015567 0.317834 -0.135634 -0.350656 0.217351 -0.547488 0.034529 -0.460333
2 -0.349409 -0.388640 0.334294 -0.321932 -0.080371 -0.090796 0.118575 0.278550 0.168495 -0.027828 -0.025447 0.290285 -0.122326 -0.443741 0.200268 -0.574728 0.047463 -0.340635
7 -0.332925 -0.366338 0.310532 -0.321099 -0.096965 -0.067951 0.127777 0.270637 0.214757 -0.035063 -0.014392 0.263294 -0.126031 -0.509878 0.234020 -0.588658 0.078926 -0.396854
5 -0.346454 -0.373711 0.294850 -0.300250 -0.051966 -0.099118 0.145520 0.221318 0.222483 -0.036723 0.011885 0.279131 -0.146836 -0.440958 0.208524 -0.566615 0.054494 -0.406175
10 -0.417697 -0.434794 0.351101 -0.357074 -0.049334 -0.088235 0.103200 0.277134 0.235124 -0.051654 -0.007286 0.326818 -0.161909 -0.427111 0.193011 -0.549984 0.071147 -0.333785
12 -0.429743 -0.433029 0.352919 -0.364632 -0.077792 -0.114594 0.071994 0.244913 0.181741 -0.013610 0.014802 0.320709 -0.145016 -0.423522 0.194514 -0.532539 0.040138 -0.328943
17 -0.399014 -0.399936 0.378177 -0.276446 -0.170557 -0.119858 0.206089 0.280273 0.284485 0.036945 0.016172 0.367807 -0.109584 -0.355054 0.205085 -0.547508 0.049424 -0.515255
14 -0.377004 -0.375861 0.348086 -0.330000 -0.044688 -0.089179 0.079686 0.242571 0.189256 -0.012076 -0.038980 0.281814 -0.127437 -0.410855 0.176222 -0.491519 0.073777 -0.341493
6 -0.356341 -0.369203 0.344165 -0.283771 -0.076928 -0.075604 0.140472 0.273920 0.190029 -0.019553 0.009557 0.260139 -0.142423 -0.469177 0.225465 -0.571532 0.064291 -0.417063
