18 18
5 -0.433985 -0.555382 0.290433 -0.264843 0.114907 0.109925 0.187239 -0.132250 0.398640 -0.036060 0.012738 0.341359 -0.198122 0.108083 0.413109 -0.265366 -0.419649 -0.440094
15 -0.441682 -0.525427 0.324200 -0.292924 0.085662 0.128216 0.161191 -0.140650 0.352509 -0.021733 -0.002737 0.293057 -0.157594 0.099669 0.399235 -0.249478 -0.417392 -0.418987
14 -0.465216 -0.562620 0.365035 -0.288524 0.119863 0.136252 0.154917 -0.123565 0.362147 -0.004759 -0.043255 0.344303 -0.202219 0.122244 0.405530 -0.232802 -0.390782 -0.435405
1 -0.471917 -0.579134 0.357694 -0.316278 0.100342 0.073492 0.151528 -0.091290 0.407079 -0.012185 -0.042160 0.296616 -0.140325 0.075163 0.366474 -0.267620 -0.367039 -0.421736
6 -0.447291 -0.558698 0.340243 -0.239036 0.105994 0.123366 0.181945 -0.088169 0.381819 -0.016733 -0.003168 0.326098 -0.197102 0.104335 0.425464 -0.251147 -0.418670 -0.459302
11 -0.452162 -0.547449 0.322248 -0.240087 0.120186 0.095247 0.133866 -0.064198 0.392285 -0.048507 -0.023623 0.318318 -0.201472 0.122155 0.408377 -0.265672 -0.378339 -0.397110
10 -0.455279 -0.573134 0.328804 -0.274180 0.113702 0.146633 0.191183 -0.112482 0.420945 -0.037684 -0.002754 0.350122 -0.207307 0.132012 0.405509 -0.234087 -0.403550 -0.422355
17 -0.457769 -0.563491 0.337182 -0.255419 0.076975 0.101467 0.183420 -0.092231 0.417527 0.001824 -0.002413 0.359246 -0.173376 0.120814 0.393336 -0.229147 -0.409311 -0.458060
9 -0.469725 -0.560695 0.311356 -0.283665 0.104465 0.122220 0.174267 -0.092602 0.436409 -0.028752 -0.005457 0.359949 -0.183625 0.081899 0.403647 -0.260716 -0.431918 -0.419601
16 -0.440787 -0.529761 0.333995 -0.279368 0.083225 0.110288 0.183212 -0.126144 0.373753 -0.006056 -0.033059 0.324209 -0.184144 0.124270 0.419347 -0.261269 -0.427404 -0.454408
12 -0.449053 -0.542082 0.326157 -0.290718 0.068035 0.091871 0.130613 -0.132079 0.334551 0.012274 0.000573 0.319066 -0.166306 0.105403 0.381102 -0.217347 -0.402221 -0.394897
7 -0.432878 -0.565244 0.316801 -0.307705 0.066218 0.125168 0.169000 -0.110076 0.419427 -0.018188 -0.033439 0.318632 -0.161458 0.064256 0.429781 -0.258399 -0.407729 -0.435284
8 -0.435763 -0.571759 0.348062 -0.280769 0.073024 0.111935 0.171084 -0.101746 0.375329 0.010063 -0.044537 0.305121 -0.187593 0.098011 0.406010 -0.265831 -0.361690 -0.402638
13 -0.404279 -0.519592 0.323054 -0.285886 0.076774 0.096156 0.163613 -0.125658 0.368320 0.009376 -0.032949 0.285333 -0.154456 0.072029 0.390528 -0.242327 -0.405854 -0.413397
0 -0.005399 -0.014495 0.001279 -0.026652 -0.021820 0.016369 -0.010898 -0.008016 -0.006711 0.000758 0.022893 0.001004 0.004839 -0.000095 0.023655 -0.011355 0.019530 -0.003746
3 -0.024675 0.005665 0.025365 0.004601 0.007865 -0.001883 0.014761 -0.000233 -0.026227 -0.010111 0.011993 -0.020661 -0.026950 -0.026588 -0.012274 -0.019090 0.026092 -0.020014
2 0.021368 -0.003688 -0.004957 -0.007525 -0.007603 0.001755 0.011077 0.016235 -0.024745 -0.003279 -0.008624 0.014563 0.014594 -0.017313 -0.004715 -0.020484 -0.014205 0.014938
4 -0.000863 0.026536 0.000487 0.011658 0.016931 -0.018308 -0.024615 0.027506 0.003913 -0.015616 0.024595 0.006644 0.019102 -0.007194 -0.007301 -0.006238 0.005807 -0.017039
