18 18
0 0.068656 -0.492328 -0.219626 -0.020703 -0.103442 0.153564 0.433395 0.152642 0.436088 -0.128765 0.310375 0.557205 -0.206117 -0.148840 0.289025 -0.324974 -0.066019 -0.247316
5 0.103359 -0.422860 -0.242994 0.092363 0.007620 0.096114 0.451612 0.238342 0.441417 -0.219456 0.281487 0.487420 -0.229293 -0.185485 0.219621 -0.348517 -0.048635 -0.235003
3 0.064532 -0.430009 -0.189117 0.075495 -0.037267 0.108376 0.473884 0.241036 0.409168 -0.184603 0.301161 0.497046 -0.247962 -0.210462 0.213933 -0.342669 -0.028727 -0.263929
9 0.072337 -0.434214 -0.239637 0.022981 -0.057111 0.137532 0.433028 0.184433 0.449597 -0.149027 0.287761 0.535621 -0.207618 -0.181005 0.226660 -0.299721 -0.080777 -0.204473
2 0.115339 -0.444237 -0.224918 0.073473 -0.044779 0.114715 0.472171 0.280459 0.429208 -0.194925 0.269292 0.536816 -0.204814 -0.202148 0.225968 -0.358693 -0.061392 -0.223565
13 0.089149 -0.490298 -0.199491 -0.006145 -0.092876 0.141260 0.467436 0.156672 0.444328 -0.103093 0.288328 0.548214 -0.211505 -0.184402 0.264768 -0.301798 -0.104962 -0.248114
17 0.090453 -0.429663 -0.204387 0.080813 -0.075329 0.095803 0.447600 0.235136 0.440039 -0.142623 0.280547 0.521270 -0.190762 -0.147352 0.206096 -0.282536 -0.048068 -0.246324
12 0.048993 -0.476317 -0.205149 0.014719 -0.087446 0.115727 0.420570 0.161104 0.408476 -0.115156 0.311906 0.560386 -0.215694 -0.132788 0.245146 -0.276705 -0.095381 -0.225888
10 0.110842 -0.461523 -0.253578 0.092323 -0.029531 0.150724 0.500656 0.251537 0.484334 -0.211880 0.314274 0.559165 -0.250851 -0.165243 0.221839 -0.311569 -0.048434 -0.218834
8 0.068518 -0.476287 -0.181369 0.043017 -0.078873 0.133282 0.455084 0.195601 0.419138 -0.115570 0.278104 0.528228 -0.234829 -0.162184 0.257436 -0.318799 -0.051605 -0.242591
16 0.057579 -0.459987 -0.198381 -0.000066 -0.098332 0.131093 0.463786 0.143860 0.428402 -0.107567 0.272431 0.567072 -0.226783 -0.120067 0.282187 -0.316291 -0.116928 -0.271603
4 0.079162 -0.414016 -0.203381 0.075108 -0.021651 0.097683 0.421372 0.259259 0.428958 -0.186409 0.305193 0.512098 -0.201034 -0.191234 0.218870 -0.326638 -0.045084 -0.253620
7 0.120666 -0.421186 -0.238303 0.046641 -0.087444 0.133042 0.449141 0.228072 0.449667 -0.165169 0.251526 0.513495 -0.197499 -0.196827 0.251613 -0.315311 -0.049119 -0.228706
1 0.052279 -0.476626 -0.184440 0.026096 -0.044919 0.094599 0.446054 0.237685 0.458428 -0.155962 0.262558 0.530166 -0.201614 -0.184147 0.227010 -0.340190 -0.048041 -0.250705
11 0.086017 -0.472147 -0.229578 0.099373 -0.022962 0.108070 0.464308 0.305114 0.491134 -0.229584 0.288350 0.548642 -0.240243 -0.181494 0.255384 -0.371859 -0.057712 -0.243440
14 0.051652 -0.479368 -0.171038 0.001620 -0.058808 0.137129 0.428893 0.173380 0.412905 -0.112770 0.259822 0.551774 -0.227799 -0.163037 0.246722 -0.291328 -0.057288 -0.239751
6 0.079799 -0.432093 -0.195978 0.073673 -0.036976 0.132289 0.433437 0.214237 0.410162 -0.154310 0.287404 0.482965 -0.218946 -0.177342 0.237175 -0.295830 -0.058166 -0.240023
15 0.038357 -0.482052 -0.183900 -0.000206 -0.059184 0.156663 0.454119 0.155694 0.434245 -0.143525 0.301319 0.538905 -0.217168 -0.154851 0.261229 -0.316615 -0.092388 -0.256386
