18 18
10 -0.411653 -0.521008 0.271413 -0.243912 -0.066798 0.055394 0.015629 -0.038855 0.179515 -0.011322 0.131082 0.472867 -0.354656 0.025228 0.385562 -0.146323 -0.224633 -0.307972
9 -0.434987 -0.509116 0.261541 -0.253238 -0.068139 0.007389 -0.003472 -0.024180 0.178693 0.005868 0.124424 0.476808 -0.327481 -0.009187 0.366490 -0.175259 -0.244710 -0.308047
0 -0.438601 -0.547539 0.286423 -0.275118 -0.098615 0.023524 -0.013853 -0.047393 0.153663 0.015348 0.136689 0.464530 -0.331838 0.033976 0.410504 -0.182220 -0.215927 -0.323905
3 -0.453696 -0.500567 0.301030 -0.221928 -0.030589 -0.024779 0.017965 -0.025432 0.115714 -0.026830 0.162346 0.433442 -0.367386 -0.021865 0.358647 -0.225601 -0.210968 -0.366533
2 -0.400196 -0.527081 0.266782 -0.245904 -0.088329 0.002568 0.004832 -0.019079 0.131393 0.008778 0.116834 0.493778 -0.323815 0.010544 0.390252 -0.191631 -0.264248 -0.313642
1 -0.460304 -0.566530 0.314905 -0.270426 -0.069581 -0.020598 -0.001957 -0.017963 0.174355 0.017208 0.102887 0.473437 -0.327963 0.013624 0.385839 -0.197273 -0.233256 -0.346953
11 -0.429794 -0.546417 0.264654 -0.226254 -0.098898 -0.009749 -0.026386 -0.016387 0.182182 0.012574 0.097205 0.481085 -0.337190 0.073517 0.425793 -0.179185 -0.263108 -0.308715
14 -0.446764 -0.542179 0.317951 -0.273549 -0.059291 0.021662 -0.021030 -0.056576 0.146606 0.026829 0.087225 0.471675 -0.353309 0.032530 0.400225 -0.160807 -0.224961 -0.335984
13 -0.416186 -0.522487 0.297020 -0.271333 -0.083512 0.002296 -0.000207 -0.065294 0.161270 0.037131 0.099188 0.445204 -0.323407 0.014381 0.396237 -0.168880 -0.260816 -0.334832
4 -0.439441 -0.482637 0.294802 -0.220628 -0.027841 -0.030833 -0.026435 0.003562 0.134329 -0.028814 0.186883 0.471122 -0.320213 0.002903 0.370207 -0.207200 -0.234362 -0.374887
5 -0.398559 -0.507435 0.240181 -0.226472 -0.028972 -0.015783 0.022049 -0.048684 0.167138 -0.025415 0.156958 0.462641 -0.332569 0.022416 0.375069 -0.205550 -0.243019 -0.349045
7 -0.418588 -0.578068 0.264099 -0.268730 -0.143166 0.033455 -0.003954 -0.032472 0.193246 0.027918 0.101850 0.513713 -0.351356 0.014060 0.460316 -0.169240 -0.258402 -0.330678
6 -0.425163 -0.528942 0.297214 -0.213018 -0.063397 0.017364 0.015873 -0.008127 0.147528 -0.002287 0.151423 0.470582 -0.358550 -0.002850 0.417745 -0.188545 -0.253083 -0.375441
17 -0.422886 -0.535234 0.266948 -0.208208 -0.131213 -0.025584 0.008300 -0.020888 0.187683 0.047120 0.126459 0.520519 -0.320268 0.083524 0.391665 -0.141674 -0.263024 -0.352377
16 -0.426825 -0.515061 0.273507 -0.224600 -0.106092 -0.009819 0.009046 -0.033342 0.155900 0.025127 0.107570 0.503202 -0.344063 0.075461 0.424886 -0.183308 -0.288111 -0.361327
15 -0.441785 -0.518120 0.300926 -0.264760 -0.058698 0.037066 0.005683 -0.064116 0.148438 0.000982 0.120748 0.428549 -0.316063 0.036423 0.383932 -0.177591 -0.240238 -0.328916
12 -0.453590 -0.552429 0.276676 -0.253426 -0.107921 -0.016316 -0.028862 -0.060815 0.133583 0.044749 0.142321 0.508128 -0.340944 0.066214 0.394854 -0.143644 -0.271462 -0.313055
8 -0.422946 -0.590453 0.293484 -0.250262 -0.137879 0.032185 0.007610 -0.031953 0.173450 0.055313 0.083279 0.491421 -0.360562 0.050149 0.449709 -0.180216 -0.239652 -0.308252
