18 18
2 -0.030462 -0.381581 -0.044721 -0.133178 0.082571 0.145638 0.361936 0.278202 0.711328 -0.315404 0.267741 0.484150 0.020288 -0.162245 0.133040 -0.202025 -0.019733 -0.403982
11 -0.078669 -0.394134 -0.024405 -0.103113 0.098199 0.123136 0.323398 0.287958 0.724490 -0.317777 0.248368 0.453556 -0.020450 -0.134368 0.172984 -0.214499 -0.039347 -0.409344
17 -0.058753 -0.371950 -0.020445 -0.099448 0.052770 0.116039 0.363528 0.258698 0.704413 -0.252715 0.241907 0.454200 0.004089 -0.141743 0.125872 -0.167956 -0.042616 -0.415363
15 -0.082375 -0.412626 -0.028226 -0.152766 0.114162 0.164021 0.364599 0.248127 0.777103 -0.344323 0.301395 0.493659 0.012761 -0.138984 0.152724 -0.202647 -0.029242 -0.446851
7 -0.027180 -0.360383 -0.074317 -0.124157 0.075682 0.150750 0.326183 0.280363 0.763478 -0.340399 0.289842 0.472725 0.029177 -0.155682 0.154874 -0.178198 0.020522 -0.422631
10 -0.037370 -0.395810 -0.081671 -0.131604 0.123597 0.166866 0.359886 0.252391 0.800771 -0.355477 0.312088 0.518518 0.004436 -0.102312 0.119070 -0.150342 0.016049 -0.401640
4 -0.056784 -0.334363 -0.046067 -0.099290 0.103693 0.108817 0.291599 0.303155 0.740707 -0.338715 0.316329 0.469195 0.041282 -0.135125 0.134056 -0.186202 0.014535 -0.438441
16 -0.057543 -0.366184 -0.033865 -0.122556 0.081717 0.147501 0.385386 0.253978 0.739915 -0.309968 0.259114 0.478815 -0.012240 -0.140041 0.161020 -0.208951 -0.048763 -0.453561
3 -0.084099 -0.403075 -0.017205 -0.128541 0.096741 0.148190 0.388038 0.294029 0.767315 -0.344221 0.306554 0.481486 -0.017535 -0.191330 0.142550 -0.223631 0.011695 -0.465889
13 -0.028585 -0.382762 -0.024539 -0.141087 0.076937 0.137854 0.385542 0.241085 0.738059 -0.276104 0.241502 0.448122 0.009181 -0.189464 0.158231 -0.199755 -0.070122 -0.437574
6 -0.043886 -0.394861 -0.036952 -0.095629 0.086537 0.151485 0.394212 0.291223 0.755042 -0.313101 0.293981 0.472246 -0.008431 -0.180609 0.173260 -0.209457 -0.041973 -0.465261
9 -0.070435 -0.411077 -0.059114 -0.137808 0.095717 0.149514 0.383220 0.300210 0.811856 -0.329348 0.287048 0.521094 -0.000051 -0.197641 0.153441 -0.220162 -0.048839 -0.433455
14 -0.058584 -0.395141 -0.023669 -0.149814 0.113630 0.144064 0.317523 0.246421 0.717807 -0.298445 0.241060 0.483031 0.000738 -0.136936 0.137752 -0.169240 0.004664 -0.402299
0 -0.056362 -0.384348 -0.045218 -0.139405 0.057128 0.149503 0.328140 0.272984 0.726601 -0.313946 0.310461 0.470906 0.019614 -0.143437 0.166168 -0.200389 0.015836 -0.424261
5 -0.032308 -0.392981 -0.089299 -0.125684 0.125374 0.124999 0.354116 0.224374 0.763229 -0.337574 0.300633 0.490286 -0.001083 -0.117444 0.147025 -0.193455 -0.018160 -0.424487
1 -0.072603 -0.414658 -0.040305 -0.148300 0.123381 0.113693 0.338701 0.276392 0.799888 -0.337140 0.278738 0.488333 0.029513 -0.137800 0.127216 -0.197046 0.010180 -0.436626
12 -0.026600 -0.022358 0.002765 -0.019307 -0.014582 -0.010130 -0.018079 -0.025837 -0.017080 0.018496 0.026502 0.027636 -0.006702 0.013838 0.001462 0.019107 -0.024921 0.008452
8 0.003889 -0.024784 0.014791 0.006068 -0.018192 0.009774 0.013932 0.005426 -0.001505 0.020585 -0.012265 0.000073 -0.017512 0.000480 0.021614 -0.017675 0.015234 0.001164
