18 18
5 -0.332940 -0.446940 0.142558 -0.269484 -0.074234 -0.026626 0.075416 -0.051978 0.369334 0.036123 0.355860 0.433295 -0.190702 -0.137161 0.408452 -0.312106 -0.236856 -0.445987
12 -0.346171 -0.412472 0.157623 -0.286041 -0.109511 -0.021426 0.015220 -0.042195 0.319507 0.055773 0.364447 0.428197 -0.162754 -0.137646 0.379450 -0.256342 -0.224458 -0.393867
4 -0.352640 -0.409653 0.172795 -0.280815 -0.090253 -0.031686 0.020349 0.005770 0.372953 0.039053 0.387757 0.449723 -0.149805 -0.171110 0.410075 -0.305844 -0.222303 -0.463912
11 -0.360205 -0.408846 0.165471 -0.260463 -0.074582 -0.020569 0.005517 -0.005573 0.343979 0.002563 0.351224 0.415057 -0.185607 -0.115650 0.414430 -0.305102 -0.224408 -0.413194
17 -0.332984 -0.420064 0.168141 -0.243837 -0.112464 -0.032852 0.066292 -0.004216 0.367319 0.069431 0.334778 0.429709 -0.149286 -0.128604 0.357362 -0.259503 -0.203729 -0.430317
13 -0.331692 -0.434645 0.175540 -0.288102 -0.100741 -0.030436 0.062367 -0.027259 0.380910 0.077156 0.334047 0.418064 -0.159472 -0.185646 0.401984 -0.301033 -0.261854 -0.434504
0 -0.351540 -0.428284 0.161909 -0.315274 -0.116878 0.009554 0.010947 -0.037485 0.334832 0.031925 0.378916 0.422966 -0.161735 -0.145691 0.425324 -0.296710 -0.193229 -0.422556
16 -0.369174 -0.407453 0.175338 -0.282444 -0.099651 -0.016755 0.051178 -0.036988 0.354419 0.033117 0.363605 0.454427 -0.203069 -0.115169 0.447047 -0.329401 -0.269980 -0.470657
9 -0.355932 -0.436255 0.128958 -0.280280 -0.097334 -0.024306 0.047318 -0.006810 0.402668 0.052356 0.359056 0.463673 -0.161809 -0.175399 0.382896 -0.296026 -0.252441 -0.396430
10 -0.373726 -0.456680 0.162166 -0.304955 -0.096222 0.013541 0.046882 -0.021202 0.412402 0.019717 0.410660 0.490468 -0.200040 -0.146490 0.433454 -0.298275 -0.229829 -0.450071
14 -0.350981 -0.454628 0.200547 -0.307450 -0.082269 -0.009647 0.036159 -0.038039 0.338898 0.077066 0.306845 0.430195 -0.174642 -0.165546 0.400720 -0.283689 -0.209095 -0.432632
6 -0.328460 -0.454279 0.169453 -0.245552 -0.090596 -0.009155 0.081487 0.000994 0.371636 0.068295 0.334143 0.419313 -0.172777 -0.173912 0.398631 -0.287080 -0.229805 -0.438024
1 -0.367086 -0.488538 0.188632 -0.300604 -0.088179 -0.049366 0.069275 0.002557 0.415344 0.079094 0.312326 0.435049 -0.144265 -0.189100 0.375591 -0.310393 -0.218324 -0.439505
8 -0.346983 -0.459116 0.187850 -0.270702 -0.109935 -0.011200 0.067309 -0.015796 0.363928 0.072170 0.336435 0.433959 -0.191461 -0.150769 0.420274 -0.315625 -0.215848 -0.434501
3 -0.355666 -0.384934 0.184975 -0.269734 -0.080443 -0.005434 0.037013 -0.023940 0.302812 0.014218 0.357776 0.386752 -0.196829 -0.166257 0.385895 -0.302992 -0.180843 -0.431373
7 -0.314315 -0.410408 0.138612 -0.297575 -0.125804 0.013133 0.030938 -0.017236 0.375327 0.034697 0.343926 0.434250 -0.160479 -0.182491 0.426472 -0.279365 -0.206080 -0.425407
15 -0.362138 -0.422412 0.176582 -0.294212 -0.085880 0.007730 0.051753 -0.049696 0.345954 0.033153 0.359139 0.419297 -0.162760 -0.134713 0.398771 -0.295116 -0.239697 -0.430405
2 0.021368 -0.003688 -0.004957 -0.007525 -0.007603 0.001755 0.011077 0.016235 -0.024745 -0.003279 -0.008624 0.014563 0.014594 -0.017313 -0.004715 -0.020484 -0.014205 0.014938
