18 18
8 -0.304445 -0.524313 0.455369 -0.256688 -0.086601 0.220467 0.160409 0.163398 0.195572 0.038023 -0.086167 0.155301 -0.227392 -0.108092 0.430353 -0.413303 0.181960 -0.354698
0 -0.340185 -0.577594 0.494744 -0.325458 -0.111149 0.267861 0.157824 0.178455 0.224231 0.025183 -0.062045 0.186125 -0.231208 -0.131672 0.490584 -0.446900 0.198166 -0.393773
15 -0.323312 -0.503185 0.444105 -0.280726 -0.068875 0.244263 0.167133 0.127089 0.204567 0.001989 -0.058556 0.158516 -0.206676 -0.089343 0.412543 -0.387795 0.127400 -0.355414
10 -0.342148 -0.557635 0.484086 -0.303833 -0.061385 0.281873 0.179558 0.174431 0.264140 -0.015857 -0.064213 0.206664 -0.253081 -0.087962 0.443016 -0.398498 0.185404 -0.371889
4 -0.316984 -0.501524 0.478319 -0.282588 -0.065989 0.219657 0.133562 0.212821 0.224977 0.002417 -0.057720 0.186829 -0.197914 -0.143468 0.441336 -0.428926 0.182388 -0.411658
2 -0.292226 -0.524386 0.448895 -0.288798 -0.096476 0.231314 0.174040 0.171653 0.174491 0.025815 -0.091335 0.185168 -0.208856 -0.134224 0.426677 -0.430594 0.151385 -0.348190
6 -0.319261 -0.547858 0.479451 -0.261589 -0.078391 0.244358 0.177703 0.192736 0.217748 0.024024 -0.073069 0.171567 -0.234107 -0.132712 0.454819 -0.420425 0.167529 -0.394499
9 -0.326552 -0.517761 0.436599 -0.289908 -0.079740 0.238471 0.154615 0.177711 0.247861 0.013544 -0.075495 0.199682 -0.224837 -0.138620 0.432537 -0.411163 0.150018 -0.352619
14 -0.334506 -0.541427 0.496033 -0.305405 -0.052153 0.235251 0.127085 0.160092 0.199105 0.024237 -0.105675 0.174595 -0.230356 -0.112280 0.425784 -0.386584 0.195963 -0.362194
16 -0.324112 -0.525017 0.475588 -0.290322 -0.092031 0.235382 0.177239 0.162588 0.222200 0.024916 -0.103180 0.186866 -0.241524 -0.097224 0.472526 -0.438722 0.144893 -0.405208
1 -0.365007 -0.581771 0.512580 -0.314603 -0.049325 0.207436 0.135582 0.197529 0.246614 0.014103 -0.102899 0.166961 -0.215451 -0.121042 0.432865 -0.434907 0.207181 -0.385768
17 -0.334761 -0.540912 0.472582 -0.266192 -0.102652 0.223873 0.179017 0.175699 0.241750 0.036599 -0.063738 0.201365 -0.218453 -0.094462 0.415335 -0.383935 0.177516 -0.394085
3 -0.346401 -0.524295 0.492642 -0.286416 -0.075045 0.239756 0.173289 0.165264 0.188243 0.004276 -0.061329 0.157433 -0.247779 -0.138729 0.423211 -0.427771 0.201675 -0.393018
7 -0.297793 -0.534684 0.463258 -0.299352 -0.099444 0.256350 0.162724 0.196972 0.248558 0.010450 -0.096937 0.184723 -0.219397 -0.159550 0.468464 -0.419246 0.193232 -0.394167
13 -0.305446 -0.538446 0.489064 -0.310226 -0.092594 0.225597 0.165559 0.161732 0.224722 0.043672 -0.105428 0.155850 -0.216332 -0.150106 0.468924 -0.440574 0.152852 -0.400657
11 -0.348426 -0.559932 0.485485 -0.279419 -0.058805 0.219370 0.136431 0.192357 0.239344 -0.003267 -0.092988 0.174210 -0.242639 -0.094657 0.469736 -0.443070 0.160840 -0.378309
12 -0.026600 -0.022358 0.002765 -0.019307 -0.014582 -0.010130 -0.018079 -0.025837 -0.017080 0.018496 0.026502 0.027636 -0.006702 0.013838 0.001462 0.019107 -0.024921 0.008452
5 0.004065 -0.024114 -0.027650 -0.000619 0.020703 -0.008521 0.024223 -0.023969 0.025914 -0.018771 0.021210 0.020548 -0.020024 0.006829 0.014933 -0.023795 -0.013973 -0.021943
