18 18
9 -0.184512 -0.414901 0.297073 -0.161250 -0.029951 0.067546 0.154823 0.302678 0.127872 -0.009613 0.325100 0.462863 -0.043950 -0.348817 0.295060 -0.391824 -0.117931 -0.468197
4 -0.073101 -0.409269 0.267946 -0.086974 -0.045458 0.159023 0.151538 0.378723 0.152808 -0.055657 0.328592 0.498631 -0.005146 -0.212434 0.397999 -0.389042 -0.091883 -0.476257
6 -0.162579 -0.441008 0.319126 -0.120178 -0.031374 0.107988 0.180003 0.308738 0.120167 -0.004492 0.333550 0.450351 -0.068470 -0.321815 0.338560 -0.374592 -0.108766 -0.500305
14 -0.110364 -0.470522 0.310787 -0.141490 -0.047470 0.164689 0.168724 0.334975 0.126960 -0.007620 0.292574 0.513006 -0.042783 -0.266142 0.379361 -0.377865 -0.082974 -0.472195
10 -0.141516 -0.443792 0.301742 -0.139203 -0.044491 0.132891 0.189495 0.323899 0.142324 -0.026376 0.347781 0.499063 -0.056033 -0.298230 0.332866 -0.371386 -0.096553 -0.479286
17 -0.115538 -0.435338 0.281105 -0.104615 -0.082192 0.114359 0.183919 0.324682 0.160506 0.003590 0.324260 0.491743 -0.023575 -0.242658 0.333473 -0.341656 -0.081540 -0.481612
0 -0.148874 -0.486091 0.326970 -0.176614 -0.083709 0.163573 0.182151 0.306074 0.123264 -0.007124 0.354460 0.488644 -0.044623 -0.295918 0.401430 -0.420770 -0.080763 -0.509595
2 -0.115348 -0.398466 0.288475 -0.133912 -0.051376 0.087533 0.160486 0.327590 0.071732 -0.022270 0.295923 0.451069 -0.016045 -0.289296 0.314333 -0.393180 -0.116737 -0.446148
12 -0.426581 -0.451010 0.435698 -0.282899 0.008889 -0.138183 0.110902 0.180135 0.026156 0.062398 0.412959 0.414707 -0.101143 -0.514860 0.149045 -0.394073 -0.160375 -0.547313
3 -0.445279 -0.382068 0.466855 -0.260423 0.042188 -0.174234 0.123490 0.195543 -0.005844 0.031390 0.388963 0.329008 -0.114655 -0.560110 0.097159 -0.431757 -0.107050 -0.574255
5 -0.151466 -0.473262 0.283150 -0.148623 -0.027384 0.104954 0.192682 0.273989 0.143990 -0.028308 0.345287 0.483987 -0.065448 -0.279253 0.351967 -0.405338 -0.108931 -0.494280
11 -0.116535 -0.412837 0.258550 -0.090742 -0.032546 0.128997 0.140608 0.312118 0.146163 -0.048677 0.272992 0.432297 -0.052047 -0.188809 0.363294 -0.359336 -0.094604 -0.421480
8 -0.140905 -0.492257 0.326206 -0.147940 -0.075142 0.162554 0.204641 0.292236 0.126794 0.014206 0.305483 0.473568 -0.074884 -0.282580 0.393857 -0.414743 -0.092297 -0.482023
1 -0.340130 -0.437771 0.417013 -0.230898 0.022105 -0.088852 0.127843 0.266517 0.075478 0.018521 0.337305 0.392279 -0.057473 -0.449525 0.185726 -0.421977 -0.105805 -0.536621
13 -0.233952 -0.437985 0.383614 -0.212013 -0.027887 0.020329 0.169629 0.266822 0.099359 0.021630 0.341789 0.429496 -0.057443 -0.424214 0.295723 -0.426457 -0.141888 -0.550111
16 -0.146559 -0.398582 0.292981 -0.129476 -0.052866 0.097232 0.175666 0.287066 0.114128 -0.011262 0.293943 0.454882 -0.055726 -0.247794 0.344052 -0.380925 -0.125307 -0.489634
7 -0.110487 -0.413376 0.266225 -0.143227 -0.065292 0.135738 0.170509 0.298704 0.138586 -0.019199 0.286502 0.446823 -0.038614 -0.308915 0.348111 -0.367874 -0.085281 -0.455007
15 -0.147781 -0.453625 0.298649 -0.155930 -0.048319 0.175531 0.194153 0.245208 0.129371 -0.019228 0.304993 0.446816 -0.050844 -0.235804 0.363450 -0.375445 -0.113618 -0.458386
