18 18
17 -0.277599 -0.420119 0.290899 -0.450398 -0.205109 0.105338 0.263002 -0.053574 0.097524 0.057909 0.087559 0.467277 -0.138734 -0.322740 0.335932 -0.382549 -0.340144 -0.431400
1 -0.309992 -0.428915 0.308947 -0.473041 -0.162704 0.085026 0.221046 -0.057105 0.072249 0.043709 0.064157 0.408894 -0.137129 -0.338643 0.323367 -0.407530 -0.305840 -0.390388
7 -0.228069 -0.379502 0.221853 -0.466262 -0.203592 0.156701 0.240923 -0.046674 0.095353 0.008252 0.066756 0.444105 -0.142415 -0.382202 0.379114 -0.396956 -0.332878 -0.384512
11 -0.301232 -0.417618 0.291193 -0.438497 -0.170420 0.105769 0.196252 -0.054812 0.069572 0.025116 0.081237 0.405478 -0.159398 -0.291778 0.359222 -0.394003 -0.315666 -0.379370
15 -0.284047 -0.383251 0.269423 -0.431336 -0.166453 0.145938 0.213361 -0.110262 0.035138 0.022642 0.111964 0.359697 -0.135685 -0.272176 0.336762 -0.364195 -0.318836 -0.361942
13 -0.234071 -0.374207 0.265587 -0.461288 -0.187027 0.116831 0.231481 -0.096888 0.058498 0.057467 0.063774 0.389469 -0.126359 -0.344210 0.343753 -0.374307 -0.349921 -0.376841
8 -0.286690 -0.427590 0.304956 -0.440464 -0.195197 0.125029 0.221914 -0.077599 0.039700 0.065220 0.077609 0.390179 -0.167018 -0.305345 0.357239 -0.394709 -0.287302 -0.365457
2 -0.229046 -0.390854 0.246521 -0.467069 -0.186471 0.133111 0.261457 -0.045847 0.047256 0.019044 0.062368 0.463867 -0.134212 -0.371962 0.352635 -0.427938 -0.364187 -0.390320
16 -0.239906 -0.342121 0.237741 -0.414569 -0.173867 0.120041 0.222971 -0.072827 0.056412 0.025537 0.065412 0.391640 -0.143167 -0.276588 0.340534 -0.366828 -0.324612 -0.373174
12 -0.308855 -0.403135 0.280340 -0.447878 -0.187822 0.101256 0.169397 -0.118915 0.017916 0.064607 0.116047 0.385538 -0.149407 -0.267431 0.321158 -0.331169 -0.303115 -0.331064
0 -0.267129 -0.394405 0.255546 -0.477071 -0.209624 0.154223 0.200188 -0.098387 0.047855 0.031492 0.120990 0.396387 -0.136069 -0.309627 0.368338 -0.372644 -0.295578 -0.367579
10 -0.253024 -0.384818 0.239391 -0.442016 -0.160803 0.149989 0.251850 -0.063619 0.094568 0.000632 0.097464 0.451723 -0.167039 -0.309923 0.338624 -0.373955 -0.329227 -0.373766
14 -0.269297 -0.386445 0.279489 -0.455546 -0.149393 0.127084 0.201095 -0.071145 0.045368 0.038050 0.044787 0.410360 -0.153746 -0.321009 0.324288 -0.361348 -0.282403 -0.355297
4 -0.263022 -0.353812 0.255660 -0.440325 -0.158139 0.106403 0.193842 -0.053326 0.063103 0.013417 0.110324 0.418255 -0.123879 -0.325008 0.331092 -0.380460 -0.319108 -0.388093
9 -0.285221 -0.392917 0.246760 -0.471714 -0.177297 0.121925 0.217033 -0.060165 0.087004 0.028691 0.084062 0.445136 -0.149506 -0.362772 0.343808 -0.403660 -0.336768 -0.361808
3 -0.276694 -0.365880 0.280569 -0.432202 -0.176950 0.128950 0.228846 -0.079599 0.016755 0.024160 0.098487 0.378204 -0.172028 -0.343069 0.334165 -0.394363 -0.286258 -0.386228
6 -0.252392 -0.408951 0.267809 -0.438356 -0.194640 0.146530 0.263589 -0.053596 0.064950 0.033128 0.097775 0.439647 -0.161111 -0.347277 0.381903 -0.399224 -0.352723 -0.419948
5 -0.254668 -0.403669 0.224582 -0.432583 -0.148155 0.108782 0.241786 -0.091492 0.093788 0.008877 0.098538 0.429569 -0.161361 -0.301339 0.352054 -0.398682 -0.337708 -0.390431
