18 18
1 -0.196650 -0.569003 0.492042 -0.237522 -0.254131 0.018923 0.074290 0.224862 0.001070 0.273553 0.084729 0.192427 -0.080170 -0.277534 0.449708 -0.386242 0.048524 -0.396185
7 -0.132538 -0.550842 0.448896 -0.231952 -0.300031 0.087828 0.104777 0.200078 -0.006094 0.275465 0.098404 0.205487 -0.091739 -0.301546 0.495131 -0.365544 0.029715 -0.393933
12 -0.208608 -0.554277 0.461613 -0.235126 -0.269269 0.035882 0.055743 0.143977 -0.048079 0.278185 0.152276 0.216407 -0.095924 -0.236472 0.435321 -0.313876 -0.013375 -0.369608
0 -0.173690 -0.586616 0.488186 -0.266264 -0.312961 0.071945 0.073415 0.189909 -0.033713 0.293255 0.133770 0.206515 -0.085448 -0.271911 0.486087 -0.371900 0.050561 -0.376878
10 -0.159959 -0.565753 0.461953 -0.220238 -0.265874 0.101982 0.117048 0.187954 -0.011518 0.260461 0.141606 0.222672 -0.119470 -0.265010 0.473830 -0.354938 0.021213 -0.387955
4 -0.175392 -0.522403 0.479790 -0.210805 -0.253731 0.020411 0.054888 0.220972 -0.017091 0.264045 0.128822 0.195669 -0.063632 -0.272186 0.440377 -0.362092 0.026965 -0.399481
16 -0.173188 -0.548745 0.484188 -0.229496 -0.291298 0.063150 0.113809 0.189897 -0.034408 0.288005 0.089133 0.220571 -0.115031 -0.250775 0.499413 -0.387149 0.001425 -0.418388
15 -0.193211 -0.559024 0.466259 -0.264092 -0.251901 0.119580 0.104004 0.117676 -0.053878 0.246578 0.137689 0.196665 -0.096173 -0.246169 0.453835 -0.349302 -0.015388 -0.360366
8 -0.158363 -0.577627 0.489648 -0.205903 -0.292893 0.059583 0.106468 0.209482 -0.030196 0.304811 0.100422 0.196883 -0.112489 -0.278440 0.481289 -0.383320 0.039136 -0.395986
13 -0.163198 -0.582956 0.516387 -0.248834 -0.294280 0.038665 0.100915 0.192161 -0.013107 0.319473 0.100808 0.188550 -0.078220 -0.314037 0.493593 -0.384882 -0.005600 -0.433057
6 -0.162260 -0.545828 0.475545 -0.188334 -0.257437 0.065810 0.109006 0.204523 -0.031620 0.272979 0.119859 0.190050 -0.105977 -0.287228 0.472753 -0.360747 0.005083 -0.419014
17 -0.175464 -0.520236 0.458618 -0.191137 -0.283188 0.010448 0.085576 0.200413 0.015369 0.287089 0.112974 0.212337 -0.069771 -0.232812 0.412950 -0.308444 0.022359 -0.397260
3 -0.186917 -0.532029 0.477519 -0.227101 -0.245644 0.085492 0.111129 0.164241 -0.070332 0.245627 0.128117 0.176219 -0.127871 -0.292316 0.439654 -0.371854 0.039752 -0.384326
14 -0.170418 -0.566679 0.495028 -0.257271 -0.256302 0.088538 0.086983 0.173552 -0.049923 0.286392 0.080562 0.209099 -0.109304 -0.282595 0.466523 -0.360409 0.043181 -0.374342
2 -0.151206 -0.588608 0.478409 -0.263008 -0.293135 0.114336 0.124727 0.175720 -0.083472 0.276099 0.125083 0.232601 -0.101143 -0.298824 0.491545 -0.397037 -0.008458 -0.376411
11 -0.199145 -0.566534 0.482714 -0.216653 -0.253283 0.038578 0.060147 0.207214 -0.011348 0.248142 0.112265 0.202882 -0.106416 -0.249172 0.479880 -0.377681 0.007734 -0.390770
9 -0.181741 -0.573015 0.473496 -0.244887 -0.279936 0.070656 0.095843 0.207920 -0.009107 0.285547 0.118246 0.225853 -0.100347 -0.316881 0.477035 -0.389214 0.010903 -0.383422
5 0.004065 -0.024114 -0.027650 -0.000619 0.020703 -0.008521 0.024223 -0.023969 0.025914 -0.018771 0.021210 0.020548 -0.020024 0.006829 0.014933 -0.023795 -0.013973 -0.021943
