18 18
6 -0.294273 -0.639737 0.027134 -0.243710 -0.132345 0.118867 0.120295 0.019863 0.392204 -0.019402 0.371900 0.660360 -0.236593 0.038892 0.327651 -0.076938 -0.322307 -0.115116
0 -0.387237 -0.616966 0.108894 -0.377267 -0.134008 0.243046 0.097435 -0.170694 0.380399 -0.023041 0.330986 0.596727 -0.251109 0.246395 0.395883 -0.022115 -0.330744 -0.150797
12 -0.266742 -0.611003 -0.018834 -0.227292 -0.135754 0.035287 0.061992 0.034477 0.323121 -0.000116 0.386554 0.651579 -0.204576 -0.026695 0.241792 -0.061574 -0.279739 -0.041449
2 -0.154190 -0.597852 -0.093566 -0.143673 -0.139809 -0.031792 0.129357 0.189033 0.306113 -0.031971 0.392456 0.677866 -0.172946 -0.208804 0.193508 -0.186196 -0.249524 -0.021454
10 -0.380112 -0.626026 0.082095 -0.315508 -0.072515 0.217413 0.075415 -0.122399 0.411964 -0.047890 0.330452 0.631180 -0.288961 0.254975 0.329096 0.039423 -0.300341 -0.081885
1 -0.338096 -0.625914 0.058664 -0.286960 -0.114214 0.082284 0.076192 -0.011749 0.390025 -0.007146 0.313537 0.611156 -0.206928 0.070947 0.280084 -0.060889 -0.275590 -0.100128
4 -0.136586 -0.589318 -0.151041 -0.087266 -0.150736 -0.092268 0.107555 0.285715 0.395604 -0.040552 0.480619 0.717991 -0.165351 -0.323286 0.201231 -0.232415 -0.202325 -0.057595
7 -0.234603 -0.615927 -0.054815 -0.212919 -0.168204 0.077675 0.107089 0.070949 0.440321 -0.022094 0.368742 0.665410 -0.221716 -0.059727 0.306918 -0.088335 -0.256224 -0.088521
8 -0.223923 -0.669908 -0.076948 -0.150002 -0.182300 0.009316 0.133551 0.154307 0.451921 0.004435 0.404405 0.705848 -0.242773 -0.137106 0.288201 -0.159613 -0.225517 -0.074323
13 -0.250637 -0.622458 0.018813 -0.269793 -0.135312 0.068974 0.096042 0.019449 0.345199 -0.001521 0.349358 0.639214 -0.192240 -0.033080 0.274965 -0.079223 -0.325914 -0.066389
15 -0.466812 -0.650171 0.197126 -0.467896 -0.105822 0.322735 0.157886 -0.284953 0.369260 -0.038259 0.297142 0.593839 -0.259780 0.351213 0.437156 -0.034813 -0.450930 -0.203736
11 -0.357667 -0.616657 0.085980 -0.279622 -0.072991 0.128176 0.017848 -0.055093 0.357741 -0.037293 0.299418 0.593226 -0.252816 0.177026 0.311851 -0.000174 -0.289632 -0.066633
17 -0.311486 -0.590030 0.042667 -0.249068 -0.138979 0.112071 0.110914 -0.035750 0.385200 -0.000805 0.335416 0.630660 -0.217946 0.126489 0.282767 -0.020707 -0.297804 -0.120933
5 -0.170506 -0.627653 -0.137038 -0.121056 -0.116566 -0.040217 0.142143 0.156612 0.396931 -0.047726 0.440903 0.694053 -0.229882 -0.196274 0.227858 -0.191593 -0.222862 -0.063540
3 -0.220092 -0.652326 -0.081319 -0.134989 -0.148896 -0.029180 0.155339 0.183211 0.376303 -0.035694 0.456806 0.709282 -0.250258 -0.230487 0.229852 -0.205314 -0.218880 -0.080723
16 -0.424164 -0.606431 0.157968 -0.408457 -0.120861 0.262447 0.162403 -0.220597 0.381898 -0.024708 0.284260 0.630474 -0.269274 0.335049 0.430590 -0.049260 -0.446198 -0.217847
14 -0.403553 -0.654105 0.131407 -0.361410 -0.066355 0.196270 0.043839 -0.143113 0.350634 -0.013973 0.299516 0.642786 -0.279087 0.237812 0.330238 0.029697 -0.307983 -0.094432
9 -0.257750 -0.583840 -0.057034 -0.201382 -0.138083 0.060060 0.105693 0.072895 0.421794 -0.022129 0.373998 0.653463 -0.217034 -0.063270 0.270070 -0.111223 -0.266384 -0.071752
