18 18
16 -0.042876 -0.393784 0.107115 -0.391952 -0.250286 -0.001462 0.198891 -0.032109 0.428450 0.161743 0.232703 0.433289 0.095463 -0.190282 0.403889 -0.299836 -0.247183 -0.493320
17 -0.021209 -0.390296 0.069047 -0.347770 -0.279575 -0.006904 0.211473 0.015007 0.472310 0.160168 0.274482 0.456661 0.127731 -0.208569 0.361488 -0.254755 -0.229159 -0.488864
13 -0.017024 -0.401524 0.104503 -0.392827 -0.244081 0.001894 0.189670 -0.022460 0.430895 0.166434 0.237145 0.395357 0.119485 -0.244510 0.381639 -0.283418 -0.226668 -0.462590
1 -0.071204 -0.442880 0.129478 -0.407904 -0.213002 -0.030024 0.176609 0.002483 0.452971 0.148167 0.240912 0.408872 0.123622 -0.235585 0.373428 -0.314193 -0.196457 -0.481190
6 -0.022857 -0.413866 0.090624 -0.338261 -0.240279 0.016547 0.204880 0.016985 0.429776 0.150538 0.272318 0.423764 0.094515 -0.232681 0.401797 -0.283889 -0.223422 -0.489010
4 -0.021556 -0.371394 0.068957 -0.366564 -0.253253 -0.008617 0.169821 0.029628 0.461848 0.138563 0.306997 0.460366 0.135964 -0.238916 0.385499 -0.288306 -0.225933 -0.494427
8 -0.038048 -0.468730 0.125456 -0.413183 -0.286845 0.014416 0.205907 -0.007329 0.458109 0.192944 0.264779 0.460843 0.095674 -0.232323 0.439417 -0.328579 -0.211621 -0.500753
0 -0.040303 -0.401223 0.088632 -0.384957 -0.241137 0.017254 0.162631 -0.018892 0.402335 0.140670 0.265305 0.394158 0.107111 -0.216180 0.385702 -0.285485 -0.184590 -0.440575
15 -0.052237 -0.421760 0.103101 -0.403987 -0.244280 0.027730 0.205414 -0.032530 0.450838 0.141462 0.279091 0.433573 0.117517 -0.219246 0.402992 -0.299853 -0.247810 -0.496270
7 0.011501 -0.381549 0.035074 -0.368866 -0.284627 0.029590 0.194250 0.017135 0.466293 0.135381 0.251510 0.437337 0.115684 -0.248922 0.388298 -0.257030 -0.216454 -0.449735
12 -0.052107 -0.438856 0.086542 -0.415678 -0.287564 -0.001501 0.181236 -0.029495 0.447692 0.181144 0.299757 0.492108 0.103970 -0.217171 0.411634 -0.279286 -0.262628 -0.486151
9 -0.018297 -0.389807 0.031996 -0.377135 -0.278387 0.015529 0.196364 0.029887 0.492317 0.143381 0.287174 0.482516 0.120349 -0.256945 0.377935 -0.277666 -0.246083 -0.453391
10 -0.019826 -0.416161 0.067133 -0.376674 -0.253682 0.033658 0.209343 0.005492 0.476837 0.135679 0.288454 0.462889 0.097151 -0.211528 0.376243 -0.262795 -0.212647 -0.456009
2 -0.001743 -0.403000 0.068684 -0.378781 -0.265905 0.011143 0.203335 0.019857 0.423565 0.145913 0.263360 0.454875 0.125385 -0.245223 0.381847 -0.302058 -0.238594 -0.457543
14 -0.063522 -0.441908 0.147026 -0.423002 -0.219417 0.006333 0.166420 -0.032218 0.417880 0.176187 0.231135 0.435061 0.100634 -0.226313 0.401113 -0.301034 -0.198335 -0.483516
5 -0.025517 -0.397362 0.055562 -0.352527 -0.202713 -0.007731 0.202132 -0.035053 0.433720 0.120691 0.265141 0.415980 0.090410 -0.205788 0.375151 -0.297091 -0.224800 -0.472294
11 -0.022755 -0.017997 0.010402 0.008892 0.014438 -0.011029 -0.020096 0.023319 0.018649 -0.022508 -0.004615 0.005927 -0.014992 0.016644 0.025927 -0.023252 -0.010098 -0.005158
3 -0.024675 0.005665 0.025365 0.004601 0.007865 -0.001883 0.014761 -0.000233 -0.026227 -0.010111 0.011993 -0.020661 -0.026950 -0.026588 -0.012274 -0.019090 0.026092 -0.020014
