18 18
2 -0.314082 -0.470027 0.256636 -0.417135 0.011422 0.065853 0.308215 -0.070408 0.091457 -0.073246 0.375351 0.471351 -0.125618 -0.365311 0.136154 -0.416815 -0.303558 -0.365057
12 -0.339930 -0.453517 0.255750 -0.398408 0.009690 0.052048 0.275281 -0.097616 0.116185 -0.052721 0.391243 0.467164 -0.135795 -0.306904 0.137922 -0.357185 -0.298458 -0.370683
0 -0.320513 -0.439403 0.237556 -0.384875 0.000106 0.063953 0.277827 -0.078676 0.143210 -0.067140 0.374854 0.440710 -0.119265 -0.287345 0.148146 -0.369427 -0.240678 -0.379548
4 -0.320052 -0.419985 0.250380 -0.375299 0.041751 0.042076 0.283272 -0.050035 0.155457 -0.089258 0.388793 0.464588 -0.115538 -0.327153 0.134749 -0.390314 -0.282839 -0.410818
10 -0.311763 -0.456204 0.235456 -0.384646 0.037031 0.087944 0.305797 -0.090335 0.141321 -0.084075 0.368718 0.458519 -0.153110 -0.292514 0.129141 -0.360274 -0.270902 -0.345271
13 -0.299488 -0.443328 0.256357 -0.414599 0.009905 0.066373 0.304870 -0.103466 0.137224 -0.050862 0.354429 0.428719 -0.118837 -0.355129 0.141089 -0.374266 -0.290814 -0.382125
17 -0.315533 -0.432969 0.244529 -0.338283 -0.007527 0.034546 0.313071 -0.055947 0.193642 -0.044805 0.363437 0.468650 -0.113343 -0.266550 0.118358 -0.337552 -0.255742 -0.414202
9 -0.334303 -0.447622 0.229108 -0.398957 0.027429 0.066008 0.283951 -0.057788 0.139760 -0.077099 0.371704 0.463922 -0.126405 -0.364842 0.118898 -0.386372 -0.284412 -0.337222
11 -0.353088 -0.481866 0.272839 -0.397966 0.042872 0.058318 0.270445 -0.063944 0.120791 -0.091484 0.367950 0.458324 -0.160164 -0.321292 0.166541 -0.418331 -0.303905 -0.363701
5 -0.286171 -0.429354 0.196534 -0.350187 0.044987 0.049212 0.306638 -0.100861 0.165378 -0.084208 0.360074 0.435036 -0.140498 -0.282243 0.142304 -0.369312 -0.267506 -0.383097
16 -0.313051 -0.427040 0.243218 -0.363302 0.011111 0.051269 0.310757 -0.084942 0.148522 -0.061428 0.330265 0.449145 -0.144384 -0.267193 0.160149 -0.383619 -0.289273 -0.405340
7 -0.279193 -0.426017 0.221428 -0.376116 -0.000355 0.079425 0.302778 -0.062539 0.162560 -0.077344 0.351044 0.434644 -0.125204 -0.349887 0.151797 -0.364379 -0.261080 -0.381490
3 -0.323958 -0.406159 0.259642 -0.347496 0.026982 0.049385 0.289589 -0.068555 0.100866 -0.071888 0.352855 0.399795 -0.153036 -0.311183 0.114378 -0.371742 -0.233307 -0.374100
8 -0.320714 -0.472944 0.274773 -0.383189 0.001662 0.073296 0.302127 -0.068834 0.115063 -0.046817 0.357785 0.450411 -0.152026 -0.317830 0.158982 -0.402022 -0.270908 -0.366079
14 -0.327041 -0.471963 0.279130 -0.411314 0.034092 0.078588 0.269864 -0.100347 0.079588 -0.048341 0.326148 0.450091 -0.153226 -0.311475 0.144118 -0.373202 -0.259519 -0.352891
1 -0.335726 -0.460658 0.270144 -0.395942 0.030587 0.036842 0.287160 -0.054247 0.150592 -0.065140 0.339364 0.427272 -0.115945 -0.333474 0.117272 -0.385999 -0.258776 -0.373766
15 -0.348306 -0.453271 0.272258 -0.411687 0.029194 0.091448 0.298482 -0.097680 0.120517 -0.080158 0.375690 0.438389 -0.122605 -0.317859 0.142810 -0.386980 -0.299923 -0.375430
6 -0.302862 -0.436802 0.259353 -0.348082 0.018359 0.071437 0.303866 -0.057217 0.124214 -0.059824 0.360891 0.429965 -0.143494 -0.314005 0.153358 -0.368899 -0.275541 -0.389689
