18 18
6 -0.178293 -0.517033 0.269871 -0.117729 -0.015034 0.192613 0.094500 0.158320 0.217483 -0.105885 0.271490 0.253637 -0.298253 -0.294493 0.585112 -0.335251 -0.125963 -0.468282
11 -0.221589 -0.503036 0.223559 -0.120297 0.020740 0.149287 0.074097 0.150134 0.289209 -0.150149 0.280068 0.295403 -0.286249 -0.229668 0.551391 -0.349016 -0.158731 -0.443055
7 -0.158311 -0.516116 0.253816 -0.139180 -0.034434 0.207377 0.102491 0.158921 0.254764 -0.117079 0.251529 0.267459 -0.288058 -0.320514 0.592356 -0.329250 -0.103882 -0.478845
5 -0.200140 -0.525251 0.180692 -0.151229 0.040917 0.160515 0.140196 0.077952 0.312949 -0.160916 0.326724 0.322347 -0.297525 -0.250344 0.549565 -0.369525 -0.183201 -0.481824
13 -0.171944 -0.516326 0.262190 -0.187739 -0.012118 0.179597 0.100905 0.095308 0.230484 -0.096940 0.260395 0.257844 -0.269280 -0.305712 0.570047 -0.351766 -0.165254 -0.462254
10 -0.188960 -0.511362 0.240228 -0.110712 0.004179 0.204652 0.099675 0.167202 0.270687 -0.144137 0.292803 0.294870 -0.314426 -0.259712 0.553430 -0.316005 -0.098239 -0.443505
8 -0.170787 -0.508219 0.273998 -0.112718 -0.033796 0.185636 0.108534 0.163756 0.231766 -0.091769 0.241963 0.249760 -0.296637 -0.294706 0.571286 -0.342121 -0.081689 -0.460410
14 -0.203527 -0.516986 0.285310 -0.141097 -0.001827 0.180158 0.060140 0.150408 0.213231 -0.095066 0.239877 0.282916 -0.290064 -0.269720 0.550407 -0.305191 -0.093467 -0.451230
9 -0.213541 -0.490475 0.154204 -0.143061 0.033924 0.167044 0.124718 0.119503 0.352880 -0.164829 0.325288 0.345841 -0.273343 -0.267952 0.510231 -0.346975 -0.197413 -0.436216
12 -0.215854 -0.508926 0.263817 -0.146161 -0.031178 0.160873 0.048389 0.121936 0.181287 -0.085938 0.282625 0.277996 -0.293014 -0.255653 0.531126 -0.289308 -0.109938 -0.419052
17 -0.210501 -0.518046 0.211150 -0.109933 -0.007736 0.143067 0.129403 0.147687 0.335011 -0.129568 0.330971 0.345686 -0.270890 -0.237333 0.530798 -0.330693 -0.167753 -0.496536
3 -0.216433 -0.519088 0.297566 -0.129695 -0.007068 0.185262 0.106778 0.160160 0.214355 -0.127435 0.286564 0.255829 -0.327354 -0.324363 0.565292 -0.358623 -0.081097 -0.493643
4 -0.194741 -0.481845 0.253783 -0.111765 0.004978 0.153974 0.050019 0.188408 0.241389 -0.132494 0.300637 0.281627 -0.270582 -0.283100 0.553703 -0.333897 -0.110414 -0.469336
2 -0.166015 -0.504616 0.238047 -0.151273 -0.012407 0.176517 0.098207 0.144644 0.206213 -0.116856 0.255668 0.283448 -0.267971 -0.295398 0.541705 -0.350361 -0.139715 -0.425927
15 -0.206854 -0.506550 0.230669 -0.177134 0.021558 0.201361 0.136828 0.078109 0.275229 -0.144805 0.291710 0.282976 -0.262997 -0.260797 0.539977 -0.354552 -0.183480 -0.465023
0 -0.206271 -0.516994 0.234837 -0.171885 -0.018928 0.182805 0.067506 0.120757 0.234187 -0.121895 0.305733 0.284005 -0.277156 -0.262634 0.570166 -0.350983 -0.123814 -0.440092
16 -0.003066 0.009981 0.006043 0.000869 -0.007381 -0.001770 0.017455 -0.006904 0.000948 0.004908 -0.016488 0.011175 -0.012361 0.022003 0.021550 -0.015661 -0.025305 -0.027720
1 -0.027660 -0.027217 0.026180 -0.019122 0.012075 -0.026796 -0.004699 0.019366 0.022084 0.001540 -0.016522 -0.005216 0.015504 -0.011155 -0.013895 -0.016653 0.015775 -0.011908
