18 18
9 -0.002733 -0.335830 0.186740 -0.182066 -0.200070 0.112283 0.317438 0.425448 0.150056 -0.024545 -0.024046 0.389123 0.037186 -0.531155 0.271349 -0.443551 -0.254424 -0.313567
12 -0.017626 -0.383090 0.211354 -0.207563 -0.247274 0.108850 0.323390 0.420746 0.124854 -0.005030 0.006736 0.437169 0.038188 -0.525120 0.312176 -0.451122 -0.295117 -0.351378
3 -0.031802 -0.362154 0.245064 -0.189294 -0.218652 0.121123 0.350121 0.434040 0.104615 -0.032037 0.001700 0.385656 0.008440 -0.559396 0.303688 -0.491852 -0.245091 -0.382367
8 0.010745 -0.370352 0.207220 -0.167619 -0.241204 0.135296 0.332244 0.407128 0.123364 0.008707 -0.026108 0.375614 0.012038 -0.498188 0.312713 -0.441925 -0.220442 -0.323056
6 0.026732 -0.358900 0.223214 -0.168452 -0.218042 0.126533 0.354376 0.473341 0.134917 -0.023510 -0.018496 0.402170 0.043909 -0.573958 0.325626 -0.475788 -0.282844 -0.390349
15 -0.010345 -0.358398 0.223611 -0.206069 -0.208996 0.148470 0.338350 0.397625 0.127952 -0.030127 -0.008786 0.381932 0.041621 -0.518206 0.303584 -0.455112 -0.266606 -0.353736
4 0.044203 -0.278420 0.203205 -0.161251 -0.187910 0.100147 0.310566 0.457890 0.129282 -0.047261 -0.002713 0.373552 0.072703 -0.549115 0.296795 -0.463401 -0.265875 -0.387015
0 0.001599 -0.361302 0.200460 -0.207734 -0.233012 0.136900 0.305881 0.398366 0.121955 -0.015379 -0.002529 0.375631 0.036662 -0.507658 0.305419 -0.440432 -0.216218 -0.321843
11 -0.019707 -0.365474 0.224104 -0.178276 -0.196368 0.097374 0.299232 0.448608 0.141453 -0.044985 -0.029287 0.388978 0.026926 -0.506968 0.318167 -0.479346 -0.265492 -0.348667
10 0.004616 -0.338061 0.187595 -0.170345 -0.181683 0.138104 0.326421 0.393639 0.149276 -0.042622 -0.010420 0.375101 0.011560 -0.468819 0.256264 -0.401121 -0.222486 -0.293889
2 0.052026 -0.314608 0.194006 -0.166153 -0.211947 0.103532 0.335745 0.434593 0.096823 -0.020452 -0.040209 0.376294 0.059082 -0.530784 0.276023 -0.453426 -0.269419 -0.331420
13 0.029952 -0.349717 0.221914 -0.197439 -0.219143 0.114252 0.347532 0.408358 0.139153 0.004922 -0.043981 0.370494 0.045323 -0.550176 0.293699 -0.445364 -0.276975 -0.350894
1 -0.026362 -0.369385 0.233986 -0.198177 -0.195242 0.089087 0.313548 0.432018 0.143774 -0.020357 -0.033776 0.373279 0.047722 -0.518888 0.270231 -0.456295 -0.228081 -0.344474
16 0.046392 -0.288912 0.200129 -0.162327 -0.212544 0.106517 0.339826 0.420655 0.130719 -0.025500 -0.048164 0.369115 0.044976 -0.502542 0.321252 -0.460595 -0.287565 -0.389496
7 0.062277 -0.319662 0.170295 -0.172959 -0.234828 0.130140 0.329745 0.416020 0.151562 -0.017248 -0.047235 0.363565 0.051954 -0.535718 0.300064 -0.420415 -0.238757 -0.332336
14 -0.016145 -0.371163 0.240822 -0.209485 -0.201343 0.129495 0.308094 0.414281 0.107822 -0.003476 -0.036839 0.404791 0.024423 -0.528451 0.290416 -0.438246 -0.228330 -0.342123
17 0.007268 -0.367173 0.214124 -0.159787 -0.255296 0.097426 0.357596 0.439686 0.158387 0.019843 -0.012348 0.423611 0.047957 -0.509590 0.271354 -0.417748 -0.254482 -0.364734
5 0.004065 -0.024114 -0.027650 -0.000619 0.020703 -0.008521 0.024223 -0.023969 0.025914 -0.018771 0.021210 0.020548 -0.020024 0.006829 0.014933 -0.023795 -0.013973 -0.021943
