18 18
10 -0.230100 -0.610635 0.282144 -0.366545 -0.367371 0.046868 0.090711 0.090463 0.120445 0.254213 0.245074 0.444130 -0.110811 -0.155375 0.361177 -0.327419 0.008423 -0.202472
3 -0.212555 -0.574012 0.294528 -0.345388 -0.369644 0.003514 0.106548 0.099495 0.074712 0.262654 0.216061 0.366627 -0.081158 -0.249999 0.332982 -0.365965 0.043344 -0.248017
0 -0.203522 -0.589599 0.283252 -0.377994 -0.401400 0.019276 0.062313 0.093246 0.076652 0.279267 0.231751 0.387336 -0.051992 -0.206872 0.376021 -0.356819 0.030829 -0.223876
2 -0.180024 -0.616631 0.287002 -0.383131 -0.407447 -0.004521 0.103823 0.118565 0.071192 0.290193 0.204610 0.417962 -0.036726 -0.267573 0.351852 -0.388185 0.004506 -0.229146
1 -0.217434 -0.609121 0.296661 -0.373587 -0.372159 -0.027754 0.083143 0.116072 0.111888 0.279230 0.190353 0.380437 -0.037176 -0.245046 0.330645 -0.363872 0.032665 -0.239959
6 -0.212768 -0.610489 0.298168 -0.341458 -0.370181 0.013981 0.097988 0.122836 0.102134 0.274034 0.223285 0.399790 -0.080702 -0.227689 0.368350 -0.355963 0.006160 -0.251641
4 -0.199114 -0.562473 0.278300 -0.345231 -0.363588 -0.008662 0.065644 0.121236 0.099815 0.260654 0.230196 0.406080 -0.048879 -0.216537 0.345399 -0.353282 0.014958 -0.239102
12 -0.256147 -0.621201 0.301990 -0.392437 -0.387541 -0.002268 0.036370 0.077363 0.082507 0.297089 0.239833 0.444779 -0.083057 -0.186027 0.381378 -0.338004 -0.028985 -0.211603
13 -0.186946 -0.581003 0.301636 -0.379165 -0.391967 0.001646 0.074709 0.083206 0.101903 0.304837 0.188092 0.384159 -0.052003 -0.222786 0.375551 -0.351168 -0.018127 -0.230503
9 -0.230646 -0.600784 0.265831 -0.375105 -0.379794 0.007479 0.066851 0.118522 0.127460 0.270630 0.226183 0.436110 -0.067523 -0.227917 0.353257 -0.352811 -0.005526 -0.201710
11 -0.249488 -0.605907 0.309882 -0.352982 -0.349769 0.002004 0.044252 0.128150 0.121003 0.248783 0.202923 0.411077 -0.098048 -0.177718 0.393343 -0.375581 -0.005582 -0.227992
5 -0.185433 -0.576852 0.232407 -0.346156 -0.335682 -0.003812 0.097136 0.068824 0.115796 0.236538 0.224825 0.401532 -0.079025 -0.204274 0.356195 -0.360830 -0.002819 -0.238572
7 -0.176400 -0.610149 0.263114 -0.380919 -0.427941 0.028676 0.098986 0.111892 0.132635 0.287440 0.215305 0.428128 -0.053636 -0.262634 0.392333 -0.358870 0.016172 -0.245116
14 -0.236136 -0.623915 0.326786 -0.394439 -0.377492 0.010690 0.053326 0.098024 0.081672 0.305791 0.192377 0.431350 -0.075941 -0.210780 0.367261 -0.349731 0.022179 -0.225932
8 -0.181812 -0.601761 0.296291 -0.351688 -0.414856 0.015850 0.096661 0.097811 0.077814 0.313840 0.181898 0.381497 -0.061519 -0.211799 0.363529 -0.355432 0.030187 -0.212352
17 -0.188314 -0.548880 0.277795 -0.316342 -0.400527 -0.014549 0.087268 0.099121 0.098308 0.299858 0.196694 0.376783 -0.033497 -0.177791 0.311630 -0.291009 0.011289 -0.226965
15 -0.243424 -0.605017 0.306506 -0.383576 -0.368483 0.043732 0.086762 0.076866 0.107571 0.264587 0.230115 0.413377 -0.075763 -0.179886 0.379294 -0.354568 -0.014628 -0.238058
16 -0.218745 -0.559607 0.288097 -0.343226 -0.360192 0.014449 0.093103 0.092858 0.092001 0.266564 0.189138 0.403269 -0.092579 -0.162395 0.360064 -0.350171 -0.010015 -0.236149
