18 18
2 -0.066451 -0.510623 -0.067080 -0.321454 -0.258617 0.322764 0.354482 -0.048509 0.335803 -0.052601 0.279468 0.560964 -0.123185 -0.246158 0.411981 -0.276136 -0.245224 -0.277242
9 -0.102646 -0.474762 -0.096337 -0.306979 -0.269762 0.314802 0.347252 -0.094671 0.347774 -0.035477 0.321299 0.556094 -0.148208 -0.211782 0.366731 -0.227552 -0.231212 -0.244020
12 -0.143853 -0.457371 -0.035326 -0.321975 -0.273616 0.291088 0.285713 -0.134853 0.257913 -0.021056 0.348084 0.518710 -0.140479 -0.143247 0.383452 -0.196459 -0.239334 -0.273803
10 -0.103078 -0.509720 -0.097735 -0.324380 -0.272908 0.359106 0.378790 -0.120975 0.359536 -0.059771 0.351864 0.588419 -0.180352 -0.175671 0.385433 -0.214058 -0.224897 -0.252111
7 -0.027846 -0.493503 -0.125273 -0.306016 -0.254426 0.307285 0.343323 -0.060629 0.398563 -0.051397 0.224211 0.542942 -0.131251 -0.254789 0.412965 -0.238087 -0.217010 -0.265010
5 -0.079743 -0.495790 -0.113493 -0.295621 -0.232955 0.289801 0.362913 -0.122646 0.365712 -0.055343 0.308751 0.550409 -0.165044 -0.180819 0.387967 -0.243468 -0.232673 -0.282352
0 -0.153777 -0.460672 -0.029490 -0.350597 -0.300286 0.344208 0.293341 -0.136398 0.258562 -0.047152 0.389284 0.517232 -0.144145 -0.144138 0.430999 -0.240683 -0.203956 -0.296895
13 -0.080416 -0.463560 -0.035760 -0.323645 -0.259109 0.305841 0.322313 -0.092025 0.334750 -0.027391 0.285831 0.500310 -0.114595 -0.215079 0.422729 -0.243179 -0.251909 -0.305837
4 -0.127829 -0.419632 -0.021898 -0.305014 -0.249203 0.302606 0.278971 -0.073460 0.280972 -0.057770 0.357257 0.507603 -0.109459 -0.178247 0.399240 -0.235047 -0.217353 -0.318302
11 -0.095713 -0.457458 -0.045733 -0.268711 -0.205049 0.269303 0.277106 -0.035484 0.335730 -0.068315 0.245440 0.488238 -0.131207 -0.178214 0.401543 -0.248111 -0.224763 -0.266729
16 -0.093201 -0.466756 -0.066741 -0.306580 -0.258119 0.302193 0.342944 -0.094903 0.329042 -0.041199 0.274403 0.537972 -0.157801 -0.176834 0.422177 -0.254894 -0.247842 -0.305135
15 -0.179718 -0.417578 0.023316 -0.327550 -0.256292 0.331201 0.287772 -0.147949 0.226851 -0.050929 0.372429 0.460842 -0.124097 -0.114703 0.393175 -0.215412 -0.233450 -0.311853
1 -0.110583 -0.574526 -0.056024 -0.350011 -0.239891 0.285037 0.349512 -0.044019 0.411704 -0.046672 0.255827 0.576166 -0.129253 -0.249866 0.419160 -0.287161 -0.230718 -0.310390
14 -0.076267 -0.508029 -0.051578 -0.312218 -0.191863 0.270209 0.292441 -0.055439 0.345745 -0.029751 0.179551 0.512296 -0.136544 -0.231576 0.380683 -0.234876 -0.192658 -0.257799
8 -0.092518 -0.477659 -0.050323 -0.294778 -0.275226 0.324459 0.341859 -0.100840 0.307663 -0.024166 0.298461 0.509636 -0.160978 -0.178709 0.400554 -0.238451 -0.196000 -0.262157
17 -0.106279 -0.465287 -0.042239 -0.301506 -0.292526 0.300135 0.328028 -0.077260 0.329489 -0.022246 0.323919 0.549893 -0.114424 -0.169275 0.388016 -0.208920 -0.222009 -0.314475
3 -0.196372 -0.442351 0.028858 -0.330068 -0.272699 0.322641 0.307472 -0.131582 0.216991 -0.051053 0.389638 0.477490 -0.169659 -0.169674 0.395307 -0.246495 -0.191826 -0.333153
6 -0.080034 -0.466798 -0.039289 -0.271841 -0.236235 0.309379 0.322731 -0.047023 0.317620 -0.042419 0.288043 0.494657 -0.127911 -0.215565 0.416651 -0.239100 -0.229995 -0.301651
