18 18
0 -0.233540 -0.459002 0.127548 -0.477527 -0.000609 0.051275 -0.035069 0.008979 0.235369 -0.114305 0.323535 0.522441 -0.039640 -0.285550 0.332425 -0.327485 -0.176251 -0.305247
4 -0.213552 -0.424211 0.116659 -0.462036 0.044512 0.039810 -0.037863 0.054477 0.243588 -0.151973 0.318987 0.523055 -0.014083 -0.321835 0.306846 -0.342595 -0.192567 -0.316250
1 -0.266508 -0.489156 0.157310 -0.502202 0.039272 0.013416 -0.027970 0.045308 0.274845 -0.124743 0.278725 0.515904 -0.019727 -0.316955 0.282429 -0.337415 -0.190895 -0.302868
2 -0.206067 -0.467030 0.120709 -0.497487 0.025784 0.050551 -0.004400 0.046244 0.237892 -0.135751 0.278116 0.537559 -0.011046 -0.322852 0.299373 -0.345703 -0.228655 -0.273673
10 -0.246083 -0.487160 0.127384 -0.493256 0.051904 0.063473 -0.006656 0.034248 0.302588 -0.151903 0.312446 0.553996 -0.052763 -0.297299 0.290840 -0.308714 -0.203010 -0.276517
9 -0.224503 -0.429683 0.095742 -0.472122 0.021881 0.039458 -0.016645 0.034589 0.269448 -0.120017 0.274516 0.511617 -0.018476 -0.317239 0.275374 -0.309330 -0.210019 -0.261780
15 -0.236510 -0.412981 0.138407 -0.445217 0.024482 0.067269 -0.005503 -0.014295 0.223334 -0.114268 0.273875 0.457659 -0.037199 -0.260452 0.286897 -0.299986 -0.189732 -0.298182
3 -0.251891 -0.460869 0.141487 -0.469794 0.038077 0.038485 -0.002143 0.032085 0.229499 -0.147390 0.322830 0.512849 -0.065745 -0.339790 0.293208 -0.352804 -0.172450 -0.318497
7 -0.185872 -0.438857 0.096896 -0.467501 -0.005922 0.070765 -0.013715 0.039539 0.266665 -0.127741 0.271563 0.508204 -0.019572 -0.329039 0.328207 -0.319509 -0.185471 -0.301695
13 -0.229963 -0.490886 0.146624 -0.534939 0.031779 0.038702 -0.010563 0.004889 0.275863 -0.116031 0.284720 0.530312 -0.028195 -0.345284 0.319066 -0.342143 -0.240894 -0.314591
14 -0.252534 -0.491734 0.160320 -0.507106 0.035455 0.059485 -0.033259 0.016539 0.243993 -0.114752 0.288625 0.560836 -0.051904 -0.309940 0.330475 -0.337788 -0.187024 -0.330613
11 -0.258057 -0.480767 0.135421 -0.468757 0.055923 0.029171 -0.040670 0.057605 0.285500 -0.159775 0.292388 0.533112 -0.052248 -0.286297 0.321690 -0.343910 -0.223323 -0.287192
12 -0.272864 -0.500572 0.137101 -0.508412 0.025269 0.025210 -0.045881 -0.000676 0.251068 -0.107787 0.317771 0.563038 -0.045054 -0.283993 0.304553 -0.302561 -0.245497 -0.275981
17 -0.229456 -0.446518 0.132953 -0.449492 -0.001379 0.024341 -0.005729 0.042651 0.273841 -0.102892 0.300283 0.539910 -0.018814 -0.287752 0.289180 -0.302836 -0.198406 -0.324342
6 -0.247226 -0.496322 0.152337 -0.481615 0.030155 0.059222 -0.005980 0.044700 0.265180 -0.125407 0.313073 0.532061 -0.046236 -0.329074 0.329726 -0.334390 -0.213430 -0.331825
8 -0.234073 -0.482779 0.150540 -0.470970 0.003925 0.056114 -0.014930 0.033783 0.253060 -0.102019 0.288787 0.528321 -0.049291 -0.299532 0.335396 -0.339999 -0.184119 -0.305087
5 -0.217557 -0.471265 0.091498 -0.455434 0.050903 0.026682 0.009749 -0.002612 0.258288 -0.139917 0.303073 0.517937 -0.057003 -0.275755 0.302125 -0.337350 -0.209640 -0.299445
16 -0.252693 -0.483025 0.143967 -0.518841 0.018538 0.047142 0.000647 0.019137 0.274878 -0.134426 0.304674 0.572774 -0.052002 -0.310454 0.349451 -0.371298 -0.233536 -0.359173
