18 18
11 -0.305748 -0.457908 0.383752 -0.321503 -0.158511 -0.033931 0.015988 0.242338 0.423884 0.012336 0.094130 0.230194 0.135251 -0.151259 0.332650 -0.349690 -0.080550 -0.446224
17 -0.296594 -0.471889 0.400206 -0.310789 -0.204560 -0.031606 0.054462 0.252039 0.459698 0.063312 0.119975 0.293966 0.163532 -0.132614 0.318965 -0.304481 -0.076793 -0.500215
2 -0.260971 -0.453532 0.377773 -0.336515 -0.182345 -0.015202 0.047426 0.246440 0.387411 0.038843 0.091948 0.252984 0.172920 -0.188119 0.307358 -0.345073 -0.078249 -0.435482
10 -0.284839 -0.484677 0.389327 -0.336132 -0.175289 0.013316 0.052451 0.260707 0.509472 0.019437 0.141510 0.310799 0.160631 -0.131102 0.342784 -0.299592 -0.078035 -0.483084
0 -0.288514 -0.464997 0.387149 -0.360527 -0.202256 -0.002477 0.029693 0.222780 0.399490 0.039653 0.125691 0.215250 0.164177 -0.181995 0.330711 -0.350422 -0.036598 -0.455343
13 -0.296721 -0.492137 0.429005 -0.400845 -0.198594 -0.021576 0.048889 0.223099 0.450074 0.054480 0.099144 0.217165 0.185071 -0.229673 0.343936 -0.373421 -0.092193 -0.491382
1 -0.314712 -0.488651 0.418588 -0.365699 -0.162939 -0.037789 0.035039 0.249684 0.449513 0.036686 0.091314 0.227215 0.172580 -0.187210 0.309636 -0.349399 -0.053566 -0.467690
4 -0.283105 -0.440843 0.394704 -0.313348 -0.165855 -0.036519 0.017054 0.270490 0.457113 0.033426 0.137705 0.284728 0.182616 -0.146577 0.323903 -0.313519 -0.079026 -0.498337
15 -0.321274 -0.488406 0.416124 -0.378911 -0.171080 0.008095 0.045456 0.210387 0.431572 0.018837 0.117756 0.211310 0.162519 -0.176131 0.336018 -0.362145 -0.081016 -0.466680
9 -0.298684 -0.453397 0.362185 -0.369533 -0.178302 -0.013129 0.034487 0.231635 0.428031 0.027912 0.103044 0.225898 0.161228 -0.231500 0.308861 -0.364042 -0.081523 -0.418736
7 -0.292742 -0.489631 0.394122 -0.376634 -0.212300 0.002293 0.046333 0.251511 0.479574 0.030129 0.103692 0.253867 0.170722 -0.213432 0.359081 -0.353544 -0.061297 -0.486095
8 -0.285463 -0.484872 0.400881 -0.338129 -0.194801 -0.002750 0.052987 0.234950 0.416042 0.054072 0.091244 0.225657 0.138990 -0.177461 0.341582 -0.358951 -0.050848 -0.450162
12 -0.317631 -0.500000 0.404224 -0.367387 -0.194247 -0.022272 0.021908 0.222056 0.458488 0.054120 0.150207 0.314107 0.167273 -0.142883 0.347597 -0.301466 -0.125854 -0.480149
3 -0.319666 -0.445785 0.413018 -0.332181 -0.165763 -0.015419 0.056437 0.219698 0.367450 0.022384 0.112653 0.193619 0.113555 -0.198598 0.296592 -0.355571 -0.031890 -0.459700
6 -0.280313 -0.480845 0.409324 -0.318072 -0.184741 -0.001512 0.057240 0.255519 0.440925 0.048422 0.116804 0.256948 0.154821 -0.168330 0.350226 -0.323418 -0.086182 -0.495161
16 -0.281163 -0.447523 0.386027 -0.330399 -0.184706 -0.010092 0.056166 0.223304 0.451108 0.046045 0.098369 0.289626 0.150353 -0.118710 0.352738 -0.317080 -0.115439 -0.492031
14 -0.309353 -0.502635 0.434793 -0.372744 -0.169395 -0.000639 0.023531 0.236847 0.437683 0.059834 0.085765 0.287928 0.159273 -0.164374 0.345656 -0.328927 -0.066355 -0.479557
5 0.004065 -0.024114 -0.027650 -0.000619 0.020703 -0.008521 0.024223 -0.023969 0.025914 -0.018771 0.021210 0.020548 -0.020024 0.006829 0.014933 -0.023795 -0.013973 -0.021943
