18 18
0 -0.236083 -0.240099 0.190853 -0.098832 0.070398 -0.148339 0.149279 0.086846 0.082613 -0.162703 0.480239 0.255492 -0.188797 -0.354907 0.265484 -0.525458 0.005019 -0.661092
3 -0.260293 -0.219332 0.238164 -0.058239 0.095904 -0.169731 0.181471 0.101831 0.046080 -0.155774 0.441700 0.209816 -0.216954 -0.390811 0.206048 -0.525396 0.021618 -0.649990
2 -0.201444 -0.239426 0.176769 -0.053270 0.095227 -0.161502 0.184987 0.158420 0.047093 -0.202402 0.457968 0.245369 -0.191187 -0.416697 0.228378 -0.572100 0.005976 -0.620489
6 -0.219367 -0.223602 0.208953 -0.038825 0.094863 -0.168870 0.175754 0.118366 0.081819 -0.146775 0.440489 0.236385 -0.188893 -0.363898 0.233760 -0.501334 -0.025747 -0.657262
1 -0.275746 -0.258688 0.242334 -0.095261 0.094213 -0.189262 0.149497 0.118857 0.083009 -0.148784 0.419191 0.224675 -0.180222 -0.382478 0.208719 -0.528015 0.027106 -0.635911
11 -0.231408 -0.219943 0.183253 -0.025878 0.125351 -0.176136 0.128746 0.145303 0.082708 -0.203894 0.423518 0.220919 -0.206744 -0.335301 0.234752 -0.522571 0.002240 -0.609902
12 -0.245057 -0.239234 0.194890 -0.106562 0.055812 -0.180766 0.136451 0.041104 0.064366 -0.101643 0.442143 0.279272 -0.173637 -0.330330 0.224728 -0.462422 -0.070215 -0.608178
13 -0.213786 -0.249215 0.228805 -0.142444 0.060848 -0.186852 0.199156 0.025249 0.142509 -0.093096 0.442622 0.274404 -0.153800 -0.387514 0.263774 -0.509773 -0.100270 -0.698169
15 -0.272204 -0.279539 0.239580 -0.137528 0.087445 -0.150211 0.206551 0.033949 0.116766 -0.147622 0.500439 0.290970 -0.185397 -0.386677 0.275668 -0.550424 -0.080140 -0.729432
7 -0.202850 -0.242672 0.176122 -0.091401 0.061067 -0.141358 0.180643 0.103343 0.136097 -0.164165 0.444158 0.258980 -0.182092 -0.401153 0.269019 -0.511043 -0.010733 -0.654678
8 -0.231615 -0.249404 0.217050 -0.041538 0.097046 -0.168030 0.188502 0.126998 0.065117 -0.168085 0.471055 0.236300 -0.229133 -0.394472 0.252953 -0.574048 0.023547 -0.663760
16 -0.247986 -0.238191 0.235865 -0.120933 0.052230 -0.180719 0.190304 0.038756 0.125678 -0.093123 0.407007 0.286498 -0.180575 -0.307539 0.275429 -0.510453 -0.089774 -0.689466
14 -0.243930 -0.256898 0.244636 -0.156623 0.057068 -0.160665 0.146010 0.014527 0.124500 -0.061196 0.365903 0.288084 -0.152003 -0.305399 0.243346 -0.428988 -0.066139 -0.631628
9 -0.233705 -0.242881 0.190765 -0.105665 0.065997 -0.154670 0.175115 0.095265 0.131525 -0.132940 0.432155 0.272412 -0.176573 -0.392148 0.238496 -0.505779 -0.040332 -0.614973
17 -0.246846 -0.255847 0.233512 -0.118405 0.025009 -0.196341 0.176175 0.046424 0.164817 -0.058461 0.400638 0.306381 -0.135919 -0.291189 0.230373 -0.438251 -0.079681 -0.667866
10 -0.212261 -0.234167 0.176934 -0.042471 0.112739 -0.133549 0.186060 0.120839 0.097811 -0.199138 0.458073 0.241193 -0.221151 -0.353188 0.219399 -0.503495 0.022015 -0.605265
4 -0.219300 -0.162140 0.168598 -0.004017 0.160746 -0.220406 0.133881 0.139934 0.062011 -0.216404 0.515063 0.250775 -0.188167 -0.367986 0.198625 -0.540310 -0.006397 -0.687408
5 -0.211572 -0.231001 0.140616 -0.015598 0.166613 -0.200881 0.198585 0.105904 0.094585 -0.238721 0.532790 0.269043 -0.233238 -0.380609 0.239283 -0.584563 -0.023302 -0.710433
