18 18
16 -0.138711 -0.490271 0.103460 -0.132157 -0.146599 0.230417 0.211191 -0.046395 0.320043 0.074249 0.100001 0.503663 -0.330510 0.082057 0.585076 -0.166058 -0.416342 -0.309196
9 -0.148724 -0.516685 0.072389 -0.142908 -0.137017 0.246279 0.200601 -0.019445 0.372520 0.061474 0.117600 0.542548 -0.341347 0.030721 0.587541 -0.174191 -0.432520 -0.263862
15 -0.166014 -0.551749 0.120021 -0.163863 -0.138963 0.275266 0.223482 -0.073381 0.357644 0.061017 0.129393 0.522736 -0.348318 0.080013 0.624392 -0.172392 -0.435793 -0.318777
17 -0.154222 -0.547080 0.109680 -0.126593 -0.182302 0.224145 0.217715 -0.034069 0.372803 0.105560 0.124328 0.549583 -0.333740 0.083863 0.587067 -0.139407 -0.409621 -0.314482
12 -0.166021 -0.539621 0.104222 -0.155490 -0.145181 0.227077 0.176577 -0.062335 0.299491 0.082380 0.132926 0.519045 -0.340537 0.068421 0.583516 -0.152499 -0.427214 -0.265408
5 -0.130527 -0.512123 0.075580 -0.129537 -0.105732 0.211393 0.206132 -0.067171 0.322738 0.048908 0.126048 0.479888 -0.331101 0.064203 0.564549 -0.178689 -0.389076 -0.293212
14 -0.160369 -0.545235 0.124966 -0.163129 -0.139974 0.252986 0.186358 -0.048682 0.339770 0.090263 0.093283 0.535627 -0.353063 0.063177 0.600517 -0.151346 -0.397939 -0.287761
8 -0.125470 -0.504503 0.108977 -0.121208 -0.153404 0.231123 0.195140 -0.034360 0.304415 0.090635 0.091065 0.464336 -0.327717 0.058041 0.564234 -0.159992 -0.352892 -0.261735
10 -0.141906 -0.537183 0.085816 -0.143279 -0.133494 0.276642 0.225594 -0.046178 0.382716 0.048009 0.143157 0.551667 -0.364640 0.086448 0.607003 -0.149762 -0.425204 -0.289317
6 -0.137077 -0.534818 0.109406 -0.104897 -0.118365 0.249740 0.219983 -0.018275 0.322221 0.063646 0.126656 0.504890 -0.354786 0.046024 0.608205 -0.172523 -0.431871 -0.309365
7 -0.116552 -0.539078 0.082569 -0.152666 -0.169483 0.265157 0.216785 -0.049118 0.376059 0.071261 0.105833 0.523243 -0.341149 0.043068 0.630922 -0.157142 -0.407861 -0.310492
0 -0.152993 -0.545477 0.106859 -0.171213 -0.170405 0.257538 0.189619 -0.045747 0.327654 0.074045 0.139222 0.515629 -0.330818 0.059528 0.620565 -0.181491 -0.398465 -0.292050
11 -0.163069 -0.551420 0.113177 -0.133228 -0.131533 0.236107 0.184461 -0.017419 0.347399 0.050564 0.104814 0.513449 -0.356619 0.074096 0.621352 -0.191354 -0.420294 -0.283284
13 -0.124381 -0.513805 0.109149 -0.166998 -0.144218 0.231074 0.195428 -0.060684 0.333420 0.083770 0.093201 0.477124 -0.320313 0.033612 0.594319 -0.172924 -0.425127 -0.281145
4 -0.145587 -0.510675 0.104367 -0.128966 -0.128153 0.232362 0.187317 -0.015848 0.356590 0.055001 0.142760 0.533492 -0.330483 0.059705 0.606539 -0.171953 -0.418276 -0.323231
2 -0.112370 -0.517134 0.099951 -0.132272 -0.128314 0.232269 0.210169 -0.017475 0.276798 0.055725 0.101438 0.493326 -0.312424 0.037044 0.569803 -0.196194 -0.414329 -0.267977
1 -0.027660 -0.027217 0.026180 -0.019122 0.012075 -0.026796 -0.004699 0.019366 0.022084 0.001540 -0.016522 -0.005216 0.015504 -0.011155 -0.013895 -0.016653 0.015775 -0.011908
3 -0.024675 0.005665 0.025365 0.004601 0.007865 -0.001883 0.014761 -0.000233 -0.026227 -0.010111 0.011993 -0.020661 -0.026950 -0.026588 -0.012274 -0.019090 0.026092 -0.020014
