18 18
12 -0.476223 -0.483460 0.519677 -0.497786 0.096436 -0.095876 -0.001177 -0.189261 0.102907 0.144905 0.015478 0.348684 -0.191963 -0.256510 0.254140 -0.319249 -0.269405 -0.463294
13 -0.390855 -0.412051 0.480234 -0.442125 0.095791 -0.098706 0.052678 -0.162684 0.140229 0.132229 -0.021272 0.277691 -0.153442 -0.238126 0.213107 -0.294989 -0.229958 -0.447376
4 -0.423948 -0.392766 0.478350 -0.428054 0.125005 -0.120704 0.000952 -0.111111 0.139846 0.096220 0.022257 0.318014 -0.149856 -0.253046 0.216835 -0.323675 -0.222962 -0.472694
16 -0.430366 -0.410342 0.490063 -0.443079 0.094515 -0.105042 0.038201 -0.145772 0.122334 0.126004 -0.029375 0.320090 -0.187073 -0.229116 0.253271 -0.344058 -0.251104 -0.471360
11 -0.453528 -0.441549 0.500927 -0.447165 0.118566 -0.107367 -0.007608 -0.124317 0.120439 0.101549 -0.021392 0.310796 -0.197975 -0.258201 0.264769 -0.360761 -0.241121 -0.449167
3 -0.443178 -0.399343 0.510052 -0.437387 0.113813 -0.106380 0.028009 -0.142454 0.063441 0.117739 -0.016326 0.269222 -0.202125 -0.287837 0.199325 -0.339532 -0.184093 -0.442335
2 -0.418279 -0.445807 0.493521 -0.471972 0.108604 -0.094029 0.023220 -0.133264 0.076267 0.117450 -0.020950 0.321754 -0.171488 -0.305508 0.232877 -0.366228 -0.242590 -0.432997
7 -0.413256 -0.437891 0.468682 -0.466692 0.091726 -0.077959 0.018042 -0.146771 0.147451 0.109269 -0.005504 0.319027 -0.166488 -0.288182 0.262102 -0.323277 -0.238474 -0.465000
9 -0.413873 -0.399147 0.443042 -0.442122 0.103988 -0.094286 -0.000996 -0.133120 0.108133 0.117746 -0.011053 0.299968 -0.166121 -0.289893 0.216761 -0.322707 -0.229603 -0.391703
5 -0.422602 -0.450765 0.458947 -0.444248 0.126330 -0.106083 0.053061 -0.165695 0.146341 0.097048 0.015422 0.328826 -0.192535 -0.243260 0.240297 -0.348577 -0.240461 -0.473454
15 -0.452267 -0.457083 0.506778 -0.474288 0.117193 -0.066599 0.042189 -0.170058 0.141051 0.102759 0.010220 0.317732 -0.167955 -0.241880 0.243758 -0.332283 -0.252235 -0.479906
10 -0.430259 -0.443390 0.481819 -0.450131 0.125035 -0.079945 0.059791 -0.136636 0.181543 0.093468 0.004562 0.355625 -0.195175 -0.230139 0.212855 -0.313453 -0.220384 -0.459240
17 -0.441044 -0.452838 0.503521 -0.442058 0.089162 -0.120816 0.046396 -0.113891 0.197865 0.134164 0.002290 0.373437 -0.156464 -0.229135 0.205066 -0.298539 -0.218297 -0.499372
1 -0.427336 -0.437549 0.480709 -0.447086 0.118254 -0.112928 0.023351 -0.109284 0.161634 0.103783 -0.020855 0.304919 -0.147164 -0.253378 0.206282 -0.324814 -0.203632 -0.441942
14 -0.456096 -0.468097 0.536487 -0.491072 0.128912 -0.087415 -0.000096 -0.155531 0.106432 0.136725 -0.038480 0.327326 -0.184961 -0.273088 0.235897 -0.322723 -0.213453 -0.458639
8 -0.429100 -0.460881 0.504145 -0.451177 0.083993 -0.088983 0.034028 -0.145025 0.114489 0.149628 -0.033114 0.315393 -0.203209 -0.259110 0.259979 -0.352809 -0.213988 -0.436695
6 -0.412568 -0.435813 0.481416 -0.415768 0.107872 -0.082064 0.042727 -0.128130 0.127490 0.110341 0.012679 0.297785 -0.174376 -0.257692 0.246479 -0.315743 -0.238186 -0.470650
0 -0.005399 -0.014495 0.001279 -0.026652 -0.021820 0.016369 -0.010898 -0.008016 -0.006711 0.000758 0.022893 0.001004 0.004839 -0.000095 0.023655 -0.011355 0.019530 -0.003746
