18 18
10 -0.284384 -0.552600 0.141817 -0.347591 -0.147613 0.294818 0.187198 -0.466508 0.282736 0.120231 0.269888 0.437911 -0.228571 0.390351 0.382314 0.179524 -0.420064 -0.229732
0 -0.276394 -0.528302 0.179802 -0.320677 -0.148886 0.251032 0.202449 -0.300106 0.224792 0.045384 0.275942 0.357147 -0.185768 0.188987 0.409664 -0.034676 -0.321436 -0.328569
11 -0.280594 -0.557242 0.149643 -0.306485 -0.137588 0.256428 0.177271 -0.372597 0.272054 0.081057 0.230372 0.390365 -0.222594 0.320542 0.412273 0.073854 -0.392095 -0.248670
5 -0.281520 -0.557408 0.157327 -0.293020 -0.106508 0.208662 0.247405 -0.264238 0.250145 0.005977 0.288530 0.363223 -0.198878 0.112474 0.386712 -0.104372 -0.311821 -0.363966
6 -0.287720 -0.547560 0.208002 -0.254890 -0.123709 0.217664 0.276763 -0.157805 0.226575 -0.009396 0.306456 0.342877 -0.185338 0.012194 0.388323 -0.153318 -0.278231 -0.426197
17 -0.290012 -0.546499 0.154360 -0.299036 -0.178894 0.224045 0.194508 -0.374813 0.265009 0.127439 0.262893 0.430947 -0.195262 0.325728 0.355553 0.114236 -0.386206 -0.269826
1 -0.373928 -0.569568 0.289887 -0.310456 -0.111549 0.174662 0.256354 -0.140890 0.225294 -0.026600 0.324868 0.360326 -0.168639 -0.002644 0.375253 -0.213037 -0.264091 -0.482421
13 -0.287061 -0.545613 0.190115 -0.356323 -0.151522 0.245975 0.197862 -0.399874 0.240181 0.108095 0.255571 0.372880 -0.194913 0.242509 0.403312 0.052621 -0.404186 -0.311255
14 -0.291034 -0.538932 0.186458 -0.347010 -0.128275 0.249727 0.162078 -0.408919 0.220115 0.123858 0.212458 0.391643 -0.209100 0.288748 0.367330 0.101396 -0.359241 -0.251161
3 -0.445426 -0.525015 0.407753 -0.285748 -0.091998 0.150524 0.291861 0.012311 0.094896 -0.131599 0.436412 0.326036 -0.190294 -0.207351 0.377606 -0.421279 -0.174064 -0.648377
2 -0.384562 -0.544220 0.348430 -0.305195 -0.111884 0.171000 0.288418 -0.025593 0.126957 -0.100583 0.401319 0.375435 -0.155820 -0.135496 0.390259 -0.366322 -0.249520 -0.577388
15 -0.298705 -0.525134 0.176433 -0.350493 -0.131624 0.275053 0.170902 -0.430661 0.221207 0.104268 0.230544 0.362499 -0.186625 0.323010 0.370920 0.096494 -0.396761 -0.233659
12 -0.286232 -0.550609 0.113676 -0.339179 -0.165676 0.244147 0.138145 -0.475637 0.239760 0.156105 0.243913 0.424499 -0.213566 0.397462 0.364858 0.189204 -0.432751 -0.175771
16 -0.262668 -0.500370 0.161061 -0.304909 -0.147488 0.243027 0.209400 -0.363068 0.233693 0.082837 0.219660 0.386899 -0.209842 0.296378 0.406870 0.030611 -0.393604 -0.301875
9 -0.295857 -0.542087 0.167636 -0.293570 -0.122815 0.210842 0.251544 -0.176997 0.260178 -0.010203 0.299425 0.369983 -0.173660 0.010933 0.373141 -0.155542 -0.290375 -0.372775
8 -0.301929 -0.558791 0.239894 -0.268751 -0.134319 0.200707 0.277716 -0.116147 0.206156 -0.016822 0.291649 0.331018 -0.185496 -0.040000 0.389769 -0.233666 -0.225326 -0.434733
4 -0.428133 -0.498954 0.387617 -0.266939 -0.072299 0.115304 0.257186 0.084231 0.127973 -0.158935 0.460049 0.345823 -0.134574 -0.235196 0.375978 -0.450722 -0.179668 -0.668961
7 -0.262103 -0.493331 0.170076 -0.280318 -0.140071 0.217431 0.224491 -0.190553 0.229878 -0.002818 0.267348 0.336546 -0.160794 0.044403 0.364212 -0.098598 -0.259065 -0.361178
