18 18
12 -0.566804 -0.536435 0.215753 -0.357242 -0.059360 -0.089742 -0.019900 0.032538 0.220804 -0.005082 0.444738 0.618324 -0.134558 -0.116855 0.069960 -0.158119 -0.149105 -0.239414
9 -0.584062 -0.481988 0.185086 -0.246896 0.024848 -0.125848 0.083758 0.123933 0.305413 -0.091945 0.390340 0.589656 -0.230101 -0.175452 0.083228 -0.338478 -0.138076 -0.298483
1 -0.575872 -0.544186 0.250960 -0.345879 -0.015906 -0.098491 0.006926 0.111709 0.269858 -0.037717 0.343160 0.559688 -0.154850 -0.174389 0.090328 -0.265735 -0.062085 -0.275066
5 -0.508360 -0.459535 0.160098 -0.204150 0.039637 -0.123627 0.112163 0.065454 0.272401 -0.095989 0.369517 0.527864 -0.240301 -0.113810 0.104097 -0.323547 -0.143995 -0.310525
11 -0.585946 -0.490018 0.209821 -0.200742 0.043065 -0.116663 0.081929 0.135086 0.287019 -0.119695 0.334977 0.530914 -0.282021 -0.130623 0.145208 -0.376451 -0.122470 -0.309612
14 -0.539326 -0.508341 0.228435 -0.360671 -0.030012 -0.030282 -0.014201 0.071850 0.223068 -0.028431 0.307719 0.547926 -0.177541 -0.171173 0.119633 -0.232768 -0.030778 -0.237448
17 -0.617519 -0.529321 0.233348 -0.235574 -0.001150 -0.142478 0.113177 0.124397 0.323301 -0.074805 0.422607 0.621727 -0.253803 -0.147635 0.101034 -0.344313 -0.131545 -0.372438
3 -0.596761 -0.477329 0.234737 -0.223088 0.033710 -0.104423 0.104868 0.107635 0.235435 -0.108317 0.362637 0.509897 -0.291929 -0.172255 0.113079 -0.376558 -0.082405 -0.323100
2 -0.547603 -0.515891 0.217851 -0.302194 -0.018155 -0.108466 0.053766 0.097480 0.234702 -0.054292 0.401468 0.602140 -0.169319 -0.159154 0.077083 -0.281563 -0.142941 -0.277289
7 -0.489291 -0.505423 0.179991 -0.394192 -0.100597 0.009787 -0.024370 0.066015 0.251669 -0.020595 0.335032 0.553234 -0.126426 -0.208276 0.145434 -0.187172 -0.023657 -0.224803
10 -0.509950 -0.518155 0.195599 -0.373420 -0.055531 -0.025618 -0.001686 0.058659 0.261009 -0.032494 0.398965 0.593302 -0.129245 -0.142460 0.082494 -0.170318 -0.060655 -0.224729
16 -0.608377 -0.487404 0.224397 -0.189241 0.043246 -0.137636 0.167781 0.128503 0.298379 -0.121870 0.340276 0.574406 -0.338935 -0.132640 0.156287 -0.460371 -0.152456 -0.383266
8 -0.552108 -0.478411 0.217216 -0.184877 0.020163 -0.100354 0.136796 0.127186 0.265527 -0.091212 0.315084 0.515975 -0.307102 -0.150273 0.151867 -0.414833 -0.093829 -0.321265
6 -0.572241 -0.521885 0.225417 -0.274206 -0.006744 -0.071765 0.054279 0.112237 0.263397 -0.062193 0.387110 0.566510 -0.220146 -0.176679 0.129951 -0.284623 -0.104651 -0.306374
4 -0.532299 -0.481867 0.217894 -0.334020 -0.026625 -0.086520 -0.025514 0.095510 0.241678 -0.041586 0.413751 0.584007 -0.112656 -0.155579 0.079571 -0.213533 -0.093318 -0.269385
13 -0.512727 -0.497227 0.222142 -0.337017 -0.041090 -0.079630 0.019297 0.059910 0.247048 -0.018499 0.359474 0.543054 -0.143325 -0.168391 0.101963 -0.231741 -0.115669 -0.267400
0 -0.508759 -0.515578 0.206881 -0.399979 -0.089817 -0.011967 -0.033362 0.054684 0.218267 -0.017156 0.366943 0.541889 -0.119446 -0.170013 0.142563 -0.212371 -0.027316 -0.234889
15 -0.529065 -0.474731 0.211422 -0.292716 -0.012330 -0.062182 0.048632 0.043097 0.231129 -0.055630 0.376467 0.519207 -0.161292 -0.116334 0.093410 -0.240368 -0.129009 -0.271960
