18 18
8 -0.217903 -0.585434 0.246955 -0.321008 -0.070403 0.145757 0.114780 0.170050 0.246524 -0.049680 0.301421 0.471508 -0.113103 -0.243116 0.414972 -0.397438 -0.004595 -0.387649
0 -0.220861 -0.553965 0.236156 -0.341590 -0.095348 0.142251 0.068385 0.160878 0.223156 -0.052813 0.336964 0.452428 -0.069160 -0.243838 0.407557 -0.370528 -0.002931 -0.377675
2 -0.201234 -0.566991 0.237614 -0.346298 -0.056589 0.134932 0.106959 0.184383 0.225757 -0.066684 0.316001 0.497584 -0.067911 -0.274688 0.382162 -0.389195 -0.041819 -0.384306
7 -0.195010 -0.542340 0.208273 -0.327467 -0.068667 0.151910 0.101687 0.155149 0.268167 -0.066375 0.288614 0.461995 -0.097757 -0.272240 0.410393 -0.364337 -0.003098 -0.398616
12 -0.265218 -0.601118 0.257604 -0.356827 -0.064429 0.129064 0.081156 0.128985 0.219624 -0.040837 0.344989 0.508131 -0.109520 -0.228590 0.393841 -0.353308 -0.052970 -0.377449
5 -0.204242 -0.559787 0.196464 -0.317009 -0.019845 0.126785 0.126609 0.117829 0.251164 -0.076812 0.310409 0.486265 -0.132561 -0.241702 0.409286 -0.400852 -0.037018 -0.415598
17 -0.222062 -0.551068 0.245968 -0.306872 -0.088931 0.107974 0.098250 0.172696 0.252221 -0.030914 0.320339 0.471173 -0.062153 -0.224620 0.358522 -0.332134 -0.018959 -0.397628
4 -0.212715 -0.507342 0.242563 -0.304570 -0.047922 0.105599 0.056041 0.202337 0.232235 -0.073838 0.348771 0.442159 -0.038419 -0.245287 0.362143 -0.360491 -0.013078 -0.400033
13 -0.205365 -0.576398 0.253943 -0.363681 -0.074947 0.138454 0.109302 0.145161 0.255379 -0.037762 0.305728 0.467174 -0.079778 -0.280514 0.403927 -0.373206 -0.039145 -0.400422
6 -0.209658 -0.540451 0.236375 -0.293403 -0.042754 0.143705 0.107219 0.151849 0.219388 -0.053006 0.302021 0.446357 -0.117943 -0.250329 0.405655 -0.366908 -0.024113 -0.403271
15 -0.252548 -0.578286 0.262261 -0.356442 -0.050042 0.158864 0.107885 0.129101 0.234851 -0.065040 0.327354 0.467480 -0.090764 -0.239686 0.395495 -0.376854 -0.041750 -0.397508
3 -0.250178 -0.564798 0.268098 -0.335380 -0.052407 0.140628 0.121202 0.133367 0.203621 -0.057043 0.304818 0.449265 -0.138529 -0.269874 0.384747 -0.395670 0.008616 -0.404539
11 -0.235451 -0.564292 0.246717 -0.314612 -0.046309 0.115263 0.068317 0.190067 0.250736 -0.081303 0.311629 0.463674 -0.085965 -0.229995 0.398010 -0.379527 -0.039636 -0.380361
14 -0.229304 -0.569640 0.259635 -0.367861 -0.020630 0.157343 0.083836 0.129377 0.225057 -0.048340 0.263348 0.487667 -0.118998 -0.264776 0.401990 -0.375768 -0.006208 -0.400120
16 -0.207984 -0.507237 0.216685 -0.314512 -0.050027 0.133998 0.105133 0.127475 0.234779 -0.051349 0.266240 0.461763 -0.110429 -0.221885 0.394933 -0.359430 -0.050897 -0.392789
1 -0.243450 -0.555952 0.261108 -0.336812 -0.041691 0.094080 0.074758 0.175385 0.246795 -0.056355 0.290305 0.436457 -0.056269 -0.239449 0.348604 -0.364265 -0.004969 -0.381537
9 -0.226013 -0.552222 0.208670 -0.338728 -0.051855 0.146991 0.096504 0.158376 0.264876 -0.061423 0.311982 0.491020 -0.105718 -0.284743 0.393325 -0.379350 -0.028433 -0.374597
10 -0.226427 -0.570584 0.233197 -0.331489 -0.048456 0.167954 0.113079 0.149634 0.261167 -0.073030 0.329970 0.481923 -0.112951 -0.222269 0.374235 -0.335472 -0.006262 -0.360128
