18 18
6 -0.160479 -0.437862 0.223149 -0.393838 -0.175753 0.227904 0.128398 0.142343 0.071306 -0.076128 0.402345 0.365864 -0.042593 -0.382391 0.431509 -0.411909 -0.057779 -0.398682
0 -0.158573 -0.404116 0.200980 -0.414967 -0.192288 0.206476 0.103180 0.131171 0.068140 -0.076308 0.401778 0.365341 -0.017069 -0.351739 0.399471 -0.409052 -0.023540 -0.372471
7 -0.135348 -0.421925 0.175817 -0.432578 -0.211443 0.210545 0.120777 0.158796 0.123910 -0.081001 0.383385 0.393663 -0.001298 -0.406008 0.410697 -0.412053 -0.040534 -0.385789
2 -0.138966 -0.425028 0.204207 -0.431836 -0.184250 0.207267 0.126371 0.150093 0.050355 -0.087319 0.387480 0.388951 -0.003397 -0.388100 0.395163 -0.437901 -0.060331 -0.369956
3 -0.178431 -0.396186 0.225815 -0.395717 -0.171527 0.195553 0.139310 0.127603 0.049196 -0.078556 0.396185 0.347300 -0.053528 -0.391298 0.373850 -0.422186 -0.021935 -0.392698
1 -0.177809 -0.438977 0.225751 -0.436292 -0.170044 0.165627 0.114967 0.160748 0.115838 -0.077430 0.364345 0.365518 0.011207 -0.381653 0.375071 -0.428190 -0.033133 -0.393594
12 -0.179772 -0.412919 0.191982 -0.393243 -0.186096 0.192183 0.099159 0.085950 0.047081 -0.045013 0.404608 0.384888 -0.049874 -0.335458 0.382294 -0.356099 -0.086578 -0.338717
13 -0.147234 -0.426212 0.221429 -0.441422 -0.196886 0.211852 0.129807 0.122662 0.087301 -0.061931 0.404238 0.372729 -0.017914 -0.407525 0.426129 -0.425416 -0.074004 -0.403697
4 -0.166716 -0.374222 0.210731 -0.391497 -0.166537 0.178210 0.105066 0.160610 0.078569 -0.084818 0.432548 0.388595 -0.017511 -0.385336 0.389639 -0.425537 -0.043013 -0.411158
17 -0.165538 -0.412438 0.189734 -0.370386 -0.235707 0.181282 0.151309 0.162392 0.130167 -0.033603 0.416942 0.443487 -0.021544 -0.361355 0.385065 -0.382074 -0.071226 -0.406199
9 -0.176149 -0.411336 0.174173 -0.408699 -0.206957 0.200306 0.132788 0.152434 0.121378 -0.061113 0.419868 0.430979 -0.032353 -0.402849 0.398684 -0.419198 -0.080180 -0.373926
16 -0.169423 -0.405215 0.207185 -0.407760 -0.221638 0.196585 0.156915 0.149177 0.107757 -0.055958 0.402263 0.431472 -0.037913 -0.368024 0.436433 -0.444635 -0.093506 -0.438061
5 -0.148906 -0.400412 0.163827 -0.374729 -0.149929 0.177775 0.142550 0.100133 0.101819 -0.086341 0.392403 0.377855 -0.054504 -0.338398 0.386774 -0.407079 -0.065278 -0.385666
8 -0.164192 -0.430501 0.218435 -0.375122 -0.201015 0.211076 0.131344 0.130033 0.068398 -0.036393 0.381909 0.382080 -0.068118 -0.354319 0.419659 -0.408995 -0.044067 -0.366057
15 -0.183713 -0.426327 0.216211 -0.410503 -0.163534 0.235716 0.126114 0.096565 0.071740 -0.083312 0.392285 0.362063 -0.036565 -0.342652 0.404016 -0.395847 -0.072727 -0.371490
14 -0.175362 -0.441129 0.234190 -0.426668 -0.153804 0.224057 0.098433 0.114534 0.051305 -0.066669 0.361614 0.379877 -0.047300 -0.360010 0.401102 -0.386308 -0.035545 -0.361783
10 -0.180139 -0.473178 0.216609 -0.442368 -0.186863 0.270684 0.141500 0.132816 0.089173 -0.099846 0.458759 0.433414 -0.066852 -0.380005 0.438886 -0.416764 -0.050598 -0.381786
11 -0.180042 -0.422513 0.211844 -0.384169 -0.153104 0.201718 0.090907 0.146652 0.078262 -0.100989 0.373209 0.365341 -0.050160 -0.331152 0.412746 -0.409459 -0.059904 -0.359127
