18 18
7 -0.023397 -0.432497 0.220185 -0.306374 -0.147250 0.124039 0.263534 0.206978 0.119854 -0.062914 -0.152753 0.252015 -0.076269 -0.473088 0.415508 -0.484268 -0.101723 -0.401618
2 -0.038602 -0.396967 0.222176 -0.278808 -0.105135 0.076594 0.246215 0.191346 0.041405 -0.066332 -0.114826 0.237580 -0.049640 -0.421063 0.356224 -0.499482 -0.129268 -0.389265
12 -0.099044 -0.434416 0.258226 -0.319097 -0.132519 0.081166 0.228089 0.153634 0.034789 -0.044406 -0.092821 0.256568 -0.087129 -0.424697 0.408696 -0.509722 -0.147015 -0.420725
3 -0.106646 -0.397510 0.269118 -0.263266 -0.067895 0.071899 0.256702 0.189096 0.035784 -0.088207 -0.097711 0.216238 -0.114589 -0.435084 0.342856 -0.524999 -0.077354 -0.431376
0 -0.078064 -0.389454 0.228099 -0.293139 -0.107019 0.081247 0.201800 0.159203 0.032417 -0.071336 -0.070171 0.205153 -0.063672 -0.393620 0.370893 -0.483603 -0.082866 -0.393051
17 -0.050403 -0.442278 0.240661 -0.272566 -0.144137 0.096771 0.284608 0.227622 0.154785 -0.031168 -0.128220 0.313888 -0.072730 -0.417959 0.379044 -0.460851 -0.113410 -0.438744
11 -0.093079 -0.472817 0.265726 -0.301405 -0.105555 0.087473 0.250123 0.224400 0.092941 -0.090863 -0.130870 0.265917 -0.107765 -0.444787 0.443993 -0.570571 -0.137334 -0.438849
15 -0.105670 -0.427176 0.278665 -0.297708 -0.086983 0.113767 0.270504 0.156903 0.066634 -0.075508 -0.101347 0.226313 -0.087328 -0.406231 0.377787 -0.518289 -0.131781 -0.439131
9 -0.055204 -0.552751 0.248330 -0.362319 -0.168361 0.162640 0.340717 0.275843 0.215012 -0.059125 -0.168156 0.385556 -0.115068 -0.559128 0.469922 -0.555688 -0.137622 -0.444494
13 -0.041618 -0.422143 0.262884 -0.310116 -0.126444 0.102197 0.270409 0.185988 0.099973 -0.037734 -0.150242 0.240602 -0.074806 -0.458962 0.402936 -0.503685 -0.136726 -0.429386
6 -0.051469 -0.425113 0.245191 -0.253967 -0.098187 0.104384 0.269789 0.215747 0.087309 -0.066311 -0.113041 0.236628 -0.086416 -0.435920 0.387231 -0.488868 -0.115549 -0.426307
4 -0.083585 -0.452093 0.280600 -0.323892 -0.102238 0.088811 0.253350 0.246442 0.094262 -0.093746 -0.105768 0.292016 -0.069733 -0.499819 0.427155 -0.575622 -0.120275 -0.494569
8 -0.064419 -0.550257 0.290967 -0.330756 -0.156171 0.140204 0.338818 0.247718 0.140795 -0.047148 -0.167801 0.324845 -0.133643 -0.506579 0.471261 -0.579331 -0.112115 -0.463757
1 -0.091693 -0.489044 0.282181 -0.334704 -0.107098 0.075239 0.274341 0.227439 0.118852 -0.068911 -0.143918 0.269410 -0.069220 -0.475785 0.397236 -0.549868 -0.113493 -0.458523
14 -0.080447 -0.508574 0.306825 -0.362190 -0.117314 0.129460 0.271569 0.223167 0.098313 -0.053530 -0.175792 0.311708 -0.103979 -0.499493 0.436701 -0.537918 -0.105574 -0.459260
5 -0.061952 -0.426682 0.202455 -0.271834 -0.063844 0.060457 0.264889 0.163532 0.093988 -0.092194 -0.081096 0.256412 -0.086378 -0.401549 0.363119 -0.508070 -0.123528 -0.433185
16 -0.069596 -0.412108 0.249705 -0.287489 -0.112492 0.092048 0.273874 0.189261 0.082757 -0.065335 -0.131020 0.259639 -0.090851 -0.411085 0.404616 -0.522191 -0.141357 -0.447516
10 -0.044498 -0.562426 0.262582 -0.344059 -0.145848 0.181821 0.372918 0.272222 0.222506 -0.080895 -0.159263 0.394279 -0.132683 -0.519232 0.460675 -0.546964 -0.124718 -0.469991
