18 18
11 -0.353346 -0.450136 0.181242 -0.319857 0.109089 0.061467 -0.063797 0.354928 0.217294 -0.337166 0.196049 0.460110 0.073011 -0.217704 0.284183 -0.560505 -0.179683 -0.209089
2 -0.295107 -0.428468 0.191488 -0.338379 0.100718 0.092863 -0.028319 0.384065 0.154492 -0.339680 0.183724 0.463385 0.123718 -0.289587 0.270348 -0.596356 -0.195206 -0.217685
17 -0.351541 -0.478897 0.184310 -0.325741 0.072089 0.069873 -0.024657 0.360926 0.242590 -0.310037 0.228140 0.515545 0.091638 -0.224874 0.277030 -0.548448 -0.183342 -0.246549
6 -0.285182 -0.387289 0.227986 -0.255922 0.133335 0.052290 -0.010189 0.462953 0.183519 -0.318604 0.134847 0.406468 0.160830 -0.358463 0.259238 -0.597844 -0.203309 -0.302848
0 -0.392449 -0.578151 0.068854 -0.469480 -0.014074 0.240351 -0.090669 0.072682 0.188988 -0.302711 0.427233 0.568566 -0.100412 -0.022303 0.367452 -0.409662 -0.097485 -0.052371
7 -0.324548 -0.476478 0.150347 -0.362792 0.065944 0.121073 -0.033569 0.343938 0.245611 -0.335763 0.217761 0.502990 0.084181 -0.261983 0.307714 -0.551752 -0.173257 -0.214207
3 -0.349588 -0.422268 0.203415 -0.324999 0.110168 0.096542 -0.029656 0.345008 0.163465 -0.338939 0.225567 0.441450 0.060782 -0.274258 0.259659 -0.564581 -0.145818 -0.232519
15 -0.325329 -0.414292 0.209244 -0.321329 0.120951 0.102115 -0.012588 0.357732 0.191469 -0.334107 0.187428 0.435084 0.118685 -0.274012 0.264782 -0.569236 -0.198567 -0.255671
8 -0.409887 -0.651869 0.024970 -0.489158 -0.048900 0.290997 -0.078902 -0.028064 0.214613 -0.275328 0.478544 0.617742 -0.209434 0.070216 0.397327 -0.347659 -0.074187 0.025879
12 -0.444951 -0.640048 0.025508 -0.518804 -0.034813 0.273842 -0.117135 -0.020195 0.195753 -0.304147 0.509887 0.648799 -0.179289 0.057553 0.370861 -0.333352 -0.118068 0.030481
9 -0.343624 -0.419091 0.217778 -0.311092 0.145274 0.026157 -0.029783 0.512023 0.261815 -0.356552 0.139865 0.485864 0.190764 -0.396348 0.254175 -0.665722 -0.229468 -0.298829
14 -0.312862 -0.398734 0.236321 -0.307639 0.139479 0.063197 -0.045716 0.404925 0.170698 -0.307962 0.126217 0.432377 0.129675 -0.311710 0.247316 -0.571208 -0.168453 -0.263729
4 -0.324609 -0.397199 0.200401 -0.308845 0.133274 0.057511 -0.058333 0.426658 0.206854 -0.355423 0.208700 0.466759 0.140949 -0.303806 0.261808 -0.595948 -0.182832 -0.267677
5 -0.406237 -0.637888 -0.000365 -0.481857 0.005292 0.256408 -0.067994 -0.028635 0.231194 -0.320222 0.491084 0.626401 -0.195537 0.058076 0.379786 -0.370352 -0.108349 -0.010169
10 -0.410479 -0.605044 0.014750 -0.477232 -0.001149 0.300794 -0.079717 0.005180 0.226720 -0.339858 0.494677 0.625221 -0.191153 0.066381 0.350068 -0.328265 -0.083858 0.030842
1 -0.354196 -0.470310 0.180121 -0.349212 0.093612 0.070942 -0.044404 0.321605 0.225214 -0.304458 0.204169 0.459974 0.078212 -0.223348 0.254470 -0.522666 -0.148511 -0.200069
13 0.019096 0.002747 0.009678 -0.019404 -0.008210 -0.004883 0.008138 -0.018294 0.006568 0.019257 -0.015253 -0.018294 0.012156 -0.023377 0.007956 -0.002520 -0.021393 -0.009389
16 -0.003066 0.009981 0.006043 0.000869 -0.007381 -0.001770 0.017455 -0.006904 0.000948 0.004908 -0.016488 0.011175 -0.012361 0.022003 0.021550 -0.015661 -0.025305 -0.027720
