18 18
16 -0.112349 -0.513675 0.082673 -0.130615 -0.094707 0.252434 0.263222 0.120234 0.359543 -0.076285 0.189070 0.400221 -0.291504 0.008986 0.494643 -0.388300 -0.047558 -0.239387
1 -0.146103 -0.576138 0.114033 -0.150695 -0.078327 0.229817 0.246390 0.154969 0.376245 -0.085342 0.198920 0.383595 -0.272597 -0.027611 0.468998 -0.406785 0.001517 -0.225705
9 -0.132315 -0.541892 0.063812 -0.149525 -0.091285 0.249574 0.238558 0.143133 0.386032 -0.085024 0.229638 0.414509 -0.276699 -0.048318 0.469426 -0.390195 -0.031175 -0.197810
5 -0.116168 -0.596781 0.051206 -0.148313 -0.077864 0.269200 0.278215 0.108048 0.416090 -0.105366 0.250623 0.441519 -0.322694 -0.005972 0.527729 -0.413386 -0.032311 -0.244583
2 -0.104151 -0.569454 0.086380 -0.152924 -0.106168 0.266055 0.255840 0.153166 0.340238 -0.083818 0.212906 0.412936 -0.271031 -0.035632 0.489065 -0.411397 -0.026282 -0.196634
10 -0.125469 -0.608554 0.086851 -0.148937 -0.085284 0.309789 0.273132 0.150483 0.412069 -0.108164 0.244490 0.445150 -0.325974 0.003787 0.513251 -0.390872 0.001663 -0.201597
7 -0.098054 -0.566239 0.077737 -0.157279 -0.119177 0.292244 0.251982 0.144505 0.386407 -0.089286 0.206882 0.401699 -0.282795 -0.051218 0.523483 -0.386879 -0.000428 -0.227265
15 -0.141733 -0.545831 0.105335 -0.163051 -0.080240 0.274984 0.242308 0.102789 0.342657 -0.088796 0.216905 0.374233 -0.264204 -0.013229 0.472974 -0.374913 -0.036485 -0.213273
12 -0.149218 -0.563309 0.083176 -0.156630 -0.105904 0.239147 0.218603 0.105188 0.347823 -0.062269 0.238803 0.419644 -0.285410 -0.004389 0.472311 -0.355191 -0.034768 -0.202727
0 -0.123374 -0.594298 0.110076 -0.180388 -0.128205 0.304240 0.229699 0.131772 0.348639 -0.069924 0.243395 0.399410 -0.284421 -0.023016 0.530254 -0.387183 0.023970 -0.216468
13 -0.105366 -0.608273 0.118182 -0.185118 -0.117450 0.288913 0.249672 0.122704 0.377113 -0.050737 0.214628 0.402906 -0.286825 -0.036445 0.533176 -0.392042 -0.020754 -0.219404
6 -0.112256 -0.575907 0.093421 -0.121078 -0.102727 0.275878 0.250090 0.151976 0.361882 -0.068787 0.239384 0.403697 -0.295512 -0.031356 0.509664 -0.375708 -0.014474 -0.228895
3 -0.146280 -0.538103 0.121306 -0.135341 -0.082348 0.253114 0.257823 0.136953 0.329019 -0.094296 0.228530 0.367916 -0.305877 -0.047768 0.471057 -0.405195 0.010788 -0.242535
8 -0.121089 -0.605407 0.105732 -0.134904 -0.110430 0.280412 0.261726 0.150261 0.372387 -0.068464 0.218011 0.406211 -0.314620 -0.009664 0.519971 -0.413327 0.009817 -0.203995
14 -0.138101 -0.644743 0.140914 -0.195686 -0.088365 0.320961 0.247123 0.133988 0.373437 -0.069911 0.205809 0.446970 -0.325443 -0.017729 0.553228 -0.408382 0.011869 -0.229361
11 -0.143573 -0.586657 0.104468 -0.130810 -0.077121 0.260179 0.227823 0.167909 0.385937 -0.108335 0.221204 0.408540 -0.311614 0.000987 0.526123 -0.416727 -0.014138 -0.220150
17 -0.120732 -0.537599 0.074559 -0.112972 -0.116524 0.220616 0.248154 0.140223 0.388665 -0.055856 0.222771 0.417427 -0.262078 0.003545 0.447002 -0.343457 -0.022050 -0.228736
4 -0.126319 -0.542633 0.100705 -0.133136 -0.072670 0.248692 0.225002 0.168377 0.366767 -0.102008 0.244710 0.406750 -0.275160 -0.025930 0.491240 -0.404018 -0.005179 -0.236711
