18 18
10 -0.091358 -0.508180 0.168551 -0.326013 -0.243348 0.135594 0.343588 0.162289 0.167823 0.013505 0.184717 0.398728 -0.136149 -0.422626 0.285612 -0.483678 0.085781 -0.322114
3 -0.140447 -0.448688 0.217818 -0.294011 -0.185642 0.087224 0.293142 0.155489 0.069107 -0.009879 0.190792 0.308319 -0.156401 -0.441278 0.244888 -0.497602 0.123835 -0.339813
16 -0.094046 -0.492531 0.183372 -0.334954 -0.266987 0.107665 0.345090 0.138154 0.143884 0.051707 0.139447 0.390236 -0.121322 -0.408558 0.311199 -0.502540 0.029615 -0.354932
1 -0.099137 -0.497679 0.191495 -0.318630 -0.232712 0.065837 0.314589 0.193457 0.164659 0.042551 0.121190 0.353550 -0.073734 -0.442321 0.253397 -0.486073 0.068972 -0.324490
0 -0.072828 -0.522851 0.160620 -0.359025 -0.317860 0.121720 0.318618 0.135807 0.163035 0.085827 0.152291 0.381114 -0.076273 -0.417403 0.313360 -0.469011 0.072604 -0.316584
13 -0.061475 -0.511841 0.185905 -0.361819 -0.295299 0.103932 0.343085 0.136441 0.158189 0.085681 0.129570 0.368087 -0.081892 -0.458052 0.302690 -0.485854 0.032699 -0.332769
11 -0.127572 -0.509552 0.193199 -0.309384 -0.224694 0.091766 0.289060 0.180639 0.163880 0.006041 0.157221 0.373039 -0.131654 -0.396335 0.303398 -0.499254 0.068169 -0.326986
2 -0.071529 -0.455268 0.177520 -0.297430 -0.219557 0.079182 0.306837 0.185731 0.074422 0.020020 0.142342 0.348286 -0.086605 -0.445346 0.241261 -0.492562 0.054821 -0.299852
5 -0.099377 -0.502255 0.158798 -0.309596 -0.209643 0.080881 0.326407 0.145111 0.151680 0.007936 0.183353 0.376281 -0.134205 -0.426277 0.283787 -0.509489 0.066079 -0.347882
12 -0.121229 -0.537844 0.182909 -0.360851 -0.291997 0.100207 0.308887 0.103906 0.126865 0.088707 0.170460 0.416667 -0.112186 -0.392310 0.290311 -0.448756 0.026784 -0.306399
9 -0.095629 -0.473666 0.152046 -0.313984 -0.246033 0.089977 0.305590 0.174289 0.150438 0.041228 0.156753 0.380997 -0.095357 -0.448264 0.255942 -0.477495 0.054900 -0.295326
7 -0.032270 -0.465486 0.128706 -0.323885 -0.292434 0.125209 0.322399 0.141541 0.168861 0.065356 0.110542 0.355311 -0.070442 -0.434541 0.289067 -0.437401 0.051086 -0.293677
8 -0.052566 -0.492938 0.164547 -0.312011 -0.296428 0.107261 0.331928 0.144102 0.145168 0.101272 0.111531 0.356752 -0.087123 -0.415798 0.286049 -0.459062 0.062378 -0.294600
15 -0.111374 -0.492615 0.190338 -0.337721 -0.246130 0.121690 0.327823 0.106908 0.138795 0.047520 0.149842 0.354366 -0.095948 -0.387476 0.272263 -0.457998 0.037257 -0.319535
4 -0.116518 -0.461558 0.192313 -0.303677 -0.201969 0.084202 0.284372 0.198049 0.128336 -0.010682 0.204679 0.368524 -0.112239 -0.443567 0.271229 -0.511786 0.093135 -0.351920
14 -0.105393 -0.522214 0.212041 -0.351227 -0.246035 0.113343 0.306638 0.149236 0.123384 0.062204 0.130464 0.385577 -0.116517 -0.434205 0.287573 -0.476610 0.083465 -0.327803
6 -0.091100 -0.487679 0.188236 -0.268602 -0.222666 0.090201 0.316878 0.200614 0.123810 0.028494 0.167557 0.349607 -0.109414 -0.441174 0.280265 -0.479510 0.055958 -0.340701
17 -0.100857 -0.515073 0.190001 -0.304046 -0.292377 0.075005 0.344594 0.171942 0.175556 0.079590 0.161871 0.410095 -0.089640 -0.404279 0.272345 -0.462209 0.054431 -0.363840
