18 18
5 -0.300113 -0.453662 0.017575 -0.183844 -0.019098 -0.184311 0.089063 0.202856 0.411304 -0.047706 0.230894 0.469250 -0.043405 -0.262275 0.247425 -0.404173 -0.315599 -0.307342
9 -0.330493 -0.464417 0.031114 -0.172873 -0.036671 -0.162703 0.032035 0.318092 0.453272 -0.044263 0.194506 0.520406 0.003136 -0.258332 0.229703 -0.377102 -0.324485 -0.230507
7 -0.304940 -0.457562 0.033165 -0.162805 -0.048115 -0.152463 0.004191 0.337909 0.451935 -0.049202 0.184756 0.520033 0.005540 -0.265719 0.271221 -0.353374 -0.310776 -0.259578
8 -0.324918 -0.486174 0.081052 -0.155611 -0.054759 -0.160441 0.009364 0.337610 0.414771 -0.011646 0.181209 0.522193 0.001808 -0.220029 0.263109 -0.371375 -0.308760 -0.243920
1 -0.354897 -0.494524 0.085141 -0.182169 -0.015237 -0.193745 -0.000642 0.347915 0.443380 -0.045250 0.184119 0.514678 0.025660 -0.239823 0.237156 -0.385408 -0.309392 -0.266807
17 -0.293626 -0.432736 0.057144 -0.146801 -0.074194 -0.172559 0.074123 0.272755 0.421165 -0.006706 0.194855 0.476426 0.011717 -0.221894 0.209190 -0.333147 -0.295194 -0.280910
11 -0.330269 -0.450120 0.069713 -0.149608 -0.016588 -0.168293 -0.025748 0.324613 0.405535 -0.053151 0.180362 0.487599 -0.008259 -0.208320 0.263696 -0.362405 -0.311704 -0.241600
16 -0.331087 -0.445139 0.058019 -0.168010 -0.048963 -0.178281 0.032646 0.302017 0.433514 -0.027525 0.197280 0.530519 -0.012844 -0.229520 0.280435 -0.388941 -0.350563 -0.306508
6 -0.332749 -0.470946 0.065404 -0.134893 -0.024378 -0.160821 -0.007930 0.361226 0.423033 -0.041331 0.208971 0.523574 0.001003 -0.243185 0.268122 -0.355112 -0.327963 -0.264590
3 -0.345862 -0.460802 0.085146 -0.203432 -0.057497 -0.183956 0.118733 0.228002 0.387421 -0.026602 0.227594 0.448281 -0.063829 -0.340905 0.251849 -0.444102 -0.298115 -0.348968
13 -0.294128 -0.451604 0.075441 -0.217548 -0.074008 -0.178890 0.088864 0.232262 0.408579 0.004890 0.187311 0.446366 -0.007854 -0.329268 0.260758 -0.404590 -0.340267 -0.311274
15 -0.331217 -0.472949 0.073853 -0.185918 -0.037839 -0.133670 0.049888 0.274786 0.420583 -0.040414 0.194730 0.492213 0.012674 -0.214115 0.245147 -0.369404 -0.330057 -0.262374
14 -0.339127 -0.480401 0.083581 -0.191471 -0.020195 -0.164761 0.000424 0.292258 0.406772 -0.018472 0.177166 0.523689 -0.018565 -0.246887 0.259550 -0.363860 -0.310900 -0.269612
4 -0.357714 -0.448996 0.055442 -0.153470 -0.008795 -0.193166 -0.047818 0.385208 0.455911 -0.066964 0.247428 0.565640 0.028717 -0.253265 0.260259 -0.377670 -0.333586 -0.285289
12 -0.357704 -0.473592 0.054660 -0.179571 -0.034994 -0.176480 -0.022848 0.296803 0.406531 -0.029776 0.228198 0.541741 -0.003318 -0.219527 0.244368 -0.337110 -0.339223 -0.240588
0 -0.331836 -0.477363 0.059341 -0.213739 -0.065524 -0.157075 0.032945 0.271905 0.412549 -0.030041 0.232286 0.495916 -0.003692 -0.272205 0.275751 -0.402797 -0.304802 -0.286352
10 -0.331476 -0.481194 0.047770 -0.162547 -0.027164 -0.147840 0.041835 0.322696 0.466768 -0.058634 0.219942 0.539768 -0.015523 -0.227398 0.246483 -0.359944 -0.317973 -0.258905
2 -0.285215 -0.449729 0.060054 -0.171149 -0.040613 -0.154525 0.034585 0.308669 0.364629 -0.037241 0.173379 0.487692 0.024291 -0.238019 0.220244 -0.373628 -0.310955 -0.224017
