18 18
8 0.058019 -0.657697 0.183747 -0.344540 -0.122076 0.091673 0.347995 0.128536 0.249197 0.076678 0.090753 0.629225 -0.085491 -0.188199 0.311170 -0.450687 -0.089815 -0.306818
1 0.049647 -0.600785 0.182030 -0.339515 -0.048663 -0.000836 0.324347 0.238585 0.196812 -0.014263 0.134124 0.592449 -0.021347 -0.332749 0.203370 -0.540020 -0.014735 -0.305604
14 0.036257 -0.606540 0.183978 -0.356416 -0.073502 0.076327 0.315223 0.107518 0.214777 0.047525 0.084971 0.629550 -0.075521 -0.194212 0.281754 -0.441179 -0.101250 -0.317809
2 0.169820 -0.370298 0.075626 -0.275355 0.089330 -0.095920 0.394636 0.338665 -0.095569 -0.234385 0.232590 0.523430 0.002384 -0.582131 0.029499 -0.769139 0.046165 -0.266881
11 0.036843 -0.557125 0.157400 -0.297418 -0.053062 0.033406 0.299109 0.178752 0.204196 -0.018479 0.120687 0.581066 -0.066747 -0.224137 0.257946 -0.492205 -0.079652 -0.303297
17 0.069768 -0.553236 0.151630 -0.295102 -0.079208 0.017277 0.347540 0.190989 0.200045 0.008971 0.146627 0.605433 -0.031299 -0.253111 0.202414 -0.472290 -0.064341 -0.316405
10 0.072549 -0.596178 0.137344 -0.322581 -0.074572 0.091230 0.345782 0.150485 0.244330 0.007160 0.138802 0.641991 -0.073601 -0.209111 0.247967 -0.442946 -0.077607 -0.282326
0 0.062057 -0.559902 0.150351 -0.340893 -0.069917 0.044137 0.322962 0.163254 0.161483 -0.016584 0.159557 0.580698 -0.042652 -0.268096 0.239555 -0.507952 -0.046135 -0.303290
3 0.125461 -0.390847 0.119427 -0.283197 0.091358 -0.102619 0.409244 0.345643 -0.087378 -0.238222 0.263412 0.501798 -0.032828 -0.628472 0.019636 -0.794851 0.108401 -0.302233
9 0.040469 -0.571008 0.130200 -0.327335 -0.084792 0.061227 0.316346 0.141205 0.245410 0.023530 0.121711 0.615064 -0.060106 -0.226242 0.254620 -0.446422 -0.108472 -0.283187
12 0.048041 -0.506118 0.126671 -0.314071 -0.043564 -0.007791 0.312330 0.151751 0.111203 -0.035077 0.174180 0.578482 -0.053326 -0.301442 0.189508 -0.510001 -0.076392 -0.292462
15 0.001887 -0.548063 0.164821 -0.339909 -0.048514 0.072129 0.337697 0.073404 0.188737 -0.016240 0.141144 0.571746 -0.068972 -0.172840 0.275217 -0.481011 -0.148530 -0.351556
7 0.120131 -0.471161 0.095583 -0.293016 -0.028940 0.001746 0.345301 0.226885 0.113099 -0.088867 0.155485 0.549584 -0.031458 -0.400769 0.174913 -0.565614 -0.013844 -0.292423
5 0.134091 -0.474035 0.086293 -0.297416 0.065415 -0.078518 0.410397 0.276334 0.034571 -0.185260 0.239756 0.576880 -0.041648 -0.498842 0.108783 -0.732130 0.014883 -0.328734
4 0.135847 -0.412026 0.111361 -0.276971 0.072476 -0.097522 0.362713 0.350349 -0.007831 -0.197465 0.252879 0.550952 0.001547 -0.543796 0.068172 -0.733634 0.057221 -0.315683
6 0.084088 -0.574133 0.171613 -0.295118 -0.041170 0.032756 0.343182 0.233534 0.143469 -0.018590 0.141758 0.577512 -0.051776 -0.332196 0.228995 -0.538284 -0.032705 -0.311081
13 0.085304 -0.521450 0.149353 -0.323627 -0.056050 0.017560 0.327348 0.157586 0.170165 -0.001555 0.120368 0.548628 -0.027096 -0.296498 0.216746 -0.496091 -0.082089 -0.301934
16 0.042328 -0.537437 0.156579 -0.323956 -0.060924 0.045650 0.354289 0.106563 0.187261 -0.003112 0.112810 0.601540 -0.079174 -0.174737 0.283158 -0.497792 -0.144811 -0.359879
