18 18
13 -0.355784 -0.367834 0.293364 -0.195257 -0.009937 -0.044614 0.156767 0.191582 0.383095 -0.053655 0.136854 0.507076 -0.092584 0.012674 0.343571 -0.435318 -0.307449 -0.506665
2 -0.311775 -0.352356 0.234478 -0.164168 -0.001943 -0.085482 0.188999 0.270254 0.321465 -0.094500 0.207008 0.566806 -0.054909 -0.063483 0.263326 -0.509143 -0.255320 -0.495040
16 -0.360050 -0.341190 0.268788 -0.166627 -0.002051 -0.058720 0.166668 0.201523 0.344070 -0.080263 0.153902 0.511370 -0.105418 0.036271 0.329812 -0.455558 -0.270932 -0.530253
6 -0.360458 -0.382524 0.286214 -0.145529 -0.001254 -0.047435 0.182676 0.263254 0.369349 -0.074522 0.190652 0.532398 -0.093907 -0.015096 0.318729 -0.446108 -0.268711 -0.522522
10 -0.340962 -0.359472 0.247998 -0.164550 0.022696 -0.010221 0.162443 0.212470 0.380243 -0.105908 0.170921 0.524981 -0.113031 0.037598 0.299445 -0.396474 -0.251992 -0.443630
9 -0.372253 -0.360347 0.245672 -0.164578 -0.007434 -0.064629 0.158684 0.258940 0.412555 -0.081248 0.203899 0.562973 -0.074304 -0.025441 0.288848 -0.438353 -0.279997 -0.483830
4 -0.333841 -0.310843 0.235703 -0.136510 0.024511 -0.093651 0.143939 0.260243 0.348209 -0.105906 0.227570 0.520860 -0.052162 -0.019159 0.245059 -0.436148 -0.215260 -0.499506
0 -0.341603 -0.350624 0.248500 -0.179559 -0.016827 -0.047843 0.143994 0.211376 0.341692 -0.083496 0.203433 0.499753 -0.069934 0.006114 0.295484 -0.429390 -0.220315 -0.486995
8 -0.339604 -0.373425 0.264210 -0.148307 -0.013680 -0.048086 0.184007 0.241674 0.345394 -0.067875 0.178977 0.525954 -0.102139 -0.016689 0.305319 -0.469869 -0.216618 -0.499191
1 -0.371662 -0.376635 0.268870 -0.167181 0.017852 -0.105136 0.169016 0.264277 0.369682 -0.092819 0.189154 0.517955 -0.061095 -0.033839 0.251412 -0.477998 -0.205616 -0.518762
17 -0.375702 -0.382993 0.272992 -0.154178 -0.025970 -0.092101 0.194391 0.259697 0.416886 -0.071650 0.218487 0.584714 -0.066883 0.010410 0.283110 -0.446373 -0.265919 -0.560867
14 -0.363547 -0.373486 0.294743 -0.189364 0.022176 -0.040279 0.128445 0.202647 0.338107 -0.062237 0.134271 0.513518 -0.100899 0.015724 0.307353 -0.409132 -0.245983 -0.481272
11 -0.352730 -0.352651 0.265414 -0.153380 0.023534 -0.043626 0.107077 0.209104 0.356103 -0.094631 0.124754 0.472722 -0.111326 0.056619 0.330774 -0.404548 -0.273304 -0.435617
3 -0.358563 -0.346577 0.266207 -0.149064 0.008360 -0.088433 0.191622 0.250663 0.317758 -0.097364 0.217384 0.514755 -0.098789 -0.065428 0.258079 -0.497568 -0.203199 -0.539237
5 -0.295541 -0.349258 0.191362 -0.141022 0.034309 -0.095378 0.196986 0.213364 0.347173 -0.112013 0.218049 0.531596 -0.094909 -0.031308 0.269406 -0.496147 -0.227371 -0.523026
15 -0.352132 -0.347430 0.264724 -0.177954 0.017276 -0.013957 0.164468 0.177652 0.308628 -0.099173 0.173549 0.463137 -0.083734 0.017741 0.292966 -0.428265 -0.248500 -0.466825
7 -0.331869 -0.361241 0.239588 -0.173900 -0.012936 -0.029391 0.166044 0.241941 0.392139 -0.101478 0.167836 0.528489 -0.085059 -0.023224 0.322930 -0.439699 -0.246261 -0.487894
12 -0.359218 -0.366782 0.253841 -0.175845 -0.012881 -0.060266 0.131796 0.187025 0.328884 -0.055228 0.185660 0.520796 -0.095537 0.021629 0.297872 -0.399660 -0.273246 -0.462919
