18 18
0 -0.141493 -0.534232 0.088240 -0.384673 -0.146430 0.311683 0.372722 -0.123973 0.170446 -0.111920 0.335515 0.389683 -0.209185 -0.195425 0.384179 -0.356600 -0.123449 -0.314544
12 -0.170378 -0.564893 0.160213 -0.397583 -0.182806 0.277497 0.361186 -0.156811 0.089059 -0.035160 0.297721 0.385298 -0.206739 -0.173560 0.380864 -0.319238 -0.169151 -0.327070
1 -0.172593 -0.521968 0.120094 -0.364385 -0.083184 0.276950 0.396801 -0.109709 0.169742 -0.137121 0.331485 0.367845 -0.215678 -0.219148 0.319852 -0.363557 -0.121088 -0.331058
7 -0.128369 -0.544939 0.105699 -0.396853 -0.159488 0.340536 0.410156 -0.134675 0.166303 -0.104442 0.298548 0.391119 -0.225154 -0.234608 0.400615 -0.356069 -0.142001 -0.333955
3 -0.181519 -0.405548 0.069508 -0.274129 0.024035 0.293518 0.439777 -0.123440 0.150168 -0.250446 0.444719 0.330890 -0.284585 -0.248429 0.219279 -0.347678 -0.097850 -0.328209
2 -0.115918 -0.420628 0.033230 -0.294202 -0.020129 0.300119 0.407577 -0.101449 0.151030 -0.208792 0.377580 0.373734 -0.226270 -0.227075 0.244009 -0.327109 -0.132671 -0.266752
14 -0.150789 -0.560028 0.168117 -0.411716 -0.149215 0.305965 0.351400 -0.128368 0.112079 -0.049981 0.244098 0.379649 -0.200925 -0.198624 0.382166 -0.329414 -0.119701 -0.317637
11 -0.158476 -0.504598 0.095576 -0.325378 -0.082273 0.280673 0.359071 -0.100241 0.181994 -0.147157 0.308631 0.377653 -0.241800 -0.164238 0.359631 -0.347371 -0.144141 -0.303712
6 -0.139235 -0.496004 0.077163 -0.311204 -0.057156 0.324435 0.435060 -0.115222 0.177707 -0.173446 0.392361 0.382626 -0.252386 -0.219298 0.326002 -0.342223 -0.143731 -0.335465
8 -0.119598 -0.496602 0.073325 -0.317455 -0.103020 0.304876 0.397060 -0.124775 0.176836 -0.113423 0.308750 0.377516 -0.246818 -0.178296 0.346184 -0.338194 -0.122079 -0.286323
10 -0.129100 -0.420213 -0.098959 -0.280252 0.082621 0.373592 0.479263 -0.156741 0.352884 -0.334199 0.497022 0.489583 -0.334607 -0.171845 0.231066 -0.293664 -0.141652 -0.248531
5 -0.121468 -0.392480 -0.151072 -0.240378 0.127960 0.310551 0.470893 -0.175444 0.371569 -0.353870 0.504915 0.461397 -0.330190 -0.163802 0.214499 -0.319388 -0.161027 -0.273219
4 -0.162420 -0.390549 -0.015439 -0.269794 0.074270 0.284950 0.411605 -0.113448 0.257892 -0.296374 0.491390 0.417539 -0.263942 -0.205463 0.215794 -0.326718 -0.134052 -0.311136
16 -0.145452 -0.559893 0.172433 -0.407470 -0.206740 0.307762 0.400616 -0.137059 0.113028 -0.038642 0.244627 0.370548 -0.212428 -0.181651 0.444701 -0.384090 -0.165298 -0.370654
9 -0.128060 -0.424357 -0.041255 -0.294191 -0.017504 0.304057 0.390425 -0.112421 0.281154 -0.210198 0.368183 0.429319 -0.253720 -0.196977 0.271588 -0.308991 -0.148415 -0.239719
15 -0.190880 -0.546292 0.158732 -0.401667 -0.099413 0.337597 0.426128 -0.157985 0.125157 -0.136961 0.351047 0.357345 -0.225965 -0.220432 0.355258 -0.374619 -0.151128 -0.359155
17 -0.144487 -0.571055 0.142484 -0.377432 -0.198724 0.282550 0.402272 -0.112837 0.156069 -0.043103 0.298761 0.415887 -0.190021 -0.188113 0.378786 -0.332763 -0.147101 -0.360138
13 -0.121029 -0.511107 0.125033 -0.382001 -0.130131 0.294852 0.394068 -0.142518 0.147852 -0.086490 0.290798 0.342560 -0.195435 -0.220425 0.357882 -0.340611 -0.155481 -0.327464
