18 18
10 -0.093341 -0.430686 0.118853 -0.140569 -0.028264 0.319852 0.383590 0.113611 0.518841 -0.135464 0.193097 0.399567 -0.187663 -0.032580 0.447571 -0.193582 -0.265965 -0.418910
16 -0.087481 -0.415035 0.141703 -0.139202 -0.052655 0.282425 0.392558 0.134026 0.492265 -0.110019 0.150704 0.383591 -0.168718 -0.060512 0.473427 -0.251749 -0.292229 -0.478405
9 -0.129608 -0.491272 0.149992 -0.181999 -0.084068 0.281341 0.366993 0.185992 0.536265 -0.084563 0.151305 0.411375 -0.132426 -0.117386 0.462159 -0.270229 -0.266753 -0.446566
2 -0.120786 -0.483111 0.170792 -0.177128 -0.044365 0.257708 0.372381 0.190064 0.450829 -0.121024 0.170637 0.375467 -0.121278 -0.119756 0.401375 -0.294630 -0.231298 -0.427827
13 -0.052638 -0.403471 0.125454 -0.153725 -0.042948 0.302806 0.397338 0.078160 0.514184 -0.108657 0.154255 0.347561 -0.159950 -0.071354 0.484440 -0.214033 -0.342649 -0.459818
7 -0.062777 -0.394490 0.101446 -0.140692 -0.063075 0.288993 0.350832 0.106699 0.491448 -0.109624 0.143220 0.345321 -0.142297 -0.066005 0.444933 -0.185900 -0.273364 -0.414683
1 -0.178777 -0.525616 0.223418 -0.191421 -0.077915 0.187152 0.319312 0.240737 0.464356 -0.062500 0.113382 0.331257 -0.082146 -0.140860 0.372004 -0.310064 -0.135170 -0.436255
6 -0.109778 -0.460518 0.149446 -0.122306 -0.035543 0.292692 0.390120 0.172378 0.492017 -0.128308 0.202169 0.378584 -0.169538 -0.090954 0.455253 -0.242884 -0.264650 -0.464102
4 -0.130442 -0.431420 0.151623 -0.145281 0.010878 0.261982 0.351159 0.173122 0.495548 -0.173512 0.232542 0.371112 -0.142588 -0.092127 0.428355 -0.266897 -0.252533 -0.472918
3 -0.185616 -0.492554 0.199635 -0.170341 -0.010339 0.257678 0.384935 0.188987 0.455013 -0.161225 0.233555 0.354382 -0.170977 -0.146756 0.391161 -0.316593 -0.179169 -0.468669
11 -0.136801 -0.428960 0.135760 -0.132667 -0.011582 0.258118 0.311409 0.112667 0.467191 -0.139428 0.170903 0.345242 -0.172332 -0.016308 0.437353 -0.216824 -0.278914 -0.386372
0 -0.157141 -0.524530 0.188201 -0.198925 -0.109030 0.269330 0.337188 0.183724 0.488753 -0.074339 0.175451 0.379662 -0.124464 -0.095482 0.461502 -0.278215 -0.182626 -0.452577
12 -0.155431 -0.447384 0.136538 -0.165205 -0.024488 0.264207 0.321365 0.071101 0.452539 -0.112728 0.215455 0.380813 -0.170747 -0.016109 0.417676 -0.183495 -0.298437 -0.388020
15 -0.132124 -0.409007 0.152164 -0.162029 0.000935 0.305153 0.352510 0.067113 0.456458 -0.139647 0.187222 0.328871 -0.155866 -0.034918 0.427617 -0.214515 -0.296435 -0.417166
8 -0.173935 -0.587317 0.244542 -0.194864 -0.108770 0.243941 0.381504 0.260715 0.495100 -0.058406 0.144849 0.380497 -0.126934 -0.158292 0.448404 -0.365830 -0.140735 -0.482582
5 -0.111603 -0.438078 0.104724 -0.141420 0.016578 0.249280 0.367932 0.109298 0.474027 -0.163844 0.214250 0.363956 -0.171522 -0.073135 0.413858 -0.264508 -0.256694 -0.431589
14 -0.084487 -0.406768 0.141880 -0.157307 -0.019575 0.299607 0.342318 0.077159 0.466562 -0.093839 0.129423 0.367794 -0.176918 -0.050285 0.452985 -0.187813 -0.274338 -0.424944
17 -0.136259 -0.484612 0.175807 -0.144642 -0.097724 0.242349 0.375295 0.197069 0.518160 -0.073663 0.176912 0.402223 -0.121737 -0.082236 0.418761 -0.240849 -0.224215 -0.478745
