18 18
15 -0.377786 -0.564524 0.304210 -0.437323 -0.202859 0.279193 0.116853 -0.180991 0.182033 0.047757 0.239992 0.176098 -0.101484 0.062426 0.445618 -0.341516 0.036914 -0.294724
13 -0.340917 -0.555284 0.302501 -0.439679 -0.232750 0.250535 0.138720 -0.172844 0.208366 0.083460 0.227054 0.170975 -0.089084 0.021073 0.443146 -0.342840 0.026409 -0.316709
16 -0.364317 -0.548529 0.298146 -0.426352 -0.230881 0.262980 0.139350 -0.168824 0.197881 0.065399 0.233918 0.205962 -0.123008 0.071419 0.473047 -0.364080 0.027569 -0.330286
9 -0.410547 -0.613850 0.287624 -0.476268 -0.223639 0.281327 0.132484 -0.173394 0.252267 0.054492 0.279551 0.245850 -0.121921 0.034108 0.467060 -0.373649 0.034312 -0.310700
17 -0.368591 -0.586336 0.300397 -0.423445 -0.252391 0.251547 0.130909 -0.153216 0.227512 0.085562 0.261291 0.231419 -0.099968 0.076870 0.447671 -0.326757 0.060351 -0.324171
1 -0.399946 -0.600934 0.315739 -0.447687 -0.201016 0.234026 0.124255 -0.149625 0.230746 0.055911 0.242482 0.199336 -0.103221 0.043028 0.438130 -0.366234 0.054065 -0.324556
11 -0.352542 -0.559747 0.292580 -0.405464 -0.220195 0.258505 0.073276 -0.126490 0.174068 0.042513 0.225467 0.155887 -0.115703 0.055897 0.490053 -0.372012 0.063201 -0.268984
10 -0.396997 -0.617554 0.297325 -0.465616 -0.204116 0.314906 0.143668 -0.184010 0.250714 0.032833 0.287482 0.242726 -0.143574 0.084614 0.455044 -0.333722 0.063905 -0.297979
5 -0.357266 -0.580737 0.254204 -0.422722 -0.191221 0.252378 0.140398 -0.188071 0.224481 0.039244 0.268167 0.226190 -0.138543 0.068258 0.457585 -0.357537 0.036059 -0.311107
3 -0.348006 -0.510059 0.286932 -0.389625 -0.200941 0.241560 0.120297 -0.151250 0.147121 0.047771 0.237205 0.150912 -0.128220 0.018158 0.414600 -0.346702 0.075153 -0.290602
0 -0.313102 -0.555678 0.283790 -0.442833 -0.287625 0.299101 0.045919 -0.139194 0.116211 0.075479 0.242729 0.124324 -0.087405 0.049878 0.524174 -0.376371 0.136787 -0.234653
6 -0.367477 -0.592229 0.303361 -0.415416 -0.225797 0.278164 0.147459 -0.149753 0.210439 0.064011 0.270917 0.200906 -0.124176 0.033262 0.484363 -0.364867 0.042397 -0.342740
8 -0.328150 -0.608433 0.325349 -0.443459 -0.306974 0.308324 0.088822 -0.140394 0.139444 0.109742 0.218926 0.138401 -0.114510 0.054699 0.552204 -0.405347 0.131368 -0.256183
14 -0.395606 -0.607288 0.319297 -0.469801 -0.182668 0.285089 0.110315 -0.187091 0.215249 0.060325 0.233808 0.242462 -0.136539 0.074730 0.445784 -0.325581 0.067550 -0.304100
12 -0.374636 -0.570129 0.279241 -0.440070 -0.226815 0.252417 0.093279 -0.187176 0.175983 0.076112 0.267221 0.221212 -0.118837 0.068120 0.441633 -0.312751 0.031856 -0.270406
2 0.021368 -0.003688 -0.004957 -0.007525 -0.007603 0.001755 0.011077 0.016235 -0.024745 -0.003279 -0.008624 0.014563 0.014594 -0.017313 -0.004715 -0.020484 -0.014205 0.014938
4 -0.000863 0.026536 0.000487 0.011658 0.016931 -0.018308 -0.024615 0.027506 0.003913 -0.015616 0.024595 0.006644 0.019102 -0.007194 -0.007301 -0.006238 0.005807 -0.017039
7 0.025536 0.002637 -0.024458 -0.006487 -0.021911 0.018456 0.005430 0.006920 0.025711 -0.005710 -0.012468 0.004183 0.006040 -0.027377 0.019628 0.004891 0.006248 -0.002409
