18 18
3 -0.197514 -0.259219 0.229475 0.040838 0.158663 -0.024751 0.368032 0.281662 0.254892 -0.186381 0.198706 0.160258 -0.314674 -0.405804 0.241829 -0.489213 0.062233 -0.631230
2 -0.138586 -0.227093 0.168586 0.040638 0.136751 -0.045282 0.358140 0.301035 0.263133 -0.188502 0.193528 0.186313 -0.230817 -0.383211 0.207222 -0.461205 0.008836 -0.581280
6 -0.165217 -0.268932 0.196876 0.072454 0.161392 -0.035414 0.388062 0.316004 0.308401 -0.191743 0.223040 0.177881 -0.288087 -0.414503 0.262853 -0.488853 0.021096 -0.667519
10 -0.167984 -0.263269 0.176146 0.035333 0.155783 0.007475 0.356621 0.270628 0.299273 -0.194444 0.204629 0.195811 -0.295544 -0.350777 0.238665 -0.436960 0.047714 -0.573737
13 -0.181841 -0.311275 0.250938 0.020010 0.157570 -0.032999 0.413129 0.300096 0.333097 -0.168039 0.188929 0.190486 -0.318988 -0.452023 0.301797 -0.537227 0.025724 -0.713049
16 -0.192372 -0.273821 0.226914 0.055366 0.154377 -0.034483 0.405532 0.304929 0.313085 -0.179509 0.184958 0.222066 -0.320811 -0.366285 0.294034 -0.513864 0.007000 -0.697874
0 -0.178783 -0.290529 0.198050 -0.005889 0.119861 -0.005202 0.334803 0.273394 0.283290 -0.170315 0.203381 0.184716 -0.271871 -0.385395 0.278706 -0.482401 0.056434 -0.603858
17 -0.214816 -0.329767 0.262065 0.053007 0.143494 -0.043825 0.438600 0.344569 0.362045 -0.172261 0.220608 0.241810 -0.334077 -0.434773 0.292727 -0.538344 0.049852 -0.757472
7 -0.159199 -0.288607 0.189620 0.032749 0.143790 -0.009695 0.392922 0.311369 0.342988 -0.195002 0.187454 0.208498 -0.303019 -0.434108 0.292865 -0.502504 0.040727 -0.666680
4 -0.155378 -0.223152 0.172048 0.053209 0.159056 -0.044509 0.312353 0.294769 0.286793 -0.189324 0.216958 0.184518 -0.243677 -0.360308 0.227798 -0.445127 0.038736 -0.602370
14 -0.206132 -0.357505 0.287585 0.010839 0.179241 0.000148 0.380271 0.294297 0.290299 -0.148573 0.143316 0.227685 -0.358559 -0.411231 0.302292 -0.513704 0.077100 -0.669988
11 -0.219644 -0.316381 0.249289 0.044366 0.168053 -0.045276 0.390903 0.358653 0.347423 -0.213921 0.202437 0.216907 -0.327469 -0.429257 0.310423 -0.561181 0.021665 -0.712620
1 -0.185002 -0.268435 0.196947 0.020026 0.151785 -0.066257 0.328090 0.288612 0.308113 -0.168617 0.171904 0.167655 -0.233362 -0.366644 0.208054 -0.452292 0.039334 -0.588278
9 -0.194511 -0.283344 0.187325 0.007518 0.139635 -0.018463 0.354683 0.299084 0.332719 -0.171539 0.191144 0.214642 -0.286676 -0.421815 0.262774 -0.491291 0.026060 -0.606977
8 -0.180293 -0.352142 0.264847 0.031778 0.132406 -0.000602 0.390063 0.288346 0.285346 -0.125424 0.146841 0.192768 -0.343559 -0.394018 0.310420 -0.517706 0.069967 -0.632585
5 -0.161635 -0.287626 0.163091 0.058340 0.181634 -0.039135 0.387635 0.261380 0.319261 -0.202318 0.220223 0.207122 -0.312583 -0.363541 0.267481 -0.493846 0.015592 -0.645882
12 -0.026600 -0.022358 0.002765 -0.019307 -0.014582 -0.010130 -0.018079 -0.025837 -0.017080 0.018496 0.026502 0.027636 -0.006702 0.013838 0.001462 0.019107 -0.024921 0.008452
15 -0.025404 -0.016269 0.019351 -0.021953 0.006735 0.026510 0.013636 -0.025312 0.000633 -0.010033 0.011049 -0.002501 0.001724 0.010837 0.011554 -0.010070 -0.020449 -0.014280
