18 18
12 -0.331925 -0.635789 0.248018 -0.254958 -0.113623 0.084054 0.199724 -0.061442 0.227911 0.049488 0.361398 0.398610 -0.186004 -0.051494 0.331626 -0.138516 -0.103642 -0.458410
0 -0.316681 -0.642550 0.262978 -0.265425 -0.123712 0.096095 0.209051 -0.041151 0.239916 0.034517 0.358873 0.366481 -0.174559 -0.063290 0.368088 -0.195593 -0.056303 -0.493309
6 -0.251758 -0.599130 0.168743 -0.153530 -0.101808 0.128078 0.290797 0.106398 0.355196 -0.018269 0.353886 0.412582 -0.215603 -0.267780 0.356659 -0.225233 -0.087510 -0.499508
3 -0.288694 -0.585102 0.212432 -0.181161 -0.086249 0.103222 0.262857 0.056018 0.282043 -0.022569 0.338558 0.368831 -0.223359 -0.208834 0.322670 -0.234208 -0.054182 -0.474506
7 -0.216269 -0.569005 0.093314 -0.144533 -0.115217 0.134223 0.284318 0.141525 0.420885 -0.050792 0.331461 0.437629 -0.214866 -0.330507 0.356852 -0.231345 -0.081668 -0.469886
15 -0.348643 -0.635359 0.304246 -0.284185 -0.089386 0.101807 0.203333 -0.106989 0.194174 0.036914 0.344498 0.349527 -0.168718 0.012808 0.355892 -0.176377 -0.107262 -0.486696
1 -0.305724 -0.609385 0.245151 -0.235076 -0.080083 0.059311 0.214772 0.007374 0.277958 0.018719 0.293043 0.346755 -0.154942 -0.110808 0.297688 -0.182494 -0.056184 -0.458599
11 -0.325343 -0.634258 0.256325 -0.223580 -0.079871 0.064060 0.192730 0.011294 0.285065 -0.001284 0.327489 0.385401 -0.192359 -0.056109 0.368196 -0.209254 -0.089788 -0.491606
2 -0.277302 -0.618106 0.235481 -0.229166 -0.099812 0.097991 0.238845 0.018920 0.242759 0.003597 0.334374 0.400174 -0.180890 -0.125743 0.345484 -0.222672 -0.092009 -0.470558
5 -0.277730 -0.610692 0.195122 -0.217072 -0.066949 0.082893 0.238852 -0.044799 0.267328 -0.002387 0.337078 0.386350 -0.198769 -0.079236 0.339542 -0.200321 -0.098707 -0.462947
9 -0.232826 -0.577509 0.075097 -0.142890 -0.111213 0.139051 0.304484 0.189178 0.449288 -0.055007 0.346142 0.458803 -0.223584 -0.412778 0.330015 -0.276167 -0.071216 -0.442606
10 -0.285027 -0.624530 0.206797 -0.208949 -0.093945 0.127208 0.256579 0.026050 0.317623 -0.008999 0.350465 0.404576 -0.203008 -0.121219 0.322104 -0.171615 -0.055983 -0.449415
4 -0.284699 -0.582430 0.186694 -0.175247 -0.076392 0.085072 0.231151 0.103382 0.344761 -0.034713 0.367101 0.420322 -0.193101 -0.225721 0.337203 -0.235274 -0.074219 -0.502396
8 -0.237564 -0.587609 0.147191 -0.139379 -0.116166 0.132398 0.281924 0.135440 0.354572 -0.012082 0.310483 0.392204 -0.216419 -0.304618 0.329710 -0.253617 -0.041268 -0.429786
14 -0.313903 -0.613411 0.271723 -0.259590 -0.069162 0.089325 0.179767 -0.049926 0.217832 0.033853 0.297909 0.377510 -0.180484 -0.042254 0.331783 -0.165382 -0.061725 -0.457029
16 -0.302909 -0.583123 0.247365 -0.230618 -0.101671 0.077692 0.220776 -0.035601 0.242247 0.030247 0.312849 0.373921 -0.185172 -0.044859 0.351543 -0.187974 -0.108490 -0.492457
13 -0.293562 -0.626974 0.266953 -0.263608 -0.107621 0.079210 0.232783 -0.040404 0.270698 0.046489 0.323559 0.371776 -0.171861 -0.101288 0.356226 -0.184045 -0.105190 -0.506645
17 -0.320738 -0.636783 0.268084 -0.232512 -0.125025 0.063339 0.225819 -0.026614 0.268868 0.053646 0.342540 0.398617 -0.156986 -0.023185 0.310630 -0.136956 -0.074246 -0.495531
