18 18
1 -0.271530 -0.593597 0.141006 -0.276847 0.115552 -0.071780 0.131911 0.142429 0.435853 -0.169817 0.091390 0.344504 -0.047150 -0.054416 0.199207 -0.382142 -0.057585 -0.249738
10 -0.302382 -0.668273 0.126428 -0.298378 0.131421 -0.004205 0.168705 0.129521 0.473620 -0.220282 0.159523 0.441794 -0.124054 -0.027904 0.233134 -0.396827 -0.071656 -0.231514
2 -0.245816 -0.621932 0.195677 -0.270569 0.102054 -0.030639 0.192272 0.188572 0.347127 -0.185347 0.107247 0.398110 -0.093638 -0.112502 0.292027 -0.497548 -0.105388 -0.331941
11 -0.311292 -0.658771 0.116430 -0.284521 0.131710 -0.035703 0.122310 0.145575 0.487751 -0.228946 0.143866 0.418230 -0.117370 -0.030835 0.262728 -0.414074 -0.086507 -0.231864
5 -0.265139 -0.617547 0.081877 -0.266114 0.128847 -0.043709 0.168170 0.106423 0.455129 -0.209866 0.160521 0.405869 -0.101836 -0.043533 0.238824 -0.404454 -0.094230 -0.265960
8 -0.285150 -0.677981 0.178775 -0.287361 0.092351 -0.002754 0.182595 0.136805 0.410178 -0.165592 0.121840 0.408081 -0.135832 -0.069075 0.286520 -0.448496 -0.066940 -0.265721
7 -0.257048 -0.616800 0.123590 -0.281400 0.094310 -0.007169 0.162912 0.156117 0.447824 -0.205493 0.135210 0.404032 -0.091166 -0.100421 0.284718 -0.424691 -0.090194 -0.290293
4 -0.291879 -0.608774 0.202337 -0.263837 0.134719 -0.044673 0.151796 0.190014 0.374164 -0.206369 0.161523 0.409446 -0.102444 -0.097677 0.280349 -0.482528 -0.083377 -0.347231
12 -0.327695 -0.670589 0.113999 -0.327321 0.097213 -0.038941 0.129380 0.076931 0.440804 -0.179043 0.188347 0.446827 -0.106075 -0.017748 0.222842 -0.368385 -0.103347 -0.210673
6 -0.261951 -0.618353 0.179107 -0.228552 0.125536 -0.006337 0.189779 0.193069 0.395769 -0.204942 0.145942 0.386412 -0.122607 -0.120111 0.332281 -0.476895 -0.118638 -0.367803
16 -0.265673 -0.584770 0.170136 -0.246741 0.104663 -0.025371 0.175815 0.152332 0.380517 -0.180888 0.107078 0.387143 -0.118408 -0.056185 0.293486 -0.445841 -0.113424 -0.325624
15 -0.316353 -0.648258 0.162333 -0.306524 0.119941 -0.008580 0.166005 0.110082 0.428214 -0.201646 0.156074 0.402240 -0.097971 -0.047344 0.261905 -0.428537 -0.105612 -0.285656
13 -0.256144 -0.613868 0.156175 -0.299294 0.102825 -0.035600 0.163640 0.109459 0.419896 -0.163578 0.114533 0.365209 -0.085056 -0.085924 0.262388 -0.420040 -0.100630 -0.283144
3 -0.342393 -0.672063 0.227166 -0.309448 0.128790 -0.040904 0.196067 0.152679 0.363548 -0.207298 0.171908 0.415727 -0.148298 -0.125292 0.267299 -0.517067 -0.068053 -0.345145
0 -0.283801 -0.633310 0.131725 -0.303125 0.093272 -0.023113 0.148775 0.124734 0.428826 -0.191183 0.161560 0.400323 -0.087585 -0.054077 0.267799 -0.421558 -0.069852 -0.279592
14 -0.291544 -0.657046 0.206638 -0.298329 0.122007 -0.007301 0.161263 0.133864 0.377634 -0.162170 0.092288 0.407187 -0.130837 -0.075739 0.273633 -0.431847 -0.065053 -0.289425
17 -0.292023 -0.644012 0.155188 -0.263853 0.091833 -0.051288 0.178870 0.157460 0.456304 -0.174371 0.153239 0.434112 -0.089913 -0.047504 0.247194 -0.411109 -0.089258 -0.315377
9 -0.291024 -0.626044 0.102099 -0.294004 0.114649 -0.028993 0.142777 0.136507 0.461257 -0.195329 0.142052 0.420712 -0.093319 -0.075391 0.229941 -0.403668 -0.095028 -0.220435
