18 18
11 -0.269547 -0.313294 0.270816 -0.102942 0.038482 -0.260880 0.190848 0.176019 0.352223 -0.015112 0.011312 0.418822 -0.179534 -0.144773 0.308615 -0.458430 -0.166163 -0.704869
13 -0.208419 -0.276405 0.266563 -0.121094 0.010484 -0.245534 0.236448 0.124216 0.298862 0.033052 0.000238 0.373149 -0.162158 -0.192780 0.284109 -0.440704 -0.166634 -0.697916
16 -0.240241 -0.277447 0.263826 -0.112505 0.013348 -0.249266 0.242190 0.128277 0.296360 0.021493 0.001476 0.418422 -0.187520 -0.152839 0.304300 -0.463616 -0.184608 -0.721447
7 -0.222526 -0.303389 0.239402 -0.106829 -0.003344 -0.232512 0.225726 0.151562 0.360712 0.006064 0.018843 0.416958 -0.170774 -0.180549 0.311689 -0.426455 -0.145306 -0.720521
14 -0.256139 -0.298288 0.286917 -0.143664 0.053510 -0.241284 0.186068 0.158350 0.302292 0.013617 -0.016414 0.449058 -0.159458 -0.166662 0.275957 -0.438816 -0.167329 -0.683537
3 -0.260996 -0.275583 0.289081 -0.107994 0.031203 -0.264321 0.244521 0.149967 0.259849 0.005367 0.029064 0.394818 -0.204535 -0.204294 0.272794 -0.488816 -0.137159 -0.727402
4 -0.237495 -0.244415 0.243715 -0.100517 0.055742 -0.274581 0.176717 0.182240 0.317998 -0.024573 0.056016 0.446394 -0.137827 -0.157530 0.273759 -0.452769 -0.178733 -0.710940
9 -0.265625 -0.296136 0.249208 -0.145069 0.047812 -0.252405 0.202559 0.182859 0.360922 -0.005548 0.009958 0.479961 -0.146274 -0.195353 0.273635 -0.468064 -0.204754 -0.681868
1 -0.258799 -0.304299 0.275275 -0.132852 0.041657 -0.259188 0.193265 0.168013 0.330724 0.008861 -0.009809 0.389184 -0.133198 -0.168060 0.240383 -0.425104 -0.135038 -0.657011
12 -0.260278 -0.312493 0.261569 -0.125664 -0.000423 -0.256403 0.209849 0.107196 0.282846 0.036440 0.043504 0.423095 -0.183680 -0.148566 0.286022 -0.416211 -0.181743 -0.689361
5 -0.234484 -0.301893 0.231796 -0.105882 0.044179 -0.256274 0.232055 0.119811 0.317216 -0.006742 0.045555 0.423552 -0.184403 -0.153878 0.289630 -0.456061 -0.172198 -0.707492
17 -0.237571 -0.292534 0.251497 -0.088187 -0.006342 -0.256924 0.215558 0.163036 0.353715 0.032511 0.033234 0.439320 -0.133692 -0.131274 0.249490 -0.380387 -0.158193 -0.693296
8 -0.239161 -0.315561 0.282740 -0.104760 0.004036 -0.243083 0.236411 0.152029 0.304617 0.034668 0.004983 0.399898 -0.191090 -0.173695 0.301109 -0.465476 -0.131564 -0.701520
10 -0.247230 -0.303478 0.250419 -0.104701 0.040284 -0.227496 0.226446 0.160634 0.361999 -0.014843 0.034179 0.446722 -0.179435 -0.135394 0.273375 -0.416388 -0.158050 -0.688451
2 -0.228451 -0.289233 0.257526 -0.134544 0.038119 -0.263628 0.215719 0.188816 0.291510 -0.008218 0.006085 0.470624 -0.142809 -0.184191 0.277672 -0.494779 -0.199452 -0.686962
15 -0.266017 -0.301816 0.276027 -0.136210 0.036211 -0.220038 0.220651 0.122965 0.316598 -0.000834 0.031117 0.418792 -0.152851 -0.147909 0.283489 -0.437287 -0.191806 -0.698106
6 -0.249070 -0.314328 0.291861 -0.092460 0.019307 -0.256602 0.254579 0.169343 0.315955 0.023739 0.025262 0.429035 -0.191543 -0.190913 0.314472 -0.470719 -0.176385 -0.765756
0 -0.005399 -0.014495 0.001279 -0.026652 -0.021820 0.016369 -0.010898 -0.008016 -0.006711 0.000758 0.022893 0.001004 0.004839 -0.000095 0.023655 -0.011355 0.019530 -0.003746
