18 18
3 -0.316024 -0.431194 0.233224 -0.062484 -0.111523 -0.222494 0.323841 0.288821 0.412262 -0.044473 0.214237 0.433742 -0.143180 -0.140942 0.028123 -0.336250 0.115932 -0.510825
4 -0.308805 -0.432856 0.218265 -0.054238 -0.112007 -0.232335 0.285322 0.285585 0.461893 -0.022531 0.247203 0.470151 -0.109835 -0.102524 0.071662 -0.301866 0.044220 -0.528594
11 -0.337430 -0.476246 0.258913 -0.092142 -0.112595 -0.197121 0.252176 0.275286 0.394606 -0.051166 0.184775 0.450252 -0.153914 -0.051013 0.097807 -0.325341 0.068931 -0.458525
1 -0.353593 -0.497166 0.279135 -0.112280 -0.103787 -0.232618 0.290908 0.301399 0.429814 -0.037456 0.180500 0.460262 -0.120869 -0.096228 0.030784 -0.324120 0.120084 -0.483018
13 -0.311179 -0.486249 0.273564 -0.119537 -0.156753 -0.203700 0.297757 0.247116 0.416997 0.010752 0.187371 0.458038 -0.128513 -0.108375 0.092169 -0.309931 0.048206 -0.491639
8 -0.309724 -0.485767 0.244984 -0.068429 -0.149318 -0.206285 0.317911 0.276367 0.440992 0.006673 0.203905 0.467571 -0.142313 -0.094644 0.086239 -0.314466 0.072322 -0.497547
17 -0.290247 -0.444752 0.205070 -0.043962 -0.148354 -0.230704 0.318016 0.294414 0.466454 -0.004818 0.216294 0.473373 -0.105962 -0.090792 0.037979 -0.277727 0.076659 -0.510412
15 -0.324472 -0.460046 0.247941 -0.103494 -0.131058 -0.159516 0.276491 0.213065 0.410367 -0.004632 0.206614 0.449408 -0.124854 -0.054442 0.107472 -0.285692 0.008657 -0.488300
16 -0.325713 -0.460300 0.255241 -0.088203 -0.145493 -0.205206 0.308916 0.262576 0.425830 -0.005974 0.188187 0.485014 -0.144810 -0.067481 0.095004 -0.316339 0.037770 -0.514831
12 -0.347219 -0.485520 0.251212 -0.102730 -0.159858 -0.205823 0.265636 0.232099 0.391437 0.009902 0.229324 0.488234 -0.145246 -0.058248 0.082616 -0.275244 0.032059 -0.470138
0 -0.320564 -0.454086 0.251518 -0.127272 -0.129937 -0.172964 0.248014 0.250693 0.347743 -0.041499 0.198123 0.431172 -0.128941 -0.079867 0.072710 -0.312979 0.122673 -0.437384
10 -0.322665 -0.470205 0.249878 -0.095834 -0.110079 -0.173395 0.299272 0.273369 0.405052 -0.054522 0.211295 0.485877 -0.160614 -0.068233 0.037772 -0.285759 0.121963 -0.453200
2 -0.300481 -0.472873 0.230621 -0.098440 -0.136513 -0.217820 0.320118 0.314776 0.403810 -0.048555 0.206888 0.496185 -0.115582 -0.133807 0.035527 -0.353144 0.098056 -0.481491
5 -0.265494 -0.439779 0.167051 -0.078304 -0.089309 -0.209542 0.305008 0.231740 0.431710 -0.043656 0.213101 0.437052 -0.126298 -0.104397 0.065138 -0.318216 0.060147 -0.480131
9 -0.315224 -0.453779 0.193556 -0.083531 -0.123206 -0.221730 0.307395 0.303136 0.474407 -0.038302 0.219665 0.479975 -0.119872 -0.137274 0.049354 -0.337097 0.070077 -0.485344
7 -0.262802 -0.439413 0.171810 -0.073457 -0.150040 -0.194502 0.301591 0.281289 0.466497 -0.029592 0.203779 0.464684 -0.107449 -0.129126 0.085048 -0.300910 0.060617 -0.495489
6 -0.285420 -0.455426 0.221057 -0.054602 -0.130117 -0.195246 0.308113 0.282608 0.420482 -0.013706 0.215989 0.452015 -0.127744 -0.113147 0.079902 -0.298879 0.053074 -0.498074
14 -0.334684 -0.492060 0.278370 -0.118217 -0.123370 -0.185650 0.269492 0.252820 0.397514 0.001703 0.178886 0.487346 -0.144059 -0.083666 0.079712 -0.286103 0.079441 -0.479105
