18 18
16 -0.099980 -0.345531 0.023619 -0.249012 -0.264627 -0.080799 0.128461 -0.099156 0.246685 0.168684 0.268717 0.532615 -0.034146 -0.071844 0.402995 -0.174603 -0.407167 -0.473991
1 -0.215685 -0.473722 0.128945 -0.225227 -0.147641 -0.120720 0.131440 0.015591 0.292650 0.083763 0.294760 0.523859 -0.037094 -0.022519 0.367529 -0.262613 -0.257601 -0.545785
5 -0.112526 -0.409849 0.001886 -0.255683 -0.220792 -0.095967 0.141359 -0.100432 0.281354 0.132117 0.333927 0.566046 -0.046024 -0.077538 0.408008 -0.210213 -0.378729 -0.503542
14 -0.212065 -0.546103 0.131261 -0.286410 -0.234114 -0.097880 0.153793 -0.032652 0.324878 0.147913 0.348608 0.669906 -0.065453 -0.034421 0.488552 -0.269833 -0.350811 -0.651964
6 -0.140870 -0.435523 0.061398 -0.233703 -0.236444 -0.083584 0.142051 -0.040440 0.279493 0.146337 0.328113 0.566245 -0.043629 -0.086753 0.428985 -0.210942 -0.367833 -0.542280
2 -0.066763 -0.417931 -0.034984 -0.342228 -0.337188 -0.100460 0.136924 -0.124334 0.291847 0.207384 0.365903 0.668487 0.002678 -0.181184 0.460536 -0.195022 -0.508294 -0.516979
11 -0.154709 -0.404624 0.062761 -0.212528 -0.201430 -0.081402 0.101433 -0.030533 0.268614 0.101332 0.277861 0.514966 -0.057739 -0.031304 0.409081 -0.212485 -0.327487 -0.479908
3 -0.169454 -0.395417 0.086303 -0.224711 -0.189324 -0.088440 0.138781 -0.050518 0.232136 0.109342 0.304927 0.495979 -0.067963 -0.077302 0.358858 -0.221105 -0.289248 -0.502229
4 -0.153314 -0.428608 0.055409 -0.255075 -0.234394 -0.122385 0.126401 -0.033331 0.305384 0.132665 0.383679 0.625486 -0.016951 -0.075240 0.435340 -0.237449 -0.389221 -0.592314
13 0.018471 -0.264678 -0.082658 -0.319219 -0.343140 -0.071175 0.097746 -0.199694 0.252229 0.244063 0.261519 0.509129 0.014939 -0.212886 0.394206 -0.080627 -0.502637 -0.383197
7 -0.027333 -0.320415 -0.067408 -0.291739 -0.335741 -0.061682 0.112954 -0.139485 0.279404 0.198442 0.292675 0.557181 -0.005706 -0.169176 0.425544 -0.121446 -0.446220 -0.444142
8 -0.161454 -0.454006 0.099101 -0.225830 -0.220404 -0.067657 0.146920 -0.033963 0.265675 0.136240 0.285491 0.532706 -0.062583 -0.028702 0.415535 -0.232595 -0.296498 -0.510526
17 -0.128833 -0.372897 0.050044 -0.194203 -0.232844 -0.096122 0.127651 -0.032188 0.266831 0.138756 0.293928 0.523138 -0.020106 -0.030852 0.350680 -0.164166 -0.315723 -0.481337
12 0.005716 -0.309055 -0.146855 -0.407631 -0.444225 -0.093578 0.070742 -0.279942 0.260736 0.316654 0.355476 0.656410 0.016266 -0.263888 0.452144 -0.044543 -0.640415 -0.397515
15 -0.180613 -0.428005 0.094536 -0.243157 -0.186310 -0.051707 0.132247 -0.058496 0.254788 0.102390 0.293575 0.504584 -0.040502 -0.030343 0.389731 -0.216516 -0.313552 -0.500365
10 -0.148676 -0.427979 0.052847 -0.233830 -0.193622 -0.063597 0.144795 -0.049407 0.295062 0.104369 0.321097 0.560164 -0.055308 -0.026383 0.371357 -0.183326 -0.312896 -0.484748
9 -0.015719 -0.294573 -0.123549 -0.351253 -0.368859 -0.084368 0.092114 -0.186670 0.290517 0.246384 0.327012 0.608902 0.013398 -0.252408 0.411834 -0.103323 -0.538029 -0.400225
0 -0.119580 -0.425219 0.019080 -0.316040 -0.306114 -0.074307 0.116755 -0.108352 0.278802 0.179504 0.359715 0.600773 -0.019645 -0.107462 0.454237 -0.194285 -0.400608 -0.519374
