18 18
11 -0.194247 -0.429999 -0.006804 -0.072106 -0.127272 0.165443 0.080049 0.157295 0.463614 -0.070218 0.262312 0.487029 -0.332352 -0.175526 0.527479 -0.224020 -0.109835 -0.331118
13 -0.136007 -0.446927 -0.019217 -0.118715 -0.171847 0.208836 0.126899 0.112663 0.484401 -0.022467 0.268723 0.494589 -0.327470 -0.244666 0.558523 -0.212097 -0.110031 -0.355272
7 -0.129131 -0.412556 -0.041938 -0.105538 -0.172778 0.220566 0.108909 0.134412 0.470131 -0.049104 0.250998 0.475265 -0.305086 -0.238285 0.534959 -0.199691 -0.077724 -0.324252
4 -0.167640 -0.410915 -0.022487 -0.078355 -0.137562 0.176719 0.086202 0.159127 0.463461 -0.063069 0.304854 0.504860 -0.316032 -0.217069 0.527966 -0.219431 -0.086227 -0.360793
12 -0.241125 -0.467143 -0.047741 -0.070711 -0.161922 0.148156 0.105774 0.128134 0.477377 -0.042760 0.338485 0.591829 -0.382754 -0.167239 0.507608 -0.187204 -0.148084 -0.329698
9 -0.209290 -0.415389 -0.058105 -0.069749 -0.134182 0.162944 0.104797 0.152258 0.479884 -0.065867 0.307387 0.534910 -0.340871 -0.204001 0.475361 -0.206048 -0.118156 -0.301539
5 -0.192745 -0.415812 -0.068089 -0.047879 -0.109056 0.129256 0.128554 0.106402 0.445606 -0.067903 0.298590 0.514222 -0.351746 -0.151074 0.451987 -0.200683 -0.121382 -0.311058
0 -0.159718 -0.435873 -0.012781 -0.123427 -0.174674 0.220242 0.090714 0.117446 0.433250 -0.040672 0.293405 0.472572 -0.304340 -0.202847 0.539857 -0.210847 -0.060041 -0.326164
8 -0.143408 -0.419139 -0.001920 -0.081100 -0.163452 0.203460 0.115066 0.131548 0.417414 -0.021905 0.244271 0.454955 -0.325508 -0.201033 0.515155 -0.211758 -0.056300 -0.310882
10 -0.181314 -0.433930 -0.055348 -0.060527 -0.134521 0.195632 0.132137 0.143898 0.500293 -0.076266 0.311569 0.544958 -0.369464 -0.173637 0.502771 -0.187241 -0.101243 -0.320765
14 -0.205731 -0.482432 0.001998 -0.115232 -0.146972 0.209501 0.101862 0.130397 0.483415 -0.036388 0.282237 0.558800 -0.368592 -0.209115 0.552117 -0.206036 -0.092722 -0.356392
6 -0.154543 -0.414191 -0.018502 -0.054178 -0.141809 0.200390 0.120190 0.155076 0.435645 -0.048009 0.279500 0.473809 -0.335537 -0.221448 0.522240 -0.204677 -0.090171 -0.342625
16 -0.175198 -0.403294 -0.023462 -0.076486 -0.151331 0.174407 0.129339 0.124806 0.451960 -0.048114 0.254076 0.496916 -0.343039 -0.172633 0.522571 -0.221979 -0.125093 -0.350797
3 -0.212195 -0.415956 -0.005566 -0.068252 -0.134439 0.170679 0.125831 0.133177 0.429318 -0.063432 0.297593 0.486609 -0.366126 -0.211351 0.485226 -0.218892 -0.081457 -0.344906
15 -0.192061 -0.444910 0.006672 -0.122038 -0.140470 0.224459 0.117989 0.095547 0.448692 -0.050098 0.282302 0.484960 -0.320008 -0.192119 0.523153 -0.208410 -0.109030 -0.337417
17 -0.189924 -0.420271 -0.020496 -0.055545 -0.172613 0.141733 0.120672 0.140100 0.471418 -0.019521 0.278878 0.522768 -0.311860 -0.152804 0.460857 -0.163885 -0.109828 -0.333167
1 -0.027660 -0.027217 0.026180 -0.019122 0.012075 -0.026796 -0.004699 0.019366 0.022084 0.001540 -0.016522 -0.005216 0.015504 -0.011155 -0.013895 -0.016653 0.015775 -0.011908
2 0.021368 -0.003688 -0.004957 -0.007525 -0.007603 0.001755 0.011077 0.016235 -0.024745 -0.003279 -0.008624 0.014563 0.014594 -0.017313 -0.004715 -0.020484 -0.014205 0.014938
