18 18
17 -0.243574 -0.373091 0.190235 0.114506 -0.108311 -0.123712 0.205608 0.300779 0.500187 0.001236 0.153733 0.538933 -0.086897 0.297653 0.221219 -0.163665 -0.263740 -0.416648
15 -0.268404 -0.407693 0.222835 0.082368 -0.082477 -0.066680 0.226451 0.285627 0.533191 -0.047450 0.138202 0.521902 -0.116074 0.303922 0.306785 -0.226584 -0.303378 -0.433452
12 -0.293263 -0.436168 0.207031 0.076188 -0.097472 -0.109465 0.197606 0.277182 0.517339 -0.017130 0.180276 0.577614 -0.123357 0.318962 0.274197 -0.188050 -0.307415 -0.409632
4 -0.263896 -0.385636 0.214570 0.122759 -0.082706 -0.131763 0.194397 0.355996 0.550728 -0.039225 0.168858 0.572140 -0.096625 0.307693 0.274994 -0.220195 -0.286333 -0.453831
6 -0.259767 -0.426497 0.197458 0.125258 -0.082133 -0.098948 0.231473 0.325668 0.533568 -0.023881 0.183241 0.564760 -0.117556 0.275448 0.268114 -0.195511 -0.300726 -0.436709
16 -0.253683 -0.378802 0.203370 0.100728 -0.089753 -0.101950 0.219494 0.293094 0.503547 -0.022631 0.130092 0.535544 -0.118472 0.304938 0.277597 -0.210366 -0.297428 -0.430145
9 -0.254867 -0.391706 0.163762 0.088798 -0.088614 -0.101590 0.200511 0.308151 0.540092 -0.025248 0.155984 0.551852 -0.102744 0.245743 0.254741 -0.203609 -0.296060 -0.383339
10 -0.260588 -0.415583 0.189987 0.115283 -0.071250 -0.076549 0.237172 0.317478 0.563916 -0.052906 0.174743 0.571090 -0.130752 0.319712 0.249761 -0.177993 -0.280808 -0.403417
8 -0.254789 -0.420944 0.219462 0.113172 -0.107111 -0.099754 0.223307 0.320829 0.521101 -0.004340 0.131981 0.543372 -0.128195 0.300579 0.287678 -0.223774 -0.267493 -0.420061
11 -0.278173 -0.424321 0.213502 0.120013 -0.072840 -0.117433 0.196277 0.346395 0.557936 -0.051489 0.139123 0.558940 -0.133074 0.314790 0.297727 -0.237462 -0.295115 -0.427394
1 -0.286322 -0.439275 0.218394 0.083286 -0.069101 -0.127608 0.211660 0.327470 0.550605 -0.027879 0.148019 0.551452 -0.098946 0.276504 0.242866 -0.214808 -0.271398 -0.423488
5 -0.248600 -0.416488 0.165096 0.102074 -0.053583 -0.105885 0.230195 0.274636 0.524030 -0.047144 0.171355 0.546471 -0.133688 0.292799 0.258040 -0.216904 -0.278528 -0.413616
13 -0.246473 -0.421665 0.211136 0.088332 -0.096505 -0.107005 0.231401 0.299728 0.556800 -0.015148 0.142130 0.550340 -0.111585 0.282176 0.289030 -0.212692 -0.317172 -0.437717
2 -0.239067 -0.416140 0.189224 0.098663 -0.093980 -0.108747 0.225712 0.329648 0.507610 -0.026953 0.150779 0.577367 -0.100196 0.275664 0.251816 -0.222259 -0.302390 -0.406128
7 -0.224167 -0.403166 0.171121 0.089912 -0.116324 -0.076558 0.220711 0.311440 0.569215 -0.038257 0.127803 0.549810 -0.111578 0.259345 0.310959 -0.205763 -0.291654 -0.418784
14 -0.011733 -0.016220 0.026785 -0.021827 0.014521 0.009558 -0.015588 -0.009492 -0.015071 0.014490 -0.026914 0.011819 -0.010079 -0.001944 0.000728 0.009641 0.015475 -0.000266
0 -0.005399 -0.014495 0.001279 -0.026652 -0.021820 0.016369 -0.010898 -0.008016 -0.006711 0.000758 0.022893 0.001004 0.004839 -0.000095 0.023655 -0.011355 0.019530 -0.003746
3 -0.024675 0.005665 0.025365 0.004601 0.007865 -0.001883 0.014761 -0.000233 -0.026227 -0.010111 0.011993 -0.020661 -0.026950 -0.026588 -0.012274 -0.019090 0.026092 -0.020014
