18 18
3 -0.346662 -0.525215 0.364016 -0.317897 -0.161171 -0.120023 0.208480 0.056828 0.319438 0.159636 0.226416 0.441005 -0.050236 -0.204839 0.179007 -0.248507 -0.142533 -0.507387
12 -0.340620 -0.549521 0.317631 -0.341379 -0.176295 -0.108231 0.196676 0.025068 0.324062 0.167813 0.261171 0.498996 -0.041798 -0.165772 0.202590 -0.231291 -0.225580 -0.469196
17 -0.329625 -0.535640 0.352358 -0.306233 -0.192197 -0.155049 0.195400 0.078486 0.367202 0.199442 0.198468 0.487450 -0.001953 -0.162413 0.160041 -0.202446 -0.148468 -0.512786
15 -0.325901 -0.509610 0.322513 -0.323616 -0.152088 -0.079405 0.214943 0.030154 0.321737 0.136367 0.239707 0.443356 -0.022760 -0.160701 0.194569 -0.245469 -0.209987 -0.474772
8 -0.314194 -0.537952 0.367249 -0.294737 -0.178961 -0.101055 0.193629 0.062275 0.298074 0.188166 0.177895 0.428646 -0.054121 -0.171333 0.196928 -0.226367 -0.120944 -0.462854
7 -0.299652 -0.532013 0.329656 -0.310390 -0.194109 -0.084026 0.195990 0.056121 0.322506 0.167966 0.183446 0.451198 -0.043197 -0.187826 0.208165 -0.205974 -0.145447 -0.468610
1 -0.312756 -0.507414 0.331896 -0.332262 -0.125068 -0.166004 0.169145 0.079133 0.364792 0.153136 0.185897 0.423068 0.022658 -0.189969 0.148525 -0.249885 -0.134535 -0.483289
6 -0.281311 -0.499213 0.295849 -0.286324 -0.159733 -0.089579 0.223058 0.061874 0.333269 0.157216 0.237290 0.448430 -0.028289 -0.199258 0.203396 -0.237182 -0.207402 -0.484910
5 -0.252907 -0.506575 0.207530 -0.349764 -0.115264 -0.123239 0.248975 0.013279 0.393399 0.103360 0.279570 0.501596 -0.015480 -0.189076 0.207934 -0.315279 -0.250983 -0.494720
9 -0.289643 -0.502724 0.241756 -0.344129 -0.160275 -0.109763 0.233039 0.061513 0.405146 0.135026 0.267199 0.506861 -0.001536 -0.229313 0.195069 -0.287519 -0.250309 -0.472913
11 -0.327333 -0.523843 0.346200 -0.301658 -0.135672 -0.129975 0.164563 0.078433 0.340822 0.138134 0.187858 0.436205 -0.042052 -0.158578 0.203822 -0.251610 -0.147163 -0.478592
4 -0.327655 -0.516431 0.345694 -0.323140 -0.156686 -0.137843 0.183343 0.084464 0.352041 0.155972 0.250987 0.476732 -0.001495 -0.199732 0.183082 -0.245716 -0.174496 -0.515351
10 -0.295819 -0.514358 0.284785 -0.318073 -0.147300 -0.084162 0.222599 0.044948 0.362855 0.132004 0.242839 0.486156 -0.043218 -0.158524 0.181693 -0.228389 -0.183112 -0.454424
2 -0.272429 -0.514724 0.265696 -0.343526 -0.165737 -0.098627 0.245722 0.052934 0.321724 0.126978 0.254676 0.502923 -0.016449 -0.199406 0.196968 -0.291027 -0.247083 -0.457797
16 -0.283475 -0.478024 0.264563 -0.323391 -0.152373 -0.105038 0.226943 0.028747 0.343351 0.132456 0.232864 0.477928 -0.029199 -0.151279 0.214312 -0.275273 -0.243005 -0.486242
13 -0.262400 -0.472824 0.312395 -0.327013 -0.153629 -0.119232 0.192465 0.033354 0.330858 0.168451 0.186807 0.404316 0.005647 -0.200839 0.184242 -0.237857 -0.180776 -0.473757
0 -0.285661 -0.495834 0.294026 -0.335001 -0.172678 -0.100355 0.182447 0.046163 0.324047 0.149691 0.235149 0.434737 -0.000244 -0.177963 0.202161 -0.251271 -0.155892 -0.467476
14 -0.309473 -0.504935 0.357561 -0.310437 -0.141000 -0.105976 0.144764 0.049979 0.283695 0.183270 0.141569 0.422850 -0.033252 -0.162374 0.164225 -0.186519 -0.101330 -0.440337
