18 18
5 0.060563 -0.316233 -0.183462 -0.078875 0.047779 0.011440 0.312488 -0.034343 0.527913 -0.125217 0.333742 0.484987 -0.169191 -0.016121 0.415691 -0.300305 -0.328065 -0.485658
6 -0.046256 -0.394409 -0.010261 -0.155297 0.034179 0.035785 0.298746 0.051416 0.361201 -0.106412 0.321476 0.524951 -0.171417 -0.086126 0.463619 -0.422413 -0.300712 -0.554623
2 -0.056993 -0.415494 -0.011868 -0.212643 0.038785 0.026004 0.272376 0.040188 0.303101 -0.124307 0.295638 0.546449 -0.150817 -0.088712 0.438321 -0.458101 -0.296994 -0.496870
4 -0.077618 -0.363756 -0.005749 -0.180843 0.062706 -0.003094 0.224021 0.050891 0.351690 -0.126319 0.321632 0.528838 -0.135443 -0.056854 0.420875 -0.414129 -0.279753 -0.523650
0 -0.028466 -0.361189 -0.070182 -0.179979 0.002605 0.041157 0.248550 0.002049 0.403890 -0.101969 0.331791 0.507494 -0.142833 -0.033585 0.446348 -0.363622 -0.266795 -0.491265
15 -0.120239 -0.408499 0.047992 -0.229428 0.046178 0.047186 0.246079 0.014263 0.288406 -0.113684 0.283514 0.501798 -0.141584 -0.060359 0.428589 -0.434080 -0.285343 -0.503534
14 -0.090749 -0.397388 0.020885 -0.209348 0.060771 0.016697 0.216568 0.022878 0.337717 -0.095057 0.257787 0.527151 -0.155255 -0.049583 0.413882 -0.384567 -0.260072 -0.488576
16 -0.103784 -0.371141 0.023244 -0.206006 0.021506 0.014256 0.241448 0.026729 0.298515 -0.095164 0.269902 0.516854 -0.151814 -0.033064 0.433752 -0.425458 -0.281723 -0.514400
11 -0.040840 -0.366124 -0.048485 -0.138223 0.047142 0.009258 0.249228 0.040598 0.412607 -0.129713 0.292030 0.495779 -0.166358 -0.042259 0.441084 -0.387284 -0.300019 -0.490127
3 -0.114554 -0.418615 0.049885 -0.204453 0.045708 0.023824 0.296087 0.046257 0.284192 -0.129950 0.320735 0.514538 -0.195085 -0.119840 0.450809 -0.495959 -0.260964 -0.569248
13 0.096024 -0.300651 -0.168985 -0.101883 0.016683 0.019400 0.333338 -0.034692 0.553624 -0.098542 0.329249 0.471528 -0.144758 -0.056118 0.435062 -0.301547 -0.361588 -0.505768
10 0.053907 -0.323321 -0.163084 -0.091150 0.039060 0.045534 0.329485 0.000288 0.540423 -0.137023 0.354057 0.514047 -0.173423 -0.021490 0.419556 -0.302092 -0.316676 -0.486202
12 -0.059025 -0.378800 -0.065317 -0.173806 0.010573 0.008378 0.245195 -0.010132 0.404309 -0.085147 0.333831 0.538920 -0.155907 -0.024379 0.426119 -0.343527 -0.315492 -0.485016
1 -0.071323 -0.395856 -0.018956 -0.186243 0.044646 -0.007240 0.252920 0.044358 0.403104 -0.107638 0.284631 0.507028 -0.136136 -0.066191 0.414015 -0.402152 -0.272396 -0.504776
8 0.009848 -0.355050 -0.072772 -0.125554 0.007505 0.033854 0.299396 0.017407 0.415059 -0.088977 0.298969 0.480104 -0.166415 -0.060993 0.436724 -0.371189 -0.279841 -0.486996
9 0.037659 -0.317045 -0.183064 -0.121009 0.011123 0.022400 0.290276 0.005292 0.562188 -0.106927 0.350435 0.535599 -0.141132 -0.052784 0.429164 -0.314307 -0.337136 -0.479087
17 -0.013162 -0.355687 -0.090359 -0.130557 -0.008252 0.000488 0.286457 0.030663 0.497280 -0.082538 0.331615 0.548678 -0.131649 -0.027304 0.420608 -0.329399 -0.303251 -0.526948
7 -0.011474 -0.377403 -0.077309 -0.172815 0.009604 0.045568 0.284778 0.026872 0.418057 -0.120681 0.306691 0.530210 -0.160800 -0.089918 0.465711 -0.394992 -0.291352 -0.516663
