18 18
12 -0.429984 -0.955971 0.252069 -0.383103 -0.072623 0.144550 0.153606 -0.132802 0.270248 0.151564 0.179555 0.492967 -0.376907 -0.184068 0.256235 -0.079298 -0.098168 -0.060927
6 -0.386763 -1.042926 0.240048 -0.366511 -0.082872 0.202183 0.226503 -0.128026 0.306748 0.161322 0.163104 0.478548 -0.410230 -0.246306 0.285210 -0.085557 -0.081158 -0.042175
7 -0.362130 -1.019717 0.196938 -0.388650 -0.119659 0.208417 0.237918 -0.097242 0.369529 0.122706 0.152963 0.505252 -0.392502 -0.285901 0.333408 -0.140560 -0.079778 -0.073992
10 -0.397549 -0.958850 0.235495 -0.368248 -0.053288 0.193966 0.200177 -0.115927 0.319678 0.126368 0.170237 0.510576 -0.419815 -0.206008 0.258000 -0.080737 -0.065921 -0.046405
2 -0.370036 -1.042818 0.227286 -0.394412 -0.108949 0.194374 0.235024 -0.104590 0.306766 0.143140 0.152794 0.505120 -0.382247 -0.260716 0.298146 -0.139177 -0.093665 -0.047777
17 -0.368531 -0.970007 0.238213 -0.344384 -0.124934 0.156772 0.222709 -0.094645 0.334730 0.168234 0.155102 0.473813 -0.374614 -0.234482 0.266198 -0.086589 -0.049327 -0.102093
14 -0.394761 -0.888084 0.284526 -0.361350 -0.047776 0.145839 0.145642 -0.098016 0.252918 0.145328 0.108897 0.442342 -0.378372 -0.214090 0.256959 -0.101034 -0.036807 -0.095921
1 -0.430819 -0.949502 0.283039 -0.377267 -0.049494 0.124292 0.165008 -0.079156 0.303846 0.133656 0.130675 0.458087 -0.362131 -0.218166 0.246142 -0.124603 -0.050886 -0.095385
5 -0.373791 -1.068559 0.196441 -0.383452 -0.085305 0.194681 0.266427 -0.144288 0.356507 0.124844 0.180780 0.505901 -0.417194 -0.252663 0.321327 -0.151497 -0.095877 -0.077722
16 -0.958428 0.146686 1.104391 0.175273 0.334244 -0.768554 -0.055264 0.943510 0.597727 -0.334226 0.474885 0.897650 -0.542016 0.049563 0.866656 -1.177311 -0.235722 -2.243967
4 -0.940894 0.126177 1.082698 0.159328 0.350075 -0.767224 -0.095895 0.960398 0.610773 -0.343053 0.519634 0.903703 -0.504028 -0.000756 0.835230 -1.150684 -0.212471 -2.199534
9 -0.398596 -0.902547 0.221423 -0.357916 -0.055017 0.152827 0.181568 -0.075194 0.331336 0.116941 0.162128 0.500305 -0.372904 -0.238612 0.262561 -0.125520 -0.096074 -0.071974
8 -0.354156 -0.979490 0.244162 -0.344802 -0.125562 0.187634 0.232466 -0.087941 0.308608 0.152465 0.129133 0.434870 -0.394133 -0.251130 0.319828 -0.151975 -0.037699 -0.087358
13 -0.376345 -0.948362 0.269058 -0.396472 -0.093493 0.162654 0.193739 -0.128859 0.299572 0.162120 0.124600 0.429464 -0.374394 -0.265731 0.281428 -0.110756 -0.071957 -0.087244
3 -0.401345 -0.904232 0.297923 -0.347997 -0.087195 0.144842 0.196774 -0.092771 0.247614 0.136195 0.135990 0.383265 -0.394485 -0.270159 0.252636 -0.133865 -0.000242 -0.130605
11 -0.372343 -0.878142 0.237896 -0.318492 -0.071071 0.132263 0.166352 -0.044993 0.309262 0.087279 0.133071 0.421266 -0.357611 -0.209329 0.304664 -0.166008 -0.063148 -0.119967
15 -0.392726 -0.946233 0.233623 -0.366146 -0.074701 0.195160 0.226421 -0.122079 0.313641 0.104721 0.173901 0.462764 -0.359186 -0.202420 0.303162 -0.144580 -0.119129 -0.097077
0 -0.352947 -0.915535 0.240996 -0.360568 -0.129587 0.166204 0.192076 -0.081676 0.285534 0.123248 0.157271 0.404309 -0.343539 -0.242088 0.322007 -0.165530 -0.024832 -0.128314
