18 18
10 -0.177189 -0.493885 0.167264 -0.393158 -0.249554 0.246019 0.162091 0.282894 0.299007 -0.066492 0.274572 0.449057 -0.019001 -0.238432 0.363445 -0.405467 0.196335 -0.298658
0 -0.173979 -0.461682 0.172838 -0.403452 -0.274155 0.185796 0.114238 0.287584 0.235008 -0.040655 0.258497 0.392858 0.026789 -0.274574 0.357078 -0.442104 0.203524 -0.309158
2 -0.152247 -0.459496 0.162712 -0.390632 -0.239539 0.189184 0.146237 0.288424 0.234401 -0.060628 0.240816 0.425915 0.024618 -0.282431 0.339974 -0.450745 0.160810 -0.294207
1 -0.203002 -0.498899 0.196257 -0.396915 -0.227406 0.176118 0.141134 0.280874 0.292514 -0.039885 0.219299 0.406117 0.011664 -0.253719 0.338935 -0.424186 0.176242 -0.309144
6 -0.173168 -0.494369 0.191928 -0.353095 -0.264988 0.217075 0.176366 0.297761 0.267871 -0.020902 0.251958 0.426616 -0.016852 -0.268225 0.377523 -0.413385 0.175038 -0.347480
11 -0.191696 -0.480486 0.180634 -0.375938 -0.229444 0.178357 0.121261 0.295480 0.278533 -0.067395 0.233796 0.419499 -0.001456 -0.248670 0.379121 -0.453181 0.157032 -0.320087
8 -0.162694 -0.484064 0.178792 -0.368417 -0.264710 0.209048 0.156771 0.276498 0.262939 -0.023156 0.228113 0.410055 -0.015629 -0.254422 0.369759 -0.424662 0.190476 -0.303288
3 -0.211122 -0.478585 0.211163 -0.407435 -0.253449 0.185168 0.161130 0.310274 0.230155 -0.067563 0.285096 0.414007 -0.004196 -0.324836 0.337031 -0.483282 0.220761 -0.352015
16 -0.170365 -0.449145 0.172591 -0.360677 -0.252277 0.183082 0.155802 0.268551 0.261872 -0.027371 0.210159 0.415623 -0.010017 -0.220956 0.353601 -0.405841 0.142169 -0.319122
4 -0.183998 -0.443489 0.183177 -0.386174 -0.232343 0.154733 0.109641 0.342979 0.256195 -0.080299 0.283950 0.420835 0.042777 -0.291572 0.331043 -0.463358 0.198986 -0.339662
7 -0.149286 -0.478733 0.154925 -0.380666 -0.285489 0.218353 0.159916 0.299204 0.294580 -0.032905 0.227894 0.429561 -0.000270 -0.284597 0.369323 -0.395451 0.192283 -0.315359
9 -0.177944 -0.449192 0.148018 -0.375724 -0.244640 0.188632 0.133857 0.287268 0.277971 -0.044224 0.248167 0.427983 0.012085 -0.282569 0.335833 -0.427000 0.161503 -0.294085
13 -0.157430 -0.471891 0.183278 -0.401723 -0.254614 0.195327 0.153985 0.263642 0.278847 -0.029745 0.230737 0.403400 0.014565 -0.277975 0.360819 -0.419918 0.153661 -0.321858
17 -0.171130 -0.462451 0.175361 -0.355228 -0.271108 0.167234 0.149698 0.305028 0.269179 -0.028509 0.254197 0.435116 0.024321 -0.245551 0.329492 -0.400710 0.181048 -0.331754
15 -0.189031 -0.449696 0.181488 -0.387116 -0.213812 0.202861 0.143771 0.232025 0.242377 -0.064921 0.243887 0.379436 0.014014 -0.233571 0.329363 -0.409152 0.140783 -0.302216
5 -0.152930 -0.453088 0.133164 -0.356143 -0.202949 0.163923 0.153760 0.242929 0.264465 -0.067377 0.248380 0.402164 -0.005926 -0.243244 0.330709 -0.417694 0.149484 -0.311883
14 -0.181628 -0.465275 0.198268 -0.389481 -0.224958 0.193496 0.121911 0.264754 0.231169 -0.031678 0.212160 0.404913 -0.003695 -0.254958 0.329070 -0.393546 0.188727 -0.298664
12 -0.195355 -0.471607 0.174152 -0.387580 -0.257589 0.186231 0.125781 0.245134 0.243754 -0.023308 0.269002 0.434903 -0.007062 -0.235407 0.344138 -0.386909 0.147538 -0.297945
