18 18
3 -0.369995 -0.413972 0.498422 -0.316793 -0.178531 0.005893 0.381613 -0.152558 -0.009530 0.172167 0.041451 0.146368 -0.212428 -0.225195 0.173912 -0.277663 -0.119168 -0.545396
13 -0.320430 -0.408026 0.468404 -0.367775 -0.205572 0.023017 0.369427 -0.190885 0.037603 0.201734 0.017173 0.157108 -0.169902 -0.202407 0.213310 -0.259372 -0.173488 -0.536294
1 -0.387191 -0.463611 0.526556 -0.361216 -0.172148 -0.017795 0.368663 -0.136156 0.036192 0.188746 0.002835 0.135594 -0.162953 -0.236190 0.171643 -0.287216 -0.132172 -0.539311
7 -0.308995 -0.432396 0.451779 -0.341444 -0.234717 0.035801 0.424001 -0.155623 0.067654 0.184885 0.035705 0.203517 -0.182908 -0.233033 0.227723 -0.277412 -0.158053 -0.586498
15 -0.362482 -0.432023 0.497956 -0.350242 -0.180567 0.046979 0.407360 -0.187441 0.020596 0.170632 0.045208 0.149897 -0.180402 -0.209629 0.203549 -0.285664 -0.175035 -0.567762
2 -0.295513 -0.433865 0.456673 -0.314892 -0.205944 0.012168 0.418981 -0.131632 0.014899 0.182511 0.035671 0.199663 -0.164210 -0.237514 0.197609 -0.301080 -0.188071 -0.560579
12 -0.354743 -0.410250 0.432584 -0.353272 -0.213830 0.018767 0.314058 -0.187173 0.023863 0.189401 0.064076 0.214349 -0.184834 -0.120378 0.202843 -0.212718 -0.153674 -0.482162
8 -0.353777 -0.459951 0.512930 -0.306508 -0.179265 0.017805 0.381409 -0.141765 -0.006325 0.201159 0.015500 0.128295 -0.194946 -0.244300 0.195370 -0.289427 -0.144552 -0.515611
6 -0.348741 -0.463911 0.511037 -0.319959 -0.202987 0.025080 0.437352 -0.143556 0.031796 0.194454 0.047235 0.177592 -0.203755 -0.245066 0.225316 -0.298090 -0.176088 -0.612510
16 -0.252084 -0.293005 0.306872 -0.407849 -0.330251 0.132943 0.379354 -0.218919 0.139936 0.152708 0.075074 0.329182 -0.226530 0.062497 0.303039 -0.196961 -0.077249 -0.531376
10 -0.287786 -0.378934 0.374062 -0.394340 -0.269545 0.129250 0.412624 -0.210379 0.117670 0.147167 0.087850 0.280056 -0.224590 -0.045213 0.252002 -0.205810 -0.095341 -0.515237
5 -0.337866 -0.474764 0.465703 -0.335768 -0.185532 0.009971 0.445165 -0.186739 0.056762 0.177156 0.061159 0.212649 -0.216696 -0.215955 0.228003 -0.315323 -0.185300 -0.612020
11 -0.346396 -0.426679 0.454999 -0.329359 -0.191464 0.024634 0.351838 -0.145949 0.058233 0.156969 0.038819 0.198520 -0.201739 -0.153748 0.240108 -0.280717 -0.164571 -0.535128
14 -0.357199 -0.437998 0.485406 -0.382649 -0.193816 0.041852 0.354406 -0.188815 0.031951 0.199357 0.014041 0.217692 -0.201084 -0.156970 0.214582 -0.241633 -0.135830 -0.534358
0 -0.280742 -0.359260 0.358251 -0.426869 -0.316930 0.119510 0.376648 -0.214348 0.101993 0.164792 0.095500 0.274987 -0.197460 -0.046674 0.285574 -0.232134 -0.063110 -0.542825
9 -0.375380 -0.441939 0.479896 -0.360739 -0.198887 0.029654 0.390095 -0.151222 0.047571 0.179535 0.040988 0.187233 -0.197734 -0.237173 0.198424 -0.289048 -0.154278 -0.526480
17 -0.332364 -0.412245 0.457152 -0.315538 -0.221938 0.004431 0.386951 -0.146677 0.065968 0.197362 0.049384 0.201417 -0.161937 -0.167848 0.179708 -0.234302 -0.141527 -0.555392
4 -0.000863 0.026536 0.000487 0.011658 0.016931 -0.018308 -0.024615 0.027506 0.003913 -0.015616 0.024595 0.006644 0.019102 -0.007194 -0.007301 -0.006238 0.005807 -0.017039
